instance,lable,predicted,tp,tn,fp,fn,correctness
0,-1,-1,0,1,0,0,1.0
1,-1,-1,0,2,0,0,1.0
2,-1,-1,0,3,0,0,1.0
3,-1,-1,0,4,0,0,1.0
4,1,-1,0,4,0,1,0.8
5,1,-1,0,4,0,2,0.6666666666666666
6,-1,1,0,4,1,2,0.5714285714285714
7,1,-1,0,4,1,3,0.5
8,-1,-1,0,5,1,3,0.5555555555555556
9,-1,-1,0,6,1,3,0.6
10,-1,-1,0,7,1,3,0.6363636363636364
11,-1,-1,0,8,1,3,0.6666666666666666
12,-1,-1,0,9,1,3,0.6923076923076923
13,-1,-1,0,10,1,3,0.7142857142857143
14,-1,-1,0,11,1,3,0.7333333333333333
15,-1,-1,0,12,1,3,0.75
16,-1,-1,0,13,1,3,0.7647058823529411
17,-1,-1,0,14,1,3,0.7777777777777778
18,-1,-1,0,15,1,3,0.7894736842105263
19,1,-1,0,15,1,4,0.75
20,-1,-1,0,16,1,4,0.7619047619047619
21,-1,-1,0,17,1,4,0.7727272727272727
22,-1,-1,0,18,1,4,0.782608695652174
23,-1,-1,0,19,1,4,0.7916666666666666
24,-1,-1,0,20,1,4,0.8
25,-1,-1,0,21,1,4,0.8076923076923077
26,-1,-1,0,22,1,4,0.8148148148148148
27,-1,-1,0,23,1,4,0.8214285714285714
28,-1,-1,0,24,1,4,0.8275862068965517
29,1,1,1,24,1,4,0.8333333333333334
30,1,-1,1,24,1,5,0.8064516129032258
31,-1,-1,1,25,1,5,0.8125
32,-1,-1,1,26,1,5,0.8181818181818182
33,-1,-1,1,27,1,5,0.8235294117647058
34,-1,-1,1,28,1,5,0.8285714285714286
35,-1,-1,1,29,1,5,0.8333333333333334
36,-1,-1,1,30,1,5,0.8378378378378378
37,-1,-1,1,31,1,5,0.8421052631578947
38,-1,-1,1,32,1,5,0.8461538461538461
39,-1,-1,1,33,1,5,0.85
40,-1,-1,1,34,1,5,0.8536585365853658
41,1,1,2,34,1,5,0.8571428571428571
42,-1,-1,2,35,1,5,0.8604651162790697
43,1,-1,2,35,1,6,0.8409090909090909
44,-1,-1,2,36,1,6,0.8444444444444444
45,-1,-1,2,37,1,6,0.8478260869565217
46,-1,-1,2,38,1,6,0.851063829787234
47,-1,-1,2,39,1,6,0.8541666666666666
48,-1,-1,2,40,1,6,0.8571428571428571
49,1,-1,2,40,1,7,0.84
50,-1,-1,2,41,1,7,0.8431372549019608
51,-1,-1,2,42,1,7,0.8461538461538461
52,-1,-1,2,43,1,7,0.8490566037735849
53,-1,-1,2,44,1,7,0.8518518518518519
54,-1,-1,2,45,1,7,0.8545454545454545
55,-1,-1,2,46,1,7,0.8571428571428571
56,-1,-1,2,47,1,7,0.8596491228070176
57,-1,-1,2,48,1,7,0.8620689655172413
58,-1,-1,2,49,1,7,0.864406779661017
59,1,-1,2,49,1,8,0.85
60,-1,-1,2,50,1,8,0.8524590163934426
61,-1,-1,2,51,1,8,0.8548387096774194
62,1,-1,2,51,1,9,0.8412698412698413
63,-1,-1,2,52,1,9,0.84375
64,1,-1,2,52,1,10,0.8307692307692308
65,-1,-1,2,53,1,10,0.8333333333333334
66,-1,-1,2,54,1,10,0.835820895522388
67,-1,-1,2,55,1,10,0.8382352941176471
68,-1,-1,2,56,1,10,0.8405797101449275
69,-1,-1,2,57,1,10,0.8428571428571429
70,-1,-1,2,58,1,10,0.8450704225352113
71,1,-1,2,58,1,11,0.8333333333333334
72,-1,-1,2,59,1,11,0.8356164383561644
73,-1,-1,2,60,1,11,0.8378378378378378
74,-1,-1,2,61,1,11,0.84
75,-1,-1,2,62,1,11,0.8421052631578947
76,-1,-1,2,63,1,11,0.8441558441558441
77,-1,-1,2,64,1,11,0.8461538461538461
78,-1,-1,2,65,1,11,0.8481012658227848
79,-1,-1,2,66,1,11,0.85
80,-1,-1,2,67,1,11,0.8518518518518519
81,-1,-1,2,68,1,11,0.8536585365853658
82,-1,-1,2,69,1,11,0.8554216867469879
83,-1,-1,2,70,1,11,0.8571428571428571
84,-1,-1,2,71,1,11,0.8588235294117647
85,-1,-1,2,72,1,11,0.8604651162790697
86,-1,-1,2,73,1,11,0.8620689655172413
87,-1,-1,2,74,1,11,0.8636363636363636
88,-1,-1,2,75,1,11,0.8651685393258427
89,-1,-1,2,76,1,11,0.8666666666666667
90,-1,-1,2,77,1,11,0.8681318681318682
91,-1,-1,2,78,1,11,0.8695652173913043
92,-1,-1,2,79,1,11,0.8709677419354839
93,1,-1,2,79,1,12,0.8617021276595744
94,-1,-1,2,80,1,12,0.8631578947368421
95,1,-1,2,80,1,13,0.8541666666666666
96,1,-1,2,80,1,14,0.845360824742268
97,-1,-1,2,81,1,14,0.8469387755102041
98,-1,-1,2,82,1,14,0.8484848484848485
99,-1,-1,2,83,1,14,0.85
100,-1,-1,2,84,1,14,0.8514851485148515
101,-1,-1,2,85,1,14,0.8529411764705882
102,1,1,3,85,1,14,0.8543689320388349
103,-1,-1,3,86,1,14,0.8557692307692307
104,-1,-1,3,87,1,14,0.8571428571428571
105,-1,-1,3,88,1,14,0.8584905660377359
106,-1,-1,3,89,1,14,0.8598130841121495
107,1,-1,3,89,1,15,0.8518518518518519
108,-1,-1,3,90,1,15,0.8532110091743119
109,-1,-1,3,91,1,15,0.8545454545454545
110,-1,1,3,91,2,15,0.8468468468468469
111,-1,-1,3,92,2,15,0.8482142857142857
112,1,-1,3,92,2,16,0.8407079646017699
113,-1,-1,3,93,2,16,0.8421052631578947
114,-1,-1,3,94,2,16,0.8434782608695652
115,-1,-1,3,95,2,16,0.8448275862068966
116,-1,-1,3,96,2,16,0.8461538461538461
117,-1,-1,3,97,2,16,0.847457627118644
118,-1,-1,3,98,2,16,0.8487394957983193
119,-1,-1,3,99,2,16,0.85
120,-1,-1,3,100,2,16,0.8512396694214877
121,-1,-1,3,101,2,16,0.8524590163934426
122,-1,-1,3,102,2,16,0.8536585365853658
123,-1,-1,3,103,2,16,0.8548387096774194
124,-1,-1,3,104,2,16,0.856
125,-1,-1,3,105,2,16,0.8571428571428571
126,-1,-1,3,106,2,16,0.8582677165354331
127,-1,-1,3,107,2,16,0.859375
128,-1,-1,3,108,2,16,0.8604651162790697
129,-1,-1,3,109,2,16,0.8615384615384616
130,-1,-1,3,110,2,16,0.8625954198473282
131,-1,-1,3,111,2,16,0.8636363636363636
132,-1,-1,3,112,2,16,0.8646616541353384
133,-1,-1,3,113,2,16,0.8656716417910447
134,-1,-1,3,114,2,16,0.8666666666666667
135,-1,-1,3,115,2,16,0.8676470588235294
136,-1,-1,3,116,2,16,0.8686131386861314
137,-1,-1,3,117,2,16,0.8695652173913043
138,-1,1,3,117,3,16,0.8633093525179856
139,-1,-1,3,118,3,16,0.8642857142857143
140,1,-1,3,118,3,17,0.8581560283687943
141,-1,-1,3,119,3,17,0.8591549295774648
142,1,-1,3,119,3,18,0.8531468531468531
143,-1,-1,3,120,3,18,0.8541666666666666
144,-1,-1,3,121,3,18,0.8551724137931035
145,-1,-1,3,122,3,18,0.8561643835616438
146,1,-1,3,122,3,19,0.8503401360544217
147,-1,-1,3,123,3,19,0.8513513513513513
148,-1,-1,3,124,3,19,0.8523489932885906
149,-1,-1,3,125,3,19,0.8533333333333334
150,-1,-1,3,126,3,19,0.8543046357615894
151,-1,-1,3,127,3,19,0.8552631578947368
152,1,-1,3,127,3,20,0.8496732026143791
153,-1,-1,3,128,3,20,0.8506493506493507
154,-1,-1,3,129,3,20,0.8516129032258064
155,-1,-1,3,130,3,20,0.8525641025641025
156,-1,-1,3,131,3,20,0.8535031847133758
157,-1,-1,3,132,3,20,0.8544303797468354
158,-1,-1,3,133,3,20,0.8553459119496856
159,-1,-1,3,134,3,20,0.85625
160,-1,-1,3,135,3,20,0.8571428571428571
161,-1,-1,3,136,3,20,0.8580246913580247
162,1,-1,3,136,3,21,0.852760736196319
163,1,-1,3,136,3,22,0.8475609756097561
164,-1,-1,3,137,3,22,0.8484848484848485
165,-1,-1,3,138,3,22,0.8493975903614458
166,-1,-1,3,139,3,22,0.8502994011976048
167,-1,-1,3,140,3,22,0.8511904761904762
168,-1,-1,3,141,3,22,0.8520710059171598
169,-1,-1,3,142,3,22,0.8529411764705882
170,-1,-1,3,143,3,22,0.8538011695906432
171,-1,-1,3,144,3,22,0.8546511627906976
172,-1,-1,3,145,3,22,0.8554913294797688
173,-1,-1,3,146,3,22,0.8563218390804598
174,-1,-1,3,147,3,22,0.8571428571428571
175,-1,-1,3,148,3,22,0.8579545454545454
176,-1,-1,3,149,3,22,0.8587570621468926
177,-1,-1,3,150,3,22,0.8595505617977528
178,-1,-1,3,151,3,22,0.8603351955307262
179,-1,-1,3,152,3,22,0.8611111111111112
180,-1,-1,3,153,3,22,0.861878453038674
181,-1,-1,3,154,3,22,0.8626373626373627
182,-1,-1,3,155,3,22,0.8633879781420765
183,-1,-1,3,156,3,22,0.8641304347826086
184,-1,-1,3,157,3,22,0.8648648648648649
185,-1,-1,3,158,3,22,0.8655913978494624
186,1,1,4,158,3,22,0.8663101604278075
187,-1,-1,4,159,3,22,0.8670212765957447
188,-1,-1,4,160,3,22,0.8677248677248677
189,-1,-1,4,161,3,22,0.868421052631579
190,-1,-1,4,162,3,22,0.8691099476439791
191,-1,-1,4,163,3,22,0.8697916666666666
192,-1,-1,4,164,3,22,0.8704663212435233
193,-1,-1,4,165,3,22,0.8711340206185567
194,-1,-1,4,166,3,22,0.8717948717948718
195,-1,-1,4,167,3,22,0.8724489795918368
196,-1,-1,4,168,3,22,0.8730964467005076
197,-1,-1,4,169,3,22,0.8737373737373737
198,-1,-1,4,170,3,22,0.8743718592964824
199,-1,-1,4,171,3,22,0.875
200,-1,-1,4,172,3,22,0.8756218905472637
201,-1,-1,4,173,3,22,0.8762376237623762
202,-1,-1,4,174,3,22,0.8768472906403941
203,-1,-1,4,175,3,22,0.8774509803921569
204,-1,-1,4,176,3,22,0.8780487804878049
205,-1,-1,4,177,3,22,0.8786407766990292
206,-1,-1,4,178,3,22,0.8792270531400966
207,-1,-1,4,179,3,22,0.8798076923076923
208,-1,-1,4,180,3,22,0.8803827751196173
209,-1,-1,4,181,3,22,0.8809523809523809
210,-1,-1,4,182,3,22,0.8815165876777251
211,-1,-1,4,183,3,22,0.8820754716981132
212,-1,-1,4,184,3,22,0.8826291079812206
213,-1,-1,4,185,3,22,0.883177570093458
214,-1,-1,4,186,3,22,0.8837209302325582
215,-1,-1,4,187,3,22,0.8842592592592593
216,-1,-1,4,188,3,22,0.8847926267281107
217,-1,-1,4,189,3,22,0.8853211009174312
218,-1,-1,4,190,3,22,0.8858447488584474
219,-1,-1,4,191,3,22,0.8863636363636364
220,-1,-1,4,192,3,22,0.8868778280542986
221,1,-1,4,192,3,23,0.8828828828828829
222,-1,-1,4,193,3,23,0.8834080717488789
223,-1,-1,4,194,3,23,0.8839285714285714
224,-1,-1,4,195,3,23,0.8844444444444445
225,-1,-1,4,196,3,23,0.8849557522123894
226,1,-1,4,196,3,24,0.8810572687224669
227,-1,-1,4,197,3,24,0.881578947368421
228,-1,-1,4,198,3,24,0.8820960698689956
229,1,-1,4,198,3,25,0.8782608695652174
230,-1,-1,4,199,3,25,0.8787878787878788
231,-1,-1,4,200,3,25,0.8793103448275862
232,-1,-1,4,201,3,25,0.8798283261802575
233,-1,-1,4,202,3,25,0.8803418803418803
234,-1,-1,4,203,3,25,0.8808510638297873
235,-1,-1,4,204,3,25,0.8813559322033898
236,-1,-1,4,205,3,25,0.8818565400843882
237,-1,-1,4,206,3,25,0.8823529411764706
238,-1,-1,4,207,3,25,0.8828451882845189
239,-1,-1,4,208,3,25,0.8833333333333333
240,-1,-1,4,209,3,25,0.8838174273858921
241,-1,-1,4,210,3,25,0.8842975206611571
242,-1,-1,4,211,3,25,0.8847736625514403
243,-1,-1,4,212,3,25,0.8852459016393442
244,-1,-1,4,213,3,25,0.8857142857142857
245,-1,-1,4,214,3,25,0.8861788617886179
246,-1,-1,4,215,3,25,0.8866396761133604
247,-1,-1,4,216,3,25,0.8870967741935484
248,-1,-1,4,217,3,25,0.8875502008032129
249,-1,1,4,217,4,25,0.884
250,-1,-1,4,218,4,25,0.8844621513944223
251,-1,-1,4,219,4,25,0.8849206349206349
252,-1,-1,4,220,4,25,0.8853754940711462
253,-1,-1,4,221,4,25,0.8858267716535433
254,-1,-1,4,222,4,25,0.8862745098039215
255,-1,-1,4,223,4,25,0.88671875
256,-1,-1,4,224,4,25,0.8871595330739299
257,-1,-1,4,225,4,25,0.8875968992248062
258,-1,-1,4,226,4,25,0.888030888030888
259,-1,-1,4,227,4,25,0.8884615384615384
260,-1,-1,4,228,4,25,0.8888888888888888
261,-1,-1,4,229,4,25,0.8893129770992366
262,-1,-1,4,230,4,25,0.8897338403041825
263,-1,-1,4,231,4,25,0.8901515151515151
264,-1,-1,4,232,4,25,0.8905660377358491
265,-1,-1,4,233,4,25,0.8909774436090225
266,-1,-1,4,234,4,25,0.8913857677902621
267,-1,-1,4,235,4,25,0.8917910447761194
268,-1,-1,4,236,4,25,0.8921933085501859
269,-1,-1,4,237,4,25,0.8925925925925926
270,-1,-1,4,238,4,25,0.8929889298892989
271,-1,-1,4,239,4,25,0.8933823529411765
272,1,-1,4,239,4,26,0.8901098901098901
273,-1,-1,4,240,4,26,0.8905109489051095
274,-1,-1,4,241,4,26,0.8909090909090909
275,-1,-1,4,242,4,26,0.8913043478260869
276,-1,-1,4,243,4,26,0.8916967509025271
277,-1,-1,4,244,4,26,0.8920863309352518
278,-1,-1,4,245,4,26,0.8924731182795699
279,-1,-1,4,246,4,26,0.8928571428571429
280,-1,-1,4,247,4,26,0.8932384341637011
281,-1,-1,4,248,4,26,0.8936170212765957
282,1,-1,4,248,4,27,0.8904593639575972
283,-1,-1,4,249,4,27,0.8908450704225352
284,-1,-1,4,250,4,27,0.8912280701754386
285,-1,-1,4,251,4,27,0.8916083916083916
286,-1,-1,4,252,4,27,0.89198606271777
287,-1,-1,4,253,4,27,0.8923611111111112
288,-1,-1,4,254,4,27,0.8927335640138409
289,-1,-1,4,255,4,27,0.8931034482758621
290,-1,-1,4,256,4,27,0.8934707903780069
291,-1,-1,4,257,4,27,0.8938356164383562
292,1,-1,4,257,4,28,0.8907849829351536
293,-1,-1,4,258,4,28,0.891156462585034
294,-1,-1,4,259,4,28,0.8915254237288136
295,-1,-1,4,260,4,28,0.8918918918918919
296,1,-1,4,260,4,29,0.8888888888888888
297,-1,-1,4,261,4,29,0.889261744966443
298,-1,-1,4,262,4,29,0.8896321070234113
299,1,-1,4,262,4,30,0.8866666666666667
300,1,-1,4,262,4,31,0.8837209302325582
301,1,-1,4,262,4,32,0.8807947019867549
302,-1,-1,4,263,4,32,0.8811881188118812
303,-1,-1,4,264,4,32,0.881578947368421
304,1,-1,4,264,4,33,0.8786885245901639
305,-1,-1,4,265,4,33,0.8790849673202614
306,-1,-1,4,266,4,33,0.8794788273615635
307,-1,-1,4,267,4,33,0.8798701298701299
308,-1,-1,4,268,4,33,0.8802588996763754
309,1,-1,4,268,4,34,0.8774193548387097
310,-1,-1,4,269,4,34,0.8778135048231511
311,1,-1,4,269,4,35,0.875
312,-1,-1,4,270,4,35,0.8753993610223643
313,-1,-1,4,271,4,35,0.8757961783439491
314,-1,-1,4,272,4,35,0.8761904761904762
315,-1,-1,4,273,4,35,0.8765822784810127
316,-1,-1,4,274,4,35,0.8769716088328076
317,-1,-1,4,275,4,35,0.8773584905660378
318,-1,-1,4,276,4,35,0.877742946708464
319,-1,-1,4,277,4,35,0.878125
320,-1,-1,4,278,4,35,0.8785046728971962
321,-1,-1,4,279,4,35,0.8788819875776398
322,-1,1,4,279,5,35,0.8761609907120743
323,-1,-1,4,280,5,35,0.8765432098765432
324,-1,-1,4,281,5,35,0.8769230769230769
325,-1,-1,4,282,5,35,0.8773006134969326
326,-1,-1,4,283,5,35,0.8776758409785933
327,-1,-1,4,284,5,35,0.8780487804878049
328,-1,-1,4,285,5,35,0.878419452887538
329,1,-1,4,285,5,36,0.8757575757575757
330,-1,-1,4,286,5,36,0.8761329305135952
331,-1,-1,4,287,5,36,0.8765060240963856
332,-1,-1,4,288,5,36,0.8768768768768769
333,1,-1,4,288,5,37,0.874251497005988
334,1,-1,4,288,5,38,0.8716417910447761
335,-1,1,4,288,6,38,0.8690476190476191
336,-1,-1,4,289,6,38,0.8694362017804155
337,-1,-1,4,290,6,38,0.8698224852071006
338,-1,-1,4,291,6,38,0.8702064896755162
339,-1,-1,4,292,6,38,0.8705882352941177
340,-1,-1,4,293,6,38,0.8709677419354839
341,1,-1,4,293,6,39,0.868421052631579
342,-1,-1,4,294,6,39,0.8688046647230321
343,-1,-1,4,295,6,39,0.8691860465116279
344,-1,-1,4,296,6,39,0.8695652173913043
345,-1,-1,4,297,6,39,0.869942196531792
346,-1,-1,4,298,6,39,0.8703170028818443
347,1,-1,4,298,6,40,0.867816091954023
348,-1,-1,4,299,6,40,0.8681948424068768
349,-1,-1,4,300,6,40,0.8685714285714285
350,-1,-1,4,301,6,40,0.8689458689458689
351,-1,-1,4,302,6,40,0.8693181818181818
352,-1,-1,4,303,6,40,0.8696883852691218
353,-1,-1,4,304,6,40,0.8700564971751412
354,-1,-1,4,305,6,40,0.8704225352112676
355,-1,-1,4,306,6,40,0.8707865168539326
356,-1,-1,4,307,6,40,0.8711484593837535
357,-1,-1,4,308,6,40,0.8715083798882681
358,-1,-1,4,309,6,40,0.871866295264624
359,-1,-1,4,310,6,40,0.8722222222222222
360,-1,-1,4,311,6,40,0.8725761772853186
361,-1,-1,4,312,6,40,0.8729281767955801
362,-1,-1,4,313,6,40,0.8732782369146006
363,-1,-1,4,314,6,40,0.8736263736263736
364,-1,-1,4,315,6,40,0.873972602739726
365,-1,-1,4,316,6,40,0.8743169398907104
366,-1,-1,4,317,6,40,0.8746594005449592
367,-1,-1,4,318,6,40,0.875
368,-1,-1,4,319,6,40,0.8753387533875339
369,-1,-1,4,320,6,40,0.8756756756756757
370,-1,-1,4,321,6,40,0.876010781671159
371,-1,-1,4,322,6,40,0.8763440860215054
372,-1,-1,4,323,6,40,0.8766756032171582
373,-1,-1,4,324,6,40,0.8770053475935828
374,-1,-1,4,325,6,40,0.8773333333333333
375,-1,-1,4,326,6,40,0.8776595744680851
376,-1,-1,4,327,6,40,0.8779840848806366
377,-1,-1,4,328,6,40,0.8783068783068783
378,-1,-1,4,329,6,40,0.8786279683377308
379,1,1,5,329,6,40,0.8789473684210526
380,1,-1,5,329,6,41,0.8766404199475065
381,-1,-1,5,330,6,41,0.8769633507853403
382,-1,-1,5,331,6,41,0.8772845953002611
383,-1,-1,5,332,6,41,0.8776041666666666
384,-1,-1,5,333,6,41,0.8779220779220779
385,-1,-1,5,334,6,41,0.8782383419689119
386,-1,-1,5,335,6,41,0.8785529715762274
387,-1,1,5,335,7,41,0.8762886597938144
388,-1,-1,5,336,7,41,0.8766066838046273
389,-1,-1,5,337,7,41,0.8769230769230769
390,-1,-1,5,338,7,41,0.8772378516624041
391,-1,-1,5,339,7,41,0.8775510204081632
392,1,-1,5,339,7,42,0.8753180661577609
393,-1,-1,5,340,7,42,0.8756345177664975
394,-1,-1,5,341,7,42,0.8759493670886076
395,1,1,6,341,7,42,0.8762626262626263
396,-1,-1,6,342,7,42,0.8765743073047859
397,-1,-1,6,343,7,42,0.8768844221105527
398,-1,-1,6,344,7,42,0.8771929824561403
399,-1,-1,6,345,7,42,0.8775
400,-1,-1,6,346,7,42,0.8778054862842892
401,-1,-1,6,347,7,42,0.8781094527363185
402,-1,-1,6,348,7,42,0.8784119106699751
403,-1,-1,6,349,7,42,0.8787128712871287
404,-1,-1,6,350,7,42,0.8790123456790123
405,-1,-1,6,351,7,42,0.8793103448275862
406,-1,-1,6,352,7,42,0.8796068796068796
407,-1,-1,6,353,7,42,0.8799019607843137
408,-1,-1,6,354,7,42,0.8801955990220048
409,-1,-1,6,355,7,42,0.8804878048780488
410,-1,-1,6,356,7,42,0.8807785888077859
411,-1,-1,6,357,7,42,0.8810679611650486
412,-1,-1,6,358,7,42,0.8813559322033898
413,1,-1,6,358,7,43,0.8792270531400966
414,-1,-1,6,359,7,43,0.8795180722891566
415,-1,-1,6,360,7,43,0.8798076923076923
416,-1,-1,6,361,7,43,0.8800959232613909
417,-1,-1,6,362,7,43,0.8803827751196173
418,-1,-1,6,363,7,43,0.8806682577565632
419,-1,-1,6,364,7,43,0.8809523809523809
420,-1,-1,6,365,7,43,0.8812351543942993
421,-1,-1,6,366,7,43,0.8815165876777251
422,-1,-1,6,367,7,43,0.8817966903073287
423,-1,-1,6,368,7,43,0.8820754716981132
424,-1,-1,6,369,7,43,0.8823529411764706
425,-1,-1,6,370,7,43,0.8826291079812206
426,-1,-1,6,371,7,43,0.882903981264637
427,-1,-1,6,372,7,43,0.883177570093458
428,-1,-1,6,373,7,43,0.8834498834498834
429,1,-1,6,373,7,44,0.8813953488372093
430,-1,-1,6,374,7,44,0.8816705336426914
431,-1,-1,6,375,7,44,0.8819444444444444
432,-1,-1,6,376,7,44,0.8822170900692841
433,-1,-1,6,377,7,44,0.8824884792626728
434,-1,-1,6,378,7,44,0.8827586206896552
435,-1,-1,6,379,7,44,0.8830275229357798
436,-1,-1,6,380,7,44,0.8832951945080092
437,-1,-1,6,381,7,44,0.8835616438356164
438,-1,-1,6,382,7,44,0.8838268792710706
439,-1,1,6,382,8,44,0.8818181818181818
440,-1,-1,6,383,8,44,0.8820861678004536
441,-1,-1,6,384,8,44,0.8823529411764706
442,-1,-1,6,385,8,44,0.8826185101580135
443,-1,-1,6,386,8,44,0.8828828828828829
444,-1,-1,6,387,8,44,0.8831460674157303
445,-1,-1,6,388,8,44,0.8834080717488789
446,-1,-1,6,389,8,44,0.883668903803132
447,-1,-1,6,390,8,44,0.8839285714285714
448,-1,-1,6,391,8,44,0.8841870824053452
449,-1,-1,6,392,8,44,0.8844444444444445
450,-1,-1,6,393,8,44,0.88470066518847
451,-1,-1,6,394,8,44,0.8849557522123894
452,-1,-1,6,395,8,44,0.8852097130242825
453,-1,-1,6,396,8,44,0.8854625550660793
454,-1,-1,6,397,8,44,0.8857142857142857
455,-1,-1,6,398,8,44,0.8859649122807017
456,-1,-1,6,399,8,44,0.8862144420131292
457,-1,-1,6,400,8,44,0.8864628820960698
458,-1,-1,6,401,8,44,0.8867102396514162
459,1,-1,6,401,8,45,0.8847826086956522
460,-1,-1,6,402,8,45,0.8850325379609545
461,1,-1,6,402,8,46,0.8831168831168831
462,-1,-1,6,403,8,46,0.8833693304535637
463,-1,-1,6,404,8,46,0.8836206896551724
464,-1,-1,6,405,8,46,0.8838709677419355
465,-1,-1,6,406,8,46,0.8841201716738197
466,-1,-1,6,407,8,46,0.8843683083511777
467,-1,-1,6,408,8,46,0.8846153846153846
468,-1,-1,6,409,8,46,0.8848614072494669
469,-1,-1,6,410,8,46,0.8851063829787233
470,-1,-1,6,411,8,46,0.8853503184713376
471,-1,-1,6,412,8,46,0.885593220338983
472,-1,-1,6,413,8,46,0.8858350951374208
473,-1,-1,6,414,8,46,0.8860759493670886
474,-1,-1,6,415,8,46,0.8863157894736842
475,-1,-1,6,416,8,46,0.8865546218487395
476,1,-1,6,416,8,47,0.8846960167714885
477,-1,-1,6,417,8,47,0.8849372384937239
478,-1,-1,6,418,8,47,0.8851774530271399
479,-1,-1,6,419,8,47,0.8854166666666666
480,-1,-1,6,420,8,47,0.8856548856548857
481,1,-1,6,420,8,48,0.8838174273858921
482,-1,-1,6,421,8,48,0.8840579710144928
483,-1,-1,6,422,8,48,0.8842975206611571
484,-1,-1,6,423,8,48,0.8845360824742268
485,-1,-1,6,424,8,48,0.8847736625514403
486,-1,-1,6,425,8,48,0.8850102669404517
487,-1,-1,6,426,8,48,0.8852459016393442
488,-1,-1,6,427,8,48,0.885480572597137
489,-1,-1,6,428,8,48,0.8857142857142857
490,-1,-1,6,429,8,48,0.8859470468431772
491,-1,-1,6,430,8,48,0.8861788617886179
492,-1,-1,6,431,8,48,0.8864097363083164
493,-1,-1,6,432,8,48,0.8866396761133604
494,-1,-1,6,433,8,48,0.8868686868686869
495,-1,-1,6,434,8,48,0.8870967741935484
496,-1,-1,6,435,8,48,0.8873239436619719
497,-1,-1,6,436,8,48,0.8875502008032129
498,-1,-1,6,437,8,48,0.8877755511022044
499,-1,-1,6,438,8,48,0.888
500,-1,-1,6,439,8,48,0.8882235528942116
501,1,-1,6,439,8,49,0.8864541832669323
502,-1,-1,6,440,8,49,0.8866799204771372
503,-1,-1,6,441,8,49,0.8869047619047619
504,-1,-1,6,442,8,49,0.8871287128712871
505,-1,-1,6,443,8,49,0.8873517786561265
506,-1,-1,6,444,8,49,0.8875739644970414
507,-1,-1,6,445,8,49,0.8877952755905512
508,-1,-1,6,446,8,49,0.888015717092338
509,-1,-1,6,447,8,49,0.888235294117647
510,-1,-1,6,448,8,49,0.8884540117416829
511,1,1,7,448,8,49,0.888671875
512,1,-1,7,448,8,50,0.8869395711500975
513,-1,-1,7,449,8,50,0.8871595330739299
514,-1,-1,7,450,8,50,0.887378640776699
515,-1,-1,7,451,8,50,0.8875968992248062
516,-1,-1,7,452,8,50,0.8878143133462283
517,-1,-1,7,453,8,50,0.888030888030888
518,-1,-1,7,454,8,50,0.8882466281310212
519,-1,-1,7,455,8,50,0.8884615384615384
520,-1,-1,7,456,8,50,0.8886756238003839
521,-1,-1,7,457,8,50,0.8888888888888888
522,-1,-1,7,458,8,50,0.8891013384321224
523,-1,-1,7,459,8,50,0.8893129770992366
524,-1,-1,7,460,8,50,0.8895238095238095
525,-1,-1,7,461,8,50,0.8897338403041825
526,-1,-1,7,462,8,50,0.889943074003795
527,-1,-1,7,463,8,50,0.8901515151515151
528,-1,-1,7,464,8,50,0.8903591682419659
529,1,-1,7,464,8,51,0.8886792452830189
530,-1,-1,7,465,8,51,0.8888888888888888
531,-1,-1,7,466,8,51,0.8890977443609023
532,-1,-1,7,467,8,51,0.8893058161350844
533,-1,-1,7,468,8,51,0.8895131086142322
534,1,-1,7,468,8,52,0.8878504672897196
535,1,-1,7,468,8,53,0.8861940298507462
536,1,1,8,468,8,53,0.8864059590316573
537,-1,-1,8,469,8,53,0.8866171003717472
538,-1,-1,8,470,8,53,0.8868274582560297
539,-1,-1,8,471,8,53,0.8870370370370371
540,-1,-1,8,472,8,53,0.8872458410351202
541,-1,-1,8,473,8,53,0.8874538745387454
542,1,-1,8,473,8,54,0.8858195211786372
543,-1,-1,8,474,8,54,0.8860294117647058
544,-1,-1,8,475,8,54,0.8862385321100917
545,-1,-1,8,476,8,54,0.8864468864468864
546,-1,-1,8,477,8,54,0.886654478976234
547,1,-1,8,477,8,55,0.885036496350365
548,-1,-1,8,478,8,55,0.8852459016393442
549,-1,-1,8,479,8,55,0.8854545454545455
550,-1,-1,8,480,8,55,0.8856624319419237
551,-1,-1,8,481,8,55,0.8858695652173914
552,-1,-1,8,482,8,55,0.8860759493670886
553,-1,-1,8,483,8,55,0.8862815884476535
554,-1,-1,8,484,8,55,0.8864864864864865
555,-1,-1,8,485,8,55,0.8866906474820144
556,1,-1,8,485,8,56,0.8850987432675045
557,-1,-1,8,486,8,56,0.8853046594982079
558,-1,-1,8,487,8,56,0.8855098389982111
559,-1,-1,8,488,8,56,0.8857142857142857
560,-1,-1,8,489,8,56,0.8859180035650623
561,-1,-1,8,490,8,56,0.8861209964412812
562,1,-1,8,490,8,57,0.8845470692717584
563,-1,-1,8,491,8,57,0.8847517730496454
564,-1,-1,8,492,8,57,0.8849557522123894
565,-1,-1,8,493,8,57,0.8851590106007067
566,-1,-1,8,494,8,57,0.8853615520282186
567,-1,-1,8,495,8,57,0.8855633802816901
568,-1,-1,8,496,8,57,0.8857644991212654
569,-1,-1,8,497,8,57,0.8859649122807017
570,1,-1,8,497,8,58,0.8844133099824869
571,-1,-1,8,498,8,58,0.8846153846153846
572,-1,-1,8,499,8,58,0.8848167539267016
573,-1,1,8,499,9,58,0.8832752613240418
574,1,-1,8,499,9,59,0.8817391304347826
575,1,-1,8,499,9,60,0.8802083333333334
576,-1,-1,8,500,9,60,0.8804159445407279
577,-1,-1,8,501,9,60,0.8806228373702422
578,-1,-1,8,502,9,60,0.8808290155440415
579,-1,-1,8,503,9,60,0.8810344827586207
580,-1,-1,8,504,9,60,0.8812392426850258
581,-1,-1,8,505,9,60,0.8814432989690721
582,-1,-1,8,506,9,60,0.8816466552315609
583,-1,-1,8,507,9,60,0.8818493150684932
584,-1,-1,8,508,9,60,0.882051282051282
585,-1,-1,8,509,9,60,0.8822525597269625
586,-1,-1,8,510,9,60,0.8824531516183987
587,-1,-1,8,511,9,60,0.8826530612244898
588,-1,-1,8,512,9,60,0.8828522920203735
589,-1,-1,8,513,9,60,0.8830508474576271
590,1,-1,8,513,9,61,0.8815566835871405
591,-1,-1,8,514,9,61,0.8817567567567568
592,-1,-1,8,515,9,61,0.8819561551433389
593,1,-1,8,515,9,62,0.8804713804713805
594,-1,-1,8,516,9,62,0.880672268907563
595,-1,-1,8,517,9,62,0.8808724832214765
596,-1,-1,8,518,9,62,0.88107202680067
597,-1,-1,8,519,9,62,0.8812709030100334
598,-1,-1,8,520,9,62,0.8814691151919867
599,-1,-1,8,521,9,62,0.8816666666666667
600,-1,-1,8,522,9,62,0.8818635607321131
601,-1,-1,8,523,9,62,0.8820598006644518
602,-1,-1,8,524,9,62,0.8822553897180763
603,-1,-1,8,525,9,62,0.8824503311258278
604,-1,-1,8,526,9,62,0.8826446280991735
605,1,-1,8,526,9,63,0.8811881188118812
606,-1,-1,8,527,9,63,0.8813838550247117
607,-1,-1,8,528,9,63,0.881578947368421
608,-1,-1,8,529,9,63,0.8817733990147784
609,-1,-1,8,530,9,63,0.8819672131147541
610,1,1,9,530,9,63,0.8821603927986906
611,-1,-1,9,531,9,63,0.8823529411764706
612,-1,-1,9,532,9,63,0.8825448613376835
613,-1,-1,9,533,9,63,0.8827361563517915
614,-1,-1,9,534,9,63,0.8829268292682927
615,-1,-1,9,535,9,63,0.8831168831168831
616,1,-1,9,535,9,64,0.8816855753646677
617,1,-1,9,535,9,65,0.8802588996763754
618,-1,-1,9,536,9,65,0.8804523424878837
619,-1,-1,9,537,9,65,0.8806451612903226
620,-1,-1,9,538,9,65,0.8808373590982287
621,-1,-1,9,539,9,65,0.8810289389067524
622,-1,-1,9,540,9,65,0.8812199036918138
623,-1,-1,9,541,9,65,0.8814102564102564
624,-1,-1,9,542,9,65,0.8816
625,-1,-1,9,543,9,65,0.8817891373801917
626,-1,-1,9,544,9,65,0.8819776714513556
627,-1,-1,9,545,9,65,0.8821656050955414
628,-1,-1,9,546,9,65,0.8823529411764706
629,-1,-1,9,547,9,65,0.8825396825396825
630,-1,-1,9,548,9,65,0.8827258320126783
631,-1,-1,9,549,9,65,0.8829113924050633
632,1,-1,9,549,9,66,0.8815165876777251
633,-1,-1,9,550,9,66,0.8817034700315457
634,-1,-1,9,551,9,66,0.8818897637795275
635,1,-1,9,551,9,67,0.8805031446540881
636,-1,-1,9,552,9,67,0.880690737833595
637,-1,-1,9,553,9,67,0.8808777429467085
638,-1,-1,9,554,9,67,0.8810641627543035
639,-1,-1,9,555,9,67,0.88125
640,-1,-1,9,556,9,67,0.8814352574102964
641,-1,-1,9,557,9,67,0.881619937694704
642,-1,-1,9,558,9,67,0.8818040435458787
643,-1,-1,9,559,9,67,0.8819875776397516
644,-1,-1,9,560,9,67,0.8821705426356589
645,-1,-1,9,561,9,67,0.8823529411764706
646,-1,-1,9,562,9,67,0.8825347758887172
647,-1,-1,9,563,9,67,0.8827160493827161
648,-1,-1,9,564,9,67,0.8828967642526965
649,-1,-1,9,565,9,67,0.8830769230769231
650,-1,-1,9,566,9,67,0.8832565284178188
651,-1,-1,9,567,9,67,0.8834355828220859
652,-1,-1,9,568,9,67,0.8836140888208269
653,1,1,10,568,9,67,0.8837920489296636
654,-1,-1,10,569,9,67,0.8839694656488549
655,-1,-1,10,570,9,67,0.8841463414634146
656,-1,-1,10,571,9,67,0.8843226788432268
657,-1,-1,10,572,9,67,0.8844984802431611
658,-1,-1,10,573,9,67,0.8846737481031867
659,-1,-1,10,574,9,67,0.8848484848484849
660,-1,-1,10,575,9,67,0.8850226928895613
661,-1,-1,10,576,9,67,0.8851963746223565
662,-1,-1,10,577,9,67,0.8853695324283559
663,1,1,11,577,9,67,0.8855421686746988
664,-1,-1,11,578,9,67,0.8857142857142857
665,-1,-1,11,579,9,67,0.8858858858858859
666,-1,-1,11,580,9,67,0.8860569715142429
667,-1,-1,11,581,9,67,0.8862275449101796
668,-1,-1,11,582,9,67,0.8863976083707026
669,-1,-1,11,583,9,67,0.8865671641791045
670,1,-1,11,583,9,68,0.8852459016393442
671,-1,-1,11,584,9,68,0.8854166666666666
672,1,-1,11,584,9,69,0.8841010401188707
673,-1,-1,11,585,9,69,0.884272997032641
674,-1,-1,11,586,9,69,0.8844444444444445
675,-1,-1,11,587,9,69,0.8846153846153846
676,-1,-1,11,588,9,69,0.8847858197932054
677,-1,-1,11,589,9,69,0.8849557522123894
678,-1,-1,11,590,9,69,0.8851251840942562
679,-1,-1,11,591,9,69,0.8852941176470588
680,-1,-1,11,592,9,69,0.8854625550660793
681,1,1,12,592,9,69,0.8856304985337243
682,-1,-1,12,593,9,69,0.8857979502196194
683,-1,-1,12,594,9,69,0.8859649122807017
684,-1,-1,12,595,9,69,0.8861313868613139
685,1,-1,12,595,9,70,0.8848396501457726
686,-1,-1,12,596,9,70,0.8850072780203785
687,1,-1,12,596,9,71,0.8837209302325582
688,-1,-1,12,597,9,71,0.8838896952104499
689,-1,-1,12,598,9,71,0.8840579710144928
690,-1,-1,12,599,9,71,0.8842257597684515
691,-1,-1,12,600,9,71,0.884393063583815
692,-1,-1,12,601,9,71,0.8845598845598845
693,-1,-1,12,602,9,71,0.8847262247838616
694,-1,-1,12,603,9,71,0.8848920863309353
695,-1,-1,12,604,9,71,0.8850574712643678
696,-1,-1,12,605,9,71,0.8852223816355811
697,-1,-1,12,606,9,71,0.8853868194842407
698,-1,-1,12,607,9,71,0.8855507868383404
699,-1,-1,12,608,9,71,0.8857142857142857
700,-1,-1,12,609,9,71,0.8858773181169758
701,-1,-1,12,610,9,71,0.886039886039886
702,-1,-1,12,611,9,71,0.8862019914651493
703,-1,-1,12,612,9,71,0.8863636363636364
704,-1,-1,12,613,9,71,0.8865248226950354
705,-1,-1,12,614,9,71,0.886685552407932
706,-1,-1,12,615,9,71,0.8868458274398868
707,-1,-1,12,616,9,71,0.8870056497175142
708,-1,-1,12,617,9,71,0.8871650211565585
709,-1,-1,12,618,9,71,0.8873239436619719
710,1,-1,12,618,9,72,0.8860759493670886
711,-1,-1,12,619,9,72,0.8862359550561798
712,-1,-1,12,620,9,72,0.8863955119214586
713,-1,-1,12,621,9,72,0.8865546218487395
714,-1,-1,12,622,9,72,0.8867132867132868
715,-1,-1,12,623,9,72,0.8868715083798883
716,-1,-1,12,624,9,72,0.8870292887029289
717,-1,-1,12,625,9,72,0.8871866295264624
718,-1,-1,12,626,9,72,0.8873435326842837
719,-1,-1,12,627,9,72,0.8875
720,-1,-1,12,628,9,72,0.8876560332871013
721,-1,-1,12,629,9,72,0.8878116343490304
722,-1,-1,12,630,9,72,0.8879668049792531
723,-1,-1,12,631,9,72,0.888121546961326
724,-1,-1,12,632,9,72,0.8882758620689655
725,-1,-1,12,633,9,72,0.8884297520661157
726,-1,-1,12,634,9,72,0.8885832187070152
727,-1,-1,12,635,9,72,0.8887362637362637
728,1,-1,12,635,9,73,0.887517146776406
729,-1,-1,12,636,9,73,0.8876712328767123
730,-1,-1,12,637,9,73,0.8878248974008208
731,-1,-1,12,638,9,73,0.8879781420765027
732,-1,-1,12,639,9,73,0.888130968622101
733,-1,-1,12,640,9,73,0.888283378746594
734,-1,-1,12,641,9,73,0.8884353741496599
735,-1,-1,12,642,9,73,0.8885869565217391
736,-1,-1,12,643,9,73,0.8887381275440976
737,-1,-1,12,644,9,73,0.8888888888888888
738,-1,-1,12,645,9,73,0.8890392422192152
739,-1,-1,12,646,9,73,0.8891891891891892
740,-1,-1,12,647,9,73,0.8893387314439946
741,-1,-1,12,648,9,73,0.889487870619946
742,-1,-1,12,649,9,73,0.8896366083445492
743,-1,-1,12,650,9,73,0.8897849462365591
744,-1,-1,12,651,9,73,0.8899328859060402
745,-1,-1,12,652,9,73,0.8900804289544236
746,1,-1,12,652,9,74,0.8888888888888888
747,1,-1,12,652,9,75,0.8877005347593583
748,-1,-1,12,653,9,75,0.8878504672897196
749,-1,-1,12,654,9,75,0.888
750,-1,-1,12,655,9,75,0.8881491344873502
751,-1,-1,12,656,9,75,0.8882978723404256
752,-1,-1,12,657,9,75,0.8884462151394422
753,-1,-1,12,658,9,75,0.8885941644562334
754,-1,-1,12,659,9,75,0.8887417218543047
755,-1,-1,12,660,9,75,0.8888888888888888
756,1,-1,12,660,9,76,0.8877146631439894
757,-1,-1,12,661,9,76,0.8878627968337731
758,-1,-1,12,662,9,76,0.8880105401844532
759,-1,-1,12,663,9,76,0.8881578947368421
760,-1,-1,12,664,9,76,0.8883048620236531
761,1,-1,12,664,9,77,0.8871391076115486
762,1,-1,12,664,9,78,0.8859764089121888
763,-1,-1,12,665,9,78,0.8861256544502618
764,-1,-1,12,666,9,78,0.8862745098039215
765,-1,-1,12,667,9,78,0.8864229765013055
766,-1,-1,12,668,9,78,0.8865710560625815
767,-1,-1,12,669,9,78,0.88671875
768,-1,-1,12,670,9,78,0.8868660598179454
769,-1,-1,12,671,9,78,0.887012987012987
770,1,-1,12,671,9,79,0.8858625162127107
771,-1,-1,12,672,9,79,0.8860103626943006
772,1,-1,12,672,9,80,0.8848641655886158
773,-1,-1,12,673,9,80,0.8850129198966409
774,-1,-1,12,674,9,80,0.8851612903225806
775,-1,-1,12,675,9,80,0.8853092783505154
776,-1,-1,12,676,9,80,0.8854568854568855
777,1,-1,12,676,9,81,0.884318766066838
778,-1,-1,12,677,9,81,0.8844672657252889
779,-1,-1,12,678,9,81,0.8846153846153846
780,-1,-1,12,679,9,81,0.8847631241997439
781,-1,-1,12,680,9,81,0.8849104859335039
782,-1,-1,12,681,9,81,0.8850574712643678
783,1,-1,12,681,9,82,0.8839285714285714
784,-1,-1,12,682,9,82,0.8840764331210191
785,-1,-1,12,683,9,82,0.8842239185750637
786,-1,-1,12,684,9,82,0.8843710292249047
787,-1,-1,12,685,9,82,0.8845177664974619
788,1,-1,12,685,9,83,0.8833967046894804
789,-1,-1,12,686,9,83,0.8835443037974684
790,-1,-1,12,687,9,83,0.8836915297092288
791,-1,-1,12,688,9,83,0.8838383838383839
792,-1,-1,12,689,9,83,0.8839848675914249
793,-1,-1,12,690,9,83,0.8841309823677582
794,-1,-1,12,691,9,83,0.8842767295597485
795,-1,-1,12,692,9,83,0.8844221105527639
796,-1,-1,12,693,9,83,0.8845671267252195
797,-1,-1,12,694,9,83,0.8847117794486216
798,-1,-1,12,695,9,83,0.8848560700876095
799,-1,-1,12,696,9,83,0.885
800,-1,-1,12,697,9,83,0.885143570536829
801,-1,-1,12,698,9,83,0.885286783042394
802,-1,-1,12,699,9,83,0.8854296388542964
803,-1,-1,12,700,9,83,0.8855721393034826
804,-1,-1,12,701,9,83,0.8857142857142857
805,-1,1,12,701,10,83,0.8846153846153846
806,-1,-1,12,702,10,83,0.8847583643122676
807,-1,-1,12,703,10,83,0.8849009900990099
808,-1,-1,12,704,10,83,0.8850432632880099
809,-1,-1,12,705,10,83,0.8851851851851852
810,-1,-1,12,706,10,83,0.8853267570900123
811,-1,-1,12,707,10,83,0.8854679802955665
812,-1,-1,12,708,10,83,0.8856088560885609
813,-1,-1,12,709,10,83,0.8857493857493858
814,-1,-1,12,710,10,83,0.8858895705521472
815,-1,-1,12,711,10,83,0.8860294117647058
816,-1,-1,12,712,10,83,0.8861689106487148
817,-1,-1,12,713,10,83,0.8863080684596577
818,-1,-1,12,714,10,83,0.8864468864468864
819,-1,-1,12,715,10,83,0.8865853658536585
820,1,-1,12,715,10,84,0.8855054811205847
821,-1,-1,12,716,10,84,0.8856447688564477
822,-1,-1,12,717,10,84,0.8857837181044957
823,-1,-1,12,718,10,84,0.8859223300970874
824,-1,-1,12,719,10,84,0.8860606060606061
825,-1,-1,12,720,10,84,0.8861985472154964
826,-1,-1,12,721,10,84,0.8863361547762999
827,1,-1,12,721,10,85,0.8852657004830918
828,-1,-1,12,722,10,85,0.8854041013268998
829,-1,-1,12,723,10,85,0.8855421686746988
830,-1,-1,12,724,10,85,0.8856799037304453
831,-1,-1,12,725,10,85,0.8858173076923077
832,-1,-1,12,726,10,85,0.885954381752701
833,-1,-1,12,727,10,85,0.8860911270983214
834,-1,-1,12,728,10,85,0.8862275449101796
835,-1,-1,12,729,10,85,0.8863636363636364
836,-1,-1,12,730,10,85,0.8864994026284349
837,-1,-1,12,731,10,85,0.8866348448687351
838,-1,-1,12,732,10,85,0.8867699642431466
839,-1,-1,12,733,10,85,0.8869047619047619
840,-1,-1,12,734,10,85,0.8870392390011891
841,-1,-1,12,735,10,85,0.8871733966745843
842,-1,-1,12,736,10,85,0.8873072360616845
843,-1,-1,12,737,10,85,0.8874407582938388
844,-1,-1,12,738,10,85,0.8875739644970414
845,-1,-1,12,739,10,85,0.8877068557919622
846,-1,-1,12,740,10,85,0.8878394332939787
847,-1,-1,12,741,10,85,0.8879716981132075
848,-1,-1,12,742,10,85,0.8881036513545347
849,-1,-1,12,743,10,85,0.888235294117647
850,-1,-1,12,744,10,85,0.8883666274970623
851,-1,-1,12,745,10,85,0.8884976525821596
852,-1,-1,12,746,10,85,0.8886283704572099
853,-1,-1,12,747,10,85,0.8887587822014051
854,-1,-1,12,748,10,85,0.8888888888888888
855,-1,-1,12,749,10,85,0.889018691588785
856,-1,-1,12,750,10,85,0.8891481913652275
857,-1,-1,12,751,10,85,0.8892773892773893
858,-1,-1,12,752,10,85,0.889406286379511
859,-1,-1,12,753,10,85,0.8895348837209303
860,-1,-1,12,754,10,85,0.8896631823461092
861,1,-1,12,754,10,86,0.888631090487239
862,-1,-1,12,755,10,86,0.8887601390498262
863,-1,-1,12,756,10,86,0.8888888888888888
864,-1,-1,12,757,10,86,0.8890173410404625
865,-1,-1,12,758,10,86,0.8891454965357968
866,-1,-1,12,759,10,86,0.889273356401384
867,-1,-1,12,760,10,86,0.8894009216589862
868,-1,-1,12,761,10,86,0.8895281933256617
869,-1,-1,12,762,10,86,0.8896551724137931
870,-1,-1,12,763,10,86,0.8897818599311137
871,-1,-1,12,764,10,86,0.8899082568807339
872,-1,-1,12,765,10,86,0.8900343642611683
873,-1,-1,12,766,10,86,0.8901601830663616
874,-1,-1,12,767,10,86,0.8902857142857142
875,-1,-1,12,768,10,86,0.8904109589041096
876,-1,-1,12,769,10,86,0.8905359179019384
877,-1,-1,12,770,10,86,0.8906605922551253
878,-1,-1,12,771,10,86,0.8907849829351536
879,-1,-1,12,772,10,86,0.8909090909090909
880,-1,-1,12,773,10,86,0.8910329171396141
881,-1,-1,12,774,10,86,0.891156462585034
882,-1,-1,12,775,10,86,0.8912797281993206
883,-1,-1,12,776,10,86,0.8914027149321267
884,-1,-1,12,777,10,86,0.8915254237288136
885,-1,-1,12,778,10,86,0.891647855530474
886,-1,-1,12,779,10,86,0.8917700112739572
887,-1,-1,12,780,10,86,0.8918918918918919
888,-1,-1,12,781,10,86,0.8920134983127109
889,-1,-1,12,782,10,86,0.8921348314606742
890,-1,-1,12,783,10,86,0.8922558922558923
891,1,1,13,783,10,86,0.8923766816143498
892,-1,-1,13,784,10,86,0.8924972004479284
893,1,-1,13,784,10,87,0.8914988814317674
894,-1,-1,13,785,10,87,0.8916201117318435
895,-1,-1,13,786,10,87,0.8917410714285714
896,-1,-1,13,787,10,87,0.8918617614269788
897,-1,-1,13,788,10,87,0.8919821826280624
898,-1,-1,13,789,10,87,0.8921023359288098
899,-1,-1,13,790,10,87,0.8922222222222222
900,-1,-1,13,791,10,87,0.8923418423973363
901,1,-1,13,791,10,88,0.8913525498891353
902,1,-1,13,791,10,89,0.8903654485049833
903,-1,-1,13,792,10,89,0.8904867256637168
904,-1,-1,13,793,10,89,0.8906077348066298
905,-1,-1,13,794,10,89,0.890728476821192
906,-1,-1,13,795,10,89,0.8908489525909592
907,1,1,14,795,10,89,0.8909691629955947
908,-1,-1,14,796,10,89,0.8910891089108911
909,-1,-1,14,797,10,89,0.8912087912087913
910,-1,-1,14,798,10,89,0.8913282107574094
911,-1,-1,14,799,10,89,0.8914473684210527
912,-1,-1,14,800,10,89,0.891566265060241
913,-1,-1,14,801,10,89,0.8916849015317286
914,-1,1,14,801,11,89,0.8907103825136612
915,-1,-1,14,802,11,89,0.8908296943231441
916,-1,-1,14,803,11,89,0.8909487459105779
917,-1,-1,14,804,11,89,0.8910675381263616
918,-1,-1,14,805,11,89,0.8911860718171926
919,-1,-1,14,806,11,89,0.8913043478260869
920,1,-1,14,806,11,90,0.8903365906623235
921,-1,-1,14,807,11,90,0.8904555314533622
922,-1,-1,14,808,11,90,0.8905742145178764
923,-1,-1,14,809,11,90,0.8906926406926406
924,-1,-1,14,810,11,90,0.8908108108108108
925,-1,-1,14,811,11,90,0.8909287257019438
926,-1,-1,14,812,11,90,0.8910463861920173
927,1,-1,14,812,11,91,0.8900862068965517
928,-1,-1,14,813,11,91,0.8902045209903121
929,-1,-1,14,814,11,91,0.8903225806451613
930,-1,-1,14,815,11,91,0.8904403866809882
931,-1,-1,14,816,11,91,0.8905579399141631
932,-1,-1,14,817,11,91,0.8906752411575563
933,-1,-1,14,818,11,91,0.8907922912205567
934,-1,-1,14,819,11,91,0.8909090909090909
935,-1,-1,14,820,11,91,0.8910256410256411
936,-1,-1,14,821,11,91,0.8911419423692636
937,-1,-1,14,822,11,91,0.8912579957356077
938,-1,-1,14,823,11,91,0.8913738019169329
939,-1,-1,14,824,11,91,0.8914893617021277
940,-1,-1,14,825,11,91,0.8916046758767269
941,-1,-1,14,826,11,91,0.89171974522293
942,-1,-1,14,827,11,91,0.8918345705196182
943,-1,-1,14,828,11,91,0.8919491525423728
944,-1,-1,14,829,11,91,0.8920634920634921
945,-1,-1,14,830,11,91,0.8921775898520085
946,-1,-1,14,831,11,91,0.8922914466737064
947,-1,-1,14,832,11,91,0.8924050632911392
948,-1,-1,14,833,11,91,0.8925184404636459
949,-1,-1,14,834,11,91,0.8926315789473684
950,-1,-1,14,835,11,91,0.8927444794952681
951,-1,-1,14,836,11,91,0.8928571428571429
952,1,-1,14,836,11,92,0.8919202518363064
953,-1,-1,14,837,11,92,0.8920335429769392
954,-1,-1,14,838,11,92,0.8921465968586387
955,-1,-1,14,839,11,92,0.8922594142259415
956,-1,-1,14,840,11,92,0.8923719958202717
957,-1,-1,14,841,11,92,0.8924843423799582
958,-1,-1,14,842,11,92,0.8925964546402503
959,-1,-1,14,843,11,92,0.8927083333333333
960,-1,-1,14,844,11,92,0.8928199791883454
961,-1,-1,14,845,11,92,0.8929313929313929
962,-1,-1,14,846,11,92,0.893042575285566
963,1,-1,14,846,11,93,0.8921161825726142
964,1,-1,14,846,11,94,0.8911917098445595
965,1,-1,14,846,11,95,0.8902691511387164
966,1,-1,14,846,11,96,0.889348500517063
967,-1,-1,14,847,11,96,0.8894628099173554
968,-1,-1,14,848,11,96,0.8895768833849329
969,-1,-1,14,849,11,96,0.8896907216494845
970,-1,-1,14,850,11,96,0.8898043254376931
971,-1,-1,14,851,11,96,0.8899176954732511
972,-1,-1,14,852,11,96,0.8900308324768756
973,-1,-1,14,853,11,96,0.8901437371663244
974,-1,-1,14,854,11,96,0.8902564102564102
975,-1,-1,14,855,11,96,0.8903688524590164
976,1,-1,14,855,11,97,0.8894575230296827
977,-1,-1,14,856,11,97,0.8895705521472392
978,-1,-1,14,857,11,97,0.8896833503575077
979,-1,-1,14,858,11,97,0.889795918367347
980,-1,-1,14,859,11,97,0.8899082568807339
981,-1,-1,14,860,11,97,0.890020366598778
982,-1,-1,14,861,11,97,0.8901322482197355
983,-1,-1,14,862,11,97,0.8902439024390244
984,-1,-1,14,863,11,97,0.8903553299492386
985,-1,-1,14,864,11,97,0.8904665314401623
986,-1,-1,14,865,11,97,0.8905775075987842
987,-1,-1,14,866,11,97,0.8906882591093117
988,-1,-1,14,867,11,97,0.890798786653185
989,-1,-1,14,868,11,97,0.8909090909090909
990,-1,-1,14,869,11,97,0.8910191725529768
991,-1,-1,14,870,11,97,0.8911290322580645
992,-1,-1,14,871,11,97,0.8912386706948641
993,-1,-1,14,872,11,97,0.8913480885311871
994,1,1,15,872,11,97,0.8914572864321608
995,-1,-1,15,873,11,97,0.891566265060241
996,-1,-1,15,874,11,97,0.8916750250752257
997,-1,-1,15,875,11,97,0.8917835671342685
998,-1,-1,15,876,11,97,0.8918918918918919
999,-1,-1,15,877,11,97,0.892
1000,-1,-1,15,878,11,97,0.8921078921078921
1001,-1,-1,15,879,11,97,0.8922155688622755
1002,-1,-1,15,880,11,97,0.8923230309072782
1003,-1,-1,15,881,11,97,0.8924302788844621
1004,-1,-1,15,882,11,97,0.8925373134328358
1005,-1,-1,15,883,11,97,0.8926441351888668
1006,-1,1,15,883,12,97,0.8917576961271102
1007,-1,-1,15,884,12,97,0.8918650793650794
1008,-1,-1,15,885,12,97,0.8919722497522299
1009,1,-1,15,885,12,98,0.8910891089108911
1010,-1,-1,15,886,12,98,0.8911968348170128
1011,-1,-1,15,887,12,98,0.8913043478260869
1012,1,1,16,887,12,98,0.8914116485686081
1013,-1,-1,16,888,12,98,0.8915187376725838
1014,-1,-1,16,889,12,98,0.8916256157635468
1015,-1,-1,16,890,12,98,0.8917322834645669
1016,-1,-1,16,891,12,98,0.8918387413962635
1017,1,-1,16,891,12,99,0.8909626719056974
1018,-1,-1,16,892,12,99,0.8910696761530913
1019,-1,-1,16,893,12,99,0.8911764705882353
1020,-1,-1,16,894,12,99,0.89128305582762
1021,-1,-1,16,895,12,99,0.8913894324853229
1022,-1,-1,16,896,12,99,0.8914956011730205
1023,-1,-1,16,897,12,99,0.8916015625
1024,-1,-1,16,898,12,99,0.8917073170731707
1025,-1,-1,16,899,12,99,0.8918128654970761
1026,-1,-1,16,900,12,99,0.8919182083739046
1027,-1,-1,16,901,12,99,0.892023346303502
1028,1,-1,16,901,12,100,0.891156462585034
1029,1,1,17,901,12,100,0.8912621359223301
1030,-1,-1,17,902,12,100,0.8913676042677012
1031,-1,-1,17,903,12,100,0.8914728682170543
1032,1,-1,17,903,12,101,0.8906098741529526
1033,-1,-1,17,904,12,101,0.8907156673114119
1034,1,-1,17,904,12,102,0.8898550724637682
1035,1,-1,17,904,12,103,0.888996138996139
1036,-1,-1,17,905,12,103,0.8891031822565092
1037,-1,-1,17,906,12,103,0.8892100192678227
1038,-1,-1,17,907,12,103,0.8893166506256015
1039,-1,-1,17,908,12,103,0.8894230769230769
1040,-1,-1,17,909,12,103,0.8895292987512008
1041,-1,-1,17,910,12,103,0.8896353166986565
1042,-1,-1,17,911,12,103,0.8897411313518696
1043,-1,-1,17,912,12,103,0.8898467432950191
1044,-1,-1,17,913,12,103,0.8899521531100478
1045,-1,-1,17,914,12,103,0.890057361376673
1046,-1,-1,17,915,12,103,0.8901623686723973
1047,-1,-1,17,916,12,103,0.8902671755725191
1048,-1,-1,17,917,12,103,0.8903717826501429
1049,-1,-1,17,918,12,103,0.8904761904761904
1050,-1,-1,17,919,12,103,0.89058039961941
1051,-1,-1,17,920,12,103,0.8906844106463878
1052,-1,-1,17,921,12,103,0.8907882241215574
1053,-1,-1,17,922,12,103,0.8908918406072106
1054,-1,-1,17,923,12,103,0.8909952606635071
1055,-1,-1,17,924,12,103,0.8910984848484849
1056,-1,-1,17,925,12,103,0.89120151371807
1057,-1,-1,17,926,12,103,0.8913043478260869
1058,1,-1,17,926,12,104,0.890462700661001
1059,-1,-1,17,927,12,104,0.8905660377358491
1060,-1,-1,17,928,12,104,0.8906691800188501
1061,-1,-1,17,929,12,104,0.8907721280602636
1062,1,-1,17,929,12,105,0.889934148635936
1063,-1,1,17,929,13,105,0.8890977443609023
1064,-1,-1,17,930,13,105,0.8892018779342723
1065,-1,-1,17,931,13,105,0.8893058161350844
1066,-1,1,17,931,14,105,0.8884723523898782
1067,-1,-1,17,932,14,105,0.8885767790262172
1068,-1,-1,17,933,14,105,0.8886810102899907
1069,1,-1,17,933,14,106,0.8878504672897196
1070,-1,-1,17,934,14,106,0.8879551820728291
1071,1,1,18,934,14,106,0.8880597014925373
1072,-1,-1,18,935,14,106,0.8881640260950606
1073,-1,-1,18,936,14,106,0.888268156424581
1074,-1,-1,18,937,14,106,0.8883720930232558
1075,-1,-1,18,938,14,106,0.8884758364312267
1076,-1,-1,18,939,14,106,0.8885793871866295
1077,-1,-1,18,940,14,106,0.8886827458256029
1078,-1,-1,18,941,14,106,0.8887859128822985
1079,1,-1,18,941,14,107,0.887962962962963
1080,1,1,19,941,14,107,0.8880666049953746
1081,1,-1,19,941,14,108,0.8872458410351202
1082,-1,-1,19,942,14,108,0.8873499538319483
1083,-1,-1,19,943,14,108,0.8874538745387454
1084,-1,-1,19,944,14,108,0.8875576036866359
1085,-1,-1,19,945,14,108,0.8876611418047882
1086,-1,-1,19,946,14,108,0.8877644894204232
1087,1,-1,19,946,14,109,0.8869485294117647
1088,-1,-1,19,947,14,109,0.8870523415977961
1089,1,-1,19,947,14,110,0.8862385321100917
1090,-1,-1,19,948,14,110,0.8863428047662695
1091,-1,-1,19,949,14,110,0.8864468864468864
1092,1,-1,19,949,14,111,0.8856358645928637
1093,-1,-1,19,950,14,111,0.8857404021937842
1094,1,-1,19,950,14,112,0.8849315068493151
1095,-1,-1,19,951,14,112,0.885036496350365
1096,-1,-1,19,952,14,112,0.8851412944393802
1097,-1,-1,19,953,14,112,0.8852459016393442
1098,-1,-1,19,954,14,112,0.8853503184713376
1099,-1,-1,19,955,14,112,0.8854545454545455
1100,-1,-1,19,956,14,112,0.885558583106267
1101,-1,-1,19,957,14,112,0.8856624319419237
1102,-1,-1,19,958,14,112,0.885766092475068
1103,-1,-1,19,959,14,112,0.8858695652173914
1104,-1,-1,19,960,14,112,0.885972850678733
1105,-1,-1,19,961,14,112,0.8860759493670886
1106,-1,-1,19,962,14,112,0.8861788617886179
1107,-1,-1,19,963,14,112,0.8862815884476535
1108,-1,-1,19,964,14,112,0.8863841298467088
1109,-1,-1,19,965,14,112,0.8864864864864865
1110,-1,-1,19,966,14,112,0.8865886588658866
1111,-1,-1,19,967,14,112,0.8866906474820144
1112,-1,-1,19,968,14,112,0.8867924528301887
1113,-1,-1,19,969,14,112,0.8868940754039497
1114,-1,-1,19,970,14,112,0.8869955156950673
1115,-1,-1,19,971,14,112,0.8870967741935484
1116,-1,-1,19,972,14,112,0.8871978513876455
1117,-1,-1,19,973,14,112,0.8872987477638641
1118,-1,-1,19,974,14,112,0.8873994638069705
1119,-1,-1,19,975,14,112,0.8875
1120,-1,-1,19,976,14,112,0.8876003568242641
1121,-1,-1,19,977,14,112,0.8877005347593583
1122,-1,-1,19,978,14,112,0.8878005342831701
1123,-1,-1,19,979,14,112,0.8879003558718861
1124,-1,-1,19,980,14,112,0.888
1125,1,-1,19,980,14,113,0.8872113676731794
1126,-1,-1,19,981,14,113,0.8873114463176575
1127,-1,-1,19,982,14,113,0.8874113475177305
1128,-1,-1,19,983,14,113,0.887511071744907
1129,-1,-1,19,984,14,113,0.8876106194690265
1130,-1,-1,19,985,14,113,0.887709991158267
1131,-1,-1,19,986,14,113,0.8878091872791519
1132,-1,-1,19,987,14,113,0.8879082082965578
1133,-1,-1,19,988,14,113,0.8880070546737213
1134,-1,-1,19,989,14,113,0.8881057268722466
1135,1,-1,19,989,14,114,0.8873239436619719
1136,-1,-1,19,990,14,114,0.8874230430958663
1137,-1,-1,19,991,14,114,0.8875219683655536
1138,-1,-1,19,992,14,114,0.887620719929763
1139,-1,-1,19,993,14,114,0.887719298245614
1140,1,-1,19,993,14,115,0.8869412795793163
1141,-1,-1,19,994,14,115,0.8870402802101576
1142,-1,-1,19,995,14,115,0.8871391076115486
1143,1,-1,19,995,14,116,0.8863636363636364
1144,-1,-1,19,996,14,116,0.8864628820960698
1145,-1,-1,19,997,14,116,0.8865619546247818
1146,-1,-1,19,998,14,116,0.8866608544027899
1147,1,-1,19,998,14,117,0.8858885017421603
1148,-1,-1,19,999,14,117,0.8859878154917319
1149,-1,-1,19,1000,14,117,0.8860869565217391
1150,-1,-1,19,1001,14,117,0.8861859252823632
1151,-1,-1,19,1002,14,117,0.8862847222222222
1152,-1,-1,19,1003,14,117,0.8863833477883781
1153,-1,-1,19,1004,14,117,0.8864818024263431
1154,1,-1,19,1004,14,118,0.8857142857142857
1155,-1,-1,19,1005,14,118,0.8858131487889274
1156,-1,-1,19,1006,14,118,0.8859118409680208
1157,-1,-1,19,1007,14,118,0.8860103626943006
1158,-1,-1,19,1008,14,118,0.8861087144089732
1159,-1,-1,19,1009,14,118,0.8862068965517241
1160,-1,-1,19,1010,14,118,0.8863049095607235
1161,-1,-1,19,1011,14,118,0.8864027538726333
1162,-1,-1,19,1012,14,118,0.8865004299226139
1163,-1,-1,19,1013,14,118,0.8865979381443299
1164,-1,-1,19,1014,14,118,0.886695278969957
1165,-1,-1,19,1015,14,118,0.8867924528301887
1166,-1,-1,19,1016,14,118,0.8868894601542416
1167,-1,-1,19,1017,14,118,0.886986301369863
1168,-1,-1,19,1018,14,118,0.8870829769033362
1169,-1,-1,19,1019,14,118,0.8871794871794871
1170,-1,-1,19,1020,14,118,0.8872758326216909
1171,-1,-1,19,1021,14,118,0.8873720136518771
1172,-1,-1,19,1022,14,118,0.887468030690537
1173,-1,-1,19,1023,14,118,0.8875638841567292
1174,-1,-1,19,1024,14,118,0.8876595744680851
1175,-1,1,19,1024,15,118,0.8869047619047619
1176,-1,-1,19,1025,15,118,0.887000849617672
1177,-1,-1,19,1026,15,118,0.8870967741935484
1178,1,-1,19,1026,15,119,0.8863443596268024
1179,-1,-1,19,1027,15,119,0.8864406779661017
1180,-1,-1,19,1028,15,119,0.88653683319221
1181,-1,-1,19,1029,15,119,0.8866328257191202
1182,-1,-1,19,1030,15,119,0.8867286559594252
1183,-1,-1,19,1031,15,119,0.8868243243243243
1184,1,-1,19,1031,15,120,0.8860759493670886
1185,-1,-1,19,1032,15,120,0.8861720067453626
1186,-1,-1,19,1033,15,120,0.8862679022746419
1187,-1,-1,19,1034,15,120,0.8863636363636364
1188,-1,-1,19,1035,15,120,0.8864592094196804
1189,-1,-1,19,1036,15,120,0.8865546218487395
1190,-1,-1,19,1037,15,120,0.8866498740554156
1191,-1,-1,19,1038,15,120,0.886744966442953
1192,1,-1,19,1038,15,121,0.8860016764459346
1193,-1,-1,19,1039,15,121,0.8860971524288107
1194,-1,-1,19,1040,15,121,0.8861924686192468
1195,1,-1,19,1040,15,122,0.8854515050167224
1196,-1,-1,19,1041,15,122,0.885547201336675
1197,-1,-1,19,1042,15,122,0.8856427378964942
1198,-1,-1,19,1043,15,122,0.8857381150959133
1199,-1,-1,19,1044,15,122,0.8858333333333334
1200,-1,-1,19,1045,15,122,0.8859283930058285
1201,-1,-1,19,1046,15,122,0.8860232945091514
1202,-1,-1,19,1047,15,122,0.8861180382377389
1203,-1,-1,19,1048,15,122,0.8862126245847176
1204,1,1,20,1048,15,122,0.8863070539419087
1205,-1,-1,20,1049,15,122,0.8864013266998342
1206,-1,-1,20,1050,15,122,0.8864954432477217
1207,-1,-1,20,1051,15,122,0.8865894039735099
1208,-1,-1,20,1052,15,122,0.8866832092638545
1209,-1,-1,20,1053,15,122,0.8867768595041322
1210,-1,-1,20,1054,15,122,0.8868703550784476
1211,1,-1,20,1054,15,123,0.8861386138613861
1212,-1,-1,20,1055,15,123,0.886232481450948
1213,-1,-1,20,1056,15,123,0.886326194398682
1214,-1,-1,20,1057,15,123,0.8864197530864197
1215,-1,-1,20,1058,15,123,0.8865131578947368
1216,-1,-1,20,1059,15,123,0.8866064092029581
1217,-1,-1,20,1060,15,123,0.8866995073891626
1218,-1,-1,20,1061,15,123,0.8867924528301887
1219,-1,-1,20,1062,15,123,0.8868852459016393
1220,-1,-1,20,1063,15,123,0.8869778869778869
1221,-1,-1,20,1064,15,123,0.8870703764320785
1222,-1,-1,20,1065,15,123,0.8871627146361406
1223,-1,-1,20,1066,15,123,0.8872549019607843
1224,-1,-1,20,1067,15,123,0.8873469387755102
1225,1,1,21,1067,15,123,0.8874388254486134
1226,1,-1,21,1067,15,124,0.8867155664221679
1227,-1,-1,21,1068,15,124,0.8868078175895765
1228,-1,-1,21,1069,15,124,0.886899918633035
1229,-1,-1,21,1070,15,124,0.8869918699186992
1230,-1,-1,21,1071,15,124,0.8870836718115354
1231,-1,-1,21,1072,15,124,0.8871753246753247
1232,-1,-1,21,1073,15,124,0.8872668288726683
1233,-1,-1,21,1074,15,124,0.8873581847649918
1234,-1,-1,21,1075,15,124,0.8874493927125506
1235,-1,-1,21,1076,15,124,0.8875404530744336
1236,-1,-1,21,1077,15,124,0.8876313662085691
1237,-1,-1,21,1078,15,124,0.8877221324717286
1238,-1,1,21,1078,16,124,0.8870056497175142
1239,-1,-1,21,1079,16,124,0.8870967741935484
1240,-1,1,21,1079,17,124,0.8863819500402901
1241,-1,-1,21,1080,17,124,0.8864734299516909
1242,-1,-1,21,1081,17,124,0.8865647626709574
1243,-1,-1,21,1082,17,124,0.8866559485530546
1244,-1,-1,21,1083,17,124,0.8867469879518072
1245,1,-1,21,1083,17,125,0.8860353130016051
1246,-1,-1,21,1084,17,125,0.8861267040898155
1247,-1,-1,21,1085,17,125,0.8862179487179487
1248,-1,-1,21,1086,17,125,0.8863090472377902
1249,-1,-1,21,1087,17,125,0.8864
1250,-1,-1,21,1088,17,125,0.8864908073541167
1251,-1,-1,21,1089,17,125,0.8865814696485623
1252,-1,-1,21,1090,17,125,0.8866719872306464
1253,-1,-1,21,1091,17,125,0.886762360446571
1254,-1,-1,21,1092,17,125,0.8868525896414342
1255,-1,-1,21,1093,17,125,0.8869426751592356
1256,-1,-1,21,1094,17,125,0.8870326173428799
1257,-1,-1,21,1095,17,125,0.8871224165341812
1258,-1,-1,21,1096,17,125,0.8872120730738682
1259,-1,-1,21,1097,17,125,0.8873015873015873
1260,-1,-1,21,1098,17,125,0.887390959555908
1261,-1,-1,21,1099,17,125,0.8874801901743264
1262,-1,-1,21,1100,17,125,0.88756927949327
1263,-1,-1,21,1101,17,125,0.8876582278481012
1264,-1,-1,21,1102,17,125,0.8877470355731225
1265,-1,-1,21,1103,17,125,0.8878357030015798
1266,-1,-1,21,1104,17,125,0.8879242304656669
1267,-1,-1,21,1105,17,125,0.88801261829653
1268,-1,-1,21,1106,17,125,0.888100866824271
1269,-1,-1,21,1107,17,125,0.8881889763779528
1270,-1,-1,21,1108,17,125,0.8882769472856019
1271,-1,-1,21,1109,17,125,0.8883647798742138
1272,-1,-1,21,1110,17,125,0.8884524744697565
1273,1,-1,21,1110,17,126,0.8877551020408163
1274,-1,-1,21,1111,17,126,0.8878431372549019
1275,-1,-1,21,1112,17,126,0.8879310344827587
1276,-1,-1,21,1113,17,126,0.8880187940485513
1277,-1,-1,21,1114,17,126,0.8881064162754304
1278,-1,-1,21,1115,17,126,0.8881939014855356
1279,-1,-1,21,1116,17,126,0.88828125
1280,-1,-1,21,1117,17,126,0.8883684621389539
1281,-1,-1,21,1118,17,126,0.8884555382215289
1282,-1,-1,21,1119,17,126,0.8885424785658612
1283,-1,-1,21,1120,17,126,0.8886292834890965
1284,-1,-1,21,1121,17,126,0.888715953307393
1285,-1,-1,21,1122,17,126,0.8888024883359253
1286,-1,-1,21,1123,17,126,0.8888888888888888
1287,-1,-1,21,1124,17,126,0.8889751552795031
1288,-1,-1,21,1125,17,126,0.8890612878200155
1289,1,-1,21,1125,17,127,0.8883720930232558
1290,-1,-1,21,1126,17,127,0.8884585592563904
1291,-1,-1,21,1127,17,127,0.8885448916408669
1292,-1,1,21,1127,18,127,0.8878576952822892
1293,-1,-1,21,1128,18,127,0.8879443585780525
1294,-1,-1,21,1129,18,127,0.888030888030888
1295,-1,-1,21,1130,18,127,0.8881172839506173
1296,-1,-1,21,1131,18,127,0.8882035466461063
1297,-1,-1,21,1132,18,127,0.8882896764252697
1298,-1,-1,21,1133,18,127,0.8883756735950731
1299,-1,-1,21,1134,18,127,0.8884615384615384
1300,-1,-1,21,1135,18,127,0.8885472713297463
1301,-1,-1,21,1136,18,127,0.8886328725038403
1302,1,-1,21,1136,18,128,0.8879508825786646
1303,-1,-1,21,1137,18,128,0.8880368098159509
1304,-1,-1,21,1138,18,128,0.8881226053639847
1305,-1,-1,21,1139,18,128,0.888208269525268
1306,-1,-1,21,1140,18,128,0.8882938026013772
1307,-1,-1,21,1141,18,128,0.8883792048929664
1308,-1,-1,21,1142,18,128,0.8884644766997708
1309,1,-1,21,1142,18,129,0.8877862595419848
1310,-1,-1,21,1143,18,129,0.8878718535469108
1311,-1,-1,21,1144,18,129,0.8879573170731707
1312,1,-1,21,1144,18,130,0.8872810357958872
1313,-1,-1,21,1145,18,130,0.8873668188736682
1314,-1,-1,21,1146,18,130,0.8874524714828897
1315,-1,-1,21,1147,18,130,0.8875379939209727
1316,-1,-1,21,1148,18,130,0.8876233864844343
1317,-1,-1,21,1149,18,130,0.8877086494688923
1318,-1,-1,21,1150,18,130,0.8877937831690674
1319,-1,-1,21,1151,18,130,0.8878787878787879
1320,-1,-1,21,1152,18,130,0.8879636638909917
1321,-1,-1,21,1153,18,130,0.8880484114977307
1322,-1,-1,21,1154,18,130,0.8881330309901738
1323,-1,-1,21,1155,18,130,0.8882175226586103
1324,-1,-1,21,1156,18,130,0.8883018867924528
1325,-1,-1,21,1157,18,130,0.8883861236802413
1326,1,-1,21,1157,18,131,0.8877166541070083
1327,1,1,22,1157,18,131,0.8878012048192772
1328,-1,-1,22,1158,18,131,0.8878856282919488
1329,-1,-1,22,1159,18,131,0.8879699248120301
1330,-1,-1,22,1160,18,131,0.8880540946656649
1331,-1,-1,22,1161,18,131,0.8881381381381381
1332,-1,-1,22,1162,18,131,0.8882220555138785
1333,-1,-1,22,1163,18,131,0.8883058470764618
1334,-1,-1,22,1164,18,131,0.8883895131086142
1335,-1,-1,22,1165,18,131,0.8884730538922155
1336,-1,-1,22,1166,18,131,0.8885564697083022
1337,-1,-1,22,1167,18,131,0.8886397608370703
1338,1,-1,22,1167,18,132,0.8879761015683346
1339,-1,-1,22,1168,18,132,0.8880597014925373
1340,-1,-1,22,1169,18,132,0.8881431767337807
1341,-1,-1,22,1170,18,132,0.8882265275707899
1342,-1,-1,22,1171,18,132,0.8883097542814594
1343,-1,-1,22,1172,18,132,0.8883928571428571
1344,-1,1,22,1172,19,132,0.8877323420074349
1345,-1,-1,22,1173,19,132,0.887815750371471
1346,-1,-1,22,1174,19,132,0.8878990348923533
1347,-1,-1,22,1175,19,132,0.8879821958456974
1348,-1,-1,22,1176,19,132,0.888065233506301
1349,-1,-1,22,1177,19,132,0.8881481481481481
1350,-1,-1,22,1178,19,132,0.8882309400444115
1351,-1,-1,22,1179,19,132,0.8883136094674556
1352,-1,-1,22,1180,19,132,0.8883961566888396
1353,-1,-1,22,1181,19,132,0.8884785819793205
1354,-1,-1,22,1182,19,132,0.888560885608856
1355,-1,-1,22,1183,19,132,0.8886430678466076
1356,-1,-1,22,1184,19,132,0.8887251289609432
1357,-1,-1,22,1185,19,132,0.8888070692194403
1358,-1,-1,22,1186,19,132,0.8888888888888888
1359,-1,-1,22,1187,19,132,0.8889705882352941
1360,-1,-1,22,1188,19,132,0.8890521675238795
1361,-1,-1,22,1189,19,132,0.8891336270190896
1362,-1,-1,22,1190,19,132,0.8892149669845928
1363,-1,-1,22,1191,19,132,0.8892961876832844
1364,-1,-1,22,1192,19,132,0.8893772893772893
1365,-1,-1,22,1193,19,132,0.8894582723279648
1366,-1,-1,22,1194,19,132,0.8895391367959035
1367,-1,-1,22,1195,19,132,0.8896198830409356
1368,-1,-1,22,1196,19,132,0.8897005113221329
1369,-1,-1,22,1197,19,132,0.8897810218978102
1370,-1,-1,22,1198,19,132,0.8898614150255288
1371,-1,-1,22,1199,19,132,0.8899416909620991
1372,-1,-1,22,1200,19,132,0.8900218499635834
1373,-1,-1,22,1201,19,132,0.8901018922852983
1374,-1,-1,22,1202,19,132,0.8901818181818182
1375,-1,-1,22,1203,19,132,0.8902616279069767
1376,-1,-1,22,1204,19,132,0.8903413217138707
1377,-1,-1,22,1205,19,132,0.8904208998548622
1378,-1,-1,22,1206,19,132,0.8905003625815808
1379,-1,-1,22,1207,19,132,0.8905797101449275
1380,-1,-1,22,1208,19,132,0.8906589427950761
1381,1,-1,22,1208,19,133,0.8900144717800289
1382,-1,-1,22,1209,19,133,0.8900939985538684
1383,-1,-1,22,1210,19,133,0.8901734104046243
1384,-1,-1,22,1211,19,133,0.8902527075812274
1385,-1,-1,22,1212,19,133,0.8903318903318903
1386,-1,-1,22,1213,19,133,0.8904109589041096
1387,-1,-1,22,1214,19,133,0.8904899135446686
1388,-1,-1,22,1215,19,133,0.89056875449964
1389,-1,-1,22,1216,19,133,0.8906474820143885
1390,1,-1,22,1216,19,134,0.8900071890726097
1391,-1,-1,22,1217,19,134,0.8900862068965517
1392,-1,-1,22,1218,19,134,0.8901651112706389
1393,-1,-1,22,1219,19,134,0.8902439024390244
1394,1,-1,22,1219,19,135,0.8896057347670251
1395,-1,-1,22,1220,19,135,0.8896848137535817
1396,-1,-1,22,1221,19,135,0.889763779527559
1397,-1,-1,22,1222,19,135,0.8898426323319027
1398,-1,-1,22,1223,19,135,0.8899213724088635
1399,-1,-1,22,1224,19,135,0.89
1400,-1,-1,22,1225,19,135,0.8900785153461813
1401,-1,-1,22,1226,19,135,0.8901569186875892
1402,-1,-1,22,1227,19,135,0.8902352102637205
1403,1,-1,22,1227,19,136,0.8896011396011396
1404,-1,-1,22,1228,19,136,0.8896797153024911
1405,-1,-1,22,1229,19,136,0.8897581792318634
1406,-1,-1,22,1230,19,136,0.8898365316275764
1407,-1,-1,22,1231,19,136,0.8899147727272727
1408,-1,-1,22,1232,19,136,0.8899929027679205
1409,-1,-1,22,1233,19,136,0.8900709219858156
1410,-1,-1,22,1234,19,136,0.890148830616584
1411,-1,-1,22,1235,19,136,0.8902266288951841
1412,-1,-1,22,1236,19,136,0.8903043170559094
1413,-1,-1,22,1237,19,136,0.8903818953323904
1414,-1,-1,22,1238,19,136,0.8904593639575972
1415,-1,-1,22,1239,19,136,0.8905367231638418
1416,-1,-1,22,1240,19,136,0.8906139731827806
1417,-1,-1,22,1241,19,136,0.890691114245416
1418,1,-1,22,1241,19,137,0.8900634249471459
1419,-1,-1,22,1242,19,137,0.8901408450704226
1420,-1,-1,22,1243,19,137,0.8902181562280085
1421,1,-1,22,1243,19,138,0.8895921237693389
1422,-1,-1,22,1244,19,138,0.8896697118763176
1423,-1,-1,22,1245,19,138,0.889747191011236
1424,-1,-1,22,1246,19,138,0.8898245614035087
1425,-1,-1,22,1247,19,138,0.8899018232819075
1426,-1,-1,22,1248,19,138,0.8899789768745621
1427,-1,-1,22,1249,19,138,0.8900560224089635
1428,-1,-1,22,1250,19,138,0.8901329601119664
1429,1,-1,22,1250,19,139,0.8895104895104895
1430,-1,-1,22,1251,19,139,0.8895877009084556
1431,-1,-1,22,1252,19,139,0.8896648044692738
1432,-1,-1,22,1253,19,139,0.889741800418702
1433,-1,-1,22,1254,19,139,0.8898186889818689
1434,-1,-1,22,1255,19,139,0.8898954703832752
1435,-1,-1,22,1256,19,139,0.8899721448467967
1436,1,-1,22,1256,19,140,0.8893528183716075
1437,-1,-1,22,1257,19,140,0.8894297635605007
1438,-1,-1,22,1258,19,140,0.8895066018068103
1439,-1,-1,22,1259,19,140,0.8895833333333333
1440,-1,-1,22,1260,19,140,0.8896599583622484
1441,-1,-1,22,1261,19,140,0.8897364771151179
1442,-1,-1,22,1262,19,140,0.8898128898128899
1443,-1,-1,22,1263,19,140,0.8898891966759003
1444,-1,-1,22,1264,19,140,0.8899653979238754
1445,-1,-1,22,1265,19,140,0.8900414937759336
1446,-1,-1,22,1266,19,140,0.8901174844505875
1447,-1,-1,22,1267,19,140,0.8901933701657458
1448,-1,-1,22,1268,19,140,0.8902691511387164
1449,1,1,23,1268,19,140,0.8903448275862069
1450,-1,1,23,1268,20,140,0.8897312198483804
1451,-1,-1,23,1269,20,140,0.8898071625344353
1452,1,-1,23,1269,20,141,0.8891947694425327
1453,-1,-1,23,1270,20,141,0.8892709766162311
1454,-1,-1,23,1271,20,141,0.8893470790378006
1455,1,-1,23,1271,20,142,0.8887362637362637
1456,-1,-1,23,1272,20,142,0.8888126286890872
1457,-1,-1,23,1273,20,142,0.8888888888888888
1458,-1,-1,23,1274,20,142,0.8889650445510624
1459,-1,-1,23,1275,20,142,0.8890410958904109
1460,1,-1,23,1275,20,143,0.8884325804243669
1461,-1,-1,23,1276,20,143,0.8885088919288646
1462,-1,-1,23,1277,20,143,0.8885850991114149
1463,-1,-1,23,1278,20,143,0.8886612021857924
1464,-1,-1,23,1279,20,143,0.8887372013651877
1465,-1,-1,23,1280,20,143,0.8888130968622101
1466,-1,-1,23,1281,20,143,0.8888888888888888
1467,-1,-1,23,1282,20,143,0.8889645776566758
1468,-1,-1,23,1283,20,143,0.8890401633764465
1469,-1,-1,23,1284,20,143,0.8891156462585034
1470,-1,-1,23,1285,20,143,0.8891910265125765
1471,-1,-1,23,1286,20,143,0.889266304347826
1472,-1,-1,23,1287,20,143,0.8893414799728445
1473,-1,-1,23,1288,20,143,0.8894165535956581
1474,-1,-1,23,1289,20,143,0.8894915254237288
1475,-1,-1,23,1290,20,143,0.8895663956639567
1476,-1,-1,23,1291,20,143,0.8896411645226812
1477,-1,-1,23,1292,20,143,0.8897158322056834
1478,-1,-1,23,1293,20,143,0.889790398918188
1479,-1,-1,23,1294,20,143,0.8898648648648648
1480,-1,-1,23,1295,20,143,0.8899392302498312
1481,-1,-1,23,1296,20,143,0.8900134952766532
1482,-1,-1,23,1297,20,143,0.890087660148348
1483,1,-1,23,1297,20,144,0.889487870619946
1484,-1,-1,23,1298,20,144,0.8895622895622896
1485,-1,-1,23,1299,20,144,0.8896366083445492
1486,-1,-1,23,1300,20,144,0.8897108271687962
1487,-1,-1,23,1301,20,144,0.8897849462365591
1488,-1,-1,23,1302,20,144,0.8898589657488247
1489,1,-1,23,1302,20,145,0.889261744966443
1490,-1,-1,23,1303,20,145,0.8893360160965795
1491,-1,-1,23,1304,20,145,0.8894101876675603
1492,-1,-1,23,1305,20,145,0.8894842598794374
1493,-1,-1,23,1306,20,145,0.8895582329317269
1494,-1,-1,23,1307,20,145,0.8896321070234113
1495,-1,-1,23,1308,20,145,0.8897058823529411
1496,-1,1,23,1308,21,145,0.8891115564462257
1497,-1,-1,23,1309,21,145,0.8891855807743658
1498,-1,-1,23,1310,21,145,0.8892595063375583
1499,-1,-1,23,1311,21,145,0.8893333333333333
1500,-1,-1,23,1312,21,145,0.8894070619586942
1501,-1,-1,23,1313,21,145,0.8894806924101198
1502,-1,-1,23,1314,21,145,0.8895542248835662
1503,-1,-1,23,1315,21,145,0.8896276595744681
1504,-1,-1,23,1316,21,145,0.8897009966777408
1505,-1,-1,23,1317,21,145,0.8897742363877822
1506,-1,-1,23,1318,21,145,0.8898473788984738
1507,-1,-1,23,1319,21,145,0.889920424403183
1508,-1,-1,23,1320,21,145,0.8899933730947648
1509,-1,-1,23,1321,21,145,0.8900662251655629
1510,-1,-1,23,1322,21,145,0.8901389808074123
1511,-1,-1,23,1323,21,145,0.8902116402116402
1512,-1,-1,23,1324,21,145,0.8902842035690681
1513,1,-1,23,1324,21,146,0.8896961690885072
1514,-1,-1,23,1325,21,146,0.8897689768976897
1515,-1,-1,23,1326,21,146,0.8898416886543535
1516,-1,-1,23,1327,21,146,0.8899143045484509
1517,-1,-1,23,1328,21,146,0.8899868247694335
1518,-1,-1,23,1329,21,146,0.8900592495062541
1519,1,1,24,1329,21,146,0.8901315789473684
1520,-1,-1,24,1330,21,146,0.8902038132807364
1521,-1,-1,24,1331,21,146,0.8902759526938239
1522,-1,-1,24,1332,21,146,0.8903479973736047
1523,-1,-1,24,1333,21,146,0.8904199475065617
1524,-1,-1,24,1334,21,146,0.8904918032786885
1525,-1,-1,24,1335,21,146,0.8905635648754915
1526,-1,-1,24,1336,21,146,0.8906352324819908
1527,-1,-1,24,1337,21,146,0.8907068062827225
1528,-1,-1,24,1338,21,146,0.8907782864617397
1529,-1,-1,24,1339,21,146,0.8908496732026144
1530,-1,-1,24,1340,21,146,0.8909209666884389
1531,-1,-1,24,1341,21,146,0.8909921671018277
1532,-1,-1,24,1342,21,146,0.8910632746249184
1533,-1,-1,24,1343,21,146,0.8911342894393742
1534,-1,-1,24,1344,21,146,0.8912052117263843
1535,-1,-1,24,1345,21,146,0.8912760416666666
1536,-1,-1,24,1346,21,146,0.8913467794404685
1537,-1,-1,24,1347,21,146,0.8914174252275683
1538,-1,-1,24,1348,21,146,0.8914879792072774
1539,-1,-1,24,1349,21,146,0.8915584415584416
1540,-1,-1,24,1350,21,146,0.8916288124594419
1541,-1,-1,24,1351,21,146,0.8916990920881972
1542,-1,-1,24,1352,21,146,0.8917692806221647
1543,-1,-1,24,1353,21,146,0.8918393782383419
1544,-1,-1,24,1354,21,146,0.8919093851132686
1545,-1,-1,24,1355,21,146,0.8919793014230272
1546,-1,-1,24,1356,21,146,0.892049127343245
1547,-1,-1,24,1357,21,146,0.8921188630490956
1548,-1,-1,24,1358,21,146,0.8921885087153002
1549,-1,-1,24,1359,21,146,0.892258064516129
1550,1,-1,24,1359,21,147,0.8916827852998066
1551,-1,-1,24,1360,21,147,0.8917525773195877
1552,-1,-1,24,1361,21,147,0.8918222794591114
1553,-1,-1,24,1362,21,147,0.8918918918918919
1554,-1,-1,24,1363,21,147,0.8919614147909968
1555,-1,-1,24,1364,21,147,0.8920308483290489
1556,-1,-1,24,1365,21,147,0.8921001926782274
1557,-1,-1,24,1366,21,147,0.8921694480102695
1558,-1,-1,24,1367,21,147,0.8922386144964721
1559,-1,-1,24,1368,21,147,0.8923076923076924
1560,-1,-1,24,1369,21,147,0.8923766816143498
1561,-1,-1,24,1370,21,147,0.8924455825864277
1562,1,-1,24,1370,21,148,0.891874600127959
1563,-1,-1,24,1371,21,148,0.8919437340153452
1564,-1,-1,24,1372,21,148,0.8920127795527156
1565,1,-1,24,1372,21,149,0.8914431673052363
1566,-1,-1,24,1373,21,149,0.8915124441608169
1567,-1,-1,24,1374,21,149,0.8915816326530612
1568,-1,-1,24,1375,21,149,0.8916507329509241
1569,-1,-1,24,1376,21,149,0.89171974522293
1570,-1,-1,24,1377,21,149,0.8917886696371737
1571,-1,-1,24,1378,21,149,0.8918575063613231
1572,1,-1,24,1378,21,150,0.891290527654164
1573,-1,-1,24,1379,21,150,0.8913595933926303
1574,-1,-1,24,1380,21,150,0.8914285714285715
1575,-1,-1,24,1381,21,150,0.891497461928934
1576,-1,-1,24,1382,21,150,0.891566265060241
1577,-1,-1,24,1383,21,150,0.8916349809885932
1578,1,-1,24,1383,21,151,0.8910702976567447
1579,-1,-1,24,1384,21,151,0.8911392405063291
1580,1,-1,24,1384,21,152,0.8905755850727388
1581,-1,-1,24,1385,21,152,0.8906447534766119
1582,-1,1,24,1385,22,152,0.8900821225521163
1583,-1,-1,24,1386,22,152,0.8901515151515151
1584,-1,-1,24,1387,22,152,0.8902208201892744
1585,-1,-1,24,1388,22,152,0.8902900378310215
1586,-1,-1,24,1389,22,152,0.8903591682419659
1587,-1,-1,24,1390,22,152,0.8904282115869018
1588,-1,-1,24,1391,22,152,0.8904971680302077
1589,1,1,25,1391,22,152,0.8905660377358491
1590,-1,-1,25,1392,22,152,0.890634820867379
1591,-1,-1,25,1393,22,152,0.8907035175879398
1592,-1,-1,25,1394,22,152,0.8907721280602636
1593,-1,-1,25,1395,22,152,0.890840652446675
1594,-1,-1,25,1396,22,152,0.8909090909090909
1595,-1,-1,25,1397,22,152,0.8909774436090225
1596,-1,-1,25,1398,22,152,0.8910457107075767
1597,-1,-1,25,1399,22,152,0.8911138923654568
1598,-1,-1,25,1400,22,152,0.8911819887429644
1599,-1,-1,25,1401,22,152,0.89125
1600,-1,-1,25,1402,22,152,0.891317926296065
1601,-1,-1,25,1403,22,152,0.8913857677902621
1602,-1,-1,25,1404,22,152,0.8914535246412976
1603,-1,-1,25,1405,22,152,0.8915211970074813
1604,-1,-1,25,1406,22,152,0.891588785046729
1605,-1,-1,25,1407,22,152,0.8916562889165629
1606,-1,-1,25,1408,22,152,0.8917237087741132
1607,-1,-1,25,1409,22,152,0.8917910447761194
1608,-1,-1,25,1410,22,152,0.891858297078931
1609,-1,-1,25,1411,22,152,0.8919254658385093
1610,-1,-1,25,1412,22,152,0.8919925512104283
1611,-1,-1,25,1413,22,152,0.892059553349876
1612,-1,-1,25,1414,22,152,0.8921264724116553
1613,-1,-1,25,1415,22,152,0.8921933085501859
1614,-1,-1,25,1416,22,152,0.8922600619195047
1615,-1,-1,25,1417,22,152,0.8923267326732673
1616,-1,-1,25,1418,22,152,0.8923933209647495
1617,-1,-1,25,1419,22,152,0.892459826946848
1618,-1,-1,25,1420,22,152,0.8925262507720816
1619,-1,-1,25,1421,22,152,0.8925925925925926
1620,-1,-1,25,1422,22,152,0.8926588525601481
1621,-1,-1,25,1423,22,152,0.8927250308261405
1622,-1,-1,25,1424,22,152,0.8927911275415896
1623,-1,-1,25,1425,22,152,0.8928571428571429
1624,-1,-1,25,1426,22,152,0.8929230769230769
1625,-1,-1,25,1427,22,152,0.8929889298892989
1626,-1,-1,25,1428,22,152,0.8930547019053473
1627,-1,-1,25,1429,22,152,0.8931203931203932
1628,-1,-1,25,1430,22,152,0.8931860036832413
1629,-1,-1,25,1431,22,152,0.8932515337423312
1630,-1,-1,25,1432,22,152,0.8933169834457388
1631,-1,-1,25,1433,22,152,0.8933823529411765
1632,-1,-1,25,1434,22,152,0.893447642375995
1633,-1,-1,25,1435,22,152,0.8935128518971848
1634,1,-1,25,1435,22,153,0.8929663608562691
1635,-1,-1,25,1436,22,153,0.8930317848410758
1636,-1,-1,25,1437,22,153,0.8930971288943189
1637,-1,-1,25,1438,22,153,0.8931623931623932
1638,-1,-1,25,1439,22,153,0.8932275777913362
1639,-1,-1,25,1440,22,153,0.8932926829268293
1640,-1,-1,25,1441,22,153,0.8933577087141986
1641,1,1,26,1441,22,153,0.8934226552984166
1642,-1,-1,26,1442,22,153,0.8934875228241023
1643,-1,-1,26,1443,22,153,0.8935523114355232
1644,-1,-1,26,1444,22,153,0.8936170212765957
1645,-1,-1,26,1445,22,153,0.893681652490887
1646,-1,-1,26,1446,22,153,0.8937462052216151
1647,-1,-1,26,1447,22,153,0.8938106796116505
1648,-1,-1,26,1448,22,153,0.8938750758035173
1649,-1,-1,26,1449,22,153,0.8939393939393939
1650,-1,-1,26,1450,22,153,0.8940036341611145
1651,-1,-1,26,1451,22,153,0.8940677966101694
1652,-1,-1,26,1452,22,153,0.8941318814277072
1653,-1,-1,26,1453,22,153,0.8941958887545345
1654,-1,-1,26,1454,22,153,0.8942598187311178
1655,-1,-1,26,1455,22,153,0.8943236714975845
1656,-1,-1,26,1456,22,153,0.8943874471937237
1657,-1,-1,26,1457,22,153,0.8944511459589868
1658,-1,-1,26,1458,22,153,0.8945147679324894
1659,-1,-1,26,1459,22,153,0.8945783132530121
1660,-1,-1,26,1460,22,153,0.8946417820590006
1661,1,-1,26,1460,22,154,0.8941034897713598
1662,-1,-1,26,1461,22,154,0.894167167769092
1663,1,-1,26,1461,22,155,0.8936298076923077
1664,-1,-1,26,1462,22,155,0.8936936936936937
1665,1,-1,26,1462,22,156,0.8931572629051621
1666,1,-1,26,1462,22,157,0.8926214757048591
1667,1,-1,26,1462,22,158,0.8920863309352518
1668,-1,-1,26,1463,22,158,0.8921509886159377
1669,1,-1,26,1463,22,159,0.8916167664670659
1670,1,-1,26,1463,22,160,0.891083183722322
1671,-1,-1,26,1464,22,160,0.8911483253588517
1672,1,-1,26,1464,22,161,0.8906156604901375
1673,-1,-1,26,1465,22,161,0.8906810035842294
1674,-1,-1,26,1466,22,161,0.8907462686567165
1675,-1,-1,26,1467,22,161,0.8908114558472554
1676,-1,-1,26,1468,22,161,0.8908765652951699
1677,-1,-1,26,1469,22,161,0.8909415971394518
1678,-1,-1,26,1470,22,161,0.8910065515187612
1679,-1,-1,26,1471,22,161,0.8910714285714286
1680,1,1,27,1471,22,161,0.891136228435455
1681,-1,-1,27,1472,22,161,0.8912009512485137
1682,-1,-1,27,1473,22,161,0.8912655971479501
1683,-1,-1,27,1474,22,161,0.8913301662707839
1684,-1,-1,27,1475,22,161,0.8913946587537092
1685,-1,-1,27,1476,22,161,0.891459074733096
1686,-1,-1,27,1477,22,161,0.8915234143449912
1687,-1,-1,27,1478,22,161,0.8915876777251185
1688,1,-1,27,1478,22,162,0.8910597986974541
1689,-1,-1,27,1479,22,162,0.8911242603550296
1690,-1,-1,27,1480,22,162,0.8911886457717327
1691,-1,-1,27,1481,22,162,0.8912529550827423
1692,-1,-1,27,1482,22,162,0.8913171884229178
1693,-1,-1,27,1483,22,162,0.8913813459268005
1694,-1,-1,27,1484,22,162,0.8914454277286136
1695,-1,-1,27,1485,22,162,0.8915094339622641
1696,-1,-1,27,1486,22,162,0.8915733647613435
1697,-1,-1,27,1487,22,162,0.8916372202591284
1698,-1,-1,27,1488,22,162,0.8917010005885815
1699,-1,-1,27,1489,22,162,0.8917647058823529
1700,-1,-1,27,1490,22,162,0.8918283362727807
1701,-1,-1,27,1491,22,162,0.8918918918918919
1702,-1,-1,27,1492,22,162,0.8919553728714034
1703,-1,-1,27,1493,22,162,0.892018779342723
1704,-1,-1,27,1494,22,162,0.8920821114369502
1705,-1,-1,27,1495,22,162,0.8921453692848769
1706,-1,-1,27,1496,22,162,0.8922085530169889
1707,-1,-1,27,1497,22,162,0.892271662763466
1708,-1,-1,27,1498,22,162,0.8923346986541837
1709,-1,-1,27,1499,22,162,0.8923976608187134
1710,-1,-1,27,1500,22,162,0.8924605493863238
1711,-1,-1,27,1501,22,162,0.8925233644859814
1712,-1,-1,27,1502,22,162,0.8925861062463515
1713,-1,-1,27,1503,22,162,0.8926487747957993
1714,-1,-1,27,1504,22,162,0.8927113702623907
1715,-1,-1,27,1505,22,162,0.8927738927738927
1716,-1,-1,27,1506,22,162,0.8928363424577752
1717,-1,-1,27,1507,22,162,0.8928987194412107
1718,-1,-1,27,1508,22,162,0.8929610238510762
1719,-1,-1,27,1509,22,162,0.8930232558139535
1720,-1,-1,27,1510,22,162,0.8930854154561302
1721,-1,-1,27,1511,22,162,0.8931475029036005
1722,1,1,28,1511,22,162,0.8932095182820662
1723,-1,-1,28,1512,22,162,0.8932714617169374
1724,-1,-1,28,1513,22,162,0.8933333333333333
1725,-1,-1,28,1514,22,162,0.8933951332560834
1726,-1,-1,28,1515,22,162,0.8934568616097278
1727,-1,-1,28,1516,22,162,0.8935185185185185
1728,-1,-1,28,1517,22,162,0.8935801041064199
1729,-1,-1,28,1518,22,162,0.8936416184971099
1730,-1,-1,28,1519,22,162,0.8937030618139804
1731,-1,-1,28,1520,22,162,0.8937644341801386
1732,-1,-1,28,1521,22,162,0.8938257357184074
1733,-1,1,28,1521,23,162,0.8933102652825836
1734,-1,-1,28,1522,23,162,0.8933717579250721
1735,-1,-1,28,1523,23,162,0.8934331797235023
1736,-1,-1,28,1524,23,162,0.8934945308002303
1737,1,-1,28,1524,23,163,0.8929804372842347
1738,-1,-1,28,1525,23,163,0.8930419781483612
1739,-1,-1,28,1526,23,163,0.8931034482758621
1740,-1,-1,28,1527,23,163,0.8931648477886273
1741,-1,-1,28,1528,23,163,0.8932261768082663
1742,-1,-1,28,1529,23,163,0.8932874354561101
1743,-1,-1,28,1530,23,163,0.893348623853211
1744,-1,-1,28,1531,23,163,0.8934097421203439
1745,-1,-1,28,1532,23,163,0.8934707903780069
1746,-1,-1,28,1533,23,163,0.8935317687464225
1747,-1,-1,28,1534,23,163,0.8935926773455377
1748,-1,-1,28,1535,23,163,0.8936535162950258
1749,-1,-1,28,1536,23,163,0.8937142857142857
1750,-1,-1,28,1537,23,163,0.8937749857224443
1751,-1,-1,28,1538,23,163,0.8938356164383562
1752,-1,-1,28,1539,23,163,0.8938961779806047
1753,1,-1,28,1539,23,164,0.8933865450399088
1754,-1,-1,28,1540,23,164,0.8934472934472935
1755,-1,-1,28,1541,23,164,0.893507972665148
1756,-1,-1,28,1542,23,164,0.8935685828116107
1757,1,1,29,1542,23,164,0.8936291240045506
1758,-1,-1,29,1543,23,164,0.8936895963615691
1759,-1,-1,29,1544,23,164,0.89375
1760,-1,-1,29,1545,23,164,0.8938103350369109
1761,-1,-1,29,1546,23,164,0.8938706015891033
1762,-1,-1,29,1547,23,164,0.893930799773114
1763,-1,-1,29,1548,23,164,0.8939909297052154
1764,-1,-1,29,1549,23,164,0.8940509915014164
1765,-1,-1,29,1550,23,164,0.8941109852774632
1766,1,-1,29,1550,23,165,0.8936049801924165
1767,-1,-1,29,1551,23,165,0.8936651583710408
1768,-1,-1,29,1552,23,165,0.8937252685132844
1769,-1,-1,29,1553,23,165,0.8937853107344633
1770,-1,-1,29,1554,23,165,0.893845285149633
1771,-1,-1,29,1555,23,165,0.8939051918735892
1772,-1,-1,29,1556,23,165,0.8939650310208686
1773,-1,-1,29,1557,23,165,0.8940248027057497
1774,-1,-1,29,1558,23,165,0.8940845070422535
1775,-1,-1,29,1559,23,165,0.8941441441441441
1776,-1,-1,29,1560,23,165,0.8942037141249296
1777,-1,-1,29,1561,23,165,0.8942632170978627
1778,-1,-1,29,1562,23,165,0.8943226531759415
1779,-1,-1,29,1563,23,165,0.8943820224719101
1780,-1,-1,29,1564,23,165,0.8944413250982594
1781,1,1,30,1564,23,165,0.8945005611672279
1782,-1,-1,30,1565,23,165,0.894559730790802
1783,-1,-1,30,1566,23,165,0.8946188340807175
1784,-1,-1,30,1567,23,165,0.8946778711484594
1785,-1,-1,30,1568,23,165,0.8947368421052632
1786,-1,-1,30,1569,23,165,0.8947957470621153
1787,-1,-1,30,1570,23,165,0.8948545861297539
1788,-1,-1,30,1571,23,165,0.8949133594186697
1789,-1,-1,30,1572,23,165,0.8949720670391061
1790,-1,-1,30,1573,23,165,0.8950307091010609
1791,-1,-1,30,1574,23,165,0.8950892857142857
1792,-1,-1,30,1575,23,165,0.8951477969882878
1793,-1,-1,30,1576,23,165,0.89520624303233
1794,-1,-1,30,1577,23,165,0.8952646239554317
1795,1,1,31,1577,23,165,0.8953229398663697
1796,-1,-1,31,1578,23,165,0.8953811908736784
1797,-1,-1,31,1579,23,165,0.8954393770856507
1798,-1,-1,31,1580,23,165,0.8954974986103391
1799,-1,-1,31,1581,23,165,0.8955555555555555
1800,-1,-1,31,1582,23,165,0.8956135480288728
1801,-1,-1,31,1583,23,165,0.8956714761376249
1802,-1,-1,31,1584,23,165,0.8957293399889074
1803,-1,-1,31,1585,23,165,0.8957871396895787
1804,-1,-1,31,1586,23,165,0.8958448753462603
1805,-1,-1,31,1587,23,165,0.8959025470653378
1806,-1,-1,31,1588,23,165,0.8959601549529607
1807,-1,-1,31,1589,23,165,0.8960176991150443
1808,-1,-1,31,1590,23,165,0.8960751796572692
1809,-1,-1,31,1591,23,165,0.8961325966850828
1810,-1,-1,31,1592,23,165,0.8961899503036996
1811,-1,-1,31,1593,23,165,0.8962472406181016
1812,-1,-1,31,1594,23,165,0.8963044677330392
1813,-1,-1,31,1595,23,165,0.896361631753032
1814,-1,-1,31,1596,23,165,0.8964187327823692
1815,-1,-1,31,1597,23,165,0.8964757709251101
1816,-1,-1,31,1598,23,165,0.8965327462850853
1817,1,1,32,1598,23,165,0.8965896589658966
1818,-1,-1,32,1599,23,165,0.8966465090709181
1819,-1,-1,32,1600,23,165,0.8967032967032967
1820,-1,-1,32,1601,23,165,0.8967600219659527
1821,-1,-1,32,1602,23,165,0.8968166849615807
1822,-1,-1,32,1603,23,165,0.8968732857926495
1823,-1,-1,32,1604,23,165,0.8969298245614035
1824,-1,-1,32,1605,23,165,0.896986301369863
1825,-1,-1,32,1606,23,165,0.8970427163198248
1826,-1,-1,32,1607,23,165,0.8970990695128627
1827,-1,-1,32,1608,23,165,0.8971553610503282
1828,-1,-1,32,1609,23,165,0.8972115910333516
1829,-1,-1,32,1610,23,165,0.8972677595628415
1830,-1,-1,32,1611,23,165,0.8973238667394866
1831,-1,-1,32,1612,23,165,0.8973799126637555
1832,1,-1,32,1612,23,166,0.8968903436988543
1833,-1,-1,32,1613,23,166,0.8969465648854962
1834,-1,-1,32,1614,23,166,0.8970027247956404
1835,-1,-1,32,1615,23,166,0.8970588235294118
1836,-1,-1,32,1616,23,166,0.8971148611867175
1837,-1,-1,32,1617,23,166,0.897170837867247
1838,1,-1,32,1617,23,167,0.8966829798803697
1839,-1,-1,32,1618,23,167,0.8967391304347826
1840,-1,-1,32,1619,23,167,0.8967952199891364
1841,-1,-1,32,1620,23,167,0.8968512486427795
1842,-1,-1,32,1621,23,167,0.8969072164948454
1843,-1,-1,32,1622,23,167,0.8969631236442517
1844,-1,-1,32,1623,23,167,0.8970189701897019
1845,-1,-1,32,1624,23,167,0.8970747562296858
1846,-1,-1,32,1625,23,167,0.8971304818624797
1847,-1,-1,32,1626,23,167,0.8971861471861472
1848,-1,-1,32,1627,23,167,0.8972417522985398
1849,-1,-1,32,1628,23,167,0.8972972972972973
1850,-1,-1,32,1629,23,167,0.8973527822798487
1851,-1,-1,32,1630,23,167,0.8974082073434125
1852,-1,-1,32,1631,23,167,0.8974635725849973
1853,-1,-1,32,1632,23,167,0.8975188781014024
1854,-1,-1,32,1633,23,167,0.8975741239892183
1855,-1,-1,32,1634,23,167,0.8976293103448276
1856,-1,-1,32,1635,23,167,0.8976844372644049
1857,-1,-1,32,1636,23,167,0.8977395048439182
1858,-1,-1,32,1637,23,167,0.8977945131791286
1859,-1,-1,32,1638,23,167,0.8978494623655914
1860,-1,-1,32,1639,23,167,0.8979043524986566
1861,-1,-1,32,1640,23,167,0.8979591836734694
1862,-1,-1,32,1641,23,167,0.8980139559849705
1863,-1,-1,32,1642,23,167,0.898068669527897
1864,-1,-1,32,1643,23,167,0.8981233243967829
1865,-1,-1,32,1644,23,167,0.8981779206859593
1866,-1,-1,32,1645,23,167,0.8982324584895555
1867,1,-1,32,1645,23,168,0.8977516059957173
1868,-1,-1,32,1646,23,168,0.8978063135366506
1869,-1,-1,32,1647,23,168,0.8978609625668449
1870,-1,-1,32,1648,23,168,0.8979155531801176
1871,-1,-1,32,1649,23,168,0.8979700854700855
1872,-1,-1,32,1650,23,168,0.8980245595301655
1873,1,-1,32,1650,23,169,0.8975453575240128
1874,-1,-1,32,1651,23,169,0.8976
1875,-1,-1,32,1652,23,169,0.8976545842217484
1876,-1,-1,32,1653,23,169,0.8977091102823654
1877,-1,-1,32,1654,23,169,0.8977635782747604
1878,-1,-1,32,1655,23,169,0.8978179882916445
1879,-1,-1,32,1656,23,169,0.8978723404255319
1880,-1,-1,32,1657,23,169,0.89792663476874
1881,-1,-1,32,1658,23,169,0.89798087141339
1882,-1,-1,32,1659,23,169,0.8980350504514073
1883,-1,-1,32,1660,23,169,0.8980891719745223
1884,-1,-1,32,1661,23,169,0.8981432360742706
1885,-1,-1,32,1662,23,169,0.8981972428419936
1886,-1,-1,32,1663,23,169,0.8982511923688394
1887,-1,-1,32,1664,23,169,0.8983050847457628
1888,-1,-1,32,1665,23,169,0.8983589200635257
1889,-1,-1,32,1666,23,169,0.8984126984126984
1890,1,-1,32,1666,23,170,0.8979375991538868
1891,-1,-1,32,1667,23,170,0.8979915433403806
1892,1,-1,32,1667,23,171,0.8975171685155837
1893,-1,-1,32,1668,23,171,0.8975712777191129
1894,-1,-1,32,1669,23,171,0.8976253298153034
1895,-1,-1,32,1670,23,171,0.8976793248945147
1896,-1,-1,32,1671,23,171,0.8977332630469161
1897,-1,-1,32,1672,23,171,0.8977871443624869
1898,-1,1,32,1672,24,171,0.8973143759873617
1899,-1,-1,32,1673,24,171,0.8973684210526316
1900,-1,-1,32,1674,24,171,0.8974224092582851
1901,-1,-1,32,1675,24,171,0.8974763406940063
1902,-1,-1,32,1676,24,171,0.8975302154492906
1903,-1,-1,32,1677,24,171,0.8975840336134454
1904,-1,-1,32,1678,24,171,0.8976377952755905
1905,-1,-1,32,1679,24,171,0.897691500524659
1906,-1,-1,32,1680,24,171,0.897745149449397
1907,-1,-1,32,1681,24,171,0.8977987421383647
1908,-1,-1,32,1682,24,171,0.8978522786799371
1909,-1,-1,32,1683,24,171,0.8979057591623036
1910,-1,1,32,1683,25,171,0.8974358974358975
1911,-1,1,32,1683,26,171,0.8969665271966527
1912,-1,-1,32,1684,26,171,0.8970203868269734
1913,-1,-1,32,1685,26,171,0.8970741901776385
1914,-1,-1,32,1686,26,171,0.8971279373368146
1915,-1,-1,32,1687,26,171,0.8971816283924844
1916,-1,1,32,1687,27,171,0.8967136150234741
1917,-1,-1,32,1688,27,171,0.8967674661105318
1918,-1,-1,32,1689,27,171,0.8968212610734758
1919,-1,-1,32,1690,27,171,0.896875
1920,-1,-1,32,1691,27,171,0.8969286829776159
1921,-1,-1,32,1692,27,171,0.8969823100936525
1922,-1,-1,32,1693,27,171,0.8970358814352574
1923,-1,-1,32,1694,27,171,0.8970893970893971
1924,-1,-1,32,1695,27,171,0.8971428571428571
1925,-1,-1,32,1696,27,171,0.897196261682243
1926,-1,-1,32,1697,27,171,0.8972496107939802
1927,-1,-1,32,1698,27,171,0.8973029045643154
1928,-1,-1,32,1699,27,171,0.8973561430793157
1929,-1,-1,32,1700,27,171,0.8974093264248705
1930,-1,-1,32,1701,27,171,0.8974624546866908
1931,1,-1,32,1701,27,172,0.8969979296066253
1932,-1,-1,32,1702,27,172,0.8970512157268494
1933,-1,-1,32,1703,27,172,0.8971044467425026
1934,-1,-1,32,1704,27,172,0.8971576227390181
1935,1,-1,32,1704,27,173,0.8966942148760331
1936,-1,-1,32,1705,27,173,0.8967475477542591
1937,-1,-1,32,1706,27,173,0.8968008255933952
1938,-1,-1,32,1707,27,173,0.8968540484785972
1939,1,-1,32,1707,27,174,0.8963917525773196
1940,-1,-1,32,1708,27,174,0.8964451313755796
1941,-1,-1,32,1709,27,174,0.8964984552008239
1942,-1,-1,32,1710,27,174,0.896551724137931
1943,-1,-1,32,1711,27,174,0.8966049382716049
1944,-1,-1,32,1712,27,174,0.8966580976863753
1945,-1,-1,32,1713,27,174,0.8967112024665982
1946,-1,-1,32,1714,27,174,0.8967642526964561
1947,-1,-1,32,1715,27,174,0.8968172484599589
1948,-1,-1,32,1716,27,174,0.896870189840944
1949,-1,-1,32,1717,27,174,0.8969230769230769
1950,-1,-1,32,1718,27,174,0.8969759097898513
1951,-1,-1,32,1719,27,174,0.8970286885245902
1952,-1,-1,32,1720,27,174,0.8970814132104454
1953,-1,-1,32,1721,27,174,0.8971340839303992
1954,-1,-1,32,1722,27,174,0.8971867007672635
1955,-1,-1,32,1723,27,174,0.897239263803681
1956,-1,-1,32,1724,27,174,0.8972917731221257
1957,-1,-1,32,1725,27,174,0.8973442288049029
1958,1,-1,32,1725,27,175,0.8968861664114344
1959,-1,-1,32,1726,27,175,0.8969387755102041
1960,-1,-1,32,1727,27,175,0.8969913309535951
1961,-1,-1,32,1728,27,175,0.8970438328236493
1962,1,1,33,1728,27,175,0.8970962812022415
1963,-1,-1,33,1729,27,175,0.8971486761710794
1964,-1,-1,33,1730,27,175,0.8972010178117048
1965,-1,-1,33,1731,27,175,0.8972533062054934
1966,-1,-1,33,1732,27,175,0.8973055414336553
1967,-1,-1,33,1733,27,175,0.8973577235772358
1968,-1,-1,33,1734,27,175,0.8974098527171153
1969,-1,-1,33,1735,27,175,0.8974619289340101
1970,-1,-1,33,1736,27,175,0.8975139523084729
1971,-1,-1,33,1737,27,175,0.8975659229208925
1972,1,-1,33,1737,27,176,0.8971109984794728
1973,-1,-1,33,1738,27,176,0.8971631205673759
1974,1,-1,33,1738,27,177,0.8967088607594936
1975,1,-1,33,1738,27,178,0.896255060728745
1976,-1,-1,33,1739,27,178,0.8963075366717248
1977,-1,-1,33,1740,27,178,0.8963599595551062
1978,1,-1,33,1740,27,179,0.8959070237493684
1979,-1,-1,33,1741,27,179,0.895959595959596
1980,-1,-1,33,1742,27,179,0.8960121150933872
1981,-1,-1,33,1743,27,179,0.8960645812310797
1982,1,-1,33,1743,27,180,0.8956127080181543
1983,-1,-1,33,1744,27,180,0.8956653225806451
1984,-1,-1,33,1745,27,180,0.8957178841309824
1985,1,-1,33,1745,27,181,0.8952668680765358
1986,-1,-1,33,1746,27,181,0.895319577252139
1987,-1,-1,33,1747,27,181,0.8953722334004024
1988,-1,-1,33,1748,27,181,0.8954248366013072
1989,1,-1,33,1748,27,182,0.8949748743718593
1990,-1,-1,33,1749,27,182,0.8950276243093923
1991,-1,-1,33,1750,27,182,0.8950803212851406
1992,1,-1,33,1750,27,183,0.8946312092323131
1993,-1,-1,33,1751,27,183,0.8946840521564694
1994,-1,-1,33,1752,27,183,0.8947368421052632
1995,-1,-1,33,1753,27,183,0.8947895791583166
1996,-1,-1,33,1754,27,183,0.8948422633950927
1997,-1,-1,33,1755,27,183,0.8948948948948949
1998,-1,-1,33,1756,27,183,0.8949474737368684
1999,-1,-1,33,1757,27,183,0.895
2000,-1,-1,33,1758,27,183,0.8950524737631185
2001,-1,-1,33,1759,27,183,0.8951048951048951
2002,-1,-1,33,1760,27,183,0.8951572641038442
2003,-1,-1,33,1761,27,183,0.8952095808383234
2004,-1,-1,33,1762,27,183,0.8952618453865336
2005,-1,-1,33,1763,27,183,0.8953140578265204
2006,-1,-1,33,1764,27,183,0.8953662182361734
2007,-1,-1,33,1765,27,183,0.8954183266932271
2008,-1,-1,33,1766,27,183,0.8954703832752613
2009,-1,-1,33,1767,27,183,0.8955223880597015
2010,-1,-1,33,1768,27,183,0.895574341123819
2011,-1,-1,33,1769,27,183,0.8956262425447317
2012,-1,-1,33,1770,27,183,0.8956780923994039
2013,1,-1,33,1770,27,184,0.8952333664349553
2014,-1,-1,33,1771,27,184,0.8952853598014888
2015,-1,-1,33,1772,27,184,0.8953373015873016
2016,1,-1,33,1772,27,185,0.894893406048587
2017,-1,-1,33,1773,27,185,0.8949454905847374
2018,-1,-1,33,1774,27,185,0.8949975235264983
2019,-1,-1,33,1775,27,185,0.8950495049504951
2020,-1,-1,33,1776,27,185,0.8951014349332014
2021,-1,-1,33,1777,27,185,0.8951533135509396
2022,-1,-1,33,1778,27,185,0.8952051408798813
2023,-1,-1,33,1779,27,185,0.8952569169960475
2024,1,-1,33,1779,27,186,0.8948148148148148
2025,-1,-1,33,1780,27,186,0.8948667324777887
2026,-1,-1,33,1781,27,186,0.8949185989146522
2027,-1,-1,33,1782,27,186,0.8949704142011834
2028,-1,-1,33,1783,27,186,0.8950221784130113
2029,-1,-1,33,1784,27,186,0.8950738916256158
2030,-1,-1,33,1785,27,186,0.8951255539143279
2031,-1,-1,33,1786,27,186,0.8951771653543307
2032,-1,-1,33,1787,27,186,0.8952287260206592
2033,-1,-1,33,1788,27,186,0.8952802359882006
2034,-1,-1,33,1789,27,186,0.8953316953316953
2035,1,-1,33,1789,27,187,0.8948919449901768
2036,-1,-1,33,1790,27,187,0.8949435444280806
2037,-1,-1,33,1791,27,187,0.8949950932286556
2038,-1,-1,33,1792,27,187,0.8950465914664051
2039,-1,-1,33,1793,27,187,0.8950980392156863
2040,-1,-1,33,1794,27,187,0.8951494365507104
2041,-1,-1,33,1795,27,187,0.8952007835455436
2042,-1,-1,33,1796,27,187,0.8952520802741067
2043,-1,-1,33,1797,27,187,0.8953033268101761
2044,-1,-1,33,1798,27,187,0.8953545232273838
2045,-1,-1,33,1799,27,187,0.895405669599218
2046,-1,-1,33,1800,27,187,0.8954567659990229
2047,-1,-1,33,1801,27,187,0.8955078125
2048,-1,-1,33,1802,27,187,0.8955588091752075
2049,-1,-1,33,1803,27,187,0.895609756097561
2050,-1,-1,33,1804,27,187,0.8956606533398342
2051,-1,-1,33,1805,27,187,0.8957115009746589
2052,-1,-1,33,1806,27,187,0.8957622990745251
2053,1,-1,33,1806,27,188,0.8953261927945472
2054,-1,-1,33,1807,27,188,0.8953771289537713
2055,-1,-1,33,1808,27,188,0.8954280155642024
2056,-1,-1,33,1809,27,188,0.895478852698104
2057,-1,-1,33,1810,27,188,0.8955296404275996
2058,-1,-1,33,1811,27,188,0.8955803788246721
2059,-1,-1,33,1812,27,188,0.8956310679611651
2060,-1,-1,33,1813,27,188,0.8956817079087821
2061,-1,-1,33,1814,27,188,0.8957322987390882
2062,-1,-1,33,1815,27,188,0.8957828405235094
2063,-1,-1,33,1816,27,188,0.8958333333333334
2064,-1,-1,33,1817,27,188,0.8958837772397095
2065,-1,-1,33,1818,27,188,0.8959341723136496
2066,-1,-1,33,1819,27,188,0.895984518626028
2067,-1,-1,33,1820,27,188,0.8960348162475822
2068,-1,-1,33,1821,27,188,0.8960850652489125
2069,-1,-1,33,1822,27,188,0.8961352657004831
2070,-1,-1,33,1823,27,188,0.8961854176726219
2071,-1,-1,33,1824,27,188,0.8962355212355212
2072,1,-1,33,1824,27,189,0.8958031837916064
2073,-1,-1,33,1825,27,189,0.8958534233365477
2074,-1,-1,33,1826,27,189,0.8959036144578313
2075,-1,-1,33,1827,27,189,0.8959537572254336
2076,-1,-1,33,1828,27,189,0.8960038517091959
2077,-1,-1,33,1829,27,189,0.8960538979788258
2078,-1,-1,33,1830,27,189,0.8961038961038961
2079,-1,-1,33,1831,27,189,0.8961538461538462
2080,-1,-1,33,1832,27,189,0.8962037481979818
2081,-1,-1,33,1833,27,189,0.8962536023054755
2082,-1,-1,33,1834,27,189,0.8963034085453673
2083,-1,-1,33,1835,27,189,0.8963531669865643
2084,-1,-1,33,1836,27,189,0.8964028776978418
2085,-1,-1,33,1837,27,189,0.8964525407478428
2086,-1,-1,33,1838,27,189,0.8965021562050791
2087,-1,-1,33,1839,27,189,0.896551724137931
2088,-1,-1,33,1840,27,189,0.8966012446146482
2089,-1,-1,33,1841,27,189,0.8966507177033493
2090,-1,-1,33,1842,27,189,0.896700143472023
2091,-1,-1,33,1843,27,189,0.8967495219885278
2092,-1,-1,33,1844,27,189,0.8967988533205925
2093,1,-1,33,1844,27,190,0.896370582617001
2094,-1,-1,33,1845,27,190,0.8964200477326969
2095,-1,-1,33,1846,27,190,0.896469465648855
2096,-1,-1,33,1847,27,190,0.8965188364329996
2097,-1,-1,33,1848,27,190,0.8965681601525262
2098,-1,-1,33,1849,27,190,0.8966174368747022
2099,-1,-1,33,1850,27,190,0.8966666666666666
2100,-1,-1,33,1851,27,190,0.8967158495954307
2101,1,-1,33,1851,27,191,0.8962892483349191
2102,-1,-1,33,1852,27,191,0.896338563956253
2103,-1,-1,33,1853,27,191,0.8963878326996197
2104,1,-1,33,1853,27,192,0.8959619952494062
2105,1,-1,33,1853,27,193,0.8955365622032289
2106,-1,-1,33,1854,27,193,0.8955861414333175
2107,-1,-1,33,1855,27,193,0.8956356736242884
2108,-1,-1,33,1856,27,193,0.8956851588430536
2109,-1,-1,33,1857,27,193,0.8957345971563981
2110,-1,-1,33,1858,27,193,0.8957839886309806
2111,-1,-1,33,1859,27,193,0.8958333333333334
2112,-1,-1,33,1860,27,193,0.8958826313298628
2113,-1,-1,33,1861,27,193,0.8959318826868495
2114,-1,-1,33,1862,27,193,0.8959810874704491
2115,-1,-1,33,1863,27,193,0.8960302457466919
2116,-1,-1,33,1864,27,193,0.8960793575814833
2117,-1,-1,33,1865,27,193,0.8961284230406044
2118,-1,-1,33,1866,27,193,0.8961774421897122
2119,1,-1,33,1866,27,194,0.8957547169811321
2120,-1,-1,33,1867,27,194,0.8958038661008958
2121,1,-1,33,1867,27,195,0.8953817153628653
2122,-1,-1,33,1868,27,195,0.8954309938765898
2123,-1,-1,33,1869,27,195,0.8954802259887006
2124,-1,-1,33,1870,27,195,0.8955294117647059
2125,-1,-1,33,1871,27,195,0.8955785512699906
2126,-1,-1,33,1872,27,195,0.8956276445698167
2127,-1,-1,33,1873,27,195,0.8956766917293233
2128,-1,-1,33,1874,27,195,0.8957256928135274
2129,-1,-1,33,1875,27,195,0.895774647887324
2130,-1,-1,33,1876,27,195,0.8958235570154857
2131,-1,-1,33,1877,27,195,0.8958724202626641
2132,-1,-1,33,1878,27,195,0.8959212376933896
2133,-1,-1,33,1879,27,195,0.8959700093720713
2134,-1,-1,33,1880,27,195,0.8960187353629977
2135,-1,-1,33,1881,27,195,0.8960674157303371
2136,-1,-1,33,1882,27,195,0.8961160505381376
2137,-1,-1,33,1883,27,195,0.8961646398503275
2138,1,-1,33,1883,27,196,0.8957456755493222
2139,-1,-1,33,1884,27,196,0.8957943925233645
2140,-1,-1,33,1885,27,196,0.8958430639887903
2141,-1,-1,33,1886,27,196,0.8958916900093371
2142,-1,-1,33,1887,27,196,0.8959402706486235
2143,-1,-1,33,1888,27,196,0.8959888059701493
2144,-1,-1,33,1889,27,196,0.896037296037296
2145,-1,-1,33,1890,27,196,0.8960857409133272
2146,-1,-1,33,1891,27,196,0.896134140661388
2147,-1,-1,33,1892,27,196,0.8961824953445066
2148,-1,-1,33,1893,27,196,0.8962308050255933
2149,1,-1,33,1893,27,197,0.8958139534883721
2150,-1,-1,33,1894,27,197,0.895862389586239
2151,-1,-1,33,1895,27,197,0.895910780669145
2152,-1,-1,33,1896,27,197,0.8959591267998143
2153,-1,-1,33,1897,27,197,0.8960074280408542
2154,-1,-1,33,1898,27,197,0.8960556844547564
2155,-1,-1,33,1899,27,197,0.8961038961038961
2156,-1,-1,33,1900,27,197,0.8961520630505332
2157,-1,-1,33,1901,27,197,0.8962001853568119
2158,-1,-1,33,1902,27,197,0.8962482630847615
2159,-1,-1,33,1903,27,197,0.8962962962962963
2160,-1,-1,33,1904,27,197,0.8963442850532161
2161,-1,-1,33,1905,27,197,0.8963922294172063
2162,-1,-1,33,1906,27,197,0.8964401294498382
2163,-1,-1,33,1907,27,197,0.8964879852125693
2164,-1,-1,33,1908,27,197,0.8965357967667437
2165,-1,-1,33,1909,27,197,0.8965835641735919
2166,-1,-1,33,1910,27,197,0.8966312874942317
2167,-1,-1,33,1911,27,197,0.8966789667896679
2168,-1,-1,33,1912,27,197,0.896726602120793
2169,-1,-1,33,1913,27,197,0.896774193548387
2170,-1,-1,33,1914,27,197,0.8968217411331184
2171,-1,-1,33,1915,27,197,0.8968692449355433
2172,-1,-1,33,1916,27,197,0.8969167050161068
2173,-1,-1,33,1917,27,197,0.8969641214351426
2174,-1,-1,33,1918,27,197,0.8970114942528735
2175,-1,-1,33,1919,27,197,0.8970588235294118
2176,-1,-1,33,1920,27,197,0.8971061093247589
2177,-1,-1,33,1921,27,197,0.8971533516988063
2178,-1,-1,33,1922,27,197,0.8972005507113354
2179,-1,-1,33,1923,27,197,0.8972477064220183
2180,-1,-1,33,1924,27,197,0.8972948188904173
2181,-1,-1,33,1925,27,197,0.8973418881759854
2182,-1,-1,33,1926,27,197,0.8973889143380669
2183,-1,-1,33,1927,27,197,0.8974358974358975
2184,-1,-1,33,1928,27,197,0.8974828375286041
2185,-1,-1,33,1929,27,197,0.8975297346752058
2186,-1,-1,33,1930,27,197,0.8975765889346137
2187,-1,-1,33,1931,27,197,0.8976234003656307
2188,-1,-1,33,1932,27,197,0.897670169026953
2189,-1,-1,33,1933,27,197,0.897716894977169
2190,-1,-1,33,1934,27,197,0.8977635782747604
2191,-1,-1,33,1935,27,197,0.8978102189781022
2192,-1,-1,33,1936,27,197,0.8978568171454628
2193,-1,-1,33,1937,27,197,0.8979033728350045
2194,-1,-1,33,1938,27,197,0.8979498861047835
2195,-1,-1,33,1939,27,197,0.8979963570127505
2196,-1,-1,33,1940,27,197,0.8980427856167501
2197,1,-1,33,1940,27,198,0.8976342129208371
2198,-1,-1,33,1941,27,198,0.897680763983629
2199,-1,-1,33,1942,27,198,0.8977272727272727
2200,-1,-1,33,1943,27,198,0.8977737392094502
2201,-1,-1,33,1944,27,198,0.8978201634877384
2202,-1,-1,33,1945,27,198,0.8978665456196097
2203,1,-1,33,1945,27,199,0.8974591651542649
2204,-1,-1,33,1946,27,199,0.8975056689342403
2205,-1,-1,33,1947,27,199,0.8975521305530372
2206,-1,-1,33,1948,27,199,0.8975985500679655
2207,-1,-1,33,1949,27,199,0.8976449275362319
2208,-1,-1,33,1950,27,199,0.8976912630149388
2209,-1,-1,33,1951,27,199,0.897737556561086
2210,-1,-1,33,1952,27,199,0.8977838082315694
2211,-1,-1,33,1953,27,199,0.8978300180831826
2212,-1,-1,33,1954,27,199,0.8978761861726163
2213,-1,-1,33,1955,27,199,0.8979223125564589
2214,-1,1,33,1955,28,199,0.8975169300225734
2215,-1,-1,33,1956,28,199,0.8975631768953068
2216,-1,-1,33,1957,28,199,0.8976093820478124
2217,-1,-1,33,1958,28,199,0.8976555455365194
2218,-1,-1,33,1959,28,199,0.8977016674177557
2219,-1,-1,33,1960,28,199,0.8977477477477478
2220,-1,-1,33,1961,28,199,0.8977937865826204
2221,-1,-1,33,1962,28,199,0.8978397839783978
2222,1,-1,33,1962,28,200,0.8974358974358975
2223,-1,-1,33,1963,28,200,0.8974820143884892
2224,-1,-1,33,1964,28,200,0.8975280898876404
2225,-1,-1,33,1965,28,200,0.8975741239892183
2226,-1,-1,33,1966,28,200,0.8976201167489897
2227,-1,-1,33,1967,28,200,0.8976660682226212
2228,-1,-1,33,1968,28,200,0.8977119784656796
2229,-1,-1,33,1969,28,200,0.8977578475336323
2230,-1,-1,33,1970,28,200,0.8978036754818467
2231,-1,-1,33,1971,28,200,0.8978494623655914
2232,-1,-1,33,1972,28,200,0.8978952082400359
2233,-1,-1,33,1973,28,200,0.8979409131602507
2234,-1,-1,33,1974,28,200,0.897986577181208
2235,-1,-1,33,1975,28,200,0.8980322003577818
2236,-1,-1,33,1976,28,200,0.8980777827447475
2237,1,-1,33,1976,28,201,0.8976764968722073
2238,-1,-1,33,1977,28,201,0.8977221974095578
2239,-1,-1,33,1978,28,201,0.8977678571428571
2240,-1,-1,33,1979,28,201,0.8978134761267291
2241,-1,-1,33,1980,28,201,0.8978590544157002
2242,-1,-1,33,1981,28,201,0.8979045920641997
2243,-1,-1,33,1982,28,201,0.8979500891265597
2244,-1,-1,33,1983,28,201,0.8979955456570156
2245,-1,-1,33,1984,28,201,0.8980409617097062
2246,-1,-1,33,1985,28,201,0.8980863373386738
2247,-1,-1,33,1986,28,201,0.8981316725978647
2248,-1,-1,33,1987,28,201,0.8981769675411294
2249,-1,-1,33,1988,28,201,0.8982222222222223
2250,-1,-1,33,1989,28,201,0.8982674366948024
2251,1,-1,33,1989,28,202,0.8978685612788633
2252,-1,-1,33,1990,28,202,0.8979138925876609
2253,-1,-1,33,1991,28,202,0.8979591836734694
2254,-1,-1,33,1992,28,202,0.8980044345898004
2255,-1,-1,33,1993,28,202,0.8980496453900709
2256,-1,-1,33,1994,28,202,0.898094816127603
2257,-1,-1,33,1995,28,202,0.8981399468556245
2258,-1,-1,33,1996,28,202,0.8981850376272688
2259,-1,-1,33,1997,28,202,0.8982300884955752
2260,-1,-1,33,1998,28,202,0.8982750995134896
2261,-1,-1,33,1999,28,202,0.8983200707338639
2262,-1,-1,33,2000,28,202,0.8983650022094565
2263,1,-1,33,2000,28,203,0.8979681978798587
2264,-1,-1,33,2001,28,203,0.8980132450331125
2265,-1,-1,33,2002,28,203,0.8980582524271845
2266,-1,-1,33,2003,28,203,0.898103220114689
2267,1,1,34,2003,28,203,0.8981481481481481
2268,-1,-1,34,2004,28,203,0.8981930365799912
2269,-1,-1,34,2005,28,203,0.8982378854625551
2270,-1,-1,34,2006,28,203,0.8982826948480845
2271,-1,-1,34,2007,28,203,0.8983274647887324
2272,-1,-1,34,2008,28,203,0.8983721953365597
2273,-1,-1,34,2009,28,203,0.8984168865435356
2274,-1,-1,34,2010,28,203,0.8984615384615384
2275,1,-1,34,2010,28,204,0.8980667838312829
2276,-1,-1,34,2011,28,204,0.8981115502854633
2277,-1,-1,34,2012,28,204,0.8981562774363476
2278,-1,-1,34,2013,28,204,0.8982009653356735
2279,-1,-1,34,2014,28,204,0.8982456140350877
2280,-1,-1,34,2015,28,204,0.8982902235861464
2281,-1,-1,34,2016,28,204,0.8983347940403155
2282,-1,-1,34,2017,28,204,0.8983793254489707
2283,-1,-1,34,2018,28,204,0.8984238178633975
2284,-1,-1,34,2019,28,204,0.8984682713347921
2285,-1,-1,34,2020,28,204,0.8985126859142607
2286,-1,1,34,2020,29,204,0.8981198076082204
2287,-1,-1,34,2021,29,204,0.8981643356643356
2288,-1,-1,34,2022,29,204,0.8982088248143294
2289,-1,-1,34,2023,29,204,0.8982532751091703
2290,-1,-1,34,2024,29,204,0.8982976865997381
2291,-1,-1,34,2025,29,204,0.8983420593368238
2292,-1,-1,34,2026,29,204,0.8983863933711296
2293,-1,-1,34,2027,29,204,0.8984306887532694
2294,-1,-1,34,2028,29,204,0.898474945533769
2295,-1,-1,34,2029,29,204,0.8985191637630662
2296,-1,-1,34,2030,29,204,0.8985633434915107
2297,-1,-1,34,2031,29,204,0.8986074847693647
2298,-1,-1,34,2032,29,204,0.898651587646803
2299,1,-1,34,2032,29,205,0.8982608695652174
2300,-1,-1,34,2033,29,205,0.8983050847457628
2301,-1,-1,34,2034,29,205,0.8983492615117289
2302,-1,-1,34,2035,29,205,0.8983933999131567
2303,-1,-1,34,2036,29,205,0.8984375
2304,1,-1,34,2036,29,206,0.8980477223427332
2305,-1,-1,34,2037,29,206,0.8980919340849957
2306,-1,-1,34,2038,29,206,0.8981361074989164
2307,-1,-1,34,2039,29,206,0.8981802426343154
2308,-1,-1,34,2040,29,206,0.8982243395409268
2309,1,-1,34,2040,29,207,0.8978354978354979
2310,1,-1,34,2040,29,208,0.8974469926438771
2311,-1,-1,34,2041,29,208,0.8974913494809689
2312,-1,-1,34,2042,29,208,0.8975356679636836
2313,1,-1,34,2042,29,209,0.8971477960242005
2314,-1,-1,34,2043,29,209,0.8971922246220302
2315,-1,-1,34,2044,29,209,0.8972366148531952
2316,-1,-1,34,2045,29,209,0.8972809667673716
2317,-1,-1,34,2046,29,209,0.8973252804141502
2318,-1,-1,34,2047,29,209,0.8973695558430358
2319,-1,-1,34,2048,29,209,0.8974137931034483
2320,-1,-1,34,2049,29,209,0.8974579922447221
2321,-1,-1,34,2050,29,209,0.8975021533161068
2322,-1,-1,34,2051,29,209,0.8975462763667671
2323,-1,-1,34,2052,29,209,0.8975903614457831
2324,-1,-1,34,2053,29,209,0.8976344086021505
2325,-1,-1,34,2054,29,209,0.8976784178847808
2326,-1,-1,34,2055,29,209,0.897722389342501
2327,-1,-1,34,2056,29,209,0.897766323024055
2328,-1,-1,34,2057,29,209,0.8978102189781022
2329,-1,-1,34,2058,29,209,0.8978540772532189
2330,-1,-1,34,2059,29,209,0.8978978978978979
2331,-1,-1,34,2060,29,209,0.8979416809605489
2332,-1,-1,34,2061,29,209,0.8979854264894985
2333,1,1,35,2061,29,209,0.8980291345329906
2334,-1,-1,35,2062,29,209,0.8980728051391863
2335,-1,-1,35,2063,29,209,0.8981164383561644
2336,-1,-1,35,2064,29,209,0.8981600342319213
2337,-1,-1,35,2065,29,209,0.8982035928143712
2338,1,-1,35,2065,29,210,0.8978195810175289
2339,-1,-1,35,2066,29,210,0.8978632478632479
2340,-1,-1,35,2067,29,210,0.8979068774028193
2341,-1,-1,35,2068,29,210,0.8979504696840307
2342,-1,-1,35,2069,29,210,0.8979940247545881
2343,1,-1,35,2069,29,211,0.8976109215017065
2344,-1,-1,35,2070,29,211,0.8976545842217484
2345,-1,-1,35,2071,29,211,0.8976982097186701
2346,-1,-1,35,2072,29,211,0.8977417980400512
2347,-1,-1,35,2073,29,211,0.8977853492333902
2348,-1,-1,35,2074,29,211,0.8978288633461047
2349,-1,-1,35,2075,29,211,0.8978723404255319
2350,-1,-1,35,2076,29,211,0.8979157805189281
2351,-1,-1,35,2077,29,211,0.8979591836734694
2352,-1,-1,35,2078,29,211,0.8980025499362516
2353,-1,-1,35,2079,29,211,0.8980458793542906
2354,-1,-1,35,2080,29,211,0.8980891719745223
2355,-1,-1,35,2081,29,211,0.8981324278438031
