instance,lable,predicted,tp,tn,fp,fn,correctness
0,-1,-1,0,1,0,0,1.0
1,-1,-1,0,2,0,0,1.0
2,-1,-1,0,3,0,0,1.0
3,-1,-1,0,4,0,0,1.0
4,-1,-1,0,5,0,0,1.0
5,-1,-1,0,6,0,0,1.0
6,-1,-1,0,7,0,0,1.0
7,-1,-1,0,8,0,0,1.0
8,-1,-1,0,9,0,0,1.0
9,-1,-1,0,10,0,0,1.0
10,-1,-1,0,11,0,0,1.0
11,-1,-1,0,12,0,0,1.0
12,-1,-1,0,13,0,0,1.0
13,-1,-1,0,14,0,0,1.0
14,-1,-1,0,15,0,0,1.0
15,-1,-1,0,16,0,0,1.0
16,-1,-1,0,17,0,0,1.0
17,-1,-1,0,18,0,0,1.0
18,-1,-1,0,19,0,0,1.0
19,-1,-1,0,20,0,0,1.0
20,-1,-1,0,21,0,0,1.0
21,-1,-1,0,22,0,0,1.0
22,-1,-1,0,23,0,0,1.0
23,-1,-1,0,24,0,0,1.0
24,-1,-1,0,25,0,0,1.0
25,1,-1,0,25,0,1,0.9615384615384616
26,-1,-1,0,26,0,1,0.9629629629629629
27,-1,-1,0,27,0,1,0.9642857142857143
28,-1,-1,0,28,0,1,0.9655172413793104
29,-1,-1,0,29,0,1,0.9666666666666667
30,-1,-1,0,30,0,1,0.967741935483871
31,-1,-1,0,31,0,1,0.96875
32,-1,-1,0,32,0,1,0.9696969696969697
33,-1,-1,0,33,0,1,0.9705882352941176
34,-1,-1,0,34,0,1,0.9714285714285714
35,1,-1,0,34,0,2,0.9444444444444444
36,-1,-1,0,35,0,2,0.9459459459459459
37,-1,-1,0,36,0,2,0.9473684210526315
38,-1,-1,0,37,0,2,0.9487179487179487
39,-1,-1,0,38,0,2,0.95
40,-1,-1,0,39,0,2,0.9512195121951219
41,-1,-1,0,40,0,2,0.9523809523809523
42,-1,-1,0,41,0,2,0.9534883720930233
43,-1,-1,0,42,0,2,0.9545454545454546
44,-1,-1,0,43,0,2,0.9555555555555556
45,-1,-1,0,44,0,2,0.9565217391304348
46,-1,-1,0,45,0,2,0.9574468085106383
47,-1,-1,0,46,0,2,0.9583333333333334
48,-1,-1,0,47,0,2,0.9591836734693877
49,-1,-1,0,48,0,2,0.96
50,-1,-1,0,49,0,2,0.9607843137254902
51,-1,-1,0,50,0,2,0.9615384615384616
52,-1,-1,0,51,0,2,0.9622641509433962
53,-1,-1,0,52,0,2,0.9629629629629629
54,-1,-1,0,53,0,2,0.9636363636363636
55,-1,-1,0,54,0,2,0.9642857142857143
56,-1,-1,0,55,0,2,0.9649122807017544
57,-1,-1,0,56,0,2,0.9655172413793104
58,-1,-1,0,57,0,2,0.9661016949152542
59,-1,-1,0,58,0,2,0.9666666666666667
60,-1,-1,0,59,0,2,0.9672131147540983
61,-1,-1,0,60,0,2,0.967741935483871
62,-1,-1,0,61,0,2,0.9682539682539683
63,-1,-1,0,62,0,2,0.96875
64,-1,-1,0,63,0,2,0.9692307692307692
65,1,-1,0,63,0,3,0.9545454545454546
66,-1,-1,0,64,0,3,0.9552238805970149
67,1,-1,0,64,0,4,0.9411764705882353
68,-1,-1,0,65,0,4,0.9420289855072463
69,-1,-1,0,66,0,4,0.9428571428571428
70,1,-1,0,66,0,5,0.9295774647887324
71,-1,-1,0,67,0,5,0.9305555555555556
72,-1,-1,0,68,0,5,0.9315068493150684
73,-1,-1,0,69,0,5,0.9324324324324325
74,-1,-1,0,70,0,5,0.9333333333333333
75,1,-1,0,70,0,6,0.9210526315789473
76,-1,-1,0,71,0,6,0.922077922077922
77,-1,-1,0,72,0,6,0.9230769230769231
78,-1,-1,0,73,0,6,0.9240506329113924
79,-1,-1,0,74,0,6,0.925
80,-1,-1,0,75,0,6,0.9259259259259259
81,-1,-1,0,76,0,6,0.926829268292683
82,-1,-1,0,77,0,6,0.927710843373494
83,-1,-1,0,78,0,6,0.9285714285714286
84,1,-1,0,78,0,7,0.9176470588235294
85,-1,-1,0,79,0,7,0.9186046511627907
86,1,-1,0,79,0,8,0.9080459770114943
87,-1,-1,0,80,0,8,0.9090909090909091
88,-1,-1,0,81,0,8,0.9101123595505618
89,-1,-1,0,82,0,8,0.9111111111111111
90,-1,-1,0,83,0,8,0.9120879120879121
91,-1,-1,0,84,0,8,0.9130434782608695
92,-1,-1,0,85,0,8,0.9139784946236559
93,-1,-1,0,86,0,8,0.9148936170212766
94,-1,-1,0,87,0,8,0.9157894736842105
95,-1,-1,0,88,0,8,0.9166666666666666
96,-1,-1,0,89,0,8,0.9175257731958762
97,-1,-1,0,90,0,8,0.9183673469387755
98,-1,-1,0,91,0,8,0.9191919191919192
99,-1,-1,0,92,0,8,0.92
100,-1,-1,0,93,0,8,0.9207920792079208
101,-1,-1,0,94,0,8,0.9215686274509803
102,-1,-1,0,95,0,8,0.9223300970873787
103,-1,-1,0,96,0,8,0.9230769230769231
104,-1,-1,0,97,0,8,0.9238095238095239
105,-1,-1,0,98,0,8,0.9245283018867925
106,-1,-1,0,99,0,8,0.9252336448598131
107,-1,-1,0,100,0,8,0.9259259259259259
108,-1,-1,0,101,0,8,0.926605504587156
109,-1,-1,0,102,0,8,0.9272727272727272
110,-1,-1,0,103,0,8,0.9279279279279279
111,-1,-1,0,104,0,8,0.9285714285714286
112,-1,-1,0,105,0,8,0.9292035398230089
113,1,-1,0,105,0,9,0.9210526315789473
114,-1,-1,0,106,0,9,0.9217391304347826
115,-1,-1,0,107,0,9,0.9224137931034483
116,-1,-1,0,108,0,9,0.9230769230769231
117,-1,-1,0,109,0,9,0.923728813559322
118,1,-1,0,109,0,10,0.9159663865546218
119,-1,-1,0,110,0,10,0.9166666666666666
120,-1,-1,0,111,0,10,0.9173553719008265
121,-1,-1,0,112,0,10,0.9180327868852459
122,-1,-1,0,113,0,10,0.9186991869918699
123,1,-1,0,113,0,11,0.9112903225806451
124,-1,-1,0,114,0,11,0.912
125,-1,-1,0,115,0,11,0.9126984126984127
126,-1,-1,0,116,0,11,0.9133858267716536
127,-1,-1,0,117,0,11,0.9140625
128,-1,-1,0,118,0,11,0.9147286821705426
129,1,-1,0,118,0,12,0.9076923076923077
130,-1,-1,0,119,0,12,0.9083969465648855
131,-1,-1,0,120,0,12,0.9090909090909091
132,-1,-1,0,121,0,12,0.9097744360902256
133,-1,-1,0,122,0,12,0.9104477611940298
134,-1,-1,0,123,0,12,0.9111111111111111
135,1,-1,0,123,0,13,0.9044117647058824
136,-1,-1,0,124,0,13,0.9051094890510949
137,-1,-1,0,125,0,13,0.9057971014492754
138,1,-1,0,125,0,14,0.8992805755395683
139,-1,-1,0,126,0,14,0.9
140,-1,-1,0,127,0,14,0.900709219858156
141,-1,-1,0,128,0,14,0.9014084507042254
142,-1,-1,0,129,0,14,0.9020979020979021
143,-1,-1,0,130,0,14,0.9027777777777778
144,-1,-1,0,131,0,14,0.903448275862069
145,-1,-1,0,132,0,14,0.9041095890410958
146,-1,-1,0,133,0,14,0.9047619047619048
147,1,-1,0,133,0,15,0.8986486486486487
148,-1,-1,0,134,0,15,0.8993288590604027
149,1,-1,0,134,0,16,0.8933333333333333
150,-1,-1,0,135,0,16,0.8940397350993378
151,-1,-1,0,136,0,16,0.8947368421052632
152,-1,-1,0,137,0,16,0.8954248366013072
153,-1,-1,0,138,0,16,0.8961038961038961
154,-1,-1,0,139,0,16,0.896774193548387
155,-1,-1,0,140,0,16,0.8974358974358975
156,1,-1,0,140,0,17,0.89171974522293
157,-1,-1,0,141,0,17,0.8924050632911392
158,-1,-1,0,142,0,17,0.8930817610062893
159,-1,-1,0,143,0,17,0.89375
160,1,-1,0,143,0,18,0.8881987577639752
161,-1,-1,0,144,0,18,0.8888888888888888
162,-1,-1,0,145,0,18,0.8895705521472392
163,-1,-1,0,146,0,18,0.8902439024390244
164,-1,-1,0,147,0,18,0.8909090909090909
165,-1,-1,0,148,0,18,0.891566265060241
166,-1,-1,0,149,0,18,0.8922155688622755
167,-1,-1,0,150,0,18,0.8928571428571429
168,-1,-1,0,151,0,18,0.893491124260355
169,-1,-1,0,152,0,18,0.8941176470588236
170,-1,-1,0,153,0,18,0.8947368421052632
171,-1,-1,0,154,0,18,0.8953488372093024
172,-1,-1,0,155,0,18,0.8959537572254336
173,-1,-1,0,156,0,18,0.896551724137931
174,-1,-1,0,157,0,18,0.8971428571428571
175,-1,-1,0,158,0,18,0.8977272727272727
176,-1,-1,0,159,0,18,0.8983050847457628
177,-1,-1,0,160,0,18,0.898876404494382
178,-1,-1,0,161,0,18,0.8994413407821229
179,-1,-1,0,162,0,18,0.9
180,-1,-1,0,163,0,18,0.9005524861878453
181,-1,-1,0,164,0,18,0.9010989010989011
182,1,-1,0,164,0,19,0.8961748633879781
183,1,-1,0,164,0,20,0.8913043478260869
184,-1,-1,0,165,0,20,0.8918918918918919
185,-1,-1,0,166,0,20,0.8924731182795699
186,-1,-1,0,167,0,20,0.893048128342246
187,-1,-1,0,168,0,20,0.8936170212765957
188,-1,-1,0,169,0,20,0.8941798941798942
189,-1,-1,0,170,0,20,0.8947368421052632
190,-1,-1,0,171,0,20,0.8952879581151832
191,-1,-1,0,172,0,20,0.8958333333333334
192,-1,-1,0,173,0,20,0.8963730569948186
193,-1,-1,0,174,0,20,0.8969072164948454
194,-1,-1,0,175,0,20,0.8974358974358975
195,1,-1,0,175,0,21,0.8928571428571429
196,-1,-1,0,176,0,21,0.8934010152284264
197,-1,-1,0,177,0,21,0.8939393939393939
198,-1,-1,0,178,0,21,0.8944723618090452
199,-1,-1,0,179,0,21,0.895
200,-1,-1,0,180,0,21,0.8955223880597015
201,-1,-1,0,181,0,21,0.8960396039603961
202,-1,-1,0,182,0,21,0.896551724137931
203,-1,-1,0,183,0,21,0.8970588235294118
204,-1,-1,0,184,0,21,0.8975609756097561
205,-1,-1,0,185,0,21,0.8980582524271845
206,-1,-1,0,186,0,21,0.8985507246376812
207,-1,-1,0,187,0,21,0.8990384615384616
208,-1,-1,0,188,0,21,0.8995215311004785
209,-1,-1,0,189,0,21,0.9
210,-1,-1,0,190,0,21,0.9004739336492891
211,-1,-1,0,191,0,21,0.9009433962264151
212,-1,-1,0,192,0,21,0.9014084507042254
213,-1,-1,0,193,0,21,0.9018691588785047
214,-1,-1,0,194,0,21,0.9023255813953488
215,-1,-1,0,195,0,21,0.9027777777777778
216,-1,-1,0,196,0,21,0.9032258064516129
217,-1,-1,0,197,0,21,0.9036697247706422
218,-1,-1,0,198,0,21,0.9041095890410958
219,1,-1,0,198,0,22,0.9
220,-1,-1,0,199,0,22,0.9004524886877828
221,-1,-1,0,200,0,22,0.9009009009009009
222,-1,-1,0,201,0,22,0.9013452914798207
223,-1,-1,0,202,0,22,0.9017857142857143
224,-1,-1,0,203,0,22,0.9022222222222223
225,-1,-1,0,204,0,22,0.9026548672566371
226,-1,-1,0,205,0,22,0.9030837004405287
227,-1,-1,0,206,0,22,0.9035087719298246
228,-1,-1,0,207,0,22,0.9039301310043668
229,-1,-1,0,208,0,22,0.9043478260869565
230,-1,-1,0,209,0,22,0.9047619047619048
231,-1,-1,0,210,0,22,0.9051724137931034
232,-1,-1,0,211,0,22,0.9055793991416309
233,-1,-1,0,212,0,22,0.905982905982906
234,-1,-1,0,213,0,22,0.9063829787234042
235,-1,-1,0,214,0,22,0.9067796610169492
236,-1,-1,0,215,0,22,0.9071729957805907
237,-1,-1,0,216,0,22,0.907563025210084
238,-1,-1,0,217,0,22,0.9079497907949791
239,-1,-1,0,218,0,22,0.9083333333333333
240,-1,-1,0,219,0,22,0.9087136929460581
241,-1,-1,0,220,0,22,0.9090909090909091
242,-1,-1,0,221,0,22,0.9094650205761317
243,-1,-1,0,222,0,22,0.9098360655737705
244,-1,-1,0,223,0,22,0.9102040816326531
245,-1,1,0,223,1,22,0.9065040650406504
246,-1,-1,0,224,1,22,0.9068825910931174
247,-1,-1,0,225,1,22,0.907258064516129
248,1,-1,0,225,1,23,0.9036144578313253
249,1,-1,0,225,1,24,0.9
250,-1,-1,0,226,1,24,0.900398406374502
251,-1,-1,0,227,1,24,0.9007936507936508
252,-1,-1,0,228,1,24,0.9011857707509882
253,-1,-1,0,229,1,24,0.9015748031496063
254,-1,-1,0,230,1,24,0.9019607843137255
255,-1,-1,0,231,1,24,0.90234375
256,-1,-1,0,232,1,24,0.9027237354085603
257,-1,-1,0,233,1,24,0.9031007751937985
258,-1,-1,0,234,1,24,0.9034749034749034
259,-1,-1,0,235,1,24,0.9038461538461539
260,-1,-1,0,236,1,24,0.9042145593869731
261,-1,-1,0,237,1,24,0.9045801526717557
262,-1,-1,0,238,1,24,0.9049429657794676
263,-1,-1,0,239,1,24,0.9053030303030303
264,-1,-1,0,240,1,24,0.9056603773584906
265,-1,-1,0,241,1,24,0.9060150375939849
266,1,-1,0,241,1,25,0.9026217228464419
267,-1,-1,0,242,1,25,0.9029850746268657
268,-1,-1,0,243,1,25,0.9033457249070632
269,-1,-1,0,244,1,25,0.9037037037037037
270,1,-1,0,244,1,26,0.9003690036900369
271,-1,-1,0,245,1,26,0.9007352941176471
272,-1,-1,0,246,1,26,0.9010989010989011
273,-1,-1,0,247,1,26,0.9014598540145985
274,-1,-1,0,248,1,26,0.9018181818181819
275,-1,-1,0,249,1,26,0.9021739130434783
276,-1,-1,0,250,1,26,0.9025270758122743
277,-1,-1,0,251,1,26,0.9028776978417267
278,-1,-1,0,252,1,26,0.9032258064516129
279,-1,-1,0,253,1,26,0.9035714285714286
280,-1,-1,0,254,1,26,0.9039145907473309
281,-1,-1,0,255,1,26,0.9042553191489362
282,-1,-1,0,256,1,26,0.9045936395759717
283,-1,-1,0,257,1,26,0.9049295774647887
284,-1,-1,0,258,1,26,0.9052631578947369
285,-1,-1,0,259,1,26,0.9055944055944056
286,-1,-1,0,260,1,26,0.9059233449477352
287,-1,-1,0,261,1,26,0.90625
288,-1,-1,0,262,1,26,0.9065743944636678
289,-1,-1,0,263,1,26,0.906896551724138
290,-1,-1,0,264,1,26,0.9072164948453608
291,1,-1,0,264,1,27,0.9041095890410958
292,-1,-1,0,265,1,27,0.9044368600682594
293,-1,-1,0,266,1,27,0.9047619047619048
294,-1,-1,0,267,1,27,0.9050847457627119
295,-1,-1,0,268,1,27,0.9054054054054054
296,-1,-1,0,269,1,27,0.9057239057239057
297,-1,-1,0,270,1,27,0.9060402684563759
298,-1,-1,0,271,1,27,0.9063545150501672
299,-1,-1,0,272,1,27,0.9066666666666666
300,-1,-1,0,273,1,27,0.9069767441860465
301,-1,-1,0,274,1,27,0.9072847682119205
302,-1,-1,0,275,1,27,0.9075907590759076
303,1,-1,0,275,1,28,0.9046052631578947
304,-1,-1,0,276,1,28,0.9049180327868852
305,-1,-1,0,277,1,28,0.9052287581699346
306,-1,-1,0,278,1,28,0.9055374592833876
307,1,-1,0,278,1,29,0.9025974025974026
308,-1,-1,0,279,1,29,0.9029126213592233
309,-1,-1,0,280,1,29,0.9032258064516129
310,-1,-1,0,281,1,29,0.9035369774919614
311,-1,-1,0,282,1,29,0.9038461538461539
312,-1,-1,0,283,1,29,0.9041533546325878
313,-1,-1,0,284,1,29,0.9044585987261147
314,-1,-1,0,285,1,29,0.9047619047619048
315,-1,-1,0,286,1,29,0.9050632911392406
316,-1,-1,0,287,1,29,0.9053627760252366
317,-1,-1,0,288,1,29,0.9056603773584906
318,-1,-1,0,289,1,29,0.9059561128526645
319,-1,-1,0,290,1,29,0.90625
320,-1,-1,0,291,1,29,0.9065420560747663
321,-1,-1,0,292,1,29,0.906832298136646
322,1,-1,0,292,1,30,0.9040247678018576
323,-1,-1,0,293,1,30,0.904320987654321
324,-1,-1,0,294,1,30,0.9046153846153846
325,-1,-1,0,295,1,30,0.9049079754601227
326,-1,-1,0,296,1,30,0.9051987767584098
327,-1,-1,0,297,1,30,0.9054878048780488
328,-1,-1,0,298,1,30,0.9057750759878419
329,-1,-1,0,299,1,30,0.906060606060606
330,-1,-1,0,300,1,30,0.9063444108761329
331,-1,-1,0,301,1,30,0.9066265060240963
332,-1,-1,0,302,1,30,0.9069069069069069
333,-1,-1,0,303,1,30,0.907185628742515
334,-1,-1,0,304,1,30,0.9074626865671642
335,-1,-1,0,305,1,30,0.9077380952380952
336,-1,-1,0,306,1,30,0.9080118694362018
337,-1,-1,0,307,1,30,0.908284023668639
338,-1,-1,0,308,1,30,0.9085545722713865
339,-1,-1,0,309,1,30,0.9088235294117647
340,1,-1,0,309,1,31,0.906158357771261
341,-1,-1,0,310,1,31,0.9064327485380117
342,1,-1,0,310,1,32,0.9037900874635568
343,-1,-1,0,311,1,32,0.9040697674418605
344,-1,-1,0,312,1,32,0.9043478260869565
345,-1,-1,0,313,1,32,0.9046242774566474
346,-1,-1,0,314,1,32,0.9048991354466859
347,-1,-1,0,315,1,32,0.9051724137931034
348,-1,-1,0,316,1,32,0.9054441260744985
349,-1,-1,0,317,1,32,0.9057142857142857
350,-1,-1,0,318,1,32,0.905982905982906
351,-1,-1,0,319,1,32,0.90625
352,-1,-1,0,320,1,32,0.9065155807365439
353,1,-1,0,320,1,33,0.903954802259887
354,1,-1,0,320,1,34,0.9014084507042254
355,-1,-1,0,321,1,34,0.901685393258427
356,-1,-1,0,322,1,34,0.9019607843137255
357,1,-1,0,322,1,35,0.8994413407821229
358,-1,-1,0,323,1,35,0.8997214484679665
359,-1,-1,0,324,1,35,0.9
360,-1,-1,0,325,1,35,0.9002770083102493
361,-1,-1,0,326,1,35,0.9005524861878453
362,-1,-1,0,327,1,35,0.9008264462809917
363,-1,-1,0,328,1,35,0.9010989010989011
364,-1,-1,0,329,1,35,0.9013698630136986
365,-1,-1,0,330,1,35,0.9016393442622951
366,-1,-1,0,331,1,35,0.9019073569482289
367,-1,-1,0,332,1,35,0.9021739130434783
368,-1,-1,0,333,1,35,0.9024390243902439
369,-1,-1,0,334,1,35,0.9027027027027027
370,-1,-1,0,335,1,35,0.9029649595687331
371,-1,-1,0,336,1,35,0.9032258064516129
372,-1,-1,0,337,1,35,0.903485254691689
373,-1,-1,0,338,1,35,0.9037433155080213
374,1,-1,0,338,1,36,0.9013333333333333
375,-1,-1,0,339,1,36,0.901595744680851
376,-1,-1,0,340,1,36,0.9018567639257294
377,-1,-1,0,341,1,36,0.9021164021164021
378,-1,-1,0,342,1,36,0.9023746701846965
379,-1,-1,0,343,1,36,0.9026315789473685
380,-1,-1,0,344,1,36,0.9028871391076115
381,-1,-1,0,345,1,36,0.9031413612565445
382,-1,-1,0,346,1,36,0.9033942558746736
383,-1,-1,0,347,1,36,0.9036458333333334
384,1,-1,0,347,1,37,0.9012987012987013
385,-1,-1,0,348,1,37,0.9015544041450777
386,-1,-1,0,349,1,37,0.9018087855297158
387,1,-1,0,349,1,38,0.8994845360824743
388,1,-1,0,349,1,39,0.897172236503856
389,-1,-1,0,350,1,39,0.8974358974358975
390,-1,-1,0,351,1,39,0.8976982097186701
391,1,-1,0,351,1,40,0.8954081632653061
392,-1,-1,0,352,1,40,0.8956743002544529
393,1,-1,0,352,1,41,0.8934010152284264
394,-1,-1,0,353,1,41,0.8936708860759494
395,-1,-1,0,354,1,41,0.8939393939393939
396,1,-1,0,354,1,42,0.8916876574307305
397,-1,-1,0,355,1,42,0.8919597989949749
398,-1,-1,0,356,1,42,0.8922305764411027
399,-1,-1,0,357,1,42,0.8925
400,-1,-1,0,358,1,42,0.8927680798004988
401,-1,-1,0,359,1,42,0.8930348258706468
402,-1,-1,0,360,1,42,0.8933002481389578
403,-1,-1,0,361,1,42,0.8935643564356436
404,-1,-1,0,362,1,42,0.8938271604938272
405,-1,-1,0,363,1,42,0.8940886699507389
406,-1,-1,0,364,1,42,0.8943488943488943
407,-1,-1,0,365,1,42,0.8946078431372549
408,-1,-1,0,366,1,42,0.8948655256723717
409,1,-1,0,366,1,43,0.8926829268292683
410,-1,-1,0,367,1,43,0.8929440389294404
411,-1,-1,0,368,1,43,0.8932038834951457
412,-1,-1,0,369,1,43,0.8934624697336562
413,-1,-1,0,370,1,43,0.893719806763285
414,-1,-1,0,371,1,43,0.8939759036144578
415,-1,-1,0,372,1,43,0.8942307692307693
416,-1,-1,0,373,1,43,0.894484412470024
417,-1,-1,0,374,1,43,0.8947368421052632
418,-1,-1,0,375,1,43,0.8949880668257757
419,-1,-1,0,376,1,43,0.8952380952380953
420,-1,-1,0,377,1,43,0.8954869358669834
421,-1,-1,0,378,1,43,0.8957345971563981
422,-1,-1,0,379,1,43,0.8959810874704491
423,-1,-1,0,380,1,43,0.8962264150943396
424,1,-1,0,380,1,44,0.8941176470588236
425,-1,-1,0,381,1,44,0.8943661971830986
426,-1,-1,0,382,1,44,0.8946135831381733
427,-1,-1,0,383,1,44,0.8948598130841121
428,-1,-1,0,384,1,44,0.8951048951048951
429,-1,-1,0,385,1,44,0.8953488372093024
430,1,-1,0,385,1,45,0.8932714617169374
431,-1,-1,0,386,1,45,0.8935185185185185
432,-1,-1,0,387,1,45,0.8937644341801386
433,-1,-1,0,388,1,45,0.8940092165898618
434,-1,-1,0,389,1,45,0.8942528735632184
435,-1,-1,0,390,1,45,0.8944954128440367
436,1,-1,0,390,1,46,0.8924485125858124
437,-1,-1,0,391,1,46,0.8926940639269406
438,-1,-1,0,392,1,46,0.8929384965831435
439,-1,-1,0,393,1,46,0.8931818181818182
440,-1,-1,0,394,1,46,0.8934240362811792
441,-1,-1,0,395,1,46,0.8936651583710408
442,-1,-1,0,396,1,46,0.8939051918735892
443,-1,-1,0,397,1,46,0.8941441441441441
444,-1,-1,0,398,1,46,0.8943820224719101
445,-1,-1,0,399,1,46,0.8946188340807175
446,-1,-1,0,400,1,46,0.8948545861297539
447,-1,-1,0,401,1,46,0.8950892857142857
448,1,-1,0,401,1,47,0.8930957683741648
449,1,-1,0,401,1,48,0.8911111111111111
450,1,-1,0,401,1,49,0.8891352549889135
451,-1,-1,0,402,1,49,0.8893805309734514
452,-1,-1,0,403,1,49,0.8896247240618101
453,-1,-1,0,404,1,49,0.8898678414096917
454,-1,-1,0,405,1,49,0.8901098901098901
455,-1,-1,0,406,1,49,0.8903508771929824
456,-1,-1,0,407,1,49,0.8905908096280087
457,-1,-1,0,408,1,49,0.8908296943231441
458,-1,-1,0,409,1,49,0.8910675381263616
459,-1,-1,0,410,1,49,0.8913043478260869
460,-1,-1,0,411,1,49,0.8915401301518439
461,-1,-1,0,412,1,49,0.8917748917748918
462,-1,-1,0,413,1,49,0.8920086393088553
463,-1,-1,0,414,1,49,0.8922413793103449
464,-1,-1,0,415,1,49,0.8924731182795699
465,-1,-1,0,416,1,49,0.8927038626609443
466,-1,-1,0,417,1,49,0.892933618843683
467,-1,-1,0,418,1,49,0.8931623931623932
468,-1,-1,0,419,1,49,0.8933901918976546
469,-1,-1,0,420,1,49,0.8936170212765957
470,-1,-1,0,421,1,49,0.8938428874734607
471,-1,-1,0,422,1,49,0.8940677966101694
472,-1,-1,0,423,1,49,0.8942917547568711
473,-1,-1,0,424,1,49,0.8945147679324894
474,-1,-1,0,425,1,49,0.8947368421052632
475,-1,-1,0,426,1,49,0.8949579831932774
476,-1,-1,0,427,1,49,0.8951781970649895
477,-1,-1,0,428,1,49,0.895397489539749
478,-1,-1,0,429,1,49,0.8956158663883089
479,-1,-1,0,430,1,49,0.8958333333333334
480,-1,-1,0,431,1,49,0.896049896049896
481,-1,-1,0,432,1,49,0.8962655601659751
482,-1,-1,0,433,1,49,0.8964803312629399
483,-1,-1,0,434,1,49,0.8966942148760331
484,-1,-1,0,435,1,49,0.8969072164948454
485,-1,-1,0,436,1,49,0.897119341563786
486,-1,-1,0,437,1,49,0.8973305954825462
487,-1,-1,0,438,1,49,0.8975409836065574
488,-1,-1,0,439,1,49,0.8977505112474438
489,-1,-1,0,440,1,49,0.8979591836734694
490,-1,-1,0,441,1,49,0.8981670061099797
491,-1,-1,0,442,1,49,0.8983739837398373
492,-1,-1,0,443,1,49,0.8985801217038539
493,-1,-1,0,444,1,49,0.8987854251012146
494,-1,-1,0,445,1,49,0.898989898989899
495,-1,-1,0,446,1,49,0.8991935483870968
496,-1,-1,0,447,1,49,0.8993963782696177
497,1,1,1,447,1,49,0.8995983935742972
498,1,-1,1,447,1,50,0.8977955911823647
499,-1,-1,1,448,1,50,0.898
500,-1,-1,1,449,1,50,0.8982035928143712
501,-1,-1,1,450,1,50,0.898406374501992
502,-1,-1,1,451,1,50,0.8986083499005965
503,-1,-1,1,452,1,50,0.8988095238095238
504,-1,-1,1,453,1,50,0.899009900990099
505,-1,-1,1,454,1,50,0.8992094861660079
506,-1,-1,1,455,1,50,0.8994082840236687
507,-1,-1,1,456,1,50,0.8996062992125984
508,-1,-1,1,457,1,50,0.899803536345776
509,-1,-1,1,458,1,50,0.9
510,-1,-1,1,459,1,50,0.9001956947162426
511,-1,-1,1,460,1,50,0.900390625
512,-1,-1,1,461,1,50,0.9005847953216374
513,-1,-1,1,462,1,50,0.9007782101167315
514,-1,-1,1,463,1,50,0.9009708737864077
515,-1,-1,1,464,1,50,0.9011627906976745
516,-1,-1,1,465,1,50,0.9013539651837524
517,-1,-1,1,466,1,50,0.9015444015444015
518,-1,-1,1,467,1,50,0.9017341040462428
519,-1,-1,1,468,1,50,0.9019230769230769
520,-1,-1,1,469,1,50,0.9021113243761996
521,-1,-1,1,470,1,50,0.9022988505747126
522,-1,-1,1,471,1,50,0.9024856596558317
523,-1,-1,1,472,1,50,0.9026717557251909
524,-1,-1,1,473,1,50,0.9028571428571428
525,-1,-1,1,474,1,50,0.903041825095057
526,-1,-1,1,475,1,50,0.9032258064516129
527,-1,-1,1,476,1,50,0.9034090909090909
528,-1,-1,1,477,1,50,0.9035916824196597
529,-1,-1,1,478,1,50,0.9037735849056604
530,-1,-1,1,479,1,50,0.903954802259887
531,-1,-1,1,480,1,50,0.9041353383458647
532,-1,-1,1,481,1,50,0.9043151969981238
533,-1,-1,1,482,1,50,0.9044943820224719
534,-1,-1,1,483,1,50,0.9046728971962616
535,-1,-1,1,484,1,50,0.9048507462686567
536,-1,-1,1,485,1,50,0.9050279329608939
537,1,-1,1,485,1,51,0.9033457249070632
538,-1,-1,1,486,1,51,0.9035250463821892
539,-1,-1,1,487,1,51,0.9037037037037037
540,-1,-1,1,488,1,51,0.9038817005545287
541,-1,-1,1,489,1,51,0.9040590405904059
542,-1,-1,1,490,1,51,0.9042357274401474
543,-1,-1,1,491,1,51,0.9044117647058824
544,-1,-1,1,492,1,51,0.9045871559633027
545,-1,-1,1,493,1,51,0.9047619047619048
546,-1,-1,1,494,1,51,0.9049360146252285
547,-1,-1,1,495,1,51,0.9051094890510949
548,1,-1,1,495,1,52,0.9034608378870674
549,-1,-1,1,496,1,52,0.9036363636363637
550,-1,-1,1,497,1,52,0.9038112522686026
551,-1,-1,1,498,1,52,0.9039855072463768
552,-1,-1,1,499,1,52,0.9041591320072333
553,-1,-1,1,500,1,52,0.9043321299638989
554,-1,-1,1,501,1,52,0.9045045045045045
555,-1,-1,1,502,1,52,0.9046762589928058
556,-1,-1,1,503,1,52,0.9048473967684022
557,-1,-1,1,504,1,52,0.9050179211469535
558,-1,-1,1,505,1,52,0.9051878354203936
559,1,-1,1,505,1,53,0.9035714285714286
560,-1,-1,1,506,1,53,0.9037433155080213
561,-1,-1,1,507,1,53,0.9039145907473309
562,-1,-1,1,508,1,53,0.9040852575488455
563,1,-1,1,508,1,54,0.9024822695035462
564,1,-1,1,508,1,55,0.9008849557522124
565,-1,-1,1,509,1,55,0.901060070671378
566,-1,-1,1,510,1,55,0.9012345679012346
567,-1,-1,1,511,1,55,0.9014084507042254
568,-1,-1,1,512,1,55,0.9015817223198594
569,1,-1,1,512,1,56,0.9
570,-1,-1,1,513,1,56,0.9001751313485113
571,-1,-1,1,514,1,56,0.9003496503496503
572,-1,-1,1,515,1,56,0.900523560209424
573,-1,-1,1,516,1,56,0.9006968641114983
574,-1,-1,1,517,1,56,0.9008695652173913
575,-1,-1,1,518,1,56,0.9010416666666666
576,-1,-1,1,519,1,56,0.901213171577123
577,-1,-1,1,520,1,56,0.9013840830449827
578,-1,-1,1,521,1,56,0.9015544041450777
579,-1,-1,1,522,1,56,0.9017241379310345
580,-1,-1,1,523,1,56,0.9018932874354562
581,-1,-1,1,524,1,56,0.9020618556701031
582,-1,-1,1,525,1,56,0.902229845626072
583,-1,-1,1,526,1,56,0.9023972602739726
584,-1,-1,1,527,1,56,0.9025641025641026
585,-1,-1,1,528,1,56,0.9027303754266212
586,-1,-1,1,529,1,56,0.9028960817717206
587,-1,-1,1,530,1,56,0.9030612244897959
588,-1,-1,1,531,1,56,0.9032258064516129
589,-1,-1,1,532,1,56,0.9033898305084745
590,-1,-1,1,533,1,56,0.9035532994923858
591,-1,-1,1,534,1,56,0.9037162162162162
592,1,-1,1,534,1,57,0.9021922428330523
593,-1,-1,1,535,1,57,0.9023569023569024
594,-1,-1,1,536,1,57,0.9025210084033614
595,-1,-1,1,537,1,57,0.9026845637583892
596,-1,-1,1,538,1,57,0.9028475711892797
597,-1,-1,1,539,1,57,0.903010033444816
598,-1,-1,1,540,1,57,0.9031719532554258
599,-1,-1,1,541,1,57,0.9033333333333333
600,-1,-1,1,542,1,57,0.9034941763727121
601,-1,-1,1,543,1,57,0.9036544850498339
602,-1,-1,1,544,1,57,0.9038142620232172
603,1,-1,1,544,1,58,0.902317880794702
604,-1,-1,1,545,1,58,0.9024793388429752
605,-1,-1,1,546,1,58,0.9026402640264026
606,-1,-1,1,547,1,58,0.9028006589785832
607,-1,-1,1,548,1,58,0.9029605263157895
608,-1,-1,1,549,1,58,0.90311986863711
609,-1,-1,1,550,1,58,0.9032786885245901
610,-1,1,1,550,2,58,0.9018003273322422
611,-1,-1,1,551,2,58,0.9019607843137255
612,-1,-1,1,552,2,58,0.9021207177814029
613,-1,-1,1,553,2,58,0.9022801302931596
614,-1,-1,1,554,2,58,0.9024390243902439
615,-1,-1,1,555,2,58,0.9025974025974026
616,-1,-1,1,556,2,58,0.9027552674230146
617,-1,-1,1,557,2,58,0.9029126213592233
618,1,-1,1,557,2,59,0.901453957996769
619,-1,-1,1,558,2,59,0.9016129032258065
620,-1,-1,1,559,2,59,0.9017713365539453
621,-1,-1,1,560,2,59,0.9019292604501608
622,-1,-1,1,561,2,59,0.9020866773675762
623,1,-1,1,561,2,60,0.9006410256410257
624,-1,-1,1,562,2,60,0.9008
625,-1,-1,1,563,2,60,0.9009584664536742
626,-1,-1,1,564,2,60,0.9011164274322169
627,-1,-1,1,565,2,60,0.9012738853503185
628,-1,-1,1,566,2,60,0.9014308426073132
629,-1,-1,1,567,2,60,0.9015873015873016
630,1,-1,1,567,2,61,0.9001584786053882
631,-1,-1,1,568,2,61,0.9003164556962026
632,-1,-1,1,569,2,61,0.9004739336492891
633,-1,-1,1,570,2,61,0.9006309148264984
634,-1,-1,1,571,2,61,0.9007874015748032
635,-1,-1,1,572,2,61,0.9009433962264151
636,-1,-1,1,573,2,61,0.9010989010989011
637,-1,-1,1,574,2,61,0.9012539184952978
638,-1,-1,1,575,2,61,0.9014084507042254
639,-1,-1,1,576,2,61,0.9015625
640,-1,-1,1,577,2,61,0.9017160686427457
641,-1,-1,1,578,2,61,0.9018691588785047
642,-1,-1,1,579,2,61,0.9020217729393468
643,-1,-1,1,580,2,61,0.9021739130434783
644,-1,-1,1,581,2,61,0.9023255813953488
645,-1,-1,1,582,2,61,0.9024767801857585
646,-1,-1,1,583,2,61,0.9026275115919629
647,-1,-1,1,584,2,61,0.9027777777777778
648,-1,-1,1,585,2,61,0.9029275808936826
649,-1,-1,1,586,2,61,0.9030769230769231
650,-1,-1,1,587,2,61,0.9032258064516129
651,-1,-1,1,588,2,61,0.9033742331288344
652,-1,-1,1,589,2,61,0.9035222052067381
653,-1,-1,1,590,2,61,0.9036697247706422
654,-1,-1,1,591,2,61,0.9038167938931297
655,1,-1,1,591,2,62,0.9024390243902439
656,-1,-1,1,592,2,62,0.9025875190258752
657,-1,-1,1,593,2,62,0.9027355623100304
658,-1,-1,1,594,2,62,0.9028831562974203
659,-1,-1,1,595,2,62,0.9030303030303031
660,-1,-1,1,596,2,62,0.903177004538578
661,-1,-1,1,597,2,62,0.9033232628398792
662,-1,-1,1,598,2,62,0.9034690799396682
663,-1,-1,1,599,2,62,0.9036144578313253
664,-1,-1,1,600,2,62,0.9037593984962407
665,-1,-1,1,601,2,62,0.9039039039039038
666,-1,-1,1,602,2,62,0.904047976011994
667,-1,-1,1,603,2,62,0.9041916167664671
668,-1,-1,1,604,2,62,0.9043348281016442
669,-1,-1,1,605,2,62,0.9044776119402985
670,-1,-1,1,606,2,62,0.9046199701937406
671,-1,-1,1,607,2,62,0.9047619047619048
672,-1,-1,1,608,2,62,0.9049034175334324
673,-1,-1,1,609,2,62,0.9050445103857567
674,1,-1,1,609,2,63,0.9037037037037037
675,-1,-1,1,610,2,63,0.9038461538461539
676,-1,-1,1,611,2,63,0.9039881831610044
677,-1,-1,1,612,2,63,0.9041297935103245
678,-1,-1,1,613,2,63,0.9042709867452136
679,-1,-1,1,614,2,63,0.9044117647058824
680,-1,-1,1,615,2,63,0.9045521292217328
681,-1,-1,1,616,2,63,0.9046920821114369
682,-1,-1,1,617,2,63,0.9048316251830161
683,-1,-1,1,618,2,63,0.9049707602339181
684,-1,-1,1,619,2,63,0.9051094890510949
685,-1,-1,1,620,2,63,0.9052478134110787
686,-1,-1,1,621,2,63,0.9053857350800583
687,-1,-1,1,622,2,63,0.9055232558139535
688,-1,-1,1,623,2,63,0.9056603773584906
689,-1,-1,1,624,2,63,0.9057971014492754
690,-1,-1,1,625,2,63,0.9059334298118669
691,1,-1,1,625,2,64,0.9046242774566474
692,1,-1,1,625,2,65,0.9033189033189033
693,-1,-1,1,626,2,65,0.9034582132564841
694,-1,-1,1,627,2,65,0.9035971223021583
695,-1,-1,1,628,2,65,0.9037356321839081
696,-1,-1,1,629,2,65,0.9038737446197992
697,1,-1,1,629,2,66,0.9025787965616046
698,-1,-1,1,630,2,66,0.9027181688125894
699,-1,-1,1,631,2,66,0.9028571428571428
700,-1,-1,1,632,2,66,0.9029957203994294
701,1,-1,1,632,2,67,0.9017094017094017
702,-1,-1,1,633,2,67,0.9018492176386913
703,-1,-1,1,634,2,67,0.9019886363636364
704,-1,-1,1,635,2,67,0.902127659574468
705,-1,-1,1,636,2,67,0.9022662889518414
706,1,-1,1,636,2,68,0.900990099009901
707,-1,-1,1,637,2,68,0.9011299435028248
708,-1,-1,1,638,2,68,0.9012693935119888
709,-1,-1,1,639,2,68,0.9014084507042254
710,-1,-1,1,640,2,68,0.9015471167369902
711,-1,-1,1,641,2,68,0.901685393258427
712,-1,-1,1,642,2,68,0.9018232819074333
713,-1,-1,1,643,2,68,0.9019607843137255
714,-1,-1,1,644,2,68,0.9020979020979021
715,-1,-1,1,645,2,68,0.9022346368715084
716,-1,-1,1,646,2,68,0.902370990237099
717,-1,-1,1,647,2,68,0.9025069637883009
718,-1,-1,1,648,2,68,0.9026425591098748
719,-1,-1,1,649,2,68,0.9027777777777778
720,-1,-1,1,650,2,68,0.9029126213592233
721,-1,-1,1,651,2,68,0.9030470914127424
722,-1,-1,1,652,2,68,0.9031811894882434
723,-1,-1,1,653,2,68,0.9033149171270718
724,-1,-1,1,654,2,68,0.903448275862069
725,1,-1,1,654,2,69,0.9022038567493113
726,-1,-1,1,655,2,69,0.9023383768913342
727,-1,-1,1,656,2,69,0.9024725274725275
728,-1,-1,1,657,2,69,0.9026063100137174
729,-1,-1,1,658,2,69,0.9027397260273973
730,-1,-1,1,659,2,69,0.9028727770177839
731,1,-1,1,659,2,70,0.9016393442622951
732,-1,-1,1,660,2,70,0.9017735334242838
733,-1,-1,1,661,2,70,0.9019073569482289
734,-1,1,1,661,3,70,0.9006802721088435
735,-1,-1,1,662,3,70,0.9008152173913043
736,-1,-1,1,663,3,70,0.9009497964721845
737,-1,-1,1,664,3,70,0.9010840108401084
738,-1,-1,1,665,3,70,0.9012178619756428
739,-1,-1,1,666,3,70,0.9013513513513514
740,1,-1,1,666,3,71,0.9001349527665317
741,-1,-1,1,667,3,71,0.9002695417789758
742,-1,-1,1,668,3,71,0.9004037685060565
743,-1,-1,1,669,3,71,0.9005376344086021
744,-1,-1,1,670,3,71,0.9006711409395973
745,-1,-1,1,671,3,71,0.900804289544236
746,-1,-1,1,672,3,71,0.9009370816599732
747,-1,-1,1,673,3,71,0.9010695187165776
748,1,-1,1,673,3,72,0.8998664886515354
749,-1,-1,1,674,3,72,0.9
750,-1,-1,1,675,3,72,0.9001331557922769
751,1,-1,1,675,3,73,0.898936170212766
752,-1,-1,1,676,3,73,0.899070385126162
753,-1,-1,1,677,3,73,0.8992042440318302
754,1,-1,1,677,3,74,0.8980132450331125
755,1,-1,1,677,3,75,0.8968253968253969
756,-1,-1,1,678,3,75,0.8969616908850726
757,-1,-1,1,679,3,75,0.8970976253298153
758,1,-1,1,679,3,76,0.8959156785243741
759,-1,-1,1,680,3,76,0.8960526315789473
760,-1,-1,1,681,3,76,0.8961892247043364
761,-1,-1,1,682,3,76,0.8963254593175853
762,-1,-1,1,683,3,76,0.8964613368283093
763,-1,-1,1,684,3,76,0.8965968586387435
764,-1,-1,1,685,3,76,0.8967320261437909
765,1,-1,1,685,3,77,0.8955613577023499
766,-1,-1,1,686,3,77,0.8956975228161669
767,-1,-1,1,687,3,77,0.8958333333333334
768,-1,-1,1,688,3,77,0.8959687906371911
769,-1,-1,1,689,3,77,0.8961038961038961
770,-1,-1,1,690,3,77,0.8962386511024644
771,-1,-1,1,691,3,77,0.8963730569948186
772,-1,-1,1,692,3,77,0.8965071151358344
773,-1,-1,1,693,3,77,0.896640826873385
774,-1,-1,1,694,3,77,0.896774193548387
775,1,1,2,694,3,77,0.8969072164948454
776,1,-1,2,694,3,78,0.8957528957528957
777,-1,-1,2,695,3,78,0.8958868894601543
778,-1,-1,2,696,3,78,0.8960205391527599
779,-1,-1,2,697,3,78,0.8961538461538462
780,-1,-1,2,698,3,78,0.8962868117797695
781,-1,-1,2,699,3,78,0.8964194373401535
782,-1,1,2,699,4,78,0.8952745849297573
783,-1,-1,2,700,4,78,0.8954081632653061
784,-1,-1,2,701,4,78,0.8955414012738854
785,-1,-1,2,702,4,78,0.8956743002544529
786,-1,-1,2,703,4,78,0.8958068614993647
787,-1,-1,2,704,4,78,0.8959390862944162
788,-1,-1,2,705,4,78,0.8960709759188846
789,-1,-1,2,706,4,78,0.8962025316455696
790,-1,-1,2,707,4,78,0.8963337547408344
791,-1,-1,2,708,4,78,0.8964646464646465
792,-1,-1,2,709,4,78,0.8965952080706179
793,-1,-1,2,710,4,78,0.8967254408060453
794,-1,-1,2,711,4,78,0.8968553459119497
795,-1,-1,2,712,4,78,0.8969849246231156
796,-1,1,2,712,5,78,0.8958594730238394
797,-1,-1,2,713,5,78,0.8959899749373433
798,-1,-1,2,714,5,78,0.8961201501877347
799,1,-1,2,714,5,79,0.895
800,-1,-1,2,715,5,79,0.8951310861423221
801,-1,-1,2,716,5,79,0.8952618453865336
802,-1,-1,2,717,5,79,0.8953922789539228
803,-1,-1,2,718,5,79,0.8955223880597015
804,-1,-1,2,719,5,79,0.8956521739130435
805,-1,-1,2,720,5,79,0.8957816377171216
806,-1,-1,2,721,5,79,0.895910780669145
807,-1,-1,2,722,5,79,0.8960396039603961
808,-1,-1,2,723,5,79,0.896168108776267
809,-1,-1,2,724,5,79,0.8962962962962963
810,-1,-1,2,725,5,79,0.8964241676942046
811,-1,-1,2,726,5,79,0.896551724137931
812,-1,-1,2,727,5,79,0.8966789667896679
813,1,-1,2,727,5,80,0.8955773955773956
814,-1,-1,2,728,5,80,0.8957055214723927
815,-1,-1,2,729,5,80,0.8958333333333334
816,-1,-1,2,730,5,80,0.8959608323133414
817,-1,-1,2,731,5,80,0.8960880195599022
818,-1,-1,2,732,5,80,0.8962148962148963
819,-1,-1,2,733,5,80,0.8963414634146342
820,-1,-1,2,734,5,80,0.8964677222898904
821,1,-1,2,734,5,81,0.8953771289537713
822,-1,-1,2,735,5,81,0.8955042527339003
823,-1,-1,2,736,5,81,0.8956310679611651
824,-1,-1,2,737,5,81,0.8957575757575758
825,-1,-1,2,738,5,81,0.8958837772397095
826,-1,-1,2,739,5,81,0.8960096735187424
827,-1,-1,2,740,5,81,0.8961352657004831
828,-1,-1,2,741,5,81,0.8962605548854041
829,-1,-1,2,742,5,81,0.8963855421686747
830,-1,-1,2,743,5,81,0.8965102286401926
831,-1,-1,2,744,5,81,0.8966346153846154
832,1,-1,2,744,5,82,0.8955582232893158
833,1,-1,2,744,5,83,0.894484412470024
834,-1,-1,2,745,5,83,0.8946107784431138
835,-1,-1,2,746,5,83,0.8947368421052632
836,-1,-1,2,747,5,83,0.8948626045400239
837,1,-1,2,747,5,84,0.8937947494033412
838,-1,-1,2,748,5,84,0.8939213349225268
839,1,-1,2,748,5,85,0.8928571428571429
840,-1,-1,2,749,5,85,0.8929845422116528
841,-1,-1,2,750,5,85,0.8931116389548693
842,-1,-1,2,751,5,85,0.8932384341637011
843,1,-1,2,751,5,86,0.8921800947867299
844,-1,-1,2,752,5,86,0.8923076923076924
845,-1,-1,2,753,5,86,0.892434988179669
846,1,-1,2,753,5,87,0.8913813459268005
847,-1,-1,2,754,5,87,0.8915094339622641
848,1,-1,2,754,5,88,0.8904593639575972
849,-1,-1,2,755,5,88,0.8905882352941177
850,-1,-1,2,756,5,88,0.8907168037602821
851,-1,-1,2,757,5,88,0.8908450704225352
852,-1,-1,2,758,5,88,0.8909730363423212
853,-1,-1,2,759,5,88,0.8911007025761124
854,-1,-1,2,760,5,88,0.8912280701754386
855,-1,-1,2,761,5,88,0.8913551401869159
856,-1,-1,2,762,5,88,0.8914819136522754
857,-1,-1,2,763,5,88,0.8916083916083916
858,-1,-1,2,764,5,88,0.8917345750873108
859,-1,-1,2,765,5,88,0.891860465116279
860,-1,-1,2,766,5,88,0.89198606271777
861,-1,-1,2,767,5,88,0.8921113689095128
862,-1,-1,2,768,5,88,0.8922363847045192
863,-1,-1,2,769,5,88,0.8923611111111112
864,-1,-1,2,770,5,88,0.892485549132948
865,-1,-1,2,771,5,88,0.8926096997690531
866,-1,-1,2,772,5,88,0.8927335640138409
867,-1,-1,2,773,5,88,0.8928571428571429
868,-1,-1,2,774,5,88,0.8929804372842347
869,-1,-1,2,775,5,88,0.8931034482758621
870,-1,-1,2,776,5,88,0.8932261768082663
871,-1,-1,2,777,5,88,0.893348623853211
872,-1,-1,2,778,5,88,0.8934707903780069
873,1,-1,2,778,5,89,0.8924485125858124
874,-1,-1,2,779,5,89,0.8925714285714286
875,-1,-1,2,780,5,89,0.8926940639269406
876,-1,-1,2,781,5,89,0.8928164196123147
877,1,-1,2,781,5,90,0.8917995444191344
878,-1,-1,2,782,5,90,0.8919226393629124
879,-1,-1,2,783,5,90,0.8920454545454546
880,-1,-1,2,784,5,90,0.8921679909194098
881,-1,-1,2,785,5,90,0.8922902494331065
882,-1,-1,2,786,5,90,0.8924122310305775
883,-1,-1,2,787,5,90,0.8925339366515838
884,-1,-1,2,788,5,90,0.8926553672316384
885,-1,-1,2,789,5,90,0.8927765237020316
886,-1,-1,2,790,5,90,0.8928974069898534
887,-1,-1,2,791,5,90,0.8930180180180181
888,-1,-1,2,792,5,90,0.8931383577052868
889,-1,-1,2,793,5,90,0.8932584269662921
890,-1,-1,2,794,5,90,0.8933782267115601
891,-1,-1,2,795,5,90,0.8934977578475336
892,-1,-1,2,796,5,90,0.8936170212765957
893,-1,-1,2,797,5,90,0.8937360178970917
894,-1,-1,2,798,5,90,0.8938547486033519
895,-1,-1,2,799,5,90,0.8939732142857143
896,-1,-1,2,800,5,90,0.8940914158305463
897,-1,-1,2,801,5,90,0.8942093541202673
898,-1,-1,2,802,5,90,0.8943270300333704
899,-1,-1,2,803,5,90,0.8944444444444445
900,1,-1,2,803,5,91,0.8934517203107658
901,-1,-1,2,804,5,91,0.893569844789357
902,-1,-1,2,805,5,91,0.893687707641196
903,-1,-1,2,806,5,91,0.8938053097345132
904,-1,-1,2,807,5,91,0.8939226519337017
905,-1,-1,2,808,5,91,0.8940397350993378
906,-1,-1,2,809,5,91,0.8941565600882029
907,-1,-1,2,810,5,91,0.8942731277533039
908,-1,-1,2,811,5,91,0.8943894389438944
909,-1,-1,2,812,5,91,0.8945054945054945
910,-1,-1,2,813,5,91,0.8946212952799122
911,-1,-1,2,814,5,91,0.8947368421052632
912,-1,-1,2,815,5,91,0.8948521358159912
913,-1,-1,2,816,5,91,0.8949671772428884
914,-1,-1,2,817,5,91,0.8950819672131147
915,-1,-1,2,818,5,91,0.8951965065502183
916,-1,-1,2,819,5,91,0.8953107960741549
917,-1,-1,2,820,5,91,0.8954248366013072
918,-1,-1,2,821,5,91,0.8955386289445049
919,-1,-1,2,822,5,91,0.8956521739130435
920,-1,-1,2,823,5,91,0.8957654723127035
921,-1,-1,2,824,5,91,0.89587852494577
922,-1,-1,2,825,5,91,0.8959913326110509
923,-1,-1,2,826,5,91,0.8961038961038961
924,-1,-1,2,827,5,91,0.8962162162162162
925,-1,1,2,827,6,91,0.8952483801295896
926,-1,-1,2,828,6,91,0.895361380798274
927,-1,-1,2,829,6,91,0.8954741379310345
928,-1,-1,2,830,6,91,0.8955866523143164
929,-1,-1,2,831,6,91,0.8956989247311828
930,-1,-1,2,832,6,91,0.8958109559613319
931,1,-1,2,832,6,92,0.8948497854077253
932,-1,-1,2,833,6,92,0.894962486602358
933,1,-1,2,833,6,93,0.8940042826552462
934,-1,-1,2,834,6,93,0.8941176470588236
935,1,-1,2,834,6,94,0.8931623931623932
936,1,-1,2,834,6,95,0.8922091782283885
937,-1,-1,2,835,6,95,0.8923240938166311
938,-1,-1,2,836,6,95,0.8924387646432375
939,-1,-1,2,837,6,95,0.8925531914893617
940,-1,-1,2,838,6,95,0.8926673751328374
941,-1,-1,2,839,6,95,0.8927813163481954
942,-1,-1,2,840,6,95,0.8928950159066809
943,-1,-1,2,841,6,95,0.8930084745762712
944,-1,-1,2,842,6,95,0.8931216931216931
945,-1,-1,2,843,6,95,0.8932346723044398
946,-1,-1,2,844,6,95,0.8933474128827877
947,-1,-1,2,845,6,95,0.8934599156118144
948,-1,-1,2,846,6,95,0.8935721812434141
949,-1,-1,2,847,6,95,0.8936842105263157
950,-1,-1,2,848,6,95,0.8937960042060988
951,-1,-1,2,849,6,95,0.8939075630252101
952,-1,-1,2,850,6,95,0.8940188877229801
953,-1,-1,2,851,6,95,0.8941299790356394
954,-1,-1,2,852,6,95,0.8942408376963351
955,-1,-1,2,853,6,95,0.8943514644351465
956,-1,-1,2,854,6,95,0.8944618599791013
957,-1,-1,2,855,6,95,0.894572025052192
958,-1,-1,2,856,6,95,0.894681960375391
959,-1,-1,2,857,6,95,0.8947916666666667
960,-1,-1,2,858,6,95,0.894901144640999
961,-1,-1,2,859,6,95,0.895010395010395
962,-1,-1,2,860,6,95,0.8951194184839044
963,-1,-1,2,861,6,95,0.8952282157676349
964,-1,-1,2,862,6,95,0.8953367875647669
965,-1,-1,2,863,6,95,0.8954451345755694
966,-1,-1,2,864,6,95,0.8955532574974147
967,-1,-1,2,865,6,95,0.8956611570247934
968,-1,-1,2,866,6,95,0.8957688338493293
969,-1,-1,2,867,6,95,0.8958762886597939
970,-1,-1,2,868,6,95,0.8959835221421215
971,-1,-1,2,869,6,95,0.8960905349794238
972,1,-1,2,869,6,96,0.895169578622816
973,-1,-1,2,870,6,96,0.8952772073921971
974,-1,-1,2,871,6,96,0.8953846153846153
975,-1,-1,2,872,6,96,0.8954918032786885
976,-1,-1,2,873,6,96,0.8955987717502559
977,-1,-1,2,874,6,96,0.8957055214723927
978,-1,-1,2,875,6,96,0.8958120531154239
979,-1,-1,2,876,6,96,0.8959183673469387
980,1,-1,2,876,6,97,0.8950050968399592
981,-1,-1,2,877,6,97,0.895112016293279
982,-1,-1,2,878,6,97,0.8952187182095626
983,-1,-1,2,879,6,97,0.8953252032520326
984,-1,-1,2,880,6,97,0.8954314720812183
985,-1,-1,2,881,6,97,0.8955375253549696
986,-1,-1,2,882,6,97,0.8956433637284701
987,-1,-1,2,883,6,97,0.895748987854251
988,1,-1,2,883,6,98,0.8948432760364005
989,-1,-1,2,884,6,98,0.8949494949494949
990,-1,-1,2,885,6,98,0.8950554994954592
991,-1,-1,2,886,6,98,0.8951612903225806
992,-1,-1,2,887,6,98,0.8952668680765358
993,-1,-1,2,888,6,98,0.8953722334004024
994,-1,-1,2,889,6,98,0.8954773869346734
995,-1,-1,2,890,6,98,0.8955823293172691
996,-1,-1,2,891,6,98,0.8956870611835507
997,-1,-1,2,892,6,98,0.8957915831663327
998,-1,-1,2,893,6,98,0.8958958958958959
999,-1,-1,2,894,6,98,0.896
1000,-1,-1,2,895,6,98,0.8961038961038961
1001,-1,-1,2,896,6,98,0.8962075848303394
1002,-1,-1,2,897,6,98,0.8963110667996012
1003,-1,-1,2,898,6,98,0.896414342629482
1004,-1,-1,2,899,6,98,0.8965174129353234
1005,-1,-1,2,900,6,98,0.8966202783300199
1006,-1,-1,2,901,6,98,0.8967229394240318
1007,-1,1,2,901,7,98,0.8958333333333334
1008,-1,-1,2,902,7,98,0.8959365708622399
1009,-1,-1,2,903,7,98,0.8960396039603961
1010,-1,-1,2,904,7,98,0.8961424332344213
1011,-1,-1,2,905,7,98,0.8962450592885376
1012,-1,-1,2,906,7,98,0.8963474827245804
1013,-1,-1,2,907,7,98,0.8964497041420119
1014,-1,-1,2,908,7,98,0.896551724137931
1015,-1,-1,2,909,7,98,0.8966535433070866
1016,-1,-1,2,910,7,98,0.8967551622418879
1017,-1,-1,2,911,7,98,0.8968565815324165
1018,-1,-1,2,912,7,98,0.8969578017664377
1019,-1,-1,2,913,7,98,0.8970588235294118
1020,-1,-1,2,914,7,98,0.8971596474045054
1021,-1,-1,2,915,7,98,0.8972602739726028
1022,-1,-1,2,916,7,98,0.8973607038123167
1023,-1,-1,2,917,7,98,0.8974609375
1024,-1,-1,2,918,7,98,0.8975609756097561
1025,-1,-1,2,919,7,98,0.8976608187134503
1026,-1,-1,2,920,7,98,0.8977604673807206
1027,-1,-1,2,921,7,98,0.8978599221789884
1028,-1,-1,2,922,7,98,0.8979591836734694
1029,-1,-1,2,923,7,98,0.8980582524271845
1030,-1,-1,2,924,7,98,0.8981571290009699
1031,-1,-1,2,925,7,98,0.8982558139534884
1032,-1,-1,2,926,7,98,0.8983543078412392
1033,-1,-1,2,927,7,98,0.8984526112185687
1034,-1,-1,2,928,7,98,0.8985507246376812
1035,-1,-1,2,929,7,98,0.8986486486486487
1036,-1,-1,2,930,7,98,0.8987463837994214
1037,-1,-1,2,931,7,98,0.8988439306358381
1038,1,-1,2,931,7,99,0.8979788257940328
1039,1,-1,2,931,7,100,0.8971153846153846
1040,-1,-1,2,932,7,100,0.8972142170989433
1041,-1,-1,2,933,7,100,0.8973128598848369
1042,-1,-1,2,934,7,100,0.8974113135186961
1043,1,-1,2,934,7,101,0.896551724137931
1044,-1,-1,2,935,7,101,0.8966507177033493
1045,-1,-1,2,936,7,101,0.8967495219885278
1046,1,-1,2,936,7,102,0.8958930276981852
1047,-1,-1,2,937,7,102,0.8959923664122137
1048,-1,-1,2,938,7,102,0.8960915157292659
1049,-1,-1,2,939,7,102,0.8961904761904762
1050,-1,-1,2,940,7,102,0.8962892483349191
1051,1,-1,2,940,7,103,0.8954372623574145
1052,-1,-1,2,941,7,103,0.8955365622032289
1053,-1,-1,2,942,7,103,0.8956356736242884
1054,-1,-1,2,943,7,103,0.8957345971563981
1055,-1,-1,2,944,7,103,0.8958333333333334
1056,-1,-1,2,945,7,103,0.8959318826868495
1057,-1,-1,2,946,7,103,0.8960302457466919
1058,-1,-1,2,947,7,103,0.8961284230406044
1059,-1,-1,2,948,7,103,0.8962264150943396
1060,-1,-1,2,949,7,103,0.8963242224316682
1061,-1,-1,2,950,7,103,0.896421845574388
1062,-1,-1,2,951,7,103,0.896519285042333
1063,-1,-1,2,952,7,103,0.8966165413533834
1064,-1,-1,2,953,7,103,0.8967136150234741
1065,-1,-1,2,954,7,103,0.8968105065666041
1066,-1,-1,2,955,7,103,0.8969072164948454
1067,-1,-1,2,956,7,103,0.897003745318352
1068,-1,-1,2,957,7,103,0.8971000935453695
1069,-1,-1,2,958,7,103,0.897196261682243
1070,-1,-1,2,959,7,103,0.8972922502334267
1071,-1,-1,2,960,7,103,0.8973880597014925
1072,-1,-1,2,961,7,103,0.8974836905871388
1073,-1,-1,2,962,7,103,0.8975791433891993
1074,-1,-1,2,963,7,103,0.8976744186046511
1075,-1,-1,2,964,7,103,0.8977695167286245
1076,-1,-1,2,965,7,103,0.8978644382544104
1077,-1,-1,2,966,7,103,0.8979591836734694
1078,-1,-1,2,967,7,103,0.8980537534754403
1079,-1,-1,2,968,7,103,0.8981481481481481
1080,-1,-1,2,969,7,103,0.8982423681776133
1081,-1,-1,2,970,7,103,0.8983364140480592
1082,-1,-1,2,971,7,103,0.8984302862419206
1083,1,-1,2,971,7,104,0.8976014760147601
1084,-1,-1,2,972,7,104,0.8976958525345622
1085,-1,-1,2,973,7,104,0.8977900552486188
1086,-1,-1,2,974,7,104,0.8978840846366145
1087,-1,-1,2,975,7,104,0.8979779411764706
1088,-1,-1,2,976,7,104,0.8980716253443526
1089,-1,-1,2,977,7,104,0.8981651376146789
1090,-1,-1,2,978,7,104,0.8982584784601283
1091,-1,-1,2,979,7,104,0.8983516483516484
1092,-1,-1,2,980,7,104,0.898444647758463
1093,-1,-1,2,981,7,104,0.8985374771480804
1094,-1,-1,2,982,7,104,0.8986301369863013
1095,1,-1,2,982,7,105,0.8978102189781022
1096,-1,-1,2,983,7,105,0.8979033728350045
1097,-1,-1,2,984,7,105,0.8979963570127505
1098,-1,-1,2,985,7,105,0.8980891719745223
1099,1,-1,2,985,7,106,0.8972727272727272
1100,-1,-1,2,986,7,106,0.8973660308810173
1101,-1,-1,2,987,7,106,0.8974591651542649
1102,-1,-1,2,988,7,106,0.8975521305530372
1103,-1,-1,2,989,7,106,0.8976449275362319
1104,-1,-1,2,990,7,106,0.897737556561086
1105,-1,-1,2,991,7,106,0.8978300180831826
1106,-1,-1,2,992,7,106,0.8979223125564589
1107,-1,-1,2,993,7,106,0.898014440433213
1108,1,1,3,993,7,106,0.8981064021641119
1109,-1,-1,3,994,7,106,0.8981981981981982
1110,1,-1,3,994,7,107,0.8973897389738974
1111,-1,-1,3,995,7,107,0.8974820143884892
1112,-1,-1,3,996,7,107,0.8975741239892183
1113,-1,-1,3,997,7,107,0.8976660682226212
1114,-1,-1,3,998,7,107,0.8977578475336323
1115,-1,-1,3,999,7,107,0.8978494623655914
1116,-1,-1,3,1000,7,107,0.8979409131602507
1117,-1,-1,3,1001,7,107,0.8980322003577818
1118,-1,-1,3,1002,7,107,0.8981233243967829
1119,-1,-1,3,1003,7,107,0.8982142857142857
1120,-1,-1,3,1004,7,107,0.8983050847457628
1121,-1,-1,3,1005,7,107,0.8983957219251337
1122,-1,-1,3,1006,7,107,0.8984861976847729
1123,-1,-1,3,1007,7,107,0.8985765124555161
1124,-1,-1,3,1008,7,107,0.8986666666666666
1125,-1,-1,3,1009,7,107,0.8987566607460036
1126,1,-1,3,1009,7,108,0.8979591836734694
1127,-1,-1,3,1010,7,108,0.8980496453900709
1128,-1,-1,3,1011,7,108,0.8981399468556245
1129,-1,-1,3,1012,7,108,0.8982300884955752
1130,-1,-1,3,1013,7,108,0.8983200707338639
1131,-1,-1,3,1014,7,108,0.8984098939929329
1132,1,-1,3,1014,7,109,0.8976169461606355
1133,-1,-1,3,1015,7,109,0.8977072310405644
1134,-1,-1,3,1016,7,109,0.8977973568281938
1135,-1,-1,3,1017,7,109,0.897887323943662
1136,-1,-1,3,1018,7,109,0.8979771328056289
1137,-1,-1,3,1019,7,109,0.8980667838312829
1138,-1,-1,3,1020,7,109,0.8981562774363476
1139,-1,-1,3,1021,7,109,0.8982456140350877
1140,-1,-1,3,1022,7,109,0.8983347940403155
1141,-1,-1,3,1023,7,109,0.8984238178633975
1142,-1,-1,3,1024,7,109,0.8985126859142607
1143,-1,-1,3,1025,7,109,0.8986013986013986
1144,-1,-1,3,1026,7,109,0.8986899563318778
1145,-1,-1,3,1027,7,109,0.8987783595113438
1146,1,-1,3,1027,7,110,0.8979947689625108
1147,-1,-1,3,1028,7,110,0.8980836236933798
1148,1,-1,3,1028,7,111,0.897302001740644
1149,-1,-1,3,1029,7,111,0.8973913043478261
1150,1,-1,3,1029,7,112,0.896611642050391
1151,1,-1,3,1029,7,113,0.8958333333333334
1152,-1,-1,3,1030,7,113,0.8959236773633998
1153,-1,-1,3,1031,7,113,0.8960138648180243
1154,-1,-1,3,1032,7,113,0.8961038961038961
1155,-1,-1,3,1033,7,113,0.8961937716262975
1156,-1,-1,3,1034,7,113,0.8962834917891098
1157,-1,-1,3,1035,7,113,0.8963730569948186
1158,-1,-1,3,1036,7,113,0.8964624676445211
1159,-1,-1,3,1037,7,113,0.896551724137931
1160,-1,-1,3,1038,7,113,0.896640826873385
1161,-1,-1,3,1039,7,113,0.8967297762478486
1162,-1,-1,3,1040,7,113,0.8968185726569218
1163,-1,-1,3,1041,7,113,0.8969072164948454
1164,-1,-1,3,1042,7,113,0.8969957081545065
1165,-1,-1,3,1043,7,113,0.8970840480274442
1166,-1,-1,3,1044,7,113,0.897172236503856
1167,-1,-1,3,1045,7,113,0.8972602739726028
1168,-1,-1,3,1046,7,113,0.8973481608212147
1169,-1,-1,3,1047,7,113,0.8974358974358975
1170,-1,-1,3,1048,7,113,0.8975234842015372
1171,-1,-1,3,1049,7,113,0.8976109215017065
1172,1,-1,3,1049,7,114,0.896845694799659
1173,-1,-1,3,1050,7,114,0.8969335604770017
1174,-1,-1,3,1051,7,114,0.8970212765957447
1175,-1,-1,3,1052,7,114,0.8971088435374149
1176,-1,-1,3,1053,7,114,0.897196261682243
1177,-1,-1,3,1054,7,114,0.8972835314091681
1178,-1,1,3,1054,8,114,0.8965224766751484
1179,-1,-1,3,1055,8,114,0.8966101694915254
1180,-1,-1,3,1056,8,114,0.8966977138018628
1181,-1,-1,3,1057,8,114,0.8967851099830795
1182,-1,-1,3,1058,8,114,0.8968723584108199
1183,-1,-1,3,1059,8,114,0.8969594594594594
1184,-1,-1,3,1060,8,114,0.8970464135021097
1185,-1,-1,3,1061,8,114,0.897133220910624
1186,-1,-1,3,1062,8,114,0.8972198820556023
1187,-1,-1,3,1063,8,114,0.8973063973063973
1188,-1,-1,3,1064,8,114,0.8973927670311186
1189,-1,-1,3,1065,8,114,0.8974789915966387
1190,-1,-1,3,1066,8,114,0.8975650713685979
1191,-1,-1,3,1067,8,114,0.8976510067114094
1192,-1,-1,3,1068,8,114,0.8977367979882649
1193,-1,-1,3,1069,8,114,0.897822445561139
1194,-1,-1,3,1070,8,114,0.897907949790795
1195,-1,-1,3,1071,8,114,0.8979933110367893
1196,1,-1,3,1071,8,115,0.8972431077694235
1197,-1,-1,3,1072,8,115,0.8973288814691152
1198,-1,-1,3,1073,8,115,0.8974145120934112
1199,-1,-1,3,1074,8,115,0.8975
1200,-1,-1,3,1075,8,115,0.8975853455453788
1201,-1,-1,3,1076,8,115,0.8976705490848585
1202,1,-1,3,1076,8,116,0.8969243557772236
1203,-1,-1,3,1077,8,116,0.8970099667774086
1204,-1,-1,3,1078,8,116,0.8970954356846473
1205,-1,-1,3,1079,8,116,0.8971807628524047
1206,-1,-1,3,1080,8,116,0.8972659486329743
1207,-1,-1,3,1081,8,116,0.8973509933774835
1208,-1,-1,3,1082,8,116,0.8974358974358975
1209,-1,-1,3,1083,8,116,0.8975206611570248
1210,-1,-1,3,1084,8,116,0.8976052848885219
1211,-1,-1,3,1085,8,116,0.8976897689768977
1212,-1,-1,3,1086,8,116,0.8977741137675186
1213,-1,-1,3,1087,8,116,0.8978583196046128
1214,-1,-1,3,1088,8,116,0.8979423868312757
1215,-1,-1,3,1089,8,116,0.8980263157894737
1216,-1,-1,3,1090,8,116,0.8981101068200493
1217,-1,-1,3,1091,8,116,0.8981937602627258
1218,-1,-1,3,1092,8,116,0.8982772764561116
1219,-1,-1,3,1093,8,116,0.898360655737705
1220,-1,-1,3,1094,8,116,0.8984438984438985
1221,-1,-1,3,1095,8,116,0.8985270049099836
1222,-1,-1,3,1096,8,116,0.8986099754701553
1223,-1,-1,3,1097,8,116,0.8986928104575164
1224,-1,-1,3,1098,8,116,0.8987755102040816
1225,-1,-1,3,1099,8,116,0.8988580750407831
1226,-1,-1,3,1100,8,116,0.8989405052974735
1227,-1,-1,3,1101,8,116,0.8990228013029316
1228,-1,-1,3,1102,8,116,0.8991049633848658
1229,-1,-1,3,1103,8,116,0.8991869918699187
1230,-1,-1,3,1104,8,116,0.8992688870836718
1231,-1,-1,3,1105,8,116,0.8993506493506493
1232,-1,-1,3,1106,8,116,0.8994322789943228
1233,-1,-1,3,1107,8,116,0.899513776337115
1234,-1,-1,3,1108,8,116,0.8995951417004049
1235,-1,-1,3,1109,8,116,0.8996763754045307
1236,-1,-1,3,1110,8,116,0.8997574777687954
1237,-1,-1,3,1111,8,116,0.8998384491114702
1238,-1,-1,3,1112,8,116,0.8999192897497982
1239,-1,-1,3,1113,8,116,0.9
1240,1,-1,3,1113,8,117,0.8992747784045125
1241,-1,-1,3,1114,8,117,0.8993558776167472
1242,-1,-1,3,1115,8,117,0.8994368463395012
1243,-1,-1,3,1116,8,117,0.8995176848874598
1244,-1,-1,3,1117,8,117,0.8995983935742972
1245,-1,-1,3,1118,8,117,0.8996789727126806
1246,-1,-1,3,1119,8,117,0.8997594226142742
1247,-1,-1,3,1120,8,117,0.8998397435897436
1248,1,-1,3,1120,8,118,0.899119295436349
1249,-1,-1,3,1121,8,118,0.8992
1250,-1,-1,3,1122,8,118,0.8992805755395683
1251,1,-1,3,1122,8,119,0.8985623003194888
1252,-1,-1,3,1123,8,119,0.8986432561851556
1253,-1,-1,3,1124,8,119,0.8987240829346093
1254,1,-1,3,1124,8,120,0.8980079681274901
1255,-1,-1,3,1125,8,120,0.8980891719745223
1256,-1,-1,3,1126,8,120,0.898170246618934
1257,1,-1,3,1126,8,121,0.8974562798092209
1258,-1,-1,3,1127,8,121,0.897537728355838
1259,-1,-1,3,1128,8,121,0.8976190476190476
1260,-1,-1,3,1129,8,121,0.8977002379064235
1261,-1,-1,3,1130,8,121,0.8977812995245642
1262,-1,-1,3,1131,8,121,0.8978622327790974
1263,-1,-1,3,1132,8,121,0.8979430379746836
1264,-1,-1,3,1133,8,121,0.8980237154150198
1265,-1,-1,3,1134,8,121,0.8981042654028436
1266,-1,-1,3,1135,8,121,0.8981846882399369
1267,-1,-1,3,1136,8,121,0.8982649842271293
1268,-1,-1,3,1137,8,121,0.8983451536643026
1269,-1,-1,3,1138,8,121,0.8984251968503937
1270,-1,-1,3,1139,8,121,0.898505114083399
1271,-1,-1,3,1140,8,121,0.8985849056603774
1272,-1,-1,3,1141,8,121,0.8986645718774549
1273,-1,-1,3,1142,8,121,0.8987441130298273
1274,-1,-1,3,1143,8,121,0.8988235294117647
1275,-1,-1,3,1144,8,121,0.8989028213166145
1276,-1,-1,3,1145,8,121,0.898981989036805
1277,1,-1,3,1145,8,122,0.8982785602503912
1278,1,-1,3,1145,8,123,0.8975762314308053
1279,-1,-1,3,1146,8,123,0.89765625
1280,-1,-1,3,1147,8,123,0.897736143637783
1281,-1,-1,3,1148,8,123,0.8978159126365055
1282,-1,-1,3,1149,8,123,0.8978955572876072
1283,-1,-1,3,1150,8,123,0.8979750778816199
1284,-1,-1,3,1151,8,123,0.8980544747081712
1285,-1,-1,3,1152,8,123,0.8981337480559876
1286,-1,-1,3,1153,8,123,0.8982128982128982
1287,-1,-1,3,1154,8,123,0.8982919254658385
1288,-1,-1,3,1155,8,123,0.8983708301008534
1289,-1,-1,3,1156,8,123,0.8984496124031007
1290,-1,-1,3,1157,8,123,0.8985282726568552
1291,-1,-1,3,1158,8,123,0.8986068111455109
1292,-1,-1,3,1159,8,123,0.8986852281515855
1293,-1,-1,3,1160,8,123,0.8987635239567233
1294,-1,-1,3,1161,8,123,0.8988416988416988
1295,-1,-1,3,1162,8,123,0.8989197530864198
1296,-1,-1,3,1163,8,123,0.8989976869699307
1297,1,-1,3,1163,8,124,0.8983050847457628
1298,-1,-1,3,1164,8,124,0.8983833718244804
1299,-1,-1,3,1165,8,124,0.8984615384615384
1300,-1,-1,3,1166,8,124,0.8985395849346657
1301,-1,-1,3,1167,8,124,0.8986175115207373
1302,-1,-1,3,1168,8,124,0.898695318495779
1303,-1,1,3,1168,9,124,0.8980061349693251
1304,-1,-1,3,1169,9,124,0.8980842911877395
1305,-1,-1,3,1170,9,124,0.8981623277182236
1306,-1,-1,3,1171,9,124,0.8982402448355011
1307,1,1,4,1171,9,124,0.8983180428134556
1308,-1,-1,4,1172,9,124,0.8983957219251337
1309,-1,-1,4,1173,9,124,0.898473282442748
1310,-1,-1,4,1174,9,124,0.8985507246376812
1311,-1,-1,4,1175,9,124,0.8986280487804879
1312,-1,-1,4,1176,9,124,0.8987052551408987
1313,-1,-1,4,1177,9,124,0.8987823439878234
1314,-1,-1,4,1178,9,124,0.8988593155893536
1315,-1,-1,4,1179,9,124,0.898936170212766
1316,-1,-1,4,1180,9,124,0.8990129081245254
1317,-1,-1,4,1181,9,124,0.8990895295902883
1318,-1,-1,4,1182,9,124,0.8991660348749052
1319,-1,-1,4,1183,9,124,0.8992424242424243
1320,-1,-1,4,1184,9,124,0.8993186979560939
1321,1,-1,4,1184,9,125,0.8986384266263238
1322,-1,-1,4,1185,9,125,0.8987150415721844
1323,-1,-1,4,1186,9,125,0.8987915407854985
1324,-1,-1,4,1187,9,125,0.8988679245283019
1325,1,-1,4,1187,9,126,0.8981900452488688
1326,-1,-1,4,1188,9,126,0.8982667671439337
1327,-1,-1,4,1189,9,126,0.8983433734939759
1328,-1,-1,4,1190,9,126,0.8984198645598194
1329,-1,-1,4,1191,9,126,0.8984962406015038
1330,1,-1,4,1191,9,127,0.8978211870773855
1331,-1,-1,4,1192,9,127,0.8978978978978979
1332,-1,-1,4,1193,9,127,0.8979744936234059
1333,-1,-1,4,1194,9,127,0.8980509745127436
1334,-1,-1,4,1195,9,127,0.89812734082397
1335,-1,-1,4,1196,9,127,0.8982035928143712
1336,-1,-1,4,1197,9,127,0.8982797307404637
1337,-1,-1,4,1198,9,127,0.898355754857997
1338,-1,-1,4,1199,9,127,0.8984316654219567
1339,-1,-1,4,1200,9,127,0.8985074626865671
1340,-1,-1,4,1201,9,127,0.8985831469052945
1341,-1,-1,4,1202,9,127,0.8986587183308494
1342,-1,-1,4,1203,9,127,0.8987341772151899
1343,-1,-1,4,1204,9,127,0.8988095238095238
1344,-1,-1,4,1205,9,127,0.8988847583643123
1345,-1,-1,4,1206,9,127,0.8989598811292719
1346,-1,-1,4,1207,9,127,0.8990348923533779
1347,-1,-1,4,1208,9,127,0.8991097922848664
1348,1,-1,4,1208,9,128,0.8984432913269088
1349,-1,-1,4,1209,9,128,0.8985185185185185
1350,-1,-1,4,1210,9,128,0.8985936343449297
1351,-1,-1,4,1211,9,128,0.8986686390532544
1352,1,-1,4,1211,9,129,0.8980044345898004
1353,-1,-1,4,1212,9,129,0.8980797636632201
1354,-1,-1,4,1213,9,129,0.8981549815498155
1355,-1,-1,4,1214,9,129,0.8982300884955752
1356,1,-1,4,1214,9,130,0.8975681650700074
1357,-1,-1,4,1215,9,130,0.8976435935198822
1358,-1,-1,4,1216,9,130,0.8977189109639441
1359,-1,-1,4,1217,9,130,0.8977941176470589
1360,-1,-1,4,1218,9,130,0.8978692138133725
1361,-1,-1,4,1219,9,130,0.8979441997063142
1362,-1,-1,4,1220,9,130,0.8980190755685987
1363,-1,-1,4,1221,9,130,0.8980938416422287
1364,-1,-1,4,1222,9,130,0.8981684981684982
1365,-1,-1,4,1223,9,130,0.8982430453879942
1366,-1,-1,4,1224,9,130,0.8983174835405998
1367,1,-1,4,1224,9,131,0.8976608187134503
1368,-1,-1,4,1225,9,131,0.8977355734112491
1369,-1,-1,4,1226,9,131,0.8978102189781022
1370,-1,-1,4,1227,9,131,0.8978847556528081
1371,-1,-1,4,1228,9,131,0.8979591836734694
1372,-1,-1,4,1229,9,131,0.8980335032774945
1373,-1,-1,4,1230,9,131,0.8981077147016011
1374,1,-1,4,1230,9,132,0.8974545454545455
1375,-1,-1,4,1231,9,132,0.8975290697674418
1376,-1,-1,4,1232,9,132,0.8976034858387799
1377,-1,-1,4,1233,9,132,0.897677793904209
1378,-1,-1,4,1234,9,132,0.8977519941986947
1379,-1,-1,4,1235,9,132,0.8978260869565218
1380,-1,-1,4,1236,9,132,0.8979000724112962
1381,-1,-1,4,1237,9,132,0.8979739507959479
1382,1,-1,4,1237,9,133,0.8973246565437455
1383,-1,-1,4,1238,9,133,0.8973988439306358
1384,-1,-1,4,1239,9,133,0.8974729241877256
1385,-1,-1,4,1240,9,133,0.8975468975468975
1386,-1,-1,4,1241,9,133,0.8976207642393655
1387,-1,-1,4,1242,9,133,0.8976945244956772
1388,-1,-1,4,1243,9,133,0.8977681785457163
1389,-1,-1,4,1244,9,133,0.897841726618705
1390,-1,-1,4,1245,9,133,0.8979151689432063
1391,-1,-1,4,1246,9,133,0.8979885057471264
1392,1,-1,4,1246,9,134,0.8973438621679828
1393,-1,-1,4,1247,9,134,0.8974175035868006
1394,-1,-1,4,1248,9,134,0.8974910394265233
1395,-1,-1,4,1249,9,134,0.8975644699140402
1396,-1,-1,4,1250,9,134,0.8976377952755905
1397,-1,-1,4,1251,9,134,0.8977110157367668
1398,-1,-1,4,1252,9,134,0.8977841315225161
1399,1,-1,4,1252,9,135,0.8971428571428571
1400,-1,-1,4,1253,9,135,0.8972162740899358
1401,-1,-1,4,1254,9,135,0.8972895863052782
1402,-1,-1,4,1255,9,135,0.8973627940128297
1403,-1,-1,4,1256,9,135,0.8974358974358975
1404,-1,-1,4,1257,9,135,0.8975088967971531
1405,-1,-1,4,1258,9,135,0.8975817923186344
1406,-1,-1,4,1259,9,135,0.8976545842217484
1407,-1,-1,4,1260,9,135,0.8977272727272727
1408,-1,-1,4,1261,9,135,0.8977998580553584
1409,-1,-1,4,1262,9,135,0.8978723404255319
1410,-1,-1,4,1263,9,135,0.8979447200566973
1411,-1,-1,4,1264,9,135,0.8980169971671388
1412,-1,-1,4,1265,9,135,0.8980891719745223
1413,-1,-1,4,1266,9,135,0.8981612446958982
1414,-1,-1,4,1267,9,135,0.8982332155477032
1415,-1,-1,4,1268,9,135,0.8983050847457628
1416,-1,-1,4,1269,9,135,0.8983768525052929
1417,-1,-1,4,1270,9,135,0.8984485190409027
1418,-1,-1,4,1271,9,135,0.8985200845665962
1419,-1,-1,4,1272,9,135,0.8985915492957747
1420,-1,-1,4,1273,9,135,0.8986629134412386
1421,-1,-1,4,1274,9,135,0.8987341772151899
1422,-1,-1,4,1275,9,135,0.898805340829234
1423,-1,-1,4,1276,9,135,0.898876404494382
1424,-1,-1,4,1277,9,135,0.8989473684210526
1425,-1,-1,4,1278,9,135,0.8990182328190743
1426,-1,-1,4,1279,9,135,0.8990889978976875
1427,-1,-1,4,1280,9,135,0.8991596638655462
1428,-1,-1,4,1281,9,135,0.8992302309307207
1429,-1,-1,4,1282,9,135,0.8993006993006993
1430,-1,-1,4,1283,9,135,0.89937106918239
1431,-1,-1,4,1284,9,135,0.8994413407821229
1432,-1,-1,4,1285,9,135,0.8995115143056525
1433,-1,-1,4,1286,9,135,0.899581589958159
1434,-1,-1,4,1287,9,135,0.8996515679442508
1435,-1,-1,4,1288,9,135,0.8997214484679665
1436,-1,-1,4,1289,9,135,0.8997912317327766
1437,-1,-1,4,1290,9,135,0.8998609179415855
1438,-1,-1,4,1291,9,135,0.8999305072967339
1439,-1,-1,4,1292,9,135,0.9
1440,-1,-1,4,1293,9,135,0.9000693962526024
1441,-1,-1,4,1294,9,135,0.9001386962552012
1442,-1,-1,4,1295,9,135,0.9002079002079002
1443,-1,-1,4,1296,9,135,0.9002770083102493
1444,-1,-1,4,1297,9,135,0.9003460207612457
1445,-1,-1,4,1298,9,135,0.9004149377593361
1446,-1,-1,4,1299,9,135,0.9004837595024188
1447,-1,-1,4,1300,9,135,0.9005524861878453
1448,-1,-1,4,1301,9,135,0.9006211180124224
1449,-1,-1,4,1302,9,135,0.9006896551724138
1450,1,-1,4,1302,9,136,0.9000689179875948
1451,1,-1,4,1302,9,137,0.8994490358126722
1452,-1,-1,4,1303,9,137,0.899518238128011
1453,-1,-1,4,1304,9,137,0.8995873452544704
1454,-1,-1,4,1305,9,137,0.8996563573883162
1455,-1,-1,4,1306,9,137,0.8997252747252747
1456,1,-1,4,1306,9,138,0.8991077556623198
1457,-1,-1,4,1307,9,138,0.8991769547325102
1458,-1,-1,4,1308,9,138,0.8992460589444825
1459,-1,-1,4,1309,9,138,0.8993150684931507
1460,-1,-1,4,1310,9,138,0.8993839835728953
1461,-1,-1,4,1311,9,138,0.899452804377565
1462,-1,-1,4,1312,9,138,0.8995215311004785
1463,-1,-1,4,1313,9,138,0.8995901639344263
1464,-1,-1,4,1314,9,138,0.8996587030716724
1465,-1,-1,4,1315,9,138,0.8997271487039563
1466,-1,-1,4,1316,9,138,0.8997955010224948
1467,-1,-1,4,1317,9,138,0.8998637602179836
1468,-1,-1,4,1318,9,138,0.899931926480599
1469,-1,-1,4,1319,9,138,0.9
1470,-1,-1,4,1320,9,138,0.9000679809653297
1471,-1,-1,4,1321,9,138,0.9001358695652174
1472,-1,-1,4,1322,9,138,0.90020366598778
1473,-1,-1,4,1323,9,138,0.9002713704206241
1474,-1,-1,4,1324,9,138,0.9003389830508475
1475,-1,-1,4,1325,9,138,0.9004065040650406
1476,-1,-1,4,1326,9,138,0.9004739336492891
1477,-1,-1,4,1327,9,138,0.9005412719891746
1478,-1,-1,4,1328,9,138,0.9006085192697769
1479,1,-1,4,1328,9,139,0.9
1480,-1,-1,4,1329,9,139,0.900067521944632
1481,1,-1,4,1329,9,140,0.8994601889338731
1482,-1,-1,4,1330,9,140,0.899527983816588
1483,-1,-1,4,1331,9,140,0.8995956873315364
1484,-1,-1,4,1332,9,140,0.8996632996632996
1485,-1,-1,4,1333,9,140,0.8997308209959624
1486,-1,-1,4,1334,9,140,0.8997982515131137
1487,-1,-1,4,1335,9,140,0.8998655913978495
1488,-1,-1,4,1336,9,140,0.8999328408327737
1489,-1,-1,4,1337,9,140,0.9
1490,-1,-1,4,1338,9,140,0.9000670690811536
1491,-1,-1,4,1339,9,140,0.9001340482573726
1492,-1,-1,4,1340,9,140,0.9002009377093101
1493,-1,-1,4,1341,9,140,0.9002677376171352
1494,-1,-1,4,1342,9,140,0.9003344481605351
1495,1,-1,4,1342,9,141,0.8997326203208557
1496,1,-1,4,1342,9,142,0.8991315965263861
1497,-1,-1,4,1343,9,142,0.8991989319092123
1498,-1,-1,4,1344,9,142,0.8992661774516344
1499,-1,-1,4,1345,9,142,0.8993333333333333
1500,-1,-1,4,1346,9,142,0.899400399733511
1501,1,-1,4,1346,9,143,0.8988015978695073
1502,1,-1,4,1346,9,144,0.8982035928143712
1503,-1,-1,4,1347,9,144,0.8982712765957447
1504,-1,-1,4,1348,9,144,0.8983388704318936
1505,1,-1,4,1348,9,145,0.897742363877822
1506,-1,-1,4,1349,9,145,0.8978102189781022
1507,1,-1,4,1349,9,146,0.8972148541114059
1508,-1,-1,4,1350,9,146,0.8972829688535454
1509,-1,-1,4,1351,9,146,0.8973509933774835
1510,-1,-1,4,1352,9,146,0.8974189278623428
1511,-1,-1,4,1353,9,146,0.8974867724867724
1512,-1,-1,4,1354,9,146,0.8975545274289491
1513,-1,-1,4,1355,9,146,0.8976221928665786
1514,-1,-1,4,1356,9,146,0.8976897689768977
1515,1,-1,4,1356,9,147,0.8970976253298153
1516,-1,-1,4,1357,9,147,0.8971654581410679
1517,-1,-1,4,1358,9,147,0.8972332015810277
1518,-1,-1,4,1359,9,147,0.8973008558262014
1519,-1,-1,4,1360,9,147,0.8973684210526316
1520,-1,-1,4,1361,9,147,0.8974358974358975
1521,-1,-1,4,1362,9,147,0.897503285151117
1522,-1,-1,4,1363,9,147,0.8975705843729481
1523,-1,-1,4,1364,9,147,0.8976377952755905
1524,-1,-1,4,1365,9,147,0.8977049180327868
1525,-1,-1,4,1366,9,147,0.8977719528178244
1526,-1,-1,4,1367,9,147,0.8978388998035364
1527,-1,-1,4,1368,9,147,0.8979057591623036
1528,1,-1,4,1368,9,148,0.8973185088293002
1529,-1,-1,4,1369,9,148,0.8973856209150327
1530,-1,-1,4,1370,9,148,0.8974526453298498
1531,-1,-1,4,1371,9,148,0.8975195822454308
1532,-1,-1,4,1372,9,148,0.8975864318330071
1533,-1,-1,4,1373,9,148,0.8976531942633638
1534,-1,-1,4,1374,9,148,0.8977198697068404
1535,-1,-1,4,1375,9,148,0.8977864583333334
1536,-1,-1,4,1376,9,148,0.8978529603122967
1537,-1,-1,4,1377,9,148,0.8979193758127438
1538,-1,-1,4,1378,9,148,0.8979857050032488
1539,1,-1,4,1378,9,149,0.8974025974025974
1540,-1,-1,4,1379,9,149,0.8974691758598313
1541,-1,-1,4,1380,9,149,0.8975356679636836
1542,-1,-1,4,1381,9,149,0.8976020738820479
1543,-1,-1,4,1382,9,149,0.8976683937823834
1544,-1,-1,4,1383,9,149,0.8977346278317152
1545,-1,-1,4,1384,9,149,0.8978007761966365
1546,-1,-1,4,1385,9,149,0.8978668390433097
1547,1,-1,4,1385,9,150,0.8972868217054264
1548,-1,-1,4,1386,9,150,0.8973531310522918
1549,-1,-1,4,1387,9,150,0.8974193548387097
1550,-1,-1,4,1388,9,150,0.8974854932301741
1551,-1,-1,4,1389,9,150,0.8975515463917526
1552,-1,-1,4,1390,9,150,0.8976175144880876
1553,-1,-1,4,1391,9,150,0.8976833976833977
1554,-1,-1,4,1392,9,150,0.8977491961414791
1555,-1,-1,4,1393,9,150,0.8978149100257069
1556,-1,-1,4,1394,9,150,0.8978805394990366
1557,-1,-1,4,1395,9,150,0.8979460847240052
1558,-1,-1,4,1396,9,150,0.8980115458627326
1559,-1,-1,4,1397,9,150,0.8980769230769231
1560,-1,-1,4,1398,9,150,0.8981422165278667
1561,-1,-1,4,1399,9,150,0.8982074263764405
1562,-1,-1,4,1400,9,150,0.8982725527831094
1563,-1,-1,4,1401,9,150,0.8983375959079284
1564,-1,-1,4,1402,9,150,0.8984025559105431
1565,-1,-1,4,1403,9,150,0.8984674329501916
1566,-1,-1,4,1404,9,150,0.8985322271857051
1567,1,-1,4,1404,9,151,0.8979591836734694
1568,-1,-1,4,1405,9,151,0.8980242192479286
1569,-1,-1,4,1406,9,151,0.8980891719745223
1570,-1,-1,4,1407,9,151,0.8981540420114577
1571,-1,-1,4,1408,9,151,0.8982188295165394
1572,-1,-1,4,1409,9,151,0.898283534647171
1573,-1,-1,4,1410,9,151,0.8983481575603558
1574,-1,-1,4,1411,9,151,0.8984126984126984
1575,1,-1,4,1411,9,152,0.8978426395939086
1576,-1,-1,4,1412,9,152,0.8979074191502854
1577,-1,-1,4,1413,9,152,0.8979721166032953
1578,-1,-1,4,1414,9,152,0.8980367321089296
1579,-1,-1,4,1415,9,152,0.8981012658227848
1580,-1,-1,4,1416,9,152,0.8981657179000633
1581,1,-1,4,1416,9,153,0.8975979772439949
1582,-1,-1,4,1417,9,153,0.897662665824384
1583,-1,-1,4,1418,9,153,0.8977272727272727
1584,-1,-1,4,1419,9,153,0.8977917981072555
1585,-1,-1,4,1420,9,153,0.8978562421185372
1586,-1,-1,4,1421,9,153,0.8979206049149339
1587,1,-1,4,1421,9,154,0.8973551637279596
1588,-1,1,4,1421,10,154,0.8967904342353682
1589,-1,-1,4,1422,10,154,0.8968553459119497
1590,-1,-1,4,1423,10,154,0.8969201759899434
1591,-1,-1,4,1424,10,154,0.8969849246231156
1592,-1,-1,4,1425,10,154,0.8970495919648462
1593,-1,-1,4,1426,10,154,0.8971141781681304
1594,-1,-1,4,1427,10,154,0.8971786833855799
1595,-1,-1,4,1428,10,154,0.8972431077694235
1596,-1,1,4,1428,11,154,0.8966812773951158
1597,-1,-1,4,1429,11,154,0.8967459324155194
1598,-1,-1,4,1430,11,154,0.8968105065666041
1599,-1,-1,4,1431,11,154,0.896875
1600,-1,-1,4,1432,11,154,0.8969394128669581
1601,-1,-1,4,1433,11,154,0.897003745318352
1602,-1,-1,4,1434,11,154,0.8970679975046787
1603,-1,-1,4,1435,11,154,0.8971321695760599
1604,-1,-1,4,1436,11,154,0.897196261682243
1605,-1,-1,4,1437,11,154,0.8972602739726028
1606,-1,-1,4,1438,11,154,0.8973242065961419
1607,-1,-1,4,1439,11,154,0.8973880597014925
1608,-1,-1,4,1440,11,154,0.8974518334369174
1609,-1,-1,4,1441,11,154,0.8975155279503105
1610,1,-1,4,1441,11,155,0.8969584109248914
1611,-1,-1,4,1442,11,155,0.8970223325062034
1612,-1,-1,4,1443,11,155,0.8970861748295103
1613,-1,-1,4,1444,11,155,0.8971499380421314
1614,-1,-1,4,1445,11,155,0.8972136222910216
1615,-1,-1,4,1446,11,155,0.8972772277227723
1616,-1,-1,4,1447,11,155,0.8973407544836116
1617,-1,-1,4,1448,11,155,0.8974042027194067
1618,-1,-1,4,1449,11,155,0.897467572575664
1619,-1,-1,4,1450,11,155,0.8975308641975308
1620,-1,-1,4,1451,11,155,0.8975940777297964
1621,-1,-1,4,1452,11,155,0.8976572133168927
1622,-1,-1,4,1453,11,155,0.8977202711028959
1623,1,-1,4,1453,11,156,0.8971674876847291
1624,-1,-1,4,1454,11,156,0.8972307692307693
1625,-1,-1,4,1455,11,156,0.8972939729397293
1626,-1,-1,4,1456,11,156,0.8973570989551322
1627,-1,-1,4,1457,11,156,0.8974201474201474
1628,-1,-1,4,1458,11,156,0.8974831184775937
1629,-1,-1,4,1459,11,156,0.8975460122699387
1630,-1,-1,4,1460,11,156,0.897608828939301
1631,-1,-1,4,1461,11,156,0.897671568627451
1632,-1,-1,4,1462,11,156,0.8977342314758114
1633,-1,-1,4,1463,11,156,0.897796817625459
1634,-1,-1,4,1464,11,156,0.8978593272171254
1635,-1,-1,4,1465,11,156,0.8979217603911981
1636,-1,-1,4,1466,11,156,0.8979841172877214
1637,-1,-1,4,1467,11,156,0.8980463980463981
1638,-1,-1,4,1468,11,156,0.8981086028065893
1639,-1,-1,4,1469,11,156,0.8981707317073171
1640,-1,-1,4,1470,11,156,0.8982327848872639
1641,-1,-1,4,1471,11,156,0.8982947624847747
1642,-1,-1,4,1472,11,156,0.8983566646378576
1643,-1,-1,4,1473,11,156,0.898418491484185
1644,1,-1,4,1473,11,157,0.8978723404255319
1645,-1,-1,4,1474,11,157,0.8979343863912516
1646,-1,-1,4,1475,11,157,0.8979963570127505
1647,-1,-1,4,1476,11,157,0.8980582524271845
1648,-1,-1,4,1477,11,157,0.8981200727713766
1649,-1,-1,4,1478,11,157,0.8981818181818182
1650,-1,-1,4,1479,11,157,0.8982434887946699
1651,-1,-1,4,1480,11,157,0.8983050847457628
1652,-1,-1,4,1481,11,157,0.8983666061705989
1653,-1,-1,4,1482,11,157,0.898428053204353
1654,-1,-1,4,1483,11,157,0.8984894259818731
1655,-1,-1,4,1484,11,157,0.8985507246376812
1656,1,-1,4,1484,11,158,0.8980084490042245
1657,-1,-1,4,1485,11,158,0.8980699638118215
1658,-1,-1,4,1486,11,158,0.8981314044605184
1659,-1,-1,4,1487,11,158,0.8981927710843374
1660,-1,-1,4,1488,11,158,0.8982540638169777
1661,-1,-1,4,1489,11,158,0.898315282791817
1662,-1,-1,4,1490,11,158,0.8983764281419122
1663,-1,-1,4,1491,11,158,0.8984375
1664,-1,-1,4,1492,11,158,0.8984984984984985
1665,-1,-1,4,1493,11,158,0.8985594237695078
1666,-1,-1,4,1494,11,158,0.8986202759448111
1667,-1,-1,4,1495,11,158,0.8986810551558753
1668,-1,-1,4,1496,11,158,0.8987417615338527
1669,-1,-1,4,1497,11,158,0.8988023952095808
1670,-1,-1,4,1498,11,158,0.8988629563135847
1671,-1,-1,4,1499,11,158,0.8989234449760766
1672,-1,-1,4,1500,11,158,0.8989838613269575
1673,1,-1,4,1500,11,159,0.8984468339307049
1674,-1,-1,4,1501,11,159,0.8985074626865671
1675,-1,-1,4,1502,11,159,0.8985680190930787
1676,-1,-1,4,1503,11,159,0.898628503279666
1677,-1,-1,4,1504,11,159,0.8986889153754469
1678,1,-1,4,1504,11,160,0.8981536628945801
1679,-1,-1,4,1505,11,160,0.8982142857142857
1680,-1,-1,4,1506,11,160,0.8982748364069006
1681,-1,-1,4,1507,11,160,0.8983353151010701
1682,-1,-1,4,1508,11,160,0.8983957219251337
1683,-1,-1,4,1509,11,160,0.8984560570071259
1684,-1,-1,4,1510,11,160,0.8985163204747775
1685,-1,-1,4,1511,11,160,0.8985765124555161
1686,-1,-1,4,1512,11,160,0.8986366330764671
1687,-1,-1,4,1513,11,160,0.898696682464455
1688,-1,-1,4,1514,11,160,0.8987566607460036
1689,-1,-1,4,1515,11,160,0.8988165680473372
1690,1,-1,4,1515,11,161,0.8982850384387936
1691,-1,-1,4,1516,11,161,0.8983451536643026
1692,-1,-1,4,1517,11,161,0.8984051978735972
1693,-1,-1,4,1518,11,161,0.898465171192444
1694,-1,-1,4,1519,11,161,0.8985250737463126
1695,-1,-1,4,1520,11,161,0.8985849056603774
1696,-1,-1,4,1521,11,161,0.8986446670595168
1697,-1,-1,4,1522,11,161,0.8987043580683156
1698,-1,-1,4,1523,11,161,0.8987639788110653
1699,-1,-1,4,1524,11,161,0.8988235294117647
1700,-1,-1,4,1525,11,161,0.8988830099941211
1701,-1,-1,4,1526,11,161,0.8989424206815512
1702,-1,-1,4,1527,11,161,0.8990017615971815
1703,-1,-1,4,1528,11,161,0.8990610328638498
1704,-1,-1,4,1529,11,161,0.8991202346041056
1705,-1,-1,4,1530,11,161,0.8991793669402111
1706,-1,-1,4,1531,11,161,0.8992384299941417
1707,-1,-1,4,1532,11,161,0.8992974238875878
1708,-1,-1,4,1533,11,161,0.8993563487419544
1709,1,-1,4,1533,11,162,0.8988304093567251
1710,-1,-1,4,1534,11,162,0.8988895382817066
1711,-1,-1,4,1535,11,162,0.8989485981308412
1712,-1,-1,4,1536,11,162,0.8990075890251021
1713,-1,-1,4,1537,11,162,0.8990665110851809
1714,-1,-1,4,1538,11,162,0.8991253644314868
1715,-1,-1,4,1539,11,162,0.8991841491841492
1716,-1,-1,4,1540,11,162,0.8992428654630169
1717,-1,-1,4,1541,11,162,0.8993015133876601
1718,-1,-1,4,1542,11,162,0.8993600930773705
1719,-1,-1,4,1543,11,162,0.8994186046511627
1720,-1,-1,4,1544,11,162,0.8994770482277745
1721,-1,-1,4,1545,11,162,0.8995354239256679
1722,-1,-1,4,1546,11,162,0.8995937318630296
1723,1,-1,4,1546,11,163,0.8990719257540604
1724,-1,-1,4,1547,11,163,0.8991304347826087
1725,-1,-1,4,1548,11,163,0.899188876013905
1726,-1,-1,4,1549,11,163,0.8992472495657209
1727,-1,-1,4,1550,11,163,0.8993055555555556
1728,-1,-1,4,1551,11,163,0.8993637941006362
1729,-1,-1,4,1552,11,163,0.8994219653179191
1730,-1,-1,4,1553,11,163,0.8994800693240901
1731,-1,-1,4,1554,11,163,0.8995381062355658
1732,-1,-1,4,1555,11,163,0.8995960761684939
1733,-1,-1,4,1556,11,163,0.8996539792387543
1734,-1,-1,4,1557,11,163,0.8997118155619597
1735,-1,-1,4,1558,11,163,0.8997695852534562
1736,-1,-1,4,1559,11,163,0.8998272884283247
1737,-1,-1,4,1560,11,163,0.8998849252013809
1738,-1,-1,4,1561,11,163,0.8999424956871765
1739,-1,-1,4,1562,11,163,0.9
1740,-1,-1,4,1563,11,163,0.9000574382538771
1741,-1,-1,4,1564,11,163,0.9001148105625718
1742,-1,-1,4,1565,11,163,0.9001721170395869
1743,-1,-1,4,1566,11,163,0.9002293577981652
1744,-1,-1,4,1567,11,163,0.9002865329512894
1745,-1,-1,4,1568,11,163,0.9003436426116839
1746,1,-1,4,1568,11,164,0.8998282770463651
1747,-1,-1,4,1569,11,164,0.8998855835240275
1748,-1,-1,4,1570,11,164,0.8999428244711264
1749,1,-1,4,1570,11,165,0.8994285714285715
1750,-1,-1,4,1571,11,165,0.8994860079954312
1751,-1,-1,4,1572,11,165,0.8995433789954338
1752,-1,-1,4,1573,11,165,0.8996006845407872
1753,-1,-1,4,1574,11,165,0.8996579247434435
1754,-1,-1,4,1575,11,165,0.8997150997150997
1755,-1,-1,4,1576,11,165,0.8997722095671982
1756,1,-1,4,1576,11,166,0.8992601024473534
1757,-1,-1,4,1577,11,166,0.8993174061433447
1758,1,-1,4,1577,11,167,0.8988061398521887
1759,-1,-1,4,1578,11,167,0.8988636363636363
1760,-1,-1,4,1579,11,167,0.8989210675752414
1761,-1,-1,4,1580,11,167,0.8989784335981839
1762,-1,-1,4,1581,11,167,0.8990357345433919
1763,1,-1,4,1581,11,168,0.8985260770975056
1764,-1,-1,4,1582,11,168,0.8985835694050992
1765,-1,-1,4,1583,11,168,0.8986409966024915
1766,-1,-1,4,1584,11,168,0.8986983588002264
1767,1,-1,4,1584,11,169,0.8981900452488688
1768,1,-1,4,1584,11,170,0.8976823063877897
1769,-1,1,4,1584,12,170,0.8971751412429378
1770,-1,-1,4,1585,12,170,0.8972332015810277
1771,1,-1,4,1585,12,171,0.8967268623024831
1772,-1,-1,4,1586,12,171,0.8967851099830795
1773,-1,-1,4,1587,12,171,0.8968432919954904
1774,-1,-1,4,1588,12,171,0.8969014084507042
1775,-1,-1,4,1589,12,171,0.8969594594594594
1776,-1,-1,4,1590,12,171,0.8970174451322454
1777,-1,-1,4,1591,12,171,0.8970753655793026
1778,-1,-1,4,1592,12,171,0.897133220910624
1779,-1,-1,4,1593,12,171,0.897191011235955
1780,-1,-1,4,1594,12,171,0.8972487366647951
1781,-1,-1,4,1595,12,171,0.8973063973063973
1782,-1,-1,4,1596,12,171,0.89736399326977
1783,-1,-1,4,1597,12,171,0.8974215246636771
1784,-1,-1,4,1598,12,171,0.8974789915966387
1785,-1,-1,4,1599,12,171,0.8975363941769317
1786,-1,-1,4,1600,12,171,0.8975937325125909
1787,-1,-1,4,1601,12,171,0.8976510067114094
1788,-1,-1,4,1602,12,171,0.897708216880939
1789,-1,-1,4,1603,12,171,0.8977653631284916
1790,-1,-1,4,1604,12,171,0.897822445561139
1791,-1,-1,4,1605,12,171,0.8978794642857143
1792,-1,-1,4,1606,12,171,0.8979364194088121
1793,-1,-1,4,1607,12,171,0.8979933110367893
1794,-1,-1,4,1608,12,171,0.898050139275766
1795,-1,-1,4,1609,12,171,0.8981069042316259
1796,-1,-1,4,1610,12,171,0.8981636060100167
1797,-1,-1,4,1611,12,171,0.8982202447163515
1798,-1,-1,4,1612,12,171,0.8982768204558088
1799,-1,-1,4,1613,12,171,0.8983333333333333
1800,-1,-1,4,1614,12,171,0.8983897834536368
1801,-1,-1,4,1615,12,171,0.8984461709211987
1802,1,-1,4,1615,12,172,0.8979478646699944
1803,1,-1,4,1615,12,173,0.897450110864745
1804,-1,-1,4,1616,12,173,0.8975069252077562
1805,-1,-1,4,1617,12,173,0.897563676633444
1806,-1,-1,4,1618,12,173,0.8976203652462645
1807,-1,-1,4,1619,12,173,0.8976769911504425
1808,-1,-1,4,1620,12,173,0.8977335544499724
1809,-1,-1,4,1621,12,173,0.8977900552486188
1810,-1,-1,4,1622,12,173,0.8978464936499172
1811,-1,-1,4,1623,12,173,0.8979028697571744
1812,-1,-1,4,1624,12,173,0.8979591836734694
1813,-1,-1,4,1625,12,173,0.8980154355016539
1814,-1,-1,4,1626,12,173,0.8980716253443526
1815,-1,-1,4,1627,12,173,0.8981277533039648
1816,-1,-1,4,1628,12,173,0.8981838194826637
1817,-1,-1,4,1629,12,173,0.8982398239823982
1818,-1,-1,4,1630,12,173,0.8982957669048928
1819,-1,-1,4,1631,12,173,0.8983516483516484
1820,-1,-1,4,1632,12,173,0.8984074684239429
1821,-1,-1,4,1633,12,173,0.898463227222832
1822,-1,-1,4,1634,12,173,0.8985189248491497
1823,-1,-1,4,1635,12,173,0.8985745614035088
1824,-1,-1,4,1636,12,173,0.8986301369863013
1825,1,-1,4,1636,12,174,0.8981380065717415
1826,-1,-1,4,1637,12,174,0.8981937602627258
1827,-1,-1,4,1638,12,174,0.8982494529540481
1828,-1,-1,4,1639,12,174,0.8983050847457628
1829,-1,-1,4,1640,12,174,0.898360655737705
1830,-1,-1,4,1641,12,174,0.898416166029492
1831,-1,-1,4,1642,12,174,0.898471615720524
1832,-1,-1,4,1643,12,174,0.8985270049099836
1833,-1,-1,4,1644,12,174,0.8985823336968375
1834,-1,-1,4,1645,12,174,0.8986376021798365
1835,-1,-1,4,1646,12,174,0.8986928104575164
1836,-1,-1,4,1647,12,174,0.8987479586281981
1837,-1,-1,4,1648,12,174,0.8988030467899891
1838,-1,-1,4,1649,12,174,0.8988580750407831
1839,-1,-1,4,1650,12,174,0.8989130434782608
1840,-1,-1,4,1651,12,174,0.8989679521998913
1841,-1,-1,4,1652,12,174,0.8990228013029316
1842,-1,-1,4,1653,12,174,0.8990775908844275
1843,-1,-1,4,1654,12,174,0.8991323210412148
1844,-1,-1,4,1655,12,174,0.8991869918699187
1845,-1,-1,4,1656,12,174,0.8992416034669556
1846,1,-1,4,1656,12,175,0.8987547374120195
1847,-1,-1,4,1657,12,175,0.8988095238095238
1848,-1,-1,4,1658,12,175,0.8988642509464575
1849,-1,-1,4,1659,12,175,0.898918918918919
1850,-1,-1,4,1660,12,175,0.8989735278227985
1851,-1,-1,4,1661,12,175,0.8990280777537797
1852,1,-1,4,1661,12,176,0.8985429033998921
1853,-1,-1,4,1662,12,176,0.8985976267529665
1854,-1,-1,4,1663,12,176,0.8986522911051213
1855,-1,-1,4,1664,12,176,0.8987068965517241
1856,-1,-1,4,1665,12,176,0.8987614431879375
1857,-1,-1,4,1666,12,176,0.898815931108719
1858,-1,-1,4,1667,12,176,0.898870360408822
1859,1,-1,4,1667,12,177,0.8983870967741936
1860,-1,-1,4,1668,12,177,0.8984416980118216
1861,-1,-1,4,1669,12,177,0.8984962406015038
1862,-1,-1,4,1670,12,177,0.8985507246376812
1863,-1,-1,4,1671,12,177,0.8986051502145923
1864,-1,-1,4,1672,12,177,0.8986595174262735
1865,-1,-1,4,1673,12,177,0.8987138263665595
1866,-1,-1,4,1674,12,177,0.8987680771290841
1867,-1,-1,4,1675,12,177,0.8988222698072805
1868,1,-1,4,1675,12,178,0.8983413590155164
1869,-1,-1,4,1676,12,178,0.8983957219251337
1870,1,-1,4,1676,12,179,0.8979155531801176
1871,-1,-1,4,1677,12,179,0.8979700854700855
1872,-1,-1,4,1678,12,179,0.8980245595301655
1873,-1,-1,4,1679,12,179,0.8980789754535753
1874,-1,-1,4,1680,12,179,0.8981333333333333
1875,-1,-1,4,1681,12,179,0.8981876332622601
1876,1,-1,4,1681,12,180,0.8977091102823654
1877,-1,-1,4,1682,12,180,0.8977635782747604
1878,-1,-1,4,1683,12,180,0.8978179882916445
1879,-1,-1,4,1684,12,180,0.8978723404255319
1880,-1,-1,4,1685,12,180,0.89792663476874
1881,-1,-1,4,1686,12,180,0.89798087141339
1882,-1,-1,4,1687,12,180,0.8980350504514073
1883,-1,-1,4,1688,12,180,0.8980891719745223
1884,-1,-1,4,1689,12,180,0.8981432360742706
1885,-1,-1,4,1690,12,180,0.8981972428419936
1886,-1,-1,4,1691,12,180,0.8982511923688394
1887,-1,-1,4,1692,12,180,0.8983050847457628
1888,1,-1,4,1692,12,181,0.8978295394388566
1889,-1,-1,4,1693,12,181,0.8978835978835978
1890,-1,-1,4,1694,12,181,0.8979375991538868
1891,-1,-1,4,1695,12,181,0.8979915433403806
1892,-1,-1,4,1696,12,181,0.8980454305335447
1893,-1,-1,4,1697,12,181,0.8980992608236537
1894,-1,-1,4,1698,12,181,0.8981530343007915
1895,-1,-1,4,1699,12,181,0.8982067510548524
1896,-1,-1,4,1700,12,181,0.8982604111755403
1897,-1,-1,4,1701,12,181,0.8983140147523709
1898,-1,-1,4,1702,12,181,0.8983675618746709
1899,-1,-1,4,1703,12,181,0.8984210526315789
1900,-1,-1,4,1704,12,181,0.8984744871120462
1901,-1,-1,4,1705,12,181,0.898527865404837
1902,-1,-1,4,1706,12,181,0.8985811875985287
1903,-1,-1,4,1707,12,181,0.8986344537815126
1904,-1,-1,4,1708,12,181,0.8986876640419947
1905,-1,-1,4,1709,12,181,0.8987408184679958
1906,-1,-1,4,1710,12,181,0.8987939171473519
1907,-1,-1,4,1711,12,181,0.8988469601677149
1908,-1,-1,4,1712,12,181,0.8988999476165531
1909,-1,-1,4,1713,12,181,0.8989528795811519
1910,-1,-1,4,1714,12,181,0.8990057561486133
1911,-1,-1,4,1715,12,181,0.8990585774058577
1912,-1,-1,4,1716,12,181,0.8991113434396236
1913,-1,-1,4,1717,12,181,0.8991640543364682
1914,-1,-1,4,1718,12,181,0.8992167101827676
1915,-1,-1,4,1719,12,181,0.8992693110647182
1916,-1,-1,4,1720,12,181,0.8993218570683359
1917,-1,-1,4,1721,12,181,0.8993743482794577
1918,1,-1,4,1721,12,182,0.8989056800416884
1919,-1,-1,4,1722,12,182,0.8989583333333333
1920,1,-1,4,1722,12,183,0.8984903695991671
1921,1,-1,4,1722,12,184,0.8980228928199792
1922,-1,-1,4,1723,12,184,0.8980759230369215
1923,-1,-1,4,1724,12,184,0.8981288981288982
1924,-1,-1,4,1725,12,184,0.8981818181818182
1925,-1,-1,4,1726,12,184,0.8982346832814122
1926,-1,-1,4,1727,12,184,0.898287493513233
1927,-1,-1,4,1728,12,184,0.8983402489626556
1928,-1,-1,4,1729,12,184,0.8983929497148782
1929,1,-1,4,1729,12,185,0.8979274611398964
1930,-1,-1,4,1730,12,185,0.8979803210771621
1931,-1,-1,4,1731,12,185,0.8980331262939959
1932,-1,-1,4,1732,12,185,0.8980858768753234
1933,-1,-1,4,1733,12,185,0.8981385729058945
1934,-1,-1,4,1734,12,185,0.8981912144702843
1935,-1,-1,4,1735,12,185,0.8982438016528925
1936,-1,-1,4,1736,12,185,0.8982963345379453
1937,-1,-1,4,1737,12,185,0.8983488132094943
1938,-1,-1,4,1738,12,185,0.8984012377514182
1939,-1,-1,4,1739,12,185,0.8984536082474227
1940,-1,-1,4,1740,12,185,0.8985059247810407
1941,-1,-1,4,1741,12,185,0.8985581874356333
1942,1,1,5,1741,12,185,0.8986103962943901
1943,-1,-1,5,1742,12,185,0.8986625514403292
1944,-1,-1,5,1743,12,185,0.8987146529562982
1945,-1,-1,5,1744,12,185,0.8987667009249743
1946,-1,-1,5,1745,12,185,0.8988186954288649
1947,-1,-1,5,1746,12,185,0.898870636550308
1948,-1,-1,5,1747,12,185,0.8989225243714726
1949,-1,-1,5,1748,12,185,0.898974358974359
1950,-1,-1,5,1749,12,185,0.8990261404407995
1951,-1,-1,5,1750,12,185,0.899077868852459
1952,-1,-1,5,1751,12,185,0.8991295442908346
1953,-1,-1,5,1752,12,185,0.8991811668372569
1954,1,-1,5,1752,12,186,0.8987212276214833
1955,1,-1,5,1752,12,187,0.8982617586912065
1956,-1,-1,5,1753,12,187,0.8983137455288707
1957,-1,-1,5,1754,12,187,0.8983656792645557
1958,-1,-1,5,1755,12,187,0.8984175599795814
1959,-1,-1,5,1756,12,187,0.898469387755102
1960,1,-1,5,1756,12,188,0.8980112187659357
1961,-1,-1,5,1757,12,188,0.8980632008154944
1962,-1,-1,5,1758,12,188,0.8981151299032094
1963,1,-1,5,1758,12,189,0.8976578411405295
1964,-1,-1,5,1759,12,189,0.8977099236641222
1965,-1,-1,5,1760,12,189,0.897761953204476
1966,-1,-1,5,1761,12,189,0.8978139298423996
1967,-1,-1,5,1762,12,189,0.8978658536585366
1968,-1,-1,5,1763,12,189,0.8979177247333672
1969,-1,-1,5,1764,12,189,0.8979695431472081
1970,-1,-1,5,1765,12,189,0.898021308980213
1971,-1,-1,5,1766,12,189,0.8980730223123732
1972,-1,-1,5,1767,12,189,0.8981246832235175
1973,-1,-1,5,1768,12,189,0.898176291793313
1974,-1,-1,5,1769,12,189,0.8982278481012658
1975,-1,-1,5,1770,12,189,0.8982793522267206
1976,-1,-1,5,1771,12,189,0.8983308042488619
1977,-1,-1,5,1772,12,189,0.8983822042467139
1978,-1,-1,5,1773,12,189,0.898433552299141
1979,-1,-1,5,1774,12,189,0.8984848484848484
1980,-1,-1,5,1775,12,189,0.8985360928823827
1981,-1,-1,5,1776,12,189,0.8985872855701312
1982,-1,-1,5,1777,12,189,0.8986384266263238
1983,-1,-1,5,1778,12,189,0.8986895161290323
1984,-1,-1,5,1779,12,189,0.8987405541561713
1985,-1,-1,5,1780,12,189,0.8987915407854985
1986,-1,-1,5,1781,12,189,0.898842476094615
1987,-1,-1,5,1782,12,189,0.8988933601609658
1988,-1,-1,5,1783,12,189,0.8989441930618401
1989,-1,-1,5,1784,12,189,0.8989949748743719
1990,-1,-1,5,1785,12,189,0.8990457056755399
1991,-1,-1,5,1786,12,189,0.8990963855421686
1992,-1,-1,5,1787,12,189,0.8991470145509283
1993,-1,-1,5,1788,12,189,0.899197592778335
1994,-1,-1,5,1789,12,189,0.8992481203007519
1995,1,-1,5,1789,12,190,0.8987975951903807
1996,-1,-1,5,1790,12,190,0.8988482724086129
1997,-1,-1,5,1791,12,190,0.8988988988988988
1998,-1,-1,5,1792,12,190,0.8989494747373686
1999,-1,-1,5,1793,12,190,0.899
2000,-1,-1,5,1794,12,190,0.8990504747626187
2001,-1,-1,5,1795,12,190,0.8991008991008991
2002,-1,-1,5,1796,12,190,0.8991512730903645
2003,-1,-1,5,1797,12,190,0.8992015968063872
2004,-1,-1,5,1798,12,190,0.8992518703241895
2005,-1,-1,5,1799,12,190,0.8993020937188435
2006,-1,-1,5,1800,12,190,0.8993522670652716
2007,-1,-1,5,1801,12,190,0.899402390438247
2008,-1,-1,5,1802,12,190,0.8994524639123942
2009,-1,-1,5,1803,12,190,0.8995024875621891
2010,-1,-1,5,1804,12,190,0.8995524614619592
2011,1,-1,5,1804,12,191,0.8991053677932406
2012,-1,-1,5,1805,12,191,0.8991554893194238
2013,-1,-1,5,1806,12,191,0.8992055610724925
2014,-1,-1,5,1807,12,191,0.8992555831265509
2015,-1,-1,5,1808,12,191,0.8993055555555556
2016,-1,-1,5,1809,12,191,0.8993554784333168
2017,-1,-1,5,1810,12,191,0.8994053518334986
2018,-1,-1,5,1811,12,191,0.8994551758296186
2019,-1,-1,5,1812,12,191,0.8995049504950495
2020,-1,-1,5,1813,12,191,0.8995546759030183
2021,-1,-1,5,1814,12,191,0.8996043521266073
2022,-1,-1,5,1815,12,191,0.8996539792387543
2023,-1,-1,5,1816,12,191,0.8997035573122529
2024,-1,-1,5,1817,12,191,0.899753086419753
2025,-1,-1,5,1818,12,191,0.8998025666337611
2026,-1,-1,5,1819,12,191,0.8998519980266404
2027,-1,-1,5,1820,12,191,0.8999013806706114
2028,-1,-1,5,1821,12,191,0.8999507146377526
2029,-1,-1,5,1822,12,191,0.9
2030,-1,-1,5,1823,12,191,0.9000492368291482
2031,-1,-1,5,1824,12,191,0.9000984251968503
2032,-1,-1,5,1825,12,191,0.9001475651746188
2033,1,-1,5,1825,12,192,0.8997050147492626
2034,-1,-1,5,1826,12,192,0.8997542997542998
2035,-1,-1,5,1827,12,192,0.899803536345776
2036,-1,-1,5,1828,12,192,0.8998527245949927
2037,-1,-1,5,1829,12,192,0.8999018645731109
2038,1,-1,5,1829,12,193,0.8994605198626778
2039,-1,-1,5,1830,12,193,0.8995098039215687
2040,-1,-1,5,1831,12,193,0.8995590396864283
2041,-1,-1,5,1832,12,193,0.8996082272282077
2042,-1,-1,5,1833,12,193,0.899657366617719
2043,-1,-1,5,1834,12,193,0.899706457925636
2044,-1,-1,5,1835,12,193,0.8997555012224939
2045,-1,-1,5,1836,12,193,0.8998044965786901
2046,-1,-1,5,1837,12,193,0.8998534440644846
2047,-1,-1,5,1838,12,193,0.89990234375
2048,-1,-1,5,1839,12,193,0.8999511957052221
2049,-1,-1,5,1840,12,193,0.9
2050,-1,-1,5,1841,12,193,0.9000487567040468
2051,-1,-1,5,1842,12,193,0.9000974658869396
2052,-1,-1,5,1843,12,193,0.9001461276181199
2053,-1,-1,5,1844,12,193,0.9001947419668939
2054,-1,-1,5,1845,12,193,0.9002433090024331
2055,-1,-1,5,1846,12,193,0.9002918287937743
2056,-1,-1,5,1847,12,193,0.9003403014098201
2057,-1,-1,5,1848,12,193,0.9003887269193391
2058,-1,-1,5,1849,12,193,0.9004371053909664
2059,-1,-1,5,1850,12,193,0.9004854368932039
2060,-1,-1,5,1851,12,193,0.9005337214944202
2061,-1,-1,5,1852,12,193,0.9005819592628516
2062,-1,-1,5,1853,12,193,0.900630150266602
2063,-1,-1,5,1854,12,193,0.9006782945736435
2064,-1,-1,5,1855,12,193,0.9007263922518159
2065,1,-1,5,1855,12,194,0.9002904162633107
2066,1,-1,5,1855,12,195,0.8998548621190131
2067,-1,1,5,1855,13,195,0.8994197292069632
2068,-1,-1,5,1856,13,195,0.8994683421942967
2069,-1,-1,5,1857,13,195,0.8995169082125604
2070,1,-1,5,1857,13,196,0.8990825688073395
2071,-1,-1,5,1858,13,196,0.8991312741312741
2072,-1,-1,5,1859,13,196,0.8991799324650265
2073,1,-1,5,1859,13,197,0.8987463837994214
2074,1,-1,5,1859,13,198,0.8983132530120482
2075,-1,-1,5,1860,13,198,0.8983622350674374
2076,-1,-1,5,1861,13,198,0.8984111699566683
2077,-1,-1,5,1862,13,198,0.8984600577478344
2078,1,-1,5,1862,13,199,0.8980278980278981
2079,-1,-1,5,1863,13,199,0.8980769230769231
2080,-1,-1,5,1864,13,199,0.8981259010091303
2081,-1,-1,5,1865,13,199,0.8981748318924111
2082,1,-1,5,1865,13,200,0.8977436389822372
2083,1,-1,5,1865,13,201,0.8973128598848369
2084,-1,-1,5,1866,13,201,0.8973621103117506
2085,-1,-1,5,1867,13,201,0.8974113135186961
2086,-1,-1,5,1868,13,201,0.8974604695735505
2087,-1,-1,5,1869,13,201,0.8975095785440613
2088,-1,-1,5,1870,13,201,0.8975586404978458
2089,-1,-1,5,1871,13,201,0.8976076555023923
2090,1,-1,5,1871,13,202,0.8971783835485414
2091,-1,-1,5,1872,13,202,0.8972275334608031
2092,-1,-1,5,1873,13,202,0.8972766364070712
2093,-1,-1,5,1874,13,202,0.8973256924546322
2094,-1,-1,5,1875,13,202,0.8973747016706444
2095,-1,-1,5,1876,13,202,0.8974236641221374
2096,1,-1,5,1876,13,203,0.8969957081545065
2097,1,-1,5,1876,13,204,0.8965681601525262
2098,-1,-1,5,1877,13,204,0.8966174368747022
2099,-1,-1,5,1878,13,204,0.8966666666666666
2100,1,-1,5,1878,13,205,0.8962398857686816
2101,-1,-1,5,1879,13,205,0.8962892483349191
2102,-1,-1,5,1880,13,205,0.896338563956253
2103,-1,-1,5,1881,13,205,0.8963878326996197
2104,-1,-1,5,1882,13,205,0.896437054631829
2105,-1,-1,5,1883,13,205,0.8964862298195632
2106,-1,-1,5,1884,13,205,0.8965353583293783
2107,-1,-1,5,1885,13,205,0.896584440227704
2108,-1,-1,5,1886,13,205,0.896633475580844
2109,-1,-1,5,1887,13,205,0.8966824644549763
2110,-1,-1,5,1888,13,205,0.8967314069161535
2111,-1,-1,5,1889,13,205,0.896780303030303
2112,-1,-1,5,1890,13,205,0.8968291528632276
2113,-1,-1,5,1891,13,205,0.8968779564806055
2114,1,-1,5,1891,13,206,0.8964539007092198
2115,-1,-1,5,1892,13,206,0.8965028355387523
2116,-1,-1,5,1893,13,206,0.896551724137931
2117,-1,-1,5,1894,13,206,0.896600566572238
2118,-1,-1,5,1895,13,206,0.8966493629070316
2119,-1,-1,5,1896,13,206,0.8966981132075472
2120,-1,-1,5,1897,13,206,0.8967468175388967
2121,-1,-1,5,1898,13,206,0.8967954759660698
2122,-1,-1,5,1899,13,206,0.8968440885539332
2123,1,-1,5,1899,13,207,0.896421845574388
2124,-1,-1,5,1900,13,207,0.8964705882352941
2125,-1,-1,5,1901,13,207,0.896519285042333
2126,-1,-1,5,1902,13,207,0.8965679360601787
2127,1,-1,5,1902,13,208,0.8961466165413534
2128,-1,-1,5,1903,13,208,0.896195396899953
2129,-1,-1,5,1904,13,208,0.896244131455399
2130,-1,-1,5,1905,13,208,0.8962928202721727
2131,-1,-1,5,1906,13,208,0.8963414634146342
2132,1,-1,5,1906,13,209,0.8959212376933896
2133,-1,-1,5,1907,13,209,0.8959700093720713
2134,-1,-1,5,1908,13,209,0.8960187353629977
2135,-1,-1,5,1909,13,209,0.8960674157303371
2136,-1,-1,5,1910,13,209,0.8961160505381376
2137,1,-1,5,1910,13,210,0.8956969130028064
2138,-1,-1,5,1911,13,210,0.8957456755493222
2139,-1,-1,5,1912,13,210,0.8957943925233645
2140,-1,-1,5,1913,13,210,0.8958430639887903
2141,-1,-1,5,1914,13,210,0.8958916900093371
2142,-1,-1,5,1915,13,210,0.8959402706486235
2143,-1,-1,5,1916,13,210,0.8959888059701493
2144,-1,-1,5,1917,13,210,0.896037296037296
2145,-1,-1,5,1918,13,210,0.8960857409133272
2146,1,-1,5,1918,13,211,0.895668374476013
2147,-1,-1,5,1919,13,211,0.8957169459962756
2148,-1,-1,5,1920,13,211,0.8957654723127035
2149,-1,-1,5,1921,13,211,0.8958139534883721
2150,-1,-1,5,1922,13,211,0.895862389586239
2151,-1,-1,5,1923,13,211,0.895910780669145
2152,-1,-1,5,1924,13,211,0.8959591267998143
2153,-1,-1,5,1925,13,211,0.8960074280408542
2154,-1,-1,5,1926,13,211,0.8960556844547564
2155,-1,-1,5,1927,13,211,0.8961038961038961
2156,-1,-1,5,1928,13,211,0.8961520630505332
2157,-1,-1,5,1929,13,211,0.8962001853568119
2158,-1,-1,5,1930,13,211,0.8962482630847615
2159,-1,-1,5,1931,13,211,0.8962962962962963
2160,-1,-1,5,1932,13,211,0.8963442850532161
2161,-1,-1,5,1933,13,211,0.8963922294172063
2162,-1,-1,5,1934,13,211,0.8964401294498382
2163,-1,-1,5,1935,13,211,0.8964879852125693
2164,-1,-1,5,1936,13,211,0.8965357967667437
2165,1,-1,5,1936,13,212,0.8961218836565097
2166,-1,-1,5,1937,13,212,0.8961698200276881
2167,-1,-1,5,1938,13,212,0.8962177121771218
2168,-1,-1,5,1939,13,212,0.8962655601659751
2169,-1,-1,5,1940,13,212,0.8963133640552995
2170,1,-1,5,1940,13,213,0.8959005066789498
2171,1,-1,5,1940,13,214,0.89548802946593
2172,-1,-1,5,1941,13,214,0.8955361251725725
2173,-1,-1,5,1942,13,214,0.8955841766329347
2174,-1,-1,5,1943,13,214,0.895632183908046
2175,-1,-1,5,1944,13,214,0.8956801470588235
2176,-1,-1,5,1945,13,214,0.8957280661460726
2177,-1,-1,5,1946,13,214,0.8957759412304866
2178,-1,-1,5,1947,13,214,0.895823772372648
2179,-1,-1,5,1948,13,214,0.8958715596330276
2180,-1,1,5,1948,14,214,0.8954607977991746
2181,-1,-1,5,1949,14,214,0.8955087076076994
2182,-1,-1,5,1950,14,214,0.8955565735226753
2183,-1,-1,5,1951,14,214,0.8956043956043956
2184,-1,-1,5,1952,14,214,0.8956521739130435
2185,-1,-1,5,1953,14,214,0.8956999085086916
2186,-1,-1,5,1954,14,214,0.8957475994513031
2187,-1,-1,5,1955,14,214,0.8957952468007313
2188,-1,-1,5,1956,14,214,0.89584285061672
2189,1,-1,5,1956,14,215,0.8954337899543379
2190,-1,-1,5,1957,14,215,0.895481515289822
2191,-1,-1,5,1958,14,215,0.895529197080292
2192,-1,-1,5,1959,14,215,0.895576835385317
2193,1,-1,5,1959,14,216,0.8951686417502279
2194,-1,-1,5,1960,14,216,0.8952164009111617
2195,-1,-1,5,1961,14,216,0.895264116575592
2196,-1,-1,5,1962,14,216,0.8953117888029131
2197,-1,-1,5,1963,14,216,0.8953594176524113
2198,-1,-1,5,1964,14,216,0.8954070031832652
2199,1,-1,5,1964,14,217,0.895
2200,-1,-1,5,1965,14,217,0.8950477055883689
2201,-1,-1,5,1966,14,217,0.8950953678474114
2202,-1,-1,5,1967,14,217,0.8951429868361326
2203,-1,-1,5,1968,14,217,0.8951905626134301
2204,-1,-1,5,1969,14,217,0.8952380952380953
2205,-1,-1,5,1970,14,217,0.8952855847688124
2206,-1,-1,5,1971,14,217,0.8953330312641595
2207,-1,-1,5,1972,14,217,0.8953804347826086
2208,-1,-1,5,1973,14,217,0.895427795382526
2209,-1,-1,5,1974,14,217,0.895475113122172
2210,1,-1,5,1974,14,218,0.8950701040253279
2211,-1,-1,5,1975,14,218,0.895117540687161
2212,1,-1,5,1975,14,219,0.894713059195662
2213,-1,-1,5,1976,14,219,0.8947606142728094
2214,-1,-1,5,1977,14,219,0.8948081264108352
2215,-1,-1,5,1978,14,219,0.89485559566787
2216,1,-1,5,1978,14,220,0.8944519621109608
2217,-1,-1,5,1979,14,220,0.8944995491433724
2218,-1,-1,5,1980,14,220,0.8945470932852636
2219,-1,-1,5,1981,14,220,0.8945945945945946
2220,-1,-1,5,1982,14,220,0.8946420531292211
2221,1,-1,5,1982,14,221,0.8942394239423942
2222,-1,-1,5,1983,14,221,0.8942869995501574
2223,-1,-1,5,1984,14,221,0.8943345323741008
2224,-1,-1,5,1985,14,221,0.8943820224719101
2225,-1,-1,5,1986,14,221,0.894429469901168
2226,1,-1,5,1986,14,222,0.8940278401436911
2227,-1,-1,5,1987,14,222,0.8940754039497307
2228,-1,-1,5,1988,14,222,0.8941229250785105
2229,-1,-1,5,1989,14,222,0.8941704035874439
2230,-1,-1,5,1990,14,222,0.8942178395338414
2231,-1,-1,5,1991,14,222,0.8942652329749103
2232,-1,-1,5,1992,14,222,0.8943125839677564
2233,-1,-1,5,1993,14,222,0.8943598925693823
2234,-1,-1,5,1994,14,222,0.8944071588366891
2235,1,-1,5,1994,14,223,0.8940071556350626
2236,-1,-1,5,1995,14,223,0.894054537326777
2237,-1,-1,5,1996,14,223,0.8941018766756033
2238,-1,-1,5,1997,14,223,0.8941491737382761
2239,-1,-1,5,1998,14,223,0.8941964285714286
2240,-1,-1,5,1999,14,223,0.8942436412315931
2241,-1,-1,5,2000,14,223,0.8942908117752008
2242,1,-1,5,2000,14,224,0.8938921087828801
2243,-1,-1,5,2001,14,224,0.8939393939393939
2244,-1,-1,5,2002,14,224,0.8939866369710467
2245,-1,-1,5,2003,14,224,0.8940338379341051
2246,-1,-1,5,2004,14,224,0.8940809968847352
2247,-1,-1,5,2005,14,224,0.8941281138790036
2248,-1,-1,5,2006,14,224,0.8941751889728768
2249,-1,-1,5,2007,14,224,0.8942222222222223
2250,-1,-1,5,2008,14,224,0.8942692136828077
2251,-1,-1,5,2009,14,224,0.894316163410302
2252,-1,-1,5,2010,14,224,0.8943630714602752
2253,-1,-1,5,2011,14,224,0.8944099378881988
2254,-1,-1,5,2012,14,224,0.8944567627494456
2255,-1,-1,5,2013,14,224,0.8945035460992907
2256,-1,-1,5,2014,14,224,0.8945502879929109
2257,-1,-1,5,2015,14,224,0.8945969884853853
2258,-1,-1,5,2016,14,224,0.8946436476316955
2259,-1,-1,5,2017,14,224,0.8946902654867257
2260,-1,-1,5,2018,14,224,0.8947368421052632
2261,-1,-1,5,2019,14,224,0.8947833775419982
2262,1,-1,5,2019,14,225,0.894387980556783
2263,-1,-1,5,2020,14,225,0.894434628975265
2264,-1,-1,5,2021,14,225,0.8944812362030905
2265,-1,-1,5,2022,14,225,0.8945278022947926
2266,-1,-1,5,2023,14,225,0.8945743273048081
2267,-1,-1,5,2024,14,225,0.894620811287478
2268,-1,-1,5,2025,14,225,0.8946672542970472
2269,-1,-1,5,2026,14,225,0.8947136563876652
2270,1,-1,5,2026,14,226,0.8943196829590488
2271,-1,-1,5,2027,14,226,0.8943661971830986
2272,-1,-1,5,2028,14,226,0.8944126704795424
2273,-1,-1,5,2029,14,226,0.8944591029023746
2274,-1,-1,5,2030,14,226,0.8945054945054945
2275,-1,-1,5,2031,14,226,0.8945518453427065
2276,-1,-1,5,2032,14,226,0.8945981554677207
2277,-1,-1,5,2033,14,226,0.8946444249341527
2278,-1,-1,5,2034,14,226,0.8946906537955244
2279,-1,-1,5,2035,14,226,0.8947368421052632
2280,-1,-1,5,2036,14,226,0.8947829899167032
2281,-1,-1,5,2037,14,226,0.894829097283085
2282,-1,-1,5,2038,14,226,0.8948751642575559
2283,-1,-1,5,2039,14,226,0.8949211908931699
2284,-1,-1,5,2040,14,226,0.8949671772428884
2285,-1,-1,5,2041,14,226,0.89501312335958
2286,-1,-1,5,2042,14,226,0.895059029296021
2287,1,-1,5,2042,14,227,0.8946678321678322
2288,-1,-1,5,2043,14,227,0.8947138488422892
2289,-1,-1,5,2044,14,227,0.894759825327511
2290,-1,-1,5,2045,14,227,0.8948057616761239
2291,-1,-1,5,2046,14,227,0.8948516579406631
2292,-1,-1,5,2047,14,227,0.8948975141735718
2293,-1,-1,5,2048,14,227,0.8949433304272014
2294,-1,-1,5,2049,14,227,0.8949891067538126
2295,-1,-1,5,2050,14,227,0.8950348432055749
2296,-1,-1,5,2051,14,227,0.8950805398345668
2297,-1,-1,5,2052,14,227,0.8951261966927764
2298,-1,-1,5,2053,14,227,0.8951718138321009
2299,-1,-1,5,2054,14,227,0.8952173913043479
2300,-1,-1,5,2055,14,227,0.8952629291612343
2301,1,-1,5,2055,14,228,0.894874022589053
2302,-1,-1,5,2056,14,228,0.8949196699956579
2303,1,-1,5,2056,14,229,0.89453125
2304,-1,-1,5,2057,14,229,0.8945770065075922
2305,-1,-1,5,2058,14,229,0.8946227233304423
2306,-1,-1,5,2059,14,229,0.8946684005201561
2307,-1,-1,5,2060,14,229,0.8947140381282496
2308,-1,-1,5,2061,14,229,0.8947596362061498
2309,-1,-1,5,2062,14,229,0.8948051948051948
2310,-1,-1,5,2063,14,229,0.8948507139766335
2311,-1,-1,5,2064,14,229,0.8948961937716263
2312,1,-1,5,2064,14,230,0.8945092952875054
2313,-1,-1,5,2065,14,230,0.8945548833189283
2314,-1,-1,5,2066,14,230,0.8946004319654428
2315,1,-1,5,2066,14,231,0.8942141623488774
2316,-1,-1,5,2067,14,231,0.8942598187311178
2317,-1,-1,5,2068,14,231,0.8943054357204486
2318,1,-1,5,2068,14,232,0.8939197930142303
2319,-1,-1,5,2069,14,232,0.8939655172413793
2320,-1,-1,5,2070,14,232,0.894011202068074
2321,1,-1,5,2070,14,233,0.8936261843238588
2322,-1,-1,5,2071,14,233,0.8936719758932415
2323,-1,-1,5,2072,14,233,0.8937177280550774
2324,-1,-1,5,2073,14,233,0.8937634408602151
2325,-1,-1,5,2074,14,233,0.8938091143594153
2326,-1,-1,5,2075,14,233,0.8938547486033519
2327,-1,-1,5,2076,14,233,0.8939003436426117
2328,-1,-1,5,2077,14,233,0.8939458995276943
2329,-1,-1,5,2078,14,233,0.8939914163090129
2330,-1,-1,5,2079,14,233,0.894036894036894
2331,1,-1,5,2079,14,234,0.8936535162950258
2332,1,-1,5,2079,14,235,0.8932704672096013
2333,-1,-1,5,2080,14,235,0.8933161953727506
2334,-1,-1,5,2081,14,235,0.8933618843683083
2335,-1,-1,5,2082,14,235,0.8934075342465754
2336,-1,-1,5,2083,14,235,0.8934531450577664
2337,-1,-1,5,2084,14,235,0.8934987168520102
2338,-1,-1,5,2085,14,235,0.8935442496793502
2339,1,-1,5,2085,14,236,0.8931623931623932
2340,-1,-1,5,2086,14,236,0.8932080307560871
2341,-1,-1,5,2087,14,236,0.8932536293766012
2342,-1,-1,5,2088,14,236,0.893299189073837
2343,-1,-1,5,2089,14,236,0.893344709897611
2344,-1,-1,5,2090,14,236,0.8933901918976546
2345,-1,-1,5,2091,14,236,0.8934356351236147
2346,-1,-1,5,2092,14,236,0.8934810396250532
2347,-1,-1,5,2093,14,236,0.893526405451448
2348,-1,-1,5,2094,14,236,0.8935717326521925
2349,-1,-1,5,2095,14,236,0.8936170212765957
2350,-1,-1,5,2096,14,236,0.8936622713738834
2351,-1,-1,5,2097,14,236,0.8937074829931972
2352,1,-1,5,2097,14,237,0.8933276668083298
2353,-1,-1,5,2098,14,237,0.8933729821580288
2354,-1,-1,5,2099,14,237,0.8934182590233546
2355,-1,-1,5,2100,14,237,0.8934634974533107
2356,-1,-1,5,2101,14,237,0.8935086974968179
2357,-1,-1,5,2102,14,237,0.8935538592027141
2358,-1,-1,5,2103,14,237,0.8935989826197541
2359,1,-1,5,2103,14,238,0.8932203389830509
2360,-1,-1,5,2104,14,238,0.8932655654383735
2361,1,-1,5,2104,14,239,0.892887383573243
2362,-1,-1,5,2105,14,239,0.8929327126534067
2363,1,-1,5,2105,14,240,0.8925549915397631
2364,-1,-1,5,2106,14,240,0.892600422832981
2365,-1,-1,5,2107,14,240,0.8926458157227388
2366,-1,-1,5,2108,14,240,0.8926911702577102
2367,-1,-1,5,2109,14,240,0.8927364864864865
2368,-1,-1,5,2110,14,240,0.8927817644575771
2369,-1,-1,5,2111,14,240,0.8928270042194093
2370,-1,-1,5,2112,14,240,0.892872205820329
2371,-1,-1,5,2113,14,240,0.8929173693086003
2372,-1,-1,5,2114,14,240,0.8929624947324062
2373,-1,-1,5,2115,14,240,0.8930075821398483
2374,-1,-1,5,2116,14,240,0.8930526315789473
2375,-1,-1,5,2117,14,240,0.8930976430976431
2376,-1,-1,5,2118,14,240,0.8931426167437947
2377,-1,-1,5,2119,14,240,0.8931875525651808
2378,-1,-1,5,2120,14,240,0.8932324506094997
2379,-1,-1,5,2121,14,240,0.8932773109243698
2380,-1,-1,5,2122,14,240,0.8933221335573288
2381,-1,-1,5,2123,14,240,0.8933669185558354
2382,-1,-1,5,2124,14,240,0.8934116659672682
2383,1,-1,5,2124,14,241,0.8930369127516778
2384,-1,-1,5,2125,14,241,0.8930817610062893
2385,-1,-1,5,2126,14,241,0.8931265716680638
2386,-1,-1,5,2127,14,241,0.893171344784248
2387,-1,-1,5,2128,14,241,0.8932160804020101
2388,-1,-1,5,2129,14,241,0.8932607785684387
2389,-1,-1,5,2130,14,241,0.893305439330544
2390,-1,-1,5,2131,14,241,0.8933500627352572
2391,1,-1,5,2131,14,242,0.8929765886287625
2392,-1,-1,5,2132,14,242,0.893021312160468
2393,-1,-1,5,2133,14,242,0.8930659983291562
2394,-1,-1,5,2134,14,242,0.8931106471816284
2395,-1,-1,5,2135,14,242,0.8931552587646077
2396,-1,-1,5,2136,14,242,0.8931998331247393
2397,-1,-1,5,2137,14,242,0.8932443703085905
2398,-1,-1,5,2138,14,242,0.8932888703626511
2399,-1,-1,5,2139,14,242,0.8933333333333333
2400,-1,-1,5,2140,14,242,0.893377759266972
2401,-1,-1,5,2141,14,242,0.8934221482098251
2402,-1,-1,5,2142,14,242,0.8934665002080733
2403,-1,-1,5,2143,14,242,0.8935108153078203
2404,-1,-1,5,2144,14,242,0.8935550935550935
2405,-1,-1,5,2145,14,242,0.8935993349958438
2406,-1,-1,5,2146,14,242,0.8936435396759451
2407,-1,-1,5,2147,14,242,0.893687707641196
2408,1,-1,5,2147,14,243,0.8933167289331673
2409,-1,-1,5,2148,14,243,0.8933609958506225
2410,-1,-1,5,2149,14,243,0.8934052260472832
2411,-1,-1,5,2150,14,243,0.8934494195688225
2412,-1,-1,5,2151,14,243,0.8934935764608372
2413,-1,-1,5,2152,14,243,0.8935376967688484
2414,-1,-1,5,2153,14,243,0.8935817805383023
2415,-1,-1,5,2154,14,243,0.8936258278145696
2416,-1,-1,5,2155,14,243,0.8936698386429458
2417,-1,-1,5,2156,14,243,0.8937138130686518
2418,-1,-1,5,2157,14,243,0.8937577511368334
2419,-1,-1,5,2158,14,243,0.893801652892562
2420,-1,-1,5,2159,14,243,0.8938455183808344
