instance,lable,predicted,tp,tn,fp,fn,correctness
0,-1,1,0,0,1,0,0.0
1,1,-1,0,0,1,1,0.0
2,1,-1,0,0,1,2,0.0
3,-1,-1,0,1,1,2,0.25
4,-1,-1,0,2,1,2,0.4
5,-1,-1,0,3,1,2,0.5
6,-1,-1,0,4,1,2,0.5714285714285714
7,-1,-1,0,5,1,2,0.625
8,-1,-1,0,6,1,2,0.6666666666666666
9,-1,-1,0,7,1,2,0.7
10,-1,-1,0,8,1,2,0.7272727272727273
11,-1,-1,0,9,1,2,0.75
12,-1,-1,0,10,1,2,0.7692307692307693
13,-1,-1,0,11,1,2,0.7857142857142857
14,-1,-1,0,12,1,2,0.8
15,1,1,1,12,1,2,0.8125
16,-1,-1,1,13,1,2,0.8235294117647058
17,-1,-1,1,14,1,2,0.8333333333333334
18,1,1,2,14,1,2,0.8421052631578947
19,-1,-1,2,15,1,2,0.85
20,-1,-1,2,16,1,2,0.8571428571428571
21,-1,-1,2,17,1,2,0.8636363636363636
22,-1,-1,2,18,1,2,0.8695652173913043
23,-1,-1,2,19,1,2,0.875
24,-1,-1,2,20,1,2,0.88
25,-1,-1,2,21,1,2,0.8846153846153846
26,-1,-1,2,22,1,2,0.8888888888888888
27,-1,-1,2,23,1,2,0.8928571428571429
28,-1,-1,2,24,1,2,0.896551724137931
29,-1,-1,2,25,1,2,0.9
30,-1,-1,2,26,1,2,0.9032258064516129
31,-1,-1,2,27,1,2,0.90625
32,-1,-1,2,28,1,2,0.9090909090909091
33,-1,-1,2,29,1,2,0.9117647058823529
34,-1,-1,2,30,1,2,0.9142857142857143
35,-1,-1,2,31,1,2,0.9166666666666666
36,-1,-1,2,32,1,2,0.918918918918919
37,-1,-1,2,33,1,2,0.9210526315789473
38,-1,-1,2,34,1,2,0.9230769230769231
39,-1,-1,2,35,1,2,0.925
40,-1,-1,2,36,1,2,0.926829268292683
41,-1,-1,2,37,1,2,0.9285714285714286
42,-1,-1,2,38,1,2,0.9302325581395349
43,-1,-1,2,39,1,2,0.9318181818181818
44,-1,-1,2,40,1,2,0.9333333333333333
45,-1,-1,2,41,1,2,0.9347826086956522
46,-1,-1,2,42,1,2,0.9361702127659575
47,-1,-1,2,43,1,2,0.9375
48,-1,-1,2,44,1,2,0.9387755102040817
49,-1,-1,2,45,1,2,0.94
50,-1,-1,2,46,1,2,0.9411764705882353
51,1,-1,2,46,1,3,0.9230769230769231
52,-1,-1,2,47,1,3,0.9245283018867925
53,-1,-1,2,48,1,3,0.9259259259259259
54,1,-1,2,48,1,4,0.9090909090909091
55,1,-1,2,48,1,5,0.8928571428571429
56,-1,-1,2,49,1,5,0.8947368421052632
57,-1,1,2,49,2,5,0.8793103448275862
58,-1,-1,2,50,2,5,0.8813559322033898
59,-1,-1,2,51,2,5,0.8833333333333333
60,-1,-1,2,52,2,5,0.8852459016393442
61,-1,-1,2,53,2,5,0.8870967741935484
62,-1,-1,2,54,2,5,0.8888888888888888
63,-1,-1,2,55,2,5,0.890625
64,-1,-1,2,56,2,5,0.8923076923076924
65,-1,-1,2,57,2,5,0.8939393939393939
66,-1,-1,2,58,2,5,0.8955223880597015
67,-1,1,2,58,3,5,0.8823529411764706
68,-1,-1,2,59,3,5,0.8840579710144928
69,-1,-1,2,60,3,5,0.8857142857142857
70,-1,-1,2,61,3,5,0.8873239436619719
71,-1,-1,2,62,3,5,0.8888888888888888
72,1,-1,2,62,3,6,0.8767123287671232
73,1,-1,2,62,3,7,0.8648648648648649
74,-1,-1,2,63,3,7,0.8666666666666667
75,-1,-1,2,64,3,7,0.868421052631579
76,-1,-1,2,65,3,7,0.8701298701298701
77,-1,-1,2,66,3,7,0.8717948717948718
78,-1,-1,2,67,3,7,0.8734177215189873
79,1,-1,2,67,3,8,0.8625
80,1,-1,2,67,3,9,0.8518518518518519
81,-1,1,2,67,4,9,0.8414634146341463
82,-1,-1,2,68,4,9,0.8433734939759037
83,-1,-1,2,69,4,9,0.8452380952380952
84,-1,-1,2,70,4,9,0.8470588235294118
85,-1,-1,2,71,4,9,0.8488372093023255
86,-1,-1,2,72,4,9,0.8505747126436781
87,-1,-1,2,73,4,9,0.8522727272727273
88,1,1,3,73,4,9,0.8539325842696629
89,-1,-1,3,74,4,9,0.8555555555555555
90,-1,-1,3,75,4,9,0.8571428571428571
91,-1,-1,3,76,4,9,0.8586956521739131
92,1,1,4,76,4,9,0.8602150537634409
93,-1,-1,4,77,4,9,0.8617021276595744
94,-1,-1,4,78,4,9,0.8631578947368421
95,-1,-1,4,79,4,9,0.8645833333333334
96,-1,-1,4,80,4,9,0.865979381443299
97,-1,-1,4,81,4,9,0.8673469387755102
98,-1,-1,4,82,4,9,0.8686868686868687
99,-1,-1,4,83,4,9,0.87
100,-1,-1,4,84,4,9,0.8712871287128713
101,-1,-1,4,85,4,9,0.8725490196078431
102,-1,-1,4,86,4,9,0.8737864077669902
103,-1,-1,4,87,4,9,0.875
104,-1,-1,4,88,4,9,0.8761904761904762
105,-1,-1,4,89,4,9,0.8773584905660378
106,-1,-1,4,90,4,9,0.8785046728971962
107,-1,-1,4,91,4,9,0.8796296296296297
108,1,-1,4,91,4,10,0.8715596330275229
109,-1,-1,4,92,4,10,0.8727272727272727
110,-1,-1,4,93,4,10,0.8738738738738738
111,-1,-1,4,94,4,10,0.875
112,-1,-1,4,95,4,10,0.8761061946902655
113,-1,-1,4,96,4,10,0.8771929824561403
114,-1,-1,4,97,4,10,0.8782608695652174
115,-1,-1,4,98,4,10,0.8793103448275862
116,-1,-1,4,99,4,10,0.8803418803418803
117,-1,-1,4,100,4,10,0.8813559322033898
118,-1,-1,4,101,4,10,0.8823529411764706
119,-1,-1,4,102,4,10,0.8833333333333333
120,1,-1,4,102,4,11,0.8760330578512396
121,-1,-1,4,103,4,11,0.8770491803278688
122,-1,-1,4,104,4,11,0.8780487804878049
123,-1,-1,4,105,4,11,0.8790322580645161
124,1,-1,4,105,4,12,0.872
125,-1,-1,4,106,4,12,0.873015873015873
126,1,-1,4,106,4,13,0.8661417322834646
127,-1,-1,4,107,4,13,0.8671875
128,-1,-1,4,108,4,13,0.8682170542635659
129,-1,-1,4,109,4,13,0.8692307692307693
130,-1,-1,4,110,4,13,0.8702290076335878
131,-1,-1,4,111,4,13,0.8712121212121212
132,1,-1,4,111,4,14,0.8646616541353384
133,-1,-1,4,112,4,14,0.8656716417910447
134,-1,-1,4,113,4,14,0.8666666666666667
135,-1,-1,4,114,4,14,0.8676470588235294
136,-1,1,4,114,5,14,0.8613138686131386
137,-1,-1,4,115,5,14,0.8623188405797102
138,-1,-1,4,116,5,14,0.8633093525179856
139,-1,-1,4,117,5,14,0.8642857142857143
140,-1,-1,4,118,5,14,0.8652482269503546
141,-1,-1,4,119,5,14,0.8661971830985915
142,-1,-1,4,120,5,14,0.8671328671328671
143,-1,-1,4,121,5,14,0.8680555555555556
144,1,-1,4,121,5,15,0.8620689655172413
145,-1,-1,4,122,5,15,0.863013698630137
146,-1,-1,4,123,5,15,0.8639455782312925
147,-1,-1,4,124,5,15,0.8648648648648649
148,-1,-1,4,125,5,15,0.8657718120805369
149,-1,-1,4,126,5,15,0.8666666666666667
150,1,-1,4,126,5,16,0.8609271523178808
151,-1,-1,4,127,5,16,0.8618421052631579
152,-1,1,4,127,6,16,0.8562091503267973
153,-1,-1,4,128,6,16,0.8571428571428571
154,-1,-1,4,129,6,16,0.8580645161290322
155,-1,-1,4,130,6,16,0.8589743589743589
156,-1,-1,4,131,6,16,0.8598726114649682
157,-1,-1,4,132,6,16,0.8607594936708861
158,-1,-1,4,133,6,16,0.8616352201257862
159,-1,-1,4,134,6,16,0.8625
160,-1,-1,4,135,6,16,0.8633540372670807
161,-1,-1,4,136,6,16,0.8641975308641975
162,-1,-1,4,137,6,16,0.8650306748466258
163,-1,-1,4,138,6,16,0.8658536585365854
164,1,-1,4,138,6,17,0.8606060606060606
165,-1,-1,4,139,6,17,0.8614457831325302
166,1,-1,4,139,6,18,0.8562874251497006
167,-1,-1,4,140,6,18,0.8571428571428571
168,-1,-1,4,141,6,18,0.8579881656804734
169,-1,1,4,141,7,18,0.8529411764705882
170,-1,-1,4,142,7,18,0.8538011695906432
171,-1,-1,4,143,7,18,0.8546511627906976
172,-1,-1,4,144,7,18,0.8554913294797688
173,1,1,5,144,7,18,0.8563218390804598
174,-1,-1,5,145,7,18,0.8571428571428571
175,-1,-1,5,146,7,18,0.8579545454545454
176,-1,1,5,146,8,18,0.8531073446327684
177,-1,-1,5,147,8,18,0.8539325842696629
178,-1,-1,5,148,8,18,0.8547486033519553
179,-1,-1,5,149,8,18,0.8555555555555555
180,-1,-1,5,150,8,18,0.856353591160221
181,-1,-1,5,151,8,18,0.8571428571428571
182,-1,-1,5,152,8,18,0.8579234972677595
183,-1,-1,5,153,8,18,0.8586956521739131
184,-1,-1,5,154,8,18,0.8594594594594595
185,1,-1,5,154,8,19,0.8548387096774194
186,-1,-1,5,155,8,19,0.8556149732620321
187,-1,-1,5,156,8,19,0.8563829787234043
188,-1,-1,5,157,8,19,0.8571428571428571
189,-1,1,5,157,9,19,0.8526315789473684
190,-1,-1,5,158,9,19,0.8534031413612565
191,1,-1,5,158,9,20,0.8489583333333334
192,-1,-1,5,159,9,20,0.8497409326424871
193,-1,-1,5,160,9,20,0.8505154639175257
194,-1,-1,5,161,9,20,0.8512820512820513
195,-1,-1,5,162,9,20,0.8520408163265306
196,1,-1,5,162,9,21,0.8477157360406091
197,1,-1,5,162,9,22,0.8434343434343434
198,-1,-1,5,163,9,22,0.8442211055276382
199,1,-1,5,163,9,23,0.84
200,-1,-1,5,164,9,23,0.8407960199004975
201,-1,-1,5,165,9,23,0.8415841584158416
202,1,-1,5,165,9,24,0.8374384236453202
203,-1,1,5,165,10,24,0.8333333333333334
204,-1,-1,5,166,10,24,0.8341463414634146
205,-1,-1,5,167,10,24,0.8349514563106796
206,-1,-1,5,168,10,24,0.8357487922705314
207,-1,-1,5,169,10,24,0.8365384615384616
208,-1,-1,5,170,10,24,0.8373205741626795
209,-1,-1,5,171,10,24,0.8380952380952381
210,-1,-1,5,172,10,24,0.8388625592417062
211,-1,-1,5,173,10,24,0.839622641509434
212,-1,-1,5,174,10,24,0.8403755868544601
213,-1,-1,5,175,10,24,0.8411214953271028
214,1,-1,5,175,10,25,0.8372093023255814
215,-1,-1,5,176,10,25,0.8379629629629629
216,-1,-1,5,177,10,25,0.8387096774193549
217,-1,-1,5,178,10,25,0.8394495412844036
218,1,-1,5,178,10,26,0.8356164383561644
219,-1,-1,5,179,10,26,0.8363636363636363
220,-1,-1,5,180,10,26,0.8371040723981901
221,-1,-1,5,181,10,26,0.8378378378378378
222,-1,-1,5,182,10,26,0.8385650224215246
223,-1,-1,5,183,10,26,0.8392857142857143
224,-1,-1,5,184,10,26,0.84
225,-1,-1,5,185,10,26,0.8407079646017699
226,-1,-1,5,186,10,26,0.8414096916299559
227,-1,-1,5,187,10,26,0.8421052631578947
228,-1,-1,5,188,10,26,0.8427947598253275
229,-1,-1,5,189,10,26,0.8434782608695652
230,-1,-1,5,190,10,26,0.8441558441558441
231,-1,-1,5,191,10,26,0.8448275862068966
232,-1,-1,5,192,10,26,0.8454935622317596
233,1,-1,5,192,10,27,0.8418803418803419
234,1,-1,5,192,10,28,0.8382978723404255
235,-1,-1,5,193,10,28,0.8389830508474576
236,-1,-1,5,194,10,28,0.8396624472573839
237,-1,-1,5,195,10,28,0.8403361344537815
238,-1,-1,5,196,10,28,0.8410041841004184
239,-1,-1,5,197,10,28,0.8416666666666667
240,-1,1,5,197,11,28,0.8381742738589212
241,-1,-1,5,198,11,28,0.8388429752066116
242,1,-1,5,198,11,29,0.8353909465020576
243,-1,1,5,198,12,29,0.8319672131147541
244,-1,-1,5,199,12,29,0.8326530612244898
245,-1,-1,5,200,12,29,0.8333333333333334
246,-1,-1,5,201,12,29,0.8340080971659919
247,-1,-1,5,202,12,29,0.8346774193548387
248,-1,-1,5,203,12,29,0.8353413654618473
249,-1,-1,5,204,12,29,0.836
250,-1,-1,5,205,12,29,0.8366533864541833
251,-1,-1,5,206,12,29,0.8373015873015873
252,-1,-1,5,207,12,29,0.8379446640316206
253,-1,-1,5,208,12,29,0.8385826771653543
254,-1,-1,5,209,12,29,0.8392156862745098
255,-1,-1,5,210,12,29,0.83984375
256,-1,-1,5,211,12,29,0.8404669260700389
257,-1,1,5,211,13,29,0.8372093023255814
258,-1,-1,5,212,13,29,0.8378378378378378
259,-1,-1,5,213,13,29,0.8384615384615385
260,1,-1,5,213,13,30,0.8352490421455939
261,-1,-1,5,214,13,30,0.8358778625954199
262,-1,-1,5,215,13,30,0.8365019011406845
263,-1,-1,5,216,13,30,0.8371212121212122
264,-1,-1,5,217,13,30,0.8377358490566038
265,1,1,6,217,13,30,0.8383458646616542
266,-1,-1,6,218,13,30,0.8389513108614233
267,-1,-1,6,219,13,30,0.8395522388059702
268,-1,-1,6,220,13,30,0.8401486988847584
269,-1,-1,6,221,13,30,0.8407407407407408
270,-1,-1,6,222,13,30,0.8413284132841329
271,-1,-1,6,223,13,30,0.8419117647058824
272,-1,-1,6,224,13,30,0.8424908424908425
273,-1,-1,6,225,13,30,0.843065693430657
274,1,-1,6,225,13,31,0.84
275,-1,-1,6,226,13,31,0.8405797101449275
276,-1,-1,6,227,13,31,0.8411552346570397
277,-1,-1,6,228,13,31,0.841726618705036
278,-1,-1,6,229,13,31,0.8422939068100358
279,-1,-1,6,230,13,31,0.8428571428571429
280,-1,-1,6,231,13,31,0.8434163701067615
281,-1,-1,6,232,13,31,0.8439716312056738
282,-1,-1,6,233,13,31,0.8445229681978799
283,-1,-1,6,234,13,31,0.8450704225352113
284,-1,-1,6,235,13,31,0.8456140350877193
285,-1,-1,6,236,13,31,0.8461538461538461
286,-1,1,6,236,14,31,0.8432055749128919
287,-1,-1,6,237,14,31,0.84375
288,-1,-1,6,238,14,31,0.8442906574394463
289,-1,-1,6,239,14,31,0.8448275862068966
290,-1,-1,6,240,14,31,0.845360824742268
291,-1,-1,6,241,14,31,0.8458904109589042
292,-1,-1,6,242,14,31,0.8464163822525598
293,-1,-1,6,243,14,31,0.8469387755102041
294,-1,-1,6,244,14,31,0.847457627118644
295,-1,-1,6,245,14,31,0.847972972972973
296,-1,-1,6,246,14,31,0.8484848484848485
297,-1,-1,6,247,14,31,0.8489932885906041
298,-1,1,6,247,15,31,0.8461538461538461
299,-1,-1,6,248,15,31,0.8466666666666667
300,-1,-1,6,249,15,31,0.8471760797342193
301,-1,-1,6,250,15,31,0.847682119205298
302,-1,-1,6,251,15,31,0.8481848184818482
303,-1,-1,6,252,15,31,0.8486842105263158
304,-1,-1,6,253,15,31,0.8491803278688524
305,-1,-1,6,254,15,31,0.8496732026143791
306,1,-1,6,254,15,32,0.8469055374592834
307,-1,-1,6,255,15,32,0.8474025974025974
308,-1,1,6,255,16,32,0.8446601941747572
309,-1,-1,6,256,16,32,0.8451612903225807
310,1,-1,6,256,16,33,0.842443729903537
311,-1,-1,6,257,16,33,0.842948717948718
312,1,-1,6,257,16,34,0.8402555910543131
313,-1,-1,6,258,16,34,0.8407643312101911
314,-1,-1,6,259,16,34,0.8412698412698413
315,-1,-1,6,260,16,34,0.8417721518987342
316,-1,-1,6,261,16,34,0.8422712933753943
317,-1,-1,6,262,16,34,0.8427672955974843
318,-1,-1,6,263,16,34,0.8432601880877743
319,-1,-1,6,264,16,34,0.84375
320,-1,-1,6,265,16,34,0.8442367601246106
321,-1,-1,6,266,16,34,0.84472049689441
322,-1,-1,6,267,16,34,0.8452012383900929
323,-1,-1,6,268,16,34,0.845679012345679
324,-1,-1,6,269,16,34,0.8461538461538461
325,-1,-1,6,270,16,34,0.8466257668711656
326,-1,-1,6,271,16,34,0.8470948012232415
327,-1,-1,6,272,16,34,0.8475609756097561
328,-1,-1,6,273,16,34,0.8480243161094225
329,-1,-1,6,274,16,34,0.8484848484848485
330,-1,-1,6,275,16,34,0.8489425981873112
331,-1,-1,6,276,16,34,0.8493975903614458
332,-1,-1,6,277,16,34,0.8498498498498499
333,-1,-1,6,278,16,34,0.8502994011976048
334,-1,-1,6,279,16,34,0.8507462686567164
335,-1,-1,6,280,16,34,0.8511904761904762
336,-1,-1,6,281,16,34,0.8516320474777448
337,1,-1,6,281,16,35,0.849112426035503
338,-1,-1,6,282,16,35,0.8495575221238938
339,-1,-1,6,283,16,35,0.85
340,-1,-1,6,284,16,35,0.8504398826979472
341,-1,-1,6,285,16,35,0.8508771929824561
342,-1,-1,6,286,16,35,0.8513119533527697
343,-1,-1,6,287,16,35,0.8517441860465116
344,1,-1,6,287,16,36,0.8492753623188406
345,-1,-1,6,288,16,36,0.8497109826589595
346,-1,-1,6,289,16,36,0.8501440922190202
347,-1,-1,6,290,16,36,0.8505747126436781
348,1,-1,6,290,16,37,0.8481375358166189
349,-1,-1,6,291,16,37,0.8485714285714285
350,-1,-1,6,292,16,37,0.8490028490028491
351,-1,-1,6,293,16,37,0.8494318181818182
352,-1,-1,6,294,16,37,0.8498583569405099
353,-1,-1,6,295,16,37,0.8502824858757062
354,-1,-1,6,296,16,37,0.8507042253521127
355,-1,-1,6,297,16,37,0.851123595505618
356,-1,-1,6,298,16,37,0.8515406162464986
357,-1,-1,6,299,16,37,0.8519553072625698
358,1,-1,6,299,16,38,0.8495821727019499
359,-1,1,6,299,17,38,0.8472222222222222
360,-1,-1,6,300,17,38,0.8476454293628809
361,-1,-1,6,301,17,38,0.8480662983425414
362,1,-1,6,301,17,39,0.8457300275482094
363,-1,-1,6,302,17,39,0.8461538461538461
364,-1,-1,6,303,17,39,0.8465753424657534
365,-1,-1,6,304,17,39,0.8469945355191257
366,-1,-1,6,305,17,39,0.8474114441416893
367,-1,-1,6,306,17,39,0.8478260869565217
368,1,-1,6,306,17,40,0.8455284552845529
369,-1,-1,6,307,17,40,0.845945945945946
370,-1,-1,6,308,17,40,0.8463611859838275
371,-1,-1,6,309,17,40,0.8467741935483871
372,-1,-1,6,310,17,40,0.8471849865951743
373,-1,-1,6,311,17,40,0.8475935828877005
374,-1,1,6,311,18,40,0.8453333333333334
375,-1,-1,6,312,18,40,0.8457446808510638
376,-1,-1,6,313,18,40,0.8461538461538461
377,-1,-1,6,314,18,40,0.8465608465608465
378,-1,-1,6,315,18,40,0.8469656992084432
379,-1,-1,6,316,18,40,0.8473684210526315
380,-1,-1,6,317,18,40,0.847769028871391
381,-1,-1,6,318,18,40,0.8481675392670157
382,-1,-1,6,319,18,40,0.8485639686684073
383,-1,-1,6,320,18,40,0.8489583333333334
384,-1,-1,6,321,18,40,0.8493506493506493
385,1,-1,6,321,18,41,0.8471502590673575
386,-1,-1,6,322,18,41,0.8475452196382429
387,-1,-1,6,323,18,41,0.8479381443298969
388,-1,-1,6,324,18,41,0.8483290488431876
389,-1,-1,6,325,18,41,0.8487179487179487
390,-1,-1,6,326,18,41,0.8491048593350383
391,-1,1,6,326,19,41,0.8469387755102041
392,-1,-1,6,327,19,41,0.8473282442748091
393,-1,-1,6,328,19,41,0.8477157360406091
394,-1,-1,6,329,19,41,0.8481012658227848
395,-1,-1,6,330,19,41,0.8484848484848485
396,-1,-1,6,331,19,41,0.8488664987405542
397,-1,-1,6,332,19,41,0.8492462311557789
398,-1,-1,6,333,19,41,0.849624060150376
399,-1,-1,6,334,19,41,0.85
400,-1,-1,6,335,19,41,0.8503740648379052
401,1,-1,6,335,19,42,0.8482587064676617
402,-1,-1,6,336,19,42,0.8486352357320099
403,1,-1,6,336,19,43,0.8465346534653465
404,1,-1,6,336,19,44,0.8444444444444444
405,-1,-1,6,337,19,44,0.8448275862068966
406,-1,-1,6,338,19,44,0.8452088452088452
407,-1,-1,6,339,19,44,0.8455882352941176
408,1,-1,6,339,19,45,0.843520782396088
409,-1,-1,6,340,19,45,0.8439024390243902
410,-1,-1,6,341,19,45,0.8442822384428224
411,-1,-1,6,342,19,45,0.8446601941747572
412,-1,-1,6,343,19,45,0.8450363196125908
413,-1,-1,6,344,19,45,0.8454106280193237
414,-1,-1,6,345,19,45,0.8457831325301205
415,-1,-1,6,346,19,45,0.8461538461538461
416,-1,-1,6,347,19,45,0.8465227817745803
417,-1,-1,6,348,19,45,0.84688995215311
418,-1,-1,6,349,19,45,0.847255369928401
419,-1,-1,6,350,19,45,0.8476190476190476
420,-1,-1,6,351,19,45,0.8479809976247031
421,-1,-1,6,352,19,45,0.8483412322274881
422,-1,-1,6,353,19,45,0.8486997635933806
423,-1,-1,6,354,19,45,0.8490566037735849
424,-1,-1,6,355,19,45,0.8494117647058823
425,-1,-1,6,356,19,45,0.8497652582159625
426,-1,-1,6,357,19,45,0.8501170960187353
427,-1,-1,6,358,19,45,0.8504672897196262
428,-1,-1,6,359,19,45,0.8508158508158508
429,-1,-1,6,360,19,45,0.8511627906976744
430,-1,-1,6,361,19,45,0.851508120649652
431,-1,-1,6,362,19,45,0.8518518518518519
432,-1,-1,6,363,19,45,0.8521939953810623
433,-1,-1,6,364,19,45,0.8525345622119815
434,-1,-1,6,365,19,45,0.8528735632183908
435,-1,-1,6,366,19,45,0.8532110091743119
436,-1,-1,6,367,19,45,0.8535469107551488
437,-1,-1,6,368,19,45,0.8538812785388128
438,-1,-1,6,369,19,45,0.8542141230068337
439,-1,-1,6,370,19,45,0.8545454545454545
440,-1,-1,6,371,19,45,0.854875283446712
441,-1,-1,6,372,19,45,0.8552036199095022
442,-1,-1,6,373,19,45,0.8555304740406321
443,-1,-1,6,374,19,45,0.8558558558558559
444,-1,-1,6,375,19,45,0.8561797752808988
445,-1,-1,6,376,19,45,0.8565022421524664
446,-1,-1,6,377,19,45,0.8568232662192393
447,-1,-1,6,378,19,45,0.8571428571428571
448,-1,-1,6,379,19,45,0.8574610244988864
449,-1,-1,6,380,19,45,0.8577777777777778
450,-1,-1,6,381,19,45,0.8580931263858093
451,-1,1,6,381,20,45,0.8561946902654868
452,-1,-1,6,382,20,45,0.8565121412803532
453,-1,-1,6,383,20,45,0.8568281938325991
454,-1,-1,6,384,20,45,0.8571428571428571
455,-1,-1,6,385,20,45,0.8574561403508771
456,-1,-1,6,386,20,45,0.8577680525164114
457,-1,-1,6,387,20,45,0.8580786026200873
458,-1,-1,6,388,20,45,0.8583877995642701
459,-1,-1,6,389,20,45,0.8586956521739131
460,-1,-1,6,390,20,45,0.8590021691973969
461,-1,-1,6,391,20,45,0.8593073593073594
462,-1,-1,6,392,20,45,0.8596112311015118
463,-1,-1,6,393,20,45,0.8599137931034483
464,-1,-1,6,394,20,45,0.8602150537634409
465,-1,-1,6,395,20,45,0.8605150214592274
466,-1,-1,6,396,20,45,0.860813704496788
467,-1,-1,6,397,20,45,0.8611111111111112
468,-1,-1,6,398,20,45,0.8614072494669509
469,1,-1,6,398,20,46,0.8595744680851064
470,-1,-1,6,399,20,46,0.8598726114649682
471,-1,-1,6,400,20,46,0.8601694915254238
472,1,1,7,400,20,46,0.8604651162790697
473,-1,-1,7,401,20,46,0.8607594936708861
474,-1,-1,7,402,20,46,0.8610526315789474
475,-1,-1,7,403,20,46,0.8613445378151261
476,-1,-1,7,404,20,46,0.8616352201257862
477,-1,1,7,404,21,46,0.8598326359832636
478,-1,-1,7,405,21,46,0.860125260960334
479,-1,-1,7,406,21,46,0.8604166666666667
480,1,-1,7,406,21,47,0.8586278586278586
481,-1,-1,7,407,21,47,0.8589211618257261
482,1,-1,7,407,21,48,0.8571428571428571
483,-1,-1,7,408,21,48,0.8574380165289256
484,-1,-1,7,409,21,48,0.8577319587628865
485,-1,-1,7,410,21,48,0.8580246913580247
486,-1,-1,7,411,21,48,0.8583162217659137
487,-1,-1,7,412,21,48,0.8586065573770492
488,-1,-1,7,413,21,48,0.8588957055214724
489,-1,-1,7,414,21,48,0.8591836734693877
490,-1,1,7,414,22,48,0.8574338085539714
491,-1,-1,7,415,22,48,0.8577235772357723
492,1,-1,7,415,22,49,0.8559837728194726
493,-1,-1,7,416,22,49,0.8562753036437247
494,-1,-1,7,417,22,49,0.8565656565656565
495,1,-1,7,417,22,50,0.8548387096774194
496,-1,-1,7,418,22,50,0.8551307847082495
497,-1,-1,7,419,22,50,0.8554216867469879
498,-1,-1,7,420,22,50,0.8557114228456913
499,-1,-1,7,421,22,50,0.856
500,-1,-1,7,422,22,50,0.8562874251497006
501,-1,-1,7,423,22,50,0.8565737051792829
502,-1,-1,7,424,22,50,0.856858846918489
503,-1,-1,7,425,22,50,0.8571428571428571
504,-1,-1,7,426,22,50,0.8574257425742574
505,-1,-1,7,427,22,50,0.857707509881423
506,-1,-1,7,428,22,50,0.8579881656804734
507,-1,-1,7,429,22,50,0.8582677165354331
508,-1,-1,7,430,22,50,0.8585461689587426
509,-1,-1,7,431,22,50,0.8588235294117647
510,-1,-1,7,432,22,50,0.8590998043052838
511,-1,-1,7,433,22,50,0.859375
512,-1,-1,7,434,22,50,0.8596491228070176
513,-1,-1,7,435,22,50,0.8599221789883269
514,-1,-1,7,436,22,50,0.8601941747572815
515,-1,-1,7,437,22,50,0.8604651162790697
516,1,1,8,437,22,50,0.8607350096711799
517,-1,-1,8,438,22,50,0.861003861003861
518,-1,-1,8,439,22,50,0.861271676300578
519,1,-1,8,439,22,51,0.8596153846153847
520,-1,-1,8,440,22,51,0.8598848368522073
521,-1,-1,8,441,22,51,0.8601532567049809
522,-1,-1,8,442,22,51,0.8604206500956023
523,-1,-1,8,443,22,51,0.8606870229007634
524,-1,-1,8,444,22,51,0.8609523809523809
525,-1,-1,8,445,22,51,0.8612167300380228
526,-1,-1,8,446,22,51,0.8614800759013282
527,-1,-1,8,447,22,51,0.8617424242424242
528,-1,-1,8,448,22,51,0.8620037807183365
529,-1,-1,8,449,22,51,0.8622641509433963
530,-1,-1,8,450,22,51,0.8625235404896422
531,-1,-1,8,451,22,51,0.8627819548872181
532,-1,-1,8,452,22,51,0.8630393996247655
533,-1,-1,8,453,22,51,0.8632958801498127
534,-1,-1,8,454,22,51,0.8635514018691589
535,-1,-1,8,455,22,51,0.8638059701492538
536,-1,-1,8,456,22,51,0.8640595903165735
537,-1,-1,8,457,22,51,0.8643122676579925
538,-1,-1,8,458,22,51,0.8645640074211502
539,-1,-1,8,459,22,51,0.8648148148148148
540,-1,-1,8,460,22,51,0.8650646950092421
541,-1,-1,8,461,22,51,0.8653136531365314
542,-1,-1,8,462,22,51,0.8655616942909761
543,-1,-1,8,463,22,51,0.8658088235294118
544,-1,-1,8,464,22,51,0.8660550458715597
545,-1,-1,8,465,22,51,0.8663003663003663
546,-1,-1,8,466,22,51,0.8665447897623401
547,-1,-1,8,467,22,51,0.8667883211678832
548,-1,-1,8,468,22,51,0.8670309653916212
549,-1,-1,8,469,22,51,0.8672727272727273
550,-1,-1,8,470,22,51,0.867513611615245
551,-1,-1,8,471,22,51,0.8677536231884058
552,1,-1,8,471,22,52,0.8661844484629295
553,-1,-1,8,472,22,52,0.8664259927797834
554,-1,-1,8,473,22,52,0.8666666666666667
555,-1,-1,8,474,22,52,0.8669064748201439
556,-1,-1,8,475,22,52,0.8671454219030521
557,-1,-1,8,476,22,52,0.8673835125448028
558,-1,-1,8,477,22,52,0.8676207513416816
559,-1,-1,8,478,22,52,0.8678571428571429
560,-1,-1,8,479,22,52,0.8680926916221033
561,-1,-1,8,480,22,52,0.8683274021352313
562,-1,-1,8,481,22,52,0.8685612788632326
563,-1,-1,8,482,22,52,0.8687943262411347
564,-1,-1,8,483,22,52,0.8690265486725663
565,-1,-1,8,484,22,52,0.8692579505300353
566,-1,-1,8,485,22,52,0.8694885361552028
567,-1,-1,8,486,22,52,0.8697183098591549
568,-1,1,8,486,23,52,0.8681898066783831
569,-1,-1,8,487,23,52,0.868421052631579
570,-1,-1,8,488,23,52,0.8686514886164624
571,-1,-1,8,489,23,52,0.8688811188811189
572,-1,-1,8,490,23,52,0.8691099476439791
573,-1,-1,8,491,23,52,0.8693379790940766
574,-1,-1,8,492,23,52,0.8695652173913043
575,-1,-1,8,493,23,52,0.8697916666666666
576,1,-1,8,493,23,53,0.8682842287694974
577,-1,-1,8,494,23,53,0.8685121107266436
578,-1,-1,8,495,23,53,0.8687392055267703
579,-1,-1,8,496,23,53,0.8689655172413793
580,-1,-1,8,497,23,53,0.8691910499139415
581,-1,-1,8,498,23,53,0.8694158075601375
582,1,-1,8,498,23,54,0.8679245283018868
583,-1,-1,8,499,23,54,0.8681506849315068
584,-1,-1,8,500,23,54,0.8683760683760684
585,-1,-1,8,501,23,54,0.8686006825938567
586,-1,-1,8,502,23,54,0.868824531516184
587,-1,-1,8,503,23,54,0.8690476190476191
588,1,1,9,503,23,54,0.8692699490662139
589,-1,-1,9,504,23,54,0.8694915254237288
590,-1,-1,9,505,23,54,0.8697123519458545
591,-1,1,9,505,24,54,0.8682432432432432
592,-1,-1,9,506,24,54,0.8684654300168634
593,-1,-1,9,507,24,54,0.8686868686868687
594,-1,-1,9,508,24,54,0.8689075630252101
595,-1,-1,9,509,24,54,0.8691275167785235
596,-1,-1,9,510,24,54,0.8693467336683417
597,-1,-1,9,511,24,54,0.8695652173913043
598,-1,-1,9,512,24,54,0.8697829716193656
599,-1,-1,9,513,24,54,0.87
600,1,-1,9,513,24,55,0.8685524126455907
601,-1,-1,9,514,24,55,0.8687707641196013
602,-1,-1,9,515,24,55,0.8689883913764511
603,-1,-1,9,516,24,55,0.8692052980132451
604,-1,-1,9,517,24,55,0.8694214876033057
605,-1,-1,9,518,24,55,0.8696369636963697
606,-1,-1,9,519,24,55,0.8698517298187809
607,-1,-1,9,520,24,55,0.8700657894736842
608,-1,-1,9,521,24,55,0.8702791461412152
609,-1,-1,9,522,24,55,0.8704918032786885
610,-1,-1,9,523,24,55,0.8707037643207856
611,-1,-1,9,524,24,55,0.8709150326797386
612,1,1,10,524,24,55,0.8711256117455138
613,1,-1,10,524,24,56,0.8697068403908795
614,-1,-1,10,525,24,56,0.8699186991869918
615,1,-1,10,525,24,57,0.8685064935064936
616,-1,-1,10,526,24,57,0.8687196110210696
617,-1,-1,10,527,24,57,0.8689320388349514
618,-1,-1,10,528,24,57,0.8691437802907916
619,-1,-1,10,529,24,57,0.8693548387096774
620,-1,-1,10,530,24,57,0.8695652173913043
621,-1,-1,10,531,24,57,0.8697749196141479
622,-1,-1,10,532,24,57,0.869983948635634
623,-1,-1,10,533,24,57,0.8701923076923077
624,-1,-1,10,534,24,57,0.8704
625,-1,-1,10,535,24,57,0.8706070287539937
626,-1,-1,10,536,24,57,0.8708133971291866
627,-1,-1,10,537,24,57,0.8710191082802548
628,-1,-1,10,538,24,57,0.8712241653418124
629,-1,-1,10,539,24,57,0.8714285714285714
630,-1,-1,10,540,24,57,0.8716323296354992
631,-1,-1,10,541,24,57,0.8718354430379747
632,-1,-1,10,542,24,57,0.8720379146919431
633,1,-1,10,542,24,58,0.8706624605678234
634,-1,-1,10,543,24,58,0.8708661417322835
635,-1,-1,10,544,24,58,0.8710691823899371
636,1,-1,10,544,24,59,0.869701726844584
637,-1,-1,10,545,24,59,0.8699059561128527
638,-1,-1,10,546,24,59,0.8701095461658842
639,-1,-1,10,547,24,59,0.8703125
640,-1,-1,10,548,24,59,0.8705148205928237
641,-1,-1,10,549,24,59,0.8707165109034268
642,-1,-1,10,550,24,59,0.8709175738724728
643,-1,-1,10,551,24,59,0.8711180124223602
644,-1,-1,10,552,24,59,0.8713178294573644
645,-1,-1,10,553,24,59,0.871517027863777
646,-1,-1,10,554,24,59,0.8717156105100463
647,-1,-1,10,555,24,59,0.8719135802469136
648,-1,-1,10,556,24,59,0.8721109399075501
649,-1,-1,10,557,24,59,0.8723076923076923
650,-1,-1,10,558,24,59,0.8725038402457758
651,-1,1,10,558,25,59,0.8711656441717791
652,-1,-1,10,559,25,59,0.8713629402756509
653,-1,-1,10,560,25,59,0.8715596330275229
654,-1,-1,10,561,25,59,0.8717557251908397
655,-1,-1,10,562,25,59,0.8719512195121951
656,-1,-1,10,563,25,59,0.8721461187214612
657,-1,-1,10,564,25,59,0.8723404255319149
658,-1,-1,10,565,25,59,0.8725341426403642
659,-1,-1,10,566,25,59,0.8727272727272727
660,-1,-1,10,567,25,59,0.8729198184568835
661,-1,-1,10,568,25,59,0.8731117824773413
662,-1,-1,10,569,25,59,0.8733031674208145
663,-1,-1,10,570,25,59,0.8734939759036144
664,-1,-1,10,571,25,59,0.8736842105263158
665,1,-1,10,571,25,60,0.8723723723723724
666,-1,-1,10,572,25,60,0.8725637181409296
667,-1,-1,10,573,25,60,0.8727544910179641
668,-1,-1,10,574,25,60,0.8729446935724963
669,-1,-1,10,575,25,60,0.8731343283582089
670,-1,-1,10,576,25,60,0.8733233979135618
671,-1,-1,10,577,25,60,0.8735119047619048
672,-1,-1,10,578,25,60,0.8736998514115899
673,-1,-1,10,579,25,60,0.8738872403560831
674,-1,-1,10,580,25,60,0.8740740740740741
675,-1,-1,10,581,25,60,0.8742603550295858
676,-1,-1,10,582,25,60,0.8744460856720827
677,-1,-1,10,583,25,60,0.8746312684365781
678,-1,-1,10,584,25,60,0.8748159057437408
679,-1,-1,10,585,25,60,0.875
680,-1,-1,10,586,25,60,0.8751835535976505
681,-1,-1,10,587,25,60,0.875366568914956
682,-1,-1,10,588,25,60,0.8755490483162518
683,1,-1,10,588,25,61,0.8742690058479532
684,-1,-1,10,589,25,61,0.8744525547445255
685,-1,-1,10,590,25,61,0.8746355685131195
686,-1,-1,10,591,25,61,0.8748180494905385
687,-1,-1,10,592,25,61,0.875
688,-1,-1,10,593,25,61,0.8751814223512336
689,-1,-1,10,594,25,61,0.8753623188405797
690,-1,-1,10,595,25,61,0.8755426917510853
691,-1,-1,10,596,25,61,0.8757225433526011
692,-1,-1,10,597,25,61,0.8759018759018758
693,-1,-1,10,598,25,61,0.8760806916426513
694,1,1,11,598,25,61,0.8762589928057554
695,-1,-1,11,599,25,61,0.8764367816091954
696,1,-1,11,599,25,62,0.8751793400286944
697,-1,-1,11,600,25,62,0.8753581661891118
698,-1,-1,11,601,25,62,0.8755364806866953
699,-1,-1,11,602,25,62,0.8757142857142857
700,-1,-1,11,603,25,62,0.8758915834522111
701,-1,-1,11,604,25,62,0.8760683760683761
702,-1,-1,11,605,25,62,0.8762446657183499
703,1,-1,11,605,25,63,0.875
704,-1,-1,11,606,25,63,0.875177304964539
705,-1,-1,11,607,25,63,0.8753541076487252
706,-1,-1,11,608,25,63,0.8755304101838756
707,-1,-1,11,609,25,63,0.8757062146892656
708,1,-1,11,609,25,64,0.8744710860366713
709,1,-1,11,609,25,65,0.8732394366197183
710,-1,-1,11,610,25,65,0.8734177215189873
711,1,-1,11,610,25,66,0.8721910112359551
712,1,-1,11,610,25,67,0.8709677419354839
713,-1,-1,11,611,25,67,0.8711484593837535
714,-1,-1,11,612,25,67,0.8713286713286713
715,-1,-1,11,613,25,67,0.8715083798882681
716,-1,-1,11,614,25,67,0.8716875871687587
717,1,-1,11,614,25,68,0.8704735376044568
718,-1,-1,11,615,25,68,0.8706536856745479
719,-1,-1,11,616,25,68,0.8708333333333333
720,-1,-1,11,617,25,68,0.871012482662968
721,1,1,12,617,25,68,0.871191135734072
722,1,-1,12,617,25,69,0.8699861687413555
723,-1,-1,12,618,25,69,0.8701657458563536
724,1,-1,12,618,25,70,0.8689655172413793
725,-1,-1,12,619,25,70,0.8691460055096418
726,-1,-1,12,620,25,70,0.8693259972489684
727,-1,-1,12,621,25,70,0.8695054945054945
728,-1,-1,12,622,25,70,0.869684499314129
729,-1,-1,12,623,25,70,0.8698630136986302
730,-1,-1,12,624,25,70,0.8700410396716827
731,-1,-1,12,625,25,70,0.8702185792349727
732,-1,-1,12,626,25,70,0.8703956343792633
733,-1,-1,12,627,25,70,0.8705722070844687
734,-1,-1,12,628,25,70,0.8707482993197279
735,-1,-1,12,629,25,70,0.8709239130434783
736,-1,-1,12,630,25,70,0.8710990502035278
737,-1,-1,12,631,25,70,0.8712737127371274
738,-1,1,12,631,26,70,0.8700947225981055
739,-1,-1,12,632,26,70,0.8702702702702703
740,-1,-1,12,633,26,70,0.8704453441295547
741,-1,-1,12,634,26,70,0.8706199460916442
742,-1,-1,12,635,26,70,0.8707940780619112
743,-1,-1,12,636,26,70,0.8709677419354839
744,-1,-1,12,637,26,70,0.8711409395973154
745,-1,-1,12,638,26,70,0.871313672922252
746,-1,-1,12,639,26,70,0.8714859437751004
747,-1,-1,12,640,26,70,0.8716577540106952
748,-1,-1,12,641,26,70,0.8718291054739653
749,-1,-1,12,642,26,70,0.872
750,-1,-1,12,643,26,70,0.8721704394141145
751,-1,-1,12,644,26,70,0.8723404255319149
752,-1,-1,12,645,26,70,0.8725099601593626
753,-1,-1,12,646,26,70,0.8726790450928382
754,-1,-1,12,647,26,70,0.8728476821192053
755,-1,-1,12,648,26,70,0.873015873015873
756,-1,-1,12,649,26,70,0.8731836195508587
757,1,-1,12,649,26,71,0.8720316622691293
758,-1,-1,12,650,26,71,0.8722002635046113
759,-1,-1,12,651,26,71,0.8723684210526316
760,-1,-1,12,652,26,71,0.8725361366622865
761,-1,-1,12,653,26,71,0.8727034120734908
762,-1,-1,12,654,26,71,0.872870249017038
763,-1,-1,12,655,26,71,0.8730366492146597
764,-1,-1,12,656,26,71,0.873202614379085
765,-1,-1,12,657,26,71,0.8733681462140992
766,-1,-1,12,658,26,71,0.8735332464146024
767,-1,-1,12,659,26,71,0.8736979166666666
768,-1,-1,12,660,26,71,0.8738621586475943
769,-1,-1,12,661,26,71,0.874025974025974
770,-1,-1,12,662,26,71,0.874189364461738
771,-1,-1,12,663,26,71,0.8743523316062176
772,-1,-1,12,664,26,71,0.8745148771021992
773,-1,-1,12,665,26,71,0.8746770025839793
774,-1,-1,12,666,26,71,0.8748387096774194
775,-1,-1,12,667,26,71,0.875
776,-1,-1,12,668,26,71,0.8751608751608752
777,-1,-1,12,669,26,71,0.8753213367609255
778,-1,-1,12,670,26,71,0.8754813863928113
779,-1,-1,12,671,26,71,0.8756410256410256
780,-1,-1,12,672,26,71,0.8758002560819462
781,-1,-1,12,673,26,71,0.8759590792838875
782,-1,-1,12,674,26,71,0.876117496807152
783,-1,-1,12,675,26,71,0.8762755102040817
784,-1,-1,12,676,26,71,0.8764331210191083
785,-1,-1,12,677,26,71,0.8765903307888041
786,-1,-1,12,678,26,71,0.8767471410419314
787,-1,-1,12,679,26,71,0.8769035532994924
788,-1,-1,12,680,26,71,0.8770595690747782
789,1,1,13,680,26,71,0.8772151898734177
790,-1,-1,13,681,26,71,0.877370417193426
791,-1,-1,13,682,26,71,0.8775252525252525
792,-1,-1,13,683,26,71,0.8776796973518285
793,-1,-1,13,684,26,71,0.8778337531486146
794,-1,-1,13,685,26,71,0.8779874213836478
795,-1,-1,13,686,26,71,0.878140703517588
796,-1,-1,13,687,26,71,0.8782936010037641
797,-1,-1,13,688,26,71,0.8784461152882206
798,-1,-1,13,689,26,71,0.8785982478097623
799,-1,-1,13,690,26,71,0.87875
800,-1,-1,13,691,26,71,0.8789013732833958
801,-1,-1,13,692,26,71,0.8790523690773068
802,-1,-1,13,693,26,71,0.8792029887920298
803,-1,-1,13,694,26,71,0.8793532338308457
804,-1,-1,13,695,26,71,0.8795031055900621
805,-1,-1,13,696,26,71,0.8796526054590571
806,1,-1,13,696,26,72,0.8785625774473358
807,-1,-1,13,697,26,72,0.8787128712871287
808,-1,-1,13,698,26,72,0.8788627935723115
809,-1,-1,13,699,26,72,0.8790123456790123
810,-1,-1,13,700,26,72,0.8791615289765722
811,-1,-1,13,701,26,72,0.8793103448275862
812,-1,-1,13,702,26,72,0.8794587945879458
813,-1,-1,13,703,26,72,0.8796068796068796
814,-1,-1,13,704,26,72,0.8797546012269939
815,1,1,14,704,26,72,0.8799019607843137
816,-1,-1,14,705,26,72,0.8800489596083231
817,-1,-1,14,706,26,72,0.8801955990220048
818,1,-1,14,706,26,73,0.8791208791208791
819,-1,-1,14,707,26,73,0.8792682926829268
820,-1,-1,14,708,26,73,0.879415347137637
821,-1,-1,14,709,26,73,0.8795620437956204
822,-1,-1,14,710,26,73,0.8797083839611178
823,1,1,15,710,26,73,0.8798543689320388
824,-1,-1,15,711,26,73,0.88
825,-1,-1,15,712,26,73,0.8801452784503632
826,-1,-1,15,713,26,73,0.8802902055622733
827,-1,-1,15,714,26,73,0.8804347826086957
828,-1,-1,15,715,26,73,0.8805790108564535
829,-1,-1,15,716,26,73,0.880722891566265
830,-1,1,15,716,27,73,0.8796630565583634
831,-1,-1,15,717,27,73,0.8798076923076923
832,-1,-1,15,718,27,73,0.879951980792317
833,-1,-1,15,719,27,73,0.8800959232613909
834,-1,-1,15,720,27,73,0.8802395209580839
835,-1,-1,15,721,27,73,0.8803827751196173
836,-1,-1,15,722,27,73,0.8805256869772998
837,-1,-1,15,723,27,73,0.8806682577565632
838,-1,-1,15,724,27,73,0.8808104886769964
839,-1,-1,15,725,27,73,0.8809523809523809
840,-1,-1,15,726,27,73,0.8810939357907254
841,-1,-1,15,727,27,73,0.8812351543942993
842,-1,-1,15,728,27,73,0.8813760379596679
843,-1,-1,15,729,27,73,0.8815165876777251
844,-1,-1,15,730,27,73,0.8816568047337278
845,-1,-1,15,731,27,73,0.8817966903073287
846,-1,-1,15,732,27,73,0.8819362455726092
847,-1,-1,15,733,27,73,0.8820754716981132
848,-1,-1,15,734,27,73,0.8822143698468787
849,-1,-1,15,735,27,73,0.8823529411764706
850,-1,-1,15,736,27,73,0.882491186839013
851,-1,-1,15,737,27,73,0.8826291079812206
852,1,-1,15,737,27,74,0.8815943728018757
853,-1,1,15,737,28,74,0.8805620608899297
854,-1,-1,15,738,28,74,0.8807017543859649
855,-1,-1,15,739,28,74,0.8808411214953271
856,-1,-1,15,740,28,74,0.8809801633605601
857,-1,-1,15,741,28,74,0.8811188811188811
858,-1,-1,15,742,28,74,0.8812572759022119
859,1,-1,15,742,28,75,0.8802325581395349
860,-1,-1,15,743,28,75,0.8803716608594657
861,-1,-1,15,744,28,75,0.8805104408352669
862,-1,-1,15,745,28,75,0.880648899188876
863,-1,-1,15,746,28,75,0.8807870370370371
864,-1,-1,15,747,28,75,0.8809248554913295
865,-1,-1,15,748,28,75,0.8810623556581986
866,-1,-1,15,749,28,75,0.881199538638985
867,-1,-1,15,750,28,75,0.881336405529954
868,-1,-1,15,751,28,75,0.8814729574223246
869,-1,-1,15,752,28,75,0.8816091954022989
870,-1,-1,15,753,28,75,0.8817451205510907
871,-1,-1,15,754,28,75,0.8818807339449541
872,-1,-1,15,755,28,75,0.8820160366552119
873,-1,-1,15,756,28,75,0.8821510297482837
874,-1,-1,15,757,28,75,0.8822857142857143
875,1,1,16,757,28,75,0.882420091324201
876,-1,-1,16,758,28,75,0.8825541619156214
877,-1,-1,16,759,28,75,0.8826879271070615
878,-1,-1,16,760,28,75,0.8828213879408419
879,-1,-1,16,761,28,75,0.8829545454545454
880,1,-1,16,761,28,76,0.8819523269012486
881,-1,-1,16,762,28,76,0.8820861678004536
882,-1,-1,16,763,28,76,0.8822197055492639
883,-1,-1,16,764,28,76,0.8823529411764706
884,-1,-1,16,765,28,76,0.8824858757062147
885,-1,-1,16,766,28,76,0.8826185101580135
886,-1,-1,16,767,28,76,0.882750845546787
887,-1,-1,16,768,28,76,0.8828828828828829
888,-1,-1,16,769,28,76,0.8830146231721034
889,-1,-1,16,770,28,76,0.8831460674157303
890,-1,-1,16,771,28,76,0.8832772166105499
891,-1,-1,16,772,28,76,0.8834080717488789
892,-1,-1,16,773,28,76,0.883538633818589
893,-1,-1,16,774,28,76,0.883668903803132
894,-1,-1,16,775,28,76,0.8837988826815643
895,-1,-1,16,776,28,76,0.8839285714285714
896,-1,-1,16,777,28,76,0.8840579710144928
897,-1,-1,16,778,28,76,0.8841870824053452
898,-1,-1,16,779,28,76,0.8843159065628476
899,-1,-1,16,780,28,76,0.8844444444444445
900,-1,-1,16,781,28,76,0.8845726970033296
901,-1,-1,16,782,28,76,0.88470066518847
902,-1,-1,16,783,28,76,0.884828349944629
903,-1,-1,16,784,28,76,0.8849557522123894
904,1,-1,16,784,28,77,0.8839779005524862
905,-1,-1,16,785,28,77,0.8841059602649006
906,-1,1,16,785,29,77,0.8831312017640573
907,-1,-1,16,786,29,77,0.8832599118942731
908,1,-1,16,786,29,78,0.8822882288228823
909,1,-1,16,786,29,79,0.8813186813186813
910,-1,-1,16,787,29,79,0.8814489571899012
911,-1,-1,16,788,29,79,0.881578947368421
912,-1,-1,16,789,29,79,0.8817086527929902
913,-1,-1,16,790,29,79,0.8818380743982495
914,-1,-1,16,791,29,79,0.8819672131147541
915,-1,-1,16,792,29,79,0.8820960698689956
916,-1,-1,16,793,29,79,0.8822246455834242
917,1,-1,16,793,29,80,0.8812636165577342
918,1,-1,16,793,29,81,0.8803046789989118
919,-1,-1,16,794,29,81,0.8804347826086957
920,-1,-1,16,795,29,81,0.8805646036916395
921,-1,-1,16,796,29,81,0.8806941431670282
922,-1,-1,16,797,29,81,0.8808234019501625
923,-1,-1,16,798,29,81,0.8809523809523809
924,-1,-1,16,799,29,81,0.8810810810810811
925,-1,-1,16,800,29,81,0.8812095032397408
926,1,-1,16,800,29,82,0.8802588996763754
927,-1,-1,16,801,29,82,0.8803879310344828
928,-1,-1,16,802,29,82,0.8805166846071044
929,-1,-1,16,803,29,82,0.8806451612903226
930,-1,-1,16,804,29,82,0.8807733619763695
931,-1,-1,16,805,29,82,0.880901287553648
932,-1,-1,16,806,29,82,0.8810289389067524
933,-1,-1,16,807,29,82,0.8811563169164882
934,-1,-1,16,808,29,82,0.881283422459893
935,-1,-1,16,809,29,82,0.8814102564102564
936,-1,-1,16,810,29,82,0.8815368196371398
937,-1,-1,16,811,29,82,0.8816631130063965
938,-1,-1,16,812,29,82,0.8817891373801917
939,1,-1,16,812,29,83,0.8808510638297873
940,-1,-1,16,813,29,83,0.8809776833156217
941,-1,-1,16,814,29,83,0.881104033970276
942,-1,-1,16,815,29,83,0.8812301166489925
943,-1,-1,16,816,29,83,0.8813559322033898
944,-1,-1,16,817,29,83,0.8814814814814815
945,-1,-1,16,818,29,83,0.8816067653276956
946,-1,-1,16,819,29,83,0.8817317845828934
947,-1,-1,16,820,29,83,0.8818565400843882
948,-1,-1,16,821,29,83,0.8819810326659642
949,1,-1,16,821,29,84,0.8810526315789474
950,-1,-1,16,822,29,84,0.8811777076761304
951,-1,-1,16,823,29,84,0.8813025210084033
952,-1,-1,16,824,29,84,0.881427072402938
953,-1,-1,16,825,29,84,0.8815513626834381
954,-1,-1,16,826,29,84,0.881675392670157
955,-1,-1,16,827,29,84,0.8817991631799164
956,-1,-1,16,828,29,84,0.8819226750261233
957,-1,-1,16,829,29,84,0.8820459290187892
958,-1,1,16,829,30,84,0.881126173096976
959,1,1,17,829,30,84,0.88125
960,-1,-1,17,830,30,84,0.8813735691987513
961,-1,-1,17,831,30,84,0.8814968814968815
962,-1,-1,17,832,30,84,0.881619937694704
963,-1,-1,17,833,30,84,0.8817427385892116
964,-1,-1,17,834,30,84,0.8818652849740932
965,-1,-1,17,835,30,84,0.8819875776397516
966,-1,-1,17,836,30,84,0.8821096173733195
967,-1,-1,17,837,30,84,0.8822314049586777
968,-1,-1,17,838,30,84,0.8823529411764706
969,-1,-1,17,839,30,84,0.8824742268041237
970,-1,-1,17,840,30,84,0.88259526261586
971,-1,-1,17,841,30,84,0.8827160493827161
972,-1,-1,17,842,30,84,0.8828365878725591
973,-1,-1,17,843,30,84,0.8829568788501027
974,-1,-1,17,844,30,84,0.8830769230769231
975,-1,-1,17,845,30,84,0.8831967213114754
976,-1,1,17,845,31,84,0.8822927328556807
977,1,-1,17,845,31,85,0.8813905930470347
978,-1,-1,17,846,31,85,0.881511746680286
979,-1,-1,17,847,31,85,0.8816326530612245
980,-1,-1,17,848,31,85,0.8817533129459735
981,-1,-1,17,849,31,85,0.8818737270875764
982,-1,-1,17,850,31,85,0.8819938962360122
983,-1,-1,17,851,31,85,0.8821138211382114
984,-1,-1,17,852,31,85,0.8822335025380711
985,1,1,18,852,31,85,0.8823529411764706
986,-1,-1,18,853,31,85,0.8824721377912867
987,-1,-1,18,854,31,85,0.8825910931174089
988,-1,-1,18,855,31,85,0.8827098078867543
989,-1,-1,18,856,31,85,0.8828282828282829
990,-1,-1,18,857,31,85,0.8829465186680121
991,-1,-1,18,858,31,85,0.8830645161290323
992,1,1,19,858,31,85,0.8831822759315207
993,-1,-1,19,859,31,85,0.8832997987927566
994,-1,-1,19,860,31,85,0.8834170854271357
995,-1,-1,19,861,31,85,0.8835341365461847
996,1,-1,19,861,31,86,0.8826479438314945
997,-1,-1,19,862,31,86,0.8827655310621243
998,-1,-1,19,863,31,86,0.8828828828828829
999,1,-1,19,863,31,87,0.882
1000,-1,-1,19,864,31,87,0.8821178821178821
1001,-1,-1,19,865,31,87,0.8822355289421158
1002,1,-1,19,865,31,88,0.8813559322033898
1003,-1,-1,19,866,31,88,0.8814741035856574
1004,1,-1,19,866,31,89,0.8805970149253731
1005,-1,-1,19,867,31,89,0.8807157057654076
1006,-1,-1,19,868,31,89,0.8808341608738828
1007,1,-1,19,868,31,90,0.8799603174603174
1008,-1,-1,19,869,31,90,0.8800792864222002
1009,-1,-1,19,870,31,90,0.8801980198019802
1010,-1,-1,19,871,31,90,0.8803165182987142
1011,1,-1,19,871,31,91,0.8794466403162056
1012,-1,-1,19,872,31,91,0.8795656465942744
1013,-1,-1,19,873,31,91,0.8796844181459567
1014,-1,-1,19,874,31,91,0.8798029556650246
1015,-1,-1,19,875,31,91,0.8799212598425197
1016,-1,-1,19,876,31,91,0.880039331366765
1017,-1,-1,19,877,31,91,0.8801571709233792
1018,-1,-1,19,878,31,91,0.8802747791952895
1019,-1,-1,19,879,31,91,0.8803921568627451
1020,-1,-1,19,880,31,91,0.8805093046033301
1021,-1,-1,19,881,31,91,0.8806262230919765
1022,-1,-1,19,882,31,91,0.8807429130009775
1023,-1,-1,19,883,31,91,0.880859375
1024,-1,-1,19,884,31,91,0.8809756097560976
1025,-1,-1,19,885,31,91,0.8810916179337231
1026,-1,-1,19,886,31,91,0.881207400194742
1027,-1,-1,19,887,31,91,0.8813229571984436
1028,-1,-1,19,888,31,91,0.8814382896015549
1029,-1,-1,19,889,31,91,0.8815533980582524
1030,-1,-1,19,890,31,91,0.8816682832201745
1031,-1,-1,19,891,31,91,0.8817829457364341
1032,-1,-1,19,892,31,91,0.8818973862536302
1033,-1,-1,19,893,31,91,0.8820116054158608
1034,-1,-1,19,894,31,91,0.8821256038647343
1035,-1,-1,19,895,31,91,0.8822393822393823
1036,-1,-1,19,896,31,91,0.8823529411764706
1037,-1,-1,19,897,31,91,0.882466281310212
1038,-1,-1,19,898,31,91,0.8825794032723773
1039,-1,-1,19,899,31,91,0.8826923076923077
1040,-1,-1,19,900,31,91,0.882804995196926
1041,-1,-1,19,901,31,91,0.8829174664107485
1042,-1,-1,19,902,31,91,0.8830297219558965
1043,-1,-1,19,903,31,91,0.8831417624521073
1044,1,-1,19,903,31,92,0.8822966507177034
1045,-1,-1,19,904,31,92,0.8824091778202677
1046,-1,-1,19,905,31,92,0.8825214899713467
1047,-1,-1,19,906,31,92,0.8826335877862596
1048,-1,-1,19,907,31,92,0.882745471877979
1049,-1,-1,19,908,31,92,0.8828571428571429
1050,-1,-1,19,909,31,92,0.8829686013320647
1051,-1,-1,19,910,31,92,0.8830798479087453
1052,-1,-1,19,911,31,92,0.8831908831908832
1053,-1,-1,19,912,31,92,0.8833017077798861
1054,-1,-1,19,913,31,92,0.8834123222748815
1055,-1,-1,19,914,31,92,0.8835227272727273
1056,-1,-1,19,915,31,92,0.8836329233680227
1057,-1,-1,19,916,31,92,0.8837429111531191
1058,-1,-1,19,917,31,92,0.8838526912181303
1059,1,-1,19,917,31,93,0.8830188679245283
1060,-1,-1,19,918,31,93,0.883129123468426
1061,-1,-1,19,919,31,93,0.8832391713747646
1062,-1,-1,19,920,31,93,0.883349012229539
1063,-1,-1,19,921,31,93,0.8834586466165414
1064,-1,-1,19,922,31,93,0.8835680751173709
1065,-1,-1,19,923,31,93,0.8836772983114447
1066,-1,-1,19,924,31,93,0.8837863167760075
1067,-1,-1,19,925,31,93,0.8838951310861424
1068,-1,-1,19,926,31,93,0.8840037418147801
1069,-1,-1,19,927,31,93,0.8841121495327103
1070,-1,-1,19,928,31,93,0.8842203548085901
1071,-1,-1,19,929,31,93,0.8843283582089553
1072,-1,-1,19,930,31,93,0.8844361602982292
1073,-1,-1,19,931,31,93,0.8845437616387337
1074,-1,-1,19,932,31,93,0.8846511627906977
1075,1,-1,19,932,31,94,0.8838289962825279
1076,-1,-1,19,933,31,94,0.8839368616527391
1077,-1,-1,19,934,31,94,0.8840445269016698
1078,-1,-1,19,935,31,94,0.8841519925857275
1079,-1,-1,19,936,31,94,0.8842592592592593
1080,-1,-1,19,937,31,94,0.8843663274745606
1081,-1,-1,19,938,31,94,0.8844731977818854
1082,-1,-1,19,939,31,94,0.8845798707294552
1083,-1,-1,19,940,31,94,0.8846863468634686
1084,-1,-1,19,941,31,94,0.8847926267281107
1085,-1,-1,19,942,31,94,0.8848987108655617
1086,-1,-1,19,943,31,94,0.8850045998160073
1087,-1,-1,19,944,31,94,0.8851102941176471
1088,-1,-1,19,945,31,94,0.8852157943067034
1089,-1,-1,19,946,31,94,0.8853211009174312
1090,-1,-1,19,947,31,94,0.8854262144821264
1091,1,-1,19,947,31,95,0.8846153846153846
1092,-1,-1,19,948,31,95,0.8847209515096066
1093,-1,-1,19,949,31,95,0.8848263254113345
1094,-1,-1,19,950,31,95,0.8849315068493151
1095,-1,-1,19,951,31,95,0.885036496350365
1096,-1,-1,19,952,31,95,0.8851412944393802
1097,-1,-1,19,953,31,95,0.8852459016393442
1098,-1,-1,19,954,31,95,0.8853503184713376
1099,-1,-1,19,955,31,95,0.8854545454545455
1100,-1,-1,19,956,31,95,0.885558583106267
1101,1,-1,19,956,31,96,0.8847549909255898
1102,1,-1,19,956,31,97,0.8839528558476881
1103,-1,-1,19,957,31,97,0.8840579710144928
1104,-1,-1,19,958,31,97,0.8841628959276018
1105,-1,-1,19,959,31,97,0.8842676311030742
1106,-1,-1,19,960,31,97,0.8843721770551038
1107,-1,-1,19,961,31,97,0.8844765342960289
1108,-1,-1,19,962,31,97,0.8845807033363391
1109,-1,-1,19,963,31,97,0.8846846846846846
1110,-1,-1,19,964,31,97,0.8847884788478848
1111,1,-1,19,964,31,98,0.8839928057553957
1112,-1,-1,19,965,31,98,0.8840970350404312
1113,1,1,20,965,31,98,0.8842010771992819
1114,-1,-1,20,966,31,98,0.884304932735426
1115,-1,-1,20,967,31,98,0.8844086021505376
1116,-1,-1,20,968,31,98,0.8845120859444942
1117,-1,-1,20,969,31,98,0.8846153846153846
1118,-1,-1,20,970,31,98,0.8847184986595175
1119,-1,-1,20,971,31,98,0.8848214285714285
1120,-1,-1,20,972,31,98,0.8849241748438894
1121,-1,-1,20,973,31,98,0.8850267379679144
1122,1,1,21,973,31,98,0.8851291184327693
1123,-1,-1,21,974,31,98,0.8852313167259787
1124,-1,-1,21,975,31,98,0.8853333333333333
1125,-1,-1,21,976,31,98,0.8854351687388987
1126,-1,-1,21,977,31,98,0.8855368234250222
1127,1,-1,21,977,31,99,0.8847517730496454
1128,-1,-1,21,978,31,99,0.8848538529672276
1129,-1,-1,21,979,31,99,0.8849557522123894
1130,-1,-1,21,980,31,99,0.8850574712643678
1131,-1,-1,21,981,31,99,0.8851590106007067
1132,-1,-1,21,982,31,99,0.8852603706972639
1133,-1,-1,21,983,31,99,0.8853615520282186
1134,-1,-1,21,984,31,99,0.8854625550660793
1135,-1,-1,21,985,31,99,0.8855633802816901
1136,-1,-1,21,986,31,99,0.8856640281442393
1137,-1,-1,21,987,31,99,0.8857644991212654
1138,-1,-1,21,988,31,99,0.8858647936786654
1139,1,-1,21,988,31,100,0.8850877192982456
1140,-1,-1,21,989,31,100,0.8851884312007011
1141,-1,-1,21,990,31,100,0.8852889667250438
1142,1,1,22,990,31,100,0.8853893263342082
1143,-1,-1,22,991,31,100,0.8854895104895105
1144,-1,-1,22,992,31,100,0.885589519650655
1145,-1,-1,22,993,31,100,0.8856893542757417
1146,-1,-1,22,994,31,100,0.8857890148212729
1147,-1,-1,22,995,31,100,0.8858885017421603
1148,-1,-1,22,996,31,100,0.8859878154917319
1149,-1,-1,22,997,31,100,0.8860869565217391
1150,-1,-1,22,998,31,100,0.8861859252823632
1151,-1,-1,22,999,31,100,0.8862847222222222
1152,-1,-1,22,1000,31,100,0.8863833477883781
1153,1,-1,22,1000,31,101,0.8856152512998267
1154,-1,-1,22,1001,31,101,0.8857142857142857
1155,-1,-1,22,1002,31,101,0.8858131487889274
1156,-1,-1,22,1003,31,101,0.8859118409680208
1157,-1,-1,22,1004,31,101,0.8860103626943006
1158,-1,-1,22,1005,31,101,0.8861087144089732
1159,1,-1,22,1005,31,102,0.8853448275862069
1160,1,-1,22,1005,31,103,0.8845822566752799
1161,-1,-1,22,1006,31,103,0.8846815834767642
1162,-1,-1,22,1007,31,103,0.884780739466896
1163,-1,-1,22,1008,31,103,0.8848797250859106
1164,1,-1,22,1008,31,104,0.8841201716738197
1165,-1,-1,22,1009,31,104,0.8842195540308748
1166,-1,-1,22,1010,31,104,0.884318766066838
1167,-1,-1,22,1011,31,104,0.884417808219178
1168,-1,-1,22,1012,31,104,0.8845166809238666
1169,-1,-1,22,1013,31,104,0.8846153846153846
1170,-1,-1,22,1014,31,104,0.8847139197267293
1171,-1,-1,22,1015,31,104,0.8848122866894198
1172,-1,-1,22,1016,31,104,0.8849104859335039
1173,-1,-1,22,1017,31,104,0.8850085178875639
1174,-1,-1,22,1018,31,104,0.8851063829787233
1175,-1,-1,22,1019,31,104,0.8852040816326531
1176,-1,-1,22,1020,31,104,0.8853016142735769
1177,-1,1,22,1020,32,104,0.8845500848896435
1178,-1,-1,22,1021,32,104,0.8846480067854113
1179,-1,-1,22,1022,32,104,0.8847457627118644
1180,-1,-1,22,1023,32,104,0.8848433530906011
1181,-1,-1,22,1024,32,104,0.8849407783417935
1182,-1,-1,22,1025,32,104,0.8850380388841927
1183,-1,-1,22,1026,32,104,0.8851351351351351
1184,-1,-1,22,1027,32,104,0.8852320675105485
1185,-1,-1,22,1028,32,104,0.8853288364249579
1186,-1,-1,22,1029,32,104,0.8854254422914911
1187,-1,-1,22,1030,32,104,0.8855218855218855
1188,-1,-1,22,1031,32,104,0.8856181665264928
1189,-1,-1,22,1032,32,104,0.8857142857142857
1190,-1,-1,22,1033,32,104,0.8858102434928632
1191,-1,-1,22,1034,32,104,0.8859060402684564
1192,-1,-1,22,1035,32,104,0.8860016764459346
1193,-1,-1,22,1036,32,104,0.8860971524288107
1194,-1,-1,22,1037,32,104,0.8861924686192468
1195,-1,-1,22,1038,32,104,0.8862876254180602
1196,-1,-1,22,1039,32,104,0.8863826232247285
1197,-1,-1,22,1040,32,104,0.8864774624373957
1198,-1,-1,22,1041,32,104,0.8865721434528774
1199,-1,-1,22,1042,32,104,0.8866666666666667
1200,1,-1,22,1042,32,105,0.8859283930058285
1201,-1,-1,22,1043,32,105,0.8860232945091514
1202,-1,-1,22,1044,32,105,0.8861180382377389
1203,-1,-1,22,1045,32,105,0.8862126245847176
1204,-1,-1,22,1046,32,105,0.8863070539419087
1205,1,-1,22,1046,32,106,0.8855721393034826
1206,-1,-1,22,1047,32,106,0.8856669428334715
1207,-1,1,22,1047,33,106,0.8849337748344371
1208,-1,-1,22,1048,33,106,0.8850289495450786
1209,-1,-1,22,1049,33,106,0.8851239669421488
1210,-1,-1,22,1050,33,106,0.8852188274153592
1211,-1,-1,22,1051,33,106,0.8853135313531353
1212,-1,-1,22,1052,33,106,0.8854080791426217
1213,1,-1,22,1052,33,107,0.8846787479406919
1214,-1,-1,22,1053,33,107,0.8847736625514403
1215,-1,-1,22,1054,33,107,0.8848684210526315
1216,1,-1,22,1054,33,108,0.8841413311421529
1217,-1,-1,22,1055,33,108,0.8842364532019704
1218,1,-1,22,1055,33,109,0.8835110746513536
1219,-1,-1,22,1056,33,109,0.8836065573770492
1220,-1,-1,22,1057,33,109,0.8837018837018837
1221,-1,-1,22,1058,33,109,0.88379705400982
1222,-1,-1,22,1059,33,109,0.883892068683565
1223,1,-1,22,1059,33,110,0.8831699346405228
1224,-1,-1,22,1060,33,110,0.883265306122449
1225,-1,-1,22,1061,33,110,0.8833605220228385
1226,-1,-1,22,1062,33,110,0.8834555827220864
1227,-1,-1,22,1063,33,110,0.8835504885993485
1228,-1,-1,22,1064,33,110,0.8836452400325467
1229,-1,-1,22,1065,33,110,0.883739837398374
1230,-1,-1,22,1066,33,110,0.8838342810722989
1231,-1,-1,22,1067,33,110,0.8839285714285714
1232,-1,-1,22,1068,33,110,0.884022708840227
1233,-1,-1,22,1069,33,110,0.8841166936790924
1234,-1,-1,22,1070,33,110,0.8842105263157894
1235,-1,-1,22,1071,33,110,0.8843042071197411
1236,-1,-1,22,1072,33,110,0.8843977364591754
1237,-1,-1,22,1073,33,110,0.8844911147011308
1238,-1,-1,22,1074,33,110,0.8845843422114609
1239,-1,-1,22,1075,33,110,0.8846774193548387
1240,-1,-1,22,1076,33,110,0.8847703464947623
1241,-1,-1,22,1077,33,110,0.8848631239935588
1242,1,-1,22,1077,33,111,0.8841512469831054
1243,1,-1,22,1077,33,112,0.8834405144694534
1244,-1,-1,22,1078,33,112,0.8835341365461847
1245,-1,1,22,1078,34,112,0.8828250401284109
1246,-1,-1,22,1079,34,112,0.8829190056134724
1247,-1,-1,22,1080,34,112,0.8830128205128205
1248,-1,-1,22,1081,34,112,0.8831064851881505
1249,-1,-1,22,1082,34,112,0.8832
1250,-1,-1,22,1083,34,112,0.8832933653077538
1251,-1,-1,22,1084,34,112,0.8833865814696485
1252,-1,-1,22,1085,34,112,0.8834796488427773
1253,1,-1,22,1085,34,113,0.8827751196172249
1254,-1,-1,22,1086,34,113,0.8828685258964143
1255,-1,-1,22,1087,34,113,0.8829617834394905
1256,-1,-1,22,1088,34,113,0.883054892601432
1257,-1,-1,22,1089,34,113,0.8831478537360891
1258,-1,-1,22,1090,34,113,0.8832406671961874
1259,1,1,23,1090,34,113,0.8833333333333333
1260,-1,-1,23,1091,34,113,0.8834258524980174
1261,-1,-1,23,1092,34,113,0.8835182250396196
1262,1,-1,23,1092,34,114,0.882818685669042
1263,1,-1,23,1092,34,115,0.882120253164557
1264,1,-1,23,1092,34,116,0.8814229249011858
1265,-1,-1,23,1093,34,116,0.8815165876777251
1266,-1,1,23,1093,35,116,0.8808208366219415
1267,-1,-1,23,1094,35,116,0.8809148264984227
1268,-1,-1,23,1095,35,116,0.8810086682427108
1269,-1,-1,23,1096,35,116,0.8811023622047244
1270,-1,-1,23,1097,35,116,0.8811959087332809
1271,1,-1,23,1097,35,117,0.8805031446540881
1272,-1,-1,23,1098,35,117,0.8805970149253731
1273,-1,-1,23,1099,35,117,0.880690737833595
1274,-1,-1,23,1100,35,117,0.8807843137254902
1275,-1,-1,23,1101,35,117,0.8808777429467085
1276,-1,-1,23,1102,35,117,0.8809710258418167
1277,-1,-1,23,1103,35,117,0.8810641627543035
1278,-1,-1,23,1104,35,117,0.8811571540265832
1279,1,-1,23,1104,35,118,0.88046875
1280,-1,-1,23,1105,35,118,0.8805620608899297
1281,1,-1,23,1105,35,119,0.8798751950078003
1282,-1,-1,23,1106,35,119,0.8799688230709275
1283,-1,-1,23,1107,35,119,0.8800623052959502
1284,1,-1,23,1107,35,120,0.8793774319066148
1285,-1,-1,23,1108,35,120,0.8794712286158631
1286,1,-1,23,1108,35,121,0.8787878787878788
1287,-1,-1,23,1109,35,121,0.8788819875776398
1288,-1,-1,23,1110,35,121,0.8789759503491078
1289,-1,-1,23,1111,35,121,0.8790697674418605
1290,-1,-1,23,1112,35,121,0.879163439194423
1291,-1,-1,23,1113,35,121,0.8792569659442725
1292,-1,-1,23,1114,35,121,0.8793503480278422
1293,-1,-1,23,1115,35,121,0.8794435857805255
1294,1,-1,23,1115,35,122,0.8787644787644787
1295,-1,-1,23,1116,35,122,0.878858024691358
1296,-1,-1,23,1117,35,122,0.8789514263685428
1297,-1,-1,23,1118,35,122,0.8790446841294299
1298,-1,-1,23,1119,35,122,0.8791377983063895
1299,-1,-1,23,1120,35,122,0.8792307692307693
1300,-1,-1,23,1121,35,122,0.8793235972328978
1301,-1,-1,23,1122,35,122,0.879416282642089
1302,-1,-1,23,1123,35,122,0.8795088257866462
1303,-1,-1,23,1124,35,122,0.879601226993865
1304,-1,-1,23,1125,35,122,0.8796934865900383
1305,-1,1,23,1125,36,122,0.8790199081163859
1306,-1,-1,23,1126,36,122,0.8791124713083397
1307,-1,-1,23,1127,36,122,0.8792048929663608
1308,-1,-1,23,1128,36,122,0.8792971734148205
1309,-1,-1,23,1129,36,122,0.8793893129770992
1310,-1,-1,23,1130,36,122,0.8794813119755912
1311,1,-1,23,1130,36,123,0.8788109756097561
1312,-1,-1,23,1131,36,123,0.8789032749428789
1313,-1,-1,23,1132,36,123,0.8789954337899544
1314,-1,-1,23,1133,36,123,0.8790874524714829
1315,-1,-1,23,1134,36,123,0.8791793313069909
1316,-1,-1,23,1135,36,123,0.8792710706150342
1317,-1,-1,23,1136,36,123,0.8793626707132018
1318,-1,-1,23,1137,36,123,0.8794541319181198
1319,-1,-1,23,1138,36,123,0.8795454545454545
1320,-1,-1,23,1139,36,123,0.8796366389099167
1321,-1,-1,23,1140,36,123,0.8797276853252648
1322,-1,-1,23,1141,36,123,0.8798185941043084
1323,-1,1,23,1141,37,123,0.879154078549849
1324,-1,-1,23,1142,37,123,0.879245283018868
1325,-1,-1,23,1143,37,123,0.8793363499245852
1326,-1,-1,23,1144,37,123,0.8794272795779955
1327,-1,-1,23,1145,37,123,0.8795180722891566
1328,-1,-1,23,1146,37,123,0.8796087283671934
1329,-1,-1,23,1147,37,123,0.8796992481203008
1330,-1,-1,23,1148,37,123,0.8797896318557475
1331,1,-1,23,1148,37,124,0.8791291291291291
1332,-1,-1,23,1149,37,124,0.8792198049512379
1333,-1,-1,23,1150,37,124,0.8793103448275862
1334,-1,-1,23,1151,37,124,0.8794007490636704
1335,-1,-1,23,1152,37,124,0.8794910179640718
1336,-1,-1,23,1153,37,124,0.8795811518324608
1337,-1,-1,23,1154,37,124,0.8796711509715994
1338,-1,-1,23,1155,37,124,0.8797610156833457
1339,-1,-1,23,1156,37,124,0.8798507462686567
1340,-1,-1,23,1157,37,124,0.8799403430275914
1341,-1,-1,23,1158,37,124,0.8800298062593145
1342,-1,-1,23,1159,37,124,0.8801191362620998
1343,-1,-1,23,1160,37,124,0.8802083333333334
1344,-1,-1,23,1161,37,124,0.8802973977695168
1345,-1,-1,23,1162,37,124,0.8803863298662704
1346,-1,-1,23,1163,37,124,0.8804751299183371
1347,1,-1,23,1163,37,125,0.8798219584569733
1348,-1,-1,23,1164,37,125,0.8799110452186805
1349,1,-1,23,1164,37,126,0.8792592592592593
1350,-1,-1,23,1165,37,126,0.8793486306439674
1351,-1,-1,23,1166,37,126,0.8794378698224852
1352,-1,-1,23,1167,37,126,0.8795269770879527
1353,-1,-1,23,1168,37,126,0.879615952732644
1354,-1,-1,23,1169,37,126,0.8797047970479704
1355,-1,-1,23,1170,37,126,0.8797935103244838
1356,-1,-1,23,1171,37,126,0.8798820928518791
1357,-1,-1,23,1172,37,126,0.8799705449189985
1358,1,1,24,1172,37,126,0.8800588668138337
1359,-1,-1,24,1173,37,126,0.8801470588235294
1360,-1,-1,24,1174,37,126,0.8802351212343865
1361,-1,-1,24,1175,37,126,0.8803230543318649
1362,-1,-1,24,1176,37,126,0.880410858400587
1363,-1,1,24,1176,38,126,0.8797653958944281
1364,-1,-1,24,1177,38,126,0.8798534798534798
1365,-1,-1,24,1178,38,126,0.8799414348462665
1366,1,1,25,1178,38,126,0.8800292611558157
1367,-1,-1,25,1179,38,126,0.8801169590643275
1368,-1,-1,25,1180,38,126,0.8802045288531775
1369,1,1,26,1180,38,126,0.8802919708029197
1370,-1,-1,26,1181,38,126,0.8803792851932896
1371,-1,-1,26,1182,38,126,0.880466472303207
1372,-1,-1,26,1183,38,126,0.8805535324107793
1373,-1,-1,26,1184,38,126,0.8806404657933042
1374,-1,-1,26,1185,38,126,0.8807272727272727
1375,-1,-1,26,1186,38,126,0.8808139534883721
1376,-1,-1,26,1187,38,126,0.8809005083514887
1377,-1,-1,26,1188,38,126,0.8809869375907112
1378,-1,-1,26,1189,38,126,0.8810732414793329
1379,-1,-1,26,1190,38,126,0.881159420289855
1380,-1,-1,26,1191,38,126,0.8812454742939899
1381,-1,-1,26,1192,38,126,0.8813314037626628
1382,-1,-1,26,1193,38,126,0.8814172089660159
1383,1,-1,26,1193,38,127,0.8807803468208093
1384,-1,-1,26,1194,38,127,0.8808664259927798
1385,-1,-1,26,1195,38,127,0.8809523809523809
1386,-1,-1,26,1196,38,127,0.8810382119682768
1387,-1,-1,26,1197,38,127,0.8811239193083573
1388,-1,-1,26,1198,38,127,0.8812095032397408
1389,-1,-1,26,1199,38,127,0.8812949640287769
1390,-1,-1,26,1200,38,127,0.8813803019410497
1391,-1,-1,26,1201,38,127,0.8814655172413793
1392,-1,-1,26,1202,38,127,0.8815506101938263
1393,-1,-1,26,1203,38,127,0.8816355810616929
1394,-1,-1,26,1204,38,127,0.8817204301075269
1395,-1,-1,26,1205,38,127,0.8818051575931232
1396,-1,-1,26,1206,38,127,0.8818897637795275
1397,-1,-1,26,1207,38,127,0.8819742489270386
1398,-1,-1,26,1208,38,127,0.8820586132952108
1399,-1,-1,26,1209,38,127,0.8821428571428571
1400,-1,-1,26,1210,38,127,0.8822269807280514
1401,-1,-1,26,1211,38,127,0.8823109843081313
1402,-1,-1,26,1212,38,127,0.8823948681397007
1403,-1,-1,26,1213,38,127,0.8824786324786325
1404,-1,-1,26,1214,38,127,0.8825622775800712
1405,-1,-1,26,1215,38,127,0.8826458036984353
1406,-1,-1,26,1216,38,127,0.8827292110874201
1407,1,-1,26,1216,38,128,0.8821022727272727
1408,-1,-1,26,1217,38,128,0.8821859474804826
1409,-1,-1,26,1218,38,128,0.8822695035460993
1410,-1,1,26,1218,39,128,0.8816442239546421
1411,-1,-1,26,1219,39,128,0.8817280453257791
1412,-1,1,26,1219,40,128,0.881104033970276
1413,-1,-1,26,1220,40,128,0.8811881188118812
1414,-1,-1,26,1221,40,128,0.8812720848056537
1415,-1,-1,26,1222,40,128,0.8813559322033898
1416,-1,-1,26,1223,40,128,0.881439661256175
1417,-1,-1,26,1224,40,128,0.8815232722143864
1418,-1,-1,26,1225,40,128,0.8816067653276956
1419,1,-1,26,1225,40,129,0.8809859154929578
1420,-1,-1,26,1226,40,129,0.8810696692470091
1421,-1,-1,26,1227,40,129,0.8811533052039381
1422,1,-1,26,1227,40,130,0.8805340829234013
1423,-1,-1,26,1228,40,130,0.8806179775280899
1424,-1,-1,26,1229,40,130,0.8807017543859649
1425,-1,-1,26,1230,40,130,0.8807854137447405
1426,-1,-1,26,1231,40,130,0.8808689558514365
1427,-1,-1,26,1232,40,130,0.8809523809523809
1428,-1,-1,26,1233,40,130,0.8810356892932121
1429,-1,-1,26,1234,40,130,0.8811188811188811
1430,1,-1,26,1234,40,131,0.8805031446540881
1431,-1,-1,26,1235,40,131,0.880586592178771
1432,-1,-1,26,1236,40,131,0.8806699232379623
1433,-1,-1,26,1237,40,131,0.8807531380753139
1434,-1,-1,26,1238,40,131,0.8808362369337979
1435,-1,-1,26,1239,40,131,0.8809192200557103
1436,-1,-1,26,1240,40,131,0.8810020876826722
1437,-1,-1,26,1241,40,131,0.8810848400556328
1438,-1,-1,26,1242,40,131,0.8811674774148714
1439,-1,-1,26,1243,40,131,0.88125
1440,-1,-1,26,1244,40,131,0.8813324080499653
1441,-1,-1,26,1245,40,131,0.8814147018030514
1442,-1,-1,26,1246,40,131,0.8814968814968815
1443,-1,-1,26,1247,40,131,0.881578947368421
1444,-1,-1,26,1248,40,131,0.8816608996539792
1445,-1,-1,26,1249,40,131,0.8817427385892116
1446,-1,-1,26,1250,40,131,0.8818244644091223
1447,1,-1,26,1250,40,132,0.8812154696132597
1448,-1,-1,26,1251,40,132,0.8812974465148378
1449,-1,-1,26,1252,40,132,0.8813793103448276
1450,-1,-1,26,1253,40,132,0.881461061337009
1451,-1,-1,26,1254,40,132,0.8815426997245179
1452,-1,-1,26,1255,40,132,0.8816242257398486
1453,-1,-1,26,1256,40,132,0.8817056396148556
1454,-1,-1,26,1257,40,132,0.881786941580756
1455,-1,-1,26,1258,40,132,0.8818681318681318
1456,-1,-1,26,1259,40,132,0.8819492107069321
1457,-1,1,26,1259,41,132,0.8813443072702332
1458,-1,-1,26,1260,41,132,0.8814256339958876
1459,1,-1,26,1260,41,133,0.8808219178082192
1460,-1,-1,26,1261,41,133,0.8809034907597536
1461,-1,-1,26,1262,41,133,0.8809849521203831
1462,-1,-1,26,1263,41,133,0.8810663021189337
1463,-1,-1,26,1264,41,133,0.8811475409836066
1464,-1,-1,26,1265,41,133,0.8812286689419795
1465,-1,-1,26,1266,41,133,0.8813096862210096
1466,-1,-1,26,1267,41,133,0.8813905930470347
1467,-1,1,26,1267,42,133,0.8807901907356949
1468,-1,-1,26,1268,42,133,0.8808713410483322
1469,-1,-1,26,1269,42,133,0.8809523809523809
1470,-1,-1,26,1270,42,133,0.8810333106730116
1471,1,-1,26,1270,42,134,0.8804347826086957
1472,-1,-1,26,1271,42,134,0.8805159538357095
1473,-1,-1,26,1272,42,134,0.8805970149253731
1474,-1,-1,26,1273,42,134,0.8806779661016949
1475,-1,-1,26,1274,42,134,0.8807588075880759
1476,-1,-1,26,1275,42,134,0.8808395396073121
1477,-1,-1,26,1276,42,134,0.8809201623815968
1478,-1,-1,26,1277,42,134,0.881000676132522
1479,-1,1,26,1277,43,134,0.8804054054054054
1480,-1,-1,26,1278,43,134,0.8804861580013504
1481,-1,-1,26,1279,43,134,0.8805668016194332
1482,1,-1,26,1279,43,135,0.8799730276466622
1483,-1,-1,26,1280,43,135,0.8800539083557951
1484,-1,-1,26,1281,43,135,0.8801346801346801
1485,-1,1,26,1281,44,135,0.879542395693136
1486,-1,-1,26,1282,44,135,0.8796234028244788
1487,-1,-1,26,1283,44,135,0.8797043010752689
1488,1,1,27,1283,44,135,0.8797850906648758
1489,-1,-1,27,1284,44,135,0.8798657718120806
1490,1,-1,27,1284,44,136,0.8792756539235412
1491,-1,-1,27,1285,44,136,0.8793565683646113
1492,-1,-1,27,1286,44,136,0.8794373744139317
1493,-1,-1,27,1287,44,136,0.8795180722891566
1494,-1,-1,27,1288,44,136,0.8795986622073578
1495,-1,-1,27,1289,44,136,0.8796791443850267
1496,-1,-1,27,1290,44,136,0.8797595190380761
1497,1,-1,27,1290,44,137,0.8791722296395194
1498,-1,-1,27,1291,44,137,0.8792528352234823
1499,1,-1,27,1291,44,138,0.8786666666666667
1500,-1,-1,27,1292,44,138,0.8787475016655563
1501,-1,-1,27,1293,44,138,0.8788282290279628
1502,-1,-1,27,1294,44,138,0.8789088489687292
1503,-1,-1,27,1295,44,138,0.8789893617021277
1504,-1,-1,27,1296,44,138,0.8790697674418605
1505,-1,-1,27,1297,44,138,0.8791500664010624
1506,-1,-1,27,1298,44,138,0.8792302587923025
1507,-1,-1,27,1299,44,138,0.8793103448275862
1508,1,-1,27,1299,44,139,0.878727634194831
1509,-1,-1,27,1300,44,139,0.8788079470198675
1510,1,-1,27,1300,44,140,0.8782263401720715
1511,-1,-1,27,1301,44,140,0.8783068783068783
1512,1,-1,27,1301,44,141,0.8777263714474554
1513,-1,-1,27,1302,44,141,0.8778071334214003
1514,-1,-1,27,1303,44,141,0.8778877887788779
1515,-1,-1,27,1304,44,141,0.8779683377308707
1516,-1,-1,27,1305,44,141,0.8780487804878049
1517,-1,-1,27,1306,44,141,0.878129117259552
1518,-1,-1,27,1307,44,141,0.8782093482554312
1519,-1,-1,27,1308,44,141,0.8782894736842105
1520,-1,-1,27,1309,44,141,0.8783694937541091
1521,-1,-1,27,1310,44,141,0.878449408672799
1522,-1,-1,27,1311,44,141,0.8785292186474064
1523,-1,-1,27,1312,44,141,0.8786089238845144
1524,-1,-1,27,1313,44,141,0.8786885245901639
1525,-1,-1,27,1314,44,141,0.8787680209698558
1526,-1,-1,27,1315,44,141,0.8788474132285528
1527,-1,-1,27,1316,44,141,0.8789267015706806
1528,-1,-1,27,1317,44,141,0.8790058862001308
1529,-1,-1,27,1318,44,141,0.8790849673202614
1530,-1,-1,27,1319,44,141,0.8791639451338994
1531,-1,-1,27,1320,44,141,0.8792428198433421
1532,1,-1,27,1320,44,142,0.8786692759295499
1533,-1,-1,27,1321,44,142,0.878748370273794
1534,-1,-1,27,1322,44,142,0.8788273615635179
1535,-1,-1,27,1323,44,142,0.87890625
1536,-1,-1,27,1324,44,142,0.8789850357839948
1537,-1,-1,27,1325,44,142,0.8790637191157347
1538,-1,-1,27,1326,44,142,0.8791423001949318
1539,-1,-1,27,1327,44,142,0.8792207792207792
1540,1,1,28,1327,44,142,0.8792991563919533
1541,-1,-1,28,1328,44,142,0.8793774319066148
1542,-1,-1,28,1329,44,142,0.8794556059624109
1543,-1,-1,28,1330,44,142,0.8795336787564767
1544,-1,-1,28,1331,44,142,0.8796116504854369
1545,-1,-1,28,1332,44,142,0.8796895213454075
1546,-1,-1,28,1333,44,142,0.8797672915319974
1547,-1,-1,28,1334,44,142,0.8798449612403101
1548,-1,-1,28,1335,44,142,0.8799225306649451
1549,-1,-1,28,1336,44,142,0.88
1550,-1,-1,28,1337,44,142,0.8800773694390716
1551,-1,-1,28,1338,44,142,0.8801546391752577
1552,-1,-1,28,1339,44,142,0.8802318094011591
1553,-1,-1,28,1340,44,142,0.8803088803088803
1554,-1,-1,28,1341,44,142,0.8803858520900322
1555,-1,-1,28,1342,44,142,0.8804627249357326
1556,1,-1,28,1342,44,143,0.8798972382787412
1557,1,-1,28,1342,44,144,0.8793324775353016
1558,-1,-1,28,1343,44,144,0.8794098781270044
1559,-1,-1,28,1344,44,144,0.8794871794871795
1560,-1,-1,28,1345,44,144,0.8795643818065343
1561,-1,-1,28,1346,44,144,0.8796414852752881
1562,-1,-1,28,1347,44,144,0.8797184900831734
1563,-1,-1,28,1348,44,144,0.8797953964194374
1564,-1,-1,28,1349,44,144,0.8798722044728434
1565,-1,-1,28,1350,44,144,0.879948914431673
1566,-1,-1,28,1351,44,144,0.8800255264837269
1567,-1,-1,28,1352,44,144,0.8801020408163265
1568,-1,-1,28,1353,44,144,0.8801784576163161
1569,-1,-1,28,1354,44,144,0.8802547770700637
1570,-1,-1,28,1355,44,144,0.8803309993634627
1571,-1,-1,28,1356,44,144,0.8804071246819338
1572,-1,-1,28,1357,44,144,0.8804831532104259
1573,-1,-1,28,1358,44,144,0.8805590851334181
1574,-1,-1,28,1359,44,144,0.8806349206349207
1575,-1,-1,28,1360,44,144,0.8807106598984772
1576,-1,-1,28,1361,44,144,0.8807863031071655
1577,-1,-1,28,1362,44,144,0.8808618504435995
1578,-1,-1,28,1363,44,144,0.8809373020899304
1579,-1,1,28,1363,45,144,0.8803797468354431
1580,-1,-1,28,1364,45,144,0.8804554079696395
1581,-1,-1,28,1365,45,144,0.8805309734513275
1582,-1,-1,28,1366,45,144,0.8806064434617814
1583,-1,-1,28,1367,45,144,0.8806818181818182
1584,-1,-1,28,1368,45,144,0.8807570977917981
1585,-1,-1,28,1369,45,144,0.8808322824716267
1586,-1,-1,28,1370,45,144,0.8809073724007561
1587,-1,-1,28,1371,45,144,0.8809823677581864
1588,-1,-1,28,1372,45,144,0.8810572687224669
1589,-1,-1,28,1373,45,144,0.8811320754716981
1590,-1,-1,28,1374,45,144,0.8812067881835324
1591,-1,-1,28,1375,45,144,0.8812814070351759
1592,-1,-1,28,1376,45,144,0.8813559322033898
1593,-1,-1,28,1377,45,144,0.8814303638644918
1594,-1,-1,28,1378,45,144,0.8815047021943574
1595,-1,-1,28,1379,45,144,0.881578947368421
1596,-1,-1,28,1380,45,144,0.8816530995616781
1597,-1,-1,28,1381,45,144,0.8817271589486858
1598,-1,-1,28,1382,45,144,0.8818011257035647
1599,-1,-1,28,1383,45,144,0.881875
1600,1,-1,28,1383,45,145,0.8813241723922548
1601,-1,-1,28,1384,45,145,0.8813982521847691
1602,-1,-1,28,1385,45,145,0.8814722395508422
1603,-1,-1,28,1386,45,145,0.8815461346633416
1604,-1,-1,28,1387,45,145,0.881619937694704
1605,-1,-1,28,1388,45,145,0.8816936488169365
1606,-1,-1,28,1389,45,145,0.8817672682016179
1607,-1,-1,28,1390,45,145,0.8818407960199005
1608,-1,-1,28,1391,45,145,0.8819142324425109
1609,-1,-1,28,1392,45,145,0.8819875776397516
1610,-1,-1,28,1393,45,145,0.8820608317815022
1611,-1,-1,28,1394,45,145,0.8821339950372209
1612,-1,-1,28,1395,45,145,0.8822070675759455
1613,1,1,29,1395,45,145,0.8822800495662949
1614,-1,-1,29,1396,45,145,0.8823529411764706
1615,-1,-1,29,1397,45,145,0.8824257425742574
1616,-1,-1,29,1398,45,145,0.8824984539270253
1617,-1,-1,29,1399,45,145,0.8825710754017305
1618,-1,-1,29,1400,45,145,0.8826436071649166
1619,-1,-1,29,1401,45,145,0.8827160493827161
1620,-1,-1,29,1402,45,145,0.8827884022208513
1621,-1,-1,29,1403,45,145,0.8828606658446363
1622,-1,-1,29,1404,45,145,0.8829328404189772
1623,-1,-1,29,1405,45,145,0.8830049261083743
1624,-1,-1,29,1406,45,145,0.8830769230769231
1625,-1,-1,29,1407,45,145,0.8831488314883149
1626,-1,-1,29,1408,45,145,0.883220651505839
1627,-1,-1,29,1409,45,145,0.8832923832923832
1628,-1,-1,29,1410,45,145,0.8833640270104358
1629,-1,-1,29,1411,45,145,0.8834355828220859
1630,-1,-1,29,1412,45,145,0.8835070508890251
1631,-1,-1,29,1413,45,145,0.883578431372549
1632,1,1,30,1413,45,145,0.8836497244335578
1633,-1,1,30,1413,46,145,0.883108935128519
1634,-1,-1,30,1414,46,145,0.8831804281345565
1635,-1,-1,30,1415,46,145,0.8832518337408313
1636,-1,-1,30,1416,46,145,0.8833231521075138
1637,-1,-1,30,1417,46,145,0.8833943833943834
1638,-1,-1,30,1418,46,145,0.8834655277608298
1639,-1,-1,30,1419,46,145,0.8835365853658537
1640,-1,-1,30,1420,46,145,0.8836075563680682
1641,-1,-1,30,1421,46,145,0.8836784409257004
1642,-1,-1,30,1422,46,145,0.8837492391965917
1643,-1,-1,30,1423,46,145,0.8838199513381995
1644,-1,-1,30,1424,46,145,0.8838905775075988
1645,-1,-1,30,1425,46,145,0.8839611178614823
1646,-1,-1,30,1426,46,145,0.8840315725561627
1647,-1,-1,30,1427,46,145,0.8841019417475728
1648,1,-1,30,1427,46,146,0.8835657974530018
1649,-1,-1,30,1428,46,146,0.8836363636363637
1650,-1,-1,30,1429,46,146,0.8837068443367656
1651,-1,-1,30,1430,46,146,0.8837772397094431
1652,-1,-1,30,1431,46,146,0.8838475499092558
1653,-1,-1,30,1432,46,146,0.8839177750906893
1654,-1,-1,30,1433,46,146,0.8839879154078549
1655,1,1,31,1433,46,146,0.8840579710144928
1656,-1,-1,31,1434,46,146,0.884127942063971
1657,-1,-1,31,1435,46,146,0.8841978287092883
1658,-1,-1,31,1436,46,146,0.8842676311030742
1659,1,-1,31,1436,46,147,0.8837349397590362
1660,-1,-1,31,1437,46,147,0.8838049367850692
1661,-1,-1,31,1438,46,147,0.8838748495788207
1662,-1,-1,31,1439,46,147,0.8839446782922429
1663,-1,-1,31,1440,46,147,0.8840144230769231
1664,-1,-1,31,1441,46,147,0.8840840840840841
1665,-1,-1,31,1442,46,147,0.8841536614645858
1666,-1,-1,31,1443,46,147,0.8842231553689263
1667,-1,-1,31,1444,46,147,0.8842925659472423
1668,-1,-1,31,1445,46,147,0.8843618933493109
1669,-1,-1,31,1446,46,147,0.884431137724551
1670,-1,-1,31,1447,46,147,0.8845002992220228
1671,1,-1,31,1447,46,148,0.8839712918660287
1672,-1,-1,31,1448,46,148,0.8840406455469217
1673,-1,-1,31,1449,46,148,0.8841099163679809
1674,-1,-1,31,1450,46,148,0.8841791044776119
1675,-1,-1,31,1451,46,148,0.8842482100238663
1676,1,-1,31,1451,46,149,0.8837209302325582
1677,-1,-1,31,1452,46,149,0.8837902264600715
1678,-1,-1,31,1453,46,149,0.8838594401429423
1679,-1,-1,31,1454,46,149,0.8839285714285714
1680,-1,-1,31,1455,46,149,0.8839976204640095
1681,-1,-1,31,1456,46,149,0.8840665873959572
1682,-1,-1,31,1457,46,149,0.8841354723707665
1683,1,-1,31,1457,46,150,0.8836104513064132
1684,-1,-1,31,1458,46,150,0.8836795252225519
1685,1,-1,31,1458,46,151,0.8831553973902728
1686,-1,-1,31,1459,46,151,0.8832246591582691
1687,1,-1,31,1459,46,152,0.8827014218009479
1688,-1,-1,31,1460,46,152,0.8827708703374778
1689,-1,-1,31,1461,46,152,0.8828402366863906
1690,-1,-1,31,1462,46,152,0.882909520993495
1691,1,-1,31,1462,46,153,0.8823877068557919
1692,-1,-1,31,1463,46,153,0.8824571766095688
1693,-1,-1,31,1464,46,153,0.8825265643447462
1694,-1,-1,31,1465,46,153,0.8825958702064897
1695,-1,-1,31,1466,46,153,0.8826650943396226
1696,-1,-1,31,1467,46,153,0.882734236888627
1697,-1,-1,31,1468,46,153,0.8828032979976443
1698,-1,-1,31,1469,46,153,0.8828722778104767
1699,-1,-1,31,1470,46,153,0.8829411764705882
1700,-1,-1,31,1471,46,153,0.8830099941211053
1701,-1,-1,31,1472,46,153,0.8830787309048178
1702,-1,-1,31,1473,46,153,0.8831473869641808
1703,-1,-1,31,1474,46,153,0.8832159624413145
1704,-1,-1,31,1475,46,153,0.8832844574780059
1705,-1,-1,31,1476,46,153,0.8833528722157092
1706,-1,-1,31,1477,46,153,0.8834212067955477
1707,-1,-1,31,1478,46,153,0.8834894613583139
1708,-1,-1,31,1479,46,153,0.8835576360444705
1709,-1,-1,31,1480,46,153,0.8836257309941521
1710,-1,-1,31,1481,46,153,0.8836937463471654
1711,-1,-1,31,1482,46,153,0.8837616822429907
1712,-1,1,31,1482,47,153,0.8832457676590777
1713,1,-1,31,1482,47,154,0.882730455075846
1714,-1,-1,31,1483,47,154,0.882798833819242
1715,-1,-1,31,1484,47,154,0.8828671328671329
1716,-1,-1,31,1485,47,154,0.8829353523587653
1717,-1,-1,31,1486,47,154,0.8830034924330618
1718,-1,-1,31,1487,47,154,0.8830715532286213
1719,-1,-1,31,1488,47,154,0.8831395348837209
1720,-1,-1,31,1489,47,154,0.8832074375363161
1721,1,-1,31,1489,47,155,0.8826945412311266
1722,-1,-1,31,1490,47,155,0.8827626233313988
1723,-1,-1,31,1491,47,155,0.882830626450116
1724,-1,-1,31,1492,47,155,0.8828985507246376
1725,-1,1,31,1492,48,155,0.8823870220162224
1726,-1,-1,31,1493,48,155,0.8824551244933411
1727,-1,-1,31,1494,48,155,0.8825231481481481
1728,-1,-1,31,1495,48,155,0.8825910931174089
1729,1,1,32,1495,48,155,0.8826589595375722
1730,-1,-1,32,1496,48,155,0.8827267475447718
1731,-1,-1,32,1497,48,155,0.8827944572748267
1732,-1,-1,32,1498,48,155,0.8828620888632429
1733,-1,-1,32,1499,48,155,0.8829296424452133
1734,-1,-1,32,1500,48,155,0.8829971181556195
1735,-1,-1,32,1501,48,155,0.8830645161290323
1736,-1,-1,32,1502,48,155,0.8831318364997122
1737,-1,-1,32,1503,48,155,0.883199079401611
1738,-1,-1,32,1504,48,155,0.8832662449683726
1739,-1,-1,32,1505,48,155,0.8833333333333333
1740,-1,-1,32,1506,48,155,0.8834003446295232
1741,-1,-1,32,1507,48,155,0.883467278989667
1742,1,-1,32,1507,48,156,0.882960413080895
1743,-1,-1,32,1508,48,156,0.8830275229357798
1744,-1,-1,32,1509,48,156,0.8830945558739255
1745,-1,-1,32,1510,48,156,0.8831615120274914
1746,-1,-1,32,1511,48,156,0.8832283915283343
1747,-1,-1,32,1512,48,156,0.8832951945080092
1748,-1,-1,32,1513,48,156,0.8833619210977701
1749,-1,-1,32,1514,48,156,0.8834285714285715
1750,1,-1,32,1514,48,157,0.8829240434037693
1751,-1,-1,32,1515,48,157,0.8829908675799086
1752,-1,-1,32,1516,48,157,0.8830576155162578
1753,-1,-1,32,1517,48,157,0.8831242873432155
1754,-1,-1,32,1518,48,157,0.8831908831908832
1755,-1,-1,32,1519,48,157,0.8832574031890661
1756,-1,-1,32,1520,48,157,0.8833238474672738
1757,-1,-1,32,1521,48,157,0.8833902161547212
1758,-1,-1,32,1522,48,157,0.8834565093803297
1759,-1,-1,32,1523,48,157,0.8835227272727273
1760,-1,-1,32,1524,48,157,0.8835888699602499
1761,-1,-1,32,1525,48,157,0.8836549375709422
1762,-1,-1,32,1526,48,157,0.8837209302325582
1763,-1,-1,32,1527,48,157,0.8837868480725624
1764,-1,-1,32,1528,48,157,0.8838526912181303
1765,-1,-1,32,1529,48,157,0.8839184597961495
1766,-1,-1,32,1530,48,157,0.8839841539332202
1767,-1,-1,32,1531,48,157,0.8840497737556561
1768,-1,-1,32,1532,48,157,0.8841153193894856
1769,-1,-1,32,1533,48,157,0.884180790960452
1770,-1,-1,32,1534,48,157,0.8842461885940147
1771,-1,-1,32,1535,48,157,0.8843115124153499
1772,1,-1,32,1535,48,158,0.8838127467569092
1773,-1,-1,32,1536,48,158,0.8838782412626832
1774,-1,-1,32,1537,48,158,0.8839436619718309
1775,-1,-1,32,1538,48,158,0.884009009009009
1776,-1,-1,32,1539,48,158,0.8840742824985931
1777,-1,-1,32,1540,48,158,0.8841394825646794
1778,1,-1,32,1540,48,159,0.8836424957841484
1779,-1,-1,32,1541,48,159,0.8837078651685393
1780,-1,-1,32,1542,48,159,0.8837731611454239
1781,-1,-1,32,1543,48,159,0.8838383838383839
1782,-1,-1,32,1544,48,159,0.8839035333707235
1783,1,-1,32,1544,48,160,0.8834080717488789
1784,-1,-1,32,1545,48,160,0.8834733893557423
1785,-1,-1,32,1546,48,160,0.883538633818589
1786,-1,-1,32,1547,48,160,0.8836038052602126
1787,-1,-1,32,1548,48,160,0.883668903803132
1788,-1,-1,32,1549,48,160,0.883733929569592
1789,-1,-1,32,1550,48,160,0.8837988826815643
1790,-1,-1,32,1551,48,160,0.8838637632607482
1791,-1,-1,32,1552,48,160,0.8839285714285714
1792,-1,-1,32,1553,48,160,0.8839933073061907
1793,-1,-1,32,1554,48,160,0.8840579710144928
1794,-1,-1,32,1555,48,160,0.8841225626740947
1795,-1,-1,32,1556,48,160,0.8841870824053452
1796,-1,-1,32,1557,48,160,0.8842515303283249
1797,-1,-1,32,1558,48,160,0.8843159065628476
1798,-1,-1,32,1559,48,160,0.8843802112284602
1799,-1,-1,32,1560,48,160,0.8844444444444445
1800,-1,-1,32,1561,48,160,0.8845086063298168
1801,-1,-1,32,1562,48,160,0.8845726970033296
1802,-1,-1,32,1563,48,160,0.884636716583472
1803,-1,-1,32,1564,48,160,0.88470066518847
1804,-1,-1,32,1565,48,160,0.884764542936288
1805,1,-1,32,1565,48,161,0.8842746400885936
1806,-1,-1,32,1566,48,161,0.884338682899834
1807,-1,-1,32,1567,48,161,0.8844026548672567
1808,-1,-1,32,1568,48,161,0.8844665561083471
1809,1,-1,32,1568,48,162,0.8839779005524862
1810,-1,-1,32,1569,48,162,0.8840419657647709
1811,-1,-1,32,1570,48,162,0.8841059602649006
1812,-1,-1,32,1571,48,162,0.8841698841698842
1813,-1,-1,32,1572,48,162,0.8842337375964718
1814,-1,-1,32,1573,48,162,0.8842975206611571
1815,-1,-1,32,1574,48,162,0.8843612334801763
1816,-1,-1,32,1575,48,162,0.8844248761695102
1817,-1,-1,32,1576,48,162,0.8844884488448845
1818,-1,-1,32,1577,48,162,0.8845519516217702
1819,-1,1,32,1577,49,162,0.884065934065934
1820,1,-1,32,1577,49,163,0.8835804503020318
1821,-1,-1,32,1578,49,163,0.8836443468715697
1822,-1,-1,32,1579,49,163,0.8837081733406473
1823,-1,-1,32,1580,49,163,0.8837719298245614
1824,-1,-1,32,1581,49,163,0.8838356164383562
1825,-1,-1,32,1582,49,163,0.8838992332968236
1826,1,-1,32,1582,49,164,0.8834154351395731
1827,-1,-1,32,1583,49,164,0.8834792122538293
1828,-1,-1,32,1584,49,164,0.8835429196282122
1829,-1,-1,32,1585,49,164,0.8836065573770492
1830,-1,-1,32,1586,49,164,0.8836701256144184
1831,-1,-1,32,1587,49,164,0.8837336244541485
1832,-1,-1,32,1588,49,164,0.88379705400982
1833,1,1,33,1588,49,164,0.8838604143947656
1834,-1,-1,33,1589,49,164,0.8839237057220708
1835,-1,-1,33,1590,49,164,0.8839869281045751
1836,-1,-1,33,1591,49,164,0.8840500816548721
1837,-1,-1,33,1592,49,164,0.8841131664853101
1838,-1,-1,33,1593,49,164,0.8841761827079935
1839,-1,-1,33,1594,49,164,0.8842391304347826
1840,1,-1,33,1594,49,165,0.8837588267246062
1841,-1,-1,33,1595,49,165,0.8838219326818675
1842,-1,-1,33,1596,49,165,0.8838849701573521
1843,1,-1,33,1596,49,166,0.8834056399132321
1844,-1,-1,33,1597,49,166,0.8834688346883469
1845,-1,-1,33,1598,49,166,0.8835319609967497
1846,-1,-1,33,1599,49,166,0.8835950189496481
1847,-1,-1,33,1600,49,166,0.8836580086580087
1848,-1,-1,33,1601,49,166,0.8837209302325582
1849,-1,-1,33,1602,49,166,0.8837837837837837
1850,-1,-1,33,1603,49,166,0.8838465694219341
1851,-1,-1,33,1604,49,166,0.8839092872570194
1852,-1,-1,33,1605,49,166,0.8839719373988127
1853,-1,-1,33,1606,49,166,0.88403451995685
1854,-1,-1,33,1607,49,166,0.8840970350404312
1855,-1,-1,33,1608,49,166,0.8841594827586207
1856,1,-1,33,1608,49,167,0.8836833602584814
1857,-1,-1,33,1609,49,167,0.883745963401507
1858,-1,-1,33,1610,49,167,0.8838084991931145
1859,-1,-1,33,1611,49,167,0.8838709677419355
1860,1,-1,33,1611,49,168,0.8833960236432026
1861,-1,-1,33,1612,49,168,0.8834586466165414
1862,-1,-1,33,1613,49,168,0.8835212023617821
1863,-1,-1,33,1614,49,168,0.8835836909871244
1864,-1,-1,33,1615,49,168,0.8836461126005362
1865,-1,-1,33,1616,49,168,0.8837084673097535
1866,1,-1,33,1616,49,169,0.8832351365827531
1867,-1,-1,33,1617,49,169,0.8832976445396146
1868,-1,-1,33,1618,49,169,0.8833600856072766
1869,1,-1,33,1618,49,170,0.8828877005347594
1870,-1,-1,33,1619,49,170,0.882950293960449
1871,-1,-1,33,1620,49,170,0.8830128205128205
1872,-1,-1,33,1621,49,170,0.8830752802989856
1873,-1,-1,33,1622,49,170,0.8831376734258272
1874,1,-1,33,1622,49,171,0.8826666666666667
1875,-1,-1,33,1623,49,171,0.8827292110874201
1876,-1,-1,33,1624,49,171,0.8827916888652104
1877,-1,-1,33,1625,49,171,0.8828541001064962
1878,-1,-1,33,1626,49,171,0.8829164449175093
1879,-1,-1,33,1627,49,171,0.8829787234042553
1880,-1,-1,33,1628,49,171,0.8830409356725146
1881,-1,-1,33,1629,49,171,0.8831030818278427
1882,-1,-1,33,1630,49,171,0.8831651619755709
1883,-1,-1,33,1631,49,171,0.8832271762208068
1884,-1,-1,33,1632,49,171,0.883289124668435
1885,-1,-1,33,1633,49,171,0.8833510074231177
1886,1,1,34,1633,49,171,0.8834128245892952
1887,-1,-1,34,1634,49,171,0.8834745762711864
1888,-1,-1,34,1635,49,171,0.8835362625727898
1889,-1,-1,34,1636,49,171,0.8835978835978836
1890,-1,-1,34,1637,49,171,0.8836594394500265
1891,1,-1,34,1637,49,172,0.8831923890063424
1892,-1,-1,34,1638,49,172,0.8832540940306391
1893,-1,-1,34,1639,49,172,0.8833157338965153
1894,-1,-1,34,1640,49,172,0.883377308707124
1895,1,1,35,1640,49,172,0.8834388185654009
1896,-1,-1,35,1641,49,172,0.8835002635740643
1897,1,-1,35,1641,49,173,0.8830347734457323
1898,-1,-1,35,1642,49,173,0.8830963665086888
1899,-1,-1,35,1643,49,173,0.8831578947368421
1900,1,-1,35,1643,49,174,0.8826933193056287
1901,-1,-1,35,1644,49,174,0.8827549947423764
1902,-1,-1,35,1645,49,174,0.882816605359958
1903,-1,-1,35,1646,49,174,0.8828781512605042
1904,-1,-1,35,1647,49,174,0.8829396325459318
1905,-1,-1,35,1648,49,174,0.8830010493179433
1906,-1,-1,35,1649,49,174,0.8830624016780283
1907,-1,-1,35,1650,49,174,0.8831236897274634
1908,-1,-1,35,1651,49,174,0.8831849135673128
1909,-1,-1,35,1652,49,174,0.8832460732984293
1910,-1,-1,35,1653,49,174,0.8833071690214548
1911,-1,-1,35,1654,49,174,0.8833682008368201
1912,-1,-1,35,1655,49,174,0.8834291688447464
1913,-1,-1,35,1656,49,174,0.8834900731452455
1914,-1,-1,35,1657,49,174,0.8835509138381201
1915,-1,-1,35,1658,49,174,0.8836116910229646
1916,-1,-1,35,1659,49,174,0.8836724047991653
1917,1,1,36,1659,49,174,0.883733055265902
1918,-1,-1,36,1660,49,174,0.883793642522147
1919,-1,-1,36,1661,49,174,0.8838541666666667
1920,-1,-1,36,1662,49,174,0.8839146277980219
1921,-1,1,36,1662,50,174,0.8834547346514048
1922,-1,-1,36,1663,50,174,0.8835153406136246
1923,-1,-1,36,1664,50,174,0.8835758835758836
1924,-1,-1,36,1665,50,174,0.8836363636363637
1925,-1,-1,36,1666,50,174,0.8836967808930426
1926,-1,-1,36,1667,50,174,0.8837571354436948
1927,-1,-1,36,1668,50,174,0.8838174273858921
1928,-1,-1,36,1669,50,174,0.8838776568170036
1929,-1,-1,36,1670,50,174,0.883937823834197
1930,-1,1,36,1670,51,174,0.8834800621439669
1931,-1,-1,36,1671,51,174,0.8835403726708074
1932,-1,-1,36,1672,51,174,0.8836006207966891
1933,-1,-1,36,1673,51,174,0.8836608066184074
1934,-1,-1,36,1674,51,174,0.8837209302325582
1935,-1,-1,36,1675,51,174,0.8837809917355371
1936,-1,-1,36,1676,51,174,0.8838409912235415
1937,-1,-1,36,1677,51,174,0.8839009287925697
1938,1,-1,36,1677,51,175,0.8834450747808148
1939,-1,-1,36,1678,51,175,0.8835051546391752
1940,-1,-1,36,1679,51,175,0.8835651725914477
1941,-1,-1,36,1680,51,175,0.8836251287332647
1942,-1,-1,36,1681,51,175,0.8836850231600618
1943,1,-1,36,1681,51,176,0.8832304526748971
1944,-1,-1,36,1682,51,176,0.8832904884318766
1945,-1,-1,36,1683,51,176,0.8833504624871531
1946,1,-1,36,1683,51,177,0.8828967642526965
1947,-1,-1,36,1684,51,177,0.8829568788501027
1948,-1,-1,36,1685,51,177,0.8830169317598768
1949,-1,-1,36,1686,51,177,0.8830769230769231
1950,-1,-1,36,1687,51,177,0.8831368528959508
1951,-1,-1,36,1688,51,177,0.8831967213114754
1952,-1,-1,36,1689,51,177,0.8832565284178188
1953,-1,-1,36,1690,51,177,0.8833162743091095
1954,-1,-1,36,1691,51,177,0.8833759590792839
1955,-1,-1,36,1692,51,177,0.8834355828220859
1956,-1,-1,36,1693,51,177,0.883495145631068
1957,-1,-1,36,1694,51,177,0.8835546475995915
1958,-1,-1,36,1695,51,177,0.8836140888208269
1959,-1,-1,36,1696,51,177,0.8836734693877552
1960,-1,-1,36,1697,51,177,0.8837327893931668
1961,-1,-1,36,1698,51,177,0.8837920489296636
1962,-1,-1,36,1699,51,177,0.8838512480896586
1963,-1,-1,36,1700,51,177,0.8839103869653768
1964,-1,-1,36,1701,51,177,0.8839694656488549
1965,-1,-1,36,1702,51,177,0.884028484231943
1966,-1,-1,36,1703,51,177,0.884087442806304
1967,-1,-1,36,1704,51,177,0.8841463414634146
1968,1,1,37,1704,51,177,0.8842051802945657
1969,-1,-1,37,1705,51,177,0.884263959390863
1970,-1,-1,37,1706,51,177,0.8843226788432268
1971,-1,-1,37,1707,51,177,0.8843813387423936
1972,-1,-1,37,1708,51,177,0.8844399391789154
1973,-1,-1,37,1709,51,177,0.8844984802431611
1974,-1,-1,37,1710,51,177,0.8845569620253164
1975,-1,-1,37,1711,51,177,0.8846153846153846
1976,-1,-1,37,1712,51,177,0.8846737481031867
1977,-1,-1,37,1713,51,177,0.884732052578362
1978,-1,-1,37,1714,51,177,0.8847902981303689
1979,-1,-1,37,1715,51,177,0.8848484848484849
1980,-1,-1,37,1716,51,177,0.8849066128218072
1981,-1,-1,37,1717,51,177,0.8849646821392533
1982,-1,-1,37,1718,51,177,0.8850226928895613
1983,1,-1,37,1718,51,178,0.8845766129032258
1984,-1,-1,37,1719,51,178,0.8846347607052897
1985,-1,-1,37,1720,51,178,0.8846928499496476
1986,-1,-1,37,1721,51,178,0.8847508807247106
1987,-1,-1,37,1722,51,178,0.8848088531187123
1988,-1,-1,37,1723,51,178,0.8848667672197084
1989,-1,-1,37,1724,51,178,0.8849246231155778
1990,-1,-1,37,1725,51,178,0.8849824208940231
1991,-1,-1,37,1726,51,178,0.8850401606425703
1992,-1,-1,37,1727,51,178,0.88509784244857
1993,-1,-1,37,1728,51,178,0.8851554663991976
1994,1,-1,37,1728,51,179,0.8847117794486216
1995,-1,-1,37,1729,51,179,0.8847695390781564
1996,-1,-1,37,1730,51,179,0.8848272408612919
1997,-1,-1,37,1731,51,179,0.8848848848848849
1998,1,-1,37,1731,51,180,0.8844422211105553
1999,-1,-1,37,1732,51,180,0.8845
2000,-1,-1,37,1733,51,180,0.8845577211394303
2001,-1,-1,37,1734,51,180,0.8846153846153846
2002,-1,-1,37,1735,51,180,0.8846729905142287
2003,-1,-1,37,1736,51,180,0.8847305389221557
2004,-1,-1,37,1737,51,180,0.884788029925187
2005,-1,-1,37,1738,51,180,0.8848454636091725
2006,-1,-1,37,1739,51,180,0.8849028400597907
2007,1,1,38,1739,51,180,0.8849601593625498
2008,-1,-1,38,1740,51,180,0.8850174216027874
2009,-1,-1,38,1741,51,180,0.8850746268656716
2010,-1,-1,38,1742,51,180,0.8851317752362009
2011,-1,-1,38,1743,51,180,0.8851888667992047
2012,-1,-1,38,1744,51,180,0.8852459016393442
2013,-1,-1,38,1745,51,180,0.8853028798411122
2014,1,-1,38,1745,51,181,0.884863523573201
2015,-1,-1,38,1746,51,181,0.8849206349206349
2016,-1,-1,38,1747,51,181,0.8849776896380763
2017,-1,-1,38,1748,51,181,0.8850346878097126
2018,-1,-1,38,1749,51,181,0.8850916295195641
2019,-1,-1,38,1750,51,181,0.8851485148514852
2020,-1,-1,38,1751,51,181,0.8852053438891638
2021,1,-1,38,1751,51,182,0.8847675568743818
2022,-1,-1,38,1752,51,182,0.8848245180425112
2023,-1,-1,38,1753,51,182,0.8848814229249012
2024,-1,-1,38,1754,51,182,0.8849382716049383
2025,-1,-1,38,1755,51,182,0.8849950641658441
2026,-1,-1,38,1756,51,182,0.8850518006906759
2027,-1,-1,38,1757,51,182,0.8851084812623274
2028,-1,-1,38,1758,51,182,0.8851651059635288
2029,-1,-1,38,1759,51,182,0.8852216748768473
2030,-1,-1,38,1760,51,182,0.8852781880846874
2031,-1,-1,38,1761,51,182,0.8853346456692913
2032,-1,-1,38,1762,51,182,0.8853910477127398
2033,-1,-1,38,1763,51,182,0.8854473942969519
2034,-1,-1,38,1764,51,182,0.8855036855036855
2035,-1,-1,38,1765,51,182,0.8855599214145383
2036,-1,-1,38,1766,51,182,0.8856161021109474
2037,-1,-1,38,1767,51,182,0.8856722276741904
2038,-1,-1,38,1768,51,182,0.885728298185385
2039,1,-1,38,1768,51,183,0.8852941176470588
2040,-1,-1,38,1769,51,183,0.8853503184713376
2041,-1,-1,38,1770,51,183,0.8854064642507345
2042,-1,-1,38,1771,51,183,0.8854625550660793
2043,1,-1,38,1771,51,184,0.8850293542074364
2044,-1,-1,38,1772,51,184,0.8850855745721271
2045,-1,-1,38,1773,51,184,0.8851417399804496
2046,-1,-1,38,1774,51,184,0.8851978505129457
2047,-1,-1,38,1775,51,184,0.88525390625
2048,1,-1,38,1775,51,185,0.8848218643240605
2049,-1,-1,38,1776,51,185,0.8848780487804878
2050,1,1,39,1776,51,185,0.8849341784495368
2051,-1,-1,39,1777,51,185,0.884990253411306
2052,1,1,40,1777,51,185,0.885046273745738
2053,-1,-1,40,1778,51,185,0.8851022395326192
2054,-1,-1,40,1779,51,185,0.8851581508515816
2055,-1,-1,40,1780,51,185,0.8852140077821011
2056,-1,-1,40,1781,51,185,0.8852698104035003
2057,-1,-1,40,1782,51,185,0.8853255587949466
2058,-1,1,40,1782,52,185,0.8848955803788247
2059,-1,-1,40,1783,52,185,0.8849514563106796
2060,-1,-1,40,1784,52,185,0.8850072780203785
2061,-1,-1,40,1785,52,185,0.8850630455868089
2062,-1,-1,40,1786,52,185,0.8851187590887057
2063,-1,-1,40,1787,52,185,0.8851744186046512
2064,1,-1,40,1787,52,186,0.8847457627118644
2065,-1,-1,40,1788,52,186,0.8848015488867377
2066,-1,-1,40,1789,52,186,0.8848572810836962
2067,-1,-1,40,1790,52,186,0.8849129593810445
2068,-1,-1,40,1791,52,186,0.8849685838569357
2069,-1,-1,40,1792,52,186,0.885024154589372
2070,-1,-1,40,1793,52,186,0.8850796716562047
2071,-1,-1,40,1794,52,186,0.8851351351351351
2072,-1,-1,40,1795,52,186,0.8851905451037144
2073,-1,-1,40,1796,52,186,0.8852459016393442
2074,-1,-1,40,1797,52,186,0.8853012048192771
2075,-1,-1,40,1798,52,186,0.8853564547206165
2076,-1,-1,40,1799,52,186,0.8854116514203177
2077,-1,-1,40,1800,52,186,0.8854667949951877
2078,-1,-1,40,1801,52,186,0.8855218855218855
2079,-1,-1,40,1802,52,186,0.885576923076923
2080,-1,-1,40,1803,52,186,0.8856319077366651
2081,-1,-1,40,1804,52,186,0.8856868395773295
2082,-1,-1,40,1805,52,186,0.885741718674988
2083,-1,-1,40,1806,52,186,0.8857965451055663
2084,-1,-1,40,1807,52,186,0.8858513189448441
2085,-1,-1,40,1808,52,186,0.8859060402684564
2086,-1,-1,40,1809,52,186,0.8859607091518926
2087,-1,-1,40,1810,52,186,0.8860153256704981
2088,-1,-1,40,1811,52,186,0.8860698898994734
2089,-1,-1,40,1812,52,186,0.8861244019138756
2090,-1,-1,40,1813,52,186,0.8861788617886179
2091,-1,-1,40,1814,52,186,0.8862332695984704
2092,-1,-1,40,1815,52,186,0.8862876254180602
2093,-1,-1,40,1816,52,186,0.8863419293218721
2094,-1,-1,40,1817,52,186,0.8863961813842482
2095,-1,-1,40,1818,52,186,0.8864503816793893
2096,-1,-1,40,1819,52,186,0.8865045302813543
2097,-1,-1,40,1820,52,186,0.886558627264061
2098,-1,-1,40,1821,52,186,0.8866126727012863
2099,-1,-1,40,1822,52,186,0.8866666666666667
2100,-1,-1,40,1823,52,186,0.8867206092336982
2101,-1,-1,40,1824,52,186,0.8867745004757374
2102,-1,-1,40,1825,52,186,0.8868283404660009
2103,-1,-1,40,1826,52,186,0.8868821292775665
2104,-1,-1,40,1827,52,186,0.8869358669833729
2105,-1,-1,40,1828,52,186,0.8869895536562203
2106,-1,-1,40,1829,52,186,0.8870431893687708
2107,-1,-1,40,1830,52,186,0.8870967741935484
2108,-1,-1,40,1831,52,186,0.8871503082029398
2109,-1,-1,40,1832,52,186,0.8872037914691943
2110,-1,-1,40,1833,52,186,0.8872572240644244
2111,-1,-1,40,1834,52,186,0.8873106060606061
2112,-1,-1,40,1835,52,186,0.8873639375295788
2113,-1,-1,40,1836,52,186,0.8874172185430463
2114,-1,-1,40,1837,52,186,0.8874704491725768
2115,-1,-1,40,1838,52,186,0.8875236294896031
2116,-1,-1,40,1839,52,186,0.8875767595654228
2117,-1,1,40,1839,53,186,0.8871576959395656
2118,1,-1,40,1839,53,187,0.8867390278433224
2119,-1,-1,40,1840,53,187,0.8867924528301887
2120,-1,-1,40,1841,53,187,0.8868458274398868
2121,-1,-1,40,1842,53,187,0.8868991517436381
2122,-1,-1,40,1843,53,187,0.8869524258125294
2123,-1,-1,40,1844,53,187,0.8870056497175142
2124,-1,-1,40,1845,53,187,0.8870588235294118
2125,-1,-1,40,1846,53,187,0.8871119473189087
2126,-1,-1,40,1847,53,187,0.8871650211565585
2127,-1,-1,40,1848,53,187,0.8872180451127819
2128,-1,-1,40,1849,53,187,0.8872710192578676
2129,-1,-1,40,1850,53,187,0.8873239436619719
2130,-1,-1,40,1851,53,187,0.8873768183951196
2131,-1,-1,40,1852,53,187,0.8874296435272045
2132,-1,-1,40,1853,53,187,0.8874824191279888
2133,-1,-1,40,1854,53,187,0.887535145267104
2134,-1,-1,40,1855,53,187,0.8875878220140515
2135,1,1,41,1855,53,187,0.8876404494382022
2136,-1,-1,41,1856,53,187,0.8876930276087974
2137,-1,-1,41,1857,53,187,0.8877455565949486
2138,-1,-1,41,1858,53,187,0.8877980364656382
2139,1,1,42,1858,53,187,0.8878504672897196
2140,-1,-1,42,1859,53,187,0.8879028491359178
2141,-1,-1,42,1860,53,187,0.8879551820728291
2142,-1,-1,42,1861,53,187,0.8880074661689221
2143,-1,-1,42,1862,53,187,0.8880597014925373
2144,-1,-1,42,1863,53,187,0.8881118881118881
2145,-1,-1,42,1864,53,187,0.8881640260950606
2146,-1,-1,42,1865,53,187,0.888216115510014
2147,-1,-1,42,1866,53,187,0.888268156424581
2148,-1,-1,42,1867,53,187,0.8883201489064682
2149,-1,-1,42,1868,53,187,0.8883720930232558
2150,-1,-1,42,1869,53,187,0.8884239888423989
2151,-1,-1,42,1870,53,187,0.8884758364312267
2152,-1,-1,42,1871,53,187,0.8885276358569438
2153,1,1,43,1871,53,187,0.8885793871866295
2154,-1,-1,43,1872,53,187,0.888631090487239
2155,-1,-1,43,1873,53,187,0.8886827458256029
2156,1,1,44,1873,53,187,0.8887343532684284
2157,-1,-1,44,1874,53,187,0.8887859128822985
2158,-1,-1,44,1875,53,187,0.888837424733673
2159,1,-1,44,1875,53,188,0.888425925925926
2160,-1,-1,44,1876,53,188,0.8884775566867191
2161,-1,-1,44,1877,53,188,0.8885291396854764
2162,-1,-1,44,1878,53,188,0.888580674988442
2163,-1,-1,44,1879,53,188,0.8886321626617375
2164,-1,-1,44,1880,53,188,0.8886836027713626
2165,-1,-1,44,1881,53,188,0.8887349953831948
2166,-1,-1,44,1882,53,188,0.8887863405629903
2167,-1,-1,44,1883,53,188,0.8888376383763837
2168,-1,-1,44,1884,53,188,0.8888888888888888
2169,1,-1,44,1884,53,189,0.8884792626728111
2170,-1,-1,44,1885,53,189,0.8885306310456011
2171,-1,-1,44,1886,53,189,0.8885819521178637
2172,-1,-1,44,1887,53,189,0.888633225954901
2173,-1,-1,44,1888,53,189,0.8886844526218951
2174,-1,-1,44,1889,53,189,0.888735632183908
2175,-1,-1,44,1890,53,189,0.8887867647058824
2176,-1,-1,44,1891,53,189,0.8888378502526413
2177,-1,-1,44,1892,53,189,0.8888888888888888
2178,-1,-1,44,1893,53,189,0.8889398806792106
2179,-1,-1,44,1894,53,189,0.8889908256880734
2180,-1,-1,44,1895,53,189,0.8890417239798257
2181,-1,-1,44,1896,53,189,0.8890925756186985
2182,-1,-1,44,1897,53,189,0.8891433806688044
2183,-1,-1,44,1898,53,189,0.8891941391941391
2184,-1,-1,44,1899,53,189,0.8892448512585812
2185,-1,-1,44,1900,53,189,0.889295516925892
2186,-1,-1,44,1901,53,189,0.8893461362597165
2187,-1,-1,44,1902,53,189,0.8893967093235832
2188,-1,-1,44,1903,53,189,0.8894472361809045
2189,-1,-1,44,1904,53,189,0.8894977168949771
2190,-1,1,44,1904,54,189,0.8890917389319946
2191,-1,-1,44,1905,54,189,0.8891423357664233
2192,-1,-1,44,1906,54,189,0.8891928864569083
2193,-1,-1,44,1907,54,189,0.8892433910665452
2194,1,-1,44,1907,54,190,0.8888382687927107
2195,-1,-1,44,1908,54,190,0.8888888888888888
2196,1,-1,44,1908,54,191,0.8884842967683204
2197,-1,-1,44,1909,54,191,0.8885350318471338
2198,1,-1,44,1909,54,192,0.888130968622101
2199,-1,-1,44,1910,54,192,0.8881818181818182
2200,-1,-1,44,1911,54,192,0.8882326215356656
2201,-1,-1,44,1912,54,192,0.888283378746594
2202,-1,-1,44,1913,54,192,0.8883340898774399
2203,-1,-1,44,1914,54,192,0.8883847549909256
2204,-1,-1,44,1915,54,192,0.8884353741496599
2205,-1,-1,44,1916,54,192,0.8884859474161378
2206,-1,-1,44,1917,54,192,0.8885364748527412
2207,-1,-1,44,1918,54,192,0.8885869565217391
2208,-1,-1,44,1919,54,192,0.8886373924852875
2209,-1,-1,44,1920,54,192,0.8886877828054298
2210,-1,-1,44,1921,54,192,0.8887381275440976
2211,-1,-1,44,1922,54,192,0.8887884267631103
2212,-1,-1,44,1923,54,192,0.8888386805241754
2213,-1,-1,44,1924,54,192,0.8888888888888888
2214,-1,-1,44,1925,54,192,0.8889390519187359
2215,-1,-1,44,1926,54,192,0.8889891696750902
2216,-1,-1,44,1927,54,192,0.8890392422192152
2217,1,-1,44,1927,54,193,0.8886384129846708
2218,-1,-1,44,1928,54,193,0.8886885984677783
2219,-1,-1,44,1929,54,193,0.8887387387387388
2220,-1,-1,44,1930,54,193,0.8887888338586223
2221,-1,-1,44,1931,54,193,0.8888388838883888
2222,-1,-1,44,1932,54,193,0.8888888888888888
2223,1,-1,44,1932,54,194,0.8884892086330936
2224,-1,-1,44,1933,54,194,0.8885393258426967
2225,-1,-1,44,1934,54,194,0.8885893980233602
2226,-1,-1,44,1935,54,194,0.8886394252357431
2227,1,-1,44,1935,54,195,0.8882405745062837
2228,-1,-1,44,1936,54,195,0.8882907133243607
2229,-1,-1,44,1937,54,195,0.888340807174888
2230,-1,-1,44,1938,54,195,0.8883908561183326
2231,-1,-1,44,1939,54,195,0.8884408602150538
2232,-1,-1,44,1940,54,195,0.8884908195253023
2233,-1,-1,44,1941,54,195,0.8885407341092211
2234,-1,-1,44,1942,54,195,0.8885906040268456
2235,-1,-1,44,1943,54,195,0.8886404293381037
2236,-1,-1,44,1944,54,195,0.8886902101028162
2237,-1,-1,44,1945,54,195,0.8887399463806971
2238,-1,-1,44,1946,54,195,0.8887896382313533
2239,-1,-1,44,1947,54,195,0.8888392857142857
2240,-1,-1,44,1948,54,195,0.8888888888888888
2241,-1,-1,44,1949,54,195,0.8889384478144514
2242,-1,-1,44,1950,54,195,0.888987962550156
2243,-1,-1,44,1951,54,195,0.8890374331550802
2244,-1,-1,44,1952,54,195,0.889086859688196
2245,1,-1,44,1952,54,196,0.8886910062333037
2246,-1,-1,44,1953,54,196,0.8887405429461505
2247,-1,-1,44,1954,54,196,0.8887900355871886
2248,-1,-1,44,1955,54,196,0.8888394842152068
2249,-1,-1,44,1956,54,196,0.8888888888888888
2250,-1,-1,44,1957,54,196,0.8889382496668148
2251,-1,-1,44,1958,54,196,0.88898756660746
2252,-1,-1,44,1959,54,196,0.8890368397691967
2253,-1,-1,44,1960,54,196,0.8890860692102928
2254,1,-1,44,1960,54,197,0.8886917960088692
2255,-1,-1,44,1961,54,197,0.8887411347517731
2256,-1,-1,44,1962,54,197,0.8887904297740363
2257,-1,-1,44,1963,54,197,0.8888396811337467
2258,-1,-1,44,1964,54,197,0.8888888888888888
2259,-1,-1,44,1965,54,197,0.8889380530973451
2260,-1,-1,44,1966,54,197,0.8889871738168952
2261,-1,-1,44,1967,54,197,0.8890362511052167
2262,-1,-1,44,1968,54,197,0.8890852850198852
2263,-1,-1,44,1969,54,197,0.8891342756183745
2264,-1,-1,44,1970,54,197,0.8891832229580574
2265,1,1,45,1970,54,197,0.8892321270962048
2266,1,1,46,1970,54,197,0.8892809880899868
2267,-1,-1,46,1971,54,197,0.8893298059964727
2268,-1,-1,46,1972,54,197,0.8893785808726311
2269,-1,-1,46,1973,54,197,0.8894273127753304
2270,-1,-1,46,1974,54,197,0.8894760017613386
2271,-1,-1,46,1975,54,197,0.889524647887324
2272,-1,-1,46,1976,54,197,0.8895732512098549
2273,-1,-1,46,1977,54,197,0.8896218117854002
2274,-1,-1,46,1978,54,197,0.8896703296703297
2275,-1,-1,46,1979,54,197,0.8897188049209139
2276,-1,-1,46,1980,54,197,0.8897672375933245
2277,-1,-1,46,1981,54,197,0.8898156277436348
2278,-1,1,46,1981,55,197,0.8894251864853006
2279,-1,-1,46,1982,55,197,0.8894736842105263
2280,-1,-1,46,1983,55,197,0.8895221394125383
2281,-1,-1,46,1984,55,197,0.8895705521472392
2282,-1,-1,46,1985,55,197,0.8896189224704336
2283,-1,-1,46,1986,55,197,0.8896672504378283
2284,1,-1,46,1986,55,198,0.8892778993435448
2285,-1,-1,46,1987,55,198,0.8893263342082239
2286,-1,-1,46,1988,55,198,0.8893747267162221
2287,-1,-1,46,1989,55,198,0.8894230769230769
2288,-1,-1,46,1990,55,198,0.8894713848842289
2289,-1,-1,46,1991,55,198,0.8895196506550218
2290,-1,-1,46,1992,55,198,0.8895678742907027
2291,-1,-1,46,1993,55,198,0.8896160558464223
2292,-1,-1,46,1994,55,198,0.8896641953772351
2293,1,-1,46,1994,55,199,0.8892763731473409
2294,-1,-1,46,1995,55,199,0.8893246187363835
2295,1,-1,46,1995,55,200,0.8889372822299652
2296,-1,-1,46,1996,55,200,0.8889856334349151
2297,-1,-1,46,1997,55,200,0.8890339425587467
2298,-1,-1,46,1998,55,200,0.8890822096563723
2299,-1,-1,46,1999,55,200,0.8891304347826087
2300,-1,-1,46,2000,55,200,0.8891786179921773
2301,-1,-1,46,2001,55,200,0.8892267593397046
2302,-1,-1,46,2002,55,200,0.8892748588797221
2303,-1,-1,46,2003,55,200,0.8893229166666666
2304,-1,-1,46,2004,55,200,0.8893709327548807
2305,-1,-1,46,2005,55,200,0.8894189071986123
2306,-1,-1,46,2006,55,200,0.8894668400520156
2307,-1,-1,46,2007,55,200,0.8895147313691508
2308,-1,-1,46,2008,55,200,0.8895625812039845
2309,-1,-1,46,2009,55,200,0.8896103896103896
2310,-1,-1,46,2010,55,200,0.8896581566421462
2311,-1,-1,46,2011,55,200,0.8897058823529411
2312,-1,-1,46,2012,55,200,0.8897535667963683
2313,-1,-1,46,2013,55,200,0.8898012100259292
2314,-1,-1,46,2014,55,200,0.8898488120950324
2315,-1,-1,46,2015,55,200,0.8898963730569949
2316,-1,-1,46,2016,55,200,0.889943892965041
2317,-1,-1,46,2017,55,200,0.8899913718723037
2318,-1,-1,46,2018,55,200,0.890038809831824
2319,-1,-1,46,2019,55,200,0.8900862068965517
2320,-1,-1,46,2020,55,200,0.8901335631193451
2321,-1,-1,46,2021,55,200,0.8901808785529716
2322,-1,-1,46,2022,55,200,0.8902281532501076
2323,1,-1,46,2022,55,201,0.8898450946643718
2324,-1,-1,46,2023,55,201,0.8898924731182796
2325,-1,-1,46,2024,55,201,0.8899398108340498
2326,-1,-1,46,2025,55,201,0.8899871078642029
2327,-1,-1,46,2026,55,201,0.8900343642611683
2328,-1,-1,46,2027,55,201,0.8900815800772864
2329,-1,-1,46,2028,55,201,0.8901287553648068
2330,-1,-1,46,2029,55,201,0.8901758901758902
2331,-1,-1,46,2030,55,201,0.8902229845626072
2332,-1,-1,46,2031,55,201,0.8902700385769395
2333,-1,-1,46,2032,55,201,0.8903170522707797
2334,-1,-1,46,2033,55,201,0.8903640256959314
2335,-1,-1,46,2034,55,201,0.8904109589041096
2336,-1,-1,46,2035,55,201,0.8904578519469405
2337,-1,-1,46,2036,55,201,0.8905047048759623
2338,-1,-1,46,2037,55,201,0.8905515177426251
2339,-1,-1,46,2038,55,201,0.8905982905982905
2340,-1,-1,46,2039,55,201,0.8906450234942332
2341,-1,-1,46,2040,55,201,0.8906917164816396
2342,-1,-1,46,2041,55,201,0.890738369611609
2343,-1,-1,46,2042,55,201,0.8907849829351536
2344,-1,-1,46,2043,55,201,0.8908315565031983
2345,-1,-1,46,2044,55,201,0.8908780903665814
2346,-1,-1,46,2045,55,201,0.8909245845760545
2347,1,-1,46,2045,55,202,0.8905451448040886
