instance,lable,predicted,tp,tn,fp,fn,correctness
0,1,-1,0,0,0,1,0.0
1,-1,-1,0,1,0,1,0.5
2,-1,-1,0,2,0,1,0.6666666666666666
3,-1,-1,0,3,0,1,0.75
4,-1,-1,0,4,0,1,0.8
5,-1,-1,0,5,0,1,0.8333333333333334
6,-1,1,0,5,1,1,0.7142857142857143
7,-1,-1,0,6,1,1,0.75
8,1,-1,0,6,1,2,0.6666666666666666
9,-1,-1,0,7,1,2,0.7
10,-1,-1,0,8,1,2,0.7272727272727273
11,-1,-1,0,9,1,2,0.75
12,-1,-1,0,10,1,2,0.7692307692307693
13,-1,-1,0,11,1,2,0.7857142857142857
14,-1,-1,0,12,1,2,0.8
15,-1,-1,0,13,1,2,0.8125
16,-1,-1,0,14,1,2,0.8235294117647058
17,-1,-1,0,15,1,2,0.8333333333333334
18,-1,-1,0,16,1,2,0.8421052631578947
19,-1,-1,0,17,1,2,0.85
20,-1,-1,0,18,1,2,0.8571428571428571
21,-1,-1,0,19,1,2,0.8636363636363636
22,-1,-1,0,20,1,2,0.8695652173913043
23,-1,-1,0,21,1,2,0.875
24,-1,-1,0,22,1,2,0.88
25,-1,-1,0,23,1,2,0.8846153846153846
26,-1,-1,0,24,1,2,0.8888888888888888
27,-1,-1,0,25,1,2,0.8928571428571429
28,-1,-1,0,26,1,2,0.896551724137931
29,-1,-1,0,27,1,2,0.9
30,-1,-1,0,28,1,2,0.9032258064516129
31,-1,-1,0,29,1,2,0.90625
32,-1,-1,0,30,1,2,0.9090909090909091
33,-1,-1,0,31,1,2,0.9117647058823529
34,-1,-1,0,32,1,2,0.9142857142857143
35,-1,-1,0,33,1,2,0.9166666666666666
36,-1,-1,0,34,1,2,0.918918918918919
37,-1,-1,0,35,1,2,0.9210526315789473
38,-1,-1,0,36,1,2,0.9230769230769231
39,-1,-1,0,37,1,2,0.925
40,-1,-1,0,38,1,2,0.926829268292683
41,-1,-1,0,39,1,2,0.9285714285714286
42,-1,1,0,39,2,2,0.9069767441860465
43,-1,-1,0,40,2,2,0.9090909090909091
44,-1,-1,0,41,2,2,0.9111111111111111
45,-1,-1,0,42,2,2,0.9130434782608695
46,1,-1,0,42,2,3,0.8936170212765957
47,-1,-1,0,43,2,3,0.8958333333333334
48,-1,-1,0,44,2,3,0.8979591836734694
49,-1,-1,0,45,2,3,0.9
50,-1,-1,0,46,2,3,0.9019607843137255
51,-1,-1,0,47,2,3,0.9038461538461539
52,-1,-1,0,48,2,3,0.9056603773584906
53,1,-1,0,48,2,4,0.8888888888888888
54,-1,-1,0,49,2,4,0.8909090909090909
55,-1,-1,0,50,2,4,0.8928571428571429
56,-1,-1,0,51,2,4,0.8947368421052632
57,-1,-1,0,52,2,4,0.896551724137931
58,-1,-1,0,53,2,4,0.8983050847457628
59,-1,-1,0,54,2,4,0.9
60,-1,-1,0,55,2,4,0.9016393442622951
61,1,-1,0,55,2,5,0.8870967741935484
62,-1,-1,0,56,2,5,0.8888888888888888
63,1,-1,0,56,2,6,0.875
64,-1,-1,0,57,2,6,0.8769230769230769
65,-1,-1,0,58,2,6,0.8787878787878788
66,-1,-1,0,59,2,6,0.8805970149253731
67,-1,-1,0,60,2,6,0.8823529411764706
68,1,-1,0,60,2,7,0.8695652173913043
69,-1,-1,0,61,2,7,0.8714285714285714
70,-1,-1,0,62,2,7,0.8732394366197183
71,-1,-1,0,63,2,7,0.875
72,-1,-1,0,64,2,7,0.8767123287671232
73,-1,-1,0,65,2,7,0.8783783783783784
74,-1,-1,0,66,2,7,0.88
75,-1,-1,0,67,2,7,0.881578947368421
76,-1,-1,0,68,2,7,0.8831168831168831
77,1,-1,0,68,2,8,0.8717948717948718
78,1,-1,0,68,2,9,0.8607594936708861
79,-1,-1,0,69,2,9,0.8625
80,-1,-1,0,70,2,9,0.8641975308641975
81,-1,-1,0,71,2,9,0.8658536585365854
82,-1,-1,0,72,2,9,0.8674698795180723
83,-1,-1,0,73,2,9,0.8690476190476191
84,-1,-1,0,74,2,9,0.8705882352941177
85,-1,-1,0,75,2,9,0.872093023255814
86,-1,-1,0,76,2,9,0.8735632183908046
87,-1,-1,0,77,2,9,0.875
88,-1,-1,0,78,2,9,0.8764044943820225
89,-1,-1,0,79,2,9,0.8777777777777778
90,-1,-1,0,80,2,9,0.8791208791208791
91,1,-1,0,80,2,10,0.8695652173913043
92,-1,-1,0,81,2,10,0.8709677419354839
93,-1,-1,0,82,2,10,0.8723404255319149
94,-1,-1,0,83,2,10,0.8736842105263158
95,-1,-1,0,84,2,10,0.875
96,-1,-1,0,85,2,10,0.8762886597938144
97,-1,-1,0,86,2,10,0.8775510204081632
98,-1,-1,0,87,2,10,0.8787878787878788
99,-1,-1,0,88,2,10,0.88
100,-1,-1,0,89,2,10,0.8811881188118812
101,-1,-1,0,90,2,10,0.8823529411764706
102,-1,-1,0,91,2,10,0.883495145631068
103,1,-1,0,91,2,11,0.875
104,-1,-1,0,92,2,11,0.8761904761904762
105,-1,-1,0,93,2,11,0.8773584905660378
106,1,-1,0,93,2,12,0.8691588785046729
107,-1,-1,0,94,2,12,0.8703703703703703
108,-1,-1,0,95,2,12,0.8715596330275229
109,-1,-1,0,96,2,12,0.8727272727272727
110,-1,-1,0,97,2,12,0.8738738738738738
111,-1,-1,0,98,2,12,0.875
112,-1,-1,0,99,2,12,0.8761061946902655
113,-1,-1,0,100,2,12,0.8771929824561403
114,-1,-1,0,101,2,12,0.8782608695652174
115,1,-1,0,101,2,13,0.8706896551724138
116,-1,-1,0,102,2,13,0.8717948717948718
117,-1,-1,0,103,2,13,0.8728813559322034
118,-1,-1,0,104,2,13,0.8739495798319328
119,-1,-1,0,105,2,13,0.875
120,-1,-1,0,106,2,13,0.8760330578512396
121,1,-1,0,106,2,14,0.8688524590163934
122,-1,-1,0,107,2,14,0.8699186991869918
123,-1,-1,0,108,2,14,0.8709677419354839
124,-1,-1,0,109,2,14,0.872
125,-1,-1,0,110,2,14,0.873015873015873
126,-1,-1,0,111,2,14,0.8740157480314961
127,1,-1,0,111,2,15,0.8671875
128,-1,-1,0,112,2,15,0.8682170542635659
129,-1,-1,0,113,2,15,0.8692307692307693
130,-1,-1,0,114,2,15,0.8702290076335878
131,-1,-1,0,115,2,15,0.8712121212121212
132,-1,-1,0,116,2,15,0.8721804511278195
133,-1,-1,0,117,2,15,0.8731343283582089
134,-1,-1,0,118,2,15,0.8740740740740741
135,-1,-1,0,119,2,15,0.875
136,-1,-1,0,120,2,15,0.8759124087591241
137,-1,-1,0,121,2,15,0.8768115942028986
138,-1,-1,0,122,2,15,0.8776978417266187
139,-1,-1,0,123,2,15,0.8785714285714286
140,-1,-1,0,124,2,15,0.8794326241134752
141,-1,-1,0,125,2,15,0.8802816901408451
142,-1,-1,0,126,2,15,0.8811188811188811
143,1,-1,0,126,2,16,0.875
144,-1,-1,0,127,2,16,0.8758620689655172
145,-1,-1,0,128,2,16,0.8767123287671232
146,-1,-1,0,129,2,16,0.8775510204081632
147,-1,-1,0,130,2,16,0.8783783783783784
148,-1,-1,0,131,2,16,0.8791946308724832
149,-1,-1,0,132,2,16,0.88
150,-1,-1,0,133,2,16,0.8807947019867549
151,-1,-1,0,134,2,16,0.881578947368421
152,-1,-1,0,135,2,16,0.8823529411764706
153,-1,-1,0,136,2,16,0.8831168831168831
154,-1,-1,0,137,2,16,0.8838709677419355
155,-1,-1,0,138,2,16,0.8846153846153846
156,-1,-1,0,139,2,16,0.8853503184713376
157,-1,-1,0,140,2,16,0.8860759493670886
158,-1,-1,0,141,2,16,0.8867924528301887
159,-1,-1,0,142,2,16,0.8875
160,-1,-1,0,143,2,16,0.8881987577639752
161,-1,-1,0,144,2,16,0.8888888888888888
162,-1,-1,0,145,2,16,0.8895705521472392
163,-1,-1,0,146,2,16,0.8902439024390244
164,-1,-1,0,147,2,16,0.8909090909090909
165,-1,-1,0,148,2,16,0.891566265060241
166,-1,-1,0,149,2,16,0.8922155688622755
167,-1,-1,0,150,2,16,0.8928571428571429
168,-1,-1,0,151,2,16,0.893491124260355
169,-1,-1,0,152,2,16,0.8941176470588236
170,-1,-1,0,153,2,16,0.8947368421052632
171,-1,-1,0,154,2,16,0.8953488372093024
172,-1,-1,0,155,2,16,0.8959537572254336
173,-1,-1,0,156,2,16,0.896551724137931
174,-1,-1,0,157,2,16,0.8971428571428571
175,-1,-1,0,158,2,16,0.8977272727272727
176,1,-1,0,158,2,17,0.8926553672316384
177,-1,-1,0,159,2,17,0.8932584269662921
178,-1,-1,0,160,2,17,0.8938547486033519
179,-1,-1,0,161,2,17,0.8944444444444445
180,-1,-1,0,162,2,17,0.8950276243093923
181,-1,-1,0,163,2,17,0.8956043956043956
182,-1,-1,0,164,2,17,0.8961748633879781
183,-1,-1,0,165,2,17,0.8967391304347826
184,1,-1,0,165,2,18,0.8918918918918919
185,-1,-1,0,166,2,18,0.8924731182795699
186,-1,-1,0,167,2,18,0.893048128342246
187,1,-1,0,167,2,19,0.8882978723404256
188,-1,-1,0,168,2,19,0.8888888888888888
189,-1,-1,0,169,2,19,0.8894736842105263
190,-1,-1,0,170,2,19,0.8900523560209425
191,-1,-1,0,171,2,19,0.890625
192,-1,-1,0,172,2,19,0.8911917098445595
193,-1,-1,0,173,2,19,0.8917525773195877
194,-1,-1,0,174,2,19,0.8923076923076924
195,-1,-1,0,175,2,19,0.8928571428571429
196,-1,-1,0,176,2,19,0.8934010152284264
197,-1,-1,0,177,2,19,0.8939393939393939
198,-1,-1,0,178,2,19,0.8944723618090452
199,-1,-1,0,179,2,19,0.895
200,-1,-1,0,180,2,19,0.8955223880597015
201,-1,-1,0,181,2,19,0.8960396039603961
202,-1,-1,0,182,2,19,0.896551724137931
203,-1,-1,0,183,2,19,0.8970588235294118
204,-1,-1,0,184,2,19,0.8975609756097561
205,1,-1,0,184,2,20,0.8932038834951457
206,-1,-1,0,185,2,20,0.893719806763285
207,-1,-1,0,186,2,20,0.8942307692307693
208,-1,-1,0,187,2,20,0.8947368421052632
209,-1,-1,0,188,2,20,0.8952380952380953
210,-1,-1,0,189,2,20,0.8957345971563981
211,-1,-1,0,190,2,20,0.8962264150943396
212,-1,-1,0,191,2,20,0.8967136150234741
213,-1,-1,0,192,2,20,0.897196261682243
214,-1,-1,0,193,2,20,0.8976744186046511
215,-1,-1,0,194,2,20,0.8981481481481481
216,-1,-1,0,195,2,20,0.8986175115207373
217,-1,-1,0,196,2,20,0.8990825688073395
218,-1,-1,0,197,2,20,0.8995433789954338
219,-1,-1,0,198,2,20,0.9
220,-1,-1,0,199,2,20,0.9004524886877828
221,-1,-1,0,200,2,20,0.9009009009009009
222,-1,-1,0,201,2,20,0.9013452914798207
223,-1,-1,0,202,2,20,0.9017857142857143
224,1,-1,0,202,2,21,0.8977777777777778
225,-1,-1,0,203,2,21,0.8982300884955752
226,-1,-1,0,204,2,21,0.8986784140969163
227,-1,-1,0,205,2,21,0.8991228070175439
228,-1,-1,0,206,2,21,0.8995633187772926
229,-1,-1,0,207,2,21,0.9
230,-1,-1,0,208,2,21,0.9004329004329005
231,-1,-1,0,209,2,21,0.9008620689655172
232,-1,-1,0,210,2,21,0.9012875536480687
233,-1,-1,0,211,2,21,0.9017094017094017
234,-1,-1,0,212,2,21,0.902127659574468
235,-1,-1,0,213,2,21,0.902542372881356
236,-1,-1,0,214,2,21,0.9029535864978903
237,-1,-1,0,215,2,21,0.9033613445378151
238,-1,-1,0,216,2,21,0.9037656903765691
239,-1,-1,0,217,2,21,0.9041666666666667
240,-1,-1,0,218,2,21,0.9045643153526971
241,-1,-1,0,219,2,21,0.9049586776859504
242,-1,-1,0,220,2,21,0.9053497942386831
243,-1,-1,0,221,2,21,0.9057377049180327
244,-1,-1,0,222,2,21,0.9061224489795918
245,1,-1,0,222,2,22,0.9024390243902439
246,-1,-1,0,223,2,22,0.902834008097166
247,-1,-1,0,224,2,22,0.9032258064516129
248,-1,-1,0,225,2,22,0.9036144578313253
249,-1,-1,0,226,2,22,0.904
250,-1,-1,0,227,2,22,0.9043824701195219
251,1,-1,0,227,2,23,0.9007936507936508
252,-1,-1,0,228,2,23,0.9011857707509882
253,-1,-1,0,229,2,23,0.9015748031496063
254,-1,-1,0,230,2,23,0.9019607843137255
255,-1,-1,0,231,2,23,0.90234375
256,1,-1,0,231,2,24,0.8988326848249028
257,-1,-1,0,232,2,24,0.8992248062015504
258,-1,-1,0,233,2,24,0.8996138996138996
259,-1,-1,0,234,2,24,0.9
260,-1,-1,0,235,2,24,0.9003831417624522
261,-1,-1,0,236,2,24,0.9007633587786259
262,-1,-1,0,237,2,24,0.9011406844106464
263,-1,-1,0,238,2,24,0.9015151515151515
264,-1,-1,0,239,2,24,0.9018867924528302
265,-1,-1,0,240,2,24,0.9022556390977443
266,-1,-1,0,241,2,24,0.9026217228464419
267,-1,-1,0,242,2,24,0.9029850746268657
268,-1,-1,0,243,2,24,0.9033457249070632
269,-1,-1,0,244,2,24,0.9037037037037037
270,-1,-1,0,245,2,24,0.9040590405904059
271,1,-1,0,245,2,25,0.9007352941176471
272,-1,-1,0,246,2,25,0.9010989010989011
273,1,-1,0,246,2,26,0.8978102189781022
274,-1,-1,0,247,2,26,0.8981818181818182
275,-1,-1,0,248,2,26,0.8985507246376812
276,-1,-1,0,249,2,26,0.8989169675090253
277,1,-1,0,249,2,27,0.89568345323741
278,-1,-1,0,250,2,27,0.8960573476702509
279,1,-1,0,250,2,28,0.8928571428571429
280,-1,-1,0,251,2,28,0.8932384341637011
281,-1,-1,0,252,2,28,0.8936170212765957
282,-1,-1,0,253,2,28,0.8939929328621908
283,-1,-1,0,254,2,28,0.8943661971830986
284,-1,-1,0,255,2,28,0.8947368421052632
285,-1,-1,0,256,2,28,0.8951048951048951
286,-1,-1,0,257,2,28,0.8954703832752613
287,-1,-1,0,258,2,28,0.8958333333333334
288,-1,-1,0,259,2,28,0.8961937716262975
289,-1,-1,0,260,2,28,0.896551724137931
290,-1,-1,0,261,2,28,0.8969072164948454
291,-1,-1,0,262,2,28,0.8972602739726028
292,-1,-1,0,263,2,28,0.8976109215017065
293,-1,-1,0,264,2,28,0.8979591836734694
294,1,-1,0,264,2,29,0.8949152542372881
295,-1,-1,0,265,2,29,0.8952702702702703
296,-1,-1,0,266,2,29,0.8956228956228957
297,-1,-1,0,267,2,29,0.8959731543624161
298,-1,-1,0,268,2,29,0.8963210702341137
299,-1,-1,0,269,2,29,0.8966666666666666
300,-1,-1,0,270,2,29,0.8970099667774086
301,-1,-1,0,271,2,29,0.8973509933774835
302,1,-1,0,271,2,30,0.8943894389438944
303,-1,-1,0,272,2,30,0.8947368421052632
304,-1,-1,0,273,2,30,0.8950819672131147
305,-1,-1,0,274,2,30,0.8954248366013072
306,-1,-1,0,275,2,30,0.8957654723127035
307,-1,-1,0,276,2,30,0.8961038961038961
308,-1,-1,0,277,2,30,0.8964401294498382
309,-1,-1,0,278,2,30,0.896774193548387
310,-1,-1,0,279,2,30,0.8971061093247589
311,-1,-1,0,280,2,30,0.8974358974358975
312,-1,-1,0,281,2,30,0.8977635782747604
313,-1,-1,0,282,2,30,0.8980891719745223
314,-1,-1,0,283,2,30,0.8984126984126984
315,-1,-1,0,284,2,30,0.8987341772151899
316,-1,-1,0,285,2,30,0.8990536277602523
317,-1,-1,0,286,2,30,0.89937106918239
318,-1,-1,0,287,2,30,0.8996865203761756
319,-1,-1,0,288,2,30,0.9
320,1,-1,0,288,2,31,0.897196261682243
321,-1,-1,0,289,2,31,0.8975155279503105
322,-1,-1,0,290,2,31,0.8978328173374613
323,1,-1,0,290,2,32,0.8950617283950617
324,-1,-1,0,291,2,32,0.8953846153846153
325,-1,-1,0,292,2,32,0.8957055214723927
326,-1,-1,0,293,2,32,0.8960244648318043
327,-1,-1,0,294,2,32,0.8963414634146342
328,-1,-1,0,295,2,32,0.8966565349544073
329,-1,-1,0,296,2,32,0.896969696969697
330,-1,-1,0,297,2,32,0.8972809667673716
331,-1,-1,0,298,2,32,0.8975903614457831
332,1,-1,0,298,2,33,0.8948948948948949
333,-1,-1,0,299,2,33,0.8952095808383234
334,-1,-1,0,300,2,33,0.8955223880597015
335,-1,-1,0,301,2,33,0.8958333333333334
336,1,-1,0,301,2,34,0.8931750741839762
337,-1,-1,0,302,2,34,0.893491124260355
338,-1,-1,0,303,2,34,0.8938053097345132
339,-1,-1,0,304,2,34,0.8941176470588236
340,-1,-1,0,305,2,34,0.8944281524926686
341,-1,-1,0,306,2,34,0.8947368421052632
342,-1,-1,0,307,2,34,0.8950437317784257
343,-1,-1,0,308,2,34,0.8953488372093024
344,-1,-1,0,309,2,34,0.8956521739130435
345,-1,1,0,309,3,34,0.8930635838150289
346,-1,-1,0,310,3,34,0.8933717579250721
347,-1,-1,0,311,3,34,0.8936781609195402
348,-1,-1,0,312,3,34,0.8939828080229226
349,-1,-1,0,313,3,34,0.8942857142857142
350,-1,-1,0,314,3,34,0.8945868945868946
351,-1,-1,0,315,3,34,0.8948863636363636
352,-1,-1,0,316,3,34,0.8951841359773371
353,-1,-1,0,317,3,34,0.8954802259887006
354,-1,-1,0,318,3,34,0.895774647887324
355,-1,-1,0,319,3,34,0.8960674157303371
356,1,-1,0,319,3,35,0.8935574229691877
357,-1,-1,0,320,3,35,0.8938547486033519
358,-1,-1,0,321,3,35,0.8941504178272981
359,-1,-1,0,322,3,35,0.8944444444444445
360,-1,-1,0,323,3,35,0.8947368421052632
361,-1,-1,0,324,3,35,0.8950276243093923
362,-1,-1,0,325,3,35,0.8953168044077136
363,-1,-1,0,326,3,35,0.8956043956043956
364,-1,-1,0,327,3,35,0.8958904109589041
365,-1,-1,0,328,3,35,0.8961748633879781
366,-1,-1,0,329,3,35,0.896457765667575
367,1,-1,0,329,3,36,0.8940217391304348
368,-1,-1,0,330,3,36,0.8943089430894309
369,-1,-1,0,331,3,36,0.8945945945945946
370,-1,-1,0,332,3,36,0.894878706199461
371,-1,-1,0,333,3,36,0.8951612903225806
372,-1,-1,0,334,3,36,0.8954423592493298
373,-1,-1,0,335,3,36,0.8957219251336899
374,-1,-1,0,336,3,36,0.896
375,-1,-1,0,337,3,36,0.8962765957446809
376,-1,-1,0,338,3,36,0.896551724137931
377,-1,-1,0,339,3,36,0.8968253968253969
378,-1,-1,0,340,3,36,0.8970976253298153
379,-1,-1,0,341,3,36,0.8973684210526316
380,-1,-1,0,342,3,36,0.8976377952755905
381,-1,-1,0,343,3,36,0.8979057591623036
382,-1,-1,0,344,3,36,0.8981723237597912
383,-1,-1,0,345,3,36,0.8984375
384,-1,-1,0,346,3,36,0.8987012987012987
385,-1,-1,0,347,3,36,0.8989637305699482
386,-1,-1,0,348,3,36,0.8992248062015504
387,-1,-1,0,349,3,36,0.8994845360824743
388,-1,-1,0,350,3,36,0.8997429305912596
389,-1,-1,0,351,3,36,0.9
390,-1,-1,0,352,3,36,0.9002557544757033
391,-1,-1,0,353,3,36,0.9005102040816326
392,-1,-1,0,354,3,36,0.9007633587786259
393,-1,-1,0,355,3,36,0.9010152284263959
394,-1,-1,0,356,3,36,0.9012658227848102
395,-1,-1,0,357,3,36,0.9015151515151515
396,-1,-1,0,358,3,36,0.9017632241813602
397,1,-1,0,358,3,37,0.8994974874371859
398,-1,-1,0,359,3,37,0.899749373433584
399,1,-1,0,359,3,38,0.8975
400,-1,-1,0,360,3,38,0.8977556109725686
401,-1,-1,0,361,3,38,0.8980099502487562
402,-1,-1,0,362,3,38,0.8982630272952854
403,-1,-1,0,363,3,38,0.8985148514851485
404,-1,-1,0,364,3,38,0.8987654320987655
405,-1,-1,0,365,3,38,0.8990147783251231
406,-1,-1,0,366,3,38,0.8992628992628993
407,-1,-1,0,367,3,38,0.8995098039215687
408,-1,-1,0,368,3,38,0.8997555012224939
409,-1,-1,0,369,3,38,0.9
410,-1,-1,0,370,3,38,0.9002433090024331
411,-1,-1,0,371,3,38,0.9004854368932039
412,1,-1,0,371,3,39,0.8983050847457628
413,-1,-1,0,372,3,39,0.8985507246376812
414,-1,-1,0,373,3,39,0.8987951807228916
415,-1,-1,0,374,3,39,0.8990384615384616
416,-1,-1,0,375,3,39,0.8992805755395683
417,-1,-1,0,376,3,39,0.8995215311004785
418,1,-1,0,376,3,40,0.8973747016706444
419,-1,-1,0,377,3,40,0.8976190476190476
420,-1,-1,0,378,3,40,0.8978622327790974
421,-1,-1,0,379,3,40,0.8981042654028436
422,-1,-1,0,380,3,40,0.8983451536643026
423,-1,-1,0,381,3,40,0.8985849056603774
424,-1,-1,0,382,3,40,0.8988235294117647
425,-1,-1,0,383,3,40,0.8990610328638498
426,1,-1,0,383,3,41,0.8969555035128806
427,-1,-1,0,384,3,41,0.897196261682243
428,-1,-1,0,385,3,41,0.8974358974358975
429,-1,-1,0,386,3,41,0.8976744186046511
430,-1,-1,0,387,3,41,0.8979118329466357
431,-1,-1,0,388,3,41,0.8981481481481481
432,1,-1,0,388,3,42,0.8960739030023095
433,-1,-1,0,389,3,42,0.8963133640552995
434,1,-1,0,389,3,43,0.8942528735632184
435,-1,-1,0,390,3,43,0.8944954128440367
436,-1,-1,0,391,3,43,0.8947368421052632
437,-1,-1,0,392,3,43,0.8949771689497716
438,1,1,1,392,3,43,0.8952164009111617
439,-1,-1,1,393,3,43,0.8954545454545455
440,-1,-1,1,394,3,43,0.8956916099773242
441,-1,-1,1,395,3,43,0.8959276018099548
442,-1,-1,1,396,3,43,0.8961625282167043
443,-1,-1,1,397,3,43,0.8963963963963963
444,-1,-1,1,398,3,43,0.8966292134831461
445,-1,-1,1,399,3,43,0.8968609865470852
446,-1,-1,1,400,3,43,0.8970917225950783
447,-1,-1,1,401,3,43,0.8973214285714286
448,-1,-1,1,402,3,43,0.8975501113585747
449,-1,-1,1,403,3,43,0.8977777777777778
450,-1,-1,1,404,3,43,0.8980044345898004
451,-1,-1,1,405,3,43,0.8982300884955752
452,-1,-1,1,406,3,43,0.8984547461368654
453,1,-1,1,406,3,44,0.8964757709251101
454,-1,-1,1,407,3,44,0.8967032967032967
455,-1,-1,1,408,3,44,0.8969298245614035
456,1,-1,1,408,3,45,0.8949671772428884
457,-1,-1,1,409,3,45,0.8951965065502183
458,-1,-1,1,410,3,45,0.8954248366013072
459,-1,-1,1,411,3,45,0.8956521739130435
460,-1,-1,1,412,3,45,0.89587852494577
461,-1,-1,1,413,3,45,0.8961038961038961
462,-1,-1,1,414,3,45,0.896328293736501
463,-1,-1,1,415,3,45,0.896551724137931
464,1,-1,1,415,3,46,0.8946236559139785
465,-1,-1,1,416,3,46,0.8948497854077253
466,-1,-1,1,417,3,46,0.8950749464668094
467,1,-1,1,417,3,47,0.8931623931623932
468,-1,-1,1,418,3,47,0.8933901918976546
469,-1,-1,1,419,3,47,0.8936170212765957
470,1,-1,1,419,3,48,0.89171974522293
471,-1,-1,1,420,3,48,0.8919491525423728
472,-1,-1,1,421,3,48,0.8921775898520085
473,-1,-1,1,422,3,48,0.8924050632911392
474,-1,-1,1,423,3,48,0.8926315789473684
475,-1,-1,1,424,3,48,0.8928571428571429
476,-1,-1,1,425,3,48,0.8930817610062893
477,-1,-1,1,426,3,48,0.893305439330544
478,-1,-1,1,427,3,48,0.8935281837160751
479,-1,-1,1,428,3,48,0.89375
480,-1,-1,1,429,3,48,0.893970893970894
481,-1,-1,1,430,3,48,0.8941908713692946
482,-1,-1,1,431,3,48,0.8944099378881988
483,-1,-1,1,432,3,48,0.8946280991735537
484,-1,-1,1,433,3,48,0.8948453608247423
485,-1,-1,1,434,3,48,0.8950617283950617
486,-1,-1,1,435,3,48,0.8952772073921971
487,-1,-1,1,436,3,48,0.8954918032786885
488,-1,-1,1,437,3,48,0.8957055214723927
489,-1,-1,1,438,3,48,0.8959183673469387
490,-1,-1,1,439,3,48,0.8961303462321792
491,-1,-1,1,440,3,48,0.8963414634146342
492,-1,-1,1,441,3,48,0.896551724137931
493,-1,-1,1,442,3,48,0.8967611336032388
494,-1,-1,1,443,3,48,0.896969696969697
495,-1,-1,1,444,3,48,0.8971774193548387
496,-1,-1,1,445,3,48,0.89738430583501
497,-1,-1,1,446,3,48,0.8975903614457831
498,-1,-1,1,447,3,48,0.8977955911823647
499,-1,-1,1,448,3,48,0.898
500,-1,-1,1,449,3,48,0.8982035928143712
501,-1,-1,1,450,3,48,0.898406374501992
502,-1,-1,1,451,3,48,0.8986083499005965
503,-1,-1,1,452,3,48,0.8988095238095238
504,-1,-1,1,453,3,48,0.899009900990099
505,-1,-1,1,454,3,48,0.8992094861660079
506,-1,-1,1,455,3,48,0.8994082840236687
507,-1,-1,1,456,3,48,0.8996062992125984
508,-1,-1,1,457,3,48,0.899803536345776
509,-1,-1,1,458,3,48,0.9
510,-1,-1,1,459,3,48,0.9001956947162426
511,-1,-1,1,460,3,48,0.900390625
512,-1,-1,1,461,3,48,0.9005847953216374
513,-1,-1,1,462,3,48,0.9007782101167315
514,-1,-1,1,463,3,48,0.9009708737864077
515,1,-1,1,463,3,49,0.8992248062015504
516,-1,-1,1,464,3,49,0.8994197292069632
517,-1,-1,1,465,3,49,0.8996138996138996
518,-1,-1,1,466,3,49,0.8998073217726397
519,-1,-1,1,467,3,49,0.9
520,-1,-1,1,468,3,49,0.9001919385796545
521,-1,-1,1,469,3,49,0.9003831417624522
522,-1,-1,1,470,3,49,0.9005736137667304
523,-1,-1,1,471,3,49,0.9007633587786259
524,-1,-1,1,472,3,49,0.900952380952381
525,-1,-1,1,473,3,49,0.9011406844106464
526,-1,-1,1,474,3,49,0.9013282732447818
527,-1,-1,1,475,3,49,0.9015151515151515
528,-1,-1,1,476,3,49,0.9017013232514177
529,-1,-1,1,477,3,49,0.9018867924528302
530,-1,-1,1,478,3,49,0.9020715630885122
531,-1,-1,1,479,3,49,0.9022556390977443
532,-1,-1,1,480,3,49,0.9024390243902439
533,-1,-1,1,481,3,49,0.9026217228464419
534,-1,-1,1,482,3,49,0.902803738317757
535,-1,-1,1,483,3,49,0.9029850746268657
536,-1,-1,1,484,3,49,0.9031657355679702
537,-1,-1,1,485,3,49,0.9033457249070632
538,-1,-1,1,486,3,49,0.9035250463821892
539,-1,-1,1,487,3,49,0.9037037037037037
540,-1,-1,1,488,3,49,0.9038817005545287
541,-1,-1,1,489,3,49,0.9040590405904059
542,-1,-1,1,490,3,49,0.9042357274401474
543,-1,-1,1,491,3,49,0.9044117647058824
544,-1,-1,1,492,3,49,0.9045871559633027
545,-1,-1,1,493,3,49,0.9047619047619048
546,-1,-1,1,494,3,49,0.9049360146252285
547,-1,-1,1,495,3,49,0.9051094890510949
548,-1,-1,1,496,3,49,0.9052823315118397
549,-1,-1,1,497,3,49,0.9054545454545454
550,-1,-1,1,498,3,49,0.9056261343012704
551,-1,-1,1,499,3,49,0.9057971014492754
552,-1,-1,1,500,3,49,0.9059674502712477
553,-1,-1,1,501,3,49,0.9061371841155235
554,-1,-1,1,502,3,49,0.9063063063063063
555,-1,-1,1,503,3,49,0.9064748201438849
556,-1,-1,1,504,3,49,0.9066427289048474
557,-1,-1,1,505,3,49,0.9068100358422939
558,1,-1,1,505,3,50,0.9051878354203936
559,-1,-1,1,506,3,50,0.9053571428571429
560,-1,-1,1,507,3,50,0.9055258467023173
561,-1,-1,1,508,3,50,0.905693950177936
562,-1,-1,1,509,3,50,0.9058614564831261
563,-1,-1,1,510,3,50,0.9060283687943262
564,-1,-1,1,511,3,50,0.9061946902654867
565,1,-1,1,511,3,51,0.9045936395759717
566,-1,-1,1,512,3,51,0.9047619047619048
567,-1,-1,1,513,3,51,0.9049295774647887
568,-1,-1,1,514,3,51,0.9050966608084359
569,-1,-1,1,515,3,51,0.9052631578947369
570,-1,-1,1,516,3,51,0.9054290718038529
571,-1,-1,1,517,3,51,0.9055944055944056
572,-1,-1,1,518,3,51,0.9057591623036649
573,1,-1,1,518,3,52,0.9041811846689896
574,-1,-1,1,519,3,52,0.9043478260869565
575,-1,-1,1,520,3,52,0.9045138888888888
576,-1,-1,1,521,3,52,0.9046793760831889
577,-1,-1,1,522,3,52,0.9048442906574394
578,-1,-1,1,523,3,52,0.9050086355785838
579,-1,-1,1,524,3,52,0.9051724137931034
580,-1,-1,1,525,3,52,0.9053356282271945
581,-1,-1,1,526,3,52,0.9054982817869416
582,-1,-1,1,527,3,52,0.9056603773584906
583,-1,-1,1,528,3,52,0.9058219178082192
584,-1,-1,1,529,3,52,0.905982905982906
585,-1,-1,1,530,3,52,0.9061433447098977
586,1,-1,1,530,3,53,0.9045996592844975
587,-1,-1,1,531,3,53,0.9047619047619048
588,-1,-1,1,532,3,53,0.9049235993208828
589,-1,-1,1,533,3,53,0.9050847457627119
590,-1,-1,1,534,3,53,0.9052453468697124
591,-1,-1,1,535,3,53,0.9054054054054054
592,-1,-1,1,536,3,53,0.9055649241146712
593,-1,-1,1,537,3,53,0.9057239057239057
594,-1,-1,1,538,3,53,0.9058823529411765
595,-1,-1,1,539,3,53,0.9060402684563759
596,-1,-1,1,540,3,53,0.9061976549413735
597,1,-1,1,540,3,54,0.9046822742474916
598,-1,-1,1,541,3,54,0.9048414023372288
599,1,-1,1,541,3,55,0.9033333333333333
600,-1,-1,1,542,3,55,0.9034941763727121
601,-1,-1,1,543,3,55,0.9036544850498339
602,-1,-1,1,544,3,55,0.9038142620232172
603,-1,-1,1,545,3,55,0.9039735099337748
604,-1,-1,1,546,3,55,0.9041322314049587
605,-1,-1,1,547,3,55,0.9042904290429042
606,-1,-1,1,548,3,55,0.9044481054365733
607,1,-1,1,548,3,56,0.9029605263157895
608,1,-1,1,548,3,57,0.9014778325123153
609,-1,-1,1,549,3,57,0.9016393442622951
610,-1,-1,1,550,3,57,0.9018003273322422
611,-1,-1,1,551,3,57,0.9019607843137255
612,-1,-1,1,552,3,57,0.9021207177814029
613,-1,-1,1,553,3,57,0.9022801302931596
614,-1,-1,1,554,3,57,0.9024390243902439
615,-1,-1,1,555,3,57,0.9025974025974026
616,-1,-1,1,556,3,57,0.9027552674230146
617,-1,-1,1,557,3,57,0.9029126213592233
618,-1,-1,1,558,3,57,0.9030694668820679
619,-1,-1,1,559,3,57,0.9032258064516129
620,-1,-1,1,560,3,57,0.9033816425120773
621,-1,-1,1,561,3,57,0.9035369774919614
622,-1,-1,1,562,3,57,0.9036918138041734
623,-1,-1,1,563,3,57,0.9038461538461539
624,-1,-1,1,564,3,57,0.904
625,-1,-1,1,565,3,57,0.9041533546325878
626,-1,-1,1,566,3,57,0.9043062200956937
627,-1,-1,1,567,3,57,0.9044585987261147
628,-1,-1,1,568,3,57,0.904610492845787
629,-1,-1,1,569,3,57,0.9047619047619048
630,-1,-1,1,570,3,57,0.9049128367670365
631,-1,-1,1,571,3,57,0.9050632911392406
632,-1,-1,1,572,3,57,0.9052132701421801
633,-1,-1,1,573,3,57,0.9053627760252366
634,-1,-1,1,574,3,57,0.905511811023622
635,-1,-1,1,575,3,57,0.9056603773584906
636,-1,-1,1,576,3,57,0.9058084772370487
637,1,-1,1,576,3,58,0.9043887147335423
638,-1,-1,1,577,3,58,0.9045383411580594
639,-1,-1,1,578,3,58,0.9046875
640,-1,-1,1,579,3,58,0.9048361934477379
641,1,-1,1,579,3,59,0.9034267912772586
642,-1,-1,1,580,3,59,0.9035769828926905
643,-1,-1,1,581,3,59,0.9037267080745341
644,-1,-1,1,582,3,59,0.9038759689922481
645,-1,-1,1,583,3,59,0.9040247678018576
646,1,-1,1,583,3,60,0.9026275115919629
647,-1,-1,1,584,3,60,0.9027777777777778
648,-1,-1,1,585,3,60,0.9029275808936826
649,-1,-1,1,586,3,60,0.9030769230769231
650,1,-1,1,586,3,61,0.901689708141321
651,-1,-1,1,587,3,61,0.901840490797546
652,-1,-1,1,588,3,61,0.9019908116385911
653,-1,-1,1,589,3,61,0.9021406727828746
654,-1,-1,1,590,3,61,0.9022900763358779
655,-1,-1,1,591,3,61,0.9024390243902439
656,-1,-1,1,592,3,61,0.9025875190258752
657,-1,-1,1,593,3,61,0.9027355623100304
658,-1,-1,1,594,3,61,0.9028831562974203
659,-1,-1,1,595,3,61,0.9030303030303031
660,-1,-1,1,596,3,61,0.903177004538578
661,-1,-1,1,597,3,61,0.9033232628398792
662,-1,-1,1,598,3,61,0.9034690799396682
663,-1,-1,1,599,3,61,0.9036144578313253
664,1,-1,1,599,3,62,0.9022556390977443
665,-1,-1,1,600,3,62,0.9024024024024024
666,-1,-1,1,601,3,62,0.9025487256371814
667,-1,-1,1,602,3,62,0.9026946107784432
668,-1,-1,1,603,3,62,0.9028400597907325
669,1,-1,1,603,3,63,0.9014925373134328
670,-1,-1,1,604,3,63,0.9016393442622951
671,1,-1,1,604,3,64,0.9002976190476191
672,-1,-1,1,605,3,64,0.9004457652303121
673,1,-1,1,605,3,65,0.8991097922848664
674,-1,-1,1,606,3,65,0.8992592592592593
675,-1,-1,1,607,3,65,0.8994082840236687
676,1,-1,1,607,3,66,0.8980797636632201
677,-1,-1,1,608,3,66,0.8982300884955752
678,-1,-1,1,609,3,66,0.898379970544919
679,-1,-1,1,610,3,66,0.8985294117647059
680,-1,-1,1,611,3,66,0.8986784140969163
681,-1,-1,1,612,3,66,0.8988269794721407
682,-1,-1,1,613,3,66,0.8989751098096632
683,-1,-1,1,614,3,66,0.8991228070175439
684,-1,-1,1,615,3,66,0.8992700729927007
685,-1,-1,1,616,3,66,0.8994169096209913
686,-1,-1,1,617,3,66,0.8995633187772926
687,-1,-1,1,618,3,66,0.8997093023255814
688,1,-1,1,618,3,67,0.8984034833091437
689,-1,-1,1,619,3,67,0.8985507246376812
690,1,-1,1,619,3,68,0.8972503617945007
691,-1,-1,1,620,3,68,0.8973988439306358
692,-1,-1,1,621,3,68,0.8975468975468975
693,-1,-1,1,622,3,68,0.8976945244956772
694,-1,-1,1,623,3,68,0.897841726618705
695,1,-1,1,623,3,69,0.896551724137931
696,-1,-1,1,624,3,69,0.896700143472023
697,-1,-1,1,625,3,69,0.8968481375358166
698,-1,-1,1,626,3,69,0.8969957081545065
699,-1,-1,1,627,3,69,0.8971428571428571
700,-1,-1,1,628,3,69,0.8972895863052782
701,-1,-1,1,629,3,69,0.8974358974358975
702,-1,-1,1,630,3,69,0.8975817923186344
703,-1,-1,1,631,3,69,0.8977272727272727
704,-1,-1,1,632,3,69,0.8978723404255319
705,-1,-1,1,633,3,69,0.8980169971671388
706,-1,-1,1,634,3,69,0.8981612446958982
707,-1,-1,1,635,3,69,0.8983050847457628
708,-1,-1,1,636,3,69,0.8984485190409027
709,-1,-1,1,637,3,69,0.8985915492957747
710,-1,-1,1,638,3,69,0.8987341772151899
711,-1,-1,1,639,3,69,0.898876404494382
712,-1,-1,1,640,3,69,0.8990182328190743
713,-1,-1,1,641,3,69,0.8991596638655462
714,-1,-1,1,642,3,69,0.8993006993006993
715,1,-1,1,642,3,70,0.8980446927374302
716,1,-1,1,642,3,71,0.8967921896792189
717,-1,-1,1,643,3,71,0.8969359331476323
718,-1,-1,1,644,3,71,0.8970792767732962
719,-1,-1,1,645,3,71,0.8972222222222223
720,-1,-1,1,646,3,71,0.897364771151179
721,-1,-1,1,647,3,71,0.8975069252077562
722,-1,-1,1,648,3,71,0.8976486860304288
723,-1,-1,1,649,3,71,0.8977900552486188
724,-1,-1,1,650,3,71,0.8979310344827586
725,-1,-1,1,651,3,71,0.8980716253443526
726,-1,-1,1,652,3,71,0.8982118294360385
727,1,-1,1,652,3,72,0.896978021978022
728,-1,-1,1,653,3,72,0.897119341563786
729,-1,-1,1,654,3,72,0.8972602739726028
730,-1,-1,1,655,3,72,0.8974008207934336
731,-1,-1,1,656,3,72,0.8975409836065574
732,-1,-1,1,657,3,72,0.897680763983629
733,-1,-1,1,658,3,72,0.8978201634877384
734,-1,-1,1,659,3,72,0.8979591836734694
735,-1,-1,1,660,3,72,0.8980978260869565
736,-1,-1,1,661,3,72,0.898236092265943
737,-1,-1,1,662,3,72,0.8983739837398373
738,-1,-1,1,663,3,72,0.8985115020297699
739,1,-1,1,663,3,73,0.8972972972972973
740,-1,-1,1,664,3,73,0.8974358974358975
741,-1,-1,1,665,3,73,0.8975741239892183
742,-1,-1,1,666,3,73,0.8977119784656796
743,-1,-1,1,667,3,73,0.8978494623655914
744,-1,-1,1,668,3,73,0.897986577181208
745,-1,-1,1,669,3,73,0.8981233243967829
746,-1,-1,1,670,3,73,0.8982597054886211
747,-1,-1,1,671,3,73,0.8983957219251337
748,-1,-1,1,672,3,73,0.8985313751668892
749,-1,-1,1,673,3,73,0.8986666666666666
750,-1,-1,1,674,3,73,0.8988015978695073
751,-1,-1,1,675,3,73,0.898936170212766
752,-1,-1,1,676,3,73,0.899070385126162
753,-1,-1,1,677,3,73,0.8992042440318302
754,-1,-1,1,678,3,73,0.8993377483443709
755,-1,-1,1,679,3,73,0.8994708994708994
756,-1,-1,1,680,3,73,0.8996036988110965
757,-1,-1,1,681,3,73,0.899736147757256
758,-1,-1,1,682,3,73,0.8998682476943346
759,-1,-1,1,683,3,73,0.9
760,1,-1,1,683,3,74,0.8988173455978975
761,-1,-1,1,684,3,74,0.8989501312335958
762,-1,-1,1,685,3,74,0.8990825688073395
763,-1,-1,1,686,3,74,0.8992146596858639
764,-1,-1,1,687,3,74,0.8993464052287582
765,-1,-1,1,688,3,74,0.8994778067885117
766,-1,-1,1,689,3,74,0.8996088657105606
767,-1,-1,1,690,3,74,0.8997395833333334
768,-1,-1,1,691,3,74,0.8998699609882965
769,-1,-1,1,692,3,74,0.9
770,-1,-1,1,693,3,74,0.9001297016861219
771,-1,-1,1,694,3,74,0.9002590673575129
772,-1,-1,1,695,3,74,0.9003880983182406
773,-1,-1,1,696,3,74,0.900516795865633
774,-1,-1,1,697,3,74,0.9006451612903226
775,-1,-1,1,698,3,74,0.9007731958762887
776,-1,-1,1,699,3,74,0.9009009009009009
777,-1,-1,1,700,3,74,0.9010282776349614
778,-1,-1,1,701,3,74,0.9011553273427471
779,-1,-1,1,702,3,74,0.9012820512820513
780,-1,-1,1,703,3,74,0.9014084507042254
781,-1,-1,1,704,3,74,0.90153452685422
782,-1,-1,1,705,3,74,0.9016602809706258
783,-1,-1,1,706,3,74,0.9017857142857143
784,-1,-1,1,707,3,74,0.9019108280254777
785,-1,-1,1,708,3,74,0.9020356234096693
786,1,-1,1,708,3,75,0.9008894536213469
787,-1,-1,1,709,3,75,0.9010152284263959
788,-1,-1,1,710,3,75,0.9011406844106464
789,-1,-1,1,711,3,75,0.9012658227848102
790,1,-1,1,711,3,76,0.900126422250316
791,-1,-1,1,712,3,76,0.9002525252525253
792,1,-1,1,712,3,77,0.8991172761664565
793,-1,-1,1,713,3,77,0.8992443324937027
794,-1,-1,1,714,3,77,0.89937106918239
795,-1,-1,1,715,3,77,0.8994974874371859
796,-1,-1,1,716,3,77,0.8996235884567126
797,-1,-1,1,717,3,77,0.899749373433584
798,-1,-1,1,718,3,77,0.899874843554443
799,-1,-1,1,719,3,77,0.9
800,-1,-1,1,720,3,77,0.9001248439450686
801,-1,-1,1,721,3,77,0.9002493765586035
802,-1,-1,1,722,3,77,0.900373599003736
803,-1,-1,1,723,3,77,0.900497512437811
804,-1,-1,1,724,3,77,0.9006211180124224
805,-1,-1,1,725,3,77,0.9007444168734491
806,-1,-1,1,726,3,77,0.9008674101610905
807,-1,-1,1,727,3,77,0.900990099009901
808,-1,-1,1,728,3,77,0.9011124845488258
809,-1,-1,1,729,3,77,0.9012345679012346
810,-1,-1,1,730,3,77,0.9013563501849569
811,1,-1,1,730,3,78,0.9002463054187192
812,-1,-1,1,731,3,78,0.9003690036900369
813,-1,-1,1,732,3,78,0.9004914004914005
814,-1,-1,1,733,3,78,0.9006134969325154
815,-1,-1,1,734,3,78,0.9007352941176471
816,-1,-1,1,735,3,78,0.9008567931456548
817,-1,-1,1,736,3,78,0.9009779951100244
818,-1,-1,1,737,3,78,0.9010989010989011
819,1,-1,1,737,3,79,0.9
820,-1,-1,1,738,3,79,0.9001218026796589
821,-1,-1,1,739,3,79,0.9002433090024331
822,-1,-1,1,740,3,79,0.9003645200486027
823,-1,-1,1,741,3,79,0.9004854368932039
824,-1,-1,1,742,3,79,0.9006060606060606
825,1,-1,1,742,3,80,0.8995157384987893
826,-1,-1,1,743,3,80,0.8996372430471584
827,-1,-1,1,744,3,80,0.8997584541062802
828,-1,-1,1,745,3,80,0.8998793727382388
829,1,-1,1,745,3,81,0.8987951807228916
830,-1,-1,1,746,3,81,0.8989169675090253
831,1,-1,1,746,3,82,0.8978365384615384
832,-1,-1,1,747,3,82,0.8979591836734694
833,-1,-1,1,748,3,82,0.8980815347721822
834,-1,-1,1,749,3,82,0.8982035928143712
835,-1,-1,1,750,3,82,0.8983253588516746
836,-1,-1,1,751,3,82,0.8984468339307049
837,-1,-1,1,752,3,82,0.8985680190930787
838,-1,-1,1,753,3,82,0.8986889153754469
839,-1,-1,1,754,3,82,0.8988095238095238
840,-1,-1,1,755,3,82,0.8989298454221165
841,-1,-1,1,756,3,82,0.8990498812351544
842,-1,-1,1,757,3,82,0.8991696322657177
843,-1,-1,1,758,3,82,0.8992890995260664
844,-1,-1,1,759,3,82,0.8994082840236687
845,1,-1,1,759,3,83,0.8983451536643026
846,-1,-1,1,760,3,83,0.898465171192444
847,-1,-1,1,761,3,83,0.8985849056603774
848,-1,-1,1,762,3,83,0.8987043580683156
849,-1,-1,1,763,3,83,0.8988235294117647
850,-1,-1,1,764,3,83,0.8989424206815512
851,-1,-1,1,765,3,83,0.8990610328638498
852,-1,-1,1,766,3,83,0.8991793669402111
853,-1,-1,1,767,3,83,0.8992974238875878
854,-1,-1,1,768,3,83,0.8994152046783626
855,-1,-1,1,769,3,83,0.8995327102803738
856,-1,-1,1,770,3,83,0.8996499416569428
857,-1,-1,1,771,3,83,0.8997668997668997
858,-1,-1,1,772,3,83,0.89988358556461
859,-1,-1,1,773,3,83,0.9
860,-1,-1,1,774,3,83,0.9001161440185831
861,-1,-1,1,775,3,83,0.9002320185614849
862,1,-1,1,775,3,84,0.899188876013905
863,1,-1,1,775,3,85,0.8981481481481481
864,-1,-1,1,776,3,85,0.8982658959537573
865,-1,-1,1,777,3,85,0.8983833718244804
866,1,-1,1,777,3,86,0.8973471741637832
867,-1,-1,1,778,3,86,0.8974654377880185
868,-1,-1,1,779,3,86,0.8975834292289988
869,-1,-1,1,780,3,86,0.8977011494252873
870,1,-1,1,780,3,87,0.8966704936854191
871,-1,-1,1,781,3,87,0.8967889908256881
872,-1,-1,1,782,3,87,0.8969072164948454
873,-1,-1,1,783,3,87,0.897025171624714
874,1,-1,1,783,3,88,0.896
875,-1,-1,1,784,3,88,0.8961187214611872
876,-1,-1,1,785,3,88,0.8962371721778791
877,-1,-1,1,786,3,88,0.8963553530751709
878,1,-1,1,786,3,89,0.8953356086461889
879,-1,-1,1,787,3,89,0.8954545454545455
880,-1,-1,1,788,3,89,0.8955732122587968
881,-1,-1,1,789,3,89,0.8956916099773242
882,1,-1,1,789,3,90,0.8946772366930917
883,-1,-1,1,790,3,90,0.8947963800904978
884,-1,-1,1,791,3,90,0.8949152542372881
885,-1,-1,1,792,3,90,0.8950338600451467
886,-1,-1,1,793,3,90,0.895152198421646
887,-1,-1,1,794,3,90,0.8952702702702703
888,-1,-1,1,795,3,90,0.8953880764904387
889,-1,-1,1,796,3,90,0.895505617977528
890,-1,-1,1,797,3,90,0.8956228956228957
891,-1,-1,1,798,3,90,0.8957399103139013
892,-1,-1,1,799,3,90,0.8958566629339306
893,-1,-1,1,800,3,90,0.8959731543624161
894,-1,-1,1,801,3,90,0.8960893854748604
895,-1,-1,1,802,3,90,0.8962053571428571
896,1,-1,1,802,3,91,0.89520624303233
897,-1,-1,1,803,3,91,0.8953229398663697
898,1,-1,1,803,3,92,0.8943270300333704
899,-1,-1,1,804,3,92,0.8944444444444445
900,-1,-1,1,805,3,92,0.8945615982241953
901,-1,-1,1,806,3,92,0.8946784922394678
902,-1,-1,1,807,3,92,0.8947951273532669
903,-1,-1,1,808,3,92,0.8949115044247787
904,-1,-1,1,809,3,92,0.8950276243093923
905,-1,-1,1,810,3,92,0.8951434878587197
906,-1,-1,1,811,3,92,0.8952590959206174
907,-1,-1,1,812,3,92,0.8953744493392071
908,-1,-1,1,813,3,92,0.8954895489548955
909,-1,-1,1,814,3,92,0.8956043956043956
910,-1,-1,1,815,3,92,0.8957189901207464
911,1,1,2,815,3,92,0.8958333333333334
912,-1,-1,2,816,3,92,0.895947426067908
913,-1,-1,2,817,3,92,0.8960612691466083
914,-1,1,2,817,4,92,0.8950819672131147
915,-1,-1,2,818,4,92,0.8951965065502183
916,1,-1,2,818,4,93,0.8942202835332607
917,-1,-1,2,819,4,93,0.8943355119825708
918,-1,-1,2,820,4,93,0.8944504896626768
919,-1,-1,2,821,4,93,0.8945652173913043
920,-1,-1,2,822,4,93,0.8946796959826275
921,-1,-1,2,823,4,93,0.8947939262472885
922,-1,-1,2,824,4,93,0.894907908992416
923,-1,-1,2,825,4,93,0.895021645021645
924,-1,-1,2,826,4,93,0.8951351351351351
925,-1,-1,2,827,4,93,0.8952483801295896
926,-1,-1,2,828,4,93,0.895361380798274
927,-1,-1,2,829,4,93,0.8954741379310345
928,-1,-1,2,830,4,93,0.8955866523143164
929,-1,-1,2,831,4,93,0.8956989247311828
930,-1,-1,2,832,4,93,0.8958109559613319
931,-1,-1,2,833,4,93,0.8959227467811158
932,1,-1,2,833,4,94,0.894962486602358
933,-1,-1,2,834,4,94,0.8950749464668094
934,-1,-1,2,835,4,94,0.895187165775401
935,-1,-1,2,836,4,94,0.8952991452991453
936,-1,-1,2,837,4,94,0.8954108858057631
937,-1,-1,2,838,4,94,0.8955223880597015
938,-1,-1,2,839,4,94,0.8956336528221512
939,-1,-1,2,840,4,94,0.8957446808510638
940,-1,-1,2,841,4,94,0.895855472901169
941,-1,-1,2,842,4,94,0.8959660297239915
942,-1,-1,2,843,4,94,0.8960763520678685
943,-1,-1,2,844,4,94,0.8961864406779662
944,-1,-1,2,845,4,94,0.8962962962962963
945,1,-1,2,845,4,95,0.8953488372093024
946,-1,-1,2,846,4,95,0.8954593453009504
947,-1,-1,2,847,4,95,0.8955696202531646
948,1,-1,2,847,4,96,0.8946259220231823
949,-1,-1,2,848,4,96,0.8947368421052632
950,1,-1,2,848,4,97,0.8937960042060988
951,-1,-1,2,849,4,97,0.8939075630252101
952,-1,-1,2,850,4,97,0.8940188877229801
953,-1,-1,2,851,4,97,0.8941299790356394
954,-1,-1,2,852,4,97,0.8942408376963351
955,-1,-1,2,853,4,97,0.8943514644351465
956,-1,-1,2,854,4,97,0.8944618599791013
957,1,-1,2,854,4,98,0.8935281837160751
958,-1,-1,2,855,4,98,0.8936392075078207
959,-1,-1,2,856,4,98,0.89375
960,-1,-1,2,857,4,98,0.8938605619146722
961,-1,-1,2,858,4,98,0.893970893970894
962,-1,-1,2,859,4,98,0.8940809968847352
963,-1,-1,2,860,4,98,0.8941908713692946
964,-1,-1,2,861,4,98,0.894300518134715
965,-1,1,2,861,5,98,0.8933747412008282
966,-1,-1,2,862,5,98,0.8934850051706308
967,-1,-1,2,863,5,98,0.893595041322314
968,-1,-1,2,864,5,98,0.8937048503611971
969,-1,-1,2,865,5,98,0.8938144329896908
970,-1,-1,2,866,5,98,0.893923789907312
971,-1,-1,2,867,5,98,0.8940329218106996
972,-1,-1,2,868,5,98,0.894141829393628
973,-1,-1,2,869,5,98,0.8942505133470225
974,-1,-1,2,870,5,98,0.8943589743589744
975,-1,-1,2,871,5,98,0.8944672131147541
976,-1,-1,2,872,5,98,0.8945752302968271
977,-1,-1,2,873,5,98,0.8946830265848671
978,-1,-1,2,874,5,98,0.8947906026557712
979,-1,-1,2,875,5,98,0.8948979591836734
980,-1,-1,2,876,5,98,0.8950050968399592
981,-1,-1,2,877,5,98,0.895112016293279
982,-1,-1,2,878,5,98,0.8952187182095626
983,-1,-1,2,879,5,98,0.8953252032520326
984,-1,-1,2,880,5,98,0.8954314720812183
985,-1,-1,2,881,5,98,0.8955375253549696
986,1,-1,2,881,5,99,0.894630192502533
987,-1,-1,2,882,5,99,0.8947368421052632
988,-1,-1,2,883,5,99,0.8948432760364005
989,-1,-1,2,884,5,99,0.8949494949494949
990,-1,-1,2,885,5,99,0.8950554994954592
991,-1,-1,2,886,5,99,0.8951612903225806
992,-1,-1,2,887,5,99,0.8952668680765358
993,-1,-1,2,888,5,99,0.8953722334004024
994,-1,-1,2,889,5,99,0.8954773869346734
995,1,-1,2,889,5,100,0.8945783132530121
996,-1,-1,2,890,5,100,0.8946840521564694
997,-1,-1,2,891,5,100,0.8947895791583166
998,1,-1,2,891,5,101,0.8938938938938938
999,-1,-1,2,892,5,101,0.894
1000,-1,-1,2,893,5,101,0.8941058941058941
1001,-1,-1,2,894,5,101,0.8942115768463074
1002,-1,-1,2,895,5,101,0.8943170488534397
1003,-1,-1,2,896,5,101,0.8944223107569721
1004,-1,-1,2,897,5,101,0.8945273631840795
1005,-1,-1,2,898,5,101,0.8946322067594433
1006,-1,-1,2,899,5,101,0.8947368421052632
1007,-1,-1,2,900,5,101,0.8948412698412699
1008,-1,-1,2,901,5,101,0.8949454905847374
1009,-1,-1,2,902,5,101,0.8950495049504951
1010,-1,-1,2,903,5,101,0.8951533135509396
1011,-1,-1,2,904,5,101,0.8952569169960475
1012,-1,-1,2,905,5,101,0.8953603158933859
1013,-1,-1,2,906,5,101,0.8954635108481263
1014,1,-1,2,906,5,102,0.8945812807881773
1015,-1,-1,2,907,5,102,0.8946850393700787
1016,-1,-1,2,908,5,102,0.8947885939036382
1017,-1,-1,2,909,5,102,0.8948919449901768
1018,-1,-1,2,910,5,102,0.8949950932286556
1019,-1,-1,2,911,5,102,0.8950980392156863
1020,-1,-1,2,912,5,102,0.8952007835455436
1021,-1,-1,2,913,5,102,0.8953033268101761
1022,-1,-1,2,914,5,102,0.895405669599218
1023,-1,-1,2,915,5,102,0.8955078125
1024,1,-1,2,915,5,103,0.8946341463414634
1025,-1,-1,2,916,5,103,0.8947368421052632
1026,-1,-1,2,917,5,103,0.8948393378773125
1027,-1,-1,2,918,5,103,0.8949416342412452
1028,-1,-1,2,919,5,103,0.8950437317784257
1029,-1,-1,2,920,5,103,0.8951456310679612
1030,1,-1,2,920,5,104,0.8942774005819593
1031,1,-1,2,920,5,105,0.8934108527131783
1032,-1,-1,2,921,5,105,0.89351403678606
1033,1,-1,2,921,5,106,0.8926499032882012
1034,-1,1,2,921,6,106,0.8917874396135266
1035,-1,-1,2,922,6,106,0.8918918918918919
1036,-1,-1,2,923,6,106,0.8919961427193829
1037,-1,-1,2,924,6,106,0.8921001926782274
1038,-1,-1,2,925,6,106,0.8922040423484119
1039,-1,-1,2,926,6,106,0.8923076923076924
1040,-1,-1,2,927,6,106,0.8924111431316042
1041,-1,-1,2,928,6,106,0.8925143953934741
1042,-1,-1,2,929,6,106,0.8926174496644296
1043,-1,-1,2,930,6,106,0.89272030651341
1044,-1,-1,2,931,6,106,0.8928229665071771
1045,-1,-1,2,932,6,106,0.892925430210325
1046,-1,-1,2,933,6,106,0.8930276981852913
1047,-1,-1,2,934,6,106,0.8931297709923665
1048,-1,-1,2,935,6,106,0.8932316491897044
1049,-1,-1,2,936,6,106,0.8933333333333333
1050,1,-1,2,936,6,107,0.8924833491912464
1051,-1,-1,2,937,6,107,0.8925855513307985
1052,-1,-1,2,938,6,107,0.8926875593542261
1053,1,-1,2,938,6,108,0.8918406072106262
1054,-1,-1,2,939,6,108,0.8919431279620853
1055,-1,-1,2,940,6,108,0.8920454545454546
1056,1,-1,2,940,6,109,0.89120151371807
1057,-1,-1,2,941,6,109,0.8913043478260869
1058,-1,-1,2,942,6,109,0.8914069877242682
1059,-1,-1,2,943,6,109,0.8915094339622641
1060,-1,-1,2,944,6,109,0.8916116870876531
1061,-1,-1,2,945,6,109,0.891713747645951
1062,-1,-1,2,946,6,109,0.8918156161806209
1063,-1,-1,2,947,6,109,0.8919172932330827
1064,-1,-1,2,948,6,109,0.892018779342723
1065,1,-1,2,948,6,110,0.8911819887429644
1066,-1,-1,2,949,6,110,0.8912839737582006
1067,-1,-1,2,950,6,110,0.8913857677902621
1068,-1,-1,2,951,6,110,0.8914873713751169
1069,-1,-1,2,952,6,110,0.891588785046729
1070,1,-1,2,952,6,111,0.8907563025210085
1071,-1,-1,2,953,6,111,0.8908582089552238
1072,-1,-1,2,954,6,111,0.8909599254426841
1073,-1,-1,2,955,6,111,0.8910614525139665
1074,1,-1,2,955,6,112,0.8902325581395348
1075,-1,-1,2,956,6,112,0.8903345724907064
1076,-1,-1,2,957,6,112,0.8904363974001857
1077,-1,-1,2,958,6,112,0.8905380333951762
1078,-1,-1,2,959,6,112,0.8906394810009268
1079,-1,-1,2,960,6,112,0.8907407407407407
1080,-1,-1,2,961,6,112,0.8908418131359852
1081,-1,-1,2,962,6,112,0.8909426987060998
1082,-1,-1,2,963,6,112,0.8910433979686058
1083,-1,-1,2,964,6,112,0.8911439114391144
1084,-1,-1,2,965,6,112,0.8912442396313364
1085,-1,-1,2,966,6,112,0.8913443830570903
1086,-1,-1,2,967,6,112,0.891444342226311
1087,-1,-1,2,968,6,112,0.8915441176470589
1088,1,-1,2,968,6,113,0.8907254361799817
1089,-1,-1,2,969,6,113,0.8908256880733945
1090,-1,-1,2,970,6,113,0.8909257561869844
1091,-1,-1,2,971,6,113,0.8910256410256411
1092,-1,-1,2,972,6,113,0.8911253430924062
1093,-1,-1,2,973,6,113,0.8912248628884827
1094,-1,-1,2,974,6,113,0.891324200913242
1095,-1,-1,2,975,6,113,0.8914233576642335
1096,-1,-1,2,976,6,113,0.8915223336371924
1097,-1,-1,2,977,6,113,0.8916211293260473
1098,-1,-1,2,978,6,113,0.89171974522293
1099,-1,-1,2,979,6,113,0.8918181818181818
1100,-1,-1,2,980,6,113,0.8919164396003633
1101,-1,-1,2,981,6,113,0.8920145190562614
1102,-1,-1,2,982,6,113,0.8921124206708976
1103,-1,-1,2,983,6,113,0.8922101449275363
1104,-1,-1,2,984,6,113,0.8923076923076924
1105,-1,-1,2,985,6,113,0.8924050632911392
1106,-1,-1,2,986,6,113,0.8925022583559169
1107,-1,-1,2,987,6,113,0.8925992779783394
1108,-1,-1,2,988,6,113,0.8926961226330027
1109,-1,-1,2,989,6,113,0.8927927927927928
1110,-1,-1,2,990,6,113,0.8928892889288929
1111,-1,-1,2,991,6,113,0.8929856115107914
1112,1,1,3,991,6,113,0.8930817610062893
1113,-1,-1,3,992,6,113,0.8931777378815081
1114,-1,-1,3,993,6,113,0.8932735426008969
1115,-1,-1,3,994,6,113,0.8933691756272402
1116,-1,-1,3,995,6,113,0.8934646374216652
1117,-1,-1,3,996,6,113,0.8935599284436494
1118,-1,-1,3,997,6,113,0.8936550491510277
1119,-1,-1,3,998,6,113,0.89375
1120,-1,-1,3,999,6,113,0.8938447814451382
1121,1,-1,3,999,6,114,0.893048128342246
1122,-1,-1,3,1000,6,114,0.8931433659839715
1123,1,-1,3,1000,6,115,0.8923487544483986
1124,1,-1,3,1000,6,116,0.8915555555555555
1125,-1,-1,3,1001,6,116,0.8916518650088809
1126,-1,-1,3,1002,6,116,0.8917480035492458
1127,-1,-1,3,1003,6,116,0.8918439716312057
1128,-1,-1,3,1004,6,116,0.8919397697077059
1129,1,-1,3,1004,6,117,0.8911504424778761
1130,-1,-1,3,1005,6,117,0.8912466843501327
1131,-1,-1,3,1006,6,117,0.8913427561837456
1132,-1,-1,3,1007,6,117,0.8914386584289496
1133,-1,-1,3,1008,6,117,0.8915343915343915
1134,-1,-1,3,1009,6,117,0.8916299559471366
1135,-1,-1,3,1010,6,117,0.891725352112676
1136,-1,-1,3,1011,6,117,0.8918205804749341
1137,-1,-1,3,1012,6,117,0.8919156414762741
1138,-1,-1,3,1013,6,117,0.8920105355575065
1139,-1,-1,3,1014,6,117,0.8921052631578947
1140,-1,-1,3,1015,6,117,0.8921998247151621
1141,-1,-1,3,1016,6,117,0.8922942206654991
1142,-1,-1,3,1017,6,117,0.8923884514435696
1143,-1,-1,3,1018,6,117,0.8924825174825175
1144,-1,-1,3,1019,6,117,0.8925764192139738
1145,-1,-1,3,1020,6,117,0.8926701570680629
1146,-1,-1,3,1021,6,117,0.8927637314734089
1147,-1,-1,3,1022,6,117,0.8928571428571429
1148,-1,-1,3,1023,6,117,0.8929503916449086
1149,-1,-1,3,1024,6,117,0.8930434782608696
1150,-1,-1,3,1025,6,117,0.893136403127715
1151,-1,-1,3,1026,6,117,0.8932291666666666
1152,-1,-1,3,1027,6,117,0.8933217692974849
1153,-1,-1,3,1028,6,117,0.8934142114384749
1154,-1,-1,3,1029,6,117,0.8935064935064935
1155,-1,-1,3,1030,6,117,0.893598615916955
1156,-1,-1,3,1031,6,117,0.8936905790838375
1157,-1,-1,3,1032,6,117,0.8937823834196891
1158,-1,-1,3,1033,6,117,0.8938740293356342
1159,-1,-1,3,1034,6,117,0.8939655172413793
1160,-1,-1,3,1035,6,117,0.8940568475452196
1161,-1,-1,3,1036,6,117,0.8941480206540448
1162,-1,-1,3,1037,6,117,0.8942390369733448
1163,1,-1,3,1037,6,118,0.8934707903780069
1164,-1,-1,3,1038,6,118,0.8935622317596567
1165,-1,-1,3,1039,6,118,0.8936535162950258
1166,1,-1,3,1039,6,119,0.8928877463581834
1167,-1,-1,3,1040,6,119,0.8929794520547946
1168,1,-1,3,1040,6,120,0.8922155688622755
1169,-1,-1,3,1041,6,120,0.8923076923076924
1170,-1,-1,3,1042,6,120,0.892399658411614
1171,-1,-1,3,1043,6,120,0.8924914675767918
1172,-1,-1,3,1044,6,120,0.8925831202046036
1173,1,-1,3,1044,6,121,0.8918228279386712
1174,-1,-1,3,1045,6,121,0.8919148936170213
1175,-1,-1,3,1046,6,121,0.8920068027210885
1176,-1,-1,3,1047,6,121,0.8920985556499575
1177,-1,-1,3,1048,6,121,0.8921901528013583
1178,-1,-1,3,1049,6,121,0.8922815945716709
1179,1,-1,3,1049,6,122,0.8915254237288136
1180,1,-1,3,1049,6,123,0.890770533446232
1181,1,-1,3,1049,6,124,0.8900169204737732
1182,-1,-1,3,1050,6,124,0.8901098901098901
1183,-1,-1,3,1051,6,124,0.8902027027027027
1184,-1,-1,3,1052,6,124,0.890295358649789
1185,-1,-1,3,1053,6,124,0.8903878583473862
1186,-1,-1,3,1054,6,124,0.8904802021903959
1187,-1,-1,3,1055,6,124,0.8905723905723906
1188,-1,-1,3,1056,6,124,0.8906644238856182
1189,-1,-1,3,1057,6,124,0.8907563025210085
1190,-1,-1,3,1058,6,124,0.890848026868178
1191,-1,-1,3,1059,6,124,0.8909395973154363
1192,-1,-1,3,1060,6,124,0.8910310142497905
1193,-1,-1,3,1061,6,124,0.8911222780569514
1194,-1,-1,3,1062,6,124,0.891213389121339
1195,-1,-1,3,1063,6,124,0.8913043478260869
1196,-1,-1,3,1064,6,124,0.8913951545530493
1197,-1,-1,3,1065,6,124,0.8914858096828047
1198,-1,-1,3,1066,6,124,0.8915763135946623
1199,-1,-1,3,1067,6,124,0.8916666666666667
1200,-1,-1,3,1068,6,124,0.8917568692756037
1201,-1,-1,3,1069,6,124,0.891846921797005
1202,-1,-1,3,1070,6,124,0.8919368246051538
1203,-1,-1,3,1071,6,124,0.8920265780730897
1204,-1,-1,3,1072,6,124,0.8921161825726142
1205,-1,-1,3,1073,6,124,0.8922056384742952
1206,-1,-1,3,1074,6,124,0.8922949461474731
1207,-1,-1,3,1075,6,124,0.8923841059602649
1208,1,-1,3,1075,6,125,0.891645988420182
1209,-1,-1,3,1076,6,125,0.8917355371900827
1210,-1,-1,3,1077,6,125,0.8918249380677127
1211,-1,-1,3,1078,6,125,0.891914191419142
1212,-1,-1,3,1079,6,125,0.8920032976092334
1213,-1,-1,3,1080,6,125,0.8920922570016474
1214,-1,-1,3,1081,6,125,0.8921810699588477
1215,-1,-1,3,1082,6,125,0.8922697368421053
1216,-1,-1,3,1083,6,125,0.8923582580115037
1217,-1,-1,3,1084,6,125,0.8924466338259441
1218,-1,-1,3,1085,6,125,0.8925348646431501
1219,1,-1,3,1085,6,126,0.8918032786885246
1220,-1,-1,3,1086,6,126,0.8918918918918919
1221,-1,-1,3,1087,6,126,0.8919803600654664
1222,-1,-1,3,1088,6,126,0.8920686835650041
1223,-1,-1,3,1089,6,126,0.8921568627450981
1224,-1,-1,3,1090,6,126,0.8922448979591837
1225,-1,-1,3,1091,6,126,0.8923327895595432
1226,-1,-1,3,1092,6,126,0.8924205378973105
1227,1,-1,3,1092,6,127,0.8916938110749185
1228,-1,-1,3,1093,6,127,0.8917819365337672
1229,-1,-1,3,1094,6,127,0.891869918699187
1230,-1,-1,3,1095,6,127,0.8919577579203899
1231,-1,-1,3,1096,6,127,0.8920454545454546
1232,-1,-1,3,1097,6,127,0.8921330089213301
1233,-1,-1,3,1098,6,127,0.8922204213938412
1234,-1,-1,3,1099,6,127,0.8923076923076924
1235,-1,-1,3,1100,6,127,0.8923948220064725
1236,-1,-1,3,1101,6,127,0.8924818108326596
1237,-1,-1,3,1102,6,127,0.8925686591276252
1238,-1,-1,3,1103,6,127,0.8926553672316384
1239,-1,-1,3,1104,6,127,0.8927419354838709
1240,-1,-1,3,1105,6,127,0.8928283642224013
1241,-1,-1,3,1106,6,127,0.892914653784219
1242,-1,-1,3,1107,6,127,0.8930008045052292
1243,-1,-1,3,1108,6,127,0.8930868167202572
1244,-1,-1,3,1109,6,127,0.8931726907630522
1245,-1,-1,3,1110,6,127,0.8932584269662921
1246,-1,-1,3,1111,6,127,0.8933440256615878
1247,1,-1,3,1111,6,128,0.8926282051282052
1248,-1,-1,3,1112,6,128,0.8927141713370697
1249,-1,-1,3,1113,6,128,0.8928
1250,-1,-1,3,1114,6,128,0.8928856914468425
1251,-1,-1,3,1115,6,128,0.8929712460063898
1252,-1,-1,3,1116,6,128,0.8930566640063847
1253,-1,-1,3,1117,6,128,0.8931419457735247
1254,-1,-1,3,1118,6,128,0.8932270916334661
1255,-1,-1,3,1119,6,128,0.893312101910828
1256,-1,-1,3,1120,6,128,0.8933969769291965
1257,-1,-1,3,1121,6,128,0.8934817170111288
1258,-1,-1,3,1122,6,128,0.8935663224781573
1259,-1,-1,3,1123,6,128,0.8936507936507937
1260,-1,-1,3,1124,6,128,0.893735130848533
1261,-1,-1,3,1125,6,128,0.8938193343898574
1262,-1,-1,3,1126,6,128,0.8939034045922407
1263,-1,-1,3,1127,6,128,0.8939873417721519
1264,-1,-1,3,1128,6,128,0.8940711462450592
1265,-1,-1,3,1129,6,128,0.8941548183254344
1266,-1,-1,3,1130,6,128,0.8942383583267561
1267,-1,-1,3,1131,6,128,0.8943217665615142
1268,1,-1,3,1131,6,129,0.8936170212765957
1269,1,-1,3,1131,6,130,0.8929133858267716
1270,-1,-1,3,1132,6,130,0.8929976396538158
1271,-1,-1,3,1133,6,130,0.8930817610062893
1272,-1,-1,3,1134,6,130,0.8931657501963864
1273,-1,-1,3,1135,6,130,0.8932496075353218
1274,1,-1,3,1135,6,131,0.8925490196078432
1275,1,-1,3,1135,6,132,0.8918495297805643
1276,-1,-1,3,1136,6,132,0.8919342208300705
1277,-1,-1,3,1137,6,132,0.892018779342723
1278,-1,-1,3,1138,6,132,0.8921032056293979
1279,-1,-1,3,1139,6,132,0.8921875
1280,1,-1,3,1139,6,133,0.8914910226385636
1281,-1,-1,3,1140,6,133,0.891575663026521
1282,-1,-1,3,1141,6,133,0.8916601714731099
1283,-1,-1,3,1142,6,133,0.8917445482866043
1284,-1,-1,3,1143,6,133,0.8918287937743191
1285,-1,-1,3,1144,6,133,0.8919129082426127
1286,-1,-1,3,1145,6,133,0.891996891996892
1287,-1,-1,3,1146,6,133,0.8920807453416149
1288,-1,-1,3,1147,6,133,0.8921644685802949
1289,-1,-1,3,1148,6,133,0.8922480620155039
1290,-1,-1,3,1149,6,133,0.8923315259488769
1291,-1,-1,3,1150,6,133,0.8924148606811145
1292,-1,-1,3,1151,6,133,0.8924980665119876
1293,-1,-1,3,1152,6,133,0.89258114374034
1294,-1,-1,3,1153,6,133,0.8926640926640926
1295,-1,-1,3,1154,6,133,0.8927469135802469
1296,-1,-1,3,1155,6,133,0.8928296067848882
1297,-1,-1,3,1156,6,133,0.8929121725731896
1298,-1,-1,3,1157,6,133,0.8929946112394149
1299,-1,-1,3,1158,6,133,0.8930769230769231
1300,-1,-1,3,1159,6,133,0.8931591083781706
1301,-1,-1,3,1160,6,133,0.8932411674347158
1302,-1,-1,3,1161,6,133,0.8933231005372217
1303,-1,-1,3,1162,6,133,0.8934049079754601
1304,-1,-1,3,1163,6,133,0.8934865900383142
1305,-1,-1,3,1164,6,133,0.8935681470137825
1306,-1,-1,3,1165,6,133,0.8936495791889824
1307,-1,-1,3,1166,6,133,0.8937308868501529
1308,-1,-1,3,1167,6,133,0.8938120702826585
1309,-1,-1,3,1168,6,133,0.8938931297709923
1310,-1,-1,3,1169,6,133,0.8939740655987796
1311,-1,-1,3,1170,6,133,0.8940548780487805
1312,-1,-1,3,1171,6,133,0.8941355674028941
1313,-1,-1,3,1172,6,133,0.8942161339421614
1314,-1,-1,3,1173,6,133,0.8942965779467681
1315,-1,-1,3,1174,6,133,0.8943768996960486
1316,-1,-1,3,1175,6,133,0.894457099468489
1317,-1,-1,3,1176,6,133,0.8945371775417299
1318,-1,-1,3,1177,6,133,0.8946171341925702
1319,-1,-1,3,1178,6,133,0.8946969696969697
1320,-1,-1,3,1179,6,133,0.894776684330053
1321,-1,-1,3,1180,6,133,0.8948562783661119
1322,-1,-1,3,1181,6,133,0.8949357520786092
1323,-1,-1,3,1182,6,133,0.8950151057401813
1324,-1,-1,3,1183,6,133,0.8950943396226415
1325,-1,-1,3,1184,6,133,0.8951734539969834
1326,-1,-1,3,1185,6,133,0.8952524491333835
1327,-1,-1,3,1186,6,133,0.8953313253012049
1328,-1,-1,3,1187,6,133,0.8954100827689992
1329,-1,-1,3,1188,6,133,0.8954887218045112
1330,-1,-1,3,1189,6,133,0.8955672426746807
1331,-1,-1,3,1190,6,133,0.8956456456456456
1332,-1,-1,3,1191,6,133,0.8957239309827457
1333,-1,-1,3,1192,6,133,0.8958020989505248
1334,1,-1,3,1192,6,134,0.8951310861423221
1335,-1,-1,3,1193,6,134,0.8952095808383234
1336,-1,-1,3,1194,6,134,0.8952879581151832
1337,-1,-1,3,1195,6,134,0.8953662182361734
1338,-1,-1,3,1196,6,134,0.8954443614637789
1339,-1,-1,3,1197,6,134,0.8955223880597015
1340,-1,-1,3,1198,6,134,0.8956002982848621
1341,-1,-1,3,1199,6,134,0.8956780923994039
1342,-1,-1,3,1200,6,134,0.8957557706626954
1343,-1,-1,3,1201,6,134,0.8958333333333334
1344,-1,-1,3,1202,6,134,0.895910780669145
1345,-1,-1,3,1203,6,134,0.8959881129271917
1346,1,-1,3,1203,6,135,0.8953229398663697
1347,-1,-1,3,1204,6,135,0.8954005934718101
1348,-1,-1,3,1205,6,135,0.8954781319495922
1349,-1,-1,3,1206,6,135,0.8955555555555555
1350,-1,-1,3,1207,6,135,0.8956328645447816
1351,-1,-1,3,1208,6,135,0.8957100591715976
1352,-1,-1,3,1209,6,135,0.8957871396895787
1353,1,-1,3,1209,6,136,0.8951255539143279
1354,-1,-1,3,1210,6,136,0.8952029520295203
1355,-1,-1,3,1211,6,136,0.8952802359882006
1356,-1,-1,3,1212,6,136,0.8953574060427414
1357,-1,-1,3,1213,6,136,0.8954344624447718
1358,-1,-1,3,1214,6,136,0.8955114054451803
1359,-1,-1,3,1215,6,136,0.8955882352941177
1360,-1,-1,3,1216,6,136,0.8956649522409993
1361,-1,-1,3,1217,6,136,0.895741556534508
1362,-1,-1,3,1218,6,136,0.8958180484225972
1363,-1,-1,3,1219,6,136,0.8958944281524927
1364,-1,-1,3,1220,6,136,0.895970695970696
1365,-1,-1,3,1221,6,136,0.8960468521229868
1366,-1,-1,3,1222,6,136,0.8961228968544257
1367,-1,-1,3,1223,6,136,0.8961988304093568
1368,1,-1,3,1223,6,137,0.8955441928414901
1369,-1,-1,3,1224,6,137,0.8956204379562044
1370,-1,-1,3,1225,6,137,0.8956965718453683
1371,-1,-1,3,1226,6,137,0.8957725947521866
1372,-1,-1,3,1227,6,137,0.8958485069191552
1373,1,-1,3,1227,6,138,0.8951965065502183
1374,-1,-1,3,1228,6,138,0.8952727272727272
1375,-1,-1,3,1229,6,138,0.8953488372093024
1376,-1,-1,3,1230,6,138,0.8954248366013072
1377,1,-1,3,1230,6,139,0.8947750362844702
1378,-1,-1,3,1231,6,139,0.8948513415518492
1379,-1,-1,3,1232,6,139,0.894927536231884
1380,-1,-1,3,1233,6,139,0.8950036205648081
1381,-1,-1,3,1234,6,139,0.8950795947901592
1382,-1,-1,3,1235,6,139,0.8951554591467824
1383,-1,-1,3,1236,6,139,0.8952312138728323
1384,-1,-1,3,1237,6,139,0.8953068592057761
1385,-1,-1,3,1238,6,139,0.8953823953823954
1386,1,-1,3,1238,6,140,0.8947368421052632
1387,-1,-1,3,1239,6,140,0.8948126801152738
1388,-1,-1,3,1240,6,140,0.8948884089272858
1389,-1,-1,3,1241,6,140,0.8949640287769784
1390,-1,-1,3,1242,6,140,0.895039539899353
1391,-1,-1,3,1243,6,140,0.8951149425287356
1392,-1,-1,3,1244,6,140,0.8951902368987796
1393,-1,-1,3,1245,6,140,0.8952654232424677
1394,-1,-1,3,1246,6,140,0.8953405017921147
1395,1,-1,3,1246,6,141,0.8946991404011462
1396,-1,-1,3,1247,6,141,0.8947745168217609
1397,-1,-1,3,1248,6,141,0.8948497854077253
1398,-1,-1,3,1249,6,141,0.8949249463902788
1399,-1,-1,3,1250,6,141,0.895
1400,-1,-1,3,1251,6,141,0.8950749464668094
1401,-1,-1,3,1252,6,141,0.8951497860199714
1402,-1,-1,3,1253,6,141,0.895224518888097
1403,-1,-1,3,1254,6,141,0.8952991452991453
1404,-1,-1,3,1255,6,141,0.8953736654804271
1405,-1,-1,3,1256,6,141,0.895448079658606
1406,-1,-1,3,1257,6,141,0.8955223880597015
1407,-1,-1,3,1258,6,141,0.8955965909090909
1408,-1,-1,3,1259,6,141,0.8956706884315118
1409,-1,-1,3,1260,6,141,0.8957446808510638
1410,-1,-1,3,1261,6,141,0.8958185683912119
1411,1,-1,3,1261,6,142,0.8951841359773371
1412,-1,-1,3,1262,6,142,0.8952583156404812
1413,-1,-1,3,1263,6,142,0.8953323903818954
1414,-1,-1,3,1264,6,142,0.8954063604240282
1415,-1,-1,3,1265,6,142,0.8954802259887006
1416,1,-1,3,1265,6,143,0.89484827099506
1417,-1,-1,3,1266,6,143,0.8949224259520452
1418,-1,-1,3,1267,6,143,0.8949964763918252
1419,-1,-1,3,1268,6,143,0.8950704225352113
1420,-1,-1,3,1269,6,143,0.8951442646023927
1421,-1,-1,3,1270,6,143,0.8952180028129395
1422,-1,-1,3,1271,6,143,0.8952916373858046
1423,-1,-1,3,1272,6,143,0.8953651685393258
1424,-1,-1,3,1273,6,143,0.895438596491228
1425,-1,-1,3,1274,6,143,0.8955119214586256
1426,-1,-1,3,1275,6,143,0.8955851436580238
1427,-1,-1,3,1276,6,143,0.8956582633053222
1428,-1,-1,3,1277,6,143,0.8957312806158153
1429,-1,-1,3,1278,6,143,0.8958041958041958
1430,-1,-1,3,1279,6,143,0.8958770090845563
1431,-1,-1,3,1280,6,143,0.895949720670391
1432,-1,-1,3,1281,6,143,0.8960223307745987
1433,-1,-1,3,1282,6,143,0.896094839609484
1434,-1,-1,3,1283,6,143,0.8961672473867596
1435,-1,-1,3,1284,6,143,0.8962395543175488
1436,-1,-1,3,1285,6,143,0.8963117606123869
1437,-1,-1,3,1286,6,143,0.8963838664812239
1438,-1,-1,3,1287,6,143,0.896455872133426
1439,-1,-1,3,1288,6,143,0.8965277777777778
1440,-1,-1,3,1289,6,143,0.8965995836224844
1441,-1,-1,3,1290,6,143,0.8966712898751734
1442,1,-1,3,1290,6,144,0.896049896049896
1443,-1,-1,3,1291,6,144,0.8961218836565097
1444,-1,-1,3,1292,6,144,0.8961937716262975
1445,1,-1,3,1292,6,145,0.8955739972337483
1446,-1,-1,3,1293,6,145,0.8956461644782309
1447,-1,-1,3,1294,6,145,0.8957182320441989
1448,-1,-1,3,1295,6,145,0.8957902001380262
1449,-1,-1,3,1296,6,145,0.8958620689655172
1450,-1,-1,3,1297,6,145,0.895933838731909
1451,-1,-1,3,1298,6,145,0.8960055096418733
1452,-1,-1,3,1299,6,145,0.8960770818995183
1453,-1,-1,3,1300,6,145,0.8961485557083907
1454,1,-1,3,1300,6,146,0.89553264604811
1455,-1,-1,3,1301,6,146,0.8956043956043956
1456,-1,-1,3,1302,6,146,0.8956760466712422
1457,-1,-1,3,1303,6,146,0.8957475994513031
1458,-1,-1,3,1304,6,146,0.8958190541466758
1459,-1,-1,3,1305,6,146,0.8958904109589041
1460,-1,-1,3,1306,6,146,0.8959616700889802
1461,-1,-1,3,1307,6,146,0.896032831737346
1462,-1,-1,3,1308,6,146,0.8961038961038961
1463,-1,-1,3,1309,6,146,0.8961748633879781
1464,-1,-1,3,1310,6,146,0.8962457337883959
1465,-1,-1,3,1311,6,146,0.8963165075034106
1466,-1,-1,3,1312,6,146,0.896387184730743
1467,-1,-1,3,1313,6,146,0.896457765667575
1468,1,-1,3,1313,6,147,0.8958475153165418
1469,-1,-1,3,1314,6,147,0.8959183673469387
1470,-1,-1,3,1315,6,147,0.8959891230455472
1471,-1,-1,3,1316,6,147,0.8960597826086957
1472,-1,-1,3,1317,6,147,0.8961303462321792
1473,-1,-1,3,1318,6,147,0.8962008141112618
1474,1,-1,3,1318,6,148,0.895593220338983
1475,-1,-1,3,1319,6,148,0.8956639566395664
1476,-1,-1,3,1320,6,148,0.8957345971563981
1477,-1,-1,3,1321,6,148,0.8958051420838972
1478,-1,-1,3,1322,6,148,0.8958755916159568
1479,-1,-1,3,1323,6,148,0.8959459459459459
1480,-1,-1,3,1324,6,148,0.8960162052667117
1481,-1,-1,3,1325,6,148,0.8960863697705803
1482,-1,-1,3,1326,6,148,0.8961564396493594
1483,-1,-1,3,1327,6,148,0.8962264150943396
1484,-1,-1,3,1328,6,148,0.8962962962962963
1485,-1,-1,3,1329,6,148,0.8963660834454913
1486,-1,-1,3,1330,6,148,0.8964357767316745
1487,-1,-1,3,1331,6,148,0.896505376344086
1488,-1,-1,3,1332,6,148,0.8965748824714573
1489,-1,-1,3,1333,6,148,0.8966442953020134
1490,-1,-1,3,1334,6,148,0.8967136150234741
1491,-1,-1,3,1335,6,148,0.8967828418230563
1492,-1,-1,3,1336,6,148,0.8968519758874749
1493,-1,-1,3,1337,6,148,0.8969210174029452
1494,-1,-1,3,1338,6,148,0.8969899665551839
1495,-1,-1,3,1339,6,148,0.8970588235294118
1496,-1,-1,3,1340,6,148,0.897127588510354
1497,-1,-1,3,1341,6,148,0.897196261682243
1498,-1,-1,3,1342,6,148,0.8972648432288192
1499,-1,-1,3,1343,6,148,0.8973333333333333
1500,-1,-1,3,1344,6,148,0.8974017321785477
1501,-1,-1,3,1345,6,148,0.8974700399467377
1502,-1,-1,3,1346,6,148,0.8975382568196939
1503,-1,-1,3,1347,6,148,0.8976063829787234
1504,-1,-1,3,1348,6,148,0.8976744186046511
1505,-1,-1,3,1349,6,148,0.897742363877822
1506,-1,-1,3,1350,6,148,0.8978102189781022
1507,-1,-1,3,1351,6,148,0.8978779840848806
1508,-1,-1,3,1352,6,148,0.8979456593770709
1509,-1,-1,3,1353,6,148,0.8980132450331125
1510,-1,-1,3,1354,6,148,0.8980807412309728
1511,-1,-1,3,1355,6,148,0.8981481481481481
1512,-1,-1,3,1356,6,148,0.8982154659616656
1513,-1,-1,3,1357,6,148,0.8982826948480845
1514,-1,-1,3,1358,6,148,0.8983498349834983
1515,-1,-1,3,1359,6,148,0.8984168865435356
1516,-1,-1,3,1360,6,148,0.8984838497033619
1517,-1,-1,3,1361,6,148,0.8985507246376812
1518,1,1,4,1361,6,148,0.8986175115207373
1519,-1,-1,4,1362,6,148,0.8986842105263158
1520,-1,-1,4,1363,6,148,0.8987508218277449
1521,-1,-1,4,1364,6,148,0.8988173455978975
1522,-1,-1,4,1365,6,148,0.8988837820091924
1523,-1,-1,4,1366,6,148,0.8989501312335958
1524,1,-1,4,1366,6,149,0.898360655737705
1525,1,-1,4,1366,6,150,0.8977719528178244
1526,-1,-1,4,1367,6,150,0.8978388998035364
1527,-1,-1,4,1368,6,150,0.8979057591623036
1528,-1,-1,4,1369,6,150,0.8979725310660562
1529,-1,-1,4,1370,6,150,0.8980392156862745
1530,1,-1,4,1370,6,151,0.8974526453298498
1531,-1,-1,4,1371,6,151,0.8975195822454308
1532,-1,-1,4,1372,6,151,0.8975864318330071
1533,-1,-1,4,1373,6,151,0.8976531942633638
1534,-1,-1,4,1374,6,151,0.8977198697068404
1535,-1,-1,4,1375,6,151,0.8977864583333334
1536,-1,-1,4,1376,6,151,0.8978529603122967
1537,-1,-1,4,1377,6,151,0.8979193758127438
1538,1,-1,4,1377,6,152,0.8973359324236517
1539,-1,-1,4,1378,6,152,0.8974025974025974
1540,-1,-1,4,1379,6,152,0.8974691758598313
1541,-1,-1,4,1380,6,152,0.8975356679636836
1542,-1,-1,4,1381,6,152,0.8976020738820479
1543,-1,-1,4,1382,6,152,0.8976683937823834
1544,-1,-1,4,1383,6,152,0.8977346278317152
1545,-1,-1,4,1384,6,152,0.8978007761966365
1546,-1,-1,4,1385,6,152,0.8978668390433097
1547,-1,-1,4,1386,6,152,0.8979328165374677
1548,-1,-1,4,1387,6,152,0.8979987088444158
1549,-1,-1,4,1388,6,152,0.8980645161290323
1550,-1,-1,4,1389,6,152,0.8981302385557705
1551,-1,-1,4,1390,6,152,0.8981958762886598
1552,1,-1,4,1390,6,153,0.8976175144880876
1553,-1,-1,4,1391,6,153,0.8976833976833977
1554,-1,-1,4,1392,6,153,0.8977491961414791
1555,-1,-1,4,1393,6,153,0.8978149100257069
1556,-1,-1,4,1394,6,153,0.8978805394990366
1557,-1,-1,4,1395,6,153,0.8979460847240052
1558,-1,-1,4,1396,6,153,0.8980115458627326
1559,-1,-1,4,1397,6,153,0.8980769230769231
1560,-1,-1,4,1398,6,153,0.8981422165278667
1561,-1,-1,4,1399,6,153,0.8982074263764405
1562,-1,-1,4,1400,6,153,0.8982725527831094
1563,-1,-1,4,1401,6,153,0.8983375959079284
1564,-1,-1,4,1402,6,153,0.8984025559105431
1565,-1,-1,4,1403,6,153,0.8984674329501916
1566,-1,-1,4,1404,6,153,0.8985322271857051
1567,-1,-1,4,1405,6,153,0.8985969387755102
1568,-1,-1,4,1406,6,153,0.8986615678776291
1569,-1,-1,4,1407,6,153,0.8987261146496816
1570,-1,-1,4,1408,6,153,0.8987905792488861
1571,-1,-1,4,1409,6,153,0.898854961832061
1572,-1,-1,4,1410,6,153,0.8989192625556262
1573,-1,-1,4,1411,6,153,0.8989834815756036
1574,-1,-1,4,1412,6,153,0.8990476190476191
1575,-1,-1,4,1413,6,153,0.8991116751269036
1576,-1,-1,4,1414,6,153,0.8991756499682942
1577,-1,-1,4,1415,6,153,0.8992395437262357
1578,-1,-1,4,1416,6,153,0.8993033565547816
1579,-1,-1,4,1417,6,153,0.899367088607595
1580,-1,-1,4,1418,6,153,0.8994307400379506
1581,-1,-1,4,1419,6,153,0.8994943109987358
1582,-1,-1,4,1420,6,153,0.899557801642451
1583,-1,-1,4,1421,6,153,0.8996212121212122
1584,-1,-1,4,1422,6,153,0.8996845425867508
1585,-1,-1,4,1423,6,153,0.8997477931904161
1586,-1,-1,4,1424,6,153,0.8998109640831758
1587,-1,-1,4,1425,6,153,0.8998740554156172
1588,-1,-1,4,1426,6,153,0.8999370673379484
1589,-1,-1,4,1427,6,153,0.9
1590,-1,-1,4,1428,6,153,0.9000628535512256
1591,-1,-1,4,1429,6,153,0.9001256281407035
1592,-1,-1,4,1430,6,153,0.9001883239171374
1593,1,-1,4,1430,6,154,0.8996235884567126
1594,1,-1,4,1430,6,155,0.8990595611285267
1595,1,-1,4,1430,6,156,0.8984962406015038
1596,-1,-1,4,1431,6,156,0.8985597996242956
1597,1,-1,4,1431,6,157,0.8979974968710889
1598,-1,-1,4,1432,6,157,0.8980612883051907
1599,-1,-1,4,1433,6,157,0.898125
1600,-1,-1,4,1434,6,157,0.8981886321049344
1601,-1,-1,4,1435,6,157,0.8982521847690387
1602,-1,-1,4,1436,6,157,0.8983156581409857
1603,1,-1,4,1436,6,158,0.8977556109725686
1604,-1,-1,4,1437,6,158,0.8978193146417446
1605,1,-1,4,1437,6,159,0.8972602739726028
1606,1,-1,4,1437,6,160,0.896701929060361
1607,1,-1,4,1437,6,161,0.8961442786069652
1608,-1,-1,4,1438,6,161,0.8962088253573648
1609,-1,-1,4,1439,6,161,0.8962732919254658
1610,-1,-1,4,1440,6,161,0.8963376784605835
1611,1,-1,4,1440,6,162,0.8957816377171216
1612,1,-1,4,1440,6,163,0.8952262864228147
1613,-1,-1,4,1441,6,163,0.8952912019826518
1614,-1,-1,4,1442,6,163,0.8953560371517028
1615,-1,-1,4,1443,6,163,0.8954207920792079
1616,-1,-1,4,1444,6,163,0.8954854669140383
1617,-1,-1,4,1445,6,163,0.8955500618046972
1618,-1,-1,4,1446,6,163,0.8956145768993206
1619,-1,-1,4,1447,6,163,0.895679012345679
1620,-1,-1,4,1448,6,163,0.8957433682911783
1621,-1,-1,4,1449,6,163,0.8958076448828607
1622,-1,-1,4,1450,6,163,0.895871842267406
1623,-1,-1,4,1451,6,163,0.895935960591133
1624,-1,-1,4,1452,6,163,0.896
1625,1,-1,4,1452,6,164,0.8954489544895449
1626,-1,-1,4,1453,6,164,0.8955132145052244
1627,-1,-1,4,1454,6,164,0.8955773955773956
1628,-1,-1,4,1455,6,164,0.8956414978514426
1629,-1,-1,4,1456,6,164,0.8957055214723927
1630,-1,-1,4,1457,6,164,0.8957694665849172
1631,-1,-1,4,1458,6,164,0.8958333333333334
1632,-1,-1,4,1459,6,164,0.8958971218616044
1633,-1,-1,4,1460,6,164,0.8959608323133414
1634,-1,-1,4,1461,6,164,0.8960244648318043
1635,-1,-1,4,1462,6,164,0.8960880195599022
1636,-1,-1,4,1463,6,164,0.8961514966401954
1637,-1,-1,4,1464,6,164,0.8962148962148963
1638,-1,-1,4,1465,6,164,0.8962782184258694
1639,-1,-1,4,1466,6,164,0.8963414634146342
1640,-1,-1,4,1467,6,164,0.8964046313223644
1641,-1,-1,4,1468,6,164,0.8964677222898904
1642,-1,-1,4,1469,6,164,0.8965307364576993
1643,-1,-1,4,1470,6,164,0.8965936739659367
1644,-1,-1,4,1471,6,164,0.8966565349544073
1645,-1,-1,4,1472,6,164,0.8967193195625759
1646,-1,-1,4,1473,6,164,0.896782027929569
1647,-1,-1,4,1474,6,164,0.8968446601941747
1648,-1,-1,4,1475,6,164,0.8969072164948454
1649,-1,-1,4,1476,6,164,0.896969696969697
1650,-1,-1,4,1477,6,164,0.8970321017565112
1651,-1,-1,4,1478,6,164,0.8970944309927361
1652,-1,-1,4,1479,6,164,0.897156684815487
1653,-1,-1,4,1480,6,164,0.8972188633615478
1654,-1,-1,4,1481,6,164,0.8972809667673716
1655,-1,-1,4,1482,6,164,0.8973429951690821
1656,-1,-1,4,1483,6,164,0.8974049487024743
1657,-1,-1,4,1484,6,164,0.8974668275030157
1658,-1,-1,4,1485,6,164,0.8975286317058468
1659,-1,-1,4,1486,6,164,0.8975903614457831
1660,1,-1,4,1486,6,165,0.8970499698976521
1661,-1,-1,4,1487,6,165,0.8971119133574007
1662,1,-1,4,1487,6,166,0.8965724594107035
1663,-1,-1,4,1488,6,166,0.8966346153846154
1664,-1,-1,4,1489,6,166,0.8966966966966967
1665,-1,-1,4,1490,6,166,0.8967587034813925
1666,-1,-1,4,1491,6,166,0.8968206358728255
1667,-1,-1,4,1492,6,166,0.8968824940047961
1668,-1,-1,4,1493,6,166,0.8969442780107849
1669,-1,-1,4,1494,6,166,0.8970059880239521
1670,-1,-1,4,1495,6,166,0.8970676241771395
1671,-1,-1,4,1496,6,166,0.8971291866028708
1672,-1,-1,4,1497,6,166,0.8971906754333533
1673,-1,-1,4,1498,6,166,0.8972520908004779
1674,-1,-1,4,1499,6,166,0.8973134328358209
1675,-1,-1,4,1500,6,166,0.8973747016706444
1676,-1,-1,4,1501,6,166,0.8974358974358975
1677,-1,-1,4,1502,6,166,0.8974970202622169
1678,-1,-1,4,1503,6,166,0.8975580702799285
1679,-1,-1,4,1504,6,166,0.8976190476190476
1680,-1,-1,4,1505,6,166,0.8976799524092802
1681,-1,-1,4,1506,6,166,0.8977407847800237
1682,-1,-1,4,1507,6,166,0.8978015448603683
1683,-1,-1,4,1508,6,166,0.8978622327790974
1684,-1,-1,4,1509,6,166,0.8979228486646884
1685,-1,-1,4,1510,6,166,0.8979833926453143
1686,-1,-1,4,1511,6,166,0.8980438648488441
1687,-1,-1,4,1512,6,166,0.8981042654028436
1688,-1,-1,4,1513,6,166,0.8981645944345766
1689,-1,-1,4,1514,6,166,0.8982248520710059
1690,-1,-1,4,1515,6,166,0.8982850384387936
1691,-1,-1,4,1516,6,166,0.8983451536643026
1692,-1,-1,4,1517,6,166,0.8984051978735972
1693,-1,-1,4,1518,6,166,0.898465171192444
1694,-1,-1,4,1519,6,166,0.8985250737463126
1695,-1,-1,4,1520,6,166,0.8985849056603774
1696,-1,-1,4,1521,6,166,0.8986446670595168
1697,-1,-1,4,1522,6,166,0.8987043580683156
1698,-1,-1,4,1523,6,166,0.8987639788110653
1699,-1,-1,4,1524,6,166,0.8988235294117647
1700,-1,-1,4,1525,6,166,0.8988830099941211
1701,-1,-1,4,1526,6,166,0.8989424206815512
1702,-1,-1,4,1527,6,166,0.8990017615971815
1703,-1,-1,4,1528,6,166,0.8990610328638498
1704,1,-1,4,1528,6,167,0.898533724340176
1705,-1,-1,4,1529,6,167,0.8985932004689332
1706,-1,-1,4,1530,6,167,0.8986526069127123
1707,-1,-1,4,1531,6,167,0.8987119437939111
1708,-1,-1,4,1532,6,167,0.8987712112346401
1709,-1,-1,4,1533,6,167,0.8988304093567251
1710,-1,-1,4,1534,6,167,0.8988895382817066
1711,-1,-1,4,1535,6,167,0.8989485981308412
1712,-1,-1,4,1536,6,167,0.8990075890251021
1713,-1,-1,4,1537,6,167,0.8990665110851809
1714,-1,-1,4,1538,6,167,0.8991253644314868
1715,1,-1,4,1538,6,168,0.8986013986013986
1716,-1,-1,4,1539,6,168,0.8986604542807222
1717,-1,-1,4,1540,6,168,0.8987194412107101
1718,-1,-1,4,1541,6,168,0.8987783595113438
1719,-1,-1,4,1542,6,168,0.8988372093023256
1720,-1,-1,4,1543,6,168,0.8988959907030796
1721,-1,-1,4,1544,6,168,0.8989547038327527
1722,-1,-1,4,1545,6,168,0.8990133488102148
1723,-1,-1,4,1546,6,168,0.8990719257540604
1724,-1,-1,4,1547,6,168,0.8991304347826087
1725,-1,-1,4,1548,6,168,0.899188876013905
1726,-1,-1,4,1549,6,168,0.8992472495657209
1727,-1,-1,4,1550,6,168,0.8993055555555556
1728,-1,-1,4,1551,6,168,0.8993637941006362
1729,-1,-1,4,1552,6,168,0.8994219653179191
1730,-1,-1,4,1553,6,168,0.8994800693240901
1731,-1,-1,4,1554,6,168,0.8995381062355658
1732,-1,-1,4,1555,6,168,0.8995960761684939
1733,1,1,5,1555,6,168,0.8996539792387543
1734,-1,-1,5,1556,6,168,0.8997118155619597
1735,-1,-1,5,1557,6,168,0.8997695852534562
1736,-1,-1,5,1558,6,168,0.8998272884283247
1737,-1,-1,5,1559,6,168,0.8998849252013809
1738,-1,-1,5,1560,6,168,0.8999424956871765
1739,-1,-1,5,1561,6,168,0.9
1740,-1,-1,5,1562,6,168,0.9000574382538771
1741,-1,-1,5,1563,6,168,0.9001148105625718
1742,-1,-1,5,1564,6,168,0.9001721170395869
1743,-1,-1,5,1565,6,168,0.9002293577981652
1744,-1,-1,5,1566,6,168,0.9002865329512894
1745,-1,-1,5,1567,6,168,0.9003436426116839
1746,-1,-1,5,1568,6,168,0.9004006868918145
1747,-1,-1,5,1569,6,168,0.9004576659038902
1748,-1,-1,5,1570,6,168,0.9005145797598628
1749,-1,-1,5,1571,6,168,0.9005714285714286
1750,-1,-1,5,1572,6,168,0.9006282124500286
1751,-1,-1,5,1573,6,168,0.9006849315068494
1752,-1,-1,5,1574,6,168,0.9007415858528237
1753,-1,-1,5,1575,6,168,0.9007981755986317
1754,-1,-1,5,1576,6,168,0.9008547008547009
1755,-1,-1,5,1577,6,168,0.9009111617312073
1756,-1,-1,5,1578,6,168,0.9009675583380763
1757,-1,-1,5,1579,6,168,0.9010238907849829
1758,-1,-1,5,1580,6,168,0.9010801591813531
1759,-1,-1,5,1581,6,168,0.9011363636363636
1760,-1,-1,5,1582,6,168,0.9011925042589438
1761,-1,-1,5,1583,6,168,0.9012485811577753
1762,-1,-1,5,1584,6,168,0.9013045944412933
1763,-1,-1,5,1585,6,168,0.9013605442176871
1764,-1,-1,5,1586,6,168,0.9014164305949008
1765,-1,-1,5,1587,6,168,0.9014722536806342
1766,-1,-1,5,1588,6,168,0.9015280135823429
1767,-1,-1,5,1589,6,168,0.9015837104072398
1768,-1,-1,5,1590,6,168,0.9016393442622951
1769,-1,-1,5,1591,6,168,0.9016949152542373
1770,-1,-1,5,1592,6,168,0.9017504234895539
1771,-1,-1,5,1593,6,168,0.9018058690744921
1772,-1,-1,5,1594,6,168,0.9018612521150592
1773,-1,-1,5,1595,6,168,0.9019165727170236
1774,-1,-1,5,1596,6,168,0.9019718309859155
1775,1,-1,5,1596,6,169,0.901463963963964
1776,-1,-1,5,1597,6,169,0.9015194147439505
1777,-1,-1,5,1598,6,169,0.9015748031496063
1778,-1,-1,5,1599,6,169,0.9016301292861157
1779,1,-1,5,1599,6,170,0.9011235955056179
1780,-1,-1,5,1600,6,170,0.9011791128579449
1781,-1,-1,5,1601,6,170,0.9012345679012346
1782,1,-1,5,1601,6,171,0.9007291082445317
1783,-1,-1,5,1602,6,171,0.9007847533632287
1784,-1,-1,5,1603,6,171,0.9008403361344538
1785,-1,-1,5,1604,6,171,0.9008958566629339
1786,-1,-1,5,1605,6,171,0.9009513150531617
1787,1,-1,5,1605,6,172,0.9004474272930649
1788,1,-1,5,1605,6,173,0.8999441028507547
1789,-1,-1,5,1606,6,173,0.9
1790,-1,-1,5,1607,6,173,0.9000558347292016
1791,-1,-1,5,1608,6,173,0.9001116071428571
1792,-1,-1,5,1609,6,173,0.9001673173452315
1793,-1,-1,5,1610,6,173,0.9002229654403567
1794,1,-1,5,1610,6,174,0.8997214484679665
1795,-1,-1,5,1611,6,174,0.8997772828507795
1796,-1,-1,5,1612,6,174,0.8998330550918197
1797,-1,-1,5,1613,6,174,0.899888765294772
1798,-1,-1,5,1614,6,174,0.8999444135630906
1799,-1,-1,5,1615,6,174,0.9
1800,-1,-1,5,1616,6,174,0.9000555247084953
1801,-1,-1,5,1617,6,174,0.9001109877913429
1802,-1,-1,5,1618,6,174,0.9001663893510815
1803,-1,-1,5,1619,6,174,0.9002217294900222
1804,-1,-1,5,1620,6,174,0.9002770083102493
1805,-1,-1,5,1621,6,174,0.9003322259136213
1806,-1,-1,5,1622,6,174,0.9003873824017709
1807,-1,-1,5,1623,6,174,0.9004424778761062
1808,-1,-1,5,1624,6,174,0.900497512437811
1809,-1,-1,5,1625,6,174,0.9005524861878453
1810,-1,-1,5,1626,6,174,0.9006073992269464
1811,-1,-1,5,1627,6,174,0.9006622516556292
1812,-1,-1,5,1628,6,174,0.9007170435741865
1813,1,-1,5,1628,6,175,0.9002205071664829
1814,-1,-1,5,1629,6,175,0.9002754820936639
1815,-1,-1,5,1630,6,175,0.900330396475771
1816,-1,-1,5,1631,6,175,0.9003852504127683
1817,-1,-1,5,1632,6,175,0.9004400440044005
1818,-1,-1,5,1633,6,175,0.9004947773501925
1819,-1,-1,5,1634,6,175,0.9005494505494506
1820,-1,-1,5,1635,6,175,0.900604063701263
1821,-1,-1,5,1636,6,175,0.9006586169045006
1822,-1,-1,5,1637,6,175,0.9007131102578168
1823,-1,-1,5,1638,6,175,0.9007675438596491
1824,-1,-1,5,1639,6,175,0.9008219178082192
1825,-1,-1,5,1640,6,175,0.9008762322015335
1826,-1,-1,5,1641,6,175,0.9009304871373837
1827,-1,-1,5,1642,6,175,0.900984682713348
1828,-1,-1,5,1643,6,175,0.9010388190267906
1829,-1,-1,5,1644,6,175,0.9010928961748634
1830,1,-1,5,1644,6,176,0.900600764609503
1831,-1,-1,5,1645,6,176,0.9006550218340611
1832,-1,-1,5,1646,6,176,0.900709219858156
1833,-1,-1,5,1647,6,176,0.9007633587786259
1834,-1,-1,5,1648,6,176,0.9008174386920981
1835,-1,-1,5,1649,6,176,0.900871459694989
1836,-1,-1,5,1650,6,176,0.9009254218835057
1837,-1,-1,5,1651,6,176,0.9009793253536452
1838,-1,-1,5,1652,6,176,0.9010331702011963
1839,-1,-1,5,1653,6,176,0.9010869565217391
1840,-1,-1,5,1654,6,176,0.9011406844106464
1841,-1,-1,5,1655,6,176,0.9011943539630836
1842,-1,-1,5,1656,6,176,0.9012479652740097
1843,-1,-1,5,1657,6,176,0.9013015184381779
1844,-1,-1,5,1658,6,176,0.9013550135501355
1845,-1,-1,5,1659,6,176,0.9014084507042254
1846,-1,-1,5,1660,6,176,0.9014618299945858
1847,-1,-1,5,1661,6,176,0.9015151515151515
1848,1,-1,5,1661,6,177,0.9010275824770146
1849,-1,-1,5,1662,6,177,0.9010810810810811
1850,-1,-1,5,1663,6,177,0.9011345218800648
1851,-1,-1,5,1664,6,177,0.9011879049676026
1852,-1,-1,5,1665,6,177,0.901241230437129
1853,-1,-1,5,1666,6,177,0.901294498381877
1854,-1,-1,5,1667,6,177,0.9013477088948787
1855,-1,-1,5,1668,6,177,0.9014008620689655
1856,-1,-1,5,1669,6,177,0.901453957996769
1857,-1,-1,5,1670,6,177,0.9015069967707212
1858,-1,-1,5,1671,6,177,0.9015599784830554
1859,-1,-1,5,1672,6,177,0.9016129032258065
1860,-1,-1,5,1673,6,177,0.9016657710908114
1861,1,-1,5,1673,6,178,0.9011815252416756
1862,-1,-1,5,1674,6,178,0.9012345679012346
1863,-1,-1,5,1675,6,178,0.9012875536480687
1864,-1,-1,5,1676,6,178,0.9013404825737266
1865,-1,-1,5,1677,6,178,0.9013933547695605
1866,-1,-1,5,1678,6,178,0.9014461703267274
1867,-1,-1,5,1679,6,178,0.9014989293361885
1868,-1,-1,5,1680,6,178,0.9015516318887106
1869,-1,-1,5,1681,6,178,0.9016042780748663
1870,-1,-1,5,1682,6,178,0.9016568679850347
1871,1,-1,5,1682,6,179,0.9011752136752137
1872,-1,-1,5,1683,6,179,0.9012279765082755
1873,-1,-1,5,1684,6,179,0.9012806830309499
1874,-1,-1,5,1685,6,179,0.9013333333333333
1875,-1,-1,5,1686,6,179,0.9013859275053305
1876,-1,-1,5,1687,6,179,0.9014384656366542
1877,1,-1,5,1687,6,180,0.9009584664536742
1878,-1,-1,5,1688,6,180,0.9010111761575306
1879,-1,-1,5,1689,6,180,0.9010638297872341
1880,-1,1,5,1689,7,180,0.9005847953216374
1881,-1,-1,5,1690,7,180,0.9006376195536663
1882,-1,-1,5,1691,7,180,0.9006903876792353
1883,1,-1,5,1691,7,181,0.9002123142250531
1884,-1,-1,5,1692,7,181,0.9002652519893899
1885,-1,-1,5,1693,7,181,0.9003181336161188
1886,-1,-1,5,1694,7,181,0.9003709591944886
1887,1,-1,5,1694,7,182,0.8998940677966102
1888,-1,-1,5,1695,7,182,0.899947061937533
1889,-1,-1,5,1696,7,182,0.9
1890,-1,-1,5,1697,7,182,0.9000528820729773
1891,-1,-1,5,1698,7,182,0.9001057082452432
1892,-1,-1,5,1699,7,182,0.9001584786053882
1893,-1,-1,5,1700,7,182,0.9002111932418163
1894,1,-1,5,1700,7,183,0.899736147757256
1895,-1,-1,5,1701,7,183,0.8997890295358649
1896,-1,-1,5,1702,7,183,0.8998418555614127
1897,-1,-1,5,1703,7,183,0.8998946259220232
1898,-1,-1,5,1704,7,183,0.8999473407056345
1899,-1,-1,5,1705,7,183,0.9
1900,-1,-1,5,1706,7,183,0.900052603892688
1901,-1,-1,5,1707,7,183,0.900105152471083
1902,-1,-1,5,1708,7,183,0.9001576458223857
1903,-1,-1,5,1709,7,183,0.9002100840336135
1904,-1,-1,5,1710,7,183,0.9002624671916011
1905,1,-1,5,1710,7,184,0.8997901364113327
1906,-1,-1,5,1711,7,184,0.8998426848453067
1907,-1,-1,5,1712,7,184,0.899895178197065
1908,-1,-1,5,1713,7,184,0.8999476165531692
1909,1,-1,5,1713,7,185,0.8994764397905759
1910,-1,-1,5,1714,7,185,0.8995290423861853
1911,-1,-1,5,1715,7,185,0.899581589958159
1912,-1,-1,5,1716,7,185,0.8996340825927862
1913,-1,-1,5,1717,7,185,0.8996865203761756
1914,-1,-1,5,1718,7,185,0.8997389033942559
1915,-1,-1,5,1719,7,185,0.8997912317327766
1916,-1,-1,5,1720,7,185,0.8998435054773083
1917,-1,-1,5,1721,7,185,0.899895724713243
1918,-1,-1,5,1722,7,185,0.8999478895257946
1919,-1,-1,5,1723,7,185,0.9
1920,-1,-1,5,1724,7,185,0.9000520562207184
1921,-1,-1,5,1725,7,185,0.9001040582726326
1922,-1,-1,5,1726,7,185,0.9001560062402496
1923,-1,-1,5,1727,7,185,0.9002079002079002
1924,-1,-1,5,1728,7,185,0.9002597402597402
1925,-1,-1,5,1729,7,185,0.9003115264797508
1926,-1,-1,5,1730,7,185,0.9003632589517384
1927,-1,-1,5,1731,7,185,0.9004149377593361
1928,-1,-1,5,1732,7,185,0.9004665629860031
1929,-1,-1,5,1733,7,185,0.900518134715026
1930,-1,-1,5,1734,7,185,0.9005696530295184
1931,-1,-1,5,1735,7,185,0.9006211180124224
1932,-1,-1,5,1736,7,185,0.900672529746508
1933,1,-1,5,1736,7,186,0.9002068252326784
1934,-1,-1,5,1737,7,186,0.9002583979328166
1935,-1,-1,5,1738,7,186,0.9003099173553719
1936,1,-1,5,1738,7,187,0.8998451213216314
1937,-1,-1,5,1739,7,187,0.8998968008255934
1938,-1,-1,5,1740,7,187,0.8999484270242393
1939,-1,-1,5,1741,7,187,0.9
1940,-1,-1,5,1742,7,187,0.9000515198351365
1941,-1,-1,5,1743,7,187,0.9001029866117405
1942,-1,-1,5,1744,7,187,0.9001544004117344
1943,-1,-1,5,1745,7,187,0.9002057613168725
1944,-1,-1,5,1746,7,187,0.9002570694087404
1945,-1,-1,5,1747,7,187,0.9003083247687564
1946,-1,-1,5,1748,7,187,0.9003595274781715
1947,1,-1,5,1748,7,188,0.8998973305954825
1948,-1,-1,5,1749,7,188,0.8999486916367367
1949,-1,-1,5,1750,7,188,0.9
1950,-1,-1,5,1751,7,188,0.9000512557662738
1951,-1,-1,5,1752,7,188,0.9001024590163934
1952,-1,-1,5,1753,7,188,0.9001536098310292
1953,-1,-1,5,1754,7,188,0.9002047082906858
1954,-1,-1,5,1755,7,188,0.9002557544757033
1955,-1,-1,5,1756,7,188,0.9003067484662577
1956,-1,-1,5,1757,7,188,0.9003576903423608
1957,1,-1,5,1757,7,189,0.8998978549540347
1958,-1,-1,5,1758,7,189,0.8999489535477284
1959,-1,-1,5,1759,7,189,0.9
1960,-1,-1,5,1760,7,189,0.9000509943906171
1961,-1,-1,5,1761,7,189,0.9001019367991845
1962,-1,-1,5,1762,7,189,0.9001528273051452
1963,-1,-1,5,1763,7,189,0.90020366598778
1964,1,-1,5,1763,7,190,0.8997455470737914
1965,-1,-1,5,1764,7,190,0.8997965412004069
1966,-1,-1,5,1765,7,190,0.8998474834773768
1967,-1,-1,5,1766,7,190,0.8998983739837398
1968,-1,-1,5,1767,7,190,0.8999492127983748
1969,-1,-1,5,1768,7,190,0.9
1970,-1,-1,5,1769,7,190,0.900050735667174
1971,-1,-1,5,1770,7,190,0.9001014198782962
1972,-1,-1,5,1771,7,190,0.9001520527116067
1973,-1,-1,5,1772,7,190,0.9002026342451874
1974,-1,-1,5,1773,7,190,0.900253164556962
1975,-1,-1,5,1774,7,190,0.9003036437246964
1976,-1,-1,5,1775,7,190,0.900354071825999
1977,-1,-1,5,1776,7,190,0.9004044489383215
1978,-1,-1,5,1777,7,190,0.9004547751389591
1979,1,-1,5,1777,7,191,0.9
1980,-1,-1,5,1778,7,191,0.9000504795557799
1981,1,-1,5,1778,7,192,0.8995963673057518
1982,-1,-1,5,1779,7,192,0.8996469994957136
1983,-1,-1,5,1780,7,192,0.8996975806451613
1984,-1,-1,5,1781,7,192,0.8997481108312343
1985,-1,-1,5,1782,7,192,0.8997985901309165
1986,-1,-1,5,1783,7,192,0.8998490186210367
1987,-1,-1,5,1784,7,192,0.8998993963782697
1988,-1,-1,5,1785,7,192,0.8999497234791353
1989,-1,-1,5,1786,7,192,0.9
1990,-1,-1,5,1787,7,192,0.9000502260170768
1991,-1,-1,5,1788,7,192,0.9001004016064257
1992,-1,-1,5,1789,7,192,0.9001505268439538
1993,1,-1,5,1789,7,193,0.8996990972918756
1994,-1,-1,5,1790,7,193,0.899749373433584
1995,-1,-1,5,1791,7,193,0.8997995991983968
1996,1,1,6,1791,7,193,0.899849774661993
1997,-1,-1,6,1792,7,193,0.8998998998998999
1998,-1,-1,6,1793,7,193,0.8999499749874937
1999,-1,-1,6,1794,7,193,0.9
2000,-1,-1,6,1795,7,193,0.9000499750124937
2001,-1,-1,6,1796,7,193,0.9000999000999002
2002,-1,-1,6,1797,7,193,0.9001497753369945
2003,-1,-1,6,1798,7,193,0.9001996007984032
2004,-1,-1,6,1799,7,193,0.9002493765586035
2005,-1,-1,6,1800,7,193,0.9002991026919243
2006,-1,-1,6,1801,7,193,0.9003487792725461
2007,-1,-1,6,1802,7,193,0.900398406374502
2008,-1,-1,6,1803,7,193,0.9004479840716775
2009,-1,-1,6,1804,7,193,0.900497512437811
2010,-1,-1,6,1805,7,193,0.9005469915464943
2011,-1,-1,6,1806,7,193,0.9005964214711729
2012,-1,-1,6,1807,7,193,0.9006458022851466
2013,-1,-1,6,1808,7,193,0.900695134061569
2014,-1,-1,6,1809,7,193,0.9007444168734491
2015,-1,-1,6,1810,7,193,0.9007936507936508
2016,-1,-1,6,1811,7,193,0.9008428358948934
2017,-1,-1,6,1812,7,193,0.9008919722497523
2018,1,-1,6,1812,7,194,0.9004457652303121
2019,-1,-1,6,1813,7,194,0.9004950495049505
2020,-1,-1,6,1814,7,194,0.9005442850074221
2021,-1,-1,6,1815,7,194,0.900593471810089
2022,-1,-1,6,1816,7,194,0.9006426099851705
2023,-1,-1,6,1817,7,194,0.900691699604743
2024,-1,-1,6,1818,7,194,0.9007407407407407
2025,-1,-1,6,1819,7,194,0.9007897334649556
2026,-1,-1,6,1820,7,194,0.900838677849038
2027,-1,-1,6,1821,7,194,0.900887573964497
2028,-1,-1,6,1822,7,194,0.9009364218827008
2029,1,-1,6,1822,7,195,0.9004926108374385
2030,-1,-1,6,1823,7,195,0.9005416051206302
2031,-1,-1,6,1824,7,195,0.9005905511811023
2032,-1,-1,6,1825,7,195,0.9006394490900148
2033,-1,-1,6,1826,7,195,0.9006882989183874
2034,1,-1,6,1826,7,196,0.9002457002457003
2035,-1,-1,6,1827,7,196,0.900294695481336
2036,-1,-1,6,1828,7,196,0.9003436426116839
2037,-1,-1,6,1829,7,196,0.9003925417075564
2038,-1,-1,6,1830,7,196,0.9004413928396273
2039,-1,-1,6,1831,7,196,0.9004901960784314
2040,-1,-1,6,1832,7,196,0.9005389514943655
2041,-1,-1,6,1833,7,196,0.9005876591576886
2042,-1,-1,6,1834,7,196,0.9006363191385218
2043,-1,-1,6,1835,7,196,0.9006849315068494
2044,1,-1,6,1835,7,197,0.9002444987775061
2045,-1,-1,6,1836,7,197,0.9002932551319648
2046,1,-1,6,1836,7,198,0.8998534440644846
2047,-1,1,6,1836,8,198,0.8994140625
2048,-1,-1,6,1837,8,198,0.8994631527574427
2049,1,-1,6,1837,8,199,0.8990243902439025
2050,-1,-1,6,1838,8,199,0.8990736226231106
2051,-1,-1,6,1839,8,199,0.8991228070175439
2052,-1,-1,6,1840,8,199,0.899171943497321
2053,-1,-1,6,1841,8,199,0.8992210321324245
2054,1,-1,6,1841,8,200,0.8987834549878345
2055,-1,-1,6,1842,8,200,0.8988326848249028
2056,-1,-1,6,1843,8,200,0.8988818667963053
2057,-1,-1,6,1844,8,200,0.8989310009718173
2058,-1,-1,6,1845,8,200,0.8989800874210782
2059,-1,-1,6,1846,8,200,0.8990291262135922
2060,-1,-1,6,1847,8,200,0.8990781174187288
2061,-1,-1,6,1848,8,200,0.8991270611057226
2062,-1,-1,6,1849,8,200,0.8991759573436743
2063,-1,-1,6,1850,8,200,0.8992248062015504
2064,-1,-1,6,1851,8,200,0.899273607748184
2065,-1,-1,6,1852,8,200,0.8993223620522749
2066,-1,-1,6,1853,8,200,0.89937106918239
2067,-1,-1,6,1854,8,200,0.8994197292069632
2068,1,-1,6,1854,8,201,0.8989850169163848
2069,-1,-1,6,1855,8,201,0.8990338164251208
2070,-1,-1,6,1856,8,201,0.8990825688073395
2071,-1,-1,6,1857,8,201,0.8991312741312741
2072,-1,-1,6,1858,8,201,0.8991799324650265
2073,-1,-1,6,1859,8,201,0.899228543876567
2074,-1,-1,6,1860,8,201,0.899277108433735
2075,-1,-1,6,1861,8,201,0.899325626204239
2076,1,-1,6,1861,8,202,0.8988926336061628
2077,-1,-1,6,1862,8,202,0.8989412897016362
2078,-1,-1,6,1863,8,202,0.898989898989899
2079,-1,-1,6,1864,8,202,0.8990384615384616
2080,-1,-1,6,1865,8,202,0.8990869774147044
2081,1,-1,6,1865,8,203,0.8986551392891451
2082,-1,-1,6,1866,8,203,0.8987037926068171
2083,-1,-1,6,1867,8,203,0.8987523992322457
2084,-1,-1,6,1868,8,203,0.8988009592326139
2085,-1,-1,6,1869,8,203,0.8988494726749761
2086,-1,-1,6,1870,8,203,0.8988979396262577
2087,-1,-1,6,1871,8,203,0.8989463601532567
2088,-1,-1,6,1872,8,203,0.8989947343226424
2089,-1,-1,6,1873,8,203,0.899043062200957
2090,-1,-1,6,1874,8,203,0.899091343854615
2091,-1,-1,6,1875,8,203,0.8991395793499044
2092,-1,-1,6,1876,8,203,0.8991877687529861
2093,-1,-1,6,1877,8,203,0.899235912129895
2094,-1,-1,6,1878,8,203,0.8992840095465394
2095,-1,-1,6,1879,8,203,0.8993320610687023
2096,-1,-1,6,1880,8,203,0.899380066762041
2097,-1,-1,6,1881,8,203,0.8994280266920877
2098,-1,-1,6,1882,8,203,0.8994759409242497
2099,-1,-1,6,1883,8,203,0.8995238095238095
2100,-1,-1,6,1884,8,203,0.8995716325559258
2101,-1,-1,6,1885,8,203,0.8996194100856327
2102,-1,-1,6,1886,8,203,0.8996671421778412
2103,-1,-1,6,1887,8,203,0.8997148288973384
2104,-1,-1,6,1888,8,203,0.8997624703087886
2105,-1,-1,6,1889,8,203,0.8998100664767331
2106,-1,1,6,1889,9,203,0.8993830090175605
2107,1,-1,6,1889,9,204,0.8989563567362429
2108,-1,-1,6,1890,9,204,0.89900426742532
2109,-1,-1,6,1891,9,204,0.8990521327014218
2110,-1,-1,6,1892,9,204,0.8990999526290857
2111,-1,-1,6,1893,9,204,0.8991477272727273
2112,-1,-1,6,1894,9,204,0.8991954566966398
2113,-1,-1,6,1895,9,204,0.8992431409649952
2114,-1,-1,6,1896,9,204,0.8992907801418439
2115,-1,-1,6,1897,9,204,0.8993383742911153
2116,-1,-1,6,1898,9,204,0.8993859234766178
2117,-1,-1,6,1899,9,204,0.8994334277620396
2118,-1,-1,6,1900,9,204,0.8994808872109485
2119,-1,-1,6,1901,9,204,0.8995283018867924
2120,-1,-1,6,1902,9,204,0.8995756718528995
2121,-1,-1,6,1903,9,204,0.8996229971724788
2122,-1,-1,6,1904,9,204,0.8996702779086199
2123,-1,-1,6,1905,9,204,0.8997175141242938
2124,-1,-1,6,1906,9,204,0.8997647058823529
2125,-1,-1,6,1907,9,204,0.8998118532455315
2126,-1,-1,6,1908,9,204,0.8998589562764457
2127,-1,-1,6,1909,9,204,0.8999060150375939
2128,-1,-1,6,1910,9,204,0.8999530295913575
2129,-1,-1,6,1911,9,204,0.9
2130,-1,-1,6,1912,9,204,0.9000469263256687
2131,-1,-1,6,1913,9,204,0.900093808630394
2132,-1,-1,6,1914,9,204,0.90014064697609
2133,1,-1,6,1914,9,205,0.8997188378631678
2134,-1,-1,6,1915,9,205,0.8997658079625293
2135,-1,-1,6,1916,9,205,0.899812734082397
2136,-1,-1,6,1917,9,205,0.8998596162845109
2137,-1,-1,6,1918,9,205,0.8999064546304958
2138,-1,-1,6,1919,9,205,0.8999532491818607
2139,-1,-1,6,1920,9,205,0.9
2140,-1,-1,6,1921,9,205,0.9000467071461934
2141,-1,-1,6,1922,9,205,0.900093370681606
2142,-1,-1,6,1923,9,205,0.9001399906672889
2143,-1,-1,6,1924,9,205,0.9001865671641791
2144,1,-1,6,1924,9,206,0.8997668997668997
2145,-1,-1,6,1925,9,206,0.8998136067101584
2146,-1,-1,6,1926,9,206,0.8998602701443875
2147,-1,-1,6,1927,9,206,0.8999068901303539
2148,-1,-1,6,1928,9,206,0.899953466728711
2149,-1,-1,6,1929,9,206,0.9
2150,-1,-1,6,1930,9,206,0.900046490004649
2151,-1,-1,6,1931,9,206,0.900092936802974
2152,-1,-1,6,1932,9,206,0.9001393404551788
2153,-1,-1,6,1933,9,206,0.9001857010213556
2154,-1,-1,6,1934,9,206,0.9002320185614849
2155,-1,-1,6,1935,9,206,0.900278293135436
2156,-1,-1,6,1936,9,206,0.9003245248029671
2157,1,-1,6,1936,9,207,0.8999073215940686
2158,-1,-1,6,1937,9,207,0.8999536822603057
2159,-1,-1,6,1938,9,207,0.9
2160,-1,-1,6,1939,9,207,0.9000462748727441
2161,-1,-1,6,1940,9,207,0.9000925069380203
2162,-1,-1,6,1941,9,207,0.9001386962552012
2163,-1,-1,6,1942,9,207,0.9001848428835489
2164,-1,-1,6,1943,9,207,0.900230946882217
2165,-1,-1,6,1944,9,207,0.9002770083102493
2166,-1,-1,6,1945,9,207,0.9003230272265805
2167,-1,-1,6,1946,9,207,0.9003690036900369
2168,-1,-1,6,1947,9,207,0.9004149377593361
2169,-1,-1,6,1948,9,207,0.9004608294930876
2170,-1,-1,6,1949,9,207,0.9005066789497927
2171,-1,-1,6,1950,9,207,0.9005524861878453
2172,-1,-1,6,1951,9,207,0.9005982512655315
2173,1,-1,6,1951,9,208,0.9001839926402944
2174,-1,-1,6,1952,9,208,0.9002298850574713
2175,1,-1,6,1952,9,209,0.8998161764705882
2176,-1,-1,6,1953,9,209,0.8998621956821313
2177,-1,-1,6,1954,9,209,0.8999081726354453
2178,1,-1,6,1954,9,210,0.8994951812758146
2179,-1,-1,6,1955,9,210,0.8995412844036698
2180,-1,-1,6,1956,9,210,0.8995873452544704
2181,1,-1,6,1956,9,211,0.8991750687442713
2182,-1,-1,6,1957,9,211,0.8992212551534585
2183,-1,-1,6,1958,9,211,0.8992673992673993
2184,-1,-1,6,1959,9,211,0.8993135011441648
2185,-1,-1,6,1960,9,211,0.8993595608417201
2186,-1,-1,6,1961,9,211,0.8994055784179241
2187,-1,-1,6,1962,9,211,0.8994515539305301
2188,-1,-1,6,1963,9,211,0.8994974874371859
2189,-1,-1,6,1964,9,211,0.8995433789954338
2190,-1,-1,6,1965,9,211,0.8995892286627111
2191,-1,-1,6,1966,9,211,0.8996350364963503
2192,-1,-1,6,1967,9,211,0.8996808025535795
2193,-1,-1,6,1968,9,211,0.8997265268915223
2194,-1,-1,6,1969,9,211,0.8997722095671982
2195,-1,-1,6,1970,9,211,0.8998178506375227
2196,-1,-1,6,1971,9,211,0.8998634501593081
2197,-1,-1,6,1972,9,211,0.899909008189263
2198,-1,-1,6,1973,9,211,0.8999545247839927
2199,-1,-1,6,1974,9,211,0.9
2200,-1,-1,6,1975,9,211,0.9000454338936847
2201,-1,-1,6,1976,9,211,0.9000908265213442
2202,-1,-1,6,1977,9,211,0.9001361779391739
2203,-1,-1,6,1978,9,211,0.9001814882032668
2204,-1,-1,6,1979,9,211,0.9002267573696145
2205,-1,-1,6,1980,9,211,0.900271985494107
2206,-1,-1,6,1981,9,211,0.9003171726325329
2207,1,-1,6,1981,9,212,0.8999094202898551
2208,-1,-1,6,1982,9,212,0.8999547306473518
2209,-1,-1,6,1983,9,212,0.9
2210,-1,-1,6,1984,9,212,0.9000452284034374
2211,-1,-1,6,1985,9,212,0.9000904159132007
2212,-1,-1,6,1986,9,212,0.9001355625847266
2213,-1,-1,6,1987,9,212,0.9001806684733514
2214,-1,-1,6,1988,9,212,0.9002257336343115
2215,-1,-1,6,1989,9,212,0.9002707581227437
2216,-1,-1,6,1990,9,212,0.9003157419936851
2217,-1,-1,6,1991,9,212,0.9003606853020739
2218,-1,-1,6,1992,9,212,0.900405588102749
2219,-1,-1,6,1993,9,212,0.9004504504504505
2220,-1,-1,6,1994,9,212,0.9004952723998199
2221,-1,-1,6,1995,9,212,0.9005400540054005
2222,-1,-1,6,1996,9,212,0.9005847953216374
2223,-1,-1,6,1997,9,212,0.9006294964028777
2224,-1,-1,6,1998,9,212,0.9006741573033707
2225,-1,-1,6,1999,9,212,0.9007187780772686
2226,-1,-1,6,2000,9,212,0.9007633587786259
2227,-1,-1,6,2001,9,212,0.9008078994614004
2228,-1,-1,6,2002,9,212,0.9008524001794527
2229,-1,-1,6,2003,9,212,0.9008968609865471
2230,1,-1,6,2003,9,213,0.9004930524428507
2231,1,-1,6,2003,9,214,0.900089605734767
2232,-1,-1,6,2004,9,214,0.9001343484102104
2233,1,-1,6,2004,9,215,0.8997314234556849
2234,-1,-1,6,2005,9,215,0.8997762863534675
2235,-1,-1,6,2006,9,215,0.8998211091234347
2236,-1,-1,6,2007,9,215,0.899865891819401
2237,-1,-1,6,2008,9,215,0.8999106344950849
2238,-1,-1,6,2009,9,215,0.899955337204109
2239,-1,-1,6,2010,9,215,0.9
2240,-1,-1,6,2011,9,215,0.9000446229361893
2241,-1,-1,6,2012,9,215,0.9000892060660125
2242,-1,-1,6,2013,9,215,0.9001337494427106
2243,1,-1,6,2013,9,216,0.8997326203208557
2244,-1,-1,6,2014,9,216,0.8997772828507795
2245,-1,-1,6,2015,9,216,0.8998219056099733
2246,-1,-1,6,2016,9,216,0.8998664886515354
2247,-1,-1,6,2017,9,216,0.8999110320284698
2248,-1,-1,6,2018,9,216,0.899955535793686
2249,-1,-1,6,2019,9,216,0.9
2250,-1,-1,6,2020,9,216,0.9000444247001332
2251,-1,-1,6,2021,9,216,0.900088809946714
2252,1,-1,6,2021,9,217,0.8996893031513538
2253,1,-1,6,2021,9,218,0.8992901508429458
2254,-1,-1,6,2022,9,218,0.8993348115299334
2255,-1,-1,6,2023,9,218,0.8993794326241135
2256,-1,-1,6,2024,9,218,0.8994240141781126
2257,-1,-1,6,2025,9,218,0.8994685562444641
2258,-1,-1,6,2026,9,218,0.8995130588756087
2259,-1,-1,6,2027,9,218,0.8995575221238938
2260,-1,-1,6,2028,9,218,0.8996019460415745
2261,1,-1,6,2028,9,219,0.8992042440318302
2262,-1,-1,6,2029,9,219,0.8992487847989394
2263,-1,-1,6,2030,9,219,0.8992932862190812
2264,-1,-1,6,2031,9,219,0.8993377483443709
2265,-1,-1,6,2032,9,219,0.8993821712268314
2266,-1,-1,6,2033,9,219,0.8994265549183944
2267,-1,-1,6,2034,9,219,0.8994708994708994
2268,1,-1,6,2034,9,220,0.8990744821507272
2269,1,-1,6,2034,9,221,0.8986784140969163
2270,-1,-1,6,2035,9,221,0.8987230295024219
2271,-1,-1,6,2036,9,221,0.8987676056338029
2272,-1,-1,6,2037,9,221,0.8988121425428949
2273,-1,-1,6,2038,9,221,0.8988566402814424
2274,-1,-1,6,2039,9,221,0.8989010989010989
2275,-1,-1,6,2040,9,221,0.8989455184534271
2276,-1,-1,6,2041,9,221,0.898989898989899
2277,-1,-1,6,2042,9,221,0.8990342405618964
2278,-1,-1,6,2043,9,221,0.8990785432207108
2279,-1,-1,6,2044,9,221,0.8991228070175439
2280,-1,-1,6,2045,9,221,0.8991670320035072
2281,-1,-1,6,2046,9,221,0.8992112182296231
2282,-1,-1,6,2047,9,221,0.8992553657468244
2283,-1,-1,6,2048,9,221,0.8992994746059545
2284,-1,-1,6,2049,9,221,0.899343544857768
2285,1,-1,6,2049,9,222,0.8989501312335958
2286,1,-1,6,2049,9,223,0.8985570616528203
2287,-1,-1,6,2050,9,223,0.8986013986013986
2288,-1,-1,6,2051,9,223,0.8986456968108344
2289,-1,-1,6,2052,9,223,0.8986899563318778
2290,-1,-1,6,2053,9,223,0.8987341772151899
2291,-1,-1,6,2054,9,223,0.8987783595113438
2292,-1,-1,6,2055,9,223,0.8988225032708242
2293,-1,-1,6,2056,9,223,0.8988666085440279
2294,-1,-1,6,2057,9,223,0.8989106753812636
2295,-1,-1,6,2058,9,223,0.8989547038327527
2296,-1,-1,6,2059,9,223,0.8989986939486286
2297,-1,-1,6,2060,9,223,0.8990426457789382
2298,-1,-1,6,2061,9,223,0.8990865593736407
2299,-1,-1,6,2062,9,223,0.8991304347826087
2300,1,-1,6,2062,9,224,0.8987396784006954
2301,-1,-1,6,2063,9,224,0.8987836663770634
2302,-1,-1,6,2064,9,224,0.8988276161528441
2303,-1,-1,6,2065,9,224,0.8988715277777778
2304,-1,-1,6,2066,9,224,0.8989154013015185
2305,-1,-1,6,2067,9,224,0.898959236773634
2306,1,-1,6,2067,9,225,0.8985695708712613
2307,-1,-1,6,2068,9,225,0.8986135181975736
2308,-1,-1,6,2069,9,225,0.8986574274577739
2309,-1,-1,6,2070,9,225,0.8987012987012987
2310,-1,-1,6,2071,9,225,0.898745131977499
2311,-1,-1,6,2072,9,225,0.8987889273356401
2312,-1,-1,6,2073,9,225,0.8988326848249028
2313,-1,-1,6,2074,9,225,0.898876404494382
2314,1,-1,6,2074,9,226,0.8984881209503239
2315,-1,-1,6,2075,9,226,0.8985319516407599
2316,-1,-1,6,2076,9,226,0.8985757444971947
2317,-1,-1,6,2077,9,226,0.8986194995685937
2318,-1,-1,6,2078,9,226,0.8986632169038379
2319,-1,-1,6,2079,9,226,0.8987068965517241
2320,-1,-1,6,2080,9,226,0.8987505385609651
2321,-1,-1,6,2081,9,226,0.8987941429801894
2322,-1,-1,6,2082,9,226,0.8988377098579423
2323,-1,-1,6,2083,9,226,0.898881239242685
2324,-1,-1,6,2084,9,226,0.8989247311827957
2325,-1,-1,6,2085,9,226,0.8989681857265692
2326,-1,-1,6,2086,9,226,0.8990116029222175
2327,-1,-1,6,2087,9,226,0.8990549828178694
2328,-1,-1,6,2088,9,226,0.8990983254615715
2329,-1,-1,6,2089,9,226,0.8991416309012875
2330,-1,-1,6,2090,9,226,0.8991848991848992
2331,-1,-1,6,2091,9,226,0.8992281303602059
2332,-1,-1,6,2092,9,226,0.899271324474925
2333,-1,-1,6,2093,9,226,0.8993144815766924
2334,-1,-1,6,2094,9,226,0.8993576017130621
2335,-1,-1,6,2095,9,226,0.8994006849315068
2336,-1,-1,6,2096,9,226,0.899443731279418
2337,-1,-1,6,2097,9,226,0.8994867408041061
2338,-1,-1,6,2098,9,226,0.8995297135528003
2339,-1,-1,6,2099,9,226,0.8995726495726496
2340,-1,-1,6,2100,9,226,0.8996155489107219
2341,-1,-1,6,2101,9,226,0.8996584116140052
2342,-1,-1,6,2102,9,226,0.8997012377294067
2343,-1,-1,6,2103,9,226,0.8997440273037542
2344,-1,-1,6,2104,9,226,0.8997867803837953
2345,-1,1,6,2104,10,226,0.8994032395566922
2346,-1,-1,6,2105,10,226,0.8994461014060503
2347,-1,-1,6,2106,10,226,0.899488926746167
2348,-1,-1,6,2107,10,226,0.8995317156236696
2349,-1,-1,6,2108,10,226,0.8995744680851064
2350,1,-1,6,2108,10,227,0.8991918332624416
2351,-1,-1,6,2109,10,227,0.8992346938775511
2352,-1,-1,6,2110,10,227,0.8992775180620485
2353,-1,-1,6,2111,10,227,0.8993203058623619
2354,-1,-1,6,2112,10,227,0.8993630573248408
2355,-1,-1,6,2113,10,227,0.8994057724957555
2356,-1,-1,6,2114,10,227,0.8994484514212983
2357,-1,-1,6,2115,10,227,0.8994910941475827
2358,-1,-1,6,2116,10,227,0.8995337007206443
2359,-1,-1,6,2117,10,227,0.8995762711864407
2360,-1,-1,6,2118,10,227,0.8996188055908514
2361,-1,-1,6,2119,10,227,0.8996613039796783
2362,1,-1,6,2119,10,228,0.8992805755395683
2363,-1,-1,6,2120,10,228,0.8993231810490694
2364,-1,-1,6,2121,10,228,0.8993657505285412
2365,-1,-1,6,2122,10,228,0.8994082840236687
2366,-1,-1,6,2123,10,228,0.8994507815800592
2367,-1,-1,6,2124,10,228,0.8994932432432432
2368,-1,-1,6,2125,10,228,0.8995356690586745
2369,-1,-1,6,2126,10,228,0.8995780590717299
2370,-1,-1,6,2127,10,228,0.8996204133277098
2371,-1,-1,6,2128,10,228,0.8996627318718381
2372,-1,-1,6,2129,10,228,0.8997050147492626
2373,-1,-1,6,2130,10,228,0.8997472620050547
2374,-1,-1,6,2131,10,228,0.8997894736842105
2375,-1,-1,6,2132,10,228,0.8998316498316499
2376,-1,-1,6,2133,10,228,0.899873790492217
2377,-1,-1,6,2134,10,228,0.8999158957106812
2378,-1,-1,6,2135,10,228,0.899957965531736
2379,-1,-1,6,2136,10,228,0.9
2380,-1,-1,6,2137,10,228,0.9000419991600168
2381,-1,1,6,2137,11,228,0.899664147774979
2382,-1,-1,6,2138,11,228,0.8997062526227444
2383,-1,-1,6,2139,11,228,0.899748322147651
2384,-1,-1,6,2140,11,228,0.89979035639413
2385,-1,-1,6,2141,11,228,0.8998323554065382
2386,-1,-1,6,2142,11,228,0.899874319229158
2387,-1,-1,6,2143,11,228,0.8999162479061976
2388,-1,-1,6,2144,11,228,0.8999581414817915
2389,-1,-1,6,2145,11,228,0.9
2390,-1,-1,6,2146,11,228,0.9000418235048097
2391,-1,-1,6,2147,11,228,0.9000836120401338
2392,-1,-1,6,2148,11,228,0.9001253656498119
2393,-1,-1,6,2149,11,228,0.9001670843776107
2394,-1,-1,6,2150,11,228,0.9002087682672234
2395,-1,-1,6,2151,11,228,0.9002504173622704
2396,-1,-1,6,2152,11,228,0.9002920317062996
2397,-1,-1,6,2153,11,228,0.9003336113427857
2398,-1,-1,6,2154,11,228,0.9003751563151313
2399,-1,-1,6,2155,11,228,0.9004166666666666
2400,-1,-1,6,2156,11,228,0.9004581424406497
2401,1,-1,6,2156,11,229,0.9000832639467111
2402,-1,-1,6,2157,11,229,0.9001248439450686
2403,-1,-1,6,2158,11,229,0.9001663893510815
2404,-1,-1,6,2159,11,229,0.9002079002079002
2405,1,-1,6,2159,11,230,0.899833748960931
2406,-1,-1,6,2160,11,230,0.8998753635230577
2407,-1,-1,6,2161,11,230,0.8999169435215947
2408,-1,-1,6,2162,11,230,0.8999584889995849
2409,-1,-1,6,2163,11,230,0.9
2410,1,-1,6,2163,11,231,0.8996267109083368
2411,-1,-1,6,2164,11,231,0.8996683250414593
2412,-1,-1,6,2165,11,231,0.8997099046829673
2413,-1,-1,6,2166,11,231,0.899751449875725
2414,-1,-1,6,2167,11,231,0.8997929606625259
2415,-1,-1,6,2168,11,231,0.8998344370860927
2416,-1,-1,6,2169,11,231,0.8998758791890774
2417,-1,-1,6,2170,11,231,0.8999172870140613
2418,-1,-1,6,2171,11,231,0.8999586606035552
2419,-1,-1,6,2172,11,231,0.9
2420,-1,-1,6,2173,11,231,0.9000413052457662
2421,-1,-1,6,2174,11,231,0.9000825763831544
2422,1,-1,6,2174,11,232,0.8997111019397441
2423,-1,-1,6,2175,11,232,0.8997524752475248
2424,-1,-1,6,2176,11,232,0.8997938144329897
2425,-1,-1,6,2177,11,232,0.8998351195383347
2426,-1,-1,6,2178,11,232,0.899876390605686
2427,-1,-1,6,2179,11,232,0.8999176276771005
2428,-1,-1,6,2180,11,232,0.8999588307945656
2429,-1,-1,6,2181,11,232,0.9
2430,-1,-1,6,2182,11,232,0.900041135335253
2431,-1,-1,6,2183,11,232,0.9000822368421053
2432,-1,-1,6,2184,11,232,0.9001233045622689
2433,-1,-1,6,2185,11,232,0.900164338537387
2434,-1,-1,6,2186,11,232,0.9002053388090349
2435,-1,-1,6,2187,11,232,0.9002463054187192
2436,-1,-1,6,2188,11,232,0.9002872384078785
2437,-1,-1,6,2189,11,232,0.9003281378178835
2438,-1,-1,6,2190,11,232,0.9003690036900369
2439,-1,-1,6,2191,11,232,0.9004098360655738
2440,-1,-1,6,2192,11,232,0.9004506349856616
2441,-1,-1,6,2193,11,232,0.9004914004914005
2442,-1,-1,6,2194,11,232,0.9005321326238231
2443,-1,-1,6,2195,11,232,0.9005728314238952
