instance,lable,predicted,tp,tn,fp,fn,correctness
0,-1,-1,0,1,0,0,1.0
1,-1,-1,0,2,0,0,1.0
2,-1,-1,0,3,0,0,1.0
3,-1,-1,0,4,0,0,1.0
4,-1,-1,0,5,0,0,1.0
5,-1,-1,0,6,0,0,1.0
6,-1,-1,0,7,0,0,1.0
7,-1,-1,0,8,0,0,1.0
8,-1,-1,0,9,0,0,1.0
9,-1,-1,0,10,0,0,1.0
10,-1,-1,0,11,0,0,1.0
11,-1,-1,0,12,0,0,1.0
12,-1,-1,0,13,0,0,1.0
13,-1,-1,0,14,0,0,1.0
14,-1,-1,0,15,0,0,1.0
15,-1,-1,0,16,0,0,1.0
16,-1,-1,0,17,0,0,1.0
17,-1,-1,0,18,0,0,1.0
18,-1,-1,0,19,0,0,1.0
19,-1,-1,0,20,0,0,1.0
20,-1,-1,0,21,0,0,1.0
21,-1,-1,0,22,0,0,1.0
22,-1,-1,0,23,0,0,1.0
23,-1,-1,0,24,0,0,1.0
24,-1,-1,0,25,0,0,1.0
25,1,-1,0,25,0,1,0.9615384615384616
26,-1,-1,0,26,0,1,0.9629629629629629
27,-1,-1,0,27,0,1,0.9642857142857143
28,-1,-1,0,28,0,1,0.9655172413793104
29,-1,-1,0,29,0,1,0.9666666666666667
30,-1,-1,0,30,0,1,0.967741935483871
31,-1,-1,0,31,0,1,0.96875
32,-1,-1,0,32,0,1,0.9696969696969697
33,-1,-1,0,33,0,1,0.9705882352941176
34,-1,-1,0,34,0,1,0.9714285714285714
35,1,-1,0,34,0,2,0.9444444444444444
36,-1,-1,0,35,0,2,0.9459459459459459
37,-1,-1,0,36,0,2,0.9473684210526315
38,-1,-1,0,37,0,2,0.9487179487179487
39,-1,-1,0,38,0,2,0.95
40,-1,-1,0,39,0,2,0.9512195121951219
41,-1,-1,0,40,0,2,0.9523809523809523
42,-1,-1,0,41,0,2,0.9534883720930233
43,-1,-1,0,42,0,2,0.9545454545454546
44,-1,-1,0,43,0,2,0.9555555555555556
45,-1,-1,0,44,0,2,0.9565217391304348
46,-1,-1,0,45,0,2,0.9574468085106383
47,-1,-1,0,46,0,2,0.9583333333333334
48,-1,-1,0,47,0,2,0.9591836734693877
49,-1,-1,0,48,0,2,0.96
50,-1,-1,0,49,0,2,0.9607843137254902
51,-1,-1,0,50,0,2,0.9615384615384616
52,-1,-1,0,51,0,2,0.9622641509433962
53,-1,-1,0,52,0,2,0.9629629629629629
54,-1,-1,0,53,0,2,0.9636363636363636
55,-1,-1,0,54,0,2,0.9642857142857143
56,-1,-1,0,55,0,2,0.9649122807017544
57,-1,-1,0,56,0,2,0.9655172413793104
58,-1,-1,0,57,0,2,0.9661016949152542
59,-1,-1,0,58,0,2,0.9666666666666667
60,-1,-1,0,59,0,2,0.9672131147540983
61,-1,1,0,59,1,2,0.9516129032258065
62,-1,-1,0,60,1,2,0.9523809523809523
63,-1,-1,0,61,1,2,0.953125
64,-1,-1,0,62,1,2,0.9538461538461539
65,1,-1,0,62,1,3,0.9393939393939394
66,-1,-1,0,63,1,3,0.9402985074626866
67,1,-1,0,63,1,4,0.9264705882352942
68,-1,-1,0,64,1,4,0.927536231884058
69,-1,-1,0,65,1,4,0.9285714285714286
70,1,-1,0,65,1,5,0.9154929577464789
71,-1,-1,0,66,1,5,0.9166666666666666
72,-1,-1,0,67,1,5,0.9178082191780822
73,-1,-1,0,68,1,5,0.918918918918919
74,-1,-1,0,69,1,5,0.92
75,1,1,1,69,1,5,0.9210526315789473
76,-1,-1,1,70,1,5,0.922077922077922
77,-1,-1,1,71,1,5,0.9230769230769231
78,-1,-1,1,72,1,5,0.9240506329113924
79,-1,-1,1,73,1,5,0.925
80,-1,-1,1,74,1,5,0.9259259259259259
81,-1,-1,1,75,1,5,0.926829268292683
82,-1,1,1,75,2,5,0.9156626506024096
83,-1,-1,1,76,2,5,0.9166666666666666
84,1,-1,1,76,2,6,0.9058823529411765
85,-1,-1,1,77,2,6,0.9069767441860465
86,1,-1,1,77,2,7,0.896551724137931
87,-1,-1,1,78,2,7,0.8977272727272727
88,-1,-1,1,79,2,7,0.898876404494382
89,-1,-1,1,80,2,7,0.9
90,-1,-1,1,81,2,7,0.9010989010989011
91,-1,-1,1,82,2,7,0.9021739130434783
92,-1,-1,1,83,2,7,0.9032258064516129
93,-1,-1,1,84,2,7,0.9042553191489362
94,-1,-1,1,85,2,7,0.9052631578947369
95,-1,-1,1,86,2,7,0.90625
96,-1,-1,1,87,2,7,0.9072164948453608
97,-1,-1,1,88,2,7,0.9081632653061225
98,-1,-1,1,89,2,7,0.9090909090909091
99,-1,-1,1,90,2,7,0.91
100,-1,-1,1,91,2,7,0.9108910891089109
101,-1,-1,1,92,2,7,0.9117647058823529
102,-1,-1,1,93,2,7,0.912621359223301
103,-1,-1,1,94,2,7,0.9134615384615384
104,-1,-1,1,95,2,7,0.9142857142857143
105,-1,-1,1,96,2,7,0.9150943396226415
106,-1,-1,1,97,2,7,0.9158878504672897
107,-1,-1,1,98,2,7,0.9166666666666666
108,-1,-1,1,99,2,7,0.9174311926605505
109,-1,-1,1,100,2,7,0.9181818181818182
110,-1,-1,1,101,2,7,0.918918918918919
111,-1,-1,1,102,2,7,0.9196428571428571
112,-1,-1,1,103,2,7,0.9203539823008849
113,1,-1,1,103,2,8,0.9122807017543859
114,-1,-1,1,104,2,8,0.9130434782608695
115,-1,-1,1,105,2,8,0.9137931034482759
116,-1,-1,1,106,2,8,0.9145299145299145
117,-1,-1,1,107,2,8,0.9152542372881356
118,1,-1,1,107,2,9,0.907563025210084
119,-1,-1,1,108,2,9,0.9083333333333333
120,-1,-1,1,109,2,9,0.9090909090909091
121,-1,-1,1,110,2,9,0.9098360655737705
122,-1,-1,1,111,2,9,0.9105691056910569
123,1,-1,1,111,2,10,0.9032258064516129
124,-1,-1,1,112,2,10,0.904
125,-1,-1,1,113,2,10,0.9047619047619048
126,-1,-1,1,114,2,10,0.905511811023622
127,-1,-1,1,115,2,10,0.90625
128,-1,-1,1,116,2,10,0.9069767441860465
129,1,-1,1,116,2,11,0.9
130,-1,-1,1,117,2,11,0.9007633587786259
131,-1,-1,1,118,2,11,0.9015151515151515
132,-1,-1,1,119,2,11,0.9022556390977443
133,-1,-1,1,120,2,11,0.9029850746268657
134,-1,-1,1,121,2,11,0.9037037037037037
135,1,-1,1,121,2,12,0.8970588235294118
136,-1,-1,1,122,2,12,0.8978102189781022
137,-1,-1,1,123,2,12,0.8985507246376812
138,1,-1,1,123,2,13,0.8920863309352518
139,-1,-1,1,124,2,13,0.8928571428571429
140,-1,-1,1,125,2,13,0.8936170212765957
141,-1,-1,1,126,2,13,0.8943661971830986
142,-1,-1,1,127,2,13,0.8951048951048951
143,-1,-1,1,128,2,13,0.8958333333333334
144,-1,-1,1,129,2,13,0.896551724137931
145,-1,-1,1,130,2,13,0.8972602739726028
146,-1,-1,1,131,2,13,0.8979591836734694
147,1,-1,1,131,2,14,0.8918918918918919
148,-1,-1,1,132,2,14,0.8926174496644296
149,1,-1,1,132,2,15,0.8866666666666667
150,-1,-1,1,133,2,15,0.8874172185430463
151,-1,-1,1,134,2,15,0.8881578947368421
152,-1,-1,1,135,2,15,0.8888888888888888
153,-1,-1,1,136,2,15,0.8896103896103896
154,-1,-1,1,137,2,15,0.8903225806451613
155,-1,-1,1,138,2,15,0.8910256410256411
156,1,-1,1,138,2,16,0.8853503184713376
157,-1,-1,1,139,2,16,0.8860759493670886
158,-1,-1,1,140,2,16,0.8867924528301887
159,-1,-1,1,141,2,16,0.8875
160,1,-1,1,141,2,17,0.8819875776397516
161,-1,-1,1,142,2,17,0.8827160493827161
162,-1,-1,1,143,2,17,0.8834355828220859
163,-1,-1,1,144,2,17,0.8841463414634146
164,-1,-1,1,145,2,17,0.8848484848484849
165,-1,-1,1,146,2,17,0.8855421686746988
166,-1,-1,1,147,2,17,0.8862275449101796
167,-1,-1,1,148,2,17,0.8869047619047619
168,-1,-1,1,149,2,17,0.8875739644970414
169,-1,-1,1,150,2,17,0.888235294117647
170,-1,-1,1,151,2,17,0.8888888888888888
171,-1,-1,1,152,2,17,0.8895348837209303
172,-1,-1,1,153,2,17,0.8901734104046243
173,-1,-1,1,154,2,17,0.8908045977011494
174,-1,-1,1,155,2,17,0.8914285714285715
175,-1,-1,1,156,2,17,0.8920454545454546
176,-1,-1,1,157,2,17,0.8926553672316384
177,-1,-1,1,158,2,17,0.8932584269662921
178,-1,-1,1,159,2,17,0.8938547486033519
179,-1,-1,1,160,2,17,0.8944444444444445
180,-1,-1,1,161,2,17,0.8950276243093923
181,-1,-1,1,162,2,17,0.8956043956043956
182,1,-1,1,162,2,18,0.8907103825136612
183,1,-1,1,162,2,19,0.8858695652173914
184,-1,-1,1,163,2,19,0.8864864864864865
185,-1,-1,1,164,2,19,0.8870967741935484
186,-1,-1,1,165,2,19,0.8877005347593583
187,-1,-1,1,166,2,19,0.8882978723404256
188,-1,-1,1,167,2,19,0.8888888888888888
189,-1,-1,1,168,2,19,0.8894736842105263
190,-1,-1,1,169,2,19,0.8900523560209425
191,-1,-1,1,170,2,19,0.890625
192,-1,-1,1,171,2,19,0.8911917098445595
193,-1,-1,1,172,2,19,0.8917525773195877
194,-1,-1,1,173,2,19,0.8923076923076924
195,1,-1,1,173,2,20,0.8877551020408163
196,-1,-1,1,174,2,20,0.8883248730964467
197,-1,-1,1,175,2,20,0.8888888888888888
198,-1,-1,1,176,2,20,0.8894472361809045
199,-1,-1,1,177,2,20,0.89
200,-1,-1,1,178,2,20,0.8905472636815921
201,-1,-1,1,179,2,20,0.8910891089108911
202,-1,-1,1,180,2,20,0.8916256157635468
203,-1,-1,1,181,2,20,0.8921568627450981
204,-1,-1,1,182,2,20,0.8926829268292683
205,-1,-1,1,183,2,20,0.8932038834951457
206,-1,-1,1,184,2,20,0.893719806763285
207,-1,-1,1,185,2,20,0.8942307692307693
208,-1,-1,1,186,2,20,0.8947368421052632
209,-1,-1,1,187,2,20,0.8952380952380953
210,-1,-1,1,188,2,20,0.8957345971563981
211,-1,-1,1,189,2,20,0.8962264150943396
212,-1,-1,1,190,2,20,0.8967136150234741
213,-1,-1,1,191,2,20,0.897196261682243
214,-1,-1,1,192,2,20,0.8976744186046511
215,-1,-1,1,193,2,20,0.8981481481481481
216,-1,-1,1,194,2,20,0.8986175115207373
217,-1,-1,1,195,2,20,0.8990825688073395
218,-1,-1,1,196,2,20,0.8995433789954338
219,1,-1,1,196,2,21,0.8954545454545455
220,-1,-1,1,197,2,21,0.8959276018099548
221,-1,-1,1,198,2,21,0.8963963963963963
222,-1,-1,1,199,2,21,0.8968609865470852
223,-1,-1,1,200,2,21,0.8973214285714286
224,-1,-1,1,201,2,21,0.8977777777777778
225,-1,-1,1,202,2,21,0.8982300884955752
226,-1,-1,1,203,2,21,0.8986784140969163
227,-1,-1,1,204,2,21,0.8991228070175439
228,-1,-1,1,205,2,21,0.8995633187772926
229,-1,-1,1,206,2,21,0.9
230,-1,-1,1,207,2,21,0.9004329004329005
231,-1,-1,1,208,2,21,0.9008620689655172
232,-1,-1,1,209,2,21,0.9012875536480687
233,-1,-1,1,210,2,21,0.9017094017094017
234,-1,-1,1,211,2,21,0.902127659574468
235,-1,-1,1,212,2,21,0.902542372881356
236,-1,-1,1,213,2,21,0.9029535864978903
237,-1,-1,1,214,2,21,0.9033613445378151
238,-1,-1,1,215,2,21,0.9037656903765691
239,-1,-1,1,216,2,21,0.9041666666666667
240,-1,-1,1,217,2,21,0.9045643153526971
241,-1,-1,1,218,2,21,0.9049586776859504
242,-1,-1,1,219,2,21,0.9053497942386831
243,-1,-1,1,220,2,21,0.9057377049180327
244,-1,-1,1,221,2,21,0.9061224489795918
245,-1,1,1,221,3,21,0.9024390243902439
246,-1,-1,1,222,3,21,0.902834008097166
247,-1,-1,1,223,3,21,0.9032258064516129
248,1,-1,1,223,3,22,0.8995983935742972
249,1,-1,1,223,3,23,0.896
250,-1,-1,1,224,3,23,0.896414342629482
251,-1,-1,1,225,3,23,0.8968253968253969
252,-1,-1,1,226,3,23,0.8972332015810277
253,-1,-1,1,227,3,23,0.8976377952755905
254,-1,-1,1,228,3,23,0.8980392156862745
255,-1,-1,1,229,3,23,0.8984375
256,-1,-1,1,230,3,23,0.8988326848249028
257,-1,-1,1,231,3,23,0.8992248062015504
258,-1,-1,1,232,3,23,0.8996138996138996
259,-1,-1,1,233,3,23,0.9
260,-1,-1,1,234,3,23,0.9003831417624522
261,-1,-1,1,235,3,23,0.9007633587786259
262,-1,-1,1,236,3,23,0.9011406844106464
263,-1,-1,1,237,3,23,0.9015151515151515
264,-1,-1,1,238,3,23,0.9018867924528302
265,-1,-1,1,239,3,23,0.9022556390977443
266,1,-1,1,239,3,24,0.898876404494382
267,-1,-1,1,240,3,24,0.8992537313432836
268,-1,-1,1,241,3,24,0.8996282527881041
269,-1,-1,1,242,3,24,0.9
270,1,-1,1,242,3,25,0.8966789667896679
271,-1,-1,1,243,3,25,0.8970588235294118
272,-1,-1,1,244,3,25,0.8974358974358975
273,-1,-1,1,245,3,25,0.8978102189781022
274,-1,-1,1,246,3,25,0.8981818181818182
275,-1,-1,1,247,3,25,0.8985507246376812
276,-1,-1,1,248,3,25,0.8989169675090253
277,-1,-1,1,249,3,25,0.8992805755395683
278,-1,-1,1,250,3,25,0.899641577060932
279,-1,-1,1,251,3,25,0.9
280,-1,-1,1,252,3,25,0.900355871886121
281,-1,-1,1,253,3,25,0.900709219858156
282,-1,-1,1,254,3,25,0.901060070671378
283,-1,-1,1,255,3,25,0.9014084507042254
284,-1,-1,1,256,3,25,0.9017543859649123
285,-1,-1,1,257,3,25,0.9020979020979021
286,-1,-1,1,258,3,25,0.9024390243902439
287,-1,-1,1,259,3,25,0.9027777777777778
288,-1,-1,1,260,3,25,0.903114186851211
289,-1,-1,1,261,3,25,0.903448275862069
290,-1,-1,1,262,3,25,0.9037800687285223
291,1,-1,1,262,3,26,0.9006849315068494
292,-1,-1,1,263,3,26,0.9010238907849829
293,-1,-1,1,264,3,26,0.9013605442176871
294,-1,-1,1,265,3,26,0.9016949152542373
295,-1,-1,1,266,3,26,0.902027027027027
296,-1,-1,1,267,3,26,0.9023569023569024
297,-1,-1,1,268,3,26,0.9026845637583892
298,-1,-1,1,269,3,26,0.903010033444816
299,-1,-1,1,270,3,26,0.9033333333333333
300,-1,-1,1,271,3,26,0.9036544850498339
301,-1,-1,1,272,3,26,0.9039735099337748
302,-1,-1,1,273,3,26,0.9042904290429042
303,1,1,2,273,3,26,0.9046052631578947
304,-1,-1,2,274,3,26,0.9049180327868852
305,-1,-1,2,275,3,26,0.9052287581699346
306,-1,-1,2,276,3,26,0.9055374592833876
307,1,-1,2,276,3,27,0.9025974025974026
308,-1,-1,2,277,3,27,0.9029126213592233
309,-1,-1,2,278,3,27,0.9032258064516129
310,-1,-1,2,279,3,27,0.9035369774919614
311,-1,-1,2,280,3,27,0.9038461538461539
312,-1,-1,2,281,3,27,0.9041533546325878
313,-1,-1,2,282,3,27,0.9044585987261147
314,-1,-1,2,283,3,27,0.9047619047619048
315,-1,-1,2,284,3,27,0.9050632911392406
316,-1,-1,2,285,3,27,0.9053627760252366
317,-1,-1,2,286,3,27,0.9056603773584906
318,-1,-1,2,287,3,27,0.9059561128526645
319,-1,-1,2,288,3,27,0.90625
320,-1,-1,2,289,3,27,0.9065420560747663
321,-1,-1,2,290,3,27,0.906832298136646
322,1,-1,2,290,3,28,0.9040247678018576
323,-1,-1,2,291,3,28,0.904320987654321
324,-1,-1,2,292,3,28,0.9046153846153846
325,-1,-1,2,293,3,28,0.9049079754601227
326,-1,-1,2,294,3,28,0.9051987767584098
327,-1,-1,2,295,3,28,0.9054878048780488
328,-1,-1,2,296,3,28,0.9057750759878419
329,-1,-1,2,297,3,28,0.906060606060606
330,-1,-1,2,298,3,28,0.9063444108761329
331,-1,-1,2,299,3,28,0.9066265060240963
332,-1,-1,2,300,3,28,0.9069069069069069
333,-1,-1,2,301,3,28,0.907185628742515
334,-1,-1,2,302,3,28,0.9074626865671642
335,-1,-1,2,303,3,28,0.9077380952380952
336,-1,-1,2,304,3,28,0.9080118694362018
337,-1,-1,2,305,3,28,0.908284023668639
338,-1,-1,2,306,3,28,0.9085545722713865
339,-1,-1,2,307,3,28,0.9088235294117647
340,1,-1,2,307,3,29,0.906158357771261
341,-1,-1,2,308,3,29,0.9064327485380117
342,1,-1,2,308,3,30,0.9037900874635568
343,-1,-1,2,309,3,30,0.9040697674418605
344,-1,-1,2,310,3,30,0.9043478260869565
345,-1,-1,2,311,3,30,0.9046242774566474
346,-1,-1,2,312,3,30,0.9048991354466859
347,-1,-1,2,313,3,30,0.9051724137931034
348,-1,-1,2,314,3,30,0.9054441260744985
349,-1,-1,2,315,3,30,0.9057142857142857
350,-1,-1,2,316,3,30,0.905982905982906
351,-1,-1,2,317,3,30,0.90625
352,-1,-1,2,318,3,30,0.9065155807365439
353,1,-1,2,318,3,31,0.903954802259887
354,1,-1,2,318,3,32,0.9014084507042254
355,-1,-1,2,319,3,32,0.901685393258427
356,-1,-1,2,320,3,32,0.9019607843137255
357,1,-1,2,320,3,33,0.8994413407821229
358,-1,-1,2,321,3,33,0.8997214484679665
359,-1,-1,2,322,3,33,0.9
360,-1,-1,2,323,3,33,0.9002770083102493
361,-1,-1,2,324,3,33,0.9005524861878453
362,-1,-1,2,325,3,33,0.9008264462809917
363,-1,-1,2,326,3,33,0.9010989010989011
364,-1,-1,2,327,3,33,0.9013698630136986
365,-1,-1,2,328,3,33,0.9016393442622951
366,-1,-1,2,329,3,33,0.9019073569482289
367,-1,-1,2,330,3,33,0.9021739130434783
368,-1,-1,2,331,3,33,0.9024390243902439
369,-1,-1,2,332,3,33,0.9027027027027027
370,-1,-1,2,333,3,33,0.9029649595687331
371,-1,-1,2,334,3,33,0.9032258064516129
372,-1,-1,2,335,3,33,0.903485254691689
373,-1,-1,2,336,3,33,0.9037433155080213
374,1,1,3,336,3,33,0.904
375,-1,-1,3,337,3,33,0.9042553191489362
376,-1,-1,3,338,3,33,0.9045092838196287
377,-1,-1,3,339,3,33,0.9047619047619048
378,-1,-1,3,340,3,33,0.9050131926121372
379,-1,-1,3,341,3,33,0.9052631578947369
380,-1,-1,3,342,3,33,0.905511811023622
381,-1,-1,3,343,3,33,0.9057591623036649
382,-1,-1,3,344,3,33,0.9060052219321149
383,-1,-1,3,345,3,33,0.90625
384,1,-1,3,345,3,34,0.9038961038961039
385,-1,-1,3,346,3,34,0.9041450777202072
386,-1,-1,3,347,3,34,0.9043927648578811
387,1,1,4,347,3,34,0.904639175257732
388,1,-1,4,347,3,35,0.9023136246786633
389,-1,-1,4,348,3,35,0.9025641025641026
390,-1,-1,4,349,3,35,0.9028132992327366
391,1,-1,4,349,3,36,0.9005102040816326
392,-1,-1,4,350,3,36,0.9007633587786259
393,1,-1,4,350,3,37,0.8984771573604061
394,-1,-1,4,351,3,37,0.8987341772151899
395,-1,-1,4,352,3,37,0.898989898989899
396,1,-1,4,352,3,38,0.8967254408060453
397,-1,-1,4,353,3,38,0.8969849246231156
398,-1,-1,4,354,3,38,0.8972431077694235
399,-1,-1,4,355,3,38,0.8975
400,-1,-1,4,356,3,38,0.8977556109725686
401,-1,-1,4,357,3,38,0.8980099502487562
402,-1,-1,4,358,3,38,0.8982630272952854
403,-1,-1,4,359,3,38,0.8985148514851485
404,-1,-1,4,360,3,38,0.8987654320987655
405,-1,-1,4,361,3,38,0.8990147783251231
406,-1,-1,4,362,3,38,0.8992628992628993
407,-1,-1,4,363,3,38,0.8995098039215687
408,-1,-1,4,364,3,38,0.8997555012224939
409,1,-1,4,364,3,39,0.8975609756097561
410,-1,-1,4,365,3,39,0.8978102189781022
411,-1,-1,4,366,3,39,0.8980582524271845
412,-1,-1,4,367,3,39,0.8983050847457628
413,-1,-1,4,368,3,39,0.8985507246376812
414,-1,-1,4,369,3,39,0.8987951807228916
415,-1,-1,4,370,3,39,0.8990384615384616
416,-1,-1,4,371,3,39,0.8992805755395683
417,-1,-1,4,372,3,39,0.8995215311004785
418,-1,-1,4,373,3,39,0.8997613365155132
419,-1,-1,4,374,3,39,0.9
420,-1,-1,4,375,3,39,0.9002375296912114
421,-1,-1,4,376,3,39,0.9004739336492891
422,-1,-1,4,377,3,39,0.900709219858156
423,-1,-1,4,378,3,39,0.9009433962264151
424,1,-1,4,378,3,40,0.8988235294117647
425,-1,-1,4,379,3,40,0.8990610328638498
426,-1,-1,4,380,3,40,0.8992974238875878
427,-1,-1,4,381,3,40,0.8995327102803738
428,-1,-1,4,382,3,40,0.8997668997668997
429,-1,-1,4,383,3,40,0.9
430,1,-1,4,383,3,41,0.8979118329466357
431,-1,-1,4,384,3,41,0.8981481481481481
432,-1,-1,4,385,3,41,0.8983833718244804
433,-1,-1,4,386,3,41,0.8986175115207373
434,-1,-1,4,387,3,41,0.8988505747126436
435,-1,-1,4,388,3,41,0.8990825688073395
436,1,-1,4,388,3,42,0.897025171624714
437,-1,1,4,388,4,42,0.8949771689497716
438,-1,-1,4,389,4,42,0.8952164009111617
439,-1,-1,4,390,4,42,0.8954545454545455
440,-1,-1,4,391,4,42,0.8956916099773242
441,-1,-1,4,392,4,42,0.8959276018099548
442,-1,-1,4,393,4,42,0.8961625282167043
443,-1,-1,4,394,4,42,0.8963963963963963
444,-1,-1,4,395,4,42,0.8966292134831461
445,-1,-1,4,396,4,42,0.8968609865470852
446,-1,-1,4,397,4,42,0.8970917225950783
447,-1,-1,4,398,4,42,0.8973214285714286
448,1,-1,4,398,4,43,0.8953229398663697
449,1,-1,4,398,4,44,0.8933333333333333
450,1,-1,4,398,4,45,0.8913525498891353
451,-1,-1,4,399,4,45,0.8915929203539823
452,-1,-1,4,400,4,45,0.891832229580574
453,-1,-1,4,401,4,45,0.8920704845814978
454,-1,-1,4,402,4,45,0.8923076923076924
455,-1,1,4,402,5,45,0.8903508771929824
456,-1,-1,4,403,5,45,0.8905908096280087
457,-1,-1,4,404,5,45,0.8908296943231441
458,-1,-1,4,405,5,45,0.8910675381263616
459,-1,-1,4,406,5,45,0.8913043478260869
460,-1,1,4,406,6,45,0.8893709327548807
461,-1,-1,4,407,6,45,0.8896103896103896
462,-1,-1,4,408,6,45,0.8898488120950324
463,-1,-1,4,409,6,45,0.8900862068965517
464,-1,-1,4,410,6,45,0.8903225806451613
465,-1,-1,4,411,6,45,0.8905579399141631
466,-1,-1,4,412,6,45,0.8907922912205567
467,-1,-1,4,413,6,45,0.8910256410256411
468,-1,-1,4,414,6,45,0.8912579957356077
469,-1,-1,4,415,6,45,0.8914893617021277
470,-1,-1,4,416,6,45,0.89171974522293
471,-1,-1,4,417,6,45,0.8919491525423728
472,-1,-1,4,418,6,45,0.8921775898520085
473,-1,-1,4,419,6,45,0.8924050632911392
474,-1,-1,4,420,6,45,0.8926315789473684
475,-1,-1,4,421,6,45,0.8928571428571429
476,-1,-1,4,422,6,45,0.8930817610062893
477,-1,-1,4,423,6,45,0.893305439330544
478,-1,-1,4,424,6,45,0.8935281837160751
479,-1,-1,4,425,6,45,0.89375
480,-1,-1,4,426,6,45,0.893970893970894
481,-1,-1,4,427,6,45,0.8941908713692946
482,-1,-1,4,428,6,45,0.8944099378881988
483,-1,-1,4,429,6,45,0.8946280991735537
484,-1,-1,4,430,6,45,0.8948453608247423
485,-1,-1,4,431,6,45,0.8950617283950617
486,-1,-1,4,432,6,45,0.8952772073921971
487,-1,-1,4,433,6,45,0.8954918032786885
488,-1,-1,4,434,6,45,0.8957055214723927
489,-1,-1,4,435,6,45,0.8959183673469387
490,-1,-1,4,436,6,45,0.8961303462321792
491,-1,-1,4,437,6,45,0.8963414634146342
492,-1,-1,4,438,6,45,0.896551724137931
493,-1,-1,4,439,6,45,0.8967611336032388
494,-1,-1,4,440,6,45,0.896969696969697
495,-1,-1,4,441,6,45,0.8971774193548387
496,-1,-1,4,442,6,45,0.89738430583501
497,1,1,5,442,6,45,0.8975903614457831
498,1,-1,5,442,6,46,0.8957915831663327
499,-1,-1,5,443,6,46,0.896
500,-1,-1,5,444,6,46,0.8962075848303394
501,-1,-1,5,445,6,46,0.896414342629482
502,-1,-1,5,446,6,46,0.8966202783300199
503,-1,-1,5,447,6,46,0.8968253968253969
504,-1,-1,5,448,6,46,0.897029702970297
505,-1,-1,5,449,6,46,0.8972332015810277
506,-1,-1,5,450,6,46,0.8974358974358975
507,-1,-1,5,451,6,46,0.8976377952755905
508,-1,-1,5,452,6,46,0.8978388998035364
509,-1,-1,5,453,6,46,0.8980392156862745
510,-1,-1,5,454,6,46,0.898238747553816
511,-1,-1,5,455,6,46,0.8984375
512,-1,-1,5,456,6,46,0.898635477582846
513,-1,-1,5,457,6,46,0.8988326848249028
514,-1,-1,5,458,6,46,0.8990291262135922
515,-1,-1,5,459,6,46,0.8992248062015504
516,-1,-1,5,460,6,46,0.8994197292069632
517,-1,-1,5,461,6,46,0.8996138996138996
518,-1,-1,5,462,6,46,0.8998073217726397
519,-1,-1,5,463,6,46,0.9
520,-1,-1,5,464,6,46,0.9001919385796545
521,-1,-1,5,465,6,46,0.9003831417624522
522,-1,-1,5,466,6,46,0.9005736137667304
523,-1,-1,5,467,6,46,0.9007633587786259
524,-1,-1,5,468,6,46,0.900952380952381
525,-1,-1,5,469,6,46,0.9011406844106464
526,-1,-1,5,470,6,46,0.9013282732447818
527,-1,-1,5,471,6,46,0.9015151515151515
528,-1,-1,5,472,6,46,0.9017013232514177
529,-1,-1,5,473,6,46,0.9018867924528302
530,-1,-1,5,474,6,46,0.9020715630885122
531,-1,-1,5,475,6,46,0.9022556390977443
532,-1,-1,5,476,6,46,0.9024390243902439
533,-1,-1,5,477,6,46,0.9026217228464419
534,-1,-1,5,478,6,46,0.902803738317757
535,-1,-1,5,479,6,46,0.9029850746268657
536,-1,-1,5,480,6,46,0.9031657355679702
537,1,-1,5,480,6,47,0.9014869888475836
538,-1,-1,5,481,6,47,0.9016697588126159
539,-1,-1,5,482,6,47,0.9018518518518519
540,-1,-1,5,483,6,47,0.9020332717190388
541,-1,-1,5,484,6,47,0.9022140221402214
542,-1,-1,5,485,6,47,0.9023941068139963
543,-1,-1,5,486,6,47,0.9025735294117647
544,-1,-1,5,487,6,47,0.9027522935779817
545,-1,-1,5,488,6,47,0.9029304029304029
546,-1,-1,5,489,6,47,0.903107861060329
547,-1,-1,5,490,6,47,0.9032846715328468
548,1,-1,5,490,6,48,0.9016393442622951
549,-1,-1,5,491,6,48,0.9018181818181819
550,-1,-1,5,492,6,48,0.9019963702359347
551,-1,-1,5,493,6,48,0.9021739130434783
552,-1,-1,5,494,6,48,0.9023508137432188
553,-1,-1,5,495,6,48,0.9025270758122743
554,-1,-1,5,496,6,48,0.9027027027027027
555,-1,-1,5,497,6,48,0.9028776978417267
556,-1,-1,5,498,6,48,0.9030520646319569
557,-1,-1,5,499,6,48,0.9032258064516129
558,-1,-1,5,500,6,48,0.9033989266547406
559,1,-1,5,500,6,49,0.9017857142857143
560,-1,-1,5,501,6,49,0.9019607843137255
561,-1,-1,5,502,6,49,0.902135231316726
562,-1,-1,5,503,6,49,0.9023090586145648
563,1,-1,5,503,6,50,0.900709219858156
564,1,-1,5,503,6,51,0.8991150442477877
565,-1,-1,5,504,6,51,0.8992932862190812
566,-1,-1,5,505,6,51,0.8994708994708994
567,-1,-1,5,506,6,51,0.8996478873239436
568,-1,-1,5,507,6,51,0.8998242530755711
569,1,-1,5,507,6,52,0.8982456140350877
570,-1,-1,5,508,6,52,0.8984238178633975
571,-1,-1,5,509,6,52,0.8986013986013986
572,-1,-1,5,510,6,52,0.8987783595113438
573,-1,-1,5,511,6,52,0.8989547038327527
574,-1,-1,5,512,6,52,0.8991304347826087
575,-1,-1,5,513,6,52,0.8993055555555556
576,-1,-1,5,514,6,52,0.8994800693240901
577,-1,-1,5,515,6,52,0.8996539792387543
578,-1,-1,5,516,6,52,0.8998272884283247
579,-1,-1,5,517,6,52,0.9
580,-1,-1,5,518,6,52,0.9001721170395869
581,-1,-1,5,519,6,52,0.9003436426116839
582,-1,-1,5,520,6,52,0.9005145797598628
583,-1,-1,5,521,6,52,0.9006849315068494
584,-1,-1,5,522,6,52,0.9008547008547009
585,-1,-1,5,523,6,52,0.9010238907849829
586,-1,-1,5,524,6,52,0.9011925042589438
587,-1,-1,5,525,6,52,0.9013605442176871
588,-1,-1,5,526,6,52,0.9015280135823429
589,-1,-1,5,527,6,52,0.9016949152542373
590,-1,-1,5,528,6,52,0.9018612521150592
591,-1,-1,5,529,6,52,0.902027027027027
592,1,-1,5,529,6,53,0.9005059021922428
593,-1,-1,5,530,6,53,0.9006734006734006
594,-1,-1,5,531,6,53,0.9008403361344538
595,-1,-1,5,532,6,53,0.9010067114093959
596,-1,-1,5,533,6,53,0.9011725293132329
597,-1,-1,5,534,6,53,0.9013377926421404
598,-1,-1,5,535,6,53,0.9015025041736227
599,-1,-1,5,536,6,53,0.9016666666666666
600,-1,-1,5,537,6,53,0.9018302828618968
601,-1,-1,5,538,6,53,0.9019933554817275
602,-1,-1,5,539,6,53,0.9021558872305141
603,1,-1,5,539,6,54,0.9006622516556292
604,-1,-1,5,540,6,54,0.9008264462809917
605,-1,-1,5,541,6,54,0.900990099009901
606,-1,-1,5,542,6,54,0.9011532125205931
607,-1,1,5,542,7,54,0.899671052631579
608,-1,-1,5,543,7,54,0.8998357963875205
609,-1,-1,5,544,7,54,0.9
610,-1,1,5,544,8,54,0.8985270049099836
611,-1,-1,5,545,8,54,0.8986928104575164
612,-1,-1,5,546,8,54,0.8988580750407831
613,-1,-1,5,547,8,54,0.8990228013029316
614,-1,-1,5,548,8,54,0.8991869918699187
615,-1,-1,5,549,8,54,0.8993506493506493
616,-1,-1,5,550,8,54,0.899513776337115
617,-1,-1,5,551,8,54,0.8996763754045307
618,1,-1,5,551,8,55,0.8982229402261712
619,-1,-1,5,552,8,55,0.8983870967741936
620,-1,-1,5,553,8,55,0.8985507246376812
621,-1,-1,5,554,8,55,0.8987138263665595
622,-1,-1,5,555,8,55,0.898876404494382
623,1,-1,5,555,8,56,0.8974358974358975
624,-1,-1,5,556,8,56,0.8976
625,-1,-1,5,557,8,56,0.8977635782747604
626,-1,-1,5,558,8,56,0.89792663476874
627,-1,-1,5,559,8,56,0.8980891719745223
628,-1,-1,5,560,8,56,0.8982511923688394
629,-1,-1,5,561,8,56,0.8984126984126984
630,1,-1,5,561,8,57,0.8969889064976229
631,-1,1,5,561,9,57,0.8955696202531646
632,-1,-1,5,562,9,57,0.8957345971563981
633,-1,-1,5,563,9,57,0.8958990536277602
634,-1,-1,5,564,9,57,0.8960629921259843
635,-1,-1,5,565,9,57,0.8962264150943396
636,-1,-1,5,566,9,57,0.8963893249607535
637,-1,-1,5,567,9,57,0.896551724137931
638,-1,-1,5,568,9,57,0.8967136150234741
639,-1,-1,5,569,9,57,0.896875
640,-1,-1,5,570,9,57,0.8970358814352574
641,-1,-1,5,571,9,57,0.897196261682243
642,-1,-1,5,572,9,57,0.8973561430793157
643,-1,-1,5,573,9,57,0.8975155279503105
644,-1,-1,5,574,9,57,0.8976744186046511
645,-1,-1,5,575,9,57,0.8978328173374613
646,-1,-1,5,576,9,57,0.8979907264296755
647,-1,-1,5,577,9,57,0.8981481481481481
648,-1,-1,5,578,9,57,0.8983050847457628
649,-1,-1,5,579,9,57,0.8984615384615384
650,-1,-1,5,580,9,57,0.8986175115207373
651,-1,-1,5,581,9,57,0.8987730061349694
652,-1,-1,5,582,9,57,0.8989280245022971
653,-1,-1,5,583,9,57,0.8990825688073395
654,-1,-1,5,584,9,57,0.899236641221374
655,1,-1,5,584,9,58,0.8978658536585366
656,-1,-1,5,585,9,58,0.898021308980213
657,-1,-1,5,586,9,58,0.898176291793313
658,-1,-1,5,587,9,58,0.8983308042488619
659,-1,-1,5,588,9,58,0.8984848484848484
660,-1,-1,5,589,9,58,0.8986384266263238
661,-1,-1,5,590,9,58,0.8987915407854985
662,-1,-1,5,591,9,58,0.8989441930618401
663,-1,-1,5,592,9,58,0.8990963855421686
664,-1,-1,5,593,9,58,0.8992481203007519
665,-1,-1,5,594,9,58,0.8993993993993994
666,-1,-1,5,595,9,58,0.8995502248875562
667,-1,-1,5,596,9,58,0.8997005988023952
668,-1,-1,5,597,9,58,0.8998505231689088
669,-1,-1,5,598,9,58,0.9
670,-1,-1,5,599,9,58,0.9001490312965723
671,-1,-1,5,600,9,58,0.9002976190476191
672,-1,-1,5,601,9,58,0.9004457652303121
673,-1,-1,5,602,9,58,0.900593471810089
674,1,-1,5,602,9,59,0.8992592592592593
675,-1,-1,5,603,9,59,0.8994082840236687
676,-1,-1,5,604,9,59,0.8995568685376661
677,-1,-1,5,605,9,59,0.8997050147492626
678,-1,-1,5,606,9,59,0.8998527245949927
679,-1,-1,5,607,9,59,0.9
680,-1,-1,5,608,9,59,0.9001468428781204
681,-1,-1,5,609,9,59,0.9002932551319648
682,-1,-1,5,610,9,59,0.9004392386530015
683,-1,-1,5,611,9,59,0.9005847953216374
684,-1,-1,5,612,9,59,0.9007299270072993
685,-1,-1,5,613,9,59,0.9008746355685131
686,-1,-1,5,614,9,59,0.901018922852984
687,-1,-1,5,615,9,59,0.9011627906976745
688,-1,-1,5,616,9,59,0.9013062409288825
689,-1,-1,5,617,9,59,0.9014492753623189
690,-1,-1,5,618,9,59,0.9015918958031838
691,1,-1,5,618,9,60,0.9002890173410405
692,1,-1,5,618,9,61,0.898989898989899
693,-1,-1,5,619,9,61,0.899135446685879
694,-1,-1,5,620,9,61,0.8992805755395683
695,-1,-1,5,621,9,61,0.8994252873563219
696,-1,-1,5,622,9,61,0.8995695839311334
697,1,-1,5,622,9,62,0.8982808022922636
698,-1,-1,5,623,9,62,0.8984263233190272
699,-1,-1,5,624,9,62,0.8985714285714286
700,-1,-1,5,625,9,62,0.8987161198288159
701,1,-1,5,625,9,63,0.8974358974358975
702,-1,-1,5,626,9,63,0.8975817923186344
703,-1,-1,5,627,9,63,0.8977272727272727
704,-1,-1,5,628,9,63,0.8978723404255319
705,-1,-1,5,629,9,63,0.8980169971671388
706,1,-1,5,629,9,64,0.8967468175388967
707,-1,-1,5,630,9,64,0.8968926553672316
708,-1,-1,5,631,9,64,0.8970380818053597
709,-1,-1,5,632,9,64,0.8971830985915493
710,-1,-1,5,633,9,64,0.8973277074542897
711,-1,-1,5,634,9,64,0.8974719101123596
712,-1,-1,5,635,9,64,0.8976157082748948
713,-1,-1,5,636,9,64,0.8977591036414566
714,-1,-1,5,637,9,64,0.8979020979020979
715,-1,-1,5,638,9,64,0.8980446927374302
716,-1,-1,5,639,9,64,0.898186889818689
717,-1,-1,5,640,9,64,0.8983286908077994
718,-1,-1,5,641,9,64,0.8984700973574409
719,-1,-1,5,642,9,64,0.8986111111111111
720,-1,-1,5,643,9,64,0.8987517337031901
721,-1,-1,5,644,9,64,0.8988919667590027
722,-1,-1,5,645,9,64,0.8990318118948825
723,-1,-1,5,646,9,64,0.899171270718232
724,-1,-1,5,647,9,64,0.8993103448275862
725,1,-1,5,647,9,65,0.8980716253443526
726,-1,-1,5,648,9,65,0.8982118294360385
727,-1,-1,5,649,9,65,0.8983516483516484
728,-1,-1,5,650,9,65,0.8984910836762688
729,-1,-1,5,651,9,65,0.8986301369863013
730,-1,-1,5,652,9,65,0.8987688098495212
731,1,-1,5,652,9,66,0.8975409836065574
732,-1,-1,5,653,9,66,0.897680763983629
733,-1,-1,5,654,9,66,0.8978201634877384
734,-1,1,5,654,10,66,0.8965986394557823
735,-1,-1,5,655,10,66,0.8967391304347826
736,-1,-1,5,656,10,66,0.8968792401628223
737,-1,-1,5,657,10,66,0.8970189701897019
738,-1,-1,5,658,10,66,0.8971583220568335
739,-1,-1,5,659,10,66,0.8972972972972973
740,1,-1,5,659,10,67,0.8960863697705803
741,-1,-1,5,660,10,67,0.8962264150943396
742,-1,-1,5,661,10,67,0.8963660834454913
743,-1,-1,5,662,10,67,0.896505376344086
744,-1,-1,5,663,10,67,0.8966442953020134
745,-1,-1,5,664,10,67,0.8967828418230563
746,-1,-1,5,665,10,67,0.8969210174029452
747,-1,-1,5,666,10,67,0.8970588235294118
748,1,-1,5,666,10,68,0.8958611481975968
749,-1,-1,5,667,10,68,0.896
750,-1,-1,5,668,10,68,0.8961384820239681
751,1,-1,5,668,10,69,0.8949468085106383
752,-1,-1,5,669,10,69,0.8950863213811421
753,-1,-1,5,670,10,69,0.8952254641909815
754,1,-1,5,670,10,70,0.8940397350993378
755,1,-1,5,670,10,71,0.8928571428571429
756,-1,-1,5,671,10,71,0.892998678996037
757,-1,-1,5,672,10,71,0.8931398416886543
758,1,-1,5,672,10,72,0.8919631093544137
759,-1,-1,5,673,10,72,0.8921052631578947
760,-1,-1,5,674,10,72,0.8922470433639947
761,-1,-1,5,675,10,72,0.8923884514435696
762,-1,-1,5,676,10,72,0.8925294888597641
763,-1,-1,5,677,10,72,0.8926701570680629
764,-1,-1,5,678,10,72,0.8928104575163399
765,1,1,6,678,10,72,0.8929503916449086
766,-1,-1,6,679,10,72,0.8930899608865711
767,-1,-1,6,680,10,72,0.8932291666666666
768,-1,-1,6,681,10,72,0.893368010403121
769,-1,-1,6,682,10,72,0.8935064935064935
770,-1,-1,6,683,10,72,0.893644617380026
771,-1,-1,6,684,10,72,0.8937823834196891
772,-1,-1,6,685,10,72,0.8939197930142303
773,-1,-1,6,686,10,72,0.8940568475452196
774,-1,-1,6,687,10,72,0.8941935483870967
775,1,1,7,687,10,72,0.8943298969072165
776,1,-1,7,687,10,73,0.8931788931788932
777,-1,-1,7,688,10,73,0.8933161953727506
778,-1,-1,7,689,10,73,0.8934531450577664
779,-1,-1,7,690,10,73,0.8935897435897436
780,-1,-1,7,691,10,73,0.8937259923175416
781,-1,-1,7,692,10,73,0.8938618925831202
782,-1,1,7,692,11,73,0.89272030651341
783,-1,-1,7,693,11,73,0.8928571428571429
784,-1,-1,7,694,11,73,0.8929936305732484
785,-1,-1,7,695,11,73,0.8931297709923665
786,-1,-1,7,696,11,73,0.8932655654383735
787,-1,-1,7,697,11,73,0.8934010152284264
788,-1,-1,7,698,11,73,0.8935361216730038
789,-1,-1,7,699,11,73,0.8936708860759494
790,-1,-1,7,700,11,73,0.8938053097345132
791,-1,-1,7,701,11,73,0.8939393939393939
792,-1,-1,7,702,11,73,0.8940731399747793
793,-1,-1,7,703,11,73,0.8942065491183879
794,-1,-1,7,704,11,73,0.8943396226415095
795,-1,-1,7,705,11,73,0.8944723618090452
796,-1,1,7,705,12,73,0.8933500627352572
797,-1,-1,7,706,12,73,0.893483709273183
798,-1,-1,7,707,12,73,0.8936170212765957
799,1,-1,7,707,12,74,0.8925
800,-1,-1,7,708,12,74,0.8926342072409488
801,-1,-1,7,709,12,74,0.8927680798004988
802,-1,-1,7,710,12,74,0.8929016189290162
803,-1,-1,7,711,12,74,0.8930348258706468
804,-1,-1,7,712,12,74,0.893167701863354
805,-1,-1,7,713,12,74,0.8933002481389578
806,-1,-1,7,714,12,74,0.8934324659231723
807,-1,-1,7,715,12,74,0.8935643564356436
808,-1,-1,7,716,12,74,0.8936959208899876
809,-1,-1,7,717,12,74,0.8938271604938272
810,-1,-1,7,718,12,74,0.8939580764488286
811,-1,-1,7,719,12,74,0.8940886699507389
812,-1,-1,7,720,12,74,0.8942189421894219
813,1,1,8,720,12,74,0.8943488943488943
814,-1,-1,8,721,12,74,0.894478527607362
815,-1,-1,8,722,12,74,0.8946078431372549
816,-1,-1,8,723,12,74,0.8947368421052632
817,-1,-1,8,724,12,74,0.8948655256723717
818,-1,-1,8,725,12,74,0.894993894993895
819,-1,-1,8,726,12,74,0.8951219512195122
820,-1,-1,8,727,12,74,0.8952496954933008
821,1,-1,8,727,12,75,0.8941605839416058
822,-1,-1,8,728,12,75,0.8942891859052248
823,-1,-1,8,729,12,75,0.8944174757281553
824,-1,-1,8,730,12,75,0.8945454545454545
825,-1,-1,8,731,12,75,0.8946731234866828
826,-1,-1,8,732,12,75,0.8948004836759371
827,-1,-1,8,733,12,75,0.894927536231884
828,-1,-1,8,734,12,75,0.8950542822677925
829,-1,-1,8,735,12,75,0.8951807228915662
830,-1,-1,8,736,12,75,0.8953068592057761
831,-1,-1,8,737,12,75,0.8954326923076923
832,1,-1,8,737,12,76,0.8943577430972389
833,1,-1,8,737,12,77,0.8932853717026379
834,-1,-1,8,738,12,77,0.8934131736526946
835,-1,-1,8,739,12,77,0.8935406698564593
836,-1,-1,8,740,12,77,0.8936678614097969
837,1,-1,8,740,12,78,0.8926014319809069
838,-1,-1,8,741,12,78,0.8927294398092968
839,1,-1,8,741,12,79,0.8916666666666667
840,-1,-1,8,742,12,79,0.89179548156956
841,-1,-1,8,743,12,79,0.8919239904988123
842,-1,-1,8,744,12,79,0.8920521945432978
843,1,-1,8,744,12,80,0.8909952606635071
844,-1,-1,8,745,12,80,0.8911242603550296
845,-1,-1,8,746,12,80,0.8912529550827423
846,1,-1,8,746,12,81,0.8902007083825265
847,-1,-1,8,747,12,81,0.8903301886792453
848,1,-1,8,747,12,82,0.889281507656066
849,-1,-1,8,748,12,82,0.8894117647058823
850,-1,-1,8,749,12,82,0.8895417156286721
851,-1,-1,8,750,12,82,0.8896713615023474
852,-1,-1,8,751,12,82,0.8898007033997656
853,-1,-1,8,752,12,82,0.8899297423887588
854,-1,-1,8,753,12,82,0.8900584795321638
855,-1,-1,8,754,12,82,0.8901869158878505
856,-1,-1,8,755,12,82,0.8903150525087514
857,-1,-1,8,756,12,82,0.8904428904428905
858,-1,-1,8,757,12,82,0.8905704307334109
859,-1,-1,8,758,12,82,0.8906976744186047
860,-1,1,8,758,13,82,0.8896631823461092
861,-1,-1,8,759,13,82,0.8897911832946636
862,-1,-1,8,760,13,82,0.8899188876013905
863,-1,-1,8,761,13,82,0.8900462962962963
864,-1,-1,8,762,13,82,0.8901734104046243
865,-1,-1,8,763,13,82,0.8903002309468823
866,-1,-1,8,764,13,82,0.8904267589388697
867,-1,-1,8,765,13,82,0.8905529953917051
868,-1,-1,8,766,13,82,0.8906789413118527
869,-1,-1,8,767,13,82,0.8908045977011494
870,-1,-1,8,768,13,82,0.8909299655568312
871,-1,-1,8,769,13,82,0.8910550458715596
872,-1,1,8,769,14,82,0.8900343642611683
873,1,-1,8,769,14,83,0.8890160183066361
874,-1,-1,8,770,14,83,0.8891428571428571
875,-1,-1,8,771,14,83,0.889269406392694
876,-1,-1,8,772,14,83,0.8893956670467503
877,1,-1,8,772,14,84,0.8883826879271071
878,-1,-1,8,773,14,84,0.888509670079636
879,-1,-1,8,774,14,84,0.8886363636363637
880,-1,-1,8,775,14,84,0.8887627695800226
881,-1,-1,8,776,14,84,0.8888888888888888
882,-1,-1,8,777,14,84,0.8890147225368064
883,-1,-1,8,778,14,84,0.8891402714932126
884,-1,-1,8,779,14,84,0.8892655367231639
885,-1,-1,8,780,14,84,0.8893905191873589
886,-1,-1,8,781,14,84,0.8895152198421646
887,-1,-1,8,782,14,84,0.8896396396396397
888,-1,-1,8,783,14,84,0.889763779527559
889,-1,-1,8,784,14,84,0.8898876404494382
890,-1,-1,8,785,14,84,0.8900112233445566
891,-1,-1,8,786,14,84,0.8901345291479821
892,-1,-1,8,787,14,84,0.8902575587905935
893,-1,-1,8,788,14,84,0.8903803131991052
894,-1,-1,8,789,14,84,0.8905027932960894
895,-1,-1,8,790,14,84,0.890625
896,-1,-1,8,791,14,84,0.8907469342251951
897,-1,-1,8,792,14,84,0.89086859688196
898,-1,-1,8,793,14,84,0.8909899888765295
899,-1,-1,8,794,14,84,0.8911111111111111
900,1,-1,8,794,14,85,0.8901220865704772
901,-1,-1,8,795,14,85,0.8902439024390244
902,-1,-1,8,796,14,85,0.8903654485049833
903,-1,-1,8,797,14,85,0.8904867256637168
904,-1,-1,8,798,14,85,0.8906077348066298
905,-1,-1,8,799,14,85,0.890728476821192
906,-1,-1,8,800,14,85,0.8908489525909592
907,-1,-1,8,801,14,85,0.8909691629955947
908,-1,-1,8,802,14,85,0.8910891089108911
909,-1,-1,8,803,14,85,0.8912087912087913
910,-1,-1,8,804,14,85,0.8913282107574094
911,-1,-1,8,805,14,85,0.8914473684210527
912,-1,-1,8,806,14,85,0.891566265060241
913,-1,-1,8,807,14,85,0.8916849015317286
914,-1,-1,8,808,14,85,0.8918032786885246
915,-1,-1,8,809,14,85,0.8919213973799127
916,-1,-1,8,810,14,85,0.8920392584514721
917,-1,-1,8,811,14,85,0.8921568627450981
918,-1,-1,8,812,14,85,0.8922742110990207
919,-1,-1,8,813,14,85,0.8923913043478261
920,-1,-1,8,814,14,85,0.8925081433224755
921,-1,-1,8,815,14,85,0.8926247288503254
922,-1,-1,8,816,14,85,0.8927410617551462
923,-1,-1,8,817,14,85,0.8928571428571429
924,-1,-1,8,818,14,85,0.892972972972973
925,-1,1,8,818,15,85,0.8920086393088553
926,-1,-1,8,819,15,85,0.8921251348435815
927,-1,-1,8,820,15,85,0.8922413793103449
928,-1,-1,8,821,15,85,0.8923573735199138
929,-1,-1,8,822,15,85,0.8924731182795699
930,-1,-1,8,823,15,85,0.8925886143931256
931,1,-1,8,823,15,86,0.8916309012875536
932,-1,-1,8,824,15,86,0.8917470525187567
933,1,-1,8,824,15,87,0.8907922912205567
934,-1,-1,8,825,15,87,0.8909090909090909
935,1,-1,8,825,15,88,0.8899572649572649
936,1,-1,8,825,15,89,0.8890074706510138
937,-1,-1,8,826,15,89,0.8891257995735607
938,-1,-1,8,827,15,89,0.8892438764643238
939,-1,-1,8,828,15,89,0.8893617021276595
940,-1,-1,8,829,15,89,0.8894792773645058
941,-1,-1,8,830,15,89,0.8895966029723992
942,-1,-1,8,831,15,89,0.8897136797454931
943,-1,-1,8,832,15,89,0.8898305084745762
944,-1,-1,8,833,15,89,0.8899470899470899
945,-1,-1,8,834,15,89,0.8900634249471459
946,-1,-1,8,835,15,89,0.8901795142555439
947,-1,-1,8,836,15,89,0.890295358649789
948,-1,-1,8,837,15,89,0.8904109589041096
949,-1,-1,8,838,15,89,0.8905263157894737
950,-1,-1,8,839,15,89,0.8906414300736067
951,-1,-1,8,840,15,89,0.8907563025210085
952,-1,-1,8,841,15,89,0.8908709338929696
953,-1,-1,8,842,15,89,0.8909853249475891
954,-1,-1,8,843,15,89,0.8910994764397906
955,-1,-1,8,844,15,89,0.891213389121339
956,-1,-1,8,845,15,89,0.8913270637408568
957,-1,-1,8,846,15,89,0.8914405010438413
958,-1,-1,8,847,15,89,0.8915537017726799
959,-1,-1,8,848,15,89,0.8916666666666667
960,-1,-1,8,849,15,89,0.8917793964620188
961,-1,-1,8,850,15,89,0.8918918918918919
962,-1,-1,8,851,15,89,0.8920041536863966
963,-1,-1,8,852,15,89,0.8921161825726142
964,-1,-1,8,853,15,89,0.8922279792746114
965,-1,-1,8,854,15,89,0.8923395445134575
966,-1,-1,8,855,15,89,0.8924508790072389
967,-1,-1,8,856,15,89,0.8925619834710744
968,-1,-1,8,857,15,89,0.8926728586171311
969,-1,-1,8,858,15,89,0.8927835051546392
970,-1,-1,8,859,15,89,0.8928939237899073
971,-1,-1,8,860,15,89,0.8930041152263375
972,1,-1,8,860,15,90,0.8920863309352518
973,-1,-1,8,861,15,90,0.8921971252566735
974,-1,-1,8,862,15,90,0.8923076923076924
975,-1,-1,8,863,15,90,0.8924180327868853
976,-1,-1,8,864,15,90,0.8925281473899693
977,-1,-1,8,865,15,90,0.8926380368098159
978,-1,-1,8,866,15,90,0.8927477017364658
979,-1,-1,8,867,15,90,0.8928571428571429
980,1,-1,8,867,15,91,0.891946992864424
981,-1,-1,8,868,15,91,0.8920570264765784
982,-1,-1,8,869,15,91,0.8921668362156663
983,-1,-1,8,870,15,91,0.8922764227642277
984,-1,-1,8,871,15,91,0.8923857868020305
985,-1,-1,8,872,15,91,0.8924949290060852
986,-1,-1,8,873,15,91,0.8926038500506586
987,-1,-1,8,874,15,91,0.8927125506072875
988,1,-1,8,874,15,92,0.8918099089989889
989,-1,-1,8,875,15,92,0.8919191919191919
990,-1,-1,8,876,15,92,0.8920282542885973
991,-1,-1,8,877,15,92,0.8921370967741935
992,-1,-1,8,878,15,92,0.892245720040282
993,-1,-1,8,879,15,92,0.892354124748491
994,-1,-1,8,880,15,92,0.892462311557789
995,-1,-1,8,881,15,92,0.892570281124498
996,-1,-1,8,882,15,92,0.892678034102307
997,-1,-1,8,883,15,92,0.8927855711422845
998,-1,1,8,883,16,92,0.8918918918918919
999,-1,-1,8,884,16,92,0.892
1000,-1,-1,8,885,16,92,0.8921078921078921
1001,-1,-1,8,886,16,92,0.8922155688622755
1002,-1,-1,8,887,16,92,0.8923230309072782
1003,-1,-1,8,888,16,92,0.8924302788844621
1004,-1,-1,8,889,16,92,0.8925373134328358
1005,-1,-1,8,890,16,92,0.8926441351888668
1006,-1,-1,8,891,16,92,0.8927507447864945
1007,-1,-1,8,892,16,92,0.8928571428571429
1008,-1,-1,8,893,16,92,0.8929633300297324
1009,-1,-1,8,894,16,92,0.8930693069306931
1010,-1,-1,8,895,16,92,0.8931750741839762
1011,-1,-1,8,896,16,92,0.8932806324110671
1012,-1,-1,8,897,16,92,0.8933859822309971
1013,-1,-1,8,898,16,92,0.893491124260355
1014,-1,-1,8,899,16,92,0.8935960591133005
1015,-1,-1,8,900,16,92,0.8937007874015748
1016,-1,-1,8,901,16,92,0.8938053097345132
1017,-1,1,8,901,17,92,0.8929273084479371
1018,-1,-1,8,902,17,92,0.8930323846908734
1019,-1,-1,8,903,17,92,0.8931372549019608
1020,-1,-1,8,904,17,92,0.8932419196865817
1021,-1,-1,8,905,17,92,0.8933463796477495
1022,-1,-1,8,906,17,92,0.8934506353861192
1023,-1,-1,8,907,17,92,0.8935546875
1024,-1,-1,8,908,17,92,0.8936585365853659
1025,-1,-1,8,909,17,92,0.8937621832358674
1026,-1,-1,8,910,17,92,0.8938656280428432
1027,-1,-1,8,911,17,92,0.8939688715953308
1028,-1,-1,8,912,17,92,0.8940719144800777
1029,-1,-1,8,913,17,92,0.8941747572815534
1030,-1,-1,8,914,17,92,0.8942774005819593
1031,-1,-1,8,915,17,92,0.8943798449612403
1032,-1,-1,8,916,17,92,0.8944820909970959
1033,-1,-1,8,917,17,92,0.8945841392649904
1034,-1,-1,8,918,17,92,0.8946859903381642
1035,-1,-1,8,919,17,92,0.8947876447876448
1036,-1,-1,8,920,17,92,0.8948891031822566
1037,-1,-1,8,921,17,92,0.894990366088632
1038,1,-1,8,921,17,93,0.8941289701636189
1039,1,-1,8,921,17,94,0.8932692307692308
1040,-1,-1,8,922,17,94,0.8933717579250721
1041,-1,-1,8,923,17,94,0.8934740882917467
1042,-1,-1,8,924,17,94,0.8935762224352828
1043,1,-1,8,924,17,95,0.89272030651341
1044,-1,-1,8,925,17,95,0.8928229665071771
1045,-1,-1,8,926,17,95,0.892925430210325
1046,1,-1,8,926,17,96,0.89207258834766
1047,-1,-1,8,927,17,96,0.892175572519084
1048,-1,-1,8,928,17,96,0.892278360343184
1049,-1,-1,8,929,17,96,0.8923809523809524
1050,-1,-1,8,930,17,96,0.8924833491912464
1051,1,-1,8,930,17,97,0.8916349809885932
1052,-1,-1,8,931,17,97,0.8917378917378918
1053,-1,-1,8,932,17,97,0.8918406072106262
1054,-1,-1,8,933,17,97,0.8919431279620853
1055,-1,-1,8,934,17,97,0.8920454545454546
1056,-1,-1,8,935,17,97,0.8921475875118259
1057,-1,-1,8,936,17,97,0.8922495274102079
1058,-1,-1,8,937,17,97,0.8923512747875354
1059,-1,-1,8,938,17,97,0.8924528301886793
1060,-1,-1,8,939,17,97,0.8925541941564562
1061,-1,-1,8,940,17,97,0.8926553672316384
1062,-1,-1,8,941,17,97,0.8927563499529633
1063,-1,-1,8,942,17,97,0.8928571428571429
1064,-1,-1,8,943,17,97,0.8929577464788733
1065,-1,-1,8,944,17,97,0.8930581613508443
1066,-1,-1,8,945,17,97,0.8931583880037488
1067,-1,-1,8,946,17,97,0.8932584269662921
1068,-1,-1,8,947,17,97,0.8933582787652011
1069,-1,-1,8,948,17,97,0.8934579439252337
1070,-1,-1,8,949,17,97,0.8935574229691877
1071,-1,-1,8,950,17,97,0.8936567164179104
1072,-1,-1,8,951,17,97,0.8937558247903076
1073,-1,-1,8,952,17,97,0.8938547486033519
1074,-1,-1,8,953,17,97,0.893953488372093
1075,-1,-1,8,954,17,97,0.8940520446096655
1076,-1,-1,8,955,17,97,0.8941504178272981
1077,-1,-1,8,956,17,97,0.8942486085343229
1078,-1,-1,8,957,17,97,0.8943466172381835
1079,-1,-1,8,958,17,97,0.8944444444444445
1080,-1,1,8,958,18,97,0.8936170212765957
1081,-1,-1,8,959,18,97,0.8937153419593346
1082,-1,-1,8,960,18,97,0.8938134810710988
1083,1,-1,8,960,18,98,0.8929889298892989
1084,-1,-1,8,961,18,98,0.8930875576036866
1085,-1,-1,8,962,18,98,0.8931860036832413
1086,-1,-1,8,963,18,98,0.8932842686292548
1087,-1,-1,8,964,18,98,0.8933823529411765
1088,-1,-1,8,965,18,98,0.8934802571166207
1089,-1,-1,8,966,18,98,0.8935779816513761
1090,-1,-1,8,967,18,98,0.8936755270394133
1091,-1,-1,8,968,18,98,0.8937728937728938
1092,-1,-1,8,969,18,98,0.8938700823421775
1093,-1,-1,8,970,18,98,0.8939670932358318
1094,-1,-1,8,971,18,98,0.8940639269406393
1095,1,-1,8,971,18,99,0.8932481751824818
1096,-1,-1,8,972,18,99,0.8933454876937101
1097,-1,-1,8,973,18,99,0.8934426229508197
1098,-1,-1,8,974,18,99,0.8935395814376706
1099,1,-1,8,974,18,100,0.8927272727272727
1100,-1,-1,8,975,18,100,0.8928247048138056
1101,-1,-1,8,976,18,100,0.8929219600725953
1102,-1,-1,8,977,18,100,0.8930190389845875
1103,-1,-1,8,978,18,100,0.8931159420289855
1104,-1,-1,8,979,18,100,0.893212669683258
1105,-1,-1,8,980,18,100,0.8933092224231465
1106,-1,-1,8,981,18,100,0.8934056007226739
1107,-1,-1,8,982,18,100,0.8935018050541517
1108,1,1,9,982,18,100,0.8935978358881875
1109,-1,-1,9,983,18,100,0.8936936936936937
1110,1,-1,9,983,18,101,0.8928892889288929
1111,-1,-1,9,984,18,101,0.8929856115107914
1112,-1,-1,9,985,18,101,0.8930817610062893
1113,-1,-1,9,986,18,101,0.8931777378815081
1114,-1,-1,9,987,18,101,0.8932735426008969
1115,-1,-1,9,988,18,101,0.8933691756272402
1116,-1,-1,9,989,18,101,0.8934646374216652
1117,-1,-1,9,990,18,101,0.8935599284436494
1118,-1,-1,9,991,18,101,0.8936550491510277
1119,-1,-1,9,992,18,101,0.89375
1120,-1,-1,9,993,18,101,0.8938447814451382
1121,-1,-1,9,994,18,101,0.8939393939393939
1122,-1,-1,9,995,18,101,0.8940338379341051
1123,-1,-1,9,996,18,101,0.8941281138790036
1124,-1,-1,9,997,18,101,0.8942222222222223
1125,-1,-1,9,998,18,101,0.894316163410302
1126,1,-1,9,998,18,102,0.8935226264418811
1127,-1,-1,9,999,18,102,0.8936170212765957
1128,-1,-1,9,1000,18,102,0.8937112488928255
1129,-1,-1,9,1001,18,102,0.8938053097345132
1130,-1,-1,9,1002,18,102,0.8938992042440318
1131,-1,-1,9,1003,18,102,0.8939929328621908
1132,1,-1,9,1003,18,103,0.8932038834951457
1133,-1,-1,9,1004,18,103,0.8932980599647267
1134,-1,-1,9,1005,18,103,0.8933920704845815
1135,-1,-1,9,1006,18,103,0.8934859154929577
1136,-1,-1,9,1007,18,103,0.8935795954265612
1137,-1,-1,9,1008,18,103,0.8936731107205624
1138,-1,-1,9,1009,18,103,0.8937664618086041
1139,-1,-1,9,1010,18,103,0.893859649122807
1140,-1,-1,9,1011,18,103,0.8939526730937774
1141,-1,-1,9,1012,18,103,0.8940455341506129
1142,-1,-1,9,1013,18,103,0.8941382327209099
1143,-1,-1,9,1014,18,103,0.8942307692307693
1144,-1,-1,9,1015,18,103,0.8943231441048035
1145,-1,-1,9,1016,18,103,0.8944153577661431
1146,1,-1,9,1016,18,104,0.8936355710549259
1147,-1,-1,9,1017,18,104,0.8937282229965157
1148,1,-1,9,1017,18,105,0.8929503916449086
1149,-1,-1,9,1018,18,105,0.8930434782608696
1150,1,-1,9,1018,18,106,0.8922675933970461
1151,1,-1,9,1018,18,107,0.8914930555555556
1152,-1,-1,9,1019,18,107,0.8915871639202082
1153,-1,-1,9,1020,18,107,0.891681109185442
1154,-1,-1,9,1021,18,107,0.8917748917748918
1155,-1,-1,9,1022,18,107,0.8918685121107266
1156,-1,-1,9,1023,18,107,0.891961970613656
1157,-1,-1,9,1024,18,107,0.8920552677029361
1158,-1,-1,9,1025,18,107,0.8921484037963762
1159,-1,-1,9,1026,18,107,0.8922413793103449
1160,-1,-1,9,1027,18,107,0.892334194659776
1161,-1,-1,9,1028,18,107,0.8924268502581756
1162,-1,-1,9,1029,18,107,0.8925193465176269
1163,-1,-1,9,1030,18,107,0.8926116838487973
1164,-1,-1,9,1031,18,107,0.8927038626609443
1165,-1,-1,9,1032,18,107,0.8927958833619211
1166,-1,-1,9,1033,18,107,0.8928877463581834
1167,-1,-1,9,1034,18,107,0.8929794520547946
1168,-1,-1,9,1035,18,107,0.893071000855432
1169,-1,-1,9,1036,18,107,0.8931623931623932
1170,-1,-1,9,1037,18,107,0.8932536293766012
1171,-1,-1,9,1038,18,107,0.893344709897611
1172,1,-1,9,1038,18,108,0.8925831202046036
1173,-1,-1,9,1039,18,108,0.8926746166950597
1174,-1,-1,9,1040,18,108,0.8927659574468085
1175,-1,-1,9,1041,18,108,0.8928571428571429
1176,-1,-1,9,1042,18,108,0.892948173322005
1177,-1,-1,9,1043,18,108,0.8930390492359932
1178,-1,1,9,1043,19,108,0.8922815945716709
1179,-1,1,9,1043,20,108,0.8915254237288136
1180,-1,-1,9,1044,20,108,0.8916172734970365
1181,-1,-1,9,1045,20,108,0.8917089678510999
1182,-1,-1,9,1046,20,108,0.8918005071851226
1183,-1,-1,9,1047,20,108,0.8918918918918919
1184,-1,-1,9,1048,20,108,0.8919831223628693
1185,-1,-1,9,1049,20,108,0.8920741989881956
1186,-1,-1,9,1050,20,108,0.8921651221566975
1187,-1,-1,9,1051,20,108,0.8922558922558923
1188,-1,-1,9,1052,20,108,0.8923465096719932
1189,-1,-1,9,1053,20,108,0.892436974789916
1190,-1,-1,9,1054,20,108,0.892527287993283
1191,-1,-1,9,1055,20,108,0.8926174496644296
1192,-1,-1,9,1056,20,108,0.892707460184409
1193,-1,-1,9,1057,20,108,0.8927973199329984
1194,-1,-1,9,1058,20,108,0.8928870292887029
1195,-1,-1,9,1059,20,108,0.8929765886287625
1196,1,-1,9,1059,20,109,0.8922305764411027
1197,-1,-1,9,1060,20,109,0.8923205342237062
1198,-1,-1,9,1061,20,109,0.8924103419516264
1199,-1,-1,9,1062,20,109,0.8925
1200,-1,-1,9,1063,20,109,0.8925895087427144
1201,-1,-1,9,1064,20,109,0.8926788685524126
1202,1,-1,9,1064,20,110,0.8919368246051538
1203,-1,-1,9,1065,20,110,0.8920265780730897
1204,-1,-1,9,1066,20,110,0.8921161825726142
1205,-1,-1,9,1067,20,110,0.8922056384742952
1206,-1,-1,9,1068,20,110,0.8922949461474731
1207,-1,-1,9,1069,20,110,0.8923841059602649
1208,-1,-1,9,1070,20,110,0.8924731182795699
1209,-1,-1,9,1071,20,110,0.8925619834710744
1210,-1,-1,9,1072,20,110,0.8926507018992568
1211,-1,-1,9,1073,20,110,0.8927392739273927
1212,-1,-1,9,1074,20,110,0.8928276999175597
1213,-1,-1,9,1075,20,110,0.8929159802306426
1214,-1,-1,9,1076,20,110,0.8930041152263375
1215,-1,1,9,1076,21,110,0.8922697368421053
1216,-1,-1,9,1077,21,110,0.8923582580115037
1217,-1,-1,9,1078,21,110,0.8924466338259441
1218,-1,-1,9,1079,21,110,0.8925348646431501
1219,-1,-1,9,1080,21,110,0.8926229508196721
1220,-1,-1,9,1081,21,110,0.8927108927108927
1221,-1,-1,9,1082,21,110,0.8927986906710311
1222,-1,-1,9,1083,21,110,0.892886345053148
1223,-1,-1,9,1084,21,110,0.8929738562091504
1224,-1,-1,9,1085,21,110,0.893061224489796
1225,-1,-1,9,1086,21,110,0.8931484502446982
1226,-1,-1,9,1087,21,110,0.8932355338223309
1227,-1,-1,9,1088,21,110,0.8933224755700325
1228,-1,-1,9,1089,21,110,0.8934092758340114
1229,-1,-1,9,1090,21,110,0.8934959349593496
1230,-1,-1,9,1091,21,110,0.8935824532900081
1231,-1,-1,9,1092,21,110,0.8936688311688312
1232,-1,-1,9,1093,21,110,0.8937550689375506
1233,-1,-1,9,1094,21,110,0.8938411669367909
1234,-1,-1,9,1095,21,110,0.8939271255060729
1235,-1,-1,9,1096,21,110,0.8940129449838188
1236,-1,-1,9,1097,21,110,0.8940986257073565
1237,-1,-1,9,1098,21,110,0.8941841680129241
1238,-1,-1,9,1099,21,110,0.8942695722356739
1239,-1,-1,9,1100,21,110,0.8943548387096775
1240,1,-1,9,1100,21,111,0.8936341659951652
1241,-1,-1,9,1101,21,111,0.893719806763285
1242,-1,-1,9,1102,21,111,0.8938053097345132
1243,-1,-1,9,1103,21,111,0.8938906752411575
1244,-1,1,9,1103,22,111,0.8931726907630522
1245,-1,-1,9,1104,22,111,0.8932584269662921
1246,-1,-1,9,1105,22,111,0.8933440256615878
1247,-1,-1,9,1106,22,111,0.8934294871794872
1248,1,-1,9,1106,22,112,0.8927141713370697
1249,-1,-1,9,1107,22,112,0.8928
1250,-1,-1,9,1108,22,112,0.8928856914468425
1251,1,-1,9,1108,22,113,0.8921725239616614
1252,-1,-1,9,1109,22,113,0.8922585794094174
1253,-1,-1,9,1110,22,113,0.8923444976076556
1254,1,-1,9,1110,22,114,0.8916334661354581
1255,-1,-1,9,1111,22,114,0.89171974522293
1256,-1,-1,9,1112,22,114,0.8918058870326173
1257,1,-1,9,1112,22,115,0.8910969793322735
1258,-1,-1,9,1113,22,115,0.8911834789515488
1259,-1,-1,9,1114,22,115,0.8912698412698413
1260,-1,-1,9,1115,22,115,0.8913560666137986
1261,-1,-1,9,1116,22,115,0.8914421553090333
1262,-1,-1,9,1117,22,115,0.8915281076801267
1263,-1,-1,9,1118,22,115,0.8916139240506329
1264,-1,-1,9,1119,22,115,0.891699604743083
1265,-1,-1,9,1120,22,115,0.891785150078989
1266,-1,-1,9,1121,22,115,0.8918705603788477
1267,-1,-1,9,1122,22,115,0.8919558359621451
1268,-1,-1,9,1123,22,115,0.8920409771473601
1269,-1,-1,9,1124,22,115,0.8921259842519685
1270,-1,-1,9,1125,22,115,0.8922108575924469
1271,-1,-1,9,1126,22,115,0.8922955974842768
1272,-1,1,9,1126,23,115,0.8915946582875098
1273,-1,-1,9,1127,23,115,0.8916797488226059
1274,-1,-1,9,1128,23,115,0.8917647058823529
1275,-1,-1,9,1129,23,115,0.8918495297805643
1276,-1,-1,9,1130,23,115,0.8919342208300705
1277,1,-1,9,1130,23,116,0.8912363067292645
1278,1,-1,9,1130,23,117,0.890539483971853
1279,-1,-1,9,1131,23,117,0.890625
1280,-1,-1,9,1132,23,117,0.8907103825136612
1281,-1,-1,9,1133,23,117,0.890795631825273
1282,-1,-1,9,1134,23,117,0.8908807482462977
1283,-1,-1,9,1135,23,117,0.8909657320872274
1284,-1,-1,9,1136,23,117,0.8910505836575876
1285,-1,-1,9,1137,23,117,0.8911353032659409
1286,-1,-1,9,1138,23,117,0.8912198912198912
1287,-1,-1,9,1139,23,117,0.8913043478260869
1288,-1,-1,9,1140,23,117,0.891388673390225
1289,-1,-1,9,1141,23,117,0.8914728682170543
1290,-1,-1,9,1142,23,117,0.8915569326103796
1291,-1,-1,9,1143,23,117,0.891640866873065
1292,-1,-1,9,1144,23,117,0.8917246713070379
1293,-1,-1,9,1145,23,117,0.8918083462132921
1294,-1,-1,9,1146,23,117,0.8918918918918919
1295,-1,-1,9,1147,23,117,0.8919753086419753
1296,-1,-1,9,1148,23,117,0.8920585967617579
1297,1,-1,9,1148,23,118,0.8913713405238829
1298,-1,-1,9,1149,23,118,0.8914549653579676
1299,-1,-1,9,1150,23,118,0.8915384615384615
1300,-1,-1,9,1151,23,118,0.8916218293620292
1301,-1,-1,9,1152,23,118,0.8917050691244239
1302,-1,-1,9,1153,23,118,0.8917881811204912
1303,-1,1,9,1153,24,118,0.8911042944785276
1304,-1,-1,9,1154,24,118,0.8911877394636015
1305,-1,-1,9,1155,24,118,0.891271056661562
1306,-1,-1,9,1156,24,118,0.891354246365723
1307,1,1,10,1156,24,118,0.8914373088685015
1308,-1,-1,10,1157,24,118,0.891520244461421
1309,-1,-1,10,1158,24,118,0.8916030534351145
1310,-1,-1,10,1159,24,118,0.8916857360793288
1311,-1,-1,10,1160,24,118,0.8917682926829268
1312,-1,-1,10,1161,24,118,0.8918507235338918
1313,-1,-1,10,1162,24,118,0.8919330289193302
1314,-1,-1,10,1163,24,118,0.8920152091254753
1315,-1,-1,10,1164,24,118,0.89209726443769
1316,-1,-1,10,1165,24,118,0.8921791951404707
1317,-1,-1,10,1166,24,118,0.8922610015174507
1318,-1,-1,10,1167,24,118,0.8923426838514026
1319,-1,-1,10,1168,24,118,0.8924242424242425
1320,-1,-1,10,1169,24,118,0.8925056775170326
1321,1,-1,10,1169,24,119,0.8918305597579426
1322,-1,-1,10,1170,24,119,0.891912320483749
1323,-1,-1,10,1171,24,119,0.8919939577039275
1324,-1,-1,10,1172,24,119,0.8920754716981132
1325,1,-1,10,1172,24,120,0.8914027149321267
1326,-1,-1,10,1173,24,120,0.8914845516201959
1327,-1,-1,10,1174,24,120,0.891566265060241
1328,-1,-1,10,1175,24,120,0.891647855530474
1329,-1,-1,10,1176,24,120,0.8917293233082707
1330,1,-1,10,1176,24,121,0.8910593538692713
1331,-1,-1,10,1177,24,121,0.8911411411411412
1332,-1,-1,10,1178,24,121,0.8912228057014253
1333,-1,-1,10,1179,24,121,0.8913043478260869
1334,-1,-1,10,1180,24,121,0.8913857677902621
1335,-1,-1,10,1181,24,121,0.8914670658682635
1336,-1,-1,10,1182,24,121,0.8915482423335827
1337,-1,-1,10,1183,24,121,0.8916292974588939
1338,-1,-1,10,1184,24,121,0.8917102315160568
1339,-1,-1,10,1185,24,121,0.8917910447761194
1340,-1,-1,10,1186,24,121,0.8918717375093214
1341,-1,-1,10,1187,24,121,0.8919523099850969
1342,-1,-1,10,1188,24,121,0.8920327624720774
1343,-1,-1,10,1189,24,121,0.8921130952380952
1344,-1,-1,10,1190,24,121,0.8921933085501859
1345,-1,-1,10,1191,24,121,0.8922734026745914
1346,-1,-1,10,1192,24,121,0.8923533778767632
1347,-1,-1,10,1193,24,121,0.892433234421365
1348,1,-1,10,1193,24,122,0.8917716827279466
1349,-1,-1,10,1194,24,122,0.8918518518518519
1350,-1,-1,10,1195,24,122,0.8919319022945966
1351,-1,-1,10,1196,24,122,0.8920118343195266
1352,1,-1,10,1196,24,123,0.8913525498891353
1353,-1,-1,10,1197,24,123,0.8914327917282127
1354,-1,-1,10,1198,24,123,0.8915129151291513
1355,-1,-1,10,1199,24,123,0.8915929203539823
1356,1,-1,10,1199,24,124,0.8909358879882093
1357,-1,-1,10,1200,24,124,0.8910162002945509
1358,-1,-1,10,1201,24,124,0.8910963944076526
1359,-1,-1,10,1202,24,124,0.8911764705882353
1360,-1,-1,10,1203,24,124,0.8912564290962528
1361,-1,-1,10,1204,24,124,0.8913362701908958
1362,-1,-1,10,1205,24,124,0.8914159941305942
1363,-1,-1,10,1206,24,124,0.8914956011730205
1364,-1,-1,10,1207,24,124,0.8915750915750916
1365,-1,-1,10,1208,24,124,0.8916544655929722
1366,-1,-1,10,1209,24,124,0.8917337234820776
1367,1,-1,10,1209,24,125,0.8910818713450293
1368,-1,-1,10,1210,24,125,0.8911614317019723
1369,-1,-1,10,1211,24,125,0.8912408759124087
1370,-1,-1,10,1212,24,125,0.8913202042304887
1371,-1,-1,10,1213,24,125,0.891399416909621
1372,-1,-1,10,1214,24,125,0.8914785142024764
1373,-1,-1,10,1215,24,125,0.8915574963609898
1374,1,-1,10,1215,24,126,0.8909090909090909
1375,-1,-1,10,1216,24,126,0.8909883720930233
1376,-1,-1,10,1217,24,126,0.8910675381263616
1377,-1,-1,10,1218,24,126,0.8911465892597968
1378,-1,-1,10,1219,24,126,0.8912255257432923
1379,-1,-1,10,1220,24,126,0.8913043478260869
1380,-1,-1,10,1221,24,126,0.8913830557566981
1381,-1,-1,10,1222,24,126,0.8914616497829233
1382,1,-1,10,1222,24,127,0.8908170643528561
1383,-1,-1,10,1223,24,127,0.8908959537572254
1384,-1,-1,10,1224,24,127,0.8909747292418773
1385,-1,-1,10,1225,24,127,0.8910533910533911
1386,-1,-1,10,1226,24,127,0.8911319394376351
1387,-1,-1,10,1227,24,127,0.8912103746397695
1388,-1,-1,10,1228,24,127,0.8912886969042476
1389,-1,-1,10,1229,24,127,0.8913669064748202
1390,-1,-1,10,1230,24,127,0.8914450035945363
1391,-1,-1,10,1231,24,127,0.8915229885057471
1392,1,-1,10,1231,24,128,0.8908829863603733
1393,-1,-1,10,1232,24,128,0.890961262553802
1394,-1,-1,10,1233,24,128,0.8910394265232975
1395,-1,-1,10,1234,24,128,0.8911174785100286
1396,-1,-1,10,1235,24,128,0.8911954187544738
1397,-1,-1,10,1236,24,128,0.8912732474964234
1398,-1,-1,10,1237,24,128,0.8913509649749821
1399,1,-1,10,1237,24,129,0.8907142857142857
1400,-1,-1,10,1238,24,129,0.8907922912205567
1401,-1,-1,10,1239,24,129,0.890870185449358
1402,-1,-1,10,1240,24,129,0.8909479686386315
1403,-1,-1,10,1241,24,129,0.8910256410256411
1404,-1,-1,10,1242,24,129,0.8911032028469751
1405,-1,-1,10,1243,24,129,0.8911806543385491
1406,-1,-1,10,1244,24,129,0.8912579957356077
1407,-1,-1,10,1245,24,129,0.8913352272727273
1408,-1,-1,10,1246,24,129,0.8914123491838183
1409,-1,-1,10,1247,24,129,0.8914893617021277
1410,-1,-1,10,1248,24,129,0.891566265060241
1411,-1,-1,10,1249,24,129,0.8916430594900849
1412,-1,-1,10,1250,24,129,0.89171974522293
1413,-1,-1,10,1251,24,129,0.8917963224893918
1414,-1,-1,10,1252,24,129,0.8918727915194347
1415,-1,-1,10,1253,24,129,0.8919491525423728
1416,-1,-1,10,1254,24,129,0.8920254057868737
1417,-1,-1,10,1255,24,129,0.892101551480959
1418,-1,-1,10,1256,24,129,0.8921775898520085
1419,-1,-1,10,1257,24,129,0.8922535211267606
1420,-1,-1,10,1258,24,129,0.8923293455313159
1421,-1,1,10,1258,25,129,0.8917018284106891
1422,-1,-1,10,1259,25,129,0.8917779339423753
1423,-1,-1,10,1260,25,129,0.8918539325842697
1424,-1,-1,10,1261,25,129,0.8919298245614035
1425,-1,-1,10,1262,25,129,0.8920056100981767
1426,-1,-1,10,1263,25,129,0.8920812894183602
1427,-1,-1,10,1264,25,129,0.8921568627450981
1428,-1,-1,10,1265,25,129,0.8922323303009098
1429,-1,-1,10,1266,25,129,0.8923076923076924
1430,-1,-1,10,1267,25,129,0.8923829489867225
1431,-1,1,10,1267,26,129,0.8917597765363129
1432,-1,-1,10,1268,26,129,0.8918353105373342
1433,-1,-1,10,1269,26,129,0.8919107391910739
1434,-1,-1,10,1270,26,129,0.89198606271777
1435,-1,-1,10,1271,26,129,0.8920612813370473
1436,-1,-1,10,1272,26,129,0.8921363952679193
1437,-1,-1,10,1273,26,129,0.89221140472879
1438,-1,-1,10,1274,26,129,0.8922863099374566
1439,-1,-1,10,1275,26,129,0.8923611111111112
1440,-1,-1,10,1276,26,129,0.8924358084663429
1441,-1,-1,10,1277,26,129,0.8925104022191401
1442,-1,-1,10,1278,26,129,0.8925848925848926
1443,-1,-1,10,1279,26,129,0.8926592797783933
1444,-1,-1,10,1280,26,129,0.8927335640138409
1445,-1,-1,10,1281,26,129,0.892807745504841
1446,-1,-1,10,1282,26,129,0.8928818244644091
1447,-1,-1,10,1283,26,129,0.8929558011049724
1448,-1,-1,10,1284,26,129,0.8930296756383713
1449,-1,-1,10,1285,26,129,0.8931034482758621
1450,1,-1,10,1285,26,130,0.892487939352171
1451,1,-1,10,1285,26,131,0.8918732782369146
1452,-1,-1,10,1286,26,131,0.891947694425327
1453,-1,-1,10,1287,26,131,0.8920220082530949
1454,-1,-1,10,1288,26,131,0.8920962199312715
1455,-1,-1,10,1289,26,131,0.8921703296703297
1456,1,-1,10,1289,26,132,0.8915579958819492
1457,-1,-1,10,1290,26,132,0.8916323731138546
1458,-1,-1,10,1291,26,132,0.8917066483893078
1459,-1,-1,10,1292,26,132,0.8917808219178082
1460,-1,-1,10,1293,26,132,0.891854893908282
1461,-1,-1,10,1294,26,132,0.8919288645690835
1462,-1,-1,10,1295,26,132,0.8920027341079972
1463,-1,-1,10,1296,26,132,0.8920765027322405
1464,-1,-1,10,1297,26,132,0.8921501706484641
1465,-1,-1,10,1298,26,132,0.8922237380627558
1466,-1,-1,10,1299,26,132,0.8922972051806408
1467,-1,-1,10,1300,26,132,0.8923705722070845
1468,-1,-1,10,1301,26,132,0.8924438393464942
1469,-1,-1,10,1302,26,132,0.8925170068027211
1470,-1,-1,10,1303,26,132,0.8925900747790618
1471,-1,-1,10,1304,26,132,0.8926630434782609
1472,-1,-1,10,1305,26,132,0.8927359131025119
1473,-1,-1,10,1306,26,132,0.89280868385346
1474,-1,-1,10,1307,26,132,0.8928813559322034
1475,-1,-1,10,1308,26,132,0.8929539295392954
1476,-1,-1,10,1309,26,132,0.8930264048747462
1477,-1,-1,10,1310,26,132,0.8930987821380244
1478,-1,-1,10,1311,26,132,0.8931710615280595
1479,1,-1,10,1311,26,133,0.8925675675675676
1480,-1,-1,10,1312,26,133,0.8926401080351114
1481,1,-1,10,1312,26,134,0.8920377867746289
1482,-1,-1,10,1313,26,134,0.8921105866486851
1483,-1,-1,10,1314,26,134,0.8921832884097035
1484,-1,-1,10,1315,26,134,0.8922558922558923
1485,-1,-1,10,1316,26,134,0.892328398384926
1486,-1,-1,10,1317,26,134,0.8924008069939475
1487,-1,-1,10,1318,26,134,0.8924731182795699
1488,-1,-1,10,1319,26,134,0.8925453324378778
1489,-1,-1,10,1320,26,134,0.8926174496644296
1490,-1,-1,10,1321,26,134,0.8926894701542589
1491,-1,-1,10,1322,26,134,0.8927613941018767
1492,-1,-1,10,1323,26,134,0.8928332217012726
1493,-1,-1,10,1324,26,134,0.892904953145917
1494,-1,-1,10,1325,26,134,0.8929765886287625
1495,1,-1,10,1325,26,135,0.892379679144385
1496,1,1,11,1325,26,135,0.8924515698062793
1497,-1,-1,11,1326,26,135,0.8925233644859814
1498,-1,-1,11,1327,26,135,0.8925950633755837
1499,-1,-1,11,1328,26,135,0.8926666666666667
1500,-1,-1,11,1329,26,135,0.8927381745502998
1501,1,-1,11,1329,26,136,0.8921438082556591
1502,1,-1,11,1329,26,137,0.8915502328675982
1503,-1,-1,11,1330,26,137,0.8916223404255319
1504,-1,-1,11,1331,26,137,0.8916943521594685
1505,1,-1,11,1331,26,138,0.8911022576361222
1506,-1,-1,11,1332,26,138,0.8911745189117452
1507,1,-1,11,1332,26,139,0.8905835543766578
1508,-1,-1,11,1333,26,139,0.8906560636182903
1509,-1,-1,11,1334,26,139,0.890728476821192
1510,-1,-1,11,1335,26,139,0.8908007941760424
1511,-1,-1,11,1336,26,139,0.8908730158730159
1512,-1,-1,11,1337,26,139,0.8909451421017845
1513,-1,-1,11,1338,26,139,0.8910171730515192
1514,-1,-1,11,1339,26,139,0.8910891089108911
1515,1,-1,11,1339,26,140,0.8905013192612137
1516,-1,-1,11,1340,26,140,0.8905735003295979
1517,-1,-1,11,1341,26,140,0.8906455862977603
1518,-1,-1,11,1342,26,140,0.8907175773535221
1519,-1,-1,11,1343,26,140,0.8907894736842106
1520,-1,-1,11,1344,26,140,0.89086127547666
1521,-1,-1,11,1345,26,140,0.8909329829172142
1522,-1,-1,11,1346,26,140,0.8910045961917269
1523,-1,-1,11,1347,26,140,0.8910761154855643
1524,-1,-1,11,1348,26,140,0.8911475409836066
1525,-1,-1,11,1349,26,140,0.891218872870249
1526,-1,-1,11,1350,26,140,0.8912901113294041
1527,-1,-1,11,1351,26,140,0.8913612565445026
1528,1,-1,11,1351,26,141,0.8907782864617397
1529,-1,-1,11,1352,26,141,0.8908496732026144
1530,-1,-1,11,1353,26,141,0.8909209666884389
1531,-1,-1,11,1354,26,141,0.8909921671018277
1532,-1,-1,11,1355,26,141,0.8910632746249184
1533,-1,-1,11,1356,26,141,0.8911342894393742
1534,-1,-1,11,1357,26,141,0.8912052117263843
1535,-1,-1,11,1358,26,141,0.8912760416666666
1536,-1,-1,11,1359,26,141,0.8913467794404685
1537,-1,-1,11,1360,26,141,0.8914174252275683
1538,-1,-1,11,1361,26,141,0.8914879792072774
1539,1,-1,11,1361,26,142,0.8909090909090909
1540,-1,-1,11,1362,26,142,0.890979883192732
1541,-1,-1,11,1363,26,142,0.8910505836575876
1542,-1,-1,11,1364,26,142,0.8911211924821776
1543,-1,-1,11,1365,26,142,0.8911917098445595
1544,-1,-1,11,1366,26,142,0.8912621359223301
1545,-1,-1,11,1367,26,142,0.8913324708926261
1546,-1,-1,11,1368,26,142,0.8914027149321267
1547,1,-1,11,1368,26,143,0.8908268733850129
1548,-1,-1,11,1369,26,143,0.8908973531310523
1549,-1,-1,11,1370,26,143,0.8909677419354839
1550,-1,-1,11,1371,26,143,0.8910380399742102
1551,-1,-1,11,1372,26,143,0.8911082474226805
1552,-1,-1,11,1373,26,143,0.8911783644558918
1553,-1,-1,11,1374,26,143,0.8912483912483913
1554,-1,-1,11,1375,26,143,0.8913183279742766
1555,-1,-1,11,1376,26,143,0.8913881748071979
1556,-1,-1,11,1377,26,143,0.8914579319203597
1557,-1,-1,11,1378,26,143,0.8915275994865212
1558,-1,1,11,1378,27,143,0.8909557408595253
1559,-1,-1,11,1379,27,143,0.8910256410256411
1560,-1,-1,11,1380,27,143,0.8910954516335682
1561,-1,1,11,1380,28,143,0.8905249679897568
1562,-1,-1,11,1381,28,143,0.8905950095969289
1563,-1,-1,11,1382,28,143,0.8906649616368286
1564,-1,-1,11,1383,28,143,0.8907348242811501
1565,-1,-1,11,1384,28,143,0.8908045977011494
1566,-1,-1,11,1385,28,143,0.8908742820676452
1567,1,-1,11,1385,28,144,0.8903061224489796
1568,-1,-1,11,1386,28,144,0.8903760356915232
1569,-1,-1,11,1387,28,144,0.8904458598726115
1570,-1,-1,11,1388,28,144,0.890515595162317
1571,-1,-1,11,1389,28,144,0.8905852417302799
1572,-1,-1,11,1390,28,144,0.8906547997457088
1573,-1,-1,11,1391,28,144,0.8907242693773825
1574,-1,-1,11,1392,28,144,0.8907936507936508
1575,1,-1,11,1392,28,145,0.8902284263959391
1576,-1,-1,11,1393,28,145,0.8902980342422321
1577,-1,-1,11,1394,28,145,0.8903675538656527
1578,-1,-1,11,1395,28,145,0.8904369854338189
1579,-1,-1,11,1396,28,145,0.890506329113924
1580,-1,-1,11,1397,28,145,0.8905755850727388
1581,1,-1,11,1397,28,146,0.8900126422250316
1582,-1,-1,11,1398,28,146,0.8900821225521163
1583,-1,-1,11,1399,28,146,0.8901515151515151
1584,-1,-1,11,1400,28,146,0.8902208201892744
1585,-1,-1,11,1401,28,146,0.8902900378310215
1586,-1,-1,11,1402,28,146,0.8903591682419659
1587,1,-1,11,1402,28,147,0.8897984886649875
1588,-1,1,11,1402,29,147,0.8892385147891756
1589,-1,-1,11,1403,29,147,0.889308176100629
1590,-1,-1,11,1404,29,147,0.8893777498428661
1591,-1,-1,11,1405,29,147,0.8894472361809045
1592,-1,-1,11,1406,29,147,0.8895166352793471
1593,-1,-1,11,1407,29,147,0.8895859473023839
1594,-1,-1,11,1408,29,147,0.8896551724137931
1595,-1,-1,11,1409,29,147,0.8897243107769424
1596,-1,1,11,1409,30,147,0.889167188478397
1597,-1,-1,11,1410,30,147,0.8892365456821026
1598,-1,-1,11,1411,30,147,0.8893058161350844
1599,-1,-1,11,1412,30,147,0.889375
1600,-1,-1,11,1413,30,147,0.8894440974391006
1601,-1,-1,11,1414,30,147,0.8895131086142322
1602,-1,-1,11,1415,30,147,0.8895820336868372
1603,-1,-1,11,1416,30,147,0.8896508728179551
1604,-1,-1,11,1417,30,147,0.8897196261682243
1605,-1,-1,11,1418,30,147,0.8897882938978829
1606,-1,-1,11,1419,30,147,0.8898568761667703
1607,-1,-1,11,1420,30,147,0.8899253731343284
1608,-1,-1,11,1421,30,147,0.8899937849596022
1609,-1,-1,11,1422,30,147,0.8900621118012423
1610,1,-1,11,1422,30,148,0.8895096213531968
1611,-1,-1,11,1423,30,148,0.8895781637717122
1612,-1,-1,11,1424,30,148,0.8896466212027279
1613,-1,-1,11,1425,30,148,0.8897149938042132
1614,-1,-1,11,1426,30,148,0.8897832817337461
1615,-1,-1,11,1427,30,148,0.8898514851485149
1616,-1,-1,11,1428,30,148,0.8899196042053185
1617,-1,-1,11,1429,30,148,0.8899876390605687
1618,-1,-1,11,1430,30,148,0.8900555898702903
1619,-1,-1,11,1431,30,148,0.8901234567901235
1620,-1,-1,11,1432,30,148,0.8901912399753239
1621,-1,-1,11,1433,30,148,0.8902589395807645
1622,-1,-1,11,1434,30,148,0.8903265557609366
1623,1,-1,11,1434,30,149,0.8897783251231527
1624,-1,-1,11,1435,30,149,0.8898461538461538
1625,-1,-1,11,1436,30,149,0.8899138991389914
1626,-1,-1,11,1437,30,149,0.8899815611555009
1627,-1,-1,11,1438,30,149,0.89004914004914
1628,-1,-1,11,1439,30,149,0.8901166359729895
1629,-1,-1,11,1440,30,149,0.8901840490797546
1630,-1,-1,11,1441,30,149,0.8902513795217658
1631,-1,-1,11,1442,30,149,0.8903186274509803
1632,-1,-1,11,1443,30,149,0.8903857930189835
1633,-1,-1,11,1444,30,149,0.890452876376989
1634,-1,-1,11,1445,30,149,0.890519877675841
1635,-1,-1,11,1446,30,149,0.8905867970660146
1636,-1,-1,11,1447,30,149,0.8906536346976176
1637,-1,-1,11,1448,30,149,0.8907203907203908
1638,-1,-1,11,1449,30,149,0.8907870652837095
1639,-1,-1,11,1450,30,149,0.8908536585365854
1640,-1,-1,11,1451,30,149,0.890920170627666
1641,-1,-1,11,1452,30,149,0.8909866017052375
1642,-1,-1,11,1453,30,149,0.8910529519172246
1643,-1,-1,11,1454,30,149,0.8911192214111923
1644,1,-1,11,1454,30,150,0.8905775075987842
1645,-1,-1,11,1455,30,150,0.8906439854191981
1646,-1,-1,11,1456,30,150,0.8907103825136612
1647,-1,-1,11,1457,30,150,0.8907766990291263
1648,-1,-1,11,1458,30,150,0.8908429351121893
1649,-1,-1,11,1459,30,150,0.8909090909090909
1650,-1,-1,11,1460,30,150,0.8909751665657177
1651,-1,-1,11,1461,30,150,0.8910411622276029
1652,-1,-1,11,1462,30,150,0.8911070780399274
1653,-1,-1,11,1463,30,150,0.8911729141475212
1654,-1,-1,11,1464,30,150,0.8912386706948641
1655,-1,-1,11,1465,30,150,0.8913043478260869
1656,1,-1,11,1465,30,151,0.8907664453832227
1657,-1,-1,11,1466,30,151,0.890832328106152
1658,-1,-1,11,1467,30,151,0.8908981314044605
1659,-1,-1,11,1468,30,151,0.8909638554216868
1660,-1,-1,11,1469,30,151,0.8910295003010235
1661,-1,-1,11,1470,30,151,0.8910950661853189
1662,-1,-1,11,1471,30,151,0.8911605532170775
1663,-1,-1,11,1472,30,151,0.8912259615384616
1664,-1,-1,11,1473,30,151,0.8912912912912913
1665,-1,-1,11,1474,30,151,0.8913565426170468
1666,-1,-1,11,1475,30,151,0.8914217156568687
1667,-1,-1,11,1476,30,151,0.8914868105515588
1668,-1,-1,11,1477,30,151,0.8915518274415818
1669,-1,-1,11,1478,30,151,0.8916167664670659
1670,-1,-1,11,1479,30,151,0.8916816277678037
1671,-1,-1,11,1480,30,151,0.8917464114832536
1672,-1,-1,11,1481,30,151,0.8918111177525403
1673,1,-1,11,1481,30,152,0.8912783751493429
1674,-1,-1,11,1482,30,152,0.8913432835820896
1675,-1,-1,11,1483,30,152,0.8914081145584726
1676,-1,-1,11,1484,30,152,0.8914728682170543
1677,-1,-1,11,1485,30,152,0.8915375446960667
1678,1,-1,11,1485,30,153,0.8910065515187612
1679,-1,-1,11,1486,30,153,0.8910714285714286
1680,-1,-1,11,1487,30,153,0.891136228435455
1681,-1,-1,11,1488,30,153,0.8912009512485137
1682,-1,-1,11,1489,30,153,0.8912655971479501
1683,-1,-1,11,1490,30,153,0.8913301662707839
1684,-1,-1,11,1491,30,153,0.8913946587537092
1685,-1,-1,11,1492,30,153,0.891459074733096
1686,-1,-1,11,1493,30,153,0.8915234143449912
1687,-1,-1,11,1494,30,153,0.8915876777251185
1688,-1,-1,11,1495,30,153,0.8916518650088809
1689,-1,-1,11,1496,30,153,0.8917159763313609
1690,1,-1,11,1496,30,154,0.8911886457717327
1691,-1,-1,11,1497,30,154,0.8912529550827423
1692,-1,-1,11,1498,30,154,0.8913171884229178
1693,-1,-1,11,1499,30,154,0.8913813459268005
1694,-1,-1,11,1500,30,154,0.8914454277286136
1695,-1,-1,11,1501,30,154,0.8915094339622641
1696,-1,-1,11,1502,30,154,0.8915733647613435
1697,-1,-1,11,1503,30,154,0.8916372202591284
1698,-1,-1,11,1504,30,154,0.8917010005885815
1699,-1,-1,11,1505,30,154,0.8917647058823529
1700,-1,-1,11,1506,30,154,0.8918283362727807
1701,-1,-1,11,1507,30,154,0.8918918918918919
1702,-1,-1,11,1508,30,154,0.8919553728714034
1703,-1,-1,11,1509,30,154,0.892018779342723
1704,-1,-1,11,1510,30,154,0.8920821114369502
1705,-1,-1,11,1511,30,154,0.8921453692848769
1706,-1,-1,11,1512,30,154,0.8922085530169889
1707,-1,-1,11,1513,30,154,0.892271662763466
1708,-1,-1,11,1514,30,154,0.8923346986541837
1709,1,-1,11,1514,30,155,0.8918128654970761
1710,-1,-1,11,1515,30,155,0.8918760958503799
1711,-1,-1,11,1516,30,155,0.8919392523364486
1712,-1,-1,11,1517,30,155,0.8920023350846468
1713,-1,-1,11,1518,30,155,0.8920653442240374
1714,-1,-1,11,1519,30,155,0.892128279883382
1715,-1,-1,11,1520,30,155,0.8921911421911422
1716,-1,-1,11,1521,30,155,0.8922539312754805
1717,-1,-1,11,1522,30,155,0.8923166472642607
1718,-1,-1,11,1523,30,155,0.8923792902850495
1719,-1,-1,11,1524,30,155,0.8924418604651163
1720,-1,-1,11,1525,30,155,0.8925043579314352
1721,-1,-1,11,1526,30,155,0.8925667828106852
1722,-1,-1,11,1527,30,155,0.8926291352292514
1723,1,1,12,1527,30,155,0.892691415313225
1724,-1,-1,12,1528,30,155,0.8927536231884058
1725,-1,-1,12,1529,30,155,0.8928157589803013
1726,-1,-1,12,1530,30,155,0.8928778228141285
1727,-1,-1,12,1531,30,155,0.8929398148148148
1728,-1,-1,12,1532,30,155,0.8930017351069983
1729,-1,-1,12,1533,30,155,0.8930635838150289
1730,-1,-1,12,1534,30,155,0.8931253610629694
1731,-1,-1,12,1535,30,155,0.8931870669745958
1732,-1,-1,12,1536,30,155,0.8932487016733988
1733,-1,-1,12,1537,30,155,0.8933102652825836
1734,-1,-1,12,1538,30,155,0.8933717579250721
1735,-1,-1,12,1539,30,155,0.8934331797235023
1736,-1,-1,12,1540,30,155,0.8934945308002303
1737,-1,-1,12,1541,30,155,0.8935558112773303
1738,-1,-1,12,1542,30,155,0.8936170212765957
1739,-1,-1,12,1543,30,155,0.8936781609195402
1740,-1,-1,12,1544,30,155,0.893739230327398
1741,-1,-1,12,1545,30,155,0.8938002296211252
1742,-1,-1,12,1546,30,155,0.8938611589213998
1743,-1,-1,12,1547,30,155,0.8939220183486238
1744,-1,-1,12,1548,30,155,0.8939828080229226
1745,-1,-1,12,1549,30,155,0.8940435280641467
1746,1,-1,12,1549,30,156,0.8935317687464225
1747,-1,-1,12,1550,30,156,0.8935926773455377
1748,-1,-1,12,1551,30,156,0.8936535162950258
1749,1,-1,12,1551,30,157,0.8931428571428571
1750,-1,-1,12,1552,30,157,0.8932038834951457
1751,-1,-1,12,1553,30,157,0.8932648401826484
1752,-1,-1,12,1554,30,157,0.8933257273245864
1753,-1,-1,12,1555,30,157,0.8933865450399088
1754,-1,-1,12,1556,30,157,0.8934472934472935
1755,-1,1,12,1556,31,157,0.8929384965831435
1756,1,-1,12,1556,31,158,0.8924302788844621
1757,-1,-1,12,1557,31,158,0.8924914675767918
1758,1,-1,12,1557,31,159,0.8919840818646958
1759,-1,-1,12,1558,31,159,0.8920454545454546
1760,-1,-1,12,1559,31,159,0.892106757524134
1761,-1,-1,12,1560,31,159,0.8921679909194098
1762,-1,-1,12,1561,31,159,0.892229154849688
1763,1,-1,12,1561,31,160,0.8917233560090703
1764,-1,-1,12,1562,31,160,0.8917847025495751
1765,-1,-1,12,1563,31,160,0.891845979614949
1766,-1,-1,12,1564,31,160,0.8919071873231466
1767,1,-1,12,1564,31,161,0.8914027149321267
1768,1,-1,12,1564,31,162,0.8908988128886377
1769,-1,1,12,1564,32,162,0.8903954802259887
1770,-1,-1,12,1565,32,162,0.8904573687182383
1771,1,-1,12,1565,32,163,0.8899548532731377
1772,-1,-1,12,1566,32,163,0.8900169204737732
1773,-1,-1,12,1567,32,163,0.8900789177001127
1774,-1,-1,12,1568,32,163,0.8901408450704226
1775,-1,-1,12,1569,32,163,0.8902027027027027
1776,-1,-1,12,1570,32,163,0.8902644907146877
1777,-1,-1,12,1571,32,163,0.890326209223847
1778,-1,-1,12,1572,32,163,0.8903878583473862
1779,-1,-1,12,1573,32,163,0.8904494382022472
1780,-1,-1,12,1574,32,163,0.8905109489051095
1781,-1,-1,12,1575,32,163,0.8905723905723906
1782,-1,-1,12,1576,32,163,0.8906337633202468
1783,-1,-1,12,1577,32,163,0.890695067264574
1784,-1,-1,12,1578,32,163,0.8907563025210085
1785,-1,-1,12,1579,32,163,0.8908174692049272
1786,-1,-1,12,1580,32,163,0.8908785674314493
1787,-1,-1,12,1581,32,163,0.8909395973154363
1788,-1,-1,12,1582,32,163,0.8910005589714924
1789,-1,-1,12,1583,32,163,0.8910614525139665
1790,-1,-1,12,1584,32,163,0.8911222780569514
1791,-1,-1,12,1585,32,163,0.8911830357142857
1792,-1,-1,12,1586,32,163,0.8912437255995538
1793,-1,-1,12,1587,32,163,0.8913043478260869
1794,-1,-1,12,1588,32,163,0.8913649025069638
1795,-1,-1,12,1589,32,163,0.8914253897550112
1796,-1,-1,12,1590,32,163,0.8914858096828047
1797,-1,-1,12,1591,32,163,0.8915461624026696
1798,-1,-1,12,1592,32,163,0.8916064480266815
1799,-1,-1,12,1593,32,163,0.8916666666666667
1800,-1,-1,12,1594,32,163,0.8917268184342032
1801,-1,-1,12,1595,32,163,0.8917869034406215
1802,1,-1,12,1595,32,164,0.8912922906267332
1803,1,-1,12,1595,32,165,0.8907982261640798
1804,-1,-1,12,1596,32,165,0.8908587257617728
1805,-1,-1,12,1597,32,165,0.8909191583610189
1806,-1,-1,12,1598,32,165,0.8909795240730493
1807,-1,-1,12,1599,32,165,0.8910398230088495
1808,-1,-1,12,1600,32,165,0.8911000552791598
1809,-1,-1,12,1601,32,165,0.8911602209944751
1810,-1,-1,12,1602,32,165,0.8912203202650469
1811,-1,-1,12,1603,32,165,0.8912803532008831
1812,-1,-1,12,1604,32,165,0.8913403199117484
1813,-1,-1,12,1605,32,165,0.8914002205071665
1814,-1,-1,12,1606,32,165,0.8914600550964187
1815,-1,-1,12,1607,32,165,0.8915198237885462
1816,-1,-1,12,1608,32,165,0.8915795266923501
1817,-1,-1,12,1609,32,165,0.8916391639163916
1818,-1,-1,12,1610,32,165,0.8916987355689939
1819,-1,-1,12,1611,32,165,0.8917582417582418
1820,-1,-1,12,1612,32,165,0.8918176825919825
1821,-1,-1,12,1613,32,165,0.8918770581778266
1822,-1,-1,12,1614,32,165,0.8919363686231486
1823,-1,-1,12,1615,32,165,0.8919956140350878
1824,-1,-1,12,1616,32,165,0.8920547945205479
1825,1,-1,12,1616,32,166,0.891566265060241
1826,-1,-1,12,1617,32,166,0.8916256157635468
1827,-1,1,12,1617,33,166,0.8911378555798687
1828,-1,-1,12,1618,33,166,0.8911973756150902
1829,-1,-1,12,1619,33,166,0.8912568306010928
1830,-1,-1,12,1620,33,166,0.8913162206444566
1831,-1,-1,12,1621,33,166,0.8913755458515283
1832,-1,-1,12,1622,33,166,0.8914348063284233
1833,-1,-1,12,1623,33,166,0.891494002181025
1834,-1,-1,12,1624,33,166,0.8915531335149863
1835,-1,-1,12,1625,33,166,0.8916122004357299
1836,-1,-1,12,1626,33,166,0.8916712030484486
1837,-1,-1,12,1627,33,166,0.8917301414581066
1838,-1,-1,12,1628,33,166,0.8917890157694399
1839,-1,-1,12,1629,33,166,0.8918478260869566
1840,-1,-1,12,1630,33,166,0.8919065725149375
1841,-1,-1,12,1631,33,166,0.8919652551574375
1842,-1,-1,12,1632,33,166,0.8920238741182854
1843,-1,-1,12,1633,33,166,0.8920824295010846
1844,-1,-1,12,1634,33,166,0.8921409214092141
1845,-1,-1,12,1635,33,166,0.8921993499458288
1846,1,-1,12,1635,33,167,0.8917162966973471
1847,-1,-1,12,1636,33,167,0.8917748917748918
1848,-1,-1,12,1637,33,167,0.8918334234721471
1849,-1,-1,12,1638,33,167,0.8918918918918919
1850,-1,-1,12,1639,33,167,0.8919502971366828
1851,-1,-1,12,1640,33,167,0.8920086393088553
1852,1,-1,12,1640,33,168,0.8915272531030761
1853,-1,-1,12,1641,33,168,0.8915857605177994
1854,-1,-1,12,1642,33,168,0.891644204851752
1855,-1,-1,12,1643,33,168,0.8917025862068966
1856,-1,-1,12,1644,33,168,0.8917609046849758
1857,-1,-1,12,1645,33,168,0.8918191603875134
1858,-1,-1,12,1646,33,168,0.891877353415815
1859,1,-1,12,1646,33,169,0.8913978494623656
1860,-1,-1,12,1647,33,169,0.891456206340677
1861,-1,-1,12,1648,33,169,0.8915145005370569
1862,-1,-1,12,1649,33,169,0.8915727321524423
1863,-1,-1,12,1650,33,169,0.8916309012875536
1864,-1,-1,12,1651,33,169,0.8916890080428954
1865,-1,-1,12,1652,33,169,0.8917470525187567
1866,-1,-1,12,1653,33,169,0.8918050348152116
1867,-1,-1,12,1654,33,169,0.8918629550321199
1868,1,-1,12,1654,33,170,0.8913857677902621
1869,-1,-1,12,1655,33,170,0.8914438502673797
1870,1,-1,12,1655,33,171,0.8909673971138429
1871,-1,-1,12,1656,33,171,0.8910256410256411
1872,-1,-1,12,1657,33,171,0.8910838227442606
1873,-1,-1,12,1658,33,171,0.8911419423692636
1874,-1,-1,12,1659,33,171,0.8912
1875,-1,-1,12,1660,33,171,0.8912579957356077
1876,1,-1,12,1660,33,172,0.8907831646244007
1877,-1,-1,12,1661,33,172,0.8908413205537806
1878,-1,-1,12,1662,33,172,0.8908994145822245
1879,-1,-1,12,1663,33,172,0.8909574468085106
1880,-1,1,12,1663,34,172,0.8904837852206273
1881,-1,-1,12,1664,34,172,0.8905419766206164
1882,-1,-1,12,1665,34,172,0.8906001062134891
1883,-1,-1,12,1666,34,172,0.8906581740976646
1884,-1,-1,12,1667,34,172,0.8907161803713528
1885,-1,-1,12,1668,34,172,0.8907741251325557
1886,-1,-1,12,1669,34,172,0.8908320084790673
1887,-1,-1,12,1670,34,172,0.8908898305084746
1888,1,-1,12,1670,34,173,0.8904182106934886
1889,-1,-1,12,1671,34,173,0.8904761904761904
1890,-1,-1,12,1672,34,173,0.8905341089370703
1891,-1,-1,12,1673,34,173,0.8905919661733616
1892,-1,-1,12,1674,34,173,0.8906497622820919
1893,-1,-1,12,1675,34,173,0.8907074973600845
1894,-1,-1,12,1676,34,173,0.8907651715039577
1895,-1,-1,12,1677,34,173,0.8908227848101266
1896,-1,-1,12,1678,34,173,0.8908803373748023
1897,-1,-1,12,1679,34,173,0.8909378292939937
1898,-1,-1,12,1680,34,173,0.8909952606635071
1899,-1,-1,12,1681,34,173,0.8910526315789473
1900,-1,-1,12,1682,34,173,0.891109942135718
1901,-1,-1,12,1683,34,173,0.8911671924290221
1902,-1,-1,12,1684,34,173,0.8912243825538623
1903,-1,-1,12,1685,34,173,0.8912815126050421
1904,-1,-1,12,1686,34,173,0.8913385826771654
1905,-1,-1,12,1687,34,173,0.891395592864638
1906,-1,-1,12,1688,34,173,0.8914525432616676
1907,-1,-1,12,1689,34,173,0.8915094339622641
1908,-1,-1,12,1690,34,173,0.891566265060241
1909,-1,-1,12,1691,34,173,0.8916230366492146
1910,-1,-1,12,1692,34,173,0.8916797488226059
1911,-1,-1,12,1693,34,173,0.8917364016736402
1912,-1,-1,12,1694,34,173,0.8917929952953476
1913,-1,-1,12,1695,34,173,0.8918495297805643
1914,-1,-1,12,1696,34,173,0.8919060052219321
1915,-1,-1,12,1697,34,173,0.8919624217118998
1916,-1,-1,12,1698,34,173,0.892018779342723
1917,-1,-1,12,1699,34,173,0.892075078206465
1918,1,-1,12,1699,34,174,0.8916102136529442
1919,-1,-1,12,1700,34,174,0.8916666666666667
1920,1,-1,12,1700,34,175,0.8912024986985945
1921,1,-1,12,1700,34,176,0.890738813735692
1922,-1,-1,12,1701,34,176,0.890795631825273
1923,-1,-1,12,1702,34,176,0.8908523908523909
1924,-1,-1,12,1703,34,176,0.8909090909090909
1925,-1,-1,12,1704,34,176,0.8909657320872274
1926,-1,-1,12,1705,34,176,0.8910223144784639
1927,-1,-1,12,1706,34,176,0.8910788381742739
1928,-1,-1,12,1707,34,176,0.8911353032659409
1929,1,-1,12,1707,34,177,0.8906735751295337
1930,-1,-1,12,1708,34,177,0.8907301916105644
1931,-1,-1,12,1709,34,177,0.8907867494824017
1932,-1,-1,12,1710,34,177,0.8908432488360062
1933,-1,-1,12,1711,34,177,0.890899689762151
1934,-1,-1,12,1712,34,177,0.8909560723514212
1935,-1,-1,12,1713,34,177,0.8910123966942148
1936,-1,-1,12,1714,34,177,0.8910686628807434
1937,-1,-1,12,1715,34,177,0.891124871001032
1938,-1,-1,12,1716,34,177,0.89118102114492
1939,-1,-1,12,1717,34,177,0.8912371134020619
1940,-1,-1,12,1718,34,177,0.8912931478619268
1941,-1,-1,12,1719,34,177,0.8913491246138002
1942,1,1,13,1719,34,177,0.8914050437467833
1943,-1,-1,13,1720,34,177,0.8914609053497943
1944,-1,-1,13,1721,34,177,0.8915167095115681
1945,-1,-1,13,1722,34,177,0.8915724563206577
1946,-1,-1,13,1723,34,177,0.891628145865434
1947,-1,-1,13,1724,34,177,0.8916837782340863
1948,-1,-1,13,1725,34,177,0.8917393535146229
1949,-1,-1,13,1726,34,177,0.8917948717948718
1950,-1,-1,13,1727,34,177,0.8918503331624807
1951,-1,-1,13,1728,34,177,0.891905737704918
1952,-1,-1,13,1729,34,177,0.8919610855094726
1953,-1,-1,13,1730,34,177,0.8920163766632548
1954,1,-1,13,1730,34,178,0.8915601023017903
1955,1,-1,13,1730,34,179,0.8911042944785276
1956,-1,-1,13,1731,34,179,0.8911599386816556
1957,-1,-1,13,1732,34,179,0.8912155260469867
1958,-1,-1,13,1733,34,179,0.891271056661562
1959,-1,-1,13,1734,34,179,0.8913265306122449
1960,1,-1,13,1734,34,180,0.8908720040795512
1961,-1,-1,13,1735,34,180,0.890927624872579
1962,-1,-1,13,1736,34,180,0.890983188996434
1963,1,-1,13,1736,34,181,0.8905295315682281
1964,-1,-1,13,1737,34,181,0.8905852417302799
1965,-1,-1,13,1738,34,181,0.8906408952187183
1966,-1,-1,13,1739,34,181,0.8906964921199797
1967,-1,-1,13,1740,34,181,0.8907520325203252
1968,-1,-1,13,1741,34,181,0.8908075165058406
1969,-1,-1,13,1742,34,181,0.8908629441624365
1970,-1,-1,13,1743,34,181,0.8909183155758498
1971,-1,-1,13,1744,34,181,0.890973630831643
1972,-1,-1,13,1745,34,181,0.8910288900152052
1973,-1,-1,13,1746,34,181,0.8910840932117527
1974,-1,-1,13,1747,34,181,0.8911392405063291
1975,-1,-1,13,1748,34,181,0.8911943319838057
1976,-1,-1,13,1749,34,181,0.8912493677288822
1977,-1,-1,13,1750,34,181,0.8913043478260869
1978,-1,-1,13,1751,34,181,0.8913592723597776
1979,-1,-1,13,1752,34,181,0.8914141414141414
1980,-1,-1,13,1753,34,181,0.8914689550731953
1981,-1,-1,13,1754,34,181,0.8915237134207871
1982,-1,-1,13,1755,34,181,0.8915784165405951
1983,-1,-1,13,1756,34,181,0.891633064516129
1984,-1,-1,13,1757,34,181,0.8916876574307305
1985,-1,-1,13,1758,34,181,0.891742195367573
1986,-1,-1,13,1759,34,181,0.8917966784096628
1987,-1,-1,13,1760,34,181,0.891851106639839
1988,-1,-1,13,1761,34,181,0.8919054801407743
1989,-1,-1,13,1762,34,181,0.8919597989949749
1990,-1,-1,13,1763,34,181,0.8920140632847815
1991,-1,-1,13,1764,34,181,0.8920682730923695
1992,-1,-1,13,1765,34,181,0.8921224284997491
1993,-1,-1,13,1766,34,181,0.8921765295887663
1994,-1,-1,13,1767,34,181,0.8922305764411027
1995,1,-1,13,1767,34,182,0.8917835671342685
1996,-1,-1,13,1768,34,182,0.8918377566349525
1997,-1,-1,13,1769,34,182,0.8918918918918919
1998,-1,-1,13,1770,34,182,0.8919459729864933
1999,-1,-1,13,1771,34,182,0.892
2000,-1,-1,13,1772,34,182,0.8920539730134932
2001,-1,-1,13,1773,34,182,0.8921078921078921
2002,-1,-1,13,1774,34,182,0.8921617573639541
2003,-1,-1,13,1775,34,182,0.8922155688622755
2004,-1,-1,13,1776,34,182,0.8922693266832917
2005,-1,-1,13,1777,34,182,0.8923230309072782
2006,-1,-1,13,1778,34,182,0.8923766816143498
2007,-1,-1,13,1779,34,182,0.8924302788844621
2008,-1,-1,13,1780,34,182,0.8924838227974117
2009,-1,-1,13,1781,34,182,0.8925373134328358
2010,-1,-1,13,1782,34,182,0.8925907508702138
2011,1,-1,13,1782,34,183,0.8921471172962226
2012,-1,-1,13,1783,34,183,0.892200695479384
2013,-1,-1,13,1784,34,183,0.8922542204568024
2014,-1,-1,13,1785,34,183,0.8923076923076924
2015,-1,-1,13,1786,34,183,0.8923611111111112
2016,-1,-1,13,1787,34,183,0.8924144769459593
2017,-1,-1,13,1788,34,183,0.8924677898909812
2018,-1,-1,13,1789,34,183,0.8925210500247648
2019,-1,-1,13,1790,34,183,0.8925742574257426
2020,-1,-1,13,1791,34,183,0.892627412172192
2021,-1,-1,13,1792,34,183,0.8926805143422354
2022,-1,-1,13,1793,34,183,0.8927335640138409
2023,-1,-1,13,1794,34,183,0.8927865612648221
2024,-1,-1,13,1795,34,183,0.8928395061728395
2025,-1,-1,13,1796,34,183,0.8928923988153998
2026,-1,-1,13,1797,34,183,0.8929452392698569
2027,-1,-1,13,1798,34,183,0.8929980276134122
2028,-1,-1,13,1799,34,183,0.8930507639231149
2029,-1,-1,13,1800,34,183,0.8931034482758621
2030,-1,-1,13,1801,34,183,0.8931560807483998
2031,-1,-1,13,1802,34,183,0.8932086614173228
2032,-1,-1,13,1803,34,183,0.8932611903590753
2033,1,-1,13,1803,34,184,0.8928220255653884
2034,-1,-1,13,1804,34,184,0.8928746928746929
2035,-1,-1,13,1805,34,184,0.8929273084479371
2036,-1,-1,13,1806,34,184,0.8929798723613157
2037,-1,-1,13,1807,34,184,0.8930323846908734
2038,1,-1,13,1807,34,185,0.8925944090240314
2039,-1,-1,13,1808,34,185,0.8926470588235295
2040,-1,-1,13,1809,34,185,0.8926996570308672
2041,-1,-1,13,1810,34,185,0.8927522037218414
2042,-1,-1,13,1811,34,185,0.8928046989720999
2043,-1,-1,13,1812,34,185,0.8928571428571429
2044,-1,-1,13,1813,34,185,0.8929095354523228
2045,-1,-1,13,1814,34,185,0.8929618768328446
2046,-1,-1,13,1815,34,185,0.8930141670737665
2047,-1,-1,13,1816,34,185,0.89306640625
2048,-1,-1,13,1817,34,185,0.8931185944363104
2049,-1,-1,13,1818,34,185,0.8931707317073171
2050,-1,-1,13,1819,34,185,0.8932228181374939
2051,-1,-1,13,1820,34,185,0.8932748538011696
2052,-1,-1,13,1821,34,185,0.893326838772528
2053,-1,-1,13,1822,34,185,0.8933787731256085
2054,-1,-1,13,1823,34,185,0.8934306569343066
2055,-1,-1,13,1824,34,185,0.8934824902723736
2056,-1,-1,13,1825,34,185,0.8935342732134176
2057,-1,-1,13,1826,34,185,0.8935860058309038
2058,-1,-1,13,1827,34,185,0.8936376881981545
2059,-1,-1,13,1828,34,185,0.8936893203883495
2060,-1,1,13,1828,35,185,0.8932557011159631
2061,-1,-1,13,1829,35,185,0.8933074684772065
2062,-1,-1,13,1830,35,185,0.8933591856519632
2063,-1,-1,13,1831,35,185,0.8934108527131783
2064,-1,-1,13,1832,35,185,0.8934624697336562
2065,1,-1,13,1832,35,186,0.8930300096805421
2066,1,-1,13,1832,35,187,0.8925979680696662
2067,-1,1,13,1832,36,187,0.8921663442940039
2068,-1,-1,13,1833,36,187,0.8922184630256162
2069,-1,-1,13,1834,36,187,0.8922705314009662
2070,1,-1,13,1834,36,188,0.8918396909705456
2071,-1,-1,13,1835,36,188,0.8918918918918919
2072,-1,-1,13,1836,36,188,0.8919440424505547
2073,1,-1,13,1836,36,189,0.8915139826422372
2074,1,-1,13,1836,36,190,0.8910843373493976
2075,-1,-1,13,1837,36,190,0.8911368015414258
2076,-1,-1,13,1838,36,190,0.8911892152142513
2077,-1,-1,13,1839,36,190,0.8912415784408084
2078,1,-1,13,1839,36,191,0.8908128908128908
2079,-1,-1,13,1840,36,191,0.8908653846153847
2080,-1,-1,13,1841,36,191,0.8909178279673234
2081,-1,-1,13,1842,36,191,0.8909702209414025
2082,1,-1,13,1842,36,192,0.8905424867978876
2083,1,-1,13,1842,36,193,0.8901151631477927
2084,-1,-1,13,1843,36,193,0.890167865707434
2085,-1,-1,13,1844,36,193,0.8902205177372963
2086,-1,-1,13,1845,36,193,0.8902731193100144
2087,-1,-1,13,1846,36,193,0.8903256704980843
2088,-1,-1,13,1847,36,193,0.8903781713738631
2089,-1,-1,13,1848,36,193,0.8904306220095694
2090,1,-1,13,1848,36,194,0.8900047824007652
2091,-1,-1,13,1849,36,194,0.890057361376673
2092,-1,-1,13,1850,36,194,0.8901098901098901
2093,-1,-1,13,1851,36,194,0.8901623686723973
2094,-1,-1,13,1852,36,194,0.8902147971360382
2095,-1,-1,13,1853,36,194,0.8902671755725191
2096,1,-1,13,1853,36,195,0.8898426323319027
2097,1,-1,13,1853,36,196,0.8894184938036225
2098,-1,-1,13,1854,36,196,0.8894711767508338
2099,-1,-1,13,1855,36,196,0.8895238095238095
2100,1,-1,13,1855,36,197,0.8891004283674441
2101,-1,-1,13,1856,36,197,0.8891531874405328
2102,-1,-1,13,1857,36,197,0.889205896338564
2103,-1,-1,13,1858,36,197,0.8892585551330798
2104,-1,-1,13,1859,36,197,0.8893111638954869
2105,-1,-1,13,1860,36,197,0.889363722697056
2106,-1,-1,13,1861,36,197,0.8894162316089227
2107,-1,-1,13,1862,36,197,0.8894686907020873
2108,-1,-1,13,1863,36,197,0.8895211000474158
2109,-1,-1,13,1864,36,197,0.8895734597156398
2110,-1,-1,13,1865,36,197,0.8896257697773567
2111,-1,-1,13,1866,36,197,0.8896780303030303
2112,-1,-1,13,1867,36,197,0.8897302413629911
2113,-1,-1,13,1868,36,197,0.8897824030274362
2114,1,-1,13,1868,36,198,0.8893617021276595
2115,-1,-1,13,1869,36,198,0.889413988657845
2116,-1,-1,13,1870,36,198,0.8894662257912139
2117,-1,-1,13,1871,36,198,0.8895184135977338
2118,-1,-1,13,1872,36,198,0.8895705521472392
2119,-1,-1,13,1873,36,198,0.8896226415094339
2120,-1,-1,13,1874,36,198,0.8896746817538896
2121,-1,-1,13,1875,36,198,0.8897266729500471
2122,-1,-1,13,1876,36,198,0.8897786151672162
2123,1,-1,13,1876,36,199,0.8893596986817326
2124,-1,-1,13,1877,36,199,0.8894117647058823
2125,-1,-1,13,1878,36,199,0.8894637817497648
2126,-1,-1,13,1879,36,199,0.8895157498824635
2127,1,-1,13,1879,36,200,0.8890977443609023
2128,-1,-1,13,1880,36,200,0.8891498356035697
2129,-1,-1,13,1881,36,200,0.8892018779342723
2130,-1,-1,13,1882,36,200,0.8892538714218676
2131,-1,-1,13,1883,36,200,0.8893058161350844
2132,1,-1,13,1883,36,201,0.8888888888888888
2133,-1,-1,13,1884,36,201,0.8889409559512652
2134,-1,-1,13,1885,36,201,0.8889929742388759
2135,-1,-1,13,1886,36,201,0.8890449438202247
2136,-1,-1,13,1887,36,201,0.8890968647636874
2137,1,-1,13,1887,36,202,0.8886810102899907
2138,-1,-1,13,1888,36,202,0.8887330528284245
2139,-1,-1,13,1889,36,202,0.888785046728972
2140,-1,-1,13,1890,36,202,0.8888369920597852
2141,-1,-1,13,1891,36,202,0.8888888888888888
2142,-1,-1,13,1892,36,202,0.8889407372841811
2143,-1,-1,13,1893,36,202,0.8889925373134329
2144,-1,-1,13,1894,36,202,0.889044289044289
2145,-1,-1,13,1895,36,202,0.8890959925442684
2146,1,-1,13,1895,36,203,0.8886818816953889
2147,-1,-1,13,1896,36,203,0.888733705772812
2148,-1,-1,13,1897,36,203,0.8887854816193579
2149,-1,-1,13,1898,36,203,0.8888372093023256
2150,-1,-1,13,1899,36,203,0.8888888888888888
2151,-1,-1,13,1900,36,203,0.8889405204460966
2152,-1,-1,13,1901,36,203,0.8889921040408733
2153,-1,-1,13,1902,36,203,0.8890436397400185
2154,-1,-1,13,1903,36,203,0.8890951276102088
2155,-1,-1,13,1904,36,203,0.8891465677179963
2156,-1,-1,13,1905,36,203,0.8891979601298099
2157,-1,-1,13,1906,36,203,0.8892493049119555
2158,-1,-1,13,1907,36,203,0.889300602130616
2159,-1,-1,13,1908,36,203,0.8893518518518518
2160,-1,-1,13,1909,36,203,0.8894030541416011
2161,-1,-1,13,1910,36,203,0.88945420906568
2162,-1,-1,13,1911,36,203,0.8895053166897827
2163,-1,-1,13,1912,36,203,0.8895563770794824
2164,-1,-1,13,1913,36,203,0.889607390300231
2165,1,-1,13,1913,36,204,0.889196675900277
2166,-1,-1,13,1914,36,204,0.889247808029534
2167,-1,-1,13,1915,36,204,0.8892988929889298
2168,-1,-1,13,1916,36,204,0.8893499308437067
2169,-1,-1,13,1917,36,204,0.8894009216589862
2170,1,-1,13,1917,36,205,0.8889912482726854
2171,1,-1,13,1917,36,206,0.8885819521178637
2172,-1,-1,13,1918,36,206,0.888633225954901
2173,-1,-1,13,1919,36,206,0.8886844526218951
2174,-1,-1,13,1920,36,206,0.888735632183908
2175,-1,-1,13,1921,36,206,0.8887867647058824
2176,-1,-1,13,1922,36,206,0.8888378502526413
2177,-1,-1,13,1923,36,206,0.8888888888888888
2178,-1,-1,13,1924,36,206,0.8889398806792106
2179,-1,-1,13,1925,36,206,0.8889908256880734
2180,-1,1,13,1925,37,206,0.8885832187070152
2181,-1,-1,13,1926,37,206,0.888634280476627
2182,-1,-1,13,1927,37,206,0.8886852954649564
2183,-1,-1,13,1928,37,206,0.8887362637362637
2184,-1,-1,13,1929,37,206,0.888787185354691
2185,-1,-1,13,1930,37,206,0.8888380603842635
2186,-1,-1,13,1931,37,206,0.8888888888888888
2187,-1,-1,13,1932,37,206,0.8889396709323584
2188,-1,-1,13,1933,37,206,0.8889904065783463
2189,1,-1,13,1933,37,207,0.8885844748858448
2190,-1,-1,13,1934,37,207,0.8886353263350069
2191,-1,-1,13,1935,37,207,0.8886861313868614
2192,-1,-1,13,1936,37,207,0.8887368901048791
2193,1,-1,13,1936,37,208,0.8883318140382862
2194,-1,-1,13,1937,37,208,0.8883826879271071
2195,-1,-1,13,1938,37,208,0.8884335154826958
2196,-1,-1,13,1939,37,208,0.8884842967683204
2197,-1,-1,13,1940,37,208,0.8885350318471338
2198,-1,-1,13,1941,37,208,0.8885857207821737
2199,1,-1,13,1941,37,209,0.8881818181818182
2200,-1,-1,13,1942,37,209,0.8882326215356656
2201,-1,-1,13,1943,37,209,0.888283378746594
2202,-1,-1,13,1944,37,209,0.8883340898774399
2203,-1,-1,13,1945,37,209,0.8883847549909256
2204,-1,-1,13,1946,37,209,0.8884353741496599
2205,-1,-1,13,1947,37,209,0.8884859474161378
2206,-1,-1,13,1948,37,209,0.8885364748527412
2207,-1,-1,13,1949,37,209,0.8885869565217391
2208,-1,-1,13,1950,37,209,0.8886373924852875
2209,-1,-1,13,1951,37,209,0.8886877828054298
2210,1,-1,13,1951,37,210,0.8882858435097241
2211,-1,-1,13,1952,37,210,0.8883363471971067
2212,1,-1,13,1952,37,211,0.8879349299593312
2213,-1,-1,13,1953,37,211,0.8879855465221319
2214,-1,1,13,1953,38,211,0.8875846501128668
2215,-1,-1,13,1954,38,211,0.8876353790613718
2216,1,1,14,1954,38,211,0.8876860622462788
2217,-1,-1,14,1955,38,211,0.887736699729486
2218,-1,-1,14,1956,38,211,0.8877872915727806
2219,-1,-1,14,1957,38,211,0.8878378378378379
2220,-1,-1,14,1958,38,211,0.8878883385862224
2221,1,1,15,1958,38,211,0.8879387938793879
2222,-1,-1,15,1959,38,211,0.8879892037786775
2223,-1,-1,15,1960,38,211,0.8880395683453237
2224,-1,-1,15,1961,38,211,0.8880898876404495
2225,-1,-1,15,1962,38,211,0.8881401617250674
2226,1,-1,15,1962,38,212,0.8877413560844185
2227,-1,-1,15,1963,38,212,0.8877917414721723
2228,-1,-1,15,1964,38,212,0.8878420816509646
2229,-1,-1,15,1965,38,212,0.8878923766816144
2230,-1,-1,15,1966,38,212,0.8879426266248319
2231,-1,-1,15,1967,38,212,0.8879928315412187
2232,-1,-1,15,1968,38,212,0.8880429914912673
2233,-1,-1,15,1969,38,212,0.8880931065353626
2234,-1,-1,15,1970,38,212,0.8881431767337807
2235,1,-1,15,1970,38,213,0.8877459749552773
2236,-1,-1,15,1971,38,213,0.8877961555654895
2237,-1,-1,15,1972,38,213,0.887846291331546
2238,-1,-1,15,1973,38,213,0.8878963823135329
2239,-1,-1,15,1974,38,213,0.8879464285714286
2240,-1,-1,15,1975,38,213,0.8879964301651049
2241,-1,-1,15,1976,38,213,0.8880463871543265
2242,1,1,16,1976,38,213,0.8880962995987517
2243,-1,-1,16,1977,38,213,0.8881461675579323
2244,-1,-1,16,1978,38,213,0.8881959910913141
2245,-1,-1,16,1979,38,213,0.8882457702582368
2246,-1,-1,16,1980,38,213,0.888295505117935
2247,-1,1,16,1980,39,213,0.8879003558718861
2248,-1,-1,16,1981,39,213,0.8879502000889284
2249,-1,-1,16,1982,39,213,0.888
2250,-1,-1,16,1983,39,213,0.8880497556641492
2251,-1,-1,16,1984,39,213,0.8880994671403197
2252,-1,-1,16,1985,39,213,0.8881491344873502
2253,-1,-1,16,1986,39,213,0.8881987577639752
2254,-1,-1,16,1987,39,213,0.8882483370288249
2255,-1,-1,16,1988,39,213,0.8882978723404256
2256,-1,-1,16,1989,39,213,0.8883473637571998
2257,-1,-1,16,1990,39,213,0.8883968113374667
2258,-1,-1,16,1991,39,213,0.8884462151394422
2259,-1,-1,16,1992,39,213,0.8884955752212389
2260,-1,-1,16,1993,39,213,0.8885448916408669
2261,-1,-1,16,1994,39,213,0.8885941644562334
2262,1,-1,16,1994,39,214,0.8882015024304021
2263,-1,-1,16,1995,39,214,0.8882508833922261
2264,-1,-1,16,1996,39,214,0.8883002207505519
2265,-1,-1,16,1997,39,214,0.8883495145631068
2266,-1,-1,16,1998,39,214,0.8883987648875166
2267,-1,-1,16,1999,39,214,0.8884479717813051
2268,-1,-1,16,2000,39,214,0.8884971353018951
2269,-1,-1,16,2001,39,214,0.8885462555066079
2270,1,-1,16,2001,39,215,0.8881549977983267
2271,-1,-1,16,2002,39,215,0.8882042253521126
2272,-1,1,16,2002,40,215,0.8878134623845139
2273,-1,-1,16,2003,40,215,0.8878627968337731
2274,-1,-1,16,2004,40,215,0.8879120879120879
2275,-1,-1,16,2005,40,215,0.8879613356766256
2276,-1,-1,16,2006,40,215,0.8880105401844532
2277,-1,-1,16,2007,40,215,0.8880597014925373
2278,-1,-1,16,2008,40,215,0.8881088196577446
2279,-1,-1,16,2009,40,215,0.8881578947368421
2280,-1,-1,16,2010,40,215,0.8882069267864972
2281,-1,-1,16,2011,40,215,0.8882559158632778
2282,-1,-1,16,2012,40,215,0.8883048620236531
2283,-1,-1,16,2013,40,215,0.888353765323993
2284,-1,-1,16,2014,40,215,0.888402625820569
2285,-1,-1,16,2015,40,215,0.8884514435695539
2286,-1,-1,16,2016,40,215,0.8885002186270223
2287,1,-1,16,2016,40,216,0.8881118881118881
2288,-1,-1,16,2017,40,216,0.8881607688947138
2289,-1,-1,16,2018,40,216,0.8882096069868995
2290,-1,-1,16,2019,40,216,0.8882584024443474
2291,-1,-1,16,2020,40,216,0.8883071553228621
2292,-1,-1,16,2021,40,216,0.888355865678151
2293,-1,-1,16,2022,40,216,0.8884045335658239
2294,-1,-1,16,2023,40,216,0.8884531590413943
2295,-1,-1,16,2024,40,216,0.8885017421602788
2296,-1,-1,16,2025,40,216,0.8885502829777971
2297,-1,-1,16,2026,40,216,0.8885987815491732
2298,-1,-1,16,2027,40,216,0.8886472379295346
2299,-1,-1,16,2028,40,216,0.888695652173913
2300,-1,-1,16,2029,40,216,0.8887440243372446
2301,1,-1,16,2029,40,217,0.8883579496090356
2302,-1,-1,16,2030,40,217,0.8884064264003474
2303,1,-1,16,2030,40,218,0.8880208333333334
2304,-1,-1,16,2031,40,218,0.8880694143167028
2305,-1,-1,16,2032,40,218,0.8881179531656548
2306,-1,-1,16,2033,40,218,0.8881664499349805
2307,-1,-1,16,2034,40,218,0.8882149046793761
2308,-1,-1,16,2035,40,218,0.888263317453443
2309,-1,-1,16,2036,40,218,0.8883116883116883
2310,-1,-1,16,2037,40,218,0.8883600173085244
2311,-1,-1,16,2038,40,218,0.8884083044982699
2312,1,-1,16,2038,40,219,0.8880242109814094
2313,-1,-1,16,2039,40,219,0.8880726015557476
2314,-1,-1,16,2040,40,219,0.8881209503239741
2315,1,-1,16,2040,40,220,0.8877374784110535
2316,-1,-1,16,2041,40,220,0.8877859300820026
2317,-1,-1,16,2042,40,220,0.8878343399482312
2318,1,-1,16,2042,40,221,0.88745148771022
2319,-1,-1,16,2043,40,221,0.8875
2320,-1,-1,16,2044,40,221,0.8875484704868591
2321,1,-1,16,2044,40,222,0.8871662360034454
2322,-1,-1,16,2045,40,222,0.8872148084373654
2323,-1,-1,16,2046,40,222,0.887263339070568
2324,-1,-1,16,2047,40,222,0.8873118279569893
2325,-1,-1,16,2048,40,222,0.8873602751504729
2326,-1,-1,16,2049,40,222,0.8874086807047701
2327,-1,-1,16,2050,40,222,0.8874570446735395
2328,-1,-1,16,2051,40,222,0.8875053671103478
2329,-1,-1,16,2052,40,222,0.8875536480686695
2330,-1,-1,16,2053,40,222,0.8876018876018876
2331,1,-1,16,2053,40,223,0.8872212692967409
2332,1,-1,16,2053,40,224,0.8868409772824689
2333,-1,1,16,2053,41,224,0.8864610111396743
2334,-1,-1,16,2054,41,224,0.8865096359743041
2335,-1,1,16,2054,42,224,0.8861301369863014
2336,-1,-1,16,2055,42,224,0.8861788617886179
2337,-1,-1,16,2056,42,224,0.8862275449101796
2338,-1,-1,16,2057,42,224,0.8862761864044464
2339,1,-1,16,2057,42,225,0.8858974358974359
2340,-1,-1,16,2058,42,225,0.8859461768475011
2341,-1,-1,16,2059,42,225,0.88599487617421
2342,-1,-1,16,2060,42,225,0.8860435339308579
2343,-1,-1,16,2061,42,225,0.8860921501706485
2344,-1,-1,16,2062,42,225,0.886140724946695
2345,-1,-1,16,2063,42,225,0.8861892583120204
2346,-1,-1,16,2064,42,225,0.8862377503195569
2347,-1,-1,16,2065,42,225,0.8862862010221465
2348,-1,-1,16,2066,42,225,0.8863346104725415
2349,-1,-1,16,2067,42,225,0.8863829787234042
2350,-1,-1,16,2068,42,225,0.8864313058273076
2351,-1,-1,16,2069,42,225,0.8864795918367347
2352,1,-1,16,2069,42,226,0.8861028474288143
2353,-1,-1,16,2070,42,226,0.8861512319456245
2354,-1,-1,16,2071,42,226,0.8861995753715499
2355,-1,-1,16,2072,42,226,0.8862478777589134
2356,-1,-1,16,2073,42,226,0.8862961391599491
2357,-1,-1,16,2074,42,226,0.8863443596268024
2358,-1,-1,16,2075,42,226,0.8863925392115303
2359,1,-1,16,2075,42,227,0.8860169491525424
2360,-1,-1,16,2076,42,227,0.8860652265988987
2361,1,-1,16,2076,42,228,0.8856900931414056
2362,-1,-1,16,2077,42,228,0.8857384680490902
2363,1,-1,16,2077,42,229,0.8853637901861252
2364,-1,1,16,2077,43,229,0.8849894291754757
2365,-1,-1,16,2078,43,229,0.8850380388841927
2366,-1,-1,16,2079,43,229,0.8850866075200676
2367,-1,-1,16,2080,43,229,0.8851351351351351
2368,-1,-1,16,2081,43,229,0.8851836217813424
2369,-1,-1,16,2082,43,229,0.8852320675105485
2370,-1,-1,16,2083,43,229,0.8852804723745256
2371,-1,-1,16,2084,43,229,0.8853288364249579
2372,-1,-1,16,2085,43,229,0.8853771597134429
2373,-1,-1,16,2086,43,229,0.8854254422914911
2374,-1,-1,16,2087,43,229,0.8854736842105263
2375,-1,-1,16,2088,43,229,0.8855218855218855
2376,-1,-1,16,2089,43,229,0.8855700462768196
2377,-1,-1,16,2090,43,229,0.8856181665264928
2378,-1,-1,16,2091,43,229,0.885666246321984
2379,-1,-1,16,2092,43,229,0.8857142857142857
2380,-1,-1,16,2093,43,229,0.885762284754305
