instance,lable,predicted,tp,tn,fp,fn,correctness
0,-1,-1,0,1,0,0,1.0
1,-1,1,0,1,1,0,0.5
2,-1,-1,0,2,1,0,0.6666666666666666
3,-1,-1,0,3,1,0,0.75
4,-1,-1,0,4,1,0,0.8
5,-1,-1,0,5,1,0,0.8333333333333334
6,-1,-1,0,6,1,0,0.8571428571428571
7,-1,-1,0,7,1,0,0.875
8,-1,-1,0,8,1,0,0.8888888888888888
9,-1,-1,0,9,1,0,0.9
10,-1,-1,0,10,1,0,0.9090909090909091
11,1,1,1,10,1,0,0.9166666666666666
12,-1,-1,1,11,1,0,0.9230769230769231
13,-1,-1,1,12,1,0,0.9285714285714286
14,1,-1,1,12,1,1,0.8666666666666667
15,-1,-1,1,13,1,1,0.875
16,-1,-1,1,14,1,1,0.8823529411764706
17,-1,-1,1,15,1,1,0.8888888888888888
18,-1,-1,1,16,1,1,0.8947368421052632
19,-1,-1,1,17,1,1,0.9
20,-1,-1,1,18,1,1,0.9047619047619048
21,-1,-1,1,19,1,1,0.9090909090909091
22,-1,-1,1,20,1,1,0.9130434782608695
23,1,1,2,20,1,1,0.9166666666666666
24,-1,-1,2,21,1,1,0.92
25,-1,-1,2,22,1,1,0.9230769230769231
26,-1,-1,2,23,1,1,0.9259259259259259
27,-1,-1,2,24,1,1,0.9285714285714286
28,1,-1,2,24,1,2,0.896551724137931
29,-1,-1,2,25,1,2,0.9
30,-1,-1,2,26,1,2,0.9032258064516129
31,-1,-1,2,27,1,2,0.90625
32,-1,-1,2,28,1,2,0.9090909090909091
33,-1,-1,2,29,1,2,0.9117647058823529
34,1,-1,2,29,1,3,0.8857142857142857
35,-1,-1,2,30,1,3,0.8888888888888888
36,-1,-1,2,31,1,3,0.8918918918918919
37,-1,1,2,31,2,3,0.868421052631579
38,1,-1,2,31,2,4,0.8461538461538461
39,-1,-1,2,32,2,4,0.85
40,-1,-1,2,33,2,4,0.8536585365853658
41,-1,-1,2,34,2,4,0.8571428571428571
42,-1,1,2,34,3,4,0.8372093023255814
43,-1,-1,2,35,3,4,0.8409090909090909
44,-1,-1,2,36,3,4,0.8444444444444444
45,1,1,3,36,3,4,0.8478260869565217
46,-1,-1,3,37,3,4,0.851063829787234
47,1,1,4,37,3,4,0.8541666666666666
48,-1,-1,4,38,3,4,0.8571428571428571
49,-1,-1,4,39,3,4,0.86
50,1,1,5,39,3,4,0.8627450980392157
51,-1,-1,5,40,3,4,0.8653846153846154
52,-1,-1,5,41,3,4,0.8679245283018868
53,-1,-1,5,42,3,4,0.8703703703703703
54,-1,-1,5,43,3,4,0.8727272727272727
55,-1,-1,5,44,3,4,0.875
56,-1,-1,5,45,3,4,0.8771929824561403
57,-1,-1,5,46,3,4,0.8793103448275862
58,-1,-1,5,47,3,4,0.8813559322033898
59,-1,-1,5,48,3,4,0.8833333333333333
60,-1,-1,5,49,3,4,0.8852459016393442
61,-1,-1,5,50,3,4,0.8870967741935484
62,-1,-1,5,51,3,4,0.8888888888888888
63,-1,-1,5,52,3,4,0.890625
64,-1,-1,5,53,3,4,0.8923076923076924
65,-1,-1,5,54,3,4,0.8939393939393939
66,-1,-1,5,55,3,4,0.8955223880597015
67,-1,-1,5,56,3,4,0.8970588235294118
68,-1,-1,5,57,3,4,0.8985507246376812
69,-1,-1,5,58,3,4,0.9
70,-1,-1,5,59,3,4,0.9014084507042254
71,-1,-1,5,60,3,4,0.9027777777777778
72,-1,-1,5,61,3,4,0.9041095890410958
73,-1,-1,5,62,3,4,0.9054054054054054
74,-1,-1,5,63,3,4,0.9066666666666666
75,-1,-1,5,64,3,4,0.9078947368421053
76,1,1,6,64,3,4,0.9090909090909091
77,-1,-1,6,65,3,4,0.9102564102564102
78,-1,-1,6,66,3,4,0.9113924050632911
79,-1,-1,6,67,3,4,0.9125
80,-1,-1,6,68,3,4,0.9135802469135802
81,-1,-1,6,69,3,4,0.9146341463414634
82,-1,-1,6,70,3,4,0.9156626506024096
83,-1,-1,6,71,3,4,0.9166666666666666
84,-1,-1,6,72,3,4,0.9176470588235294
85,-1,-1,6,73,3,4,0.9186046511627907
86,-1,-1,6,74,3,4,0.9195402298850575
87,-1,-1,6,75,3,4,0.9204545454545454
88,-1,-1,6,76,3,4,0.9213483146067416
89,1,-1,6,76,3,5,0.9111111111111111
90,-1,-1,6,77,3,5,0.9120879120879121
91,-1,-1,6,78,3,5,0.9130434782608695
92,-1,-1,6,79,3,5,0.9139784946236559
93,-1,-1,6,80,3,5,0.9148936170212766
94,-1,-1,6,81,3,5,0.9157894736842105
95,-1,-1,6,82,3,5,0.9166666666666666
96,-1,-1,6,83,3,5,0.9175257731958762
97,-1,-1,6,84,3,5,0.9183673469387755
98,-1,-1,6,85,3,5,0.9191919191919192
99,-1,-1,6,86,3,5,0.92
100,-1,-1,6,87,3,5,0.9207920792079208
101,-1,-1,6,88,3,5,0.9215686274509803
102,-1,-1,6,89,3,5,0.9223300970873787
103,-1,-1,6,90,3,5,0.9230769230769231
104,-1,1,6,90,4,5,0.9142857142857143
105,-1,-1,6,91,4,5,0.9150943396226415
106,-1,-1,6,92,4,5,0.9158878504672897
107,-1,-1,6,93,4,5,0.9166666666666666
108,-1,-1,6,94,4,5,0.9174311926605505
109,-1,-1,6,95,4,5,0.9181818181818182
110,-1,-1,6,96,4,5,0.918918918918919
111,-1,-1,6,97,4,5,0.9196428571428571
112,-1,-1,6,98,4,5,0.9203539823008849
113,-1,-1,6,99,4,5,0.9210526315789473
114,-1,1,6,99,5,5,0.9130434782608695
115,-1,-1,6,100,5,5,0.9137931034482759
116,-1,-1,6,101,5,5,0.9145299145299145
117,-1,-1,6,102,5,5,0.9152542372881356
118,-1,-1,6,103,5,5,0.9159663865546218
119,-1,-1,6,104,5,5,0.9166666666666666
120,-1,-1,6,105,5,5,0.9173553719008265
121,-1,-1,6,106,5,5,0.9180327868852459
122,-1,-1,6,107,5,5,0.9186991869918699
123,-1,-1,6,108,5,5,0.9193548387096774
124,-1,-1,6,109,5,5,0.92
125,-1,-1,6,110,5,5,0.9206349206349206
126,-1,-1,6,111,5,5,0.9212598425196851
127,-1,-1,6,112,5,5,0.921875
128,-1,-1,6,113,5,5,0.9224806201550387
129,-1,-1,6,114,5,5,0.9230769230769231
130,-1,-1,6,115,5,5,0.9236641221374046
131,-1,-1,6,116,5,5,0.9242424242424242
132,-1,1,6,116,6,5,0.9172932330827067
133,1,1,7,116,6,5,0.917910447761194
134,-1,-1,7,117,6,5,0.9185185185185185
135,-1,-1,7,118,6,5,0.9191176470588235
136,1,-1,7,118,6,6,0.9124087591240876
137,-1,-1,7,119,6,6,0.9130434782608695
138,-1,-1,7,120,6,6,0.9136690647482014
139,1,-1,7,120,6,7,0.9071428571428571
140,-1,-1,7,121,6,7,0.9078014184397163
141,-1,-1,7,122,6,7,0.9084507042253521
142,-1,-1,7,123,6,7,0.9090909090909091
143,-1,-1,7,124,6,7,0.9097222222222222
144,-1,-1,7,125,6,7,0.9103448275862069
145,-1,-1,7,126,6,7,0.910958904109589
146,-1,-1,7,127,6,7,0.9115646258503401
147,-1,-1,7,128,6,7,0.9121621621621622
148,-1,-1,7,129,6,7,0.912751677852349
149,-1,-1,7,130,6,7,0.9133333333333333
150,-1,-1,7,131,6,7,0.9139072847682119
151,1,-1,7,131,6,8,0.9078947368421053
152,-1,-1,7,132,6,8,0.9084967320261438
153,-1,-1,7,133,6,8,0.9090909090909091
154,-1,-1,7,134,6,8,0.9096774193548387
155,-1,-1,7,135,6,8,0.9102564102564102
156,-1,-1,7,136,6,8,0.910828025477707
157,1,-1,7,136,6,9,0.9050632911392406
158,-1,-1,7,137,6,9,0.9056603773584906
159,-1,-1,7,138,6,9,0.90625
160,-1,-1,7,139,6,9,0.906832298136646
161,-1,-1,7,140,6,9,0.9074074074074074
162,-1,-1,7,141,6,9,0.9079754601226994
163,-1,-1,7,142,6,9,0.9085365853658537
164,-1,-1,7,143,6,9,0.9090909090909091
165,-1,-1,7,144,6,9,0.9096385542168675
166,-1,-1,7,145,6,9,0.9101796407185628
167,-1,-1,7,146,6,9,0.9107142857142857
168,-1,-1,7,147,6,9,0.9112426035502958
169,-1,-1,7,148,6,9,0.9117647058823529
170,1,-1,7,148,6,10,0.9064327485380117
171,1,-1,7,148,6,11,0.9011627906976745
172,1,-1,7,148,6,12,0.8959537572254336
173,-1,-1,7,149,6,12,0.896551724137931
174,1,-1,7,149,6,13,0.8914285714285715
175,1,1,8,149,6,13,0.8920454545454546
176,-1,-1,8,150,6,13,0.8926553672316384
177,-1,-1,8,151,6,13,0.8932584269662921
178,-1,-1,8,152,6,13,0.8938547486033519
179,-1,-1,8,153,6,13,0.8944444444444445
180,-1,-1,8,154,6,13,0.8950276243093923
181,-1,-1,8,155,6,13,0.8956043956043956
182,-1,-1,8,156,6,13,0.8961748633879781
183,-1,-1,8,157,6,13,0.8967391304347826
184,-1,-1,8,158,6,13,0.8972972972972973
185,-1,-1,8,159,6,13,0.8978494623655914
186,-1,-1,8,160,6,13,0.8983957219251337
187,-1,-1,8,161,6,13,0.898936170212766
188,-1,-1,8,162,6,13,0.8994708994708994
189,-1,-1,8,163,6,13,0.9
190,-1,-1,8,164,6,13,0.900523560209424
191,-1,-1,8,165,6,13,0.9010416666666666
192,-1,-1,8,166,6,13,0.9015544041450777
193,-1,-1,8,167,6,13,0.9020618556701031
194,-1,-1,8,168,6,13,0.9025641025641026
195,-1,-1,8,169,6,13,0.9030612244897959
196,-1,-1,8,170,6,13,0.9035532994923858
197,-1,-1,8,171,6,13,0.9040404040404041
198,-1,-1,8,172,6,13,0.9045226130653267
199,-1,-1,8,173,6,13,0.905
200,-1,-1,8,174,6,13,0.9054726368159204
201,-1,-1,8,175,6,13,0.905940594059406
202,-1,-1,8,176,6,13,0.9064039408866995
203,-1,-1,8,177,6,13,0.9068627450980392
204,-1,-1,8,178,6,13,0.9073170731707317
205,-1,-1,8,179,6,13,0.9077669902912622
206,-1,1,8,179,7,13,0.9033816425120773
207,-1,-1,8,180,7,13,0.9038461538461539
208,-1,-1,8,181,7,13,0.9043062200956937
209,1,-1,8,181,7,14,0.9
210,-1,-1,8,182,7,14,0.9004739336492891
211,-1,-1,8,183,7,14,0.9009433962264151
212,-1,-1,8,184,7,14,0.9014084507042254
213,1,-1,8,184,7,15,0.897196261682243
214,-1,-1,8,185,7,15,0.8976744186046511
215,-1,-1,8,186,7,15,0.8981481481481481
216,-1,-1,8,187,7,15,0.8986175115207373
217,1,1,9,187,7,15,0.8990825688073395
218,-1,-1,9,188,7,15,0.8995433789954338
219,-1,-1,9,189,7,15,0.9
220,-1,-1,9,190,7,15,0.9004524886877828
221,-1,-1,9,191,7,15,0.9009009009009009
222,1,1,10,191,7,15,0.9013452914798207
223,-1,-1,10,192,7,15,0.9017857142857143
224,-1,-1,10,193,7,15,0.9022222222222223
225,1,1,11,193,7,15,0.9026548672566371
226,-1,-1,11,194,7,15,0.9030837004405287
227,-1,-1,11,195,7,15,0.9035087719298246
228,-1,-1,11,196,7,15,0.9039301310043668
229,-1,-1,11,197,7,15,0.9043478260869565
230,-1,-1,11,198,7,15,0.9047619047619048
231,-1,-1,11,199,7,15,0.9051724137931034
232,-1,1,11,199,8,15,0.9012875536480687
233,-1,-1,11,200,8,15,0.9017094017094017
234,-1,-1,11,201,8,15,0.902127659574468
235,-1,-1,11,202,8,15,0.902542372881356
236,-1,-1,11,203,8,15,0.9029535864978903
237,-1,-1,11,204,8,15,0.9033613445378151
238,-1,-1,11,205,8,15,0.9037656903765691
239,-1,-1,11,206,8,15,0.9041666666666667
240,-1,-1,11,207,8,15,0.9045643153526971
241,-1,-1,11,208,8,15,0.9049586776859504
242,-1,-1,11,209,8,15,0.9053497942386831
243,1,-1,11,209,8,16,0.9016393442622951
244,-1,1,11,209,9,16,0.8979591836734694
245,-1,-1,11,210,9,16,0.8983739837398373
246,-1,-1,11,211,9,16,0.8987854251012146
247,1,-1,11,211,9,17,0.8951612903225806
248,-1,-1,11,212,9,17,0.8955823293172691
249,-1,-1,11,213,9,17,0.896
250,-1,-1,11,214,9,17,0.896414342629482
251,-1,-1,11,215,9,17,0.8968253968253969
252,1,-1,11,215,9,18,0.8932806324110671
253,1,1,12,215,9,18,0.8937007874015748
254,-1,-1,12,216,9,18,0.8941176470588236
255,-1,-1,12,217,9,18,0.89453125
256,-1,-1,12,218,9,18,0.8949416342412452
257,-1,-1,12,219,9,18,0.8953488372093024
258,-1,-1,12,220,9,18,0.8957528957528957
259,1,-1,12,220,9,19,0.8923076923076924
260,-1,-1,12,221,9,19,0.89272030651341
261,-1,-1,12,222,9,19,0.8931297709923665
262,-1,-1,12,223,9,19,0.8935361216730038
263,-1,-1,12,224,9,19,0.8939393939393939
264,-1,-1,12,225,9,19,0.8943396226415095
265,-1,-1,12,226,9,19,0.8947368421052632
266,-1,-1,12,227,9,19,0.8951310861423221
267,-1,-1,12,228,9,19,0.8955223880597015
268,-1,-1,12,229,9,19,0.895910780669145
269,-1,-1,12,230,9,19,0.8962962962962963
270,-1,-1,12,231,9,19,0.8966789667896679
271,-1,-1,12,232,9,19,0.8970588235294118
272,-1,-1,12,233,9,19,0.8974358974358975
273,-1,-1,12,234,9,19,0.8978102189781022
274,-1,-1,12,235,9,19,0.8981818181818182
275,-1,-1,12,236,9,19,0.8985507246376812
276,-1,1,12,236,10,19,0.8953068592057761
277,-1,-1,12,237,10,19,0.89568345323741
278,-1,-1,12,238,10,19,0.8960573476702509
279,-1,-1,12,239,10,19,0.8964285714285715
280,1,1,13,239,10,19,0.896797153024911
281,-1,-1,13,240,10,19,0.8971631205673759
282,-1,-1,13,241,10,19,0.8975265017667845
283,-1,-1,13,242,10,19,0.897887323943662
284,-1,-1,13,243,10,19,0.8982456140350877
285,1,1,14,243,10,19,0.8986013986013986
286,-1,-1,14,244,10,19,0.8989547038327527
287,-1,-1,14,245,10,19,0.8993055555555556
288,-1,-1,14,246,10,19,0.8996539792387543
289,1,1,15,246,10,19,0.9
290,-1,1,15,246,11,19,0.8969072164948454
291,-1,-1,15,247,11,19,0.8972602739726028
292,-1,-1,15,248,11,19,0.8976109215017065
293,1,-1,15,248,11,20,0.8945578231292517
294,-1,-1,15,249,11,20,0.8949152542372881
295,-1,-1,15,250,11,20,0.8952702702702703
296,-1,-1,15,251,11,20,0.8956228956228957
297,-1,-1,15,252,11,20,0.8959731543624161
298,-1,-1,15,253,11,20,0.8963210702341137
299,-1,-1,15,254,11,20,0.8966666666666666
300,-1,-1,15,255,11,20,0.8970099667774086
301,-1,-1,15,256,11,20,0.8973509933774835
302,-1,-1,15,257,11,20,0.8976897689768977
303,-1,-1,15,258,11,20,0.8980263157894737
304,-1,-1,15,259,11,20,0.898360655737705
305,-1,-1,15,260,11,20,0.8986928104575164
306,-1,-1,15,261,11,20,0.8990228013029316
307,-1,-1,15,262,11,20,0.8993506493506493
308,-1,-1,15,263,11,20,0.8996763754045307
309,-1,-1,15,264,11,20,0.9
310,-1,-1,15,265,11,20,0.9003215434083601
311,-1,-1,15,266,11,20,0.9006410256410257
312,-1,-1,15,267,11,20,0.9009584664536742
313,-1,-1,15,268,11,20,0.9012738853503185
314,-1,-1,15,269,11,20,0.9015873015873016
315,-1,-1,15,270,11,20,0.9018987341772152
316,-1,-1,15,271,11,20,0.9022082018927445
317,-1,-1,15,272,11,20,0.9025157232704403
318,-1,-1,15,273,11,20,0.9028213166144201
319,-1,-1,15,274,11,20,0.903125
320,-1,-1,15,275,11,20,0.9034267912772586
321,-1,-1,15,276,11,20,0.9037267080745341
322,-1,-1,15,277,11,20,0.9040247678018576
323,-1,-1,15,278,11,20,0.904320987654321
324,-1,1,15,278,12,20,0.9015384615384615
325,-1,-1,15,279,12,20,0.901840490797546
326,-1,-1,15,280,12,20,0.9021406727828746
327,-1,-1,15,281,12,20,0.9024390243902439
328,-1,-1,15,282,12,20,0.9027355623100304
329,-1,-1,15,283,12,20,0.9030303030303031
330,-1,-1,15,284,12,20,0.9033232628398792
331,1,1,16,284,12,20,0.9036144578313253
332,-1,-1,16,285,12,20,0.9039039039039038
333,-1,-1,16,286,12,20,0.9041916167664671
334,-1,-1,16,287,12,20,0.9044776119402985
335,1,-1,16,287,12,21,0.9017857142857143
336,-1,-1,16,288,12,21,0.9020771513353115
337,-1,-1,16,289,12,21,0.9023668639053254
338,-1,-1,16,290,12,21,0.9026548672566371
339,-1,-1,16,291,12,21,0.9029411764705882
340,-1,-1,16,292,12,21,0.9032258064516129
341,-1,-1,16,293,12,21,0.9035087719298246
342,-1,-1,16,294,12,21,0.9037900874635568
343,-1,-1,16,295,12,21,0.9040697674418605
344,-1,-1,16,296,12,21,0.9043478260869565
345,-1,-1,16,297,12,21,0.9046242774566474
346,-1,-1,16,298,12,21,0.9048991354466859
347,-1,-1,16,299,12,21,0.9051724137931034
348,-1,-1,16,300,12,21,0.9054441260744985
349,1,-1,16,300,12,22,0.9028571428571428
350,1,-1,16,300,12,23,0.9002849002849003
351,-1,-1,16,301,12,23,0.9005681818181818
352,-1,-1,16,302,12,23,0.9008498583569405
353,-1,-1,16,303,12,23,0.9011299435028248
354,-1,-1,16,304,12,23,0.9014084507042254
355,-1,-1,16,305,12,23,0.901685393258427
356,-1,-1,16,306,12,23,0.9019607843137255
357,-1,-1,16,307,12,23,0.9022346368715084
358,-1,-1,16,308,12,23,0.9025069637883009
359,-1,-1,16,309,12,23,0.9027777777777778
360,1,1,17,309,12,23,0.9030470914127424
361,-1,-1,17,310,12,23,0.9033149171270718
362,-1,-1,17,311,12,23,0.9035812672176309
363,-1,-1,17,312,12,23,0.9038461538461539
364,1,-1,17,312,12,24,0.9013698630136986
365,-1,-1,17,313,12,24,0.9016393442622951
366,-1,-1,17,314,12,24,0.9019073569482289
367,-1,-1,17,315,12,24,0.9021739130434783
368,-1,-1,17,316,12,24,0.9024390243902439
369,-1,-1,17,317,12,24,0.9027027027027027
370,-1,-1,17,318,12,24,0.9029649595687331
371,-1,-1,17,319,12,24,0.9032258064516129
372,1,-1,17,319,12,25,0.900804289544236
373,-1,-1,17,320,12,25,0.9010695187165776
374,-1,-1,17,321,12,25,0.9013333333333333
375,-1,-1,17,322,12,25,0.901595744680851
376,-1,-1,17,323,12,25,0.9018567639257294
377,-1,-1,17,324,12,25,0.9021164021164021
378,-1,-1,17,325,12,25,0.9023746701846965
379,-1,-1,17,326,12,25,0.9026315789473685
380,-1,-1,17,327,12,25,0.9028871391076115
381,1,-1,17,327,12,26,0.900523560209424
382,-1,-1,17,328,12,26,0.9007832898172323
383,1,-1,17,328,12,27,0.8984375
384,-1,-1,17,329,12,27,0.8987012987012987
385,-1,-1,17,330,12,27,0.8989637305699482
386,-1,-1,17,331,12,27,0.8992248062015504
387,-1,-1,17,332,12,27,0.8994845360824743
388,-1,-1,17,333,12,27,0.8997429305912596
389,-1,-1,17,334,12,27,0.9
390,-1,-1,17,335,12,27,0.9002557544757033
391,-1,-1,17,336,12,27,0.9005102040816326
392,-1,-1,17,337,12,27,0.9007633587786259
393,-1,-1,17,338,12,27,0.9010152284263959
394,1,-1,17,338,12,28,0.8987341772151899
395,-1,-1,17,339,12,28,0.898989898989899
396,-1,-1,17,340,12,28,0.8992443324937027
397,-1,-1,17,341,12,28,0.8994974874371859
398,-1,-1,17,342,12,28,0.899749373433584
399,-1,-1,17,343,12,28,0.9
400,1,1,18,343,12,28,0.9002493765586035
401,-1,1,18,343,13,28,0.8980099502487562
402,-1,-1,18,344,13,28,0.8982630272952854
403,-1,-1,18,345,13,28,0.8985148514851485
404,-1,-1,18,346,13,28,0.8987654320987655
405,-1,-1,18,347,13,28,0.8990147783251231
406,-1,-1,18,348,13,28,0.8992628992628993
407,-1,-1,18,349,13,28,0.8995098039215687
408,-1,-1,18,350,13,28,0.8997555012224939
409,-1,-1,18,351,13,28,0.9
410,-1,-1,18,352,13,28,0.9002433090024331
411,1,-1,18,352,13,29,0.8980582524271845
412,-1,-1,18,353,13,29,0.8983050847457628
413,-1,-1,18,354,13,29,0.8985507246376812
414,-1,-1,18,355,13,29,0.8987951807228916
415,1,-1,18,355,13,30,0.8966346153846154
416,-1,-1,18,356,13,30,0.8968824940047961
417,-1,1,18,356,14,30,0.8947368421052632
418,-1,-1,18,357,14,30,0.8949880668257757
419,-1,-1,18,358,14,30,0.8952380952380953
420,-1,-1,18,359,14,30,0.8954869358669834
421,-1,-1,18,360,14,30,0.8957345971563981
422,-1,-1,18,361,14,30,0.8959810874704491
423,-1,-1,18,362,14,30,0.8962264150943396
424,-1,-1,18,363,14,30,0.8964705882352941
425,1,-1,18,363,14,31,0.8943661971830986
426,-1,-1,18,364,14,31,0.8946135831381733
427,-1,-1,18,365,14,31,0.8948598130841121
428,-1,-1,18,366,14,31,0.8951048951048951
429,-1,-1,18,367,14,31,0.8953488372093024
430,-1,-1,18,368,14,31,0.8955916473317865
431,-1,-1,18,369,14,31,0.8958333333333334
432,-1,-1,18,370,14,31,0.8960739030023095
433,-1,-1,18,371,14,31,0.8963133640552995
434,-1,-1,18,372,14,31,0.896551724137931
435,-1,-1,18,373,14,31,0.8967889908256881
436,-1,-1,18,374,14,31,0.897025171624714
437,-1,-1,18,375,14,31,0.8972602739726028
438,-1,-1,18,376,14,31,0.89749430523918
439,-1,-1,18,377,14,31,0.8977272727272727
440,-1,-1,18,378,14,31,0.8979591836734694
441,-1,-1,18,379,14,31,0.8981900452488688
442,1,-1,18,379,14,32,0.8961625282167043
443,1,-1,18,379,14,33,0.8941441441441441
444,-1,-1,18,380,14,33,0.8943820224719101
445,-1,-1,18,381,14,33,0.8946188340807175
446,-1,-1,18,382,14,33,0.8948545861297539
447,-1,-1,18,383,14,33,0.8950892857142857
448,-1,-1,18,384,14,33,0.8953229398663697
449,-1,-1,18,385,14,33,0.8955555555555555
450,-1,-1,18,386,14,33,0.8957871396895787
451,1,-1,18,386,14,34,0.8938053097345132
452,-1,-1,18,387,14,34,0.8940397350993378
453,-1,-1,18,388,14,34,0.8942731277533039
454,1,-1,18,388,14,35,0.8923076923076924
455,-1,-1,18,389,14,35,0.8925438596491229
456,-1,-1,18,390,14,35,0.8927789934354485
457,-1,-1,18,391,14,35,0.8930131004366813
458,-1,-1,18,392,14,35,0.8932461873638344
459,-1,-1,18,393,14,35,0.8934782608695652
460,-1,-1,18,394,14,35,0.8937093275488069
461,-1,-1,18,395,14,35,0.8939393939393939
462,-1,-1,18,396,14,35,0.8941684665226782
463,-1,-1,18,397,14,35,0.8943965517241379
464,-1,-1,18,398,14,35,0.8946236559139785
465,-1,-1,18,399,14,35,0.8948497854077253
466,-1,-1,18,400,14,35,0.8950749464668094
467,-1,-1,18,401,14,35,0.8952991452991453
468,-1,-1,18,402,14,35,0.8955223880597015
469,-1,-1,18,403,14,35,0.8957446808510638
470,-1,-1,18,404,14,35,0.8959660297239915
471,-1,-1,18,405,14,35,0.8961864406779662
472,-1,-1,18,406,14,35,0.8964059196617337
473,-1,-1,18,407,14,35,0.8966244725738397
474,-1,-1,18,408,14,35,0.8968421052631579
475,-1,-1,18,409,14,35,0.8970588235294118
476,-1,-1,18,410,14,35,0.8972746331236897
477,-1,-1,18,411,14,35,0.897489539748954
478,-1,-1,18,412,14,35,0.8977035490605428
479,-1,-1,18,413,14,35,0.8979166666666667
480,-1,-1,18,414,14,35,0.8981288981288982
481,-1,-1,18,415,14,35,0.8983402489626556
482,-1,-1,18,416,14,35,0.8985507246376812
483,-1,-1,18,417,14,35,0.8987603305785123
484,-1,-1,18,418,14,35,0.8989690721649485
485,1,-1,18,418,14,36,0.897119341563786
486,1,-1,18,418,14,37,0.8952772073921971
487,1,-1,18,418,14,38,0.8934426229508197
488,-1,-1,18,419,14,38,0.8936605316973415
489,-1,-1,18,420,14,38,0.8938775510204081
490,-1,-1,18,421,14,38,0.8940936863543788
491,-1,-1,18,422,14,38,0.8943089430894309
492,-1,-1,18,423,14,38,0.8945233265720081
493,-1,-1,18,424,14,38,0.8947368421052632
494,-1,-1,18,425,14,38,0.8949494949494949
495,-1,-1,18,426,14,38,0.8951612903225806
496,-1,-1,18,427,14,38,0.8953722334004024
497,-1,-1,18,428,14,38,0.8955823293172691
498,-1,-1,18,429,14,38,0.8957915831663327
499,-1,-1,18,430,14,38,0.896
500,-1,-1,18,431,14,38,0.8962075848303394
501,-1,-1,18,432,14,38,0.896414342629482
502,-1,-1,18,433,14,38,0.8966202783300199
503,-1,-1,18,434,14,38,0.8968253968253969
504,1,-1,18,434,14,39,0.8950495049504951
505,-1,-1,18,435,14,39,0.8952569169960475
506,-1,-1,18,436,14,39,0.8954635108481263
507,1,-1,18,436,14,40,0.8937007874015748
508,1,-1,18,436,14,41,0.8919449901768173
509,-1,-1,18,437,14,41,0.8921568627450981
510,-1,-1,18,438,14,41,0.8923679060665362
511,-1,-1,18,439,14,41,0.892578125
512,-1,-1,18,440,14,41,0.8927875243664717
513,-1,-1,18,441,14,41,0.8929961089494164
514,-1,-1,18,442,14,41,0.8932038834951457
515,-1,-1,18,443,14,41,0.8934108527131783
516,-1,-1,18,444,14,41,0.8936170212765957
517,1,-1,18,444,14,42,0.8918918918918919
518,-1,-1,18,445,14,42,0.8921001926782274
519,-1,-1,18,446,14,42,0.8923076923076924
520,-1,-1,18,447,14,42,0.8925143953934741
521,-1,-1,18,448,14,42,0.89272030651341
522,-1,-1,18,449,14,42,0.892925430210325
523,-1,-1,18,450,14,42,0.8931297709923665
524,-1,-1,18,451,14,42,0.8933333333333333
525,-1,-1,18,452,14,42,0.8935361216730038
526,-1,-1,18,453,14,42,0.8937381404174574
527,-1,-1,18,454,14,42,0.8939393939393939
528,-1,-1,18,455,14,42,0.8941398865784499
529,-1,-1,18,456,14,42,0.8943396226415095
530,1,-1,18,456,14,43,0.8926553672316384
531,-1,1,18,456,15,43,0.8909774436090225
532,1,1,19,456,15,43,0.8911819887429644
533,-1,-1,19,457,15,43,0.8913857677902621
534,-1,-1,19,458,15,43,0.891588785046729
535,-1,-1,19,459,15,43,0.8917910447761194
536,-1,-1,19,460,15,43,0.8919925512104283
537,-1,-1,19,461,15,43,0.8921933085501859
538,1,-1,19,461,15,44,0.8905380333951762
539,-1,-1,19,462,15,44,0.8907407407407407
540,-1,-1,19,463,15,44,0.8909426987060998
541,-1,-1,19,464,15,44,0.8911439114391144
542,-1,-1,19,465,15,44,0.8913443830570903
543,-1,-1,19,466,15,44,0.8915441176470589
544,-1,-1,19,467,15,44,0.8917431192660551
545,1,1,20,467,15,44,0.891941391941392
546,-1,-1,20,468,15,44,0.8921389396709324
547,-1,1,20,468,16,44,0.8905109489051095
548,-1,-1,20,469,16,44,0.8907103825136612
549,-1,-1,20,470,16,44,0.8909090909090909
550,-1,-1,20,471,16,44,0.8911070780399274
551,-1,-1,20,472,16,44,0.8913043478260869
552,-1,-1,20,473,16,44,0.891500904159132
553,-1,-1,20,474,16,44,0.8916967509025271
554,1,-1,20,474,16,45,0.8900900900900901
555,-1,-1,20,475,16,45,0.8902877697841727
556,-1,-1,20,476,16,45,0.8904847396768402
557,-1,1,20,476,17,45,0.8888888888888888
558,-1,-1,20,477,17,45,0.889087656529517
559,-1,-1,20,478,17,45,0.8892857142857142
560,-1,-1,20,479,17,45,0.8894830659536542
561,-1,-1,20,480,17,45,0.8896797153024911
562,-1,-1,20,481,17,45,0.8898756660746003
563,-1,-1,20,482,17,45,0.8900709219858156
564,-1,-1,20,483,17,45,0.8902654867256637
565,-1,-1,20,484,17,45,0.8904593639575972
566,1,-1,20,484,17,46,0.8888888888888888
567,-1,-1,20,485,17,46,0.8890845070422535
568,1,-1,20,485,17,47,0.8875219683655536
569,-1,-1,20,486,17,47,0.887719298245614
570,-1,-1,20,487,17,47,0.8879159369527145
571,-1,-1,20,488,17,47,0.8881118881118881
572,-1,1,20,488,18,47,0.8865619546247818
573,-1,-1,20,489,18,47,0.8867595818815331
574,-1,-1,20,490,18,47,0.8869565217391304
575,-1,-1,20,491,18,47,0.8871527777777778
576,-1,-1,20,492,18,47,0.8873483535528596
577,1,-1,20,492,18,48,0.8858131487889274
578,-1,-1,20,493,18,48,0.8860103626943006
579,-1,-1,20,494,18,48,0.8862068965517241
580,-1,-1,20,495,18,48,0.8864027538726333
581,-1,-1,20,496,18,48,0.8865979381443299
582,-1,-1,20,497,18,48,0.8867924528301887
583,-1,-1,20,498,18,48,0.886986301369863
584,-1,-1,20,499,18,48,0.8871794871794871
585,1,-1,20,499,18,49,0.8856655290102389
586,-1,-1,20,500,18,49,0.8858603066439523
587,-1,-1,20,501,18,49,0.8860544217687075
588,-1,-1,20,502,18,49,0.8862478777589134
589,1,-1,20,502,18,50,0.8847457627118644
590,-1,-1,20,503,18,50,0.8849407783417935
591,1,-1,20,503,18,51,0.8834459459459459
592,-1,-1,20,504,18,51,0.8836424957841484
593,-1,-1,20,505,18,51,0.8838383838383839
594,-1,-1,20,506,18,51,0.8840336134453781
595,-1,-1,20,507,18,51,0.8842281879194631
596,-1,-1,20,508,18,51,0.8844221105527639
597,-1,-1,20,509,18,51,0.8846153846153846
598,-1,-1,20,510,18,51,0.8848080133555927
599,-1,-1,20,511,18,51,0.885
600,-1,-1,20,512,18,51,0.8851913477537438
601,-1,-1,20,513,18,51,0.8853820598006644
602,-1,-1,20,514,18,51,0.8855721393034826
603,-1,-1,20,515,18,51,0.8857615894039735
604,-1,-1,20,516,18,51,0.8859504132231405
605,-1,-1,20,517,18,51,0.8861386138613861
606,-1,-1,20,518,18,51,0.886326194398682
607,-1,-1,20,519,18,51,0.8865131578947368
608,-1,-1,20,520,18,51,0.8866995073891626
609,1,1,21,520,18,51,0.8868852459016393
610,-1,-1,21,521,18,51,0.8870703764320785
611,1,-1,21,521,18,52,0.8856209150326797
612,-1,-1,21,522,18,52,0.8858075040783034
613,-1,-1,21,523,18,52,0.8859934853420195
614,-1,-1,21,524,18,52,0.8861788617886179
615,-1,-1,21,525,18,52,0.8863636363636364
616,-1,-1,21,526,18,52,0.8865478119935171
617,-1,-1,21,527,18,52,0.8867313915857605
618,-1,-1,21,528,18,52,0.8869143780290791
619,-1,-1,21,529,18,52,0.8870967741935484
620,-1,-1,21,530,18,52,0.8872785829307569
621,-1,-1,21,531,18,52,0.887459807073955
622,-1,-1,21,532,18,52,0.8876404494382022
623,-1,-1,21,533,18,52,0.8878205128205128
624,-1,-1,21,534,18,52,0.888
625,1,-1,21,534,18,53,0.8865814696485623
626,1,-1,21,534,18,54,0.8851674641148325
627,-1,-1,21,535,18,54,0.8853503184713376
628,-1,-1,21,536,18,54,0.8855325914149443
629,-1,-1,21,537,18,54,0.8857142857142857
630,-1,-1,21,538,18,54,0.8858954041204438
631,-1,-1,21,539,18,54,0.8860759493670886
632,-1,-1,21,540,18,54,0.8862559241706162
633,-1,-1,21,541,18,54,0.886435331230284
634,-1,-1,21,542,18,54,0.8866141732283465
635,-1,-1,21,543,18,54,0.8867924528301887
636,-1,-1,21,544,18,54,0.8869701726844584
637,-1,-1,21,545,18,54,0.8871473354231975
638,-1,-1,21,546,18,54,0.8873239436619719
639,-1,-1,21,547,18,54,0.8875
640,-1,-1,21,548,18,54,0.8876755070202809
641,-1,-1,21,549,18,54,0.8878504672897196
642,-1,-1,21,550,18,54,0.8880248833592534
643,-1,-1,21,551,18,54,0.8881987577639752
644,1,-1,21,551,18,55,0.8868217054263566
645,-1,-1,21,552,18,55,0.8869969040247678
646,-1,-1,21,553,18,55,0.8871715610510046
647,-1,-1,21,554,18,55,0.8873456790123457
648,-1,-1,21,555,18,55,0.8875192604006163
649,-1,-1,21,556,18,55,0.8876923076923077
650,-1,-1,21,557,18,55,0.8878648233486943
651,1,-1,21,557,18,56,0.8865030674846626
652,-1,-1,21,558,18,56,0.886676875957121
653,-1,-1,21,559,18,56,0.8868501529051988
654,1,-1,21,559,18,57,0.8854961832061069
655,-1,-1,21,560,18,57,0.885670731707317
656,-1,-1,21,561,18,57,0.8858447488584474
657,-1,-1,21,562,18,57,0.8860182370820668
658,-1,-1,21,563,18,57,0.8861911987860395
659,-1,-1,21,564,18,57,0.8863636363636364
660,1,-1,21,564,18,58,0.8850226928895613
661,-1,-1,21,565,18,58,0.8851963746223565
662,-1,-1,21,566,18,58,0.8853695324283559
663,-1,-1,21,567,18,58,0.8855421686746988
664,-1,-1,21,568,18,58,0.8857142857142857
665,-1,-1,21,569,18,58,0.8858858858858859
666,1,-1,21,569,18,59,0.8845577211394303
667,-1,-1,21,570,18,59,0.8847305389221557
668,-1,-1,21,571,18,59,0.8849028400597907
669,-1,-1,21,572,18,59,0.8850746268656716
670,-1,-1,21,573,18,59,0.8852459016393442
671,-1,-1,21,574,18,59,0.8854166666666666
672,-1,-1,21,575,18,59,0.8855869242199108
673,-1,-1,21,576,18,59,0.8857566765578635
674,-1,-1,21,577,18,59,0.8859259259259259
675,-1,-1,21,578,18,59,0.886094674556213
676,-1,-1,21,579,18,59,0.8862629246676514
677,-1,-1,21,580,18,59,0.8864306784660767
678,-1,-1,21,581,18,59,0.8865979381443299
679,-1,-1,21,582,18,59,0.8867647058823529
680,1,1,22,582,18,59,0.8869309838472834
681,-1,-1,22,583,18,59,0.8870967741935484
682,-1,-1,22,584,18,59,0.8872620790629575
683,-1,-1,22,585,18,59,0.8874269005847953
684,1,1,23,585,18,59,0.8875912408759125
685,-1,-1,23,586,18,59,0.8877551020408163
686,1,-1,23,586,18,60,0.8864628820960698
687,-1,-1,23,587,18,60,0.8866279069767442
688,-1,-1,23,588,18,60,0.8867924528301887
689,-1,-1,23,589,18,60,0.8869565217391304
690,-1,-1,23,590,18,60,0.8871201157742402
691,-1,-1,23,591,18,60,0.8872832369942196
692,-1,-1,23,592,18,60,0.8874458874458875
693,-1,-1,23,593,18,60,0.8876080691642652
694,-1,-1,23,594,18,60,0.8877697841726618
695,-1,-1,23,595,18,60,0.8879310344827587
696,-1,-1,23,596,18,60,0.8880918220946915
697,-1,-1,23,597,18,60,0.8882521489971347
698,-1,-1,23,598,18,60,0.8884120171673819
699,-1,-1,23,599,18,60,0.8885714285714286
700,-1,1,23,599,19,60,0.8873038516405135
701,-1,-1,23,600,19,60,0.8874643874643875
702,-1,-1,23,601,19,60,0.887624466571835
703,-1,-1,23,602,19,60,0.8877840909090909
704,-1,-1,23,603,19,60,0.8879432624113475
705,-1,-1,23,604,19,60,0.8881019830028328
706,-1,-1,23,605,19,60,0.8882602545968883
707,1,-1,23,605,19,61,0.8870056497175142
708,-1,-1,23,606,19,61,0.8871650211565585
709,-1,-1,23,607,19,61,0.8873239436619719
710,-1,-1,23,608,19,61,0.8874824191279888
711,-1,-1,23,609,19,61,0.8876404494382022
712,-1,-1,23,610,19,61,0.8877980364656382
713,-1,-1,23,611,19,61,0.8879551820728291
714,-1,-1,23,612,19,61,0.8881118881118881
715,-1,-1,23,613,19,61,0.888268156424581
716,-1,-1,23,614,19,61,0.8884239888423989
717,-1,-1,23,615,19,61,0.8885793871866295
718,-1,-1,23,616,19,61,0.8887343532684284
719,1,-1,23,616,19,62,0.8875
720,-1,1,23,616,20,62,0.8862690707350902
721,-1,-1,23,617,20,62,0.8864265927977839
722,-1,-1,23,618,20,62,0.8865836791147994
723,-1,-1,23,619,20,62,0.8867403314917127
724,-1,-1,23,620,20,62,0.886896551724138
725,-1,-1,23,621,20,62,0.8870523415977961
726,-1,1,23,621,21,62,0.8858321870701513
727,-1,-1,23,622,21,62,0.885989010989011
728,-1,-1,23,623,21,62,0.8861454046639232
729,-1,-1,23,624,21,62,0.8863013698630137
730,-1,-1,23,625,21,62,0.8864569083447332
731,-1,-1,23,626,21,62,0.8866120218579235
732,-1,-1,23,627,21,62,0.8867667121418826
733,1,-1,23,627,21,63,0.885558583106267
734,1,-1,23,627,21,64,0.8843537414965986
735,-1,-1,23,628,21,64,0.8845108695652174
736,-1,-1,23,629,21,64,0.8846675712347354
737,-1,-1,23,630,21,64,0.8848238482384824
738,-1,-1,23,631,21,64,0.8849797023004059
739,-1,-1,23,632,21,64,0.8851351351351351
740,-1,-1,23,633,21,64,0.8852901484480432
741,-1,-1,23,634,21,64,0.8854447439353099
742,-1,1,23,634,22,64,0.8842530282637954
743,-1,-1,23,635,22,64,0.8844086021505376
744,1,-1,23,635,22,65,0.8832214765100671
745,-1,-1,23,636,22,65,0.8833780160857909
746,-1,-1,23,637,22,65,0.8835341365461847
747,-1,-1,23,638,22,65,0.8836898395721925
748,-1,-1,23,639,22,65,0.8838451268357811
749,-1,-1,23,640,22,65,0.884
750,1,1,24,640,22,65,0.8841544607190412
751,-1,-1,24,641,22,65,0.8843085106382979
752,1,-1,24,641,22,66,0.8831341301460823
753,-1,-1,24,642,22,66,0.883289124668435
754,-1,-1,24,643,22,66,0.8834437086092716
755,-1,-1,24,644,22,66,0.8835978835978836
756,-1,-1,24,645,22,66,0.8837516512549538
757,-1,-1,24,646,22,66,0.8839050131926122
758,-1,-1,24,647,22,66,0.8840579710144928
759,-1,1,24,647,23,66,0.8828947368421053
760,-1,-1,24,648,23,66,0.8830486202365309
761,-1,-1,24,649,23,66,0.8832020997375328
762,-1,-1,24,650,23,66,0.8833551769331586
763,-1,-1,24,651,23,66,0.8835078534031413
764,-1,-1,24,652,23,66,0.8836601307189542
765,-1,-1,24,653,23,66,0.8838120104438643
766,-1,-1,24,654,23,66,0.8839634941329857
767,-1,-1,24,655,23,66,0.8841145833333334
768,-1,-1,24,656,23,66,0.8842652795838751
769,-1,-1,24,657,23,66,0.8844155844155844
770,-1,-1,24,658,23,66,0.8845654993514915
771,-1,-1,24,659,23,66,0.8847150259067358
772,-1,-1,24,660,23,66,0.8848641655886158
773,-1,-1,24,661,23,66,0.8850129198966409
774,-1,-1,24,662,23,66,0.8851612903225806
775,-1,-1,24,663,23,66,0.8853092783505154
776,-1,-1,24,664,23,66,0.8854568854568855
777,-1,-1,24,665,23,66,0.8856041131105399
778,-1,-1,24,666,23,66,0.8857509627727856
779,-1,-1,24,667,23,66,0.8858974358974359
780,1,-1,24,667,23,67,0.8847631241997439
781,-1,-1,24,668,23,67,0.8849104859335039
782,-1,-1,24,669,23,67,0.8850574712643678
783,-1,-1,24,670,23,67,0.8852040816326531
784,-1,-1,24,671,23,67,0.8853503184713376
785,-1,-1,24,672,23,67,0.8854961832061069
786,-1,-1,24,673,23,67,0.8856416772554002
787,1,-1,24,673,23,68,0.8845177664974619
788,-1,-1,24,674,23,68,0.8846641318124208
789,-1,-1,24,675,23,68,0.8848101265822785
790,-1,-1,24,676,23,68,0.8849557522123894
791,-1,-1,24,677,23,68,0.88510101010101
792,-1,-1,24,678,23,68,0.8852459016393442
793,-1,-1,24,679,23,68,0.8853904282115869
794,-1,-1,24,680,23,68,0.8855345911949686
795,-1,-1,24,681,23,68,0.885678391959799
796,-1,-1,24,682,23,68,0.8858218318695107
797,-1,-1,24,683,23,68,0.8859649122807017
798,-1,-1,24,684,23,68,0.886107634543179
799,-1,-1,24,685,23,68,0.88625
800,-1,-1,24,686,23,68,0.8863920099875156
801,-1,-1,24,687,23,68,0.8865336658354115
802,-1,-1,24,688,23,68,0.8866749688667497
803,-1,-1,24,689,23,68,0.8868159203980099
804,-1,-1,24,690,23,68,0.8869565217391304
805,-1,-1,24,691,23,68,0.8870967741935484
806,-1,-1,24,692,23,68,0.8872366790582404
807,-1,-1,24,693,23,68,0.8873762376237624
808,-1,-1,24,694,23,68,0.8875154511742892
809,-1,-1,24,695,23,68,0.8876543209876543
810,-1,-1,24,696,23,68,0.8877928483353884
811,-1,-1,24,697,23,68,0.8879310344827587
812,-1,-1,24,698,23,68,0.8880688806888068
813,-1,-1,24,699,23,68,0.8882063882063882
814,-1,-1,24,700,23,68,0.8883435582822086
815,-1,-1,24,701,23,68,0.8884803921568627
816,1,-1,24,701,23,69,0.8873929008567931
817,-1,-1,24,702,23,69,0.8875305623471883
818,-1,-1,24,703,23,69,0.8876678876678876
819,-1,-1,24,704,23,69,0.8878048780487805
820,-1,-1,24,705,23,69,0.8879415347137637
821,-1,-1,24,706,23,69,0.8880778588807786
822,-1,-1,24,707,23,69,0.8882138517618469
823,-1,-1,24,708,23,69,0.8883495145631068
824,-1,-1,24,709,23,69,0.8884848484848484
825,-1,-1,24,710,23,69,0.8886198547215496
826,-1,-1,24,711,23,69,0.8887545344619106
827,-1,-1,24,712,23,69,0.8888888888888888
828,-1,-1,24,713,23,69,0.8890229191797346
829,-1,-1,24,714,23,69,0.8891566265060241
830,-1,-1,24,715,23,69,0.8892900120336944
831,-1,-1,24,716,23,69,0.8894230769230769
832,-1,-1,24,717,23,69,0.8895558223289316
833,-1,-1,24,718,23,69,0.8896882494004796
834,-1,-1,24,719,23,69,0.8898203592814371
835,-1,-1,24,720,23,69,0.8899521531100478
836,-1,-1,24,721,23,69,0.8900836320191159
837,-1,-1,24,722,23,69,0.8902147971360382
838,1,1,25,722,23,69,0.8903456495828367
839,-1,-1,25,723,23,69,0.8904761904761904
840,-1,-1,25,724,23,69,0.8906064209274673
841,-1,1,25,724,24,69,0.8895486935866983
842,-1,-1,25,725,24,69,0.8896797153024911
843,-1,-1,25,726,24,69,0.8898104265402843
844,-1,-1,25,727,24,69,0.8899408284023669
845,-1,-1,25,728,24,69,0.8900709219858156
846,-1,-1,25,729,24,69,0.8902007083825265
847,-1,-1,25,730,24,69,0.8903301886792453
848,-1,-1,25,731,24,69,0.8904593639575972
849,-1,-1,25,732,24,69,0.8905882352941177
850,-1,-1,25,733,24,69,0.8907168037602821
851,1,-1,25,733,24,70,0.8896713615023474
852,-1,-1,25,734,24,70,0.8898007033997656
853,1,-1,25,734,24,71,0.8887587822014051
854,-1,-1,25,735,24,71,0.8888888888888888
855,-1,-1,25,736,24,71,0.889018691588785
856,-1,-1,25,737,24,71,0.8891481913652275
857,-1,-1,25,738,24,71,0.8892773892773893
858,-1,-1,25,739,24,71,0.889406286379511
859,-1,-1,25,740,24,71,0.8895348837209303
860,-1,-1,25,741,24,71,0.8896631823461092
861,-1,-1,25,742,24,71,0.8897911832946636
862,-1,-1,25,743,24,71,0.8899188876013905
863,-1,-1,25,744,24,71,0.8900462962962963
864,-1,-1,25,745,24,71,0.8901734104046243
865,-1,-1,25,746,24,71,0.8903002309468823
866,-1,1,25,746,25,71,0.889273356401384
867,-1,-1,25,747,25,71,0.8894009216589862
868,-1,-1,25,748,25,71,0.8895281933256617
869,-1,-1,25,749,25,71,0.8896551724137931
870,-1,-1,25,750,25,71,0.8897818599311137
871,-1,-1,25,751,25,71,0.8899082568807339
872,-1,-1,25,752,25,71,0.8900343642611683
873,-1,-1,25,753,25,71,0.8901601830663616
874,-1,-1,25,754,25,71,0.8902857142857142
875,-1,-1,25,755,25,71,0.8904109589041096
876,-1,-1,25,756,25,71,0.8905359179019384
877,-1,-1,25,757,25,71,0.8906605922551253
878,-1,-1,25,758,25,71,0.8907849829351536
879,-1,-1,25,759,25,71,0.8909090909090909
880,-1,-1,25,760,25,71,0.8910329171396141
881,-1,-1,25,761,25,71,0.891156462585034
882,-1,-1,25,762,25,71,0.8912797281993206
883,-1,-1,25,763,25,71,0.8914027149321267
884,1,-1,25,763,25,72,0.8903954802259887
885,-1,-1,25,764,25,72,0.8905191873589164
886,-1,-1,25,765,25,72,0.8906426155580609
887,-1,-1,25,766,25,72,0.8907657657657657
888,-1,-1,25,767,25,72,0.890888638920135
889,-1,-1,25,768,25,72,0.8910112359550562
890,-1,-1,25,769,25,72,0.8911335578002245
891,-1,-1,25,770,25,72,0.8912556053811659
892,-1,-1,25,771,25,72,0.8913773796192609
893,-1,-1,25,772,25,72,0.8914988814317674
894,-1,-1,25,773,25,72,0.8916201117318435
895,-1,-1,25,774,25,72,0.8917410714285714
896,-1,-1,25,775,25,72,0.8918617614269788
897,-1,-1,25,776,25,72,0.8919821826280624
898,-1,-1,25,777,25,72,0.8921023359288098
899,-1,-1,25,778,25,72,0.8922222222222222
900,-1,-1,25,779,25,72,0.8923418423973363
901,-1,-1,25,780,25,72,0.8924611973392461
902,-1,-1,25,781,25,72,0.8925802879291251
903,-1,-1,25,782,25,72,0.8926991150442478
904,-1,-1,25,783,25,72,0.8928176795580111
905,-1,-1,25,784,25,72,0.8929359823399559
906,-1,-1,25,785,25,72,0.8930540242557883
907,-1,-1,25,786,25,72,0.8931718061674009
908,-1,-1,25,787,25,72,0.8932893289328933
909,-1,-1,25,788,25,72,0.8934065934065935
910,-1,-1,25,789,25,72,0.893523600439078
911,-1,-1,25,790,25,72,0.893640350877193
912,-1,-1,25,791,25,72,0.8937568455640745
913,-1,-1,25,792,25,72,0.8938730853391685
914,-1,-1,25,793,25,72,0.8939890710382513
915,-1,1,25,793,26,72,0.8930131004366813
916,-1,-1,25,794,26,72,0.8931297709923665
917,-1,-1,25,795,26,72,0.8932461873638344
918,-1,-1,25,796,26,72,0.8933623503808488
919,-1,-1,25,797,26,72,0.8934782608695652
920,-1,-1,25,798,26,72,0.8935939196525515
921,1,-1,25,798,26,73,0.8926247288503254
922,1,-1,25,798,26,74,0.8916576381365113
923,1,-1,25,798,26,75,0.8906926406926406
924,-1,-1,25,799,26,75,0.8908108108108108
925,-1,-1,25,800,26,75,0.8909287257019438
926,-1,-1,25,801,26,75,0.8910463861920173
927,-1,-1,25,802,26,75,0.8911637931034483
928,-1,-1,25,803,26,75,0.891280947255113
929,-1,-1,25,804,26,75,0.8913978494623656
930,-1,-1,25,805,26,75,0.8915145005370569
931,-1,-1,25,806,26,75,0.8916309012875536
932,-1,-1,25,807,26,75,0.8917470525187567
933,-1,-1,25,808,26,75,0.8918629550321199
934,-1,-1,25,809,26,75,0.8919786096256684
935,-1,-1,25,810,26,75,0.8920940170940171
936,-1,-1,25,811,26,75,0.8922091782283885
937,-1,-1,25,812,26,75,0.8923240938166311
938,1,1,26,812,26,75,0.8924387646432375
939,-1,-1,26,813,26,75,0.8925531914893617
940,1,1,27,813,26,75,0.8926673751328374
941,-1,-1,27,814,26,75,0.8927813163481954
942,-1,-1,27,815,26,75,0.8928950159066809
943,-1,-1,27,816,26,75,0.8930084745762712
944,-1,-1,27,817,26,75,0.8931216931216931
945,-1,-1,27,818,26,75,0.8932346723044398
946,-1,-1,27,819,26,75,0.8933474128827877
947,-1,-1,27,820,26,75,0.8934599156118144
948,-1,-1,27,821,26,75,0.8935721812434141
949,-1,-1,27,822,26,75,0.8936842105263157
950,-1,-1,27,823,26,75,0.8937960042060988
951,1,1,28,823,26,75,0.8939075630252101
952,-1,-1,28,824,26,75,0.8940188877229801
953,-1,-1,28,825,26,75,0.8941299790356394
954,-1,-1,28,826,26,75,0.8942408376963351
955,-1,-1,28,827,26,75,0.8943514644351465
956,-1,-1,28,828,26,75,0.8944618599791013
957,-1,1,28,828,27,75,0.8935281837160751
958,-1,-1,28,829,27,75,0.8936392075078207
959,-1,-1,28,830,27,75,0.89375
960,1,-1,28,830,27,76,0.8928199791883454
961,-1,-1,28,831,27,76,0.8929313929313929
962,-1,-1,28,832,27,76,0.893042575285566
963,-1,-1,28,833,27,76,0.8931535269709544
964,-1,-1,28,834,27,76,0.8932642487046633
965,-1,-1,28,835,27,76,0.8933747412008282
966,-1,-1,28,836,27,76,0.8934850051706308
967,1,-1,28,836,27,77,0.8925619834710744
968,-1,-1,28,837,27,77,0.8926728586171311
969,1,-1,28,837,27,78,0.8917525773195877
970,1,-1,28,837,27,79,0.8908341915550978
971,-1,-1,28,838,27,79,0.8909465020576132
972,-1,-1,28,839,27,79,0.8910585817060637
973,-1,-1,28,840,27,79,0.891170431211499
974,-1,-1,28,841,27,79,0.8912820512820513
975,-1,-1,28,842,27,79,0.8913934426229508
976,-1,-1,28,843,27,79,0.8915046059365405
977,-1,-1,28,844,27,79,0.8916155419222904
978,-1,1,28,844,28,79,0.8907048008171604
979,1,1,29,844,28,79,0.8908163265306123
980,-1,-1,29,845,28,79,0.890927624872579
981,1,-1,29,845,28,80,0.890020366598778
982,-1,1,29,845,29,80,0.8891149542217701
983,-1,-1,29,846,29,80,0.8892276422764228
984,-1,-1,29,847,29,80,0.8893401015228426
985,-1,-1,29,848,29,80,0.8894523326572008
986,-1,-1,29,849,29,80,0.889564336372847
987,-1,-1,29,850,29,80,0.8896761133603239
988,-1,-1,29,851,29,80,0.8897876643073812
989,-1,-1,29,852,29,80,0.8898989898989899
990,-1,-1,29,853,29,80,0.8900100908173562
991,-1,-1,29,854,29,80,0.8901209677419355
992,-1,-1,29,855,29,80,0.8902316213494461
993,-1,-1,29,856,29,80,0.8903420523138833
994,-1,-1,29,857,29,80,0.8904522613065327
995,-1,-1,29,858,29,80,0.8905622489959839
996,-1,-1,29,859,29,80,0.8906720160481444
997,-1,-1,29,860,29,80,0.8907815631262525
998,-1,-1,29,861,29,80,0.8908908908908909
999,-1,-1,29,862,29,80,0.891
1000,-1,-1,29,863,29,80,0.8911088911088911
1001,-1,-1,29,864,29,80,0.8912175648702595
1002,-1,-1,29,865,29,80,0.8913260219341974
1003,-1,-1,29,866,29,80,0.8914342629482072
1004,-1,-1,29,867,29,80,0.891542288557214
1005,-1,-1,29,868,29,80,0.8916500994035785
1006,-1,-1,29,869,29,80,0.8917576961271102
1007,-1,-1,29,870,29,80,0.8918650793650794
1008,1,-1,29,870,29,81,0.8909811694747275
1009,-1,-1,29,871,29,81,0.8910891089108911
1010,-1,-1,29,872,29,81,0.8911968348170128
1011,-1,-1,29,873,29,81,0.8913043478260869
1012,-1,-1,29,874,29,81,0.8914116485686081
1013,-1,-1,29,875,29,81,0.8915187376725838
1014,-1,-1,29,876,29,81,0.8916256157635468
1015,-1,-1,29,877,29,81,0.8917322834645669
1016,-1,-1,29,878,29,81,0.8918387413962635
1017,-1,-1,29,879,29,81,0.8919449901768173
1018,-1,-1,29,880,29,81,0.8920510304219823
1019,-1,-1,29,881,29,81,0.8921568627450981
1020,-1,1,29,881,30,81,0.89128305582762
1021,-1,-1,29,882,30,81,0.8913894324853229
1022,-1,-1,29,883,30,81,0.8914956011730205
1023,-1,-1,29,884,30,81,0.8916015625
1024,-1,-1,29,885,30,81,0.8917073170731707
1025,-1,-1,29,886,30,81,0.8918128654970761
1026,-1,-1,29,887,30,81,0.8919182083739046
1027,-1,-1,29,888,30,81,0.892023346303502
1028,-1,-1,29,889,30,81,0.892128279883382
1029,-1,-1,29,890,30,81,0.8922330097087379
1030,-1,1,29,890,31,81,0.8913676042677012
1031,-1,-1,29,891,31,81,0.8914728682170543
1032,-1,-1,29,892,31,81,0.8915779283639884
1033,-1,-1,29,893,31,81,0.8916827852998066
1034,-1,-1,29,894,31,81,0.8917874396135266
1035,-1,-1,29,895,31,81,0.8918918918918919
1036,-1,-1,29,896,31,81,0.8919961427193829
1037,-1,-1,29,897,31,81,0.8921001926782274
1038,-1,-1,29,898,31,81,0.8922040423484119
1039,-1,-1,29,899,31,81,0.8923076923076924
1040,-1,1,29,899,32,81,0.8914505283381364
1041,-1,-1,29,900,32,81,0.8915547024952015
1042,-1,-1,29,901,32,81,0.8916586768935763
1043,-1,-1,29,902,32,81,0.8917624521072797
1044,-1,-1,29,903,32,81,0.8918660287081339
1045,-1,-1,29,904,32,81,0.8919694072657743
1046,-1,-1,29,905,32,81,0.89207258834766
1047,-1,-1,29,906,32,81,0.892175572519084
1048,-1,-1,29,907,32,81,0.892278360343184
1049,-1,-1,29,908,32,81,0.8923809523809524
1050,-1,-1,29,909,32,81,0.8924833491912464
1051,-1,1,29,909,33,81,0.8916349809885932
1052,-1,-1,29,910,33,81,0.8917378917378918
1053,-1,-1,29,911,33,81,0.8918406072106262
1054,-1,-1,29,912,33,81,0.8919431279620853
1055,-1,-1,29,913,33,81,0.8920454545454546
1056,-1,-1,29,914,33,81,0.8921475875118259
1057,-1,-1,29,915,33,81,0.8922495274102079
1058,-1,-1,29,916,33,81,0.8923512747875354
1059,-1,-1,29,917,33,81,0.8924528301886793
1060,1,-1,29,917,33,82,0.8916116870876531
1061,-1,-1,29,918,33,82,0.891713747645951
1062,-1,-1,29,919,33,82,0.8918156161806209
1063,-1,-1,29,920,33,82,0.8919172932330827
1064,1,-1,29,920,33,83,0.8910798122065727
1065,-1,-1,29,921,33,83,0.8911819887429644
1066,1,1,30,921,33,83,0.8912839737582006
1067,-1,-1,30,922,33,83,0.8913857677902621
1068,1,-1,30,922,33,84,0.8905519176800748
1069,-1,-1,30,923,33,84,0.8906542056074767
1070,-1,-1,30,924,33,84,0.8907563025210085
1071,-1,-1,30,925,33,84,0.8908582089552238
1072,-1,-1,30,926,33,84,0.8909599254426841
1073,-1,1,30,926,34,84,0.8901303538175046
1074,-1,-1,30,927,34,84,0.8902325581395348
1075,-1,-1,30,928,34,84,0.8903345724907064
1076,-1,-1,30,929,34,84,0.8904363974001857
1077,-1,-1,30,930,34,84,0.8905380333951762
1078,-1,-1,30,931,34,84,0.8906394810009268
1079,-1,-1,30,932,34,84,0.8907407407407407
1080,-1,-1,30,933,34,84,0.8908418131359852
1081,-1,-1,30,934,34,84,0.8909426987060998
1082,1,-1,30,934,34,85,0.8901200369344414
1083,-1,-1,30,935,34,85,0.8902214022140221
1084,-1,-1,30,936,34,85,0.8903225806451613
1085,-1,-1,30,937,34,85,0.8904235727440147
1086,-1,-1,30,938,34,85,0.890524379024839
1087,-1,-1,30,939,34,85,0.890625
1088,-1,-1,30,940,34,85,0.8907254361799817
1089,-1,-1,30,941,34,85,0.8908256880733945
1090,-1,-1,30,942,34,85,0.8909257561869844
1091,-1,-1,30,943,34,85,0.8910256410256411
1092,-1,-1,30,944,34,85,0.8911253430924062
1093,-1,-1,30,945,34,85,0.8912248628884827
1094,-1,-1,30,946,34,85,0.891324200913242
1095,-1,-1,30,947,34,85,0.8914233576642335
1096,-1,-1,30,948,34,85,0.8915223336371924
1097,-1,-1,30,949,34,85,0.8916211293260473
1098,-1,-1,30,950,34,85,0.89171974522293
1099,-1,-1,30,951,34,85,0.8918181818181818
1100,-1,-1,30,952,34,85,0.8919164396003633
1101,-1,-1,30,953,34,85,0.8920145190562614
1102,-1,-1,30,954,34,85,0.8921124206708976
1103,-1,-1,30,955,34,85,0.8922101449275363
1104,1,-1,30,955,34,86,0.8914027149321267
1105,-1,-1,30,956,34,86,0.891500904159132
1106,1,1,31,956,34,86,0.8915989159891599
1107,-1,-1,31,957,34,86,0.8916967509025271
1108,-1,-1,31,958,34,86,0.8917944093778178
1109,-1,-1,31,959,34,86,0.8918918918918919
1110,-1,-1,31,960,34,86,0.891989198919892
1111,-1,-1,31,961,34,86,0.8920863309352518
1112,-1,-1,31,962,34,86,0.8921832884097035
1113,-1,-1,31,963,34,86,0.8922800718132855
1114,1,-1,31,963,34,87,0.8914798206278027
1115,-1,-1,31,964,34,87,0.8915770609318996
1116,-1,-1,31,965,34,87,0.891674127126231
1117,-1,-1,31,966,34,87,0.8917710196779964
1118,-1,-1,31,967,34,87,0.8918677390527256
1119,-1,-1,31,968,34,87,0.8919642857142858
1120,-1,-1,31,969,34,87,0.8920606601248885
1121,-1,-1,31,970,34,87,0.8921568627450981
1122,-1,-1,31,971,34,87,0.8922528940338379
1123,-1,-1,31,972,34,87,0.8923487544483986
1124,-1,-1,31,973,34,87,0.8924444444444445
1125,-1,-1,31,974,34,87,0.8925399644760214
1126,-1,-1,31,975,34,87,0.8926353149955635
1127,-1,-1,31,976,34,87,0.8927304964539007
1128,-1,-1,31,977,34,87,0.8928255093002657
1129,-1,-1,31,978,34,87,0.8929203539823009
1130,-1,-1,31,979,34,87,0.8930150309460654
1131,-1,1,31,979,35,87,0.892226148409894
1132,-1,-1,31,980,35,87,0.8923212709620476
1133,-1,-1,31,981,35,87,0.892416225749559
1134,-1,-1,31,982,35,87,0.892511013215859
1135,-1,-1,31,983,35,87,0.8926056338028169
1136,1,1,32,983,35,87,0.8927000879507476
1137,-1,-1,32,984,35,87,0.8927943760984183
1138,-1,-1,32,985,35,87,0.8928884986830553
1139,-1,-1,32,986,35,87,0.8929824561403509
1140,-1,-1,32,987,35,87,0.8930762489044698
1141,-1,-1,32,988,35,87,0.8931698774080561
1142,-1,-1,32,989,35,87,0.8932633420822397
1143,-1,-1,32,990,35,87,0.8933566433566433
1144,-1,-1,32,991,35,87,0.8934497816593886
1145,-1,-1,32,992,35,87,0.893542757417103
1146,-1,-1,32,993,35,87,0.8936355710549259
1147,-1,-1,32,994,35,87,0.8937282229965157
1148,-1,-1,32,995,35,87,0.8938207136640557
1149,-1,-1,32,996,35,87,0.8939130434782608
1150,-1,-1,32,997,35,87,0.894005212858384
1151,-1,-1,32,998,35,87,0.8940972222222222
1152,-1,-1,32,999,35,87,0.8941890719861232
1153,-1,-1,32,1000,35,87,0.8942807625649913
1154,-1,-1,32,1001,35,87,0.8943722943722944
1155,1,-1,32,1001,35,88,0.893598615916955
1156,-1,-1,32,1002,35,88,0.8936905790838375
1157,-1,-1,32,1003,35,88,0.8937823834196891
1158,-1,-1,32,1004,35,88,0.8938740293356342
1159,-1,-1,32,1005,35,88,0.8939655172413793
1160,-1,-1,32,1006,35,88,0.8940568475452196
1161,-1,-1,32,1007,35,88,0.8941480206540448
1162,-1,-1,32,1008,35,88,0.8942390369733448
1163,-1,-1,32,1009,35,88,0.8943298969072165
1164,-1,-1,32,1010,35,88,0.894420600858369
1165,-1,-1,32,1011,35,88,0.8945111492281304
1166,-1,-1,32,1012,35,88,0.8946015424164524
1167,-1,-1,32,1013,35,88,0.8946917808219178
1168,-1,-1,32,1014,35,88,0.894781864841745
1169,-1,-1,32,1015,35,88,0.8948717948717949
1170,-1,-1,32,1016,35,88,0.8949615713065756
1171,1,1,33,1016,35,88,0.8950511945392492
1172,-1,-1,33,1017,35,88,0.8951406649616368
1173,-1,-1,33,1018,35,88,0.8952299829642248
1174,-1,-1,33,1019,35,88,0.8953191489361703
1175,1,-1,33,1019,35,89,0.8945578231292517
1176,-1,-1,33,1020,35,89,0.8946474086661003
1177,1,-1,33,1020,35,90,0.8938879456706282
1178,-1,-1,33,1021,35,90,0.8939779474130619
1179,-1,-1,33,1022,35,90,0.8940677966101694
1180,-1,-1,33,1023,35,90,0.8941574936494496
1181,-1,-1,33,1024,35,90,0.8942470389170897
1182,-1,-1,33,1025,35,90,0.8943364327979713
1183,-1,-1,33,1026,35,90,0.8944256756756757
1184,-1,-1,33,1027,35,90,0.8945147679324894
1185,-1,-1,33,1028,35,90,0.8946037099494097
1186,-1,-1,33,1029,35,90,0.8946925021061499
1187,-1,-1,33,1030,35,90,0.8947811447811448
1188,-1,-1,33,1031,35,90,0.894869638351556
1189,-1,-1,33,1032,35,90,0.8949579831932774
1190,-1,1,33,1032,36,90,0.8942065491183879
1191,-1,-1,33,1033,36,90,0.8942953020134228
1192,-1,-1,33,1034,36,90,0.8943839061190276
1193,-1,-1,33,1035,36,90,0.8944723618090452
1194,-1,-1,33,1036,36,90,0.8945606694560669
1195,-1,-1,33,1037,36,90,0.8946488294314381
1196,-1,-1,33,1038,36,90,0.8947368421052632
1197,-1,-1,33,1039,36,90,0.8948247078464107
1198,-1,-1,33,1040,36,90,0.8949124270225187
1199,1,-1,33,1040,36,91,0.8941666666666667
1200,-1,-1,33,1041,36,91,0.8942547876769359
1201,-1,-1,33,1042,36,91,0.8943427620632279
1202,-1,-1,33,1043,36,91,0.8944305901911886
1203,-1,-1,33,1044,36,91,0.8945182724252492
1204,-1,-1,33,1045,36,91,0.8946058091286307
1205,-1,-1,33,1046,36,91,0.8946932006633499
1206,-1,-1,33,1047,36,91,0.8947804473902237
1207,-1,-1,33,1048,36,91,0.8948675496688742
1208,-1,-1,33,1049,36,91,0.8949545078577337
1209,-1,-1,33,1050,36,91,0.8950413223140495
1210,-1,-1,33,1051,36,91,0.8951279933938894
1211,-1,-1,33,1052,36,91,0.8952145214521452
1212,-1,-1,33,1053,36,91,0.8953009068425392
1213,-1,-1,33,1054,36,91,0.8953871499176277
1214,-1,-1,33,1055,36,91,0.8954732510288066
1215,-1,-1,33,1056,36,91,0.8955592105263158
1216,-1,-1,33,1057,36,91,0.895645028759244
1217,-1,-1,33,1058,36,91,0.8957307060755336
1218,-1,-1,33,1059,36,91,0.8958162428219852
1219,-1,-1,33,1060,36,91,0.8959016393442623
1220,1,-1,33,1060,36,92,0.8951678951678952
1221,1,-1,33,1060,36,93,0.8944353518821604
1222,1,-1,33,1060,36,94,0.8937040065412919
1223,-1,-1,33,1061,36,94,0.8937908496732027
1224,-1,-1,33,1062,36,94,0.8938775510204081
1225,-1,-1,33,1063,36,94,0.8939641109298532
1226,-1,-1,33,1064,36,94,0.8940505297473512
1227,-1,-1,33,1065,36,94,0.8941368078175895
1228,-1,-1,33,1066,36,94,0.8942229454841334
1229,-1,-1,33,1067,36,94,0.8943089430894309
1230,-1,-1,33,1068,36,94,0.8943948009748173
1231,1,-1,33,1068,36,95,0.8936688311688312
1232,-1,-1,33,1069,36,95,0.8937550689375506
1233,-1,-1,33,1070,36,95,0.8938411669367909
1234,-1,1,33,1070,37,95,0.8931174089068826
1235,-1,-1,33,1071,37,95,0.8932038834951457
1236,-1,-1,33,1072,37,95,0.8932902182700081
1237,-1,-1,33,1073,37,95,0.8933764135702746
1238,-1,-1,33,1074,37,95,0.8934624697336562
1239,-1,-1,33,1075,37,95,0.8935483870967742
1240,-1,-1,33,1076,37,95,0.8936341659951652
1241,-1,-1,33,1077,37,95,0.893719806763285
1242,-1,-1,33,1078,37,95,0.8938053097345132
1243,-1,-1,33,1079,37,95,0.8938906752411575
1244,-1,-1,33,1080,37,95,0.8939759036144578
1245,-1,-1,33,1081,37,95,0.8940609951845907
1246,-1,-1,33,1082,37,95,0.8941459502806736
1247,-1,-1,33,1083,37,95,0.8942307692307693
1248,-1,-1,33,1084,37,95,0.8943154523618895
1249,-1,-1,33,1085,37,95,0.8944
1250,-1,-1,33,1086,37,95,0.894484412470024
1251,-1,-1,33,1087,37,95,0.8945686900958466
1252,-1,-1,33,1088,37,95,0.8946528332003192
1253,-1,-1,33,1089,37,95,0.8947368421052632
1254,-1,-1,33,1090,37,95,0.8948207171314742
1255,-1,-1,33,1091,37,95,0.8949044585987261
1256,1,-1,33,1091,37,96,0.8941925218774861
1257,-1,-1,33,1092,37,96,0.8942766295707473
1258,-1,-1,33,1093,37,96,0.8943606036536934
1259,-1,-1,33,1094,37,96,0.8944444444444445
1260,-1,1,33,1094,38,96,0.893735130848533
1261,1,-1,33,1094,38,97,0.893026941362916
1262,-1,-1,33,1095,38,97,0.8931116389548693
1263,-1,-1,33,1096,38,97,0.8931962025316456
1264,-1,-1,33,1097,38,97,0.8932806324110671
1265,1,1,34,1097,38,97,0.8933649289099526
1266,-1,-1,34,1098,38,97,0.89344909234412
1267,-1,-1,34,1099,38,97,0.8935331230283912
1268,-1,-1,34,1100,38,97,0.8936170212765957
1269,-1,-1,34,1101,38,97,0.8937007874015748
1270,-1,-1,34,1102,38,97,0.8937844217151849
1271,-1,-1,34,1103,38,97,0.8938679245283019
1272,-1,-1,34,1104,38,97,0.8939512961508248
1273,-1,-1,34,1105,38,97,0.8940345368916798
1274,-1,-1,34,1106,38,97,0.8941176470588236
1275,-1,-1,34,1107,38,97,0.8942006269592476
1276,-1,-1,34,1108,38,97,0.894283476898982
1277,-1,-1,34,1109,38,97,0.8943661971830986
1278,-1,-1,34,1110,38,97,0.8944487881157154
1279,-1,-1,34,1111,38,97,0.89453125
1280,-1,-1,34,1112,38,97,0.8946135831381733
1281,-1,-1,34,1113,38,97,0.8946957878315133
1282,1,-1,34,1113,38,98,0.8939984411535464
1283,-1,-1,34,1114,38,98,0.8940809968847352
1284,-1,-1,34,1115,38,98,0.8941634241245137
1285,1,-1,34,1115,38,99,0.8934681181959565
1286,-1,-1,34,1116,38,99,0.8935508935508936
1287,1,-1,34,1116,38,100,0.8928571428571429
1288,-1,-1,34,1117,38,100,0.8929402637703646
1289,-1,-1,34,1118,38,100,0.8930232558139535
1290,-1,-1,34,1119,38,100,0.8931061192873742
1291,1,-1,34,1119,38,101,0.8924148606811145
1292,-1,-1,34,1120,38,101,0.8924980665119876
1293,-1,-1,34,1121,38,101,0.89258114374034
1294,-1,-1,34,1122,38,101,0.8926640926640926
1295,-1,-1,34,1123,38,101,0.8927469135802469
1296,-1,-1,34,1124,38,101,0.8928296067848882
1297,-1,-1,34,1125,38,101,0.8929121725731896
1298,1,-1,34,1125,38,102,0.8922247882986913
1299,-1,-1,34,1126,38,102,0.8923076923076924
1300,-1,-1,34,1127,38,102,0.8923904688700999
1301,-1,-1,34,1128,38,102,0.8924731182795699
1302,-1,-1,34,1129,38,102,0.8925556408288565
1303,-1,-1,34,1130,38,102,0.8926380368098159
1304,-1,-1,34,1131,38,102,0.89272030651341
1305,1,-1,34,1131,38,103,0.8920367534456355
1306,-1,-1,34,1132,38,103,0.8921193573068095
1307,-1,-1,34,1133,38,103,0.8922018348623854
1308,-1,-1,34,1134,38,103,0.8922841864018335
1309,-1,-1,34,1135,38,103,0.8923664122137405
1310,-1,-1,34,1136,38,103,0.8924485125858124
1311,-1,-1,34,1137,38,103,0.8925304878048781
1312,-1,-1,34,1138,38,103,0.8926123381568926
1313,-1,-1,34,1139,38,103,0.8926940639269406
1314,1,-1,34,1139,38,104,0.8920152091254753
1315,-1,-1,34,1140,38,104,0.89209726443769
1316,-1,-1,34,1141,38,104,0.8921791951404707
1317,1,1,35,1141,38,104,0.8922610015174507
1318,-1,-1,35,1142,38,104,0.8923426838514026
1319,-1,-1,35,1143,38,104,0.8924242424242425
1320,-1,-1,35,1144,38,104,0.8925056775170326
1321,-1,-1,35,1145,38,104,0.8925869894099848
1322,-1,-1,35,1146,38,104,0.8926681783824642
1323,-1,-1,35,1147,38,104,0.8927492447129909
1324,-1,-1,35,1148,38,104,0.8928301886792452
1325,-1,-1,35,1149,38,104,0.8929110105580694
1326,-1,-1,35,1150,38,104,0.892991710625471
1327,-1,-1,35,1151,38,104,0.8930722891566265
1328,-1,-1,35,1152,38,104,0.8931527464258842
1329,-1,-1,35,1153,38,104,0.8932330827067669
1330,-1,-1,35,1154,38,104,0.8933132982719759
1331,-1,-1,35,1155,38,104,0.8933933933933934
1332,-1,-1,35,1156,38,104,0.8934733683420856
1333,-1,-1,35,1157,38,104,0.8935532233883059
1334,-1,-1,35,1158,38,104,0.8936329588014982
1335,-1,-1,35,1159,38,104,0.8937125748502994
1336,-1,-1,35,1160,38,104,0.893792071802543
1337,-1,-1,35,1161,38,104,0.8938714499252616
1338,-1,-1,35,1162,38,104,0.89395070948469
1339,-1,-1,35,1163,38,104,0.8940298507462686
1340,-1,-1,35,1164,38,104,0.8941088739746458
1341,-1,-1,35,1165,38,104,0.8941877794336811
1342,-1,-1,35,1166,38,104,0.8942665673864483
1343,-1,-1,35,1167,38,104,0.8943452380952381
1344,1,-1,35,1167,38,105,0.8936802973977696
1345,-1,-1,35,1168,38,105,0.8937592867756315
1346,-1,-1,35,1169,38,105,0.8938381588715665
1347,-1,-1,35,1170,38,105,0.8939169139465876
1348,-1,-1,35,1171,38,105,0.8939955522609341
1349,-1,-1,35,1172,38,105,0.894074074074074
1350,-1,-1,35,1173,38,105,0.8941524796447077
1351,-1,-1,35,1174,38,105,0.8942307692307693
1352,-1,-1,35,1175,38,105,0.8943089430894309
1353,-1,-1,35,1176,38,105,0.8943870014771049
1354,-1,-1,35,1177,38,105,0.8944649446494465
1355,-1,-1,35,1178,38,105,0.894542772861357
1356,-1,-1,35,1179,38,105,0.894620486366986
1357,1,-1,35,1179,38,106,0.8939617083946981
1358,-1,-1,35,1180,38,106,0.8940397350993378
1359,1,1,36,1180,38,106,0.8941176470588236
1360,-1,-1,36,1181,38,106,0.8941954445260838
1361,1,-1,36,1181,38,107,0.8935389133627019
1362,-1,-1,36,1182,38,107,0.8936170212765957
1363,-1,-1,36,1183,38,107,0.8936950146627566
1364,-1,-1,36,1184,38,107,0.8937728937728938
1365,-1,-1,36,1185,38,107,0.8938506588579795
1366,-1,-1,36,1186,38,107,0.8939283101682517
1367,-1,-1,36,1187,38,107,0.8940058479532164
1368,-1,-1,36,1188,38,107,0.8940832724616509
1369,-1,-1,36,1189,38,107,0.8941605839416058
1370,1,1,37,1189,38,107,0.8942377826404084
1371,-1,1,37,1189,39,107,0.8935860058309038
1372,-1,-1,37,1190,39,107,0.8936635105608157
1373,-1,-1,37,1191,39,107,0.893740902474527
1374,-1,-1,37,1192,39,107,0.8938181818181818
1375,-1,-1,37,1193,39,107,0.8938953488372093
1376,1,1,38,1193,39,107,0.8939724037763254
1377,-1,-1,38,1194,39,107,0.8940493468795355
1378,-1,1,38,1194,40,107,0.8934010152284264
1379,-1,-1,38,1195,40,107,0.8934782608695652
1380,-1,-1,38,1196,40,107,0.8935553946415641
1381,-1,-1,38,1197,40,107,0.8936324167872648
1382,-1,-1,38,1198,40,107,0.8937093275488069
1383,-1,-1,38,1199,40,107,0.8937861271676301
1384,1,-1,38,1199,40,108,0.8931407942238268
1385,-1,-1,38,1200,40,108,0.8932178932178932
1386,-1,-1,38,1201,40,108,0.893294881038212
1387,1,-1,38,1201,40,109,0.8926512968299711
1388,-1,-1,38,1202,40,109,0.8927285817134629
1389,-1,-1,38,1203,40,109,0.8928057553956834
1390,-1,-1,38,1204,40,109,0.892882818116463
1391,-1,-1,38,1205,40,109,0.8929597701149425
1392,-1,-1,38,1206,40,109,0.8930366116295765
1393,-1,-1,38,1207,40,109,0.8931133428981348
1394,-1,-1,38,1208,40,109,0.8931899641577061
1395,-1,-1,38,1209,40,109,0.8932664756446992
1396,-1,-1,38,1210,40,109,0.8933428775948461
1397,-1,-1,38,1211,40,109,0.8934191702432046
1398,-1,-1,38,1212,40,109,0.8934953538241601
1399,-1,-1,38,1213,40,109,0.8935714285714286
1400,-1,-1,38,1214,40,109,0.8936473947180585
1401,-1,-1,38,1215,40,109,0.8937232524964337
1402,-1,-1,38,1216,40,109,0.8937990021382751
1403,-1,-1,38,1217,40,109,0.8938746438746439
1404,-1,-1,38,1218,40,109,0.8939501779359431
1405,-1,-1,38,1219,40,109,0.8940256045519204
1406,1,-1,38,1219,40,110,0.8933901918976546
1407,-1,-1,38,1220,40,110,0.8934659090909091
1408,-1,-1,38,1221,40,110,0.893541518807665
1409,-1,-1,38,1222,40,110,0.8936170212765957
1410,-1,-1,38,1223,40,110,0.8936924167257264
1411,-1,-1,38,1224,40,110,0.8937677053824362
1412,-1,1,38,1224,41,110,0.8931351733899504
1413,-1,-1,38,1225,41,110,0.8932107496463932
1414,-1,1,38,1225,42,110,0.8925795053003533
1415,-1,-1,38,1226,42,110,0.8926553672316384
1416,-1,1,38,1226,43,110,0.8920254057868737
1417,1,-1,38,1226,43,111,0.8913963328631875
1418,-1,-1,38,1227,43,111,0.8914728682170543
1419,-1,-1,38,1228,43,111,0.8915492957746479
1420,-1,-1,38,1229,43,111,0.8916256157635468
1421,-1,-1,38,1230,43,111,0.8917018284106891
1422,-1,-1,38,1231,43,111,0.8917779339423753
1423,-1,-1,38,1232,43,111,0.8918539325842697
1424,1,-1,38,1232,43,112,0.8912280701754386
1425,-1,-1,38,1233,43,112,0.8913043478260869
1426,-1,-1,38,1234,43,112,0.8913805185704274
1427,1,-1,38,1234,43,113,0.8907563025210085
1428,-1,-1,38,1235,43,113,0.8908327501749476
1429,-1,-1,38,1236,43,113,0.8909090909090909
1430,-1,-1,38,1237,43,113,0.8909853249475891
1431,-1,-1,38,1238,43,113,0.8910614525139665
1432,1,-1,38,1238,43,114,0.8904396371249128
1433,-1,-1,38,1239,43,114,0.8905160390516039
1434,-1,-1,38,1240,43,114,0.8905923344947735
1435,-1,-1,38,1241,43,114,0.8906685236768802
1436,-1,-1,38,1242,43,114,0.8907446068197634
1437,-1,-1,38,1243,43,114,0.8908205841446454
1438,-1,-1,38,1244,43,114,0.8908964558721334
1439,1,-1,38,1244,43,115,0.8902777777777777
1440,-1,-1,38,1245,43,115,0.890353920888272
1441,-1,-1,38,1246,43,115,0.8904299583911235
1442,-1,-1,38,1247,43,115,0.8905058905058905
1443,-1,-1,38,1248,43,115,0.8905817174515236
1444,-1,-1,38,1249,43,115,0.8906574394463668
1445,-1,-1,38,1250,43,115,0.8907330567081605
1446,-1,-1,38,1251,43,115,0.8908085694540429
1447,-1,-1,38,1252,43,115,0.8908839779005525
1448,-1,-1,38,1253,43,115,0.8909592822636301
1449,-1,-1,38,1254,43,115,0.8910344827586207
1450,-1,-1,38,1255,43,115,0.8911095796002757
1451,-1,-1,38,1256,43,115,0.8911845730027548
1452,-1,-1,38,1257,43,115,0.8912594631796283
1453,-1,-1,38,1258,43,115,0.8913342503438789
1454,-1,-1,38,1259,43,115,0.8914089347079038
1455,-1,-1,38,1260,43,115,0.8914835164835165
1456,-1,-1,38,1261,43,115,0.8915579958819492
1457,-1,-1,38,1262,43,115,0.8916323731138546
1458,-1,-1,38,1263,43,115,0.8917066483893078
1459,-1,-1,38,1264,43,115,0.8917808219178082
1460,-1,-1,38,1265,43,115,0.891854893908282
1461,-1,-1,38,1266,43,115,0.8919288645690835
1462,-1,-1,38,1267,43,115,0.8920027341079972
1463,-1,-1,38,1268,43,115,0.8920765027322405
1464,-1,-1,38,1269,43,115,0.8921501706484641
1465,1,-1,38,1269,43,116,0.8915416098226466
1466,-1,-1,38,1270,43,116,0.8916155419222904
1467,-1,-1,38,1271,43,116,0.8916893732970027
1468,-1,-1,38,1272,43,116,0.8917631041524847
1469,-1,-1,38,1273,43,116,0.8918367346938776
1470,-1,-1,38,1274,43,116,0.8919102651257648
1471,-1,-1,38,1275,43,116,0.891983695652174
1472,-1,-1,38,1276,43,116,0.8920570264765784
1473,-1,-1,38,1277,43,116,0.8921302578018996
1474,-1,-1,38,1278,43,116,0.8922033898305085
1475,1,1,39,1278,43,116,0.8922764227642277
1476,-1,-1,39,1279,43,116,0.8923493568043331
1477,-1,-1,39,1280,43,116,0.8924221921515562
1478,-1,-1,39,1281,43,116,0.8924949290060852
1479,-1,-1,39,1282,43,116,0.8925675675675676
1480,-1,-1,39,1283,43,116,0.8926401080351114
1481,-1,-1,39,1284,43,116,0.8927125506072875
1482,-1,-1,39,1285,43,116,0.8927848954821308
1483,-1,-1,39,1286,43,116,0.8928571428571429
1484,-1,-1,39,1287,43,116,0.8929292929292929
1485,-1,-1,39,1288,43,116,0.8930013458950202
1486,-1,-1,39,1289,43,116,0.8930733019502354
1487,1,-1,39,1289,43,117,0.8924731182795699
1488,-1,-1,39,1290,43,117,0.8925453324378778
1489,-1,-1,39,1291,43,117,0.8926174496644296
1490,-1,-1,39,1292,43,117,0.8926894701542589
1491,-1,-1,39,1293,43,117,0.8927613941018767
1492,1,-1,39,1293,43,118,0.8921634293369055
1493,-1,-1,39,1294,43,118,0.892235609103079
1494,-1,-1,39,1295,43,118,0.8923076923076924
1495,-1,-1,39,1296,43,118,0.892379679144385
1496,-1,-1,39,1297,43,118,0.8924515698062793
1497,-1,-1,39,1298,43,118,0.8925233644859814
1498,-1,-1,39,1299,43,118,0.8925950633755837
1499,-1,-1,39,1300,43,118,0.8926666666666667
1500,-1,1,39,1300,44,118,0.8920719520319786
1501,-1,-1,39,1301,44,118,0.8921438082556591
1502,-1,-1,39,1302,44,118,0.8922155688622755
1503,-1,-1,39,1303,44,118,0.8922872340425532
1504,-1,-1,39,1304,44,118,0.892358803986711
1505,-1,-1,39,1305,44,118,0.8924302788844621
1506,-1,-1,39,1306,44,118,0.8925016589250165
1507,-1,-1,39,1307,44,118,0.8925729442970822
1508,-1,-1,39,1308,44,118,0.8926441351888668
1509,-1,-1,39,1309,44,118,0.8927152317880794
1510,-1,-1,39,1310,44,118,0.8927862342819325
1511,-1,-1,39,1311,44,118,0.8928571428571429
1512,-1,-1,39,1312,44,118,0.8929279576999339
1513,-1,-1,39,1313,44,118,0.892998678996037
1514,-1,-1,39,1314,44,118,0.8930693069306931
1515,-1,-1,39,1315,44,118,0.8931398416886543
1516,-1,-1,39,1316,44,118,0.8932102834541858
1517,-1,-1,39,1317,44,118,0.8932806324110671
1518,-1,-1,39,1318,44,118,0.8933508887425938
1519,-1,-1,39,1319,44,118,0.8934210526315789
1520,-1,-1,39,1320,44,118,0.893491124260355
1521,-1,-1,39,1321,44,118,0.8935611038107752
1522,-1,-1,39,1322,44,118,0.8936309914642153
1523,-1,-1,39,1323,44,118,0.8937007874015748
1524,-1,-1,39,1324,44,118,0.8937704918032787
1525,-1,-1,39,1325,44,118,0.8938401048492791
1526,-1,-1,39,1326,44,118,0.8939096267190569
1527,-1,-1,39,1327,44,118,0.893979057591623
1528,-1,-1,39,1328,44,118,0.8940483976455199
1529,-1,-1,39,1329,44,118,0.8941176470588236
1530,-1,1,39,1329,45,118,0.8935336381450033
1531,-1,-1,39,1330,45,118,0.893603133159269
1532,-1,-1,39,1331,45,118,0.8936725375081539
1533,-1,-1,39,1332,45,118,0.89374185136897
1534,-1,-1,39,1333,45,118,0.8938110749185668
1535,-1,-1,39,1334,45,118,0.8938802083333334
1536,-1,-1,39,1335,45,118,0.8939492517891997
1537,-1,-1,39,1336,45,118,0.8940182054616385
1538,-1,-1,39,1337,45,118,0.894087069525666
1539,-1,-1,39,1338,45,118,0.8941558441558441
1540,-1,-1,39,1339,45,118,0.8942245295262816
1541,-1,-1,39,1340,45,118,0.8942931258106356
1542,-1,-1,39,1341,45,118,0.8943616331821128
1543,-1,-1,39,1342,45,118,0.8944300518134715
1544,-1,-1,39,1343,45,118,0.8944983818770227
1545,-1,1,39,1343,46,118,0.8939197930142303
1546,-1,-1,39,1344,46,118,0.8939883645765999
1547,-1,-1,39,1345,46,118,0.8940568475452196
1548,-1,-1,39,1346,46,118,0.8941252420916721
1549,-1,-1,39,1347,46,118,0.8941935483870967
1550,-1,-1,39,1348,46,118,0.8942617666021921
1551,-1,-1,39,1349,46,118,0.8943298969072165
1552,-1,-1,39,1350,46,118,0.8943979394719896
1553,-1,-1,39,1351,46,118,0.8944658944658944
1554,-1,-1,39,1352,46,118,0.8945337620578778
1555,-1,-1,39,1353,46,118,0.8946015424164524
1556,-1,-1,39,1354,46,118,0.8946692357096981
1557,-1,-1,39,1355,46,118,0.8947368421052632
1558,-1,-1,39,1356,46,118,0.8948043617703656
1559,-1,-1,39,1357,46,118,0.8948717948717949
1560,-1,-1,39,1358,46,118,0.8949391415759129
1561,-1,-1,39,1359,46,118,0.8950064020486556
1562,-1,-1,39,1360,46,118,0.8950735764555342
1563,1,-1,39,1360,46,119,0.8945012787723785
1564,-1,-1,39,1361,46,119,0.8945686900958466
1565,-1,-1,39,1362,46,119,0.8946360153256705
1566,-1,-1,39,1363,46,119,0.8947032546266752
1567,-1,-1,39,1364,46,119,0.8947704081632653
1568,-1,-1,39,1365,46,119,0.8948374760994264
1569,-1,-1,39,1366,46,119,0.8949044585987261
1570,-1,-1,39,1367,46,119,0.8949713558243158
1571,-1,-1,39,1368,46,119,0.8950381679389313
1572,-1,-1,39,1369,46,119,0.8951048951048951
1573,-1,-1,39,1370,46,119,0.8951715374841169
1574,-1,-1,39,1371,46,119,0.8952380952380953
1575,-1,-1,39,1372,46,119,0.8953045685279187
1576,-1,-1,39,1373,46,119,0.8953709575142677
1577,-1,-1,39,1374,46,119,0.8954372623574145
1578,-1,-1,39,1375,46,119,0.8955034832172261
1579,-1,-1,39,1376,46,119,0.8955696202531646
1580,-1,1,39,1376,47,119,0.8950031625553447
1581,-1,-1,39,1377,47,119,0.8950695322376738
1582,1,-1,39,1377,47,120,0.8945041061276058
1583,-1,-1,39,1378,47,120,0.8945707070707071
1584,-1,-1,39,1379,47,120,0.8946372239747634
1585,-1,-1,39,1380,47,120,0.894703656998739
1586,-1,-1,39,1381,47,120,0.8947700063011972
1587,-1,-1,39,1382,47,120,0.8948362720403022
1588,-1,-1,39,1383,47,120,0.89490245437382
1589,-1,-1,39,1384,47,120,0.8949685534591195
1590,-1,-1,39,1385,47,120,0.8950345694531741
1591,-1,-1,39,1386,47,120,0.8951005025125628
1592,-1,-1,39,1387,47,120,0.8951663527934715
1593,-1,-1,39,1388,47,120,0.8952321204516939
1594,-1,-1,39,1389,47,120,0.8952978056426333
1595,-1,1,39,1389,48,120,0.8947368421052632
1596,-1,-1,39,1390,48,120,0.8948027551659361
1597,-1,-1,39,1391,48,120,0.8948685857321652
1598,-1,-1,39,1392,48,120,0.8949343339587242
1599,-1,-1,39,1393,48,120,0.895
1600,-1,-1,39,1394,48,120,0.8950655840099938
1601,1,1,40,1394,48,120,0.8951310861423221
1602,-1,-1,40,1395,48,120,0.8951965065502183
1603,-1,-1,40,1396,48,120,0.8952618453865336
1604,-1,-1,40,1397,48,120,0.8953271028037383
1605,-1,-1,40,1398,48,120,0.8953922789539228
1606,-1,-1,40,1399,48,120,0.895457373988799
1607,-1,-1,40,1400,48,120,0.8955223880597015
1608,-1,-1,40,1401,48,120,0.8955873213175886
1609,-1,-1,40,1402,48,120,0.8956521739130435
1610,-1,-1,40,1403,48,120,0.8957169459962756
1611,-1,-1,40,1404,48,120,0.8957816377171216
1612,-1,-1,40,1405,48,120,0.8958462492250465
1613,-1,-1,40,1406,48,120,0.895910780669145
1614,-1,1,40,1406,49,120,0.8953560371517028
1615,-1,-1,40,1407,49,120,0.8954207920792079
1616,-1,-1,40,1408,49,120,0.8954854669140383
1617,-1,-1,40,1409,49,120,0.8955500618046972
1618,-1,-1,40,1410,49,120,0.8956145768993206
1619,-1,-1,40,1411,49,120,0.895679012345679
1620,-1,-1,40,1412,49,120,0.8957433682911783
1621,-1,-1,40,1413,49,120,0.8958076448828607
1622,-1,-1,40,1414,49,120,0.895871842267406
1623,-1,-1,40,1415,49,120,0.895935960591133
1624,-1,-1,40,1416,49,120,0.896
1625,-1,-1,40,1417,49,120,0.8960639606396064
1626,1,-1,40,1417,49,121,0.8955132145052244
1627,1,-1,40,1417,49,122,0.894963144963145
1628,-1,-1,40,1418,49,122,0.8950276243093923
1629,1,-1,40,1418,49,123,0.894478527607362
1630,1,-1,40,1418,49,124,0.8939301042305334
1631,-1,-1,40,1419,49,124,0.8939950980392157
1632,-1,-1,40,1420,49,124,0.8940600122473974
1633,-1,-1,40,1421,49,124,0.894124847001224
1634,-1,-1,40,1422,49,124,0.8941896024464832
1635,-1,-1,40,1423,49,124,0.8942542787286064
1636,-1,-1,40,1424,49,124,0.8943188759926696
1637,-1,-1,40,1425,49,124,0.8943833943833944
1638,-1,-1,40,1426,49,124,0.8944478340451495
1639,1,-1,40,1426,49,125,0.8939024390243903
1640,-1,-1,40,1427,49,125,0.8939670932358318
1641,-1,-1,40,1428,49,125,0.8940316686967114
1642,-1,-1,40,1429,49,125,0.8940961655508217
1643,1,-1,40,1429,49,126,0.8935523114355232
1644,-1,-1,40,1430,49,126,0.8936170212765957
1645,-1,-1,40,1431,49,126,0.893681652490887
1646,-1,-1,40,1432,49,126,0.8937462052216151
1647,-1,-1,40,1433,49,126,0.8938106796116505
1648,-1,1,40,1433,50,126,0.8932686476652517
1649,-1,-1,40,1434,50,126,0.8933333333333333
1650,-1,-1,40,1435,50,126,0.8933979406420351
1651,-1,-1,40,1436,50,126,0.8934624697336562
1652,-1,-1,40,1437,50,126,0.8935269207501513
1653,1,-1,40,1437,50,127,0.8929866989117291
1654,1,-1,40,1437,50,128,0.8924471299093656
1655,-1,1,40,1437,51,128,0.8919082125603864
1656,-1,-1,40,1438,51,128,0.891973445986723
1657,-1,-1,40,1439,51,128,0.8920386007237636
1658,-1,-1,40,1440,51,128,0.8921036769138035
1659,-1,-1,40,1441,51,128,0.8921686746987951
1660,-1,-1,40,1442,51,128,0.8922335942203492
1661,-1,-1,40,1443,51,128,0.8922984356197352
1662,-1,-1,40,1444,51,128,0.8923631990378833
1663,-1,-1,40,1445,51,128,0.8924278846153846
1664,-1,-1,40,1446,51,128,0.8924924924924925
1665,-1,-1,40,1447,51,128,0.8925570228091236
1666,-1,-1,40,1448,51,128,0.8926214757048591
1667,-1,-1,40,1449,51,128,0.8926858513189448
1668,1,1,41,1449,51,128,0.8927501497902935
1669,-1,-1,41,1450,51,128,0.8928143712574851
1670,-1,-1,41,1451,51,128,0.8928785158587672
1671,-1,1,41,1451,52,128,0.8923444976076556
1672,-1,-1,41,1452,52,128,0.8924088463837417
1673,-1,-1,41,1453,52,128,0.8924731182795699
1674,-1,-1,41,1454,52,128,0.8925373134328358
1675,-1,-1,41,1455,52,128,0.8926014319809069
1676,-1,-1,41,1456,52,128,0.8926654740608229
1677,-1,-1,41,1457,52,128,0.8927294398092968
1678,-1,-1,41,1458,52,128,0.8927933293627159
1679,-1,-1,41,1459,52,128,0.8928571428571429
1680,-1,-1,41,1460,52,128,0.8929208804283165
1681,-1,-1,41,1461,52,128,0.8929845422116528
1682,-1,-1,41,1462,52,128,0.893048128342246
1683,-1,-1,41,1463,52,128,0.8931116389548693
1684,-1,-1,41,1464,52,128,0.8931750741839762
1685,-1,-1,41,1465,52,128,0.8932384341637011
1686,-1,-1,41,1466,52,128,0.8933017190278602
1687,-1,-1,41,1467,52,128,0.8933649289099526
1688,-1,-1,41,1468,52,128,0.8934280639431617
1689,1,1,42,1468,52,128,0.893491124260355
1690,-1,-1,42,1469,52,128,0.8935541099940864
1691,-1,-1,42,1470,52,128,0.8936170212765957
1692,1,1,43,1470,52,128,0.893679858239811
1693,-1,-1,43,1471,52,128,0.8937426210153483
1694,-1,-1,43,1472,52,128,0.8938053097345132
1695,1,1,44,1472,52,128,0.8938679245283019
1696,-1,-1,44,1473,52,128,0.8939304655274013
1697,1,1,45,1473,52,128,0.8939929328621908
1698,-1,-1,45,1474,52,128,0.8940553266627428
1699,-1,-1,45,1475,52,128,0.8941176470588236
1700,-1,-1,45,1476,52,128,0.8941798941798942
1701,-1,-1,45,1477,52,128,0.8942420681551116
1702,1,-1,45,1477,52,129,0.8937169700528479
1703,-1,-1,45,1478,52,129,0.8937793427230047
1704,-1,-1,45,1479,52,129,0.893841642228739
1705,-1,-1,45,1480,52,129,0.8939038686987104
1706,-1,-1,45,1481,52,129,0.8939660222612771
1707,1,1,46,1481,52,129,0.8940281030444965
1708,-1,-1,46,1482,52,129,0.8940901111761264
1709,-1,-1,46,1483,52,129,0.8941520467836257
1710,-1,-1,46,1484,52,129,0.8942139099941555
1711,-1,-1,46,1485,52,129,0.8942757009345794
1712,-1,-1,46,1486,52,129,0.8943374197314653
1713,-1,1,46,1486,53,129,0.8938156359393232
1714,-1,-1,46,1487,53,129,0.8938775510204081
1715,-1,-1,46,1488,53,129,0.8939393939393939
1716,-1,-1,46,1489,53,129,0.8940011648223646
1717,-1,-1,46,1490,53,129,0.8940628637951106
1718,-1,1,46,1490,54,129,0.893542757417103
1719,-1,-1,46,1491,54,129,0.8936046511627908
1720,-1,-1,46,1492,54,129,0.8936664729808251
1721,-1,-1,46,1493,54,129,0.8937282229965157
1722,-1,-1,46,1494,54,129,0.893789901334881
1723,-1,-1,46,1495,54,129,0.8938515081206496
1724,-1,-1,46,1496,54,129,0.8939130434782608
1725,-1,-1,46,1497,54,129,0.8939745075318656
1726,-1,-1,46,1498,54,129,0.8940359004053272
1727,1,-1,46,1498,54,130,0.8935185185185185
1728,-1,-1,46,1499,54,130,0.8935801041064199
1729,-1,-1,46,1500,54,130,0.8936416184971099
1730,-1,-1,46,1501,54,130,0.8937030618139804
1731,-1,-1,46,1502,54,130,0.8937644341801386
1732,1,1,47,1502,54,130,0.8938257357184074
1733,-1,-1,47,1503,54,130,0.8938869665513264
1734,1,-1,47,1503,54,131,0.8933717579250721
1735,-1,-1,47,1504,54,131,0.8934331797235023
1736,-1,-1,47,1505,54,131,0.8934945308002303
1737,-1,-1,47,1506,54,131,0.8935558112773303
1738,-1,-1,47,1507,54,131,0.8936170212765957
1739,-1,-1,47,1508,54,131,0.8936781609195402
1740,-1,1,47,1508,55,131,0.8931648477886273
1741,-1,-1,47,1509,55,131,0.8932261768082663
1742,-1,-1,47,1510,55,131,0.8932874354561101
1743,-1,-1,47,1511,55,131,0.893348623853211
1744,-1,-1,47,1512,55,131,0.8934097421203439
1745,-1,-1,47,1513,55,131,0.8934707903780069
1746,-1,-1,47,1514,55,131,0.8935317687464225
1747,-1,1,47,1514,56,131,0.8930205949656751
1748,-1,-1,47,1515,56,131,0.8930817610062893
1749,-1,-1,47,1516,56,131,0.8931428571428571
1750,-1,-1,47,1517,56,131,0.8932038834951457
1751,-1,-1,47,1518,56,131,0.8932648401826484
1752,-1,-1,47,1519,56,131,0.8933257273245864
1753,-1,-1,47,1520,56,131,0.8933865450399088
1754,-1,-1,47,1521,56,131,0.8934472934472935
1755,-1,-1,47,1522,56,131,0.893507972665148
1756,-1,-1,47,1523,56,131,0.8935685828116107
1757,-1,-1,47,1524,56,131,0.8936291240045506
1758,-1,-1,47,1525,56,131,0.8936895963615691
1759,-1,-1,47,1526,56,131,0.89375
1760,-1,-1,47,1527,56,131,0.8938103350369109
1761,-1,-1,47,1528,56,131,0.8938706015891033
1762,-1,-1,47,1529,56,131,0.893930799773114
1763,-1,-1,47,1530,56,131,0.8939909297052154
1764,-1,-1,47,1531,56,131,0.8940509915014164
1765,-1,-1,47,1532,56,131,0.8941109852774632
1766,-1,-1,47,1533,56,131,0.8941709111488398
1767,-1,-1,47,1534,56,131,0.8942307692307693
1768,-1,-1,47,1535,56,131,0.8942905596382137
1769,-1,-1,47,1536,56,131,0.8943502824858757
1770,-1,-1,47,1537,56,131,0.8944099378881988
1771,-1,-1,47,1538,56,131,0.8944695259593679
1772,-1,-1,47,1539,56,131,0.8945290468133108
1773,-1,-1,47,1540,56,131,0.8945885005636979
1774,-1,-1,47,1541,56,131,0.8946478873239436
1775,-1,-1,47,1542,56,131,0.8947072072072072
1776,-1,-1,47,1543,56,131,0.8947664603263928
1777,-1,-1,47,1544,56,131,0.8948256467941508
1778,-1,-1,47,1545,56,131,0.894884766722878
1779,-1,-1,47,1546,56,131,0.8949438202247191
1780,-1,-1,47,1547,56,131,0.8950028074115666
1781,-1,-1,47,1548,56,131,0.8950617283950617
1782,-1,-1,47,1549,56,131,0.8951205832865956
1783,-1,-1,47,1550,56,131,0.8951793721973094
1784,-1,-1,47,1551,56,131,0.8952380952380953
1785,-1,-1,47,1552,56,131,0.8952967525195968
1786,-1,-1,47,1553,56,131,0.8953553441522104
1787,-1,-1,47,1554,56,131,0.895413870246085
1788,-1,-1,47,1555,56,131,0.8954723309111235
1789,-1,-1,47,1556,56,131,0.8955307262569833
1790,-1,-1,47,1557,56,131,0.8955890563930765
1791,-1,-1,47,1558,56,131,0.8956473214285714
1792,1,1,48,1558,56,131,0.8957055214723927
1793,-1,-1,48,1559,56,131,0.8957636566332219
1794,-1,-1,48,1560,56,131,0.8958217270194986
1795,-1,-1,48,1561,56,131,0.8958797327394209
1796,-1,-1,48,1562,56,131,0.895937673900946
1797,-1,1,48,1562,57,131,0.8954393770856507
1798,-1,-1,48,1563,57,131,0.8954974986103391
1799,-1,-1,48,1564,57,131,0.8955555555555555
1800,-1,-1,48,1565,57,131,0.8956135480288728
1801,-1,-1,48,1566,57,131,0.8956714761376249
1802,-1,-1,48,1567,57,131,0.8957293399889074
1803,-1,-1,48,1568,57,131,0.8957871396895787
1804,-1,-1,48,1569,57,131,0.8958448753462603
1805,-1,-1,48,1570,57,131,0.8959025470653378
1806,-1,-1,48,1571,57,131,0.8959601549529607
1807,-1,-1,48,1572,57,131,0.8960176991150443
1808,1,-1,48,1572,57,132,0.8955223880597015
1809,-1,-1,48,1573,57,132,0.8955801104972375
1810,-1,-1,48,1574,57,132,0.8956377691882937
1811,-1,-1,48,1575,57,132,0.8956953642384106
1812,-1,-1,48,1576,57,132,0.8957528957528957
1813,-1,-1,48,1577,57,132,0.8958103638368247
1814,1,1,49,1577,57,132,0.8958677685950414
1815,1,1,50,1577,57,132,0.8959251101321586
1816,-1,-1,50,1578,57,132,0.8959823885525592
1817,-1,-1,50,1579,57,132,0.8960396039603961
1818,-1,-1,50,1580,57,132,0.8960967564595932
1819,-1,-1,50,1581,57,132,0.8961538461538462
1820,-1,-1,50,1582,57,132,0.8962108731466227
1821,-1,-1,50,1583,57,132,0.8962678375411636
1822,-1,-1,50,1584,57,132,0.8963247394404827
1823,-1,1,50,1584,58,132,0.8958333333333334
1824,1,-1,50,1584,58,133,0.8953424657534247
1825,-1,-1,50,1585,58,133,0.8953997809419496
1826,-1,-1,50,1586,58,133,0.8954570333880679
1827,-1,-1,50,1587,58,133,0.8955142231947484
1828,-1,-1,50,1588,58,133,0.8955713504647348
1829,-1,-1,50,1589,58,133,0.8956284153005465
1830,-1,-1,50,1590,58,133,0.8956854178044784
1831,1,-1,50,1590,58,134,0.8951965065502183
1832,-1,-1,50,1591,58,134,0.8952536824877251
1833,-1,-1,50,1592,58,134,0.8953107960741549
1834,1,-1,50,1592,58,135,0.8948228882833787
1835,-1,-1,50,1593,58,135,0.894880174291939
1836,-1,-1,50,1594,58,135,0.8949373979314099
1837,1,-1,50,1594,58,136,0.8944504896626768
1838,-1,-1,50,1595,58,136,0.8945078847199565
1839,-1,-1,50,1596,58,136,0.8945652173913043
1840,-1,-1,50,1597,58,136,0.8946224877783813
1841,1,-1,50,1597,58,137,0.8941368078175895
1842,-1,-1,50,1598,58,137,0.8941942485078677
1843,-1,-1,50,1599,58,137,0.8942516268980477
1844,1,-1,50,1599,58,138,0.8937669376693766
1845,-1,-1,50,1600,58,138,0.8938244853737811
1846,-1,-1,50,1601,58,138,0.8938819707634001
1847,-1,-1,50,1602,58,138,0.8939393939393939
1848,-1,-1,50,1603,58,138,0.8939967550027041
1849,-1,-1,50,1604,58,138,0.894054054054054
1850,-1,-1,50,1605,58,138,0.8941112911939492
1851,-1,-1,50,1606,58,138,0.8941684665226782
1852,-1,-1,50,1607,58,138,0.8942255801403131
1853,1,1,51,1607,58,138,0.8942826321467098
1854,-1,1,51,1607,59,138,0.8938005390835579
1855,-1,-1,51,1608,59,138,0.8938577586206896
1856,-1,-1,51,1609,59,138,0.8939149165320409
1857,-1,-1,51,1610,59,138,0.8939720129171151
1858,-1,-1,51,1611,59,138,0.8940290478752018
1859,-1,-1,51,1612,59,138,0.8940860215053763
1860,-1,-1,51,1613,59,138,0.8941429339065019
1861,-1,-1,51,1614,59,138,0.8941997851772288
1862,-1,-1,51,1615,59,138,0.8942565754159957
1863,-1,-1,51,1616,59,138,0.89431330472103
1864,-1,1,51,1616,60,138,0.8938337801608579
1865,-1,-1,51,1617,60,138,0.8938906752411575
1866,-1,-1,51,1618,60,138,0.8939475093733262
1867,-1,-1,51,1619,60,138,0.8940042826552462
1868,-1,-1,51,1620,60,138,0.8940609951845907
1869,-1,-1,51,1621,60,138,0.8941176470588236
1870,-1,-1,51,1622,60,138,0.8941742383752004
1871,-1,-1,51,1623,60,138,0.8942307692307693
1872,-1,-1,51,1624,60,138,0.8942872397223706
1873,-1,-1,51,1625,60,138,0.8943436499466382
1874,-1,-1,51,1626,60,138,0.8944
1875,-1,-1,51,1627,60,138,0.894456289978678
1876,-1,-1,51,1628,60,138,0.8945125199786894
1877,-1,-1,51,1629,60,138,0.8945686900958466
1878,-1,-1,51,1630,60,138,0.8946248004257584
1879,-1,-1,51,1631,60,138,0.8946808510638298
1880,-1,-1,51,1632,60,138,0.8947368421052632
1881,1,-1,51,1632,60,139,0.8942614240170031
1882,-1,-1,51,1633,60,139,0.8943175783324482
1883,-1,-1,51,1634,60,139,0.8943736730360934
1884,-1,-1,51,1635,60,139,0.8944297082228116
1885,-1,-1,51,1636,60,139,0.8944856839872747
1886,-1,-1,51,1637,60,139,0.8945416004239534
1887,-1,-1,51,1638,60,139,0.8945974576271186
1888,-1,1,51,1638,61,139,0.8941238750661725
1889,1,-1,51,1638,61,140,0.8936507936507937
1890,-1,-1,51,1639,61,140,0.893707033315706
1891,-1,-1,51,1640,61,140,0.8937632135306554
1892,-1,-1,51,1641,61,140,0.8938193343898574
1893,1,-1,51,1641,61,141,0.8933474128827877
1894,-1,-1,51,1642,61,141,0.8934036939313984
1895,-1,-1,51,1643,61,141,0.8934599156118144
1896,1,-1,51,1643,61,142,0.8929889298892989
1897,-1,-1,51,1644,61,142,0.89304531085353
1898,-1,-1,51,1645,61,142,0.8931016324381253
1899,-1,-1,51,1646,61,142,0.8931578947368422
1900,-1,-1,51,1647,61,142,0.8932140978432404
1901,-1,-1,51,1648,61,142,0.8932702418506835
1902,-1,-1,51,1649,61,142,0.8933263268523384
1903,-1,-1,51,1650,61,142,0.8933823529411765
1904,-1,-1,51,1651,61,142,0.8934383202099737
1905,-1,-1,51,1652,61,142,0.8934942287513117
1906,1,-1,51,1652,61,143,0.8930256948086
1907,-1,-1,51,1653,61,143,0.8930817610062893
1908,-1,-1,51,1654,61,143,0.893137768465165
1909,-1,-1,51,1655,61,143,0.8931937172774869
1910,-1,-1,51,1656,61,143,0.8932496075353218
1911,-1,-1,51,1657,61,143,0.893305439330544
1912,-1,-1,51,1658,61,143,0.8933612127548354
1913,1,-1,51,1658,61,144,0.8928944618599791
1914,1,1,52,1658,61,144,0.8929503916449086
1915,1,1,53,1658,61,144,0.8930062630480167
1916,1,-1,53,1658,61,145,0.8925404277516954
1917,-1,-1,53,1659,61,145,0.8925964546402503
1918,-1,-1,53,1660,61,145,0.8926524231370505
1919,-1,-1,53,1661,61,145,0.8927083333333333
1920,-1,-1,53,1662,61,145,0.8927641853201458
1921,-1,1,53,1662,62,145,0.8922996878251821
1922,-1,-1,53,1663,62,145,0.8923556942277691
1923,-1,-1,53,1664,62,145,0.8924116424116424
1924,1,-1,53,1664,62,146,0.8919480519480519
1925,-1,-1,53,1665,62,146,0.8920041536863966
1926,-1,-1,53,1666,62,146,0.8920601971977167
1927,1,-1,53,1666,62,147,0.891597510373444
1928,-1,-1,53,1667,62,147,0.8916537065837221
1929,-1,-1,53,1668,62,147,0.8917098445595855
1930,-1,-1,53,1669,62,147,0.891765924391507
1931,-1,-1,53,1670,62,147,0.8918219461697723
1932,-1,-1,53,1671,62,147,0.8918779099844801
1933,-1,-1,53,1672,62,147,0.8919338159255429
1934,-1,1,53,1672,63,147,0.8914728682170543
1935,-1,-1,53,1673,63,147,0.8915289256198347
1936,-1,-1,53,1674,63,147,0.8915849251419721
1937,-1,-1,53,1675,63,147,0.891640866873065
1938,-1,-1,53,1676,63,147,0.8916967509025271
1939,-1,-1,53,1677,63,147,0.8917525773195877
1940,-1,-1,53,1678,63,147,0.8918083462132921
1941,-1,-1,53,1679,63,147,0.8918640576725025
1942,-1,-1,53,1680,63,147,0.8919197117858981
1943,-1,-1,53,1681,63,147,0.8919753086419753
1944,-1,-1,53,1682,63,147,0.8920308483290489
1945,-1,-1,53,1683,63,147,0.8920863309352518
1946,-1,-1,53,1684,63,147,0.8921417565485362
1947,-1,-1,53,1685,63,147,0.8921971252566735
1948,-1,-1,53,1686,63,147,0.892252437147255
1949,-1,-1,53,1687,63,147,0.8923076923076924
1950,-1,-1,53,1688,63,147,0.8923628908252178
1951,-1,-1,53,1689,63,147,0.8924180327868853
1952,-1,-1,53,1690,63,147,0.8924731182795699
1953,-1,-1,53,1691,63,147,0.8925281473899693
1954,-1,-1,53,1692,63,147,0.8925831202046036
1955,-1,-1,53,1693,63,147,0.8926380368098159
1956,-1,-1,53,1694,63,147,0.8926928972917731
1957,-1,-1,53,1695,63,147,0.8927477017364658
1958,-1,-1,53,1696,63,147,0.892802450229709
1959,-1,-1,53,1697,63,147,0.8928571428571429
1960,-1,-1,53,1698,63,147,0.8929117797042325
1961,-1,-1,53,1699,63,147,0.8929663608562691
1962,-1,-1,53,1700,63,147,0.8930208863983699
1963,-1,-1,53,1701,63,147,0.8930753564154786
1964,-1,-1,53,1702,63,147,0.8931297709923665
1965,-1,-1,53,1703,63,147,0.8931841302136317
1966,-1,-1,53,1704,63,147,0.8932384341637011
1967,-1,-1,53,1705,63,147,0.8932926829268293
1968,-1,-1,53,1706,63,147,0.8933468765871001
1969,-1,-1,53,1707,63,147,0.8934010152284264
1970,-1,-1,53,1708,63,147,0.893455098934551
1971,-1,-1,53,1709,63,147,0.8935091277890467
1972,-1,-1,53,1710,63,147,0.8935631018753167
1973,-1,-1,53,1711,63,147,0.8936170212765957
1974,-1,-1,53,1712,63,147,0.8936708860759494
1975,-1,-1,53,1713,63,147,0.8937246963562753
1976,-1,-1,53,1714,63,147,0.8937784522003035
1977,-1,-1,53,1715,63,147,0.8938321536905965
1978,-1,-1,53,1716,63,147,0.8938858009095503
1979,-1,-1,53,1717,63,147,0.8939393939393939
1980,1,1,54,1717,63,147,0.8939929328621908
1981,-1,-1,54,1718,63,147,0.8940464177598385
1982,-1,-1,54,1719,63,147,0.8940998487140696
1983,-1,-1,54,1720,63,147,0.8941532258064516
1984,-1,-1,54,1721,63,147,0.8942065491183879
1985,-1,-1,54,1722,63,147,0.8942598187311178
1986,-1,-1,54,1723,63,147,0.8943130347257172
1987,1,-1,54,1723,63,148,0.8938631790744467
1988,-1,-1,54,1724,63,148,0.8939165409753645
1989,-1,-1,54,1725,63,148,0.8939698492462311
1990,-1,-1,54,1726,63,148,0.8940231039678553
1991,-1,-1,54,1727,63,148,0.8940763052208835
1992,-1,-1,54,1728,63,148,0.8941294530858003
1993,-1,-1,54,1729,63,148,0.8941825476429288
1994,-1,-1,54,1730,63,148,0.894235588972431
1995,-1,-1,54,1731,63,148,0.8942885771543087
1996,-1,-1,54,1732,63,148,0.8943415122684026
1997,1,-1,54,1732,63,149,0.8938938938938938
1998,-1,-1,54,1733,63,149,0.8939469734867433
1999,-1,-1,54,1734,63,149,0.894
2000,-1,-1,54,1735,63,149,0.8940529735132434
2001,-1,-1,54,1736,63,149,0.8941058941058941
2002,-1,-1,54,1737,63,149,0.8941587618572142
2003,-1,-1,54,1738,63,149,0.8942115768463074
2004,-1,-1,54,1739,63,149,0.8942643391521197
2005,-1,-1,54,1740,63,149,0.8943170488534397
2006,-1,-1,54,1741,63,149,0.8943697060288989
2007,-1,-1,54,1742,63,149,0.8944223107569721
2008,1,-1,54,1742,63,150,0.8939771030363365
2009,-1,-1,54,1743,63,150,0.8940298507462686
2010,-1,-1,54,1744,63,150,0.8940825459970164
2011,-1,-1,54,1745,63,150,0.8941351888667992
2012,-1,-1,54,1746,63,150,0.8941877794336811
2013,-1,-1,54,1747,63,150,0.894240317775571
2014,-1,-1,54,1748,63,150,0.8942928039702234
2015,-1,-1,54,1749,63,150,0.8943452380952381
2016,-1,-1,54,1750,63,150,0.8943976202280615
2017,-1,-1,54,1751,63,150,0.8944499504459861
2018,-1,-1,54,1752,63,150,0.8945022288261516
2019,1,-1,54,1752,63,151,0.8940594059405941
2020,1,1,55,1752,63,151,0.8941118258287977
2021,-1,-1,55,1753,63,151,0.8941641938674579
2022,-1,-1,55,1754,63,151,0.8942165101334651
2023,-1,1,55,1754,64,151,0.8937747035573123
2024,-1,-1,55,1755,64,151,0.8938271604938272
2025,-1,-1,55,1756,64,151,0.8938795656465943
2026,-1,-1,55,1757,64,151,0.8939319190922546
2027,1,-1,55,1757,64,152,0.893491124260355
2028,-1,-1,55,1758,64,152,0.893543617545589
2029,-1,-1,55,1759,64,152,0.8935960591133005
2030,-1,-1,55,1760,64,152,0.8936484490398818
2031,-1,-1,55,1761,64,152,0.8937007874015748
2032,-1,-1,55,1762,64,152,0.8937530742744713
2033,-1,-1,55,1763,64,152,0.8938053097345132
2034,-1,-1,55,1764,64,152,0.8938574938574939
2035,-1,-1,55,1765,64,152,0.8939096267190569
2036,-1,-1,55,1766,64,152,0.8939617083946981
2037,-1,-1,55,1767,64,152,0.8940137389597644
2038,-1,-1,55,1768,64,152,0.8940657184894556
2039,-1,-1,55,1769,64,152,0.8941176470588236
2040,-1,-1,55,1770,64,152,0.8941695247427731
2041,-1,-1,55,1771,64,152,0.8942213516160626
2042,-1,-1,55,1772,64,152,0.8942731277533039
2043,-1,-1,55,1773,64,152,0.8943248532289628
2044,-1,-1,55,1774,64,152,0.8943765281173595
2045,-1,-1,55,1775,64,152,0.8944281524926686
2046,-1,-1,55,1776,64,152,0.8944797264289204
2047,-1,-1,55,1777,64,152,0.89453125
2048,-1,-1,55,1778,64,152,0.8945827232796486
2049,-1,-1,55,1779,64,152,0.8946341463414634
2050,-1,-1,55,1780,64,152,0.894685519258898
2051,-1,-1,55,1781,64,152,0.8947368421052632
2052,-1,-1,55,1782,64,152,0.8947881149537262
2053,-1,-1,55,1783,64,152,0.8948393378773125
2054,-1,-1,55,1784,64,152,0.8948905109489051
2055,-1,-1,55,1785,64,152,0.8949416342412452
2056,-1,-1,55,1786,64,152,0.8949927078269324
2057,-1,-1,55,1787,64,152,0.8950437317784257
2058,-1,-1,55,1788,64,152,0.8950947061680428
2059,1,-1,55,1788,64,153,0.8946601941747573
2060,-1,-1,55,1789,64,153,0.8947113051916545
2061,-1,-1,55,1790,64,153,0.8947623666343356
2062,-1,-1,55,1791,64,153,0.894813378574891
2063,-1,-1,55,1792,64,153,0.8948643410852714
2064,-1,-1,55,1793,64,153,0.8949152542372881
2065,-1,-1,55,1794,64,153,0.8949661181026137
2066,-1,-1,55,1795,64,153,0.8950169327527818
2067,-1,-1,55,1796,64,153,0.8950676982591876
2068,-1,-1,55,1797,64,153,0.8951184146930884
2069,-1,-1,55,1798,64,153,0.8951690821256039
2070,-1,-1,55,1799,64,153,0.895219700627716
2071,1,-1,55,1799,64,154,0.8947876447876448
2072,-1,-1,55,1800,64,154,0.8948383984563435
2073,-1,-1,55,1801,64,154,0.8948891031822566
2074,-1,-1,55,1802,64,154,0.8949397590361445
2075,-1,-1,55,1803,64,154,0.894990366088632
2076,-1,-1,55,1804,64,154,0.895040924410207
2077,-1,-1,55,1805,64,154,0.8950914340712224
2078,-1,-1,55,1806,64,154,0.8951418951418951
2079,-1,-1,55,1807,64,154,0.8951923076923077
2080,-1,-1,55,1808,64,154,0.8952426717924075
2081,-1,-1,55,1809,64,154,0.8952929875120077
2082,-1,-1,55,1810,64,154,0.8953432549207874
2083,-1,-1,55,1811,64,154,0.8953934740882917
2084,-1,-1,55,1812,64,154,0.8954436450839328
2085,-1,-1,55,1813,64,154,0.8954937679769894
2086,-1,-1,55,1814,64,154,0.8955438428366076
2087,-1,-1,55,1815,64,154,0.8955938697318008
2088,-1,-1,55,1816,64,154,0.8956438487314504
2089,-1,-1,55,1817,64,154,0.8956937799043062
2090,-1,-1,55,1818,64,154,0.8957436633189861
2091,-1,-1,55,1819,64,154,0.8957934990439771
2092,-1,-1,55,1820,64,154,0.895843287147635
2093,-1,-1,55,1821,64,154,0.8958930276981852
2094,-1,-1,55,1822,64,154,0.8959427207637232
2095,-1,-1,55,1823,64,154,0.8959923664122137
2096,-1,-1,55,1824,64,154,0.8960419647114926
2097,-1,-1,55,1825,64,154,0.8960915157292659
2098,-1,-1,55,1826,64,154,0.896141019533111
2099,-1,-1,55,1827,64,154,0.8961904761904762
2100,-1,-1,55,1828,64,154,0.8962398857686816
2101,-1,-1,55,1829,64,154,0.8962892483349191
2102,-1,-1,55,1830,64,154,0.896338563956253
2103,-1,-1,55,1831,64,154,0.8963878326996197
2104,-1,-1,55,1832,64,154,0.896437054631829
2105,-1,-1,55,1833,64,154,0.8964862298195632
2106,-1,-1,55,1834,64,154,0.8965353583293783
2107,-1,-1,55,1835,64,154,0.896584440227704
2108,-1,-1,55,1836,64,154,0.896633475580844
2109,-1,-1,55,1837,64,154,0.8966824644549763
2110,-1,-1,55,1838,64,154,0.8967314069161535
2111,1,-1,55,1838,64,155,0.8963068181818182
2112,-1,-1,55,1839,64,155,0.8963558920965452
2113,-1,-1,55,1840,64,155,0.8964049195837275
2114,-1,-1,55,1841,64,155,0.8964539007092198
2115,-1,-1,55,1842,64,155,0.8965028355387523
2116,1,1,56,1842,64,155,0.896551724137931
2117,-1,-1,56,1843,64,155,0.896600566572238
2118,-1,-1,56,1844,64,155,0.8966493629070316
2119,-1,-1,56,1845,64,155,0.8966981132075472
2120,-1,-1,56,1846,64,155,0.8967468175388967
2121,-1,-1,56,1847,64,155,0.8967954759660698
2122,-1,-1,56,1848,64,155,0.8968440885539332
2123,-1,-1,56,1849,64,155,0.8968926553672316
2124,-1,-1,56,1850,64,155,0.8969411764705882
2125,-1,-1,56,1851,64,155,0.8969896519285042
2126,1,-1,56,1851,64,156,0.8965679360601787
2127,-1,-1,56,1852,64,156,0.8966165413533834
2128,-1,-1,56,1853,64,156,0.8966651009863785
2129,1,-1,56,1853,64,157,0.896244131455399
2130,-1,-1,56,1854,64,157,0.8962928202721727
2131,-1,1,56,1854,65,157,0.8958724202626641
2132,-1,-1,56,1855,65,157,0.8959212376933896
2133,-1,-1,56,1856,65,157,0.8959700093720713
2134,-1,-1,56,1857,65,157,0.8960187353629977
2135,-1,-1,56,1858,65,157,0.8960674157303371
2136,-1,-1,56,1859,65,157,0.8961160505381376
2137,-1,-1,56,1860,65,157,0.8961646398503275
2138,-1,-1,56,1861,65,157,0.8962131837307152
2139,-1,-1,56,1862,65,157,0.8962616822429906
2140,1,-1,56,1862,65,158,0.8958430639887903
2141,-1,-1,56,1863,65,158,0.8958916900093371
2142,-1,1,56,1863,66,158,0.895473635090994
2143,1,-1,56,1863,66,159,0.8950559701492538
2144,-1,-1,56,1864,66,159,0.8951048951048951
2145,-1,-1,56,1865,66,159,0.8951537744641193
2146,-1,-1,56,1866,66,159,0.8952026082906381
2147,-1,-1,56,1867,66,159,0.8952513966480447
2148,1,-1,56,1867,66,160,0.8948348068869242
2149,-1,-1,56,1868,66,160,0.8948837209302326
2150,1,1,57,1868,66,160,0.8949325894932589
2151,-1,-1,57,1869,66,160,0.8949814126394052
2152,-1,-1,57,1870,66,160,0.8950301904319554
2153,-1,-1,57,1871,66,160,0.8950789229340761
2154,-1,-1,57,1872,66,160,0.8951276102088167
2155,1,-1,57,1872,66,161,0.8947124304267161
2156,-1,-1,57,1873,66,161,0.8947612424663886
2157,-1,-1,57,1874,66,161,0.8948100092678406
2158,1,-1,57,1874,66,162,0.8943955534969893
2159,-1,1,57,1874,67,162,0.8939814814814815
2160,-1,-1,57,1875,67,162,0.8940305414160111
2161,-1,-1,57,1876,67,162,0.8940795559666975
2162,-1,-1,57,1877,67,162,0.8941285251964863
2163,-1,-1,57,1878,67,162,0.8941774491682071
2164,-1,-1,57,1879,67,162,0.8942263279445728
2165,-1,-1,57,1880,67,162,0.894275161588181
2166,-1,-1,57,1881,67,162,0.8943239501615136
2167,-1,-1,57,1882,67,162,0.8943726937269373
2168,-1,-1,57,1883,67,162,0.8944213923467036
2169,-1,-1,57,1884,67,162,0.8944700460829493
2170,-1,-1,57,1885,67,162,0.8945186549976969
2171,-1,-1,57,1886,67,162,0.8945672191528545
2172,-1,-1,57,1887,67,162,0.8946157386102163
2173,-1,-1,57,1888,67,162,0.8946642134314627
2174,1,1,58,1888,67,162,0.894712643678161
2175,-1,-1,58,1889,67,162,0.8947610294117647
2176,-1,-1,58,1890,67,162,0.8948093706936151
2177,1,-1,58,1890,67,163,0.8943985307621671
2178,-1,1,58,1890,68,163,0.8939880679210647
2179,-1,-1,58,1891,68,163,0.8940366972477064
2180,-1,-1,58,1892,68,163,0.8940852819807428
2181,-1,-1,58,1893,68,163,0.8941338221814848
2182,-1,-1,58,1894,68,163,0.8941823179111315
2183,-1,-1,58,1895,68,163,0.8942307692307693
2184,1,-1,58,1895,68,164,0.8938215102974828
2185,-1,1,58,1895,69,164,0.8934126258005489
2186,1,-1,58,1895,69,165,0.8930041152263375
2187,-1,-1,58,1896,69,165,0.8930530164533821
2188,1,1,59,1896,69,165,0.8931018730013704
2189,-1,-1,59,1897,69,165,0.8931506849315068
2190,1,-1,59,1897,69,166,0.8927430397078959
2191,-1,-1,59,1898,69,166,0.8927919708029197
2192,-1,-1,59,1899,69,166,0.8928408572731418
2193,-1,-1,59,1900,69,166,0.8928896991795807
2194,-1,-1,59,1901,69,166,0.8929384965831435
2195,-1,-1,59,1902,69,166,0.8929872495446266
2196,-1,-1,59,1903,69,166,0.8930359581247155
2197,-1,-1,59,1904,69,166,0.8930846223839854
2198,-1,1,59,1904,70,166,0.8926784902228285
2199,-1,-1,59,1905,70,166,0.8927272727272727
2200,-1,-1,59,1906,70,166,0.8927760109041345
2201,-1,-1,59,1907,70,166,0.8928247048138056
2202,1,-1,59,1907,70,167,0.8924194280526555
2203,-1,-1,59,1908,70,167,0.8924682395644283
2204,1,1,60,1908,70,167,0.8925170068027211
2205,-1,-1,60,1909,70,167,0.8925657298277425
2206,-1,-1,60,1910,70,167,0.8926144086995922
2207,-1,-1,60,1911,70,167,0.8926630434782609
2208,-1,-1,60,1912,70,167,0.8927116342236306
2209,-1,-1,60,1913,70,167,0.8927601809954752
2210,-1,-1,60,1914,70,167,0.89280868385346
2211,-1,-1,60,1915,70,167,0.8928571428571429
2212,-1,-1,60,1916,70,167,0.8929055580659738
2213,-1,-1,60,1917,70,167,0.8929539295392954
2214,-1,-1,60,1918,70,167,0.8930022573363431
2215,-1,-1,60,1919,70,167,0.8930505415162455
2216,-1,-1,60,1920,70,167,0.8930987821380244
2217,-1,-1,60,1921,70,167,0.8931469792605952
2218,-1,-1,60,1922,70,167,0.893195132942767
2219,-1,-1,60,1923,70,167,0.8932432432432432
2220,-1,1,60,1923,71,167,0.8928410625844214
2221,-1,-1,60,1924,71,167,0.8928892889288929
2222,-1,-1,60,1925,71,167,0.8929374718848403
2223,-1,-1,60,1926,71,167,0.8929856115107914
2224,-1,-1,60,1927,71,167,0.8930337078651686
2225,-1,-1,60,1928,71,167,0.8930817610062893
2226,-1,-1,60,1929,71,167,0.8931297709923665
2227,-1,-1,60,1930,71,167,0.8931777378815081
2228,-1,-1,60,1931,71,167,0.8932256617317182
2229,-1,-1,60,1932,71,167,0.8932735426008969
2230,-1,-1,60,1933,71,167,0.89332138054684
2231,-1,-1,60,1934,71,167,0.8933691756272402
2232,-1,-1,60,1935,71,167,0.8934169278996865
2233,-1,-1,60,1936,71,167,0.8934646374216652
2234,-1,-1,60,1937,71,167,0.8935123042505593
2235,-1,-1,60,1938,71,167,0.8935599284436494
2236,-1,-1,60,1939,71,167,0.8936075100581136
2237,-1,-1,60,1940,71,167,0.8936550491510277
2238,-1,-1,60,1941,71,167,0.8937025457793658
2239,-1,-1,60,1942,71,167,0.89375
2240,1,1,61,1942,71,167,0.8937974118697011
2241,-1,-1,61,1943,71,167,0.8938447814451382
2242,-1,-1,61,1944,71,167,0.8938921087828801
2243,-1,-1,61,1945,71,167,0.8939393939393939
2244,1,-1,61,1945,71,168,0.8935412026726058
2245,-1,-1,61,1946,71,168,0.8935886019590383
2246,1,-1,61,1946,71,169,0.8931909212283045
2247,-1,-1,61,1947,71,169,0.8932384341637011
2248,-1,-1,61,1948,71,169,0.8932859048465985
2249,-1,-1,61,1949,71,169,0.8933333333333333
2250,-1,-1,61,1950,71,169,0.8933807196801422
2251,-1,-1,61,1951,71,169,0.8934280639431617
2252,-1,-1,61,1952,71,169,0.8934753661784287
2253,-1,-1,61,1953,71,169,0.8935226264418811
2254,-1,-1,61,1954,71,169,0.893569844789357
2255,-1,-1,61,1955,71,169,0.8936170212765957
2256,-1,-1,61,1956,71,169,0.8936641559592379
2257,-1,-1,61,1957,71,169,0.8937112488928255
2258,-1,1,61,1957,72,169,0.8933156263833555
2259,-1,-1,61,1958,72,169,0.893362831858407
2260,-1,-1,61,1959,72,169,0.8934099955771783
2261,-1,-1,61,1960,72,169,0.8934571175950486
2262,-1,-1,61,1961,72,169,0.8935041979673001
2263,-1,-1,61,1962,72,169,0.8935512367491166
2264,-1,-1,61,1963,72,169,0.893598233995585
2265,-1,-1,61,1964,72,169,0.8936451897616946
2266,-1,-1,61,1965,72,169,0.8936921041023379
2267,-1,-1,61,1966,72,169,0.8937389770723104
2268,-1,-1,61,1967,72,169,0.8937858087263112
2269,-1,-1,61,1968,72,169,0.8938325991189427
2270,-1,-1,61,1969,72,169,0.8938793483047116
2271,1,-1,61,1969,72,170,0.8934859154929577
2272,-1,-1,61,1970,72,170,0.893532776066872
2273,-1,-1,61,1971,72,170,0.8935795954265612
2274,-1,-1,61,1972,72,170,0.8936263736263736
2275,-1,-1,61,1973,72,170,0.8936731107205624
2276,-1,-1,61,1974,72,170,0.893719806763285
2277,-1,-1,61,1975,72,170,0.8937664618086041
2278,1,-1,61,1975,72,171,0.8933742869679684
2279,1,1,62,1975,72,171,0.8934210526315789
2280,-1,-1,62,1976,72,171,0.893467777290662
2281,-1,-1,62,1977,72,171,0.8935144609991236
2282,1,-1,62,1977,72,172,0.8931230836618484
2283,-1,-1,62,1978,72,172,0.8931698774080561
2284,-1,-1,62,1979,72,172,0.8932166301969365
2285,-1,-1,62,1980,72,172,0.8932633420822397
2286,-1,-1,62,1981,72,172,0.8933100131176214
2287,-1,-1,62,1982,72,172,0.8933566433566433
2288,-1,-1,62,1983,72,172,0.8934032328527741
2289,-1,1,62,1983,73,172,0.8930131004366813
2290,1,1,63,1983,73,172,0.8930597992143169
2291,-1,-1,63,1984,73,172,0.8931064572425829
2292,-1,-1,63,1985,73,172,0.8931530745747929
2293,-1,-1,63,1986,73,172,0.8931996512641673
2294,-1,-1,63,1987,73,172,0.8932461873638344
2295,-1,-1,63,1988,73,172,0.8932926829268293
2296,1,-1,63,1988,73,173,0.8929037875489769
2297,-1,-1,63,1989,73,173,0.8929503916449086
2298,-1,-1,63,1990,73,173,0.8929969551979121
2299,-1,-1,63,1991,73,173,0.8930434782608696
2300,-1,-1,63,1992,73,173,0.8930899608865711
2301,-1,-1,63,1993,73,173,0.893136403127715
2302,-1,-1,63,1994,73,173,0.8931828050369084
2303,-1,-1,63,1995,73,173,0.8932291666666666
2304,-1,-1,63,1996,73,173,0.8932754880694144
2305,1,-1,63,1996,73,174,0.8928881179531657
2306,-1,-1,63,1997,73,174,0.8929345470307759
2307,1,-1,63,1997,73,175,0.8925476603119584
2308,-1,-1,63,1998,73,175,0.8925941966219142
2309,-1,-1,63,1999,73,175,0.8926406926406927
2310,-1,-1,63,2000,73,175,0.8926871484205972
2311,-1,-1,63,2001,73,175,0.8927335640138409
2312,-1,-1,63,2002,73,175,0.8927799394725465
2313,-1,-1,63,2003,73,175,0.8928262748487468
2314,-1,-1,63,2004,73,175,0.8928725701943845
2315,-1,-1,63,2005,73,175,0.8929188255613126
2316,-1,-1,63,2006,73,175,0.8929650410012948
2317,-1,-1,63,2007,73,175,0.8930112165660051
2318,-1,-1,63,2008,73,175,0.8930573523070289
2319,-1,-1,63,2009,73,175,0.8931034482758621
2320,-1,-1,63,2010,73,175,0.8931495045239121
2321,-1,-1,63,2011,73,175,0.8931955211024979
2322,-1,-1,63,2012,73,175,0.8932414980628498
2323,-1,-1,63,2013,73,175,0.8932874354561101
2324,-1,-1,63,2014,73,175,0.8933333333333333
2325,-1,-1,63,2015,73,175,0.8933791917454859
2326,-1,-1,63,2016,73,175,0.8934250107434465
2327,-1,-1,63,2017,73,175,0.8934707903780069
2328,-1,-1,63,2018,73,175,0.8935165306998711
2329,-1,-1,63,2019,73,175,0.8935622317596567
2330,-1,-1,63,2020,73,175,0.8936078936078936
2331,-1,-1,63,2021,73,175,0.8936535162950258
2332,-1,-1,63,2022,73,175,0.8936990998714102
2333,-1,-1,63,2023,73,175,0.8937446443873179
2334,-1,-1,63,2024,73,175,0.8937901498929336
2335,-1,-1,63,2025,73,175,0.8938356164383562
2336,1,1,64,2025,73,175,0.8938810440735986
2337,-1,-1,64,2026,73,175,0.8939264328485885
2338,-1,-1,64,2027,73,175,0.893971782813168
2339,-1,-1,64,2028,73,175,0.8940170940170941
2340,-1,-1,64,2029,73,175,0.8940623665100385
2341,-1,-1,64,2030,73,175,0.8941076003415884
2342,-1,-1,64,2031,73,175,0.8941527955612463
2343,-1,-1,64,2032,73,175,0.89419795221843
2344,-1,-1,64,2033,73,175,0.8942430703624733
2345,-1,-1,64,2034,73,175,0.8942881500426257
