instance,lable,predicted,tp,tn,fp,fn,correctness
0,-1,-1,0,1,0,0,1.0
1,-1,-1,0,2,0,0,1.0
2,-1,-1,0,3,0,0,1.0
3,-1,-1,0,4,0,0,1.0
4,1,-1,0,4,0,1,0.8
5,1,-1,0,4,0,2,0.6666666666666666
6,-1,1,0,4,1,2,0.5714285714285714
7,1,-1,0,4,1,3,0.5
8,-1,-1,0,5,1,3,0.5555555555555556
9,-1,-1,0,6,1,3,0.6
10,-1,-1,0,7,1,3,0.6363636363636364
11,-1,-1,0,8,1,3,0.6666666666666666
12,-1,-1,0,9,1,3,0.6923076923076923
13,-1,-1,0,10,1,3,0.7142857142857143
14,-1,-1,0,11,1,3,0.7333333333333333
15,-1,-1,0,12,1,3,0.75
16,-1,-1,0,13,1,3,0.7647058823529411
17,-1,-1,0,14,1,3,0.7777777777777778
18,-1,-1,0,15,1,3,0.7894736842105263
19,1,-1,0,15,1,4,0.75
20,-1,-1,0,16,1,4,0.7619047619047619
21,-1,-1,0,17,1,4,0.7727272727272727
22,-1,-1,0,18,1,4,0.782608695652174
23,-1,-1,0,19,1,4,0.7916666666666666
24,-1,-1,0,20,1,4,0.8
25,-1,1,0,20,2,4,0.7692307692307693
26,-1,-1,0,21,2,4,0.7777777777777778
27,-1,-1,0,22,2,4,0.7857142857142857
28,-1,-1,0,23,2,4,0.7931034482758621
29,1,1,1,23,2,4,0.8
30,1,-1,1,23,2,5,0.7741935483870968
31,-1,-1,1,24,2,5,0.78125
32,-1,-1,1,25,2,5,0.7878787878787878
33,-1,-1,1,26,2,5,0.7941176470588235
34,-1,-1,1,27,2,5,0.8
35,-1,-1,1,28,2,5,0.8055555555555556
36,-1,-1,1,29,2,5,0.8108108108108109
37,-1,-1,1,30,2,5,0.8157894736842105
38,-1,-1,1,31,2,5,0.8205128205128205
39,-1,-1,1,32,2,5,0.825
40,-1,-1,1,33,2,5,0.8292682926829268
41,1,1,2,33,2,5,0.8333333333333334
42,-1,-1,2,34,2,5,0.8372093023255814
43,1,-1,2,34,2,6,0.8181818181818182
44,-1,-1,2,35,2,6,0.8222222222222222
45,-1,-1,2,36,2,6,0.8260869565217391
46,-1,-1,2,37,2,6,0.8297872340425532
47,-1,-1,2,38,2,6,0.8333333333333334
48,-1,-1,2,39,2,6,0.8367346938775511
49,1,-1,2,39,2,7,0.82
50,-1,-1,2,40,2,7,0.8235294117647058
51,-1,-1,2,41,2,7,0.8269230769230769
52,-1,-1,2,42,2,7,0.8301886792452831
53,-1,-1,2,43,2,7,0.8333333333333334
54,-1,-1,2,44,2,7,0.8363636363636363
55,-1,-1,2,45,2,7,0.8392857142857143
56,-1,-1,2,46,2,7,0.8421052631578947
57,-1,1,2,46,3,7,0.8275862068965517
58,-1,-1,2,47,3,7,0.8305084745762712
59,1,-1,2,47,3,8,0.8166666666666667
60,-1,-1,2,48,3,8,0.819672131147541
61,-1,-1,2,49,3,8,0.8225806451612904
62,1,-1,2,49,3,9,0.8095238095238095
63,-1,-1,2,50,3,9,0.8125
64,1,-1,2,50,3,10,0.8
65,-1,-1,2,51,3,10,0.803030303030303
66,-1,-1,2,52,3,10,0.8059701492537313
67,-1,-1,2,53,3,10,0.8088235294117647
68,-1,-1,2,54,3,10,0.8115942028985508
69,-1,-1,2,55,3,10,0.8142857142857143
70,-1,-1,2,56,3,10,0.8169014084507042
71,1,-1,2,56,3,11,0.8055555555555556
72,-1,-1,2,57,3,11,0.8082191780821918
73,-1,-1,2,58,3,11,0.8108108108108109
74,-1,-1,2,59,3,11,0.8133333333333334
75,-1,-1,2,60,3,11,0.8157894736842105
76,-1,-1,2,61,3,11,0.8181818181818182
77,-1,-1,2,62,3,11,0.8205128205128205
78,-1,-1,2,63,3,11,0.8227848101265823
79,-1,-1,2,64,3,11,0.825
80,-1,-1,2,65,3,11,0.8271604938271605
81,-1,-1,2,66,3,11,0.8292682926829268
82,-1,-1,2,67,3,11,0.8313253012048193
83,-1,-1,2,68,3,11,0.8333333333333334
84,-1,-1,2,69,3,11,0.8352941176470589
85,-1,-1,2,70,3,11,0.8372093023255814
86,-1,-1,2,71,3,11,0.8390804597701149
87,-1,-1,2,72,3,11,0.8409090909090909
88,-1,-1,2,73,3,11,0.8426966292134831
89,-1,-1,2,74,3,11,0.8444444444444444
90,-1,-1,2,75,3,11,0.8461538461538461
91,-1,-1,2,76,3,11,0.8478260869565217
92,-1,-1,2,77,3,11,0.8494623655913979
93,1,-1,2,77,3,12,0.8404255319148937
94,-1,-1,2,78,3,12,0.8421052631578947
95,1,-1,2,78,3,13,0.8333333333333334
96,1,-1,2,78,3,14,0.8247422680412371
97,-1,-1,2,79,3,14,0.826530612244898
98,-1,-1,2,80,3,14,0.8282828282828283
99,-1,-1,2,81,3,14,0.83
100,-1,-1,2,82,3,14,0.8316831683168316
101,-1,-1,2,83,3,14,0.8333333333333334
102,1,1,3,83,3,14,0.8349514563106796
103,-1,-1,3,84,3,14,0.8365384615384616
104,-1,-1,3,85,3,14,0.8380952380952381
105,-1,-1,3,86,3,14,0.839622641509434
106,-1,-1,3,87,3,14,0.8411214953271028
107,1,-1,3,87,3,15,0.8333333333333334
108,-1,-1,3,88,3,15,0.8348623853211009
109,-1,-1,3,89,3,15,0.8363636363636363
110,-1,-1,3,90,3,15,0.8378378378378378
111,-1,-1,3,91,3,15,0.8392857142857143
112,1,-1,3,91,3,16,0.831858407079646
113,-1,-1,3,92,3,16,0.8333333333333334
114,-1,-1,3,93,3,16,0.8347826086956521
115,-1,-1,3,94,3,16,0.8362068965517241
116,-1,-1,3,95,3,16,0.8376068376068376
117,-1,-1,3,96,3,16,0.8389830508474576
118,-1,-1,3,97,3,16,0.8403361344537815
119,-1,-1,3,98,3,16,0.8416666666666667
120,-1,-1,3,99,3,16,0.8429752066115702
121,-1,-1,3,100,3,16,0.8442622950819673
122,-1,-1,3,101,3,16,0.8455284552845529
123,-1,-1,3,102,3,16,0.8467741935483871
124,-1,-1,3,103,3,16,0.848
125,-1,-1,3,104,3,16,0.8492063492063492
126,-1,-1,3,105,3,16,0.8503937007874016
127,-1,-1,3,106,3,16,0.8515625
128,-1,-1,3,107,3,16,0.8527131782945736
129,-1,-1,3,108,3,16,0.8538461538461538
130,-1,-1,3,109,3,16,0.8549618320610687
131,-1,-1,3,110,3,16,0.8560606060606061
132,-1,-1,3,111,3,16,0.8571428571428571
133,-1,-1,3,112,3,16,0.8582089552238806
134,-1,-1,3,113,3,16,0.8592592592592593
135,-1,-1,3,114,3,16,0.8602941176470589
136,-1,-1,3,115,3,16,0.8613138686131386
137,-1,-1,3,116,3,16,0.8623188405797102
138,-1,-1,3,117,3,16,0.8633093525179856
139,-1,-1,3,118,3,16,0.8642857142857143
140,1,-1,3,118,3,17,0.8581560283687943
141,-1,-1,3,119,3,17,0.8591549295774648
142,1,-1,3,119,3,18,0.8531468531468531
143,-1,-1,3,120,3,18,0.8541666666666666
144,-1,-1,3,121,3,18,0.8551724137931035
145,-1,-1,3,122,3,18,0.8561643835616438
146,1,-1,3,122,3,19,0.8503401360544217
147,-1,-1,3,123,3,19,0.8513513513513513
148,-1,-1,3,124,3,19,0.8523489932885906
149,-1,-1,3,125,3,19,0.8533333333333334
150,-1,-1,3,126,3,19,0.8543046357615894
151,-1,-1,3,127,3,19,0.8552631578947368
152,1,-1,3,127,3,20,0.8496732026143791
153,-1,-1,3,128,3,20,0.8506493506493507
154,-1,-1,3,129,3,20,0.8516129032258064
155,-1,-1,3,130,3,20,0.8525641025641025
156,-1,-1,3,131,3,20,0.8535031847133758
157,-1,-1,3,132,3,20,0.8544303797468354
158,-1,-1,3,133,3,20,0.8553459119496856
159,-1,-1,3,134,3,20,0.85625
160,-1,-1,3,135,3,20,0.8571428571428571
161,-1,-1,3,136,3,20,0.8580246913580247
162,1,-1,3,136,3,21,0.852760736196319
163,1,-1,3,136,3,22,0.8475609756097561
164,-1,-1,3,137,3,22,0.8484848484848485
165,-1,-1,3,138,3,22,0.8493975903614458
166,-1,-1,3,139,3,22,0.8502994011976048
167,-1,-1,3,140,3,22,0.8511904761904762
168,-1,-1,3,141,3,22,0.8520710059171598
169,-1,-1,3,142,3,22,0.8529411764705882
170,-1,-1,3,143,3,22,0.8538011695906432
171,-1,-1,3,144,3,22,0.8546511627906976
172,-1,-1,3,145,3,22,0.8554913294797688
173,-1,-1,3,146,3,22,0.8563218390804598
174,-1,-1,3,147,3,22,0.8571428571428571
175,-1,-1,3,148,3,22,0.8579545454545454
176,-1,-1,3,149,3,22,0.8587570621468926
177,-1,-1,3,150,3,22,0.8595505617977528
178,-1,-1,3,151,3,22,0.8603351955307262
179,-1,-1,3,152,3,22,0.8611111111111112
180,-1,-1,3,153,3,22,0.861878453038674
181,-1,-1,3,154,3,22,0.8626373626373627
182,-1,-1,3,155,3,22,0.8633879781420765
183,-1,-1,3,156,3,22,0.8641304347826086
184,-1,-1,3,157,3,22,0.8648648648648649
185,-1,-1,3,158,3,22,0.8655913978494624
186,1,1,4,158,3,22,0.8663101604278075
187,-1,-1,4,159,3,22,0.8670212765957447
188,-1,-1,4,160,3,22,0.8677248677248677
189,-1,-1,4,161,3,22,0.868421052631579
190,-1,-1,4,162,3,22,0.8691099476439791
191,-1,-1,4,163,3,22,0.8697916666666666
192,-1,-1,4,164,3,22,0.8704663212435233
193,-1,-1,4,165,3,22,0.8711340206185567
194,-1,-1,4,166,3,22,0.8717948717948718
195,-1,-1,4,167,3,22,0.8724489795918368
196,-1,-1,4,168,3,22,0.8730964467005076
197,-1,-1,4,169,3,22,0.8737373737373737
198,-1,-1,4,170,3,22,0.8743718592964824
199,-1,-1,4,171,3,22,0.875
200,-1,-1,4,172,3,22,0.8756218905472637
201,-1,-1,4,173,3,22,0.8762376237623762
202,-1,-1,4,174,3,22,0.8768472906403941
203,-1,-1,4,175,3,22,0.8774509803921569
204,-1,-1,4,176,3,22,0.8780487804878049
205,-1,-1,4,177,3,22,0.8786407766990292
206,-1,-1,4,178,3,22,0.8792270531400966
207,-1,-1,4,179,3,22,0.8798076923076923
208,-1,-1,4,180,3,22,0.8803827751196173
209,-1,-1,4,181,3,22,0.8809523809523809
210,-1,-1,4,182,3,22,0.8815165876777251
211,-1,-1,4,183,3,22,0.8820754716981132
212,-1,-1,4,184,3,22,0.8826291079812206
213,-1,-1,4,185,3,22,0.883177570093458
214,-1,-1,4,186,3,22,0.8837209302325582
215,-1,-1,4,187,3,22,0.8842592592592593
216,-1,-1,4,188,3,22,0.8847926267281107
217,-1,-1,4,189,3,22,0.8853211009174312
218,-1,-1,4,190,3,22,0.8858447488584474
219,-1,-1,4,191,3,22,0.8863636363636364
220,-1,-1,4,192,3,22,0.8868778280542986
221,1,-1,4,192,3,23,0.8828828828828829
222,-1,-1,4,193,3,23,0.8834080717488789
223,-1,-1,4,194,3,23,0.8839285714285714
224,-1,-1,4,195,3,23,0.8844444444444445
225,-1,-1,4,196,3,23,0.8849557522123894
226,1,-1,4,196,3,24,0.8810572687224669
227,-1,-1,4,197,3,24,0.881578947368421
228,-1,-1,4,198,3,24,0.8820960698689956
229,1,-1,4,198,3,25,0.8782608695652174
230,-1,-1,4,199,3,25,0.8787878787878788
231,-1,-1,4,200,3,25,0.8793103448275862
232,-1,-1,4,201,3,25,0.8798283261802575
233,-1,-1,4,202,3,25,0.8803418803418803
234,-1,-1,4,203,3,25,0.8808510638297873
235,-1,-1,4,204,3,25,0.8813559322033898
236,-1,-1,4,205,3,25,0.8818565400843882
237,-1,-1,4,206,3,25,0.8823529411764706
238,-1,-1,4,207,3,25,0.8828451882845189
239,-1,-1,4,208,3,25,0.8833333333333333
240,-1,-1,4,209,3,25,0.8838174273858921
241,-1,-1,4,210,3,25,0.8842975206611571
242,-1,-1,4,211,3,25,0.8847736625514403
243,-1,-1,4,212,3,25,0.8852459016393442
244,-1,-1,4,213,3,25,0.8857142857142857
245,-1,-1,4,214,3,25,0.8861788617886179
246,-1,-1,4,215,3,25,0.8866396761133604
247,-1,-1,4,216,3,25,0.8870967741935484
248,-1,-1,4,217,3,25,0.8875502008032129
249,-1,-1,4,218,3,25,0.888
250,-1,-1,4,219,3,25,0.8884462151394422
251,-1,-1,4,220,3,25,0.8888888888888888
252,-1,-1,4,221,3,25,0.8893280632411067
253,-1,-1,4,222,3,25,0.889763779527559
254,-1,-1,4,223,3,25,0.8901960784313725
255,-1,-1,4,224,3,25,0.890625
256,-1,-1,4,225,3,25,0.8910505836575876
257,-1,-1,4,226,3,25,0.8914728682170543
258,-1,-1,4,227,3,25,0.8918918918918919
259,-1,-1,4,228,3,25,0.8923076923076924
260,-1,-1,4,229,3,25,0.89272030651341
261,-1,-1,4,230,3,25,0.8931297709923665
262,-1,-1,4,231,3,25,0.8935361216730038
263,-1,-1,4,232,3,25,0.8939393939393939
264,-1,-1,4,233,3,25,0.8943396226415095
265,-1,-1,4,234,3,25,0.8947368421052632
266,-1,-1,4,235,3,25,0.8951310861423221
267,-1,-1,4,236,3,25,0.8955223880597015
268,-1,-1,4,237,3,25,0.895910780669145
269,-1,-1,4,238,3,25,0.8962962962962963
270,-1,-1,4,239,3,25,0.8966789667896679
271,-1,-1,4,240,3,25,0.8970588235294118
272,1,-1,4,240,3,26,0.8937728937728938
273,-1,-1,4,241,3,26,0.8941605839416058
274,-1,-1,4,242,3,26,0.8945454545454545
275,-1,-1,4,243,3,26,0.894927536231884
276,-1,-1,4,244,3,26,0.8953068592057761
277,-1,-1,4,245,3,26,0.89568345323741
278,-1,-1,4,246,3,26,0.8960573476702509
279,-1,-1,4,247,3,26,0.8964285714285715
280,-1,-1,4,248,3,26,0.896797153024911
281,-1,-1,4,249,3,26,0.8971631205673759
282,1,-1,4,249,3,27,0.8939929328621908
283,-1,-1,4,250,3,27,0.8943661971830986
284,-1,-1,4,251,3,27,0.8947368421052632
285,-1,-1,4,252,3,27,0.8951048951048951
286,-1,-1,4,253,3,27,0.8954703832752613
287,-1,-1,4,254,3,27,0.8958333333333334
288,-1,-1,4,255,3,27,0.8961937716262975
289,-1,-1,4,256,3,27,0.896551724137931
290,-1,-1,4,257,3,27,0.8969072164948454
291,-1,-1,4,258,3,27,0.8972602739726028
292,1,-1,4,258,3,28,0.89419795221843
293,-1,-1,4,259,3,28,0.8945578231292517
294,-1,-1,4,260,3,28,0.8949152542372881
295,-1,-1,4,261,3,28,0.8952702702702703
296,1,1,5,261,3,28,0.8956228956228957
297,-1,-1,5,262,3,28,0.8959731543624161
298,-1,-1,5,263,3,28,0.8963210702341137
299,1,-1,5,263,3,29,0.8933333333333333
300,1,-1,5,263,3,30,0.8903654485049833
301,1,-1,5,263,3,31,0.8874172185430463
302,-1,-1,5,264,3,31,0.8877887788778878
303,-1,-1,5,265,3,31,0.8881578947368421
304,1,-1,5,265,3,32,0.8852459016393442
305,-1,-1,5,266,3,32,0.8856209150326797
306,-1,-1,5,267,3,32,0.8859934853420195
307,-1,-1,5,268,3,32,0.8863636363636364
308,-1,-1,5,269,3,32,0.8867313915857605
309,1,-1,5,269,3,33,0.8838709677419355
310,-1,-1,5,270,3,33,0.8842443729903537
311,1,-1,5,270,3,34,0.8814102564102564
312,-1,-1,5,271,3,34,0.8817891373801917
313,-1,-1,5,272,3,34,0.8821656050955414
314,-1,-1,5,273,3,34,0.8825396825396825
315,-1,-1,5,274,3,34,0.8829113924050633
316,-1,-1,5,275,3,34,0.8832807570977917
317,-1,-1,5,276,3,34,0.8836477987421384
318,-1,-1,5,277,3,34,0.8840125391849529
319,-1,-1,5,278,3,34,0.884375
320,-1,-1,5,279,3,34,0.8847352024922118
321,-1,-1,5,280,3,34,0.8850931677018633
322,-1,1,5,280,4,34,0.8823529411764706
323,-1,-1,5,281,4,34,0.8827160493827161
324,-1,1,5,281,5,34,0.88
325,-1,-1,5,282,5,34,0.8803680981595092
326,-1,-1,5,283,5,34,0.8807339449541285
327,-1,-1,5,284,5,34,0.8810975609756098
328,-1,-1,5,285,5,34,0.8814589665653495
329,1,-1,5,285,5,35,0.8787878787878788
330,-1,-1,5,286,5,35,0.879154078549849
331,-1,-1,5,287,5,35,0.8795180722891566
332,-1,-1,5,288,5,35,0.8798798798798799
333,1,1,6,288,5,35,0.8802395209580839
334,1,-1,6,288,5,36,0.8776119402985074
335,-1,1,6,288,6,36,0.875
336,-1,-1,6,289,6,36,0.8753709198813057
337,-1,-1,6,290,6,36,0.8757396449704142
338,-1,-1,6,291,6,36,0.8761061946902655
339,-1,-1,6,292,6,36,0.8764705882352941
340,-1,-1,6,293,6,36,0.8768328445747801
341,1,-1,6,293,6,37,0.8742690058479532
342,-1,-1,6,294,6,37,0.8746355685131195
343,-1,-1,6,295,6,37,0.875
344,-1,-1,6,296,6,37,0.8753623188405797
345,-1,-1,6,297,6,37,0.8757225433526011
346,-1,-1,6,298,6,37,0.8760806916426513
347,1,-1,6,298,6,38,0.8735632183908046
348,-1,-1,6,299,6,38,0.8739255014326648
349,-1,-1,6,300,6,38,0.8742857142857143
350,-1,-1,6,301,6,38,0.8746438746438746
351,-1,-1,6,302,6,38,0.875
352,-1,-1,6,303,6,38,0.8753541076487252
353,-1,-1,6,304,6,38,0.8757062146892656
354,-1,-1,6,305,6,38,0.8760563380281691
355,-1,-1,6,306,6,38,0.8764044943820225
356,-1,-1,6,307,6,38,0.876750700280112
357,-1,-1,6,308,6,38,0.8770949720670391
358,-1,-1,6,309,6,38,0.8774373259052924
359,-1,-1,6,310,6,38,0.8777777777777778
360,-1,-1,6,311,6,38,0.8781163434903048
361,-1,-1,6,312,6,38,0.8784530386740331
362,-1,-1,6,313,6,38,0.8787878787878788
363,-1,-1,6,314,6,38,0.8791208791208791
364,-1,-1,6,315,6,38,0.8794520547945206
365,-1,-1,6,316,6,38,0.8797814207650273
366,-1,-1,6,317,6,38,0.8801089918256131
367,-1,-1,6,318,6,38,0.8804347826086957
368,-1,-1,6,319,6,38,0.8807588075880759
369,-1,-1,6,320,6,38,0.8810810810810811
370,-1,-1,6,321,6,38,0.8814016172506739
371,-1,-1,6,322,6,38,0.8817204301075269
372,-1,-1,6,323,6,38,0.8820375335120644
373,-1,-1,6,324,6,38,0.8823529411764706
374,-1,-1,6,325,6,38,0.8826666666666667
375,-1,-1,6,326,6,38,0.8829787234042553
376,-1,-1,6,327,6,38,0.883289124668435
377,-1,-1,6,328,6,38,0.8835978835978836
378,-1,-1,6,329,6,38,0.8839050131926122
379,1,1,7,329,6,38,0.8842105263157894
380,1,-1,7,329,6,39,0.8818897637795275
381,-1,-1,7,330,6,39,0.8821989528795812
382,-1,-1,7,331,6,39,0.8825065274151436
383,-1,-1,7,332,6,39,0.8828125
384,-1,-1,7,333,6,39,0.8831168831168831
385,-1,-1,7,334,6,39,0.883419689119171
386,-1,-1,7,335,6,39,0.8837209302325582
387,-1,1,7,335,7,39,0.8814432989690721
388,-1,-1,7,336,7,39,0.8817480719794345
389,-1,-1,7,337,7,39,0.882051282051282
390,-1,-1,7,338,7,39,0.8823529411764706
391,-1,-1,7,339,7,39,0.8826530612244898
392,1,-1,7,339,7,40,0.8804071246819338
393,-1,-1,7,340,7,40,0.8807106598984772
394,-1,-1,7,341,7,40,0.8810126582278481
395,1,1,8,341,7,40,0.8813131313131313
396,-1,-1,8,342,7,40,0.8816120906801007
397,-1,-1,8,343,7,40,0.8819095477386935
398,-1,-1,8,344,7,40,0.8822055137844611
399,-1,-1,8,345,7,40,0.8825
400,-1,-1,8,346,7,40,0.8827930174563591
401,-1,-1,8,347,7,40,0.8830845771144279
402,-1,-1,8,348,7,40,0.8833746898263027
403,-1,-1,8,349,7,40,0.8836633663366337
404,-1,-1,8,350,7,40,0.8839506172839506
405,-1,-1,8,351,7,40,0.8842364532019704
406,-1,-1,8,352,7,40,0.8845208845208845
407,-1,-1,8,353,7,40,0.8848039215686274
408,-1,-1,8,354,7,40,0.8850855745721271
409,-1,-1,8,355,7,40,0.8853658536585366
410,-1,-1,8,356,7,40,0.8856447688564477
411,-1,-1,8,357,7,40,0.8859223300970874
412,-1,-1,8,358,7,40,0.8861985472154964
413,1,-1,8,358,7,41,0.8840579710144928
414,-1,-1,8,359,7,41,0.8843373493975903
415,-1,-1,8,360,7,41,0.8846153846153846
416,-1,-1,8,361,7,41,0.8848920863309353
417,-1,-1,8,362,7,41,0.8851674641148325
418,-1,-1,8,363,7,41,0.8854415274463007
419,-1,-1,8,364,7,41,0.8857142857142857
420,-1,-1,8,365,7,41,0.8859857482185273
421,-1,-1,8,366,7,41,0.8862559241706162
422,-1,-1,8,367,7,41,0.8865248226950354
423,-1,-1,8,368,7,41,0.8867924528301887
424,-1,-1,8,369,7,41,0.8870588235294118
425,-1,-1,8,370,7,41,0.8873239436619719
426,-1,-1,8,371,7,41,0.8875878220140515
427,-1,-1,8,372,7,41,0.8878504672897196
428,-1,-1,8,373,7,41,0.8881118881118881
429,1,-1,8,373,7,42,0.8860465116279069
430,-1,-1,8,374,7,42,0.8863109048723898
431,-1,-1,8,375,7,42,0.8865740740740741
432,-1,-1,8,376,7,42,0.8868360277136259
433,-1,-1,8,377,7,42,0.8870967741935484
434,-1,-1,8,378,7,42,0.8873563218390804
435,-1,-1,8,379,7,42,0.8876146788990825
436,-1,-1,8,380,7,42,0.8878718535469108
437,-1,-1,8,381,7,42,0.8881278538812786
438,-1,-1,8,382,7,42,0.8883826879271071
439,-1,1,8,382,8,42,0.8863636363636364
440,-1,-1,8,383,8,42,0.8866213151927438
441,-1,-1,8,384,8,42,0.8868778280542986
442,-1,-1,8,385,8,42,0.8871331828442438
443,-1,-1,8,386,8,42,0.8873873873873874
444,-1,-1,8,387,8,42,0.8876404494382022
445,-1,-1,8,388,8,42,0.8878923766816144
446,-1,-1,8,389,8,42,0.8881431767337807
447,-1,-1,8,390,8,42,0.8883928571428571
448,-1,-1,8,391,8,42,0.888641425389755
449,-1,-1,8,392,8,42,0.8888888888888888
450,-1,-1,8,393,8,42,0.8891352549889135
451,-1,-1,8,394,8,42,0.8893805309734514
452,-1,-1,8,395,8,42,0.8896247240618101
453,-1,-1,8,396,8,42,0.8898678414096917
454,-1,-1,8,397,8,42,0.8901098901098901
455,-1,-1,8,398,8,42,0.8903508771929824
456,-1,-1,8,399,8,42,0.8905908096280087
457,-1,-1,8,400,8,42,0.8908296943231441
458,-1,-1,8,401,8,42,0.8910675381263616
459,1,-1,8,401,8,43,0.8891304347826087
460,-1,-1,8,402,8,43,0.8893709327548807
461,1,-1,8,402,8,44,0.8874458874458875
462,-1,-1,8,403,8,44,0.8876889848812095
463,-1,-1,8,404,8,44,0.8879310344827587
464,-1,-1,8,405,8,44,0.8881720430107527
465,-1,-1,8,406,8,44,0.8884120171673819
466,-1,-1,8,407,8,44,0.8886509635974305
467,-1,-1,8,408,8,44,0.8888888888888888
468,-1,-1,8,409,8,44,0.8891257995735607
469,-1,-1,8,410,8,44,0.8893617021276595
470,-1,-1,8,411,8,44,0.8895966029723992
471,-1,-1,8,412,8,44,0.8898305084745762
472,-1,-1,8,413,8,44,0.8900634249471459
473,-1,-1,8,414,8,44,0.890295358649789
474,-1,-1,8,415,8,44,0.8905263157894737
475,-1,-1,8,416,8,44,0.8907563025210085
476,1,-1,8,416,8,45,0.8888888888888888
477,-1,-1,8,417,8,45,0.8891213389121339
478,-1,-1,8,418,8,45,0.8893528183716075
479,-1,-1,8,419,8,45,0.8895833333333333
480,-1,-1,8,420,8,45,0.8898128898128899
481,1,-1,8,420,8,46,0.8879668049792531
482,-1,-1,8,421,8,46,0.8881987577639752
483,-1,-1,8,422,8,46,0.8884297520661157
484,-1,-1,8,423,8,46,0.8886597938144329
485,-1,-1,8,424,8,46,0.8888888888888888
486,-1,-1,8,425,8,46,0.8891170431211499
487,-1,-1,8,426,8,46,0.889344262295082
488,-1,-1,8,427,8,46,0.8895705521472392
489,-1,-1,8,428,8,46,0.889795918367347
490,-1,-1,8,429,8,46,0.890020366598778
491,-1,-1,8,430,8,46,0.8902439024390244
492,-1,-1,8,431,8,46,0.8904665314401623
493,-1,-1,8,432,8,46,0.8906882591093117
494,-1,-1,8,433,8,46,0.8909090909090909
495,-1,-1,8,434,8,46,0.8911290322580645
496,-1,-1,8,435,8,46,0.8913480885311871
497,-1,-1,8,436,8,46,0.891566265060241
498,-1,-1,8,437,8,46,0.8917835671342685
499,-1,-1,8,438,8,46,0.892
500,-1,-1,8,439,8,46,0.8922155688622755
501,1,-1,8,439,8,47,0.8904382470119522
502,-1,-1,8,440,8,47,0.8906560636182903
503,-1,-1,8,441,8,47,0.8908730158730159
504,-1,-1,8,442,8,47,0.8910891089108911
505,-1,-1,8,443,8,47,0.8913043478260869
506,-1,-1,8,444,8,47,0.8915187376725838
507,-1,-1,8,445,8,47,0.8917322834645669
508,-1,-1,8,446,8,47,0.8919449901768173
509,-1,-1,8,447,8,47,0.8921568627450981
510,-1,-1,8,448,8,47,0.8923679060665362
511,1,1,9,448,8,47,0.892578125
512,1,-1,9,448,8,48,0.8908382066276803
513,-1,-1,9,449,8,48,0.8910505836575876
514,-1,-1,9,450,8,48,0.8912621359223301
515,-1,-1,9,451,8,48,0.8914728682170543
516,-1,-1,9,452,8,48,0.8916827852998066
517,-1,-1,9,453,8,48,0.8918918918918919
518,-1,-1,9,454,8,48,0.8921001926782274
519,-1,-1,9,455,8,48,0.8923076923076924
520,-1,-1,9,456,8,48,0.8925143953934741
521,-1,-1,9,457,8,48,0.89272030651341
522,-1,-1,9,458,8,48,0.892925430210325
523,-1,-1,9,459,8,48,0.8931297709923665
524,-1,-1,9,460,8,48,0.8933333333333333
525,-1,-1,9,461,8,48,0.8935361216730038
526,-1,-1,9,462,8,48,0.8937381404174574
527,-1,-1,9,463,8,48,0.8939393939393939
528,-1,-1,9,464,8,48,0.8941398865784499
529,1,-1,9,464,8,49,0.8924528301886793
530,-1,-1,9,465,8,49,0.8926553672316384
531,-1,-1,9,466,8,49,0.8928571428571429
532,-1,-1,9,467,8,49,0.8930581613508443
533,-1,-1,9,468,8,49,0.8932584269662921
534,1,-1,9,468,8,50,0.891588785046729
535,1,-1,9,468,8,51,0.8899253731343284
536,1,1,10,468,8,51,0.8901303538175046
537,-1,-1,10,469,8,51,0.8903345724907064
538,-1,-1,10,470,8,51,0.8905380333951762
539,-1,-1,10,471,8,51,0.8907407407407407
540,-1,-1,10,472,8,51,0.8909426987060998
541,-1,-1,10,473,8,51,0.8911439114391144
542,1,-1,10,473,8,52,0.8895027624309392
543,-1,-1,10,474,8,52,0.8897058823529411
544,-1,-1,10,475,8,52,0.8899082568807339
545,-1,-1,10,476,8,52,0.8901098901098901
546,-1,-1,10,477,8,52,0.8903107861060329
547,1,-1,10,477,8,53,0.8886861313868614
548,-1,-1,10,478,8,53,0.8888888888888888
549,-1,-1,10,479,8,53,0.889090909090909
550,-1,-1,10,480,8,53,0.8892921960072595
551,-1,-1,10,481,8,53,0.8894927536231884
552,-1,-1,10,482,8,53,0.8896925858951176
553,-1,-1,10,483,8,53,0.8898916967509025
554,-1,-1,10,484,8,53,0.8900900900900901
555,-1,-1,10,485,8,53,0.8902877697841727
556,1,-1,10,485,8,54,0.8886894075403949
557,-1,-1,10,486,8,54,0.8888888888888888
558,-1,-1,10,487,8,54,0.889087656529517
559,-1,-1,10,488,8,54,0.8892857142857142
560,-1,-1,10,489,8,54,0.8894830659536542
561,-1,-1,10,490,8,54,0.8896797153024911
562,1,-1,10,490,8,55,0.8880994671403197
563,-1,-1,10,491,8,55,0.8882978723404256
564,-1,-1,10,492,8,55,0.8884955752212389
565,-1,-1,10,493,8,55,0.8886925795053003
566,-1,-1,10,494,8,55,0.8888888888888888
567,-1,-1,10,495,8,55,0.8890845070422535
568,-1,-1,10,496,8,55,0.8892794376098418
569,-1,-1,10,497,8,55,0.8894736842105263
570,1,-1,10,497,8,56,0.8879159369527145
571,-1,-1,10,498,8,56,0.8881118881118881
572,-1,-1,10,499,8,56,0.8883071553228621
573,-1,-1,10,500,8,56,0.8885017421602788
574,1,-1,10,500,8,57,0.8869565217391304
575,1,-1,10,500,8,58,0.8854166666666666
576,-1,-1,10,501,8,58,0.8856152512998267
577,-1,-1,10,502,8,58,0.8858131487889274
578,-1,-1,10,503,8,58,0.8860103626943006
579,-1,-1,10,504,8,58,0.8862068965517241
580,-1,-1,10,505,8,58,0.8864027538726333
581,-1,-1,10,506,8,58,0.8865979381443299
582,-1,-1,10,507,8,58,0.8867924528301887
583,-1,-1,10,508,8,58,0.886986301369863
584,-1,-1,10,509,8,58,0.8871794871794871
585,-1,-1,10,510,8,58,0.8873720136518771
586,-1,-1,10,511,8,58,0.8875638841567292
587,-1,-1,10,512,8,58,0.8877551020408163
588,-1,-1,10,513,8,58,0.8879456706281834
589,-1,-1,10,514,8,58,0.888135593220339
590,1,-1,10,514,8,59,0.8866328257191202
591,-1,-1,10,515,8,59,0.8868243243243243
592,-1,-1,10,516,8,59,0.8870151770657673
593,1,-1,10,516,8,60,0.8855218855218855
594,-1,-1,10,517,8,60,0.8857142857142857
595,-1,-1,10,518,8,60,0.8859060402684564
596,-1,-1,10,519,8,60,0.8860971524288107
597,-1,-1,10,520,8,60,0.8862876254180602
598,-1,-1,10,521,8,60,0.8864774624373957
599,-1,-1,10,522,8,60,0.8866666666666667
600,-1,-1,10,523,8,60,0.8868552412645591
601,-1,-1,10,524,8,60,0.8870431893687708
602,-1,-1,10,525,8,60,0.8872305140961857
603,-1,-1,10,526,8,60,0.8874172185430463
604,-1,-1,10,527,8,60,0.8876033057851239
605,1,-1,10,527,8,61,0.8861386138613861
606,-1,-1,10,528,8,61,0.886326194398682
607,-1,-1,10,529,8,61,0.8865131578947368
608,-1,-1,10,530,8,61,0.8866995073891626
609,-1,-1,10,531,8,61,0.8868852459016393
610,1,1,11,531,8,61,0.8870703764320785
611,-1,-1,11,532,8,61,0.8872549019607843
612,-1,-1,11,533,8,61,0.8874388254486134
613,-1,-1,11,534,8,61,0.8876221498371335
614,-1,-1,11,535,8,61,0.8878048780487805
615,-1,-1,11,536,8,61,0.887987012987013
616,1,-1,11,536,8,62,0.8865478119935171
617,1,-1,11,536,8,63,0.8851132686084142
618,-1,-1,11,537,8,63,0.8852988691437803
619,-1,-1,11,538,8,63,0.885483870967742
620,-1,-1,11,539,8,63,0.8856682769726248
621,-1,-1,11,540,8,63,0.8858520900321544
622,-1,-1,11,541,8,63,0.8860353130016051
623,-1,-1,11,542,8,63,0.8862179487179487
624,-1,-1,11,543,8,63,0.8864
625,-1,-1,11,544,8,63,0.8865814696485623
626,-1,-1,11,545,8,63,0.886762360446571
627,-1,-1,11,546,8,63,0.8869426751592356
628,-1,-1,11,547,8,63,0.8871224165341812
629,-1,-1,11,548,8,63,0.8873015873015873
630,-1,-1,11,549,8,63,0.8874801901743264
631,-1,-1,11,550,8,63,0.8876582278481012
632,1,-1,11,550,8,64,0.8862559241706162
633,-1,-1,11,551,8,64,0.886435331230284
634,-1,-1,11,552,8,64,0.8866141732283465
635,1,-1,11,552,8,65,0.8852201257861635
636,-1,-1,11,553,8,65,0.8854003139717426
637,-1,-1,11,554,8,65,0.8855799373040752
638,-1,-1,11,555,8,65,0.8857589984350548
639,-1,-1,11,556,8,65,0.8859375
640,-1,-1,11,557,8,65,0.8861154446177847
641,-1,-1,11,558,8,65,0.8862928348909658
642,-1,-1,11,559,8,65,0.8864696734059098
643,-1,-1,11,560,8,65,0.8866459627329193
644,-1,-1,11,561,8,65,0.8868217054263566
645,-1,-1,11,562,8,65,0.8869969040247678
646,-1,-1,11,563,8,65,0.8871715610510046
647,-1,-1,11,564,8,65,0.8873456790123457
648,-1,-1,11,565,8,65,0.8875192604006163
649,-1,-1,11,566,8,65,0.8876923076923077
650,-1,-1,11,567,8,65,0.8878648233486943
651,-1,-1,11,568,8,65,0.8880368098159509
652,-1,-1,11,569,8,65,0.888208269525268
653,1,-1,11,569,8,66,0.8868501529051988
654,-1,-1,11,570,8,66,0.8870229007633588
655,-1,-1,11,571,8,66,0.8871951219512195
656,-1,-1,11,572,8,66,0.8873668188736682
657,-1,-1,11,573,8,66,0.8875379939209727
658,-1,-1,11,574,8,66,0.8877086494688923
659,-1,-1,11,575,8,66,0.8878787878787879
660,-1,-1,11,576,8,66,0.8880484114977307
661,-1,-1,11,577,8,66,0.8882175226586103
662,-1,-1,11,578,8,66,0.8883861236802413
663,1,1,12,578,8,66,0.8885542168674698
664,-1,-1,12,579,8,66,0.8887218045112782
665,-1,-1,12,580,8,66,0.8888888888888888
666,-1,-1,12,581,8,66,0.889055472263868
667,-1,-1,12,582,8,66,0.8892215568862275
668,-1,-1,12,583,8,66,0.8893871449925261
669,-1,-1,12,584,8,66,0.8895522388059701
670,1,-1,12,584,8,67,0.8882265275707899
671,-1,-1,12,585,8,67,0.8883928571428571
672,1,-1,12,585,8,68,0.8870728083209509
673,-1,-1,12,586,8,68,0.887240356083086
674,-1,-1,12,587,8,68,0.8874074074074074
675,-1,-1,12,588,8,68,0.8875739644970414
676,-1,-1,12,589,8,68,0.8877400295420975
677,-1,-1,12,590,8,68,0.887905604719764
678,-1,-1,12,591,8,68,0.8880706921944035
679,-1,-1,12,592,8,68,0.888235294117647
680,-1,-1,12,593,8,68,0.8883994126284875
681,1,1,13,593,8,68,0.8885630498533724
682,-1,-1,13,594,8,68,0.8887262079062958
683,-1,-1,13,595,8,68,0.8888888888888888
684,-1,-1,13,596,8,68,0.8890510948905109
685,1,-1,13,596,8,69,0.8877551020408163
686,-1,-1,13,597,8,69,0.8879184861717613
687,1,-1,13,597,8,70,0.8866279069767442
688,-1,-1,13,598,8,70,0.8867924528301887
689,-1,-1,13,599,8,70,0.8869565217391304
690,-1,-1,13,600,8,70,0.8871201157742402
691,-1,-1,13,601,8,70,0.8872832369942196
692,-1,-1,13,602,8,70,0.8874458874458875
693,-1,-1,13,603,8,70,0.8876080691642652
694,-1,-1,13,604,8,70,0.8877697841726618
695,-1,-1,13,605,8,70,0.8879310344827587
696,-1,-1,13,606,8,70,0.8880918220946915
697,-1,-1,13,607,8,70,0.8882521489971347
698,-1,-1,13,608,8,70,0.8884120171673819
699,-1,-1,13,609,8,70,0.8885714285714286
700,-1,-1,13,610,8,70,0.8887303851640513
701,-1,-1,13,611,8,70,0.8888888888888888
702,-1,-1,13,612,8,70,0.8890469416785206
703,-1,-1,13,613,8,70,0.8892045454545454
704,-1,-1,13,614,8,70,0.8893617021276595
705,-1,-1,13,615,8,70,0.8895184135977338
706,-1,-1,13,616,8,70,0.8896746817538896
707,-1,-1,13,617,8,70,0.8898305084745762
708,-1,-1,13,618,8,70,0.8899858956276445
709,-1,-1,13,619,8,70,0.8901408450704226
710,1,-1,13,619,8,71,0.8888888888888888
711,-1,-1,13,620,8,71,0.8890449438202247
712,-1,-1,13,621,8,71,0.8892005610098177
713,-1,-1,13,622,8,71,0.8893557422969187
714,-1,-1,13,623,8,71,0.8895104895104895
715,-1,-1,13,624,8,71,0.8896648044692738
716,-1,-1,13,625,8,71,0.8898186889818689
717,-1,-1,13,626,8,71,0.8899721448467967
718,-1,-1,13,627,8,71,0.8901251738525731
719,-1,-1,13,628,8,71,0.8902777777777777
720,-1,-1,13,629,8,71,0.8904299583911235
721,-1,-1,13,630,8,71,0.8905817174515236
722,-1,-1,13,631,8,71,0.8907330567081605
723,-1,-1,13,632,8,71,0.8908839779005525
724,-1,-1,13,633,8,71,0.8910344827586207
725,-1,-1,13,634,8,71,0.8911845730027548
726,-1,-1,13,635,8,71,0.8913342503438789
727,-1,-1,13,636,8,71,0.8914835164835165
728,1,-1,13,636,8,72,0.8902606310013718
729,-1,-1,13,637,8,72,0.8904109589041096
730,-1,-1,13,638,8,72,0.8905608755129959
731,-1,-1,13,639,8,72,0.8907103825136612
732,-1,-1,13,640,8,72,0.8908594815825375
733,-1,-1,13,641,8,72,0.8910081743869209
734,-1,-1,13,642,8,72,0.891156462585034
735,-1,-1,13,643,8,72,0.8913043478260869
736,-1,-1,13,644,8,72,0.8914518317503393
737,-1,-1,13,645,8,72,0.8915989159891599
738,-1,-1,13,646,8,72,0.8917456021650879
739,-1,-1,13,647,8,72,0.8918918918918919
740,-1,-1,13,648,8,72,0.8920377867746289
741,-1,-1,13,649,8,72,0.8921832884097035
742,-1,-1,13,650,8,72,0.892328398384926
743,-1,-1,13,651,8,72,0.8924731182795699
744,-1,-1,13,652,8,72,0.8926174496644296
745,-1,-1,13,653,8,72,0.8927613941018767
746,1,-1,13,653,8,73,0.891566265060241
747,1,-1,13,653,8,74,0.8903743315508021
748,-1,-1,13,654,8,74,0.890520694259012
749,-1,-1,13,655,8,74,0.8906666666666667
750,-1,-1,13,656,8,74,0.8908122503328895
751,-1,-1,13,657,8,74,0.8909574468085106
752,-1,-1,13,658,8,74,0.8911022576361222
753,-1,-1,13,659,8,74,0.8912466843501327
754,-1,-1,13,660,8,74,0.8913907284768212
755,-1,-1,13,661,8,74,0.8915343915343915
756,1,-1,13,661,8,75,0.8903566710700133
757,-1,-1,13,662,8,75,0.8905013192612137
758,-1,-1,13,663,8,75,0.8906455862977603
759,-1,-1,13,664,8,75,0.8907894736842106
760,-1,-1,13,665,8,75,0.8909329829172142
761,1,-1,13,665,8,76,0.889763779527559
762,1,-1,13,665,8,77,0.8885976408912188
763,-1,-1,13,666,8,77,0.8887434554973822
764,-1,-1,13,667,8,77,0.8888888888888888
765,-1,-1,13,668,8,77,0.8890339425587467
766,-1,-1,13,669,8,77,0.8891786179921773
767,-1,-1,13,670,8,77,0.8893229166666666
768,-1,-1,13,671,8,77,0.8894668400520156
769,-1,-1,13,672,8,77,0.8896103896103896
770,1,-1,13,672,8,78,0.8884565499351491
771,-1,-1,13,673,8,78,0.8886010362694301
772,1,-1,13,673,8,79,0.88745148771022
773,-1,-1,13,674,8,79,0.8875968992248062
774,-1,-1,13,675,8,79,0.8877419354838709
775,-1,-1,13,676,8,79,0.8878865979381443
776,-1,-1,13,677,8,79,0.888030888030888
777,1,-1,13,677,8,80,0.8868894601542416
778,-1,-1,13,678,8,80,0.8870346598202824
779,-1,-1,13,679,8,80,0.8871794871794871
780,-1,-1,13,680,8,80,0.8873239436619719
781,-1,-1,13,681,8,80,0.887468030690537
782,-1,-1,13,682,8,80,0.8876117496807152
783,1,-1,13,682,8,81,0.8864795918367347
784,-1,-1,13,683,8,81,0.8866242038216561
785,-1,-1,13,684,8,81,0.8867684478371501
786,-1,-1,13,685,8,81,0.8869123252858958
787,-1,-1,13,686,8,81,0.8870558375634517
788,1,-1,13,686,8,82,0.8859315589353612
789,-1,-1,13,687,8,82,0.8860759493670886
790,-1,-1,13,688,8,82,0.8862199747155499
791,-1,-1,13,689,8,82,0.8863636363636364
792,-1,-1,13,690,8,82,0.8865069356872636
793,-1,-1,13,691,8,82,0.8866498740554156
794,-1,-1,13,692,8,82,0.8867924528301887
795,-1,-1,13,693,8,82,0.8869346733668342
796,-1,-1,13,694,8,82,0.8870765370138017
797,-1,-1,13,695,8,82,0.8872180451127819
798,-1,-1,13,696,8,82,0.8873591989987485
799,-1,-1,13,697,8,82,0.8875
800,-1,-1,13,698,8,82,0.8876404494382022
801,-1,-1,13,699,8,82,0.8877805486284289
802,-1,-1,13,700,8,82,0.887920298879203
803,-1,-1,13,701,8,82,0.8880597014925373
804,-1,-1,13,702,8,82,0.8881987577639752
805,-1,-1,13,703,8,82,0.8883374689826302
806,-1,-1,13,704,8,82,0.8884758364312267
807,-1,-1,13,705,8,82,0.8886138613861386
808,-1,-1,13,706,8,82,0.8887515451174289
809,-1,-1,13,707,8,82,0.8888888888888888
810,-1,-1,13,708,8,82,0.8890258939580764
811,-1,-1,13,709,8,82,0.8891625615763546
812,-1,-1,13,710,8,82,0.8892988929889298
813,-1,-1,13,711,8,82,0.8894348894348895
814,-1,-1,13,712,8,82,0.8895705521472392
815,-1,-1,13,713,8,82,0.8897058823529411
816,-1,-1,13,714,8,82,0.8898408812729498
817,-1,-1,13,715,8,82,0.8899755501222494
818,-1,-1,13,716,8,82,0.8901098901098901
819,-1,-1,13,717,8,82,0.8902439024390244
820,1,-1,13,717,8,83,0.8891595615103532
821,-1,-1,13,718,8,83,0.889294403892944
822,-1,-1,13,719,8,83,0.8894289185905225
823,-1,-1,13,720,8,83,0.8895631067961165
824,-1,-1,13,721,8,83,0.8896969696969697
825,-1,-1,13,722,8,83,0.8898305084745762
826,-1,-1,13,723,8,83,0.8899637243047158
827,1,-1,13,723,8,84,0.8888888888888888
828,-1,-1,13,724,8,84,0.8890229191797346
829,-1,-1,13,725,8,84,0.8891566265060241
830,-1,-1,13,726,8,84,0.8892900120336944
831,-1,-1,13,727,8,84,0.8894230769230769
832,-1,-1,13,728,8,84,0.8895558223289316
833,-1,-1,13,729,8,84,0.8896882494004796
834,-1,-1,13,730,8,84,0.8898203592814371
835,-1,-1,13,731,8,84,0.8899521531100478
836,-1,-1,13,732,8,84,0.8900836320191159
837,-1,-1,13,733,8,84,0.8902147971360382
838,-1,-1,13,734,8,84,0.8903456495828367
839,-1,-1,13,735,8,84,0.8904761904761904
840,-1,-1,13,736,8,84,0.8906064209274673
841,-1,-1,13,737,8,84,0.8907363420427553
842,-1,-1,13,738,8,84,0.8908659549228944
843,-1,-1,13,739,8,84,0.8909952606635071
844,-1,-1,13,740,8,84,0.8911242603550296
845,-1,-1,13,741,8,84,0.8912529550827423
846,-1,-1,13,742,8,84,0.8913813459268005
847,-1,-1,13,743,8,84,0.8915094339622641
848,-1,-1,13,744,8,84,0.8916372202591284
849,-1,-1,13,745,8,84,0.8917647058823529
850,-1,-1,13,746,8,84,0.8918918918918919
851,-1,-1,13,747,8,84,0.892018779342723
852,-1,-1,13,748,8,84,0.8921453692848769
853,-1,-1,13,749,8,84,0.892271662763466
854,-1,-1,13,750,8,84,0.8923976608187134
855,-1,-1,13,751,8,84,0.8925233644859814
856,-1,-1,13,752,8,84,0.8926487747957993
857,-1,-1,13,753,8,84,0.8927738927738927
858,-1,-1,13,754,8,84,0.8928987194412107
859,-1,-1,13,755,8,84,0.8930232558139535
860,-1,-1,13,756,8,84,0.8931475029036005
861,1,-1,13,756,8,85,0.8921113689095128
862,-1,-1,13,757,8,85,0.8922363847045192
863,-1,-1,13,758,8,85,0.8923611111111112
864,-1,-1,13,759,8,85,0.892485549132948
865,-1,-1,13,760,8,85,0.8926096997690531
866,-1,-1,13,761,8,85,0.8927335640138409
867,-1,-1,13,762,8,85,0.8928571428571429
868,-1,-1,13,763,8,85,0.8929804372842347
869,-1,-1,13,764,8,85,0.8931034482758621
870,-1,-1,13,765,8,85,0.8932261768082663
871,-1,-1,13,766,8,85,0.893348623853211
872,-1,-1,13,767,8,85,0.8934707903780069
873,-1,-1,13,768,8,85,0.8935926773455377
874,-1,-1,13,769,8,85,0.8937142857142857
875,-1,-1,13,770,8,85,0.8938356164383562
876,-1,-1,13,771,8,85,0.8939566704675028
877,-1,-1,13,772,8,85,0.8940774487471527
878,-1,-1,13,773,8,85,0.89419795221843
879,-1,-1,13,774,8,85,0.8943181818181818
880,-1,-1,13,775,8,85,0.8944381384790011
881,-1,-1,13,776,8,85,0.8945578231292517
882,-1,-1,13,777,8,85,0.8946772366930917
883,-1,-1,13,778,8,85,0.8947963800904978
884,-1,-1,13,779,8,85,0.8949152542372881
885,-1,-1,13,780,8,85,0.8950338600451467
886,-1,-1,13,781,8,85,0.895152198421646
887,-1,-1,13,782,8,85,0.8952702702702703
888,-1,-1,13,783,8,85,0.8953880764904387
889,-1,-1,13,784,8,85,0.895505617977528
890,-1,-1,13,785,8,85,0.8956228956228957
891,1,-1,13,785,8,86,0.8946188340807175
892,-1,-1,13,786,8,86,0.8947368421052632
893,1,-1,13,786,8,87,0.8937360178970917
894,-1,-1,13,787,8,87,0.8938547486033519
895,-1,-1,13,788,8,87,0.8939732142857143
896,-1,-1,13,789,8,87,0.8940914158305463
897,-1,-1,13,790,8,87,0.8942093541202673
898,-1,-1,13,791,8,87,0.8943270300333704
899,-1,-1,13,792,8,87,0.8944444444444445
900,-1,-1,13,793,8,87,0.8945615982241953
901,1,-1,13,793,8,88,0.893569844789357
902,1,-1,13,793,8,89,0.8925802879291251
903,-1,-1,13,794,8,89,0.8926991150442478
904,-1,-1,13,795,8,89,0.8928176795580111
905,-1,-1,13,796,8,89,0.8929359823399559
906,-1,-1,13,797,8,89,0.8930540242557883
907,1,1,14,797,8,89,0.8931718061674009
908,-1,-1,14,798,8,89,0.8932893289328933
909,-1,-1,14,799,8,89,0.8934065934065935
910,-1,-1,14,800,8,89,0.893523600439078
911,-1,-1,14,801,8,89,0.893640350877193
912,-1,-1,14,802,8,89,0.8937568455640745
913,-1,-1,14,803,8,89,0.8938730853391685
914,-1,1,14,803,9,89,0.892896174863388
915,-1,-1,14,804,9,89,0.8930131004366813
916,-1,-1,14,805,9,89,0.8931297709923665
917,-1,-1,14,806,9,89,0.8932461873638344
918,-1,-1,14,807,9,89,0.8933623503808488
919,-1,-1,14,808,9,89,0.8934782608695652
920,1,-1,14,808,9,90,0.8925081433224755
921,-1,-1,14,809,9,90,0.8926247288503254
922,-1,-1,14,810,9,90,0.8927410617551462
923,-1,-1,14,811,9,90,0.8928571428571429
924,-1,-1,14,812,9,90,0.892972972972973
925,-1,-1,14,813,9,90,0.8930885529157667
926,-1,-1,14,814,9,90,0.8932038834951457
927,1,-1,14,814,9,91,0.8922413793103449
928,-1,-1,14,815,9,91,0.8923573735199138
929,-1,-1,14,816,9,91,0.8924731182795699
930,-1,-1,14,817,9,91,0.8925886143931256
931,-1,-1,14,818,9,91,0.8927038626609443
932,-1,-1,14,819,9,91,0.8928188638799571
933,-1,-1,14,820,9,91,0.892933618843683
934,-1,-1,14,821,9,91,0.893048128342246
935,-1,-1,14,822,9,91,0.8931623931623932
936,-1,-1,14,823,9,91,0.8932764140875133
937,-1,-1,14,824,9,91,0.8933901918976546
938,-1,-1,14,825,9,91,0.8935037273695421
939,-1,-1,14,826,9,91,0.8936170212765957
940,-1,-1,14,827,9,91,0.8937300743889479
941,-1,-1,14,828,9,91,0.8938428874734607
942,-1,-1,14,829,9,91,0.8939554612937434
943,-1,-1,14,830,9,91,0.8940677966101694
944,-1,-1,14,831,9,91,0.8941798941798942
945,-1,-1,14,832,9,91,0.8942917547568711
946,-1,-1,14,833,9,91,0.8944033790918691
947,-1,-1,14,834,9,91,0.8945147679324894
948,-1,-1,14,835,9,91,0.8946259220231823
949,-1,-1,14,836,9,91,0.8947368421052632
950,-1,-1,14,837,9,91,0.8948475289169295
951,-1,-1,14,838,9,91,0.8949579831932774
952,1,-1,14,838,9,92,0.8940188877229801
953,-1,-1,14,839,9,92,0.8941299790356394
954,-1,-1,14,840,9,92,0.8942408376963351
955,-1,-1,14,841,9,92,0.8943514644351465
956,-1,-1,14,842,9,92,0.8944618599791013
957,-1,-1,14,843,9,92,0.894572025052192
958,-1,-1,14,844,9,92,0.894681960375391
959,-1,-1,14,845,9,92,0.8947916666666667
960,-1,-1,14,846,9,92,0.894901144640999
961,-1,-1,14,847,9,92,0.895010395010395
962,-1,-1,14,848,9,92,0.8951194184839044
963,1,-1,14,848,9,93,0.8941908713692946
964,1,-1,14,848,9,94,0.8932642487046633
965,1,-1,14,848,9,95,0.8923395445134575
966,1,-1,14,848,9,96,0.8914167528438469
967,-1,-1,14,849,9,96,0.8915289256198347
968,-1,-1,14,850,9,96,0.891640866873065
969,-1,-1,14,851,9,96,0.8917525773195877
970,-1,-1,14,852,9,96,0.8918640576725025
971,-1,-1,14,853,9,96,0.8919753086419753
972,-1,-1,14,854,9,96,0.8920863309352518
973,-1,-1,14,855,9,96,0.8921971252566735
974,-1,-1,14,856,9,96,0.8923076923076924
975,-1,-1,14,857,9,96,0.8924180327868853
976,1,-1,14,857,9,97,0.8915046059365405
977,-1,-1,14,858,9,97,0.8916155419222904
978,-1,-1,14,859,9,97,0.891726251276813
979,-1,-1,14,860,9,97,0.8918367346938776
980,-1,-1,14,861,9,97,0.891946992864424
981,-1,-1,14,862,9,97,0.8920570264765784
982,-1,-1,14,863,9,97,0.8921668362156663
983,-1,-1,14,864,9,97,0.8922764227642277
984,-1,-1,14,865,9,97,0.8923857868020305
985,-1,-1,14,866,9,97,0.8924949290060852
986,-1,-1,14,867,9,97,0.8926038500506586
987,-1,-1,14,868,9,97,0.8927125506072875
988,-1,-1,14,869,9,97,0.8928210313447927
989,-1,-1,14,870,9,97,0.8929292929292929
990,-1,-1,14,871,9,97,0.893037336024218
991,-1,-1,14,872,9,97,0.8931451612903226
992,-1,-1,14,873,9,97,0.8932527693856999
993,-1,-1,14,874,9,97,0.8933601609657947
994,1,1,15,874,9,97,0.893467336683417
995,-1,-1,15,875,9,97,0.893574297188755
996,-1,-1,15,876,9,97,0.8936810431293881
997,-1,-1,15,877,9,97,0.8937875751503006
998,-1,-1,15,878,9,97,0.8938938938938938
999,-1,-1,15,879,9,97,0.894
1000,-1,-1,15,880,9,97,0.8941058941058941
1001,-1,-1,15,881,9,97,0.8942115768463074
1002,-1,-1,15,882,9,97,0.8943170488534397
1003,-1,-1,15,883,9,97,0.8944223107569721
1004,-1,-1,15,884,9,97,0.8945273631840795
1005,-1,-1,15,885,9,97,0.8946322067594433
1006,-1,1,15,885,10,97,0.8937437934458788
1007,-1,-1,15,886,10,97,0.8938492063492064
1008,-1,-1,15,887,10,97,0.8939544103072349
1009,1,-1,15,887,10,98,0.8930693069306931
1010,-1,-1,15,888,10,98,0.8931750741839762
1011,-1,-1,15,889,10,98,0.8932806324110671
1012,1,1,16,889,10,98,0.8933859822309971
1013,-1,-1,16,890,10,98,0.893491124260355
1014,-1,-1,16,891,10,98,0.8935960591133005
1015,-1,-1,16,892,10,98,0.8937007874015748
1016,-1,-1,16,893,10,98,0.8938053097345132
1017,1,-1,16,893,10,99,0.8929273084479371
1018,-1,-1,16,894,10,99,0.8930323846908734
1019,-1,-1,16,895,10,99,0.8931372549019608
1020,-1,-1,16,896,10,99,0.8932419196865817
1021,-1,-1,16,897,10,99,0.8933463796477495
1022,-1,-1,16,898,10,99,0.8934506353861192
1023,-1,-1,16,899,10,99,0.8935546875
1024,-1,-1,16,900,10,99,0.8936585365853659
1025,-1,-1,16,901,10,99,0.8937621832358674
1026,-1,-1,16,902,10,99,0.8938656280428432
1027,-1,-1,16,903,10,99,0.8939688715953308
1028,1,-1,16,903,10,100,0.8931000971817298
1029,1,-1,16,903,10,101,0.8922330097087379
1030,-1,-1,16,904,10,101,0.8923375363724539
1031,-1,-1,16,905,10,101,0.8924418604651163
1032,1,-1,16,905,10,102,0.8915779283639884
1033,-1,-1,16,906,10,102,0.8916827852998066
1034,1,-1,16,906,10,103,0.8908212560386474
1035,1,-1,16,906,10,104,0.88996138996139
1036,-1,-1,16,907,10,104,0.8900675024108003
1037,-1,-1,16,908,10,104,0.8901734104046243
1038,-1,-1,16,909,10,104,0.890279114533205
1039,-1,-1,16,910,10,104,0.8903846153846153
1040,-1,-1,16,911,10,104,0.8904899135446686
1041,-1,-1,16,912,10,104,0.8905950095969289
1042,-1,-1,16,913,10,104,0.8906999041227229
1043,-1,-1,16,914,10,104,0.8908045977011494
1044,-1,-1,16,915,10,104,0.8909090909090909
1045,-1,-1,16,916,10,104,0.8910133843212237
1046,-1,-1,16,917,10,104,0.8911174785100286
1047,-1,-1,16,918,10,104,0.8912213740458015
1048,-1,-1,16,919,10,104,0.8913250714966635
1049,-1,-1,16,920,10,104,0.8914285714285715
1050,-1,-1,16,921,10,104,0.8915318744053282
1051,-1,-1,16,922,10,104,0.8916349809885932
1052,-1,-1,16,923,10,104,0.8917378917378918
1053,-1,-1,16,924,10,104,0.8918406072106262
1054,-1,-1,16,925,10,104,0.8919431279620853
1055,-1,-1,16,926,10,104,0.8920454545454546
1056,-1,-1,16,927,10,104,0.8921475875118259
1057,-1,-1,16,928,10,104,0.8922495274102079
1058,1,-1,16,928,10,105,0.8914069877242682
1059,-1,-1,16,929,10,105,0.8915094339622641
1060,-1,-1,16,930,10,105,0.8916116870876531
1061,-1,-1,16,931,10,105,0.891713747645951
1062,1,-1,16,931,10,106,0.8908748824082785
1063,-1,1,16,931,11,106,0.8900375939849624
1064,-1,-1,16,932,11,106,0.8901408450704226
1065,-1,-1,16,933,11,106,0.8902439024390244
1066,-1,1,16,933,12,106,0.8894095595126523
1067,-1,-1,16,934,12,106,0.8895131086142322
1068,-1,-1,16,935,12,106,0.8896164639850327
1069,1,-1,16,935,12,107,0.888785046728972
1070,-1,-1,16,936,12,107,0.8888888888888888
1071,1,1,17,936,12,107,0.8889925373134329
1072,-1,-1,17,937,12,107,0.8890959925442684
1073,-1,-1,17,938,12,107,0.8891992551210428
1074,-1,-1,17,939,12,107,0.8893023255813953
1075,-1,-1,17,940,12,107,0.8894052044609665
1076,-1,-1,17,941,12,107,0.8895078922934077
1077,-1,-1,17,942,12,107,0.8896103896103896
1078,-1,-1,17,943,12,107,0.8897126969416126
1079,1,-1,17,943,12,108,0.8888888888888888
1080,1,1,18,943,12,108,0.8889916743755781
1081,1,-1,18,943,12,109,0.8881700554528651
1082,-1,-1,18,944,12,109,0.8882733148661126
1083,-1,-1,18,945,12,109,0.8883763837638377
1084,-1,-1,18,946,12,109,0.8884792626728111
1085,-1,-1,18,947,12,109,0.8885819521178637
1086,-1,-1,18,948,12,109,0.8886844526218951
1087,1,-1,18,948,12,110,0.8878676470588235
1088,-1,-1,18,949,12,110,0.8879706152433425
1089,1,-1,18,949,12,111,0.8871559633027523
1090,-1,-1,18,950,12,111,0.8872593950504125
1091,-1,-1,18,951,12,111,0.8873626373626373
1092,1,-1,18,951,12,112,0.8865507776761208
1093,-1,-1,18,952,12,112,0.886654478976234
1094,1,-1,18,952,12,113,0.8858447488584474
1095,-1,-1,18,953,12,113,0.8859489051094891
1096,-1,-1,18,954,12,113,0.886052871467639
1097,-1,-1,18,955,12,113,0.8861566484517304
1098,-1,-1,18,956,12,113,0.8862602365787079
1099,-1,-1,18,957,12,113,0.8863636363636364
1100,-1,-1,18,958,12,113,0.8864668483197093
1101,-1,-1,18,959,12,113,0.8865698729582577
1102,-1,-1,18,960,12,113,0.886672710788758
1103,-1,-1,18,961,12,113,0.8867753623188406
1104,-1,-1,18,962,12,113,0.8868778280542986
1105,-1,-1,18,963,12,113,0.8869801084990958
1106,-1,-1,18,964,12,113,0.8870822041553749
1107,-1,-1,18,965,12,113,0.8871841155234657
1108,-1,-1,18,966,12,113,0.8872858431018936
1109,-1,-1,18,967,12,113,0.8873873873873874
1110,-1,-1,18,968,12,113,0.8874887488748875
1111,-1,-1,18,969,12,113,0.887589928057554
1112,-1,-1,18,970,12,113,0.8876909254267745
1113,-1,-1,18,971,12,113,0.8877917414721723
1114,-1,-1,18,972,12,113,0.8878923766816144
1115,-1,-1,18,973,12,113,0.8879928315412187
1116,-1,-1,18,974,12,113,0.8880931065353626
1117,-1,-1,18,975,12,113,0.8881932021466905
1118,-1,-1,18,976,12,113,0.8882931188561215
1119,-1,-1,18,977,12,113,0.8883928571428571
1120,-1,-1,18,978,12,113,0.8884924174843889
1121,-1,-1,18,979,12,113,0.8885918003565062
1122,-1,-1,18,980,12,113,0.8886910062333037
1123,-1,-1,18,981,12,113,0.8887900355871886
1124,-1,-1,18,982,12,113,0.8888888888888888
1125,1,-1,18,982,12,114,0.8880994671403197
1126,-1,-1,18,983,12,114,0.8881987577639752
1127,-1,-1,18,984,12,114,0.8882978723404256
1128,-1,-1,18,985,12,114,0.8883968113374667
1129,-1,-1,18,986,12,114,0.8884955752212389
1130,-1,-1,18,987,12,114,0.8885941644562334
1131,-1,-1,18,988,12,114,0.8886925795053003
1132,-1,-1,18,989,12,114,0.8887908208296558
1133,-1,-1,18,990,12,114,0.8888888888888888
1134,-1,-1,18,991,12,114,0.8889867841409692
1135,1,-1,18,991,12,115,0.8882042253521126
1136,-1,-1,18,992,12,115,0.8883025505716798
1137,-1,-1,18,993,12,115,0.8884007029876977
1138,-1,-1,18,994,12,115,0.8884986830553117
1139,-1,-1,18,995,12,115,0.8885964912280702
1140,1,-1,18,995,12,116,0.887817703768624
1141,-1,-1,18,996,12,116,0.8879159369527145
1142,-1,-1,18,997,12,116,0.8880139982502188
1143,1,-1,18,997,12,117,0.8872377622377622
1144,-1,-1,18,998,12,117,0.8873362445414847
1145,-1,-1,18,999,12,117,0.887434554973822
1146,-1,-1,18,1000,12,117,0.8875326939843069
1147,1,-1,18,1000,12,118,0.8867595818815331
1148,-1,-1,18,1001,12,118,0.886858137510879
1149,-1,-1,18,1002,12,118,0.8869565217391304
1150,-1,-1,18,1003,12,118,0.8870547350130321
1151,-1,-1,18,1004,12,118,0.8871527777777778
1152,-1,-1,18,1005,12,118,0.8872506504770165
1153,-1,-1,18,1006,12,118,0.8873483535528596
1154,1,-1,18,1006,12,119,0.8865800865800866
1155,-1,-1,18,1007,12,119,0.8866782006920415
1156,-1,-1,18,1008,12,119,0.8867761452031115
1157,-1,-1,18,1009,12,119,0.886873920552677
1158,-1,-1,18,1010,12,119,0.8869715271786023
1159,-1,-1,18,1011,12,119,0.8870689655172413
1160,-1,-1,18,1012,12,119,0.8871662360034454
1161,-1,-1,18,1013,12,119,0.887263339070568
1162,-1,-1,18,1014,12,119,0.8873602751504729
1163,-1,-1,18,1015,12,119,0.8874570446735395
1164,-1,-1,18,1016,12,119,0.8875536480686695
1165,-1,-1,18,1017,12,119,0.8876500857632933
1166,-1,-1,18,1018,12,119,0.8877463581833762
1167,-1,-1,18,1019,12,119,0.8878424657534246
1168,-1,-1,18,1020,12,119,0.8879384088964928
1169,-1,-1,18,1021,12,119,0.888034188034188
1170,-1,-1,18,1022,12,119,0.888129803586678
1171,-1,-1,18,1023,12,119,0.8882252559726962
1172,-1,-1,18,1024,12,119,0.8883205456095482
1173,-1,-1,18,1025,12,119,0.8884156729131175
1174,-1,-1,18,1026,12,119,0.8885106382978724
1175,-1,-1,18,1027,12,119,0.8886054421768708
1176,-1,-1,18,1028,12,119,0.8887000849617672
1177,-1,-1,18,1029,12,119,0.8887945670628183
1178,1,-1,18,1029,12,120,0.8880407124681934
1179,-1,-1,18,1030,12,120,0.888135593220339
1180,-1,-1,18,1031,12,120,0.8882303132938189
1181,-1,-1,18,1032,12,120,0.8883248730964467
1182,-1,-1,18,1033,12,120,0.8884192730346576
1183,-1,-1,18,1034,12,120,0.8885135135135135
1184,1,-1,18,1034,12,121,0.8877637130801688
1185,-1,-1,18,1035,12,121,0.887858347386172
1186,-1,-1,18,1036,12,121,0.8879528222409435
1187,-1,-1,18,1037,12,121,0.8880471380471381
1188,-1,-1,18,1038,12,121,0.8881412952060556
1189,-1,-1,18,1039,12,121,0.888235294117647
1190,-1,-1,18,1040,12,121,0.8883291351805206
1191,-1,-1,18,1041,12,121,0.8884228187919463
1192,1,-1,18,1041,12,122,0.8876781223805532
1193,-1,-1,18,1042,12,122,0.8877721943048577
1194,-1,-1,18,1043,12,122,0.8878661087866109
1195,1,-1,18,1043,12,123,0.887123745819398
1196,-1,-1,18,1044,12,123,0.8872180451127819
1197,-1,-1,18,1045,12,123,0.8873121869782972
1198,-1,-1,18,1046,12,123,0.8874061718098415
1199,-1,-1,18,1047,12,123,0.8875
1200,-1,-1,18,1048,12,123,0.88759367194005
1201,-1,-1,18,1049,12,123,0.8876871880199667
1202,-1,-1,18,1050,12,123,0.8877805486284289
1203,-1,-1,18,1051,12,123,0.8878737541528239
1204,1,1,19,1051,12,123,0.8879668049792531
1205,-1,-1,19,1052,12,123,0.8880597014925373
1206,-1,-1,19,1053,12,123,0.8881524440762221
1207,-1,-1,19,1054,12,123,0.8882450331125827
1208,-1,-1,19,1055,12,123,0.8883374689826302
1209,-1,-1,19,1056,12,123,0.8884297520661157
1210,-1,-1,19,1057,12,123,0.8885218827415359
1211,1,-1,19,1057,12,124,0.8877887788778878
1212,-1,-1,19,1058,12,124,0.887881286067601
1213,-1,-1,19,1059,12,124,0.8879736408566722
1214,-1,-1,19,1060,12,124,0.8880658436213992
1215,-1,-1,19,1061,12,124,0.8881578947368421
1216,-1,-1,19,1062,12,124,0.8882497945768283
1217,-1,-1,19,1063,12,124,0.8883415435139573
1218,-1,-1,19,1064,12,124,0.8884331419196062
1219,-1,-1,19,1065,12,124,0.8885245901639345
1220,-1,-1,19,1066,12,124,0.8886158886158886
1221,-1,-1,19,1067,12,124,0.8887070376432079
1222,-1,-1,19,1068,12,124,0.8887980376124285
1223,-1,-1,19,1069,12,124,0.8888888888888888
1224,-1,-1,19,1070,12,124,0.8889795918367347
1225,1,-1,19,1070,12,125,0.8882544861337683
1226,1,-1,19,1070,12,126,0.8875305623471883
1227,-1,-1,19,1071,12,126,0.8876221498371335
1228,-1,-1,19,1072,12,126,0.887713588283157
1229,-1,-1,19,1073,12,126,0.8878048780487805
1230,-1,-1,19,1074,12,126,0.8878960194963444
1231,-1,-1,19,1075,12,126,0.887987012987013
1232,-1,-1,19,1076,12,126,0.8880778588807786
1233,-1,-1,19,1077,12,126,0.8881685575364667
1234,-1,-1,19,1078,12,126,0.8882591093117409
1235,-1,-1,19,1079,12,126,0.8883495145631068
1236,-1,-1,19,1080,12,126,0.8884397736459175
1237,-1,-1,19,1081,12,126,0.8885298869143781
1238,-1,-1,19,1082,12,126,0.8886198547215496
1239,-1,-1,19,1083,12,126,0.8887096774193548
1240,-1,1,19,1083,13,126,0.8879935535858179
1241,-1,-1,19,1084,13,126,0.8880837359098228
1242,-1,-1,19,1085,13,126,0.8881737731295254
1243,-1,-1,19,1086,13,126,0.8882636655948553
1244,-1,-1,19,1087,13,126,0.8883534136546185
1245,1,-1,19,1087,13,127,0.8876404494382022
1246,-1,-1,19,1088,13,127,0.8877305533279871
1247,-1,-1,19,1089,13,127,0.8878205128205128
1248,-1,-1,19,1090,13,127,0.8879103282626101
1249,-1,-1,19,1091,13,127,0.888
1250,-1,-1,19,1092,13,127,0.8880895283772982
1251,-1,-1,19,1093,13,127,0.8881789137380192
1252,-1,-1,19,1094,13,127,0.888268156424581
1253,-1,-1,19,1095,13,127,0.8883572567783095
1254,-1,-1,19,1096,13,127,0.8884462151394422
1255,-1,-1,19,1097,13,127,0.8885350318471338
1256,-1,-1,19,1098,13,127,0.888623707239459
1257,-1,-1,19,1099,13,127,0.8887122416534181
1258,-1,-1,19,1100,13,127,0.8888006354249405
1259,-1,-1,19,1101,13,127,0.8888888888888888
1260,-1,-1,19,1102,13,127,0.8889770023790642
1261,-1,-1,19,1103,13,127,0.8890649762282092
1262,-1,-1,19,1104,13,127,0.8891528107680127
1263,-1,-1,19,1105,13,127,0.8892405063291139
1264,-1,-1,19,1106,13,127,0.8893280632411067
1265,-1,-1,19,1107,13,127,0.8894154818325435
1266,-1,-1,19,1108,13,127,0.8895027624309392
1267,-1,-1,19,1109,13,127,0.889589905362776
1268,-1,-1,19,1110,13,127,0.8896769109535066
1269,-1,-1,19,1111,13,127,0.889763779527559
1270,-1,-1,19,1112,13,127,0.8898505114083399
1271,-1,-1,19,1113,13,127,0.889937106918239
1272,-1,-1,19,1114,13,127,0.8900235663786331
1273,1,-1,19,1114,13,128,0.8893249607535322
1274,-1,-1,19,1115,13,128,0.8894117647058823
1275,-1,-1,19,1116,13,128,0.8894984326018809
1276,-1,-1,19,1117,13,128,0.889584964761159
1277,-1,-1,19,1118,13,128,0.8896713615023474
1278,-1,-1,19,1119,13,128,0.8897576231430805
1279,-1,-1,19,1120,13,128,0.88984375
1280,-1,-1,19,1121,13,128,0.8899297423887588
1281,-1,-1,19,1122,13,128,0.890015600624025
1282,-1,-1,19,1123,13,128,0.8901013250194856
1283,-1,-1,19,1124,13,128,0.8901869158878505
1284,-1,-1,19,1125,13,128,0.890272373540856
1285,-1,-1,19,1126,13,128,0.890357698289269
1286,-1,-1,19,1127,13,128,0.8904428904428905
1287,-1,-1,19,1128,13,128,0.890527950310559
1288,-1,-1,19,1129,13,128,0.8906128782001551
1289,1,-1,19,1129,13,129,0.889922480620155
1290,-1,-1,19,1130,13,129,0.8900077459333849
1291,-1,-1,19,1131,13,129,0.8900928792569659
1292,-1,1,19,1131,14,129,0.8894044856921887
1293,-1,-1,19,1132,14,129,0.8894899536321483
1294,-1,-1,19,1133,14,129,0.8895752895752895
1295,-1,-1,19,1134,14,129,0.8896604938271605
1296,-1,-1,19,1135,14,129,0.889745566692367
1297,-1,-1,19,1136,14,129,0.8898305084745762
1298,-1,-1,19,1137,14,129,0.8899153194765204
1299,-1,-1,19,1138,14,129,0.89
1300,-1,-1,19,1139,14,129,0.8900845503458877
1301,-1,-1,19,1140,14,129,0.8901689708141322
1302,1,-1,19,1140,14,130,0.8894858019953953
1303,-1,-1,19,1141,14,130,0.8895705521472392
1304,-1,-1,19,1142,14,130,0.8896551724137931
1305,-1,-1,19,1143,14,130,0.889739663093415
1306,-1,-1,19,1144,14,130,0.8898240244835501
1307,-1,-1,19,1145,14,130,0.8899082568807339
1308,-1,-1,19,1146,14,130,0.8899923605805958
1309,1,-1,19,1146,14,131,0.8893129770992366
1310,-1,-1,19,1147,14,131,0.889397406559878
1311,-1,-1,19,1148,14,131,0.8894817073170732
1312,1,-1,19,1148,14,132,0.8888042650418888
1313,-1,-1,19,1149,14,132,0.8888888888888888
1314,-1,-1,19,1150,14,132,0.8889733840304183
1315,-1,-1,19,1151,14,132,0.8890577507598785
1316,-1,-1,19,1152,14,132,0.8891419893697798
1317,-1,-1,19,1153,14,132,0.8892261001517451
1318,-1,-1,19,1154,14,132,0.8893100833965125
1319,-1,-1,19,1155,14,132,0.8893939393939394
1320,-1,-1,19,1156,14,132,0.8894776684330054
1321,-1,-1,19,1157,14,132,0.8895612708018155
1322,-1,-1,19,1158,14,132,0.889644746787604
1323,-1,-1,19,1159,14,132,0.8897280966767371
1324,-1,-1,19,1160,14,132,0.889811320754717
1325,-1,-1,19,1161,14,132,0.889894419306184
1326,1,-1,19,1161,14,133,0.8892238131122834
1327,1,1,20,1161,14,133,0.8893072289156626
1328,-1,-1,20,1162,14,133,0.8893905191873589
1329,-1,-1,20,1163,14,133,0.8894736842105263
1330,-1,-1,20,1164,14,133,0.8895567242674681
1331,-1,-1,20,1165,14,133,0.8896396396396397
1332,-1,-1,20,1166,14,133,0.8897224306076519
1333,-1,-1,20,1167,14,133,0.8898050974512743
1334,-1,-1,20,1168,14,133,0.8898876404494382
1335,-1,-1,20,1169,14,133,0.8899700598802395
1336,-1,-1,20,1170,14,133,0.8900523560209425
1337,-1,-1,20,1171,14,133,0.8901345291479821
1338,1,-1,20,1171,14,134,0.8894697535474234
1339,-1,-1,20,1172,14,134,0.8895522388059701
1340,-1,-1,20,1173,14,134,0.889634601043997
1341,-1,-1,20,1174,14,134,0.8897168405365127
1342,-1,-1,20,1175,14,134,0.8897989575577067
1343,-1,-1,20,1176,14,134,0.8898809523809523
1344,-1,-1,20,1177,14,134,0.8899628252788104
1345,-1,-1,20,1178,14,134,0.8900445765230312
1346,-1,-1,20,1179,14,134,0.8901262063845583
1347,-1,-1,20,1180,14,134,0.8902077151335311
1348,-1,-1,20,1181,14,134,0.8902891030392883
1349,-1,-1,20,1182,14,134,0.8903703703703704
1350,-1,-1,20,1183,14,134,0.8904515173945226
1351,-1,-1,20,1184,14,134,0.8905325443786982
1352,-1,-1,20,1185,14,134,0.8906134515890614
1353,-1,-1,20,1186,14,134,0.8906942392909897
1354,-1,-1,20,1187,14,134,0.8907749077490775
1355,-1,-1,20,1188,14,134,0.8908554572271387
1356,-1,-1,20,1189,14,134,0.8909358879882093
1357,-1,-1,20,1190,14,134,0.8910162002945509
1358,-1,-1,20,1191,14,134,0.8910963944076526
1359,-1,-1,20,1192,14,134,0.8911764705882353
1360,-1,-1,20,1193,14,134,0.8912564290962528
1361,-1,-1,20,1194,14,134,0.8913362701908958
1362,-1,-1,20,1195,14,134,0.8914159941305942
1363,-1,-1,20,1196,14,134,0.8914956011730205
1364,-1,-1,20,1197,14,134,0.8915750915750916
1365,-1,-1,20,1198,14,134,0.8916544655929722
1366,-1,-1,20,1199,14,134,0.8917337234820776
1367,-1,-1,20,1200,14,134,0.8918128654970761
1368,-1,-1,20,1201,14,134,0.8918918918918919
1369,-1,-1,20,1202,14,134,0.891970802919708
1370,-1,-1,20,1203,14,134,0.8920495988329686
1371,-1,-1,20,1204,14,134,0.892128279883382
1372,-1,-1,20,1205,14,134,0.8922068463219228
1373,-1,-1,20,1206,14,134,0.8922852983988355
1374,-1,-1,20,1207,14,134,0.8923636363636364
1375,-1,-1,20,1208,14,134,0.8924418604651163
1376,-1,-1,20,1209,14,134,0.8925199709513435
1377,-1,-1,20,1210,14,134,0.8925979680696662
1378,-1,-1,20,1211,14,134,0.892675852066715
1379,-1,-1,20,1212,14,134,0.8927536231884058
1380,-1,-1,20,1213,14,134,0.8928312816799421
1381,1,-1,20,1213,14,135,0.8921852387843705
1382,-1,-1,20,1214,14,135,0.8922631959508315
1383,-1,-1,20,1215,14,135,0.8923410404624278
1384,-1,-1,20,1216,14,135,0.8924187725631769
1385,-1,-1,20,1217,14,135,0.8924963924963925
1386,-1,-1,20,1218,14,135,0.8925739005046863
1387,-1,-1,20,1219,14,135,0.8926512968299711
1388,-1,-1,20,1220,14,135,0.8927285817134629
1389,-1,-1,20,1221,14,135,0.8928057553956834
1390,1,-1,20,1221,14,136,0.8921639108554996
1391,-1,-1,20,1222,14,136,0.8922413793103449
1392,-1,-1,20,1223,14,136,0.8923187365398421
1393,-1,-1,20,1224,14,136,0.8923959827833573
1394,1,-1,20,1224,14,137,0.8917562724014337
1395,-1,-1,20,1225,14,137,0.8918338108882522
1396,-1,-1,20,1226,14,137,0.8919112383679313
1397,-1,-1,20,1227,14,137,0.8919885550786838
1398,-1,-1,20,1228,14,137,0.8920657612580415
1399,-1,-1,20,1229,14,137,0.8921428571428571
1400,-1,-1,20,1230,14,137,0.8922198429693077
1401,-1,-1,20,1231,14,137,0.8922967189728959
1402,-1,-1,20,1232,14,137,0.8923734853884533
1403,1,-1,20,1232,14,138,0.8917378917378918
1404,-1,-1,20,1233,14,138,0.8918149466192171
1405,-1,-1,20,1234,14,138,0.8918918918918919
1406,-1,-1,20,1235,14,138,0.8919687277896233
1407,-1,-1,20,1236,14,138,0.8920454545454546
1408,-1,-1,20,1237,14,138,0.8921220723917672
1409,-1,-1,20,1238,14,138,0.8921985815602836
1410,-1,-1,20,1239,14,138,0.8922749822820695
1411,-1,-1,20,1240,14,138,0.8923512747875354
1412,-1,-1,20,1241,14,138,0.8924274593064402
1413,-1,-1,20,1242,14,138,0.8925035360678925
1414,-1,-1,20,1243,14,138,0.8925795053003533
1415,-1,-1,20,1244,14,138,0.8926553672316384
1416,-1,-1,20,1245,14,138,0.8927311220889202
1417,-1,-1,20,1246,14,138,0.8928067700987306
1418,1,-1,20,1246,14,139,0.8921775898520085
1419,-1,-1,20,1247,14,139,0.8922535211267606
1420,-1,-1,20,1248,14,139,0.8923293455313159
1421,1,-1,20,1248,14,140,0.8917018284106891
1422,-1,-1,20,1249,14,140,0.8917779339423753
1423,-1,-1,20,1250,14,140,0.8918539325842697
1424,-1,-1,20,1251,14,140,0.8919298245614035
1425,-1,-1,20,1252,14,140,0.8920056100981767
1426,-1,-1,20,1253,14,140,0.8920812894183602
1427,-1,-1,20,1254,14,140,0.8921568627450981
1428,-1,-1,20,1255,14,140,0.8922323303009098
1429,1,-1,20,1255,14,141,0.8916083916083916
1430,-1,-1,20,1256,14,141,0.8916841369671559
1431,-1,-1,20,1257,14,141,0.8917597765363129
1432,-1,-1,20,1258,14,141,0.8918353105373342
1433,-1,-1,20,1259,14,141,0.8919107391910739
1434,-1,-1,20,1260,14,141,0.89198606271777
1435,-1,-1,20,1261,14,141,0.8920612813370473
1436,1,-1,20,1261,14,142,0.8914405010438413
1437,-1,-1,20,1262,14,142,0.8915159944367177
1438,-1,-1,20,1263,14,142,0.891591382904795
1439,-1,-1,20,1264,14,142,0.8916666666666667
1440,-1,-1,20,1265,14,142,0.8917418459403192
1441,-1,-1,20,1266,14,142,0.8918169209431346
1442,-1,-1,20,1267,14,142,0.8918918918918919
1443,-1,-1,20,1268,14,142,0.8919667590027701
1444,-1,-1,20,1269,14,142,0.8920415224913495
1445,-1,-1,20,1270,14,142,0.8921161825726142
1446,-1,-1,20,1271,14,142,0.8921907394609537
1447,-1,-1,20,1272,14,142,0.8922651933701657
1448,-1,-1,20,1273,14,142,0.8923395445134575
1449,1,1,21,1273,14,142,0.8924137931034483
1450,-1,1,21,1273,15,142,0.8917987594762233
1451,-1,-1,21,1274,15,142,0.8918732782369146
1452,1,-1,21,1274,15,143,0.8912594631796283
1453,-1,-1,21,1275,15,143,0.8913342503438789
1454,-1,-1,21,1276,15,143,0.8914089347079038
1455,1,-1,21,1276,15,144,0.8907967032967034
1456,-1,-1,21,1277,15,144,0.8908716540837337
1457,-1,-1,21,1278,15,144,0.8909465020576132
1458,-1,-1,21,1279,15,144,0.8910212474297464
1459,-1,-1,21,1280,15,144,0.8910958904109589
1460,1,-1,21,1280,15,145,0.890485968514716
1461,-1,-1,21,1281,15,145,0.8905608755129959
1462,-1,-1,21,1282,15,145,0.8906356801093643
1463,-1,-1,21,1283,15,145,0.8907103825136612
1464,-1,-1,21,1284,15,145,0.8907849829351536
1465,-1,-1,21,1285,15,145,0.8908594815825375
1466,-1,-1,21,1286,15,145,0.89093387866394
1467,-1,-1,21,1287,15,145,0.8910081743869209
1468,-1,-1,21,1288,15,145,0.8910823689584751
1469,-1,-1,21,1289,15,145,0.891156462585034
1470,-1,-1,21,1290,15,145,0.8912304554724677
1471,-1,-1,21,1291,15,145,0.8913043478260869
1472,-1,-1,21,1292,15,145,0.891378139850645
1473,-1,-1,21,1293,15,145,0.8914518317503393
1474,-1,-1,21,1294,15,145,0.8915254237288136
1475,-1,-1,21,1295,15,145,0.8915989159891599
1476,-1,-1,21,1296,15,145,0.8916723087339201
1477,-1,-1,21,1297,15,145,0.8917456021650879
1478,-1,-1,21,1298,15,145,0.8918187964841109
1479,-1,-1,21,1299,15,145,0.8918918918918919
1480,-1,-1,21,1300,15,145,0.8919648885887913
1481,-1,-1,21,1301,15,145,0.8920377867746289
1482,-1,-1,21,1302,15,145,0.8921105866486851
1483,1,-1,21,1302,15,146,0.8915094339622641
1484,-1,-1,21,1303,15,146,0.8915824915824916
1485,-1,-1,21,1304,15,146,0.8916554508748318
1486,-1,-1,21,1305,15,146,0.8917283120376597
1487,-1,-1,21,1306,15,146,0.8918010752688172
1488,-1,-1,21,1307,15,146,0.8918737407656145
1489,1,-1,21,1307,15,147,0.8912751677852349
1490,-1,-1,21,1308,15,147,0.8913480885311871
1491,-1,-1,21,1309,15,147,0.8914209115281502
1492,-1,-1,21,1310,15,147,0.8914936369725385
1493,-1,-1,21,1311,15,147,0.891566265060241
1494,-1,-1,21,1312,15,147,0.8916387959866221
1495,-1,-1,21,1313,15,147,0.8917112299465241
1496,-1,1,21,1313,16,147,0.8911155644622578
1497,-1,-1,21,1314,16,147,0.8911882510013351
1498,-1,-1,21,1315,16,147,0.8912608405603736
1499,-1,-1,21,1316,16,147,0.8913333333333333
1500,-1,-1,21,1317,16,147,0.8914057295136576
1501,-1,-1,21,1318,16,147,0.8914780292942743
1502,-1,-1,21,1319,16,147,0.8915502328675982
1503,-1,-1,21,1320,16,147,0.8916223404255319
1504,-1,-1,21,1321,16,147,0.8916943521594685
1505,-1,-1,21,1322,16,147,0.8917662682602921
1506,-1,-1,21,1323,16,147,0.8918380889183809
1507,-1,-1,21,1324,16,147,0.8919098143236074
1508,-1,-1,21,1325,16,147,0.8919814446653412
1509,-1,-1,21,1326,16,147,0.8920529801324504
1510,-1,-1,21,1327,16,147,0.8921244209133025
1511,-1,-1,21,1328,16,147,0.8921957671957672
1512,-1,-1,21,1329,16,147,0.8922670191672174
1513,1,-1,21,1329,16,148,0.8916776750330251
1514,-1,-1,21,1330,16,148,0.8917491749174917
1515,-1,-1,21,1331,16,148,0.8918205804749341
1516,-1,-1,21,1332,16,148,0.8918918918918919
1517,-1,-1,21,1333,16,148,0.8919631093544137
1518,-1,-1,21,1334,16,148,0.892034233048058
1519,1,-1,21,1334,16,149,0.8914473684210527
1520,-1,-1,21,1335,16,149,0.8915187376725838
1521,-1,-1,21,1336,16,149,0.8915900131406045
1522,-1,-1,21,1337,16,149,0.891661195009849
1523,-1,-1,21,1338,16,149,0.8917322834645669
1524,-1,-1,21,1339,16,149,0.8918032786885246
1525,-1,-1,21,1340,16,149,0.8918741808650066
1526,-1,-1,21,1341,16,149,0.8919449901768173
1527,-1,-1,21,1342,16,149,0.8920157068062827
1528,-1,-1,21,1343,16,149,0.8920863309352518
1529,-1,-1,21,1344,16,149,0.8921568627450981
1530,-1,-1,21,1345,16,149,0.8922273024167211
1531,-1,-1,21,1346,16,149,0.8922976501305483
1532,-1,-1,21,1347,16,149,0.8923679060665362
1533,-1,-1,21,1348,16,149,0.8924380704041721
1534,-1,-1,21,1349,16,149,0.8925081433224755
1535,-1,-1,21,1350,16,149,0.892578125
1536,-1,-1,21,1351,16,149,0.8926480156148341
1537,-1,-1,21,1352,16,149,0.8927178153446034
1538,-1,-1,21,1353,16,149,0.8927875243664717
1539,-1,-1,21,1354,16,149,0.8928571428571429
1540,-1,-1,21,1355,16,149,0.8929266709928618
1541,-1,-1,21,1356,16,149,0.8929961089494164
1542,-1,-1,21,1357,16,149,0.8930654569021387
1543,-1,-1,21,1358,16,149,0.8931347150259067
1544,-1,-1,21,1359,16,149,0.8932038834951457
1545,-1,-1,21,1360,16,149,0.8932729624838293
1546,-1,-1,21,1361,16,149,0.8933419521654816
1547,-1,-1,21,1362,16,149,0.8934108527131783
1548,-1,-1,21,1363,16,149,0.8934796642995481
1549,-1,-1,21,1364,16,149,0.8935483870967742
1550,1,-1,21,1364,16,150,0.8929722759509994
1551,-1,-1,21,1365,16,150,0.8930412371134021
1552,-1,-1,21,1366,16,150,0.8931101094655506
1553,-1,-1,21,1367,16,150,0.8931788931788932
1554,-1,-1,21,1368,16,150,0.8932475884244373
1555,-1,-1,21,1369,16,150,0.8933161953727506
1556,-1,-1,21,1370,16,150,0.8933847141939627
1557,-1,-1,21,1371,16,150,0.8934531450577664
1558,-1,-1,21,1372,16,150,0.8935214881334188
1559,-1,-1,21,1373,16,150,0.8935897435897436
1560,-1,-1,21,1374,16,150,0.8936579115951313
1561,-1,-1,21,1375,16,150,0.8937259923175416
1562,1,-1,21,1375,16,151,0.8931541906589892
1563,-1,-1,21,1376,16,151,0.8932225063938619
1564,-1,-1,21,1377,16,151,0.8932907348242811
1565,1,-1,21,1377,16,152,0.89272030651341
1566,-1,-1,21,1378,16,152,0.8927887683471601
1567,-1,-1,21,1379,16,152,0.8928571428571429
1568,-1,-1,21,1380,16,152,0.892925430210325
1569,-1,-1,21,1381,16,152,0.8929936305732484
1570,-1,-1,21,1382,16,152,0.8930617441120305
1571,-1,-1,21,1383,16,152,0.8931297709923665
1572,1,-1,21,1383,16,153,0.8925619834710744
1573,-1,-1,21,1384,16,153,0.8926302414231257
1574,-1,-1,21,1385,16,153,0.8926984126984127
1575,-1,-1,21,1386,16,153,0.8927664974619289
1576,-1,-1,21,1387,16,153,0.8928344958782498
1577,-1,-1,21,1388,16,153,0.8929024081115335
1578,1,-1,21,1388,16,154,0.8923369221025966
1579,-1,-1,21,1389,16,154,0.8924050632911392
1580,1,-1,21,1389,16,155,0.8918406072106262
1581,-1,-1,21,1390,16,155,0.8919089759797725
1582,-1,1,21,1390,17,155,0.8913455464308275
1583,-1,-1,21,1391,17,155,0.8914141414141414
1584,-1,-1,21,1392,17,155,0.8914826498422713
1585,-1,-1,21,1393,17,155,0.8915510718789408
1586,-1,-1,21,1394,17,155,0.8916194076874606
1587,-1,-1,21,1395,17,155,0.8916876574307305
1588,-1,-1,21,1396,17,155,0.8917558212712398
1589,1,1,22,1396,17,155,0.8918238993710692
1590,-1,-1,22,1397,17,155,0.8918918918918919
1591,-1,-1,22,1398,17,155,0.8919597989949749
1592,-1,-1,22,1399,17,155,0.8920276208411801
1593,-1,-1,22,1400,17,155,0.8920953575909661
1594,-1,-1,22,1401,17,155,0.8921630094043888
1595,-1,-1,22,1402,17,155,0.8922305764411027
1596,-1,-1,22,1403,17,155,0.8922980588603632
1597,-1,-1,22,1404,17,155,0.8923654568210263
1598,-1,-1,22,1405,17,155,0.892432770481551
1599,-1,-1,22,1406,17,155,0.8925
1600,-1,-1,22,1407,17,155,0.8925671455340413
1601,-1,-1,22,1408,17,155,0.8926342072409488
1602,-1,-1,22,1409,17,155,0.8927011852776044
1603,-1,-1,22,1410,17,155,0.8927680798004988
1604,-1,-1,22,1411,17,155,0.8928348909657321
1605,-1,-1,22,1412,17,155,0.8929016189290162
1606,-1,-1,22,1413,17,155,0.8929682638456752
1607,-1,-1,22,1414,17,155,0.8930348258706468
1608,-1,-1,22,1415,17,155,0.8931013051584835
1609,-1,-1,22,1416,17,155,0.893167701863354
1610,-1,-1,22,1417,17,155,0.8932340161390441
1611,-1,-1,22,1418,17,155,0.8933002481389578
1612,-1,-1,22,1419,17,155,0.8933663980161191
1613,-1,-1,22,1420,17,155,0.8934324659231723
1614,-1,-1,22,1421,17,155,0.8934984520123839
1615,-1,-1,22,1422,17,155,0.8935643564356436
1616,-1,-1,22,1423,17,155,0.8936301793444651
1617,-1,-1,22,1424,17,155,0.8936959208899876
1618,-1,-1,22,1425,17,155,0.8937615812229771
1619,-1,-1,22,1426,17,155,0.8938271604938272
1620,-1,-1,22,1427,17,155,0.8938926588525602
1621,-1,-1,22,1428,17,155,0.8939580764488286
1622,-1,-1,22,1429,17,155,0.8940234134319162
1623,-1,-1,22,1430,17,155,0.8940886699507389
1624,-1,-1,22,1431,17,155,0.8941538461538462
1625,-1,-1,22,1432,17,155,0.8942189421894219
1626,-1,-1,22,1433,17,155,0.8942839582052858
1627,-1,-1,22,1434,17,155,0.8943488943488943
1628,-1,-1,22,1435,17,155,0.894413750767342
1629,-1,-1,22,1436,17,155,0.894478527607362
1630,-1,-1,22,1437,17,155,0.894543225015328
1631,-1,-1,22,1438,17,155,0.8946078431372549
1632,-1,-1,22,1439,17,155,0.8946723821187997
1633,-1,-1,22,1440,17,155,0.8947368421052632
1634,1,-1,22,1440,17,156,0.8941896024464832
1635,-1,-1,22,1441,17,156,0.8942542787286064
1636,-1,-1,22,1442,17,156,0.8943188759926696
1637,-1,-1,22,1443,17,156,0.8943833943833944
1638,-1,-1,22,1444,17,156,0.8944478340451495
1639,-1,-1,22,1445,17,156,0.8945121951219512
1640,-1,-1,22,1446,17,156,0.894576477757465
1641,1,1,23,1446,17,156,0.8946406820950061
1642,-1,-1,23,1447,17,156,0.8947048082775411
1643,-1,-1,23,1448,17,156,0.8947688564476886
1644,-1,-1,23,1449,17,156,0.8948328267477204
1645,-1,-1,23,1450,17,156,0.8948967193195626
1646,-1,-1,23,1451,17,156,0.8949605343047966
1647,-1,-1,23,1452,17,156,0.8950242718446602
1648,-1,-1,23,1453,17,156,0.8950879320800486
1649,-1,-1,23,1454,17,156,0.8951515151515151
1650,-1,-1,23,1455,17,156,0.8952150211992732
1651,-1,-1,23,1456,17,156,0.8952784503631961
1652,-1,-1,23,1457,17,156,0.8953418027828192
1653,-1,-1,23,1458,17,156,0.8954050785973398
1654,-1,-1,23,1459,17,156,0.8954682779456193
1655,-1,-1,23,1460,17,156,0.8955314009661836
1656,-1,-1,23,1461,17,156,0.8955944477972239
1657,-1,-1,23,1462,17,156,0.8956574185765983
1658,-1,-1,23,1463,17,156,0.8957203134418324
1659,-1,-1,23,1464,17,156,0.8957831325301204
1660,-1,-1,23,1465,17,156,0.8958458759783263
1661,1,-1,23,1465,17,157,0.8953068592057761
1662,-1,-1,23,1466,17,157,0.8953698135898978
1663,1,-1,23,1466,17,158,0.8948317307692307
1664,-1,-1,23,1467,17,158,0.8948948948948949
1665,1,-1,23,1467,17,159,0.8943577430972389
1666,1,-1,23,1467,17,160,0.8938212357528494
1667,1,-1,23,1467,17,161,0.8932853717026379
1668,-1,-1,23,1468,17,161,0.8933493109646495
1669,1,-1,23,1468,17,162,0.8928143712574851
1670,1,-1,23,1468,17,163,0.8922800718132855
1671,-1,-1,23,1469,17,163,0.8923444976076556
1672,1,-1,23,1469,17,164,0.8918111177525403
1673,-1,-1,23,1470,17,164,0.8918757467144564
1674,-1,-1,23,1471,17,164,0.8919402985074627
1675,-1,-1,23,1472,17,164,0.8920047732696897
1676,-1,-1,23,1473,17,164,0.8920691711389386
1677,-1,-1,23,1474,17,164,0.8921334922526818
1678,-1,-1,23,1475,17,164,0.8921977367480644
1679,-1,-1,23,1476,17,164,0.8922619047619048
1680,1,1,24,1476,17,164,0.892325996430696
1681,-1,-1,24,1477,17,164,0.8923900118906064
1682,-1,-1,24,1478,17,164,0.8924539512774807
1683,-1,-1,24,1479,17,164,0.8925178147268409
1684,-1,-1,24,1480,17,164,0.8925816023738873
1685,-1,-1,24,1481,17,164,0.8926453143534994
1686,-1,-1,24,1482,17,164,0.8927089508002372
1687,-1,-1,24,1483,17,164,0.8927725118483413
1688,1,-1,24,1483,17,165,0.8922439313203079
1689,-1,-1,24,1484,17,165,0.8923076923076924
1690,-1,-1,24,1485,17,165,0.8923713778829095
1691,-1,-1,24,1486,17,165,0.892434988179669
1692,-1,-1,24,1487,17,165,0.8924985233313645
1693,-1,-1,24,1488,17,165,0.8925619834710744
1694,-1,-1,24,1489,17,165,0.8926253687315634
1695,-1,-1,24,1490,17,165,0.8926886792452831
1696,-1,-1,24,1491,17,165,0.8927519151443725
1697,-1,-1,24,1492,17,165,0.8928150765606596
1698,-1,-1,24,1493,17,165,0.8928781636256622
1699,-1,-1,24,1494,17,165,0.8929411764705882
1700,-1,-1,24,1495,17,165,0.8930041152263375
1701,-1,-1,24,1496,17,165,0.8930669800235017
1702,-1,-1,24,1497,17,165,0.8931297709923665
1703,-1,-1,24,1498,17,165,0.8931924882629108
1704,-1,-1,24,1499,17,165,0.8932551319648094
1705,-1,-1,24,1500,17,165,0.8933177022274326
1706,-1,-1,24,1501,17,165,0.8933801991798477
1707,-1,-1,24,1502,17,165,0.8934426229508197
1708,-1,-1,24,1503,17,165,0.8935049736688122
1709,-1,-1,24,1504,17,165,0.8935672514619883
1710,-1,-1,24,1505,17,165,0.8936294564582116
1711,-1,-1,24,1506,17,165,0.8936915887850467
1712,-1,-1,24,1507,17,165,0.8937536485697607
1713,-1,-1,24,1508,17,165,0.8938156359393232
1714,-1,-1,24,1509,17,165,0.8938775510204081
1715,-1,-1,24,1510,17,165,0.8939393939393939
1716,-1,-1,24,1511,17,165,0.8940011648223646
1717,-1,-1,24,1512,17,165,0.8940628637951106
1718,-1,-1,24,1513,17,165,0.8941244909831297
1719,-1,-1,24,1514,17,165,0.8941860465116279
1720,-1,-1,24,1515,17,165,0.8942475305055201
1721,-1,-1,24,1516,17,165,0.8943089430894309
1722,1,1,25,1516,17,165,0.8943702843876958
1723,-1,-1,25,1517,17,165,0.894431554524362
1724,-1,-1,25,1518,17,165,0.8944927536231884
1725,-1,-1,25,1519,17,165,0.8945538818076477
1726,-1,-1,25,1520,17,165,0.8946149392009265
1727,-1,-1,25,1521,17,165,0.8946759259259259
1728,-1,-1,25,1522,17,165,0.8947368421052632
1729,-1,-1,25,1523,17,165,0.8947976878612717
1730,-1,-1,25,1524,17,165,0.8948584633160023
1731,-1,-1,25,1525,17,165,0.894919168591224
1732,-1,-1,25,1526,17,165,0.8949798038084247
1733,-1,1,25,1526,18,165,0.8944636678200693
1734,-1,-1,25,1527,18,165,0.8945244956772335
1735,-1,-1,25,1528,18,165,0.8945852534562212
1736,-1,-1,25,1529,18,165,0.8946459412780656
1737,1,-1,25,1529,18,166,0.8941311852704258
1738,-1,-1,25,1530,18,166,0.8941920644048303
1739,-1,-1,25,1531,18,166,0.8942528735632184
1740,-1,-1,25,1532,18,166,0.8943136128661688
1741,-1,-1,25,1533,18,166,0.894374282433984
1742,-1,-1,25,1534,18,166,0.8944348823866897
1743,-1,-1,25,1535,18,166,0.8944954128440367
1744,-1,-1,25,1536,18,166,0.8945558739255014
1745,-1,-1,25,1537,18,166,0.8946162657502864
1746,-1,-1,25,1538,18,166,0.8946765884373211
1747,-1,-1,25,1539,18,166,0.8947368421052632
1748,-1,-1,25,1540,18,166,0.8947970268724986
1749,-1,-1,25,1541,18,166,0.8948571428571429
1750,-1,-1,25,1542,18,166,0.8949171901770417
1751,-1,-1,25,1543,18,166,0.8949771689497716
1752,-1,-1,25,1544,18,166,0.8950370792926412
1753,1,-1,25,1544,18,167,0.8945267958950969
1754,-1,-1,25,1545,18,167,0.8945868945868946
1755,-1,-1,25,1546,18,167,0.8946469248291572
1756,-1,-1,25,1547,18,167,0.8947068867387592
1757,1,-1,25,1547,18,168,0.89419795221843
1758,-1,-1,25,1548,18,168,0.8942581011938602
1759,-1,-1,25,1549,18,168,0.8943181818181818
1760,-1,-1,25,1550,18,168,0.8943781942078365
1761,-1,-1,25,1551,18,168,0.8944381384790011
1762,-1,-1,25,1552,18,168,0.8944980147475894
1763,-1,-1,25,1553,18,168,0.8945578231292517
1764,-1,-1,25,1554,18,168,0.8946175637393767
1765,-1,-1,25,1555,18,168,0.8946772366930917
1766,1,-1,25,1555,18,169,0.8941709111488398
1767,-1,-1,25,1556,18,169,0.8942307692307693
1768,-1,-1,25,1557,18,169,0.8942905596382137
1769,-1,-1,25,1558,18,169,0.8943502824858757
1770,-1,-1,25,1559,18,169,0.8944099378881988
1771,-1,-1,25,1560,18,169,0.8944695259593679
1772,-1,-1,25,1561,18,169,0.8945290468133108
1773,-1,-1,25,1562,18,169,0.8945885005636979
1774,-1,-1,25,1563,18,169,0.8946478873239436
1775,-1,-1,25,1564,18,169,0.8947072072072072
1776,-1,-1,25,1565,18,169,0.8947664603263928
1777,-1,-1,25,1566,18,169,0.8948256467941508
1778,-1,-1,25,1567,18,169,0.894884766722878
1779,-1,-1,25,1568,18,169,0.8949438202247191
1780,-1,-1,25,1569,18,169,0.8950028074115666
1781,1,1,26,1569,18,169,0.8950617283950617
1782,-1,-1,26,1570,18,169,0.8951205832865956
1783,-1,-1,26,1571,18,169,0.8951793721973094
1784,-1,-1,26,1572,18,169,0.8952380952380953
1785,-1,-1,26,1573,18,169,0.8952967525195968
1786,-1,-1,26,1574,18,169,0.8953553441522104
1787,-1,-1,26,1575,18,169,0.895413870246085
1788,-1,-1,26,1576,18,169,0.8954723309111235
1789,-1,-1,26,1577,18,169,0.8955307262569833
1790,-1,-1,26,1578,18,169,0.8955890563930765
1791,-1,-1,26,1579,18,169,0.8956473214285714
1792,-1,-1,26,1580,18,169,0.8957055214723927
1793,-1,-1,26,1581,18,169,0.8957636566332219
1794,-1,-1,26,1582,18,169,0.8958217270194986
1795,1,1,27,1582,18,169,0.8958797327394209
1796,-1,-1,27,1583,18,169,0.895937673900946
1797,-1,-1,27,1584,18,169,0.8959955506117909
1798,-1,-1,27,1585,18,169,0.896053362979433
1799,-1,-1,27,1586,18,169,0.8961111111111111
1800,-1,-1,27,1587,18,169,0.8961687951138256
1801,-1,-1,27,1588,18,169,0.8962264150943396
1802,-1,-1,27,1589,18,169,0.8962839711591791
1803,-1,-1,27,1590,18,169,0.8963414634146342
1804,-1,-1,27,1591,18,169,0.896398891966759
1805,-1,-1,27,1592,18,169,0.8964562569213732
1806,-1,-1,27,1593,18,169,0.896513558384062
1807,-1,-1,27,1594,18,169,0.896570796460177
1808,-1,-1,27,1595,18,169,0.896627971254837
1809,-1,-1,27,1596,18,169,0.8966850828729281
1810,-1,-1,27,1597,18,169,0.8967421314191054
1811,-1,-1,27,1598,18,169,0.8967991169977925
1812,-1,-1,27,1599,18,169,0.8968560397131826
1813,-1,-1,27,1600,18,169,0.8969128996692393
1814,-1,-1,27,1601,18,169,0.896969696969697
1815,-1,-1,27,1602,18,169,0.8970264317180616
1816,-1,-1,27,1603,18,169,0.8970831040176115
1817,1,1,28,1603,18,169,0.8971397139713971
1818,-1,-1,28,1604,18,169,0.897196261682243
1819,-1,-1,28,1605,18,169,0.8972527472527473
1820,-1,-1,28,1606,18,169,0.8973091707852828
1821,-1,-1,28,1607,18,169,0.8973655323819978
1822,-1,-1,28,1608,18,169,0.8974218321448162
1823,-1,-1,28,1609,18,169,0.8974780701754386
1824,-1,-1,28,1610,18,169,0.8975342465753424
1825,-1,-1,28,1611,18,169,0.8975903614457831
1826,-1,-1,28,1612,18,169,0.8976464148877942
1827,-1,-1,28,1613,18,169,0.8977024070021882
1828,-1,-1,28,1614,18,169,0.8977583378895572
1829,-1,-1,28,1615,18,169,0.8978142076502732
1830,-1,-1,28,1616,18,169,0.8978700163844894
1831,-1,-1,28,1617,18,169,0.8979257641921398
1832,1,-1,28,1617,18,170,0.8974358974358975
1833,-1,-1,28,1618,18,170,0.8974918211559433
1834,-1,-1,28,1619,18,170,0.8975476839237058
1835,-1,-1,28,1620,18,170,0.8976034858387799
1836,-1,-1,28,1621,18,170,0.8976592270005443
1837,-1,-1,28,1622,18,170,0.8977149075081611
1838,1,-1,28,1622,18,171,0.8972267536704731
1839,-1,-1,28,1623,18,171,0.8972826086956521
1840,-1,-1,28,1624,18,171,0.8973384030418251
1841,-1,-1,28,1625,18,171,0.8973941368078175
1842,-1,-1,28,1626,18,171,0.8974498100922409
1843,-1,-1,28,1627,18,171,0.8975054229934925
1844,-1,-1,28,1628,18,171,0.8975609756097561
1845,-1,-1,28,1629,18,171,0.8976164680390033
1846,-1,-1,28,1630,18,171,0.8976719003789929
1847,-1,-1,28,1631,18,171,0.8977272727272727
1848,-1,-1,28,1632,18,171,0.897782585181179
1849,-1,-1,28,1633,18,171,0.8978378378378379
1850,-1,-1,28,1634,18,171,0.8978930307941653
1851,-1,-1,28,1635,18,171,0.8979481641468683
1852,-1,-1,28,1636,18,171,0.8980032379924446
1853,-1,-1,28,1637,18,171,0.8980582524271845
1854,-1,-1,28,1638,18,171,0.8981132075471698
1855,-1,-1,28,1639,18,171,0.8981681034482759
1856,-1,-1,28,1640,18,171,0.8982229402261712
1857,-1,-1,28,1641,18,171,0.8982777179763186
1858,-1,-1,28,1642,18,171,0.8983324367939752
1859,-1,-1,28,1643,18,171,0.8983870967741936
1860,-1,-1,28,1644,18,171,0.8984416980118216
1861,-1,-1,28,1645,18,171,0.8984962406015038
1862,-1,-1,28,1646,18,171,0.8985507246376812
1863,-1,-1,28,1647,18,171,0.8986051502145923
1864,-1,-1,28,1648,18,171,0.8986595174262735
1865,-1,-1,28,1649,18,171,0.8987138263665595
1866,-1,-1,28,1650,18,171,0.8987680771290841
1867,1,-1,28,1650,18,172,0.8982869379014989
1868,-1,-1,28,1651,18,172,0.8983413590155164
1869,-1,-1,28,1652,18,172,0.8983957219251337
1870,-1,-1,28,1653,18,172,0.8984500267236771
1871,-1,-1,28,1654,18,172,0.8985042735042735
1872,-1,-1,28,1655,18,172,0.8985584623598505
1873,1,-1,28,1655,18,173,0.8980789754535753
1874,-1,-1,28,1656,18,173,0.8981333333333333
1875,-1,-1,28,1657,18,173,0.8981876332622601
1876,-1,-1,28,1658,18,173,0.8982418753329782
1877,-1,-1,28,1659,18,173,0.8982960596379127
1878,-1,-1,28,1660,18,173,0.8983501862692922
1879,-1,-1,28,1661,18,173,0.8984042553191489
1880,-1,-1,28,1662,18,173,0.8984582668793195
1881,-1,-1,28,1663,18,173,0.8985122210414452
1882,-1,-1,28,1664,18,173,0.8985661178969729
1883,-1,-1,28,1665,18,173,0.898619957537155
1884,-1,-1,28,1666,18,173,0.8986737400530505
1885,-1,-1,28,1667,18,173,0.898727465535525
1886,-1,-1,28,1668,18,173,0.8987811340752517
1887,-1,-1,28,1669,18,173,0.8988347457627118
1888,-1,-1,28,1670,18,173,0.8988883006881948
1889,-1,-1,28,1671,18,173,0.8989417989417989
1890,1,-1,28,1671,18,174,0.8984664198836594
1891,-1,-1,28,1672,18,174,0.8985200845665962
1892,1,-1,28,1672,18,175,0.8980454305335447
1893,-1,-1,28,1673,18,175,0.8980992608236537
1894,-1,-1,28,1674,18,175,0.8981530343007915
1895,-1,-1,28,1675,18,175,0.8982067510548524
1896,-1,-1,28,1676,18,175,0.8982604111755403
1897,-1,-1,28,1677,18,175,0.8983140147523709
1898,-1,1,28,1677,19,175,0.8978409689310163
1899,-1,-1,28,1678,19,175,0.8978947368421053
1900,-1,-1,28,1679,19,175,0.8979484481851657
1901,-1,-1,28,1680,19,175,0.8980021030494216
1902,-1,-1,28,1681,19,175,0.8980557015239096
1903,-1,-1,28,1682,19,175,0.898109243697479
1904,-1,-1,28,1683,19,175,0.8981627296587926
1905,-1,-1,28,1684,19,175,0.8982161594963274
1906,-1,-1,28,1685,19,175,0.8982695332983744
1907,-1,-1,28,1686,19,175,0.8983228511530398
1908,-1,-1,28,1687,19,175,0.8983761131482452
1909,-1,-1,28,1688,19,175,0.8984293193717278
1910,-1,-1,28,1689,19,175,0.8984824699110413
1911,-1,-1,28,1690,19,175,0.8985355648535565
1912,-1,-1,28,1691,19,175,0.898588604286461
1913,-1,-1,28,1692,19,175,0.8986415882967607
1914,-1,-1,28,1693,19,175,0.8986945169712793
1915,-1,-1,28,1694,19,175,0.8987473903966597
1916,-1,-1,28,1695,19,175,0.8988002086593636
1917,-1,-1,28,1696,19,175,0.8988529718456726
1918,-1,-1,28,1697,19,175,0.8989056800416884
1919,-1,-1,28,1698,19,175,0.8989583333333333
1920,-1,-1,28,1699,19,175,0.8990109318063508
1921,-1,-1,28,1700,19,175,0.899063475546306
1922,-1,-1,28,1701,19,175,0.8991159646385856
1923,-1,-1,28,1702,19,175,0.8991683991683992
1924,-1,-1,28,1703,19,175,0.8992207792207793
1925,-1,-1,28,1704,19,175,0.8992731048805815
1926,-1,-1,28,1705,19,175,0.8993253762324858
1927,-1,-1,28,1706,19,175,0.8993775933609959
1928,-1,-1,28,1707,19,175,0.8994297563504406
1929,-1,-1,28,1708,19,175,0.8994818652849741
1930,-1,-1,28,1709,19,175,0.8995339202485758
1931,1,-1,28,1709,19,176,0.8990683229813664
1932,-1,-1,28,1710,19,176,0.8991205380237972
1933,-1,-1,28,1711,19,176,0.8991726990692864
1934,-1,-1,28,1712,19,176,0.8992248062015504
1935,1,-1,28,1712,19,177,0.8987603305785123
1936,-1,-1,28,1713,19,177,0.898812596799174
1937,-1,-1,28,1714,19,177,0.8988648090815273
1938,-1,-1,28,1715,19,177,0.8989169675090253
1939,1,-1,28,1715,19,178,0.8984536082474227
1940,-1,-1,28,1716,19,178,0.8985059247810407
1941,-1,-1,28,1717,19,178,0.8985581874356333
1942,-1,-1,28,1718,19,178,0.8986103962943901
1943,-1,-1,28,1719,19,178,0.8986625514403292
1944,-1,-1,28,1720,19,178,0.8987146529562982
1945,-1,-1,28,1721,19,178,0.8987667009249743
1946,-1,-1,28,1722,19,178,0.8988186954288649
1947,-1,-1,28,1723,19,178,0.898870636550308
1948,-1,-1,28,1724,19,178,0.8989225243714726
1949,-1,-1,28,1725,19,178,0.898974358974359
1950,-1,-1,28,1726,19,178,0.8990261404407995
1951,-1,-1,28,1727,19,178,0.899077868852459
1952,-1,-1,28,1728,19,178,0.8991295442908346
1953,-1,-1,28,1729,19,178,0.8991811668372569
1954,-1,-1,28,1730,19,178,0.89923273657289
1955,-1,-1,28,1731,19,178,0.8992842535787321
1956,-1,-1,28,1732,19,178,0.8993357179356157
1957,-1,-1,28,1733,19,178,0.8993871297242084
1958,1,-1,28,1733,19,179,0.8989280245022971
1959,-1,-1,28,1734,19,179,0.8989795918367347
1960,-1,-1,28,1735,19,179,0.8990311065782763
1961,-1,-1,28,1736,19,179,0.8990825688073395
1962,1,1,29,1736,19,179,0.8991339786041773
1963,-1,-1,29,1737,19,179,0.8991853360488798
1964,-1,-1,29,1738,19,179,0.899236641221374
1965,-1,-1,29,1739,19,179,0.8992878942014242
1966,-1,-1,29,1740,19,179,0.8993390950686324
1967,-1,-1,29,1741,19,179,0.899390243902439
1968,-1,-1,29,1742,19,179,0.8994413407821229
1969,-1,-1,29,1743,19,179,0.899492385786802
1970,-1,-1,29,1744,19,179,0.8995433789954338
1971,-1,-1,29,1745,19,179,0.8995943204868154
1972,1,-1,29,1745,19,180,0.8991383679675621
1973,-1,-1,29,1746,19,180,0.8991894630192503
1974,1,-1,29,1746,19,181,0.8987341772151899
1975,1,-1,29,1746,19,182,0.8982793522267206
1976,-1,-1,29,1747,19,182,0.8983308042488619
1977,-1,-1,29,1748,19,182,0.8983822042467139
1978,1,-1,29,1748,19,183,0.8979282465891865
1979,-1,-1,29,1749,19,183,0.897979797979798
1980,-1,-1,29,1750,19,183,0.8980312973245835
1981,-1,-1,29,1751,19,183,0.8980827447023209
1982,1,-1,29,1751,19,184,0.8976298537569339
1983,-1,-1,29,1752,19,184,0.8976814516129032
1984,-1,-1,29,1753,19,184,0.8977329974811084
1985,1,-1,29,1753,19,185,0.8972809667673716
1986,-1,-1,29,1754,19,185,0.8973326623049824
1987,-1,-1,29,1755,19,185,0.89738430583501
1988,-1,-1,29,1756,19,185,0.8974358974358975
1989,1,-1,29,1756,19,186,0.8969849246231156
1990,-1,-1,29,1757,19,186,0.8970366649924661
1991,-1,-1,29,1758,19,186,0.8970883534136547
1992,1,-1,29,1758,19,187,0.8966382338183643
1993,-1,-1,29,1759,19,187,0.8966900702106319
1994,-1,-1,29,1760,19,187,0.8967418546365915
1995,-1,-1,29,1761,19,187,0.8967935871743486
1996,-1,-1,29,1762,19,187,0.8968452679018528
1997,-1,-1,29,1763,19,187,0.8968968968968969
1998,-1,-1,29,1764,19,187,0.8969484742371185
1999,-1,-1,29,1765,19,187,0.897
2000,-1,-1,29,1766,19,187,0.8970514742628686
2001,-1,-1,29,1767,19,187,0.8971028971028971
2002,-1,-1,29,1768,19,187,0.8971542685971043
2003,-1,-1,29,1769,19,187,0.8972055888223552
2004,-1,-1,29,1770,19,187,0.8972568578553616
2005,-1,-1,29,1771,19,187,0.8973080757726819
2006,-1,-1,29,1772,19,187,0.8973592426507224
2007,-1,-1,29,1773,19,187,0.897410358565737
2008,-1,-1,29,1774,19,187,0.8974614235938277
2009,-1,-1,29,1775,19,187,0.8975124378109453
2010,-1,-1,29,1776,19,187,0.8975634012928891
2011,-1,-1,29,1777,19,187,0.8976143141153081
2012,-1,-1,29,1778,19,187,0.8976651763537009
2013,1,-1,29,1778,19,188,0.897219463753724
2014,-1,-1,29,1779,19,188,0.8972704714640198
2015,-1,-1,29,1780,19,188,0.8973214285714286
2016,1,-1,29,1780,19,189,0.8968765493306892
2017,-1,-1,29,1781,19,189,0.8969276511397423
2018,-1,-1,29,1782,19,189,0.8969787023278851
2019,-1,-1,29,1783,19,189,0.897029702970297
2020,-1,-1,29,1784,19,189,0.8970806531420089
2021,-1,-1,29,1785,19,189,0.897131552917903
2022,-1,-1,29,1786,19,189,0.8971824023727137
2023,-1,-1,29,1787,19,189,0.8972332015810277
2024,1,-1,29,1787,19,190,0.8967901234567901
2025,-1,-1,29,1788,19,190,0.8968410661401777
2026,-1,-1,29,1789,19,190,0.8968919585594475
2027,-1,-1,29,1790,19,190,0.8969428007889546
2028,-1,-1,29,1791,19,190,0.8969935929029078
2029,-1,-1,29,1792,19,190,0.8970443349753695
2030,-1,-1,29,1793,19,190,0.897095027080256
2031,-1,-1,29,1794,19,190,0.8971456692913385
2032,-1,-1,29,1795,19,190,0.897196261682243
2033,-1,-1,29,1796,19,190,0.8972468043264503
2034,-1,-1,29,1797,19,190,0.8972972972972973
2035,1,-1,29,1797,19,191,0.8968565815324165
2036,-1,-1,29,1798,19,191,0.8969072164948454
2037,-1,-1,29,1799,19,191,0.8969578017664377
2038,-1,-1,29,1800,19,191,0.8970083374203041
2039,-1,-1,29,1801,19,191,0.8970588235294118
2040,-1,-1,29,1802,19,191,0.897109260166585
2041,-1,-1,29,1803,19,191,0.8971596474045054
2042,-1,-1,29,1804,19,191,0.8972099853157122
2043,-1,-1,29,1805,19,191,0.8972602739726028
2044,-1,-1,29,1806,19,191,0.8973105134474327
2045,-1,-1,29,1807,19,191,0.8973607038123167
2046,-1,-1,29,1808,19,191,0.8974108451392281
2047,-1,-1,29,1809,19,191,0.8974609375
2048,-1,-1,29,1810,19,191,0.8975109809663251
2049,-1,-1,29,1811,19,191,0.8975609756097561
2050,-1,-1,29,1812,19,191,0.8976109215017065
2051,-1,-1,29,1813,19,191,0.8976608187134503
2052,-1,-1,29,1814,19,191,0.8977106673161227
2053,1,-1,29,1814,19,192,0.8972736124634859
2054,-1,-1,29,1815,19,192,0.897323600973236
2055,-1,-1,29,1816,19,192,0.8973735408560312
2056,-1,-1,29,1817,19,192,0.8974234321827905
2057,-1,-1,29,1818,19,192,0.8974732750242954
2058,-1,-1,29,1819,19,192,0.8975230694511899
2059,-1,-1,29,1820,19,192,0.8975728155339806
2060,-1,-1,29,1821,19,192,0.8976225133430373
2061,-1,-1,29,1822,19,192,0.8976721629485936
2062,-1,-1,29,1823,19,192,0.8977217644207465
2063,-1,-1,29,1824,19,192,0.8977713178294574
2064,-1,-1,29,1825,19,192,0.897820823244552
2065,-1,-1,29,1826,19,192,0.8978702807357212
2066,-1,-1,29,1827,19,192,0.8979196903725205
2067,-1,-1,29,1828,19,192,0.8979690522243714
2068,-1,-1,29,1829,19,192,0.8980183663605606
2069,-1,-1,29,1830,19,192,0.8980676328502415
2070,-1,-1,29,1831,19,192,0.8981168517624336
2071,-1,-1,29,1832,19,192,0.8981660231660231
2072,1,-1,29,1832,19,193,0.8977327544621322
2073,-1,-1,29,1833,19,193,0.8977820636451301
2074,-1,-1,29,1834,19,193,0.8978313253012048
2075,-1,-1,29,1835,19,193,0.8978805394990366
2076,-1,-1,29,1836,19,193,0.8979297063071738
2077,-1,-1,29,1837,19,193,0.8979788257940328
2078,-1,-1,29,1838,19,193,0.8980278980278981
2079,-1,-1,29,1839,19,193,0.8980769230769231
2080,-1,-1,29,1840,19,193,0.8981259010091303
2081,-1,-1,29,1841,19,193,0.8981748318924111
2082,-1,-1,29,1842,19,193,0.8982237157945271
2083,-1,-1,29,1843,19,193,0.8982725527831094
2084,-1,-1,29,1844,19,193,0.8983213429256595
2085,-1,-1,29,1845,19,193,0.8983700862895494
2086,-1,-1,29,1846,19,193,0.898418782942022
2087,-1,-1,29,1847,19,193,0.8984674329501916
2088,-1,-1,29,1848,19,193,0.8985160363810436
2089,-1,-1,29,1849,19,193,0.8985645933014355
2090,-1,-1,29,1850,19,193,0.8986131037780966
2091,-1,-1,29,1851,19,193,0.8986615678776291
2092,-1,-1,29,1852,19,193,0.8987099856665074
2093,1,-1,29,1852,19,194,0.8982808022922636
2094,-1,-1,29,1853,19,194,0.8983293556085918
2095,-1,-1,29,1854,19,194,0.8983778625954199
2096,-1,-1,29,1855,19,194,0.8984263233190272
2097,-1,-1,29,1856,19,194,0.8984747378455672
2098,-1,-1,29,1857,19,194,0.8985231062410671
2099,-1,-1,29,1858,19,194,0.8985714285714286
2100,-1,-1,29,1859,19,194,0.8986197049024274
2101,1,-1,29,1859,19,195,0.8981921979067554
2102,-1,-1,29,1860,19,195,0.8982406086543033
2103,-1,-1,29,1861,19,195,0.8982889733840305
2104,1,-1,29,1861,19,196,0.8978622327790974
2105,1,1,30,1861,19,196,0.8979107312440646
2106,-1,-1,30,1862,19,196,0.8979591836734694
2107,-1,-1,30,1863,19,196,0.8980075901328273
2108,-1,-1,30,1864,19,196,0.8980559506875296
2109,-1,-1,30,1865,19,196,0.8981042654028436
2110,-1,-1,30,1866,19,196,0.8981525343439128
2111,-1,-1,30,1867,19,196,0.8982007575757576
2112,-1,-1,30,1868,19,196,0.898248935163275
2113,-1,-1,30,1869,19,196,0.8982970671712394
2114,-1,-1,30,1870,19,196,0.8983451536643026
2115,-1,-1,30,1871,19,196,0.8983931947069943
2116,-1,-1,30,1872,19,196,0.8984411903637223
2117,-1,-1,30,1873,19,196,0.8984891406987724
2118,-1,-1,30,1874,19,196,0.8985370457763096
2119,1,-1,30,1874,19,197,0.8981132075471698
2120,-1,-1,30,1875,19,197,0.8981612446958982
2121,1,-1,30,1875,19,198,0.8977379830348727
2122,-1,-1,30,1876,19,198,0.897786151672162
2123,-1,-1,30,1877,19,198,0.897834274952919
2124,-1,-1,30,1878,19,198,0.8978823529411765
2125,-1,-1,30,1879,19,198,0.8979303857008467
2126,-1,-1,30,1880,19,198,0.8979783732957217
2127,-1,-1,30,1881,19,198,0.8980263157894737
2128,-1,-1,30,1882,19,198,0.8980742132456553
2129,-1,-1,30,1883,19,198,0.8981220657276995
2130,-1,-1,30,1884,19,198,0.8981698732989207
2131,-1,-1,30,1885,19,198,0.898217636022514
2132,-1,-1,30,1886,19,198,0.8982653539615565
2133,-1,-1,30,1887,19,198,0.8983130271790065
2134,-1,-1,30,1888,19,198,0.898360655737705
2135,-1,-1,30,1889,19,198,0.8984082397003745
2136,-1,-1,30,1890,19,198,0.8984557791296209
2137,-1,-1,30,1891,19,198,0.8985032740879326
2138,1,-1,30,1891,19,199,0.898083216456288
2139,-1,-1,30,1892,19,199,0.8981308411214953
2140,-1,-1,30,1893,19,199,0.8981784212984587
2141,-1,-1,30,1894,19,199,0.8982259570494865
2142,-1,-1,30,1895,19,199,0.8982734484367709
2143,-1,-1,30,1896,19,199,0.898320895522388
2144,-1,-1,30,1897,19,199,0.8983682983682983
2145,-1,-1,30,1898,19,199,0.8984156570363467
2146,-1,-1,30,1899,19,199,0.8984629715882627
2147,-1,-1,30,1900,19,199,0.8985102420856611
2148,-1,-1,30,1901,19,199,0.8985574685900419
2149,1,-1,30,1901,19,200,0.8981395348837209
2150,-1,-1,30,1902,19,200,0.898186889818689
2151,-1,-1,30,1903,19,200,0.8982342007434945
2152,-1,-1,30,1904,19,200,0.8982814677194613
2153,-1,-1,30,1905,19,200,0.8983286908077994
2154,-1,-1,30,1906,19,200,0.8983758700696056
2155,-1,-1,30,1907,19,200,0.8984230055658627
2156,-1,-1,30,1908,19,200,0.8984700973574409
2157,-1,-1,30,1909,19,200,0.8985171455050973
2158,-1,-1,30,1910,19,200,0.8985641500694767
2159,-1,-1,30,1911,19,200,0.8986111111111111
2160,-1,-1,30,1912,19,200,0.8986580286904211
2161,-1,-1,30,1913,19,200,0.8987049028677151
2162,-1,-1,30,1914,19,200,0.8987517337031901
2163,-1,-1,30,1915,19,200,0.8987985212569316
2164,-1,-1,30,1916,19,200,0.8988452655889145
2165,-1,-1,30,1917,19,200,0.8988919667590027
2166,-1,-1,30,1918,19,200,0.8989386248269498
2167,-1,-1,30,1919,19,200,0.8989852398523985
2168,-1,-1,30,1920,19,200,0.8990318118948825
2169,-1,-1,30,1921,19,200,0.8990783410138249
2170,-1,-1,30,1922,19,200,0.8991248272685398
2171,-1,-1,30,1923,19,200,0.899171270718232
2172,-1,-1,30,1924,19,200,0.8992176714219973
2173,-1,-1,30,1925,19,200,0.8992640294388224
2174,-1,-1,30,1926,19,200,0.8993103448275862
2175,-1,-1,30,1927,19,200,0.8993566176470589
2176,-1,-1,30,1928,19,200,0.8994028479559026
2177,-1,-1,30,1929,19,200,0.8994490358126722
2178,-1,-1,30,1930,19,200,0.8994951812758146
2179,-1,-1,30,1931,19,200,0.8995412844036698
2180,-1,-1,30,1932,19,200,0.8995873452544704
2181,-1,-1,30,1933,19,200,0.8996333638863429
2182,-1,-1,30,1934,19,200,0.8996793403573065
2183,-1,-1,30,1935,19,200,0.8997252747252747
2184,-1,-1,30,1936,19,200,0.8997711670480549
2185,-1,-1,30,1937,19,200,0.8998170173833486
2186,-1,-1,30,1938,19,200,0.8998628257887518
2187,-1,-1,30,1939,19,200,0.899908592321755
2188,-1,-1,30,1940,19,200,0.8999543170397442
2189,-1,-1,30,1941,19,200,0.9
2190,-1,-1,30,1942,19,200,0.9000456412596988
2191,-1,-1,30,1943,19,200,0.9000912408759124
2192,-1,-1,30,1944,19,200,0.9001367989056087
2193,-1,-1,30,1945,19,200,0.9001823154056517
2194,-1,-1,30,1946,19,200,0.9002277904328019
2195,-1,-1,30,1947,19,200,0.9002732240437158
2196,-1,-1,30,1948,19,200,0.9003186162949477
2197,1,-1,30,1948,19,201,0.899909008189263
2198,-1,-1,30,1949,19,201,0.8999545247839927
2199,-1,-1,30,1950,19,201,0.9
2200,-1,-1,30,1951,19,201,0.9000454338936847
2201,-1,-1,30,1952,19,201,0.9000908265213442
2202,-1,-1,30,1953,19,201,0.9001361779391739
2203,1,-1,30,1953,19,202,0.8997277676950998
2204,-1,-1,30,1954,19,202,0.8997732426303855
2205,-1,-1,30,1955,19,202,0.899818676337262
2206,-1,-1,30,1956,19,202,0.8998640688717716
2207,-1,-1,30,1957,19,202,0.8999094202898551
2208,-1,-1,30,1958,19,202,0.8999547306473518
2209,-1,-1,30,1959,19,202,0.9
2210,-1,-1,30,1960,19,202,0.9000452284034374
2211,-1,-1,30,1961,19,202,0.9000904159132007
2212,-1,-1,30,1962,19,202,0.9001355625847266
2213,-1,-1,30,1963,19,202,0.9001806684733514
2214,-1,-1,30,1964,19,202,0.9002257336343115
2215,-1,-1,30,1965,19,202,0.9002707581227437
2216,-1,-1,30,1966,19,202,0.9003157419936851
2217,-1,-1,30,1967,19,202,0.9003606853020739
2218,-1,-1,30,1968,19,202,0.900405588102749
2219,-1,-1,30,1969,19,202,0.9004504504504505
2220,-1,-1,30,1970,19,202,0.9004952723998199
2221,-1,-1,30,1971,19,202,0.9005400540054005
2222,1,-1,30,1971,19,203,0.9001349527665317
2223,-1,-1,30,1972,19,203,0.9001798561151079
2224,-1,-1,30,1973,19,203,0.9002247191011236
2225,-1,-1,30,1974,19,203,0.9002695417789758
2226,-1,-1,30,1975,19,203,0.9003143242029636
2227,-1,-1,30,1976,19,203,0.900359066427289
2228,-1,-1,30,1977,19,203,0.9004037685060565
2229,-1,-1,30,1978,19,203,0.9004484304932735
2230,-1,-1,30,1979,19,203,0.9004930524428507
2231,-1,-1,30,1980,19,203,0.9005376344086021
2232,-1,-1,30,1981,19,203,0.9005821764442454
2233,-1,-1,30,1982,19,203,0.900626678603402
2234,-1,-1,30,1983,19,203,0.9006711409395973
2235,-1,-1,30,1984,19,203,0.9007155635062611
2236,-1,-1,30,1985,19,203,0.9007599463567277
2237,1,-1,30,1985,19,204,0.9003574620196604
2238,-1,-1,30,1986,19,204,0.9004019651630192
2239,-1,-1,30,1987,19,204,0.9004464285714285
2240,-1,-1,30,1988,19,204,0.9004908522980812
2241,-1,-1,30,1989,19,204,0.9005352363960749
2242,-1,-1,30,1990,19,204,0.9005795809184128
2243,-1,-1,30,1991,19,204,0.9006238859180036
2244,-1,-1,30,1992,19,204,0.9006681514476614
2245,-1,-1,30,1993,19,204,0.9007123775601068
2246,-1,-1,30,1994,19,204,0.9007565643079661
2247,-1,-1,30,1995,19,204,0.9008007117437722
2248,-1,-1,30,1996,19,204,0.9008448199199645
2249,-1,-1,30,1997,19,204,0.9008888888888889
2250,-1,-1,30,1998,19,204,0.9009329187027988
2251,1,-1,30,1998,19,205,0.9005328596802842
2252,-1,-1,30,1999,19,205,0.9005770084332002
2253,-1,-1,30,2000,19,205,0.9006211180124224
2254,-1,-1,30,2001,19,205,0.9006651884700665
2255,-1,-1,30,2002,19,205,0.900709219858156
2256,-1,-1,30,2003,19,205,0.900753212228622
2257,-1,-1,30,2004,19,205,0.9007971656333038
2258,-1,-1,30,2005,19,205,0.9008410801239487
2259,-1,-1,30,2006,19,205,0.9008849557522124
2260,-1,-1,30,2007,19,205,0.9009287925696594
2261,-1,-1,30,2008,19,205,0.900972590627763
2262,-1,-1,30,2009,19,205,0.9010163499779055
2263,1,-1,30,2009,19,206,0.9006183745583038
2264,-1,-1,30,2010,19,206,0.9006622516556292
2265,-1,-1,30,2011,19,206,0.9007060900264784
2266,-1,-1,30,2012,19,206,0.9007498897220997
2267,1,1,31,2012,19,206,0.9007936507936508
2268,-1,-1,31,2013,19,206,0.9008373732921993
2269,-1,-1,31,2014,19,206,0.9008810572687225
2270,-1,-1,31,2015,19,206,0.9009247027741083
2271,-1,-1,31,2016,19,206,0.9009683098591549
2272,-1,-1,31,2017,19,206,0.9010118785745711
2273,-1,-1,31,2018,19,206,0.9010554089709762
2274,-1,-1,31,2019,19,206,0.9010989010989011
2275,1,-1,31,2019,19,207,0.9007029876977153
2276,-1,-1,31,2020,19,207,0.9007465963987703
2277,-1,1,31,2020,20,207,0.9003511852502195
2278,-1,-1,31,2021,20,207,0.9003949100482668
2279,-1,-1,31,2022,20,207,0.900438596491228
2280,-1,-1,31,2023,20,207,0.9004822446295484
2281,-1,-1,31,2024,20,207,0.9005258545135846
2282,-1,-1,31,2025,20,207,0.9005694261936049
2283,-1,-1,31,2026,20,207,0.9006129597197898
2284,-1,-1,31,2027,20,207,0.9006564551422319
2285,-1,-1,31,2028,20,207,0.9006999125109362
2286,-1,-1,31,2029,20,207,0.9007433318758199
2287,-1,-1,31,2030,20,207,0.9007867132867133
2288,-1,-1,31,2031,20,207,0.9008300567933596
2289,-1,-1,31,2032,20,207,0.9008733624454148
2290,-1,-1,31,2033,20,207,0.9009166302924487
2291,-1,-1,31,2034,20,207,0.9009598603839442
2292,-1,-1,31,2035,20,207,0.9010030527692978
2293,-1,-1,31,2036,20,207,0.9010462074978204
2294,-1,-1,31,2037,20,207,0.9010893246187364
2295,-1,-1,31,2038,20,207,0.9011324041811847
2296,-1,-1,31,2039,20,207,0.9011754462342185
2297,-1,-1,31,2040,20,207,0.901218450826806
2298,-1,-1,31,2041,20,207,0.9012614180078294
2299,1,-1,31,2041,20,208,0.9008695652173913
2300,-1,-1,31,2042,20,208,0.9009126466753585
2301,-1,-1,31,2043,20,208,0.9009556907037359
2302,-1,-1,31,2044,20,208,0.9009986973512809
2303,-1,-1,31,2045,20,208,0.9010416666666666
2304,1,-1,31,2045,20,209,0.900650759219089
2305,-1,-1,31,2046,20,209,0.9006938421509106
2306,-1,-1,31,2047,20,209,0.9007368877329865
2307,-1,-1,31,2048,20,209,0.9007798960138648
2308,-1,-1,31,2049,20,209,0.9008228670420095
2309,1,-1,31,2049,20,210,0.9004329004329005
2310,1,-1,31,2049,20,211,0.9000432713111207
2311,-1,-1,31,2050,20,211,0.9000865051903114
2312,-1,-1,31,2051,20,211,0.9001297016861219
2313,1,-1,31,2051,20,212,0.8997407087294728
2314,-1,-1,31,2052,20,212,0.8997840172786177
2315,-1,-1,31,2053,20,212,0.8998272884283247
2316,-1,-1,31,2054,20,212,0.8998705222270177
2317,-1,-1,31,2055,20,212,0.899913718723037
2318,-1,-1,31,2056,20,212,0.89995687796464
2319,-1,-1,31,2057,20,212,0.9
2320,-1,-1,31,2058,20,212,0.9000430848772081
2321,-1,-1,31,2059,20,212,0.9000861326442722
2322,-1,-1,31,2060,20,212,0.9001291433491175
2323,-1,-1,31,2061,20,212,0.9001721170395869
2324,-1,-1,31,2062,20,212,0.9002150537634409
2325,-1,-1,31,2063,20,212,0.9002579535683577
2326,-1,-1,31,2064,20,212,0.9003008165019338
2327,-1,-1,31,2065,20,212,0.9003436426116839
2328,-1,-1,31,2066,20,212,0.9003864319450408
2329,-1,-1,31,2067,20,212,0.9004291845493563
2330,-1,-1,31,2068,20,212,0.9004719004719005
2331,-1,-1,31,2069,20,212,0.9005145797598628
2332,-1,-1,31,2070,20,212,0.9005572224603515
2333,1,1,32,2070,20,212,0.9005998286203942
2334,-1,-1,32,2071,20,212,0.9006423982869379
2335,-1,-1,32,2072,20,212,0.9006849315068494
2336,-1,-1,32,2073,20,212,0.9007274283269149
2337,-1,-1,32,2074,20,212,0.9007698887938409
2338,1,-1,32,2074,20,213,0.9003847798204361
2339,-1,-1,32,2075,20,213,0.9004273504273504
2340,-1,-1,32,2076,20,213,0.9004698846646733
2341,-1,-1,32,2077,20,213,0.9005123825789924
2342,-1,-1,32,2078,20,213,0.9005548442168161
2343,1,-1,32,2078,20,214,0.9001706484641638
2344,-1,-1,32,2079,20,214,0.9002132196162047
2345,-1,-1,32,2080,20,214,0.9002557544757033
2346,-1,-1,32,2081,20,214,0.9002982530890499
2347,-1,-1,32,2082,20,214,0.9003407155025553
2348,-1,-1,32,2083,20,214,0.9003831417624522
2349,-1,-1,32,2084,20,214,0.9004255319148936
2350,-1,-1,32,2085,20,214,0.900467886005955
2351,-1,-1,32,2086,20,214,0.9005102040816326
2352,-1,-1,32,2087,20,214,0.9005524861878453
2353,-1,-1,32,2088,20,214,0.9005947323704333
2354,-1,-1,32,2089,20,214,0.9006369426751593
2355,-1,-1,32,2090,20,214,0.900679117147708
2356,-1,-1,32,2091,20,214,0.9007212558336869
2357,-1,-1,32,2092,20,214,0.9007633587786259
