instance,lable,predicted,tp,tn,fp,fn,correctness
0,-1,-1,0,1,0,0,1.0
1,-1,-1,0,2,0,0,1.0
2,-1,-1,0,3,0,0,1.0
3,-1,-1,0,4,0,0,1.0
4,1,-1,0,4,0,1,0.8
5,1,-1,0,4,0,2,0.6666666666666666
6,-1,1,0,4,1,2,0.5714285714285714
7,1,1,1,4,1,2,0.625
8,-1,-1,1,5,1,2,0.6666666666666666
9,-1,-1,1,6,1,2,0.7
10,-1,-1,1,7,1,2,0.7272727272727273
11,-1,-1,1,8,1,2,0.75
12,-1,-1,1,9,1,2,0.7692307692307693
13,-1,-1,1,10,1,2,0.7857142857142857
14,-1,-1,1,11,1,2,0.8
15,-1,-1,1,12,1,2,0.8125
16,-1,-1,1,13,1,2,0.8235294117647058
17,-1,-1,1,14,1,2,0.8333333333333334
18,-1,-1,1,15,1,2,0.8421052631578947
19,1,-1,1,15,1,3,0.8
20,-1,-1,1,16,1,3,0.8095238095238095
21,-1,-1,1,17,1,3,0.8181818181818182
22,-1,-1,1,18,1,3,0.8260869565217391
23,-1,-1,1,19,1,3,0.8333333333333334
24,-1,-1,1,20,1,3,0.84
25,-1,1,1,20,2,3,0.8076923076923077
26,-1,-1,1,21,2,3,0.8148148148148148
27,-1,-1,1,22,2,3,0.8214285714285714
28,-1,-1,1,23,2,3,0.8275862068965517
29,1,1,2,23,2,3,0.8333333333333334
30,1,-1,2,23,2,4,0.8064516129032258
31,-1,-1,2,24,2,4,0.8125
32,-1,-1,2,25,2,4,0.8181818181818182
33,-1,-1,2,26,2,4,0.8235294117647058
34,-1,-1,2,27,2,4,0.8285714285714286
35,-1,-1,2,28,2,4,0.8333333333333334
36,-1,-1,2,29,2,4,0.8378378378378378
37,-1,-1,2,30,2,4,0.8421052631578947
38,-1,-1,2,31,2,4,0.8461538461538461
39,-1,-1,2,32,2,4,0.85
40,-1,-1,2,33,2,4,0.8536585365853658
41,1,1,3,33,2,4,0.8571428571428571
42,-1,-1,3,34,2,4,0.8604651162790697
43,1,-1,3,34,2,5,0.8409090909090909
44,-1,-1,3,35,2,5,0.8444444444444444
45,-1,-1,3,36,2,5,0.8478260869565217
46,-1,-1,3,37,2,5,0.851063829787234
47,-1,-1,3,38,2,5,0.8541666666666666
48,-1,-1,3,39,2,5,0.8571428571428571
49,1,1,4,39,2,5,0.86
50,-1,-1,4,40,2,5,0.8627450980392157
51,-1,-1,4,41,2,5,0.8653846153846154
52,-1,-1,4,42,2,5,0.8679245283018868
53,-1,-1,4,43,2,5,0.8703703703703703
54,-1,-1,4,44,2,5,0.8727272727272727
55,-1,-1,4,45,2,5,0.875
56,-1,-1,4,46,2,5,0.8771929824561403
57,-1,1,4,46,3,5,0.8620689655172413
58,-1,-1,4,47,3,5,0.864406779661017
59,1,-1,4,47,3,6,0.85
60,-1,-1,4,48,3,6,0.8524590163934426
61,-1,-1,4,49,3,6,0.8548387096774194
62,1,-1,4,49,3,7,0.8412698412698413
63,-1,-1,4,50,3,7,0.84375
64,1,-1,4,50,3,8,0.8307692307692308
65,-1,-1,4,51,3,8,0.8333333333333334
66,-1,-1,4,52,3,8,0.835820895522388
67,-1,-1,4,53,3,8,0.8382352941176471
68,-1,-1,4,54,3,8,0.8405797101449275
69,-1,-1,4,55,3,8,0.8428571428571429
70,-1,-1,4,56,3,8,0.8450704225352113
71,1,-1,4,56,3,9,0.8333333333333334
72,-1,-1,4,57,3,9,0.8356164383561644
73,-1,-1,4,58,3,9,0.8378378378378378
74,-1,-1,4,59,3,9,0.84
75,-1,-1,4,60,3,9,0.8421052631578947
76,-1,-1,4,61,3,9,0.8441558441558441
77,-1,-1,4,62,3,9,0.8461538461538461
78,-1,-1,4,63,3,9,0.8481012658227848
79,-1,-1,4,64,3,9,0.85
80,-1,-1,4,65,3,9,0.8518518518518519
81,-1,-1,4,66,3,9,0.8536585365853658
82,-1,-1,4,67,3,9,0.8554216867469879
83,-1,-1,4,68,3,9,0.8571428571428571
84,-1,-1,4,69,3,9,0.8588235294117647
85,-1,-1,4,70,3,9,0.8604651162790697
86,-1,-1,4,71,3,9,0.8620689655172413
87,-1,-1,4,72,3,9,0.8636363636363636
88,-1,-1,4,73,3,9,0.8651685393258427
89,-1,-1,4,74,3,9,0.8666666666666667
90,-1,-1,4,75,3,9,0.8681318681318682
91,-1,-1,4,76,3,9,0.8695652173913043
92,-1,-1,4,77,3,9,0.8709677419354839
93,1,-1,4,77,3,10,0.8617021276595744
94,-1,-1,4,78,3,10,0.8631578947368421
95,1,-1,4,78,3,11,0.8541666666666666
96,1,-1,4,78,3,12,0.845360824742268
97,-1,-1,4,79,3,12,0.8469387755102041
98,-1,-1,4,80,3,12,0.8484848484848485
99,-1,-1,4,81,3,12,0.85
100,-1,-1,4,82,3,12,0.8514851485148515
101,-1,-1,4,83,3,12,0.8529411764705882
102,1,1,5,83,3,12,0.8543689320388349
103,-1,-1,5,84,3,12,0.8557692307692307
104,-1,-1,5,85,3,12,0.8571428571428571
105,-1,-1,5,86,3,12,0.8584905660377359
106,-1,-1,5,87,3,12,0.8598130841121495
107,1,-1,5,87,3,13,0.8518518518518519
108,-1,-1,5,88,3,13,0.8532110091743119
109,-1,-1,5,89,3,13,0.8545454545454545
110,-1,1,5,89,4,13,0.8468468468468469
111,-1,-1,5,90,4,13,0.8482142857142857
112,1,-1,5,90,4,14,0.8407079646017699
113,-1,-1,5,91,4,14,0.8421052631578947
114,-1,-1,5,92,4,14,0.8434782608695652
115,-1,-1,5,93,4,14,0.8448275862068966
116,-1,-1,5,94,4,14,0.8461538461538461
117,-1,-1,5,95,4,14,0.847457627118644
118,-1,-1,5,96,4,14,0.8487394957983193
119,-1,-1,5,97,4,14,0.85
120,-1,-1,5,98,4,14,0.8512396694214877
121,-1,-1,5,99,4,14,0.8524590163934426
122,-1,-1,5,100,4,14,0.8536585365853658
123,-1,-1,5,101,4,14,0.8548387096774194
124,-1,-1,5,102,4,14,0.856
125,-1,-1,5,103,4,14,0.8571428571428571
126,-1,-1,5,104,4,14,0.8582677165354331
127,-1,-1,5,105,4,14,0.859375
128,-1,-1,5,106,4,14,0.8604651162790697
129,-1,-1,5,107,4,14,0.8615384615384616
130,-1,-1,5,108,4,14,0.8625954198473282
131,-1,-1,5,109,4,14,0.8636363636363636
132,-1,-1,5,110,4,14,0.8646616541353384
133,-1,-1,5,111,4,14,0.8656716417910447
134,-1,-1,5,112,4,14,0.8666666666666667
135,-1,-1,5,113,4,14,0.8676470588235294
136,-1,-1,5,114,4,14,0.8686131386861314
137,-1,-1,5,115,4,14,0.8695652173913043
138,-1,1,5,115,5,14,0.8633093525179856
139,-1,-1,5,116,5,14,0.8642857142857143
140,1,-1,5,116,5,15,0.8581560283687943
141,-1,-1,5,117,5,15,0.8591549295774648
142,1,-1,5,117,5,16,0.8531468531468531
143,-1,-1,5,118,5,16,0.8541666666666666
144,-1,-1,5,119,5,16,0.8551724137931035
145,-1,-1,5,120,5,16,0.8561643835616438
146,1,-1,5,120,5,17,0.8503401360544217
147,-1,-1,5,121,5,17,0.8513513513513513
148,-1,-1,5,122,5,17,0.8523489932885906
149,-1,-1,5,123,5,17,0.8533333333333334
150,-1,-1,5,124,5,17,0.8543046357615894
151,-1,-1,5,125,5,17,0.8552631578947368
152,1,-1,5,125,5,18,0.8496732026143791
153,-1,-1,5,126,5,18,0.8506493506493507
154,-1,-1,5,127,5,18,0.8516129032258064
155,-1,-1,5,128,5,18,0.8525641025641025
156,-1,-1,5,129,5,18,0.8535031847133758
157,-1,-1,5,130,5,18,0.8544303797468354
158,-1,-1,5,131,5,18,0.8553459119496856
159,-1,-1,5,132,5,18,0.85625
160,-1,-1,5,133,5,18,0.8571428571428571
161,-1,-1,5,134,5,18,0.8580246913580247
162,1,-1,5,134,5,19,0.852760736196319
163,1,1,6,134,5,19,0.8536585365853658
164,-1,-1,6,135,5,19,0.8545454545454545
165,-1,-1,6,136,5,19,0.8554216867469879
166,-1,-1,6,137,5,19,0.8562874251497006
167,-1,-1,6,138,5,19,0.8571428571428571
168,-1,-1,6,139,5,19,0.8579881656804734
169,-1,-1,6,140,5,19,0.8588235294117647
170,-1,-1,6,141,5,19,0.8596491228070176
171,-1,-1,6,142,5,19,0.8604651162790697
172,-1,-1,6,143,5,19,0.861271676300578
173,-1,-1,6,144,5,19,0.8620689655172413
174,-1,-1,6,145,5,19,0.8628571428571429
175,-1,-1,6,146,5,19,0.8636363636363636
176,-1,-1,6,147,5,19,0.864406779661017
177,-1,-1,6,148,5,19,0.8651685393258427
178,-1,-1,6,149,5,19,0.8659217877094972
179,-1,-1,6,150,5,19,0.8666666666666667
180,-1,-1,6,151,5,19,0.8674033149171271
181,-1,-1,6,152,5,19,0.8681318681318682
182,-1,-1,6,153,5,19,0.8688524590163934
183,-1,-1,6,154,5,19,0.8695652173913043
184,-1,-1,6,155,5,19,0.8702702702702703
185,-1,-1,6,156,5,19,0.8709677419354839
186,1,1,7,156,5,19,0.8716577540106952
187,-1,-1,7,157,5,19,0.8723404255319149
188,-1,-1,7,158,5,19,0.873015873015873
189,-1,-1,7,159,5,19,0.8736842105263158
190,-1,-1,7,160,5,19,0.8743455497382199
191,-1,-1,7,161,5,19,0.875
192,-1,-1,7,162,5,19,0.8756476683937824
193,-1,-1,7,163,5,19,0.8762886597938144
194,-1,-1,7,164,5,19,0.8769230769230769
195,-1,-1,7,165,5,19,0.8775510204081632
196,-1,-1,7,166,5,19,0.8781725888324873
197,-1,-1,7,167,5,19,0.8787878787878788
198,-1,-1,7,168,5,19,0.8793969849246231
199,-1,-1,7,169,5,19,0.88
200,-1,-1,7,170,5,19,0.8805970149253731
201,-1,-1,7,171,5,19,0.8811881188118812
202,-1,-1,7,172,5,19,0.8817733990147784
203,-1,-1,7,173,5,19,0.8823529411764706
204,-1,-1,7,174,5,19,0.8829268292682927
205,-1,-1,7,175,5,19,0.883495145631068
206,-1,-1,7,176,5,19,0.8840579710144928
207,-1,-1,7,177,5,19,0.8846153846153846
208,-1,-1,7,178,5,19,0.8851674641148325
209,-1,-1,7,179,5,19,0.8857142857142857
210,-1,-1,7,180,5,19,0.8862559241706162
211,-1,-1,7,181,5,19,0.8867924528301887
212,-1,-1,7,182,5,19,0.8873239436619719
213,-1,-1,7,183,5,19,0.8878504672897196
214,-1,-1,7,184,5,19,0.8883720930232558
215,-1,-1,7,185,5,19,0.8888888888888888
216,-1,-1,7,186,5,19,0.8894009216589862
217,-1,-1,7,187,5,19,0.8899082568807339
218,-1,-1,7,188,5,19,0.8904109589041096
219,-1,-1,7,189,5,19,0.8909090909090909
220,-1,-1,7,190,5,19,0.8914027149321267
221,1,-1,7,190,5,20,0.8873873873873874
222,-1,-1,7,191,5,20,0.8878923766816144
223,-1,-1,7,192,5,20,0.8883928571428571
224,-1,-1,7,193,5,20,0.8888888888888888
225,-1,-1,7,194,5,20,0.8893805309734514
226,1,-1,7,194,5,21,0.8854625550660793
227,-1,-1,7,195,5,21,0.8859649122807017
228,-1,-1,7,196,5,21,0.8864628820960698
229,1,-1,7,196,5,22,0.8826086956521739
230,-1,-1,7,197,5,22,0.8831168831168831
231,-1,-1,7,198,5,22,0.8836206896551724
232,-1,-1,7,199,5,22,0.8841201716738197
233,-1,-1,7,200,5,22,0.8846153846153846
234,-1,-1,7,201,5,22,0.8851063829787233
235,-1,-1,7,202,5,22,0.885593220338983
236,-1,-1,7,203,5,22,0.8860759493670886
237,-1,-1,7,204,5,22,0.8865546218487395
238,-1,-1,7,205,5,22,0.8870292887029289
239,-1,-1,7,206,5,22,0.8875
240,-1,-1,7,207,5,22,0.8879668049792531
241,-1,-1,7,208,5,22,0.8884297520661157
242,-1,-1,7,209,5,22,0.8888888888888888
243,-1,-1,7,210,5,22,0.889344262295082
244,-1,-1,7,211,5,22,0.889795918367347
245,-1,1,7,211,6,22,0.8861788617886179
246,-1,-1,7,212,6,22,0.8866396761133604
247,-1,-1,7,213,6,22,0.8870967741935484
248,-1,-1,7,214,6,22,0.8875502008032129
249,-1,1,7,214,7,22,0.884
250,-1,-1,7,215,7,22,0.8844621513944223
251,-1,-1,7,216,7,22,0.8849206349206349
252,-1,-1,7,217,7,22,0.8853754940711462
253,-1,-1,7,218,7,22,0.8858267716535433
254,-1,-1,7,219,7,22,0.8862745098039215
255,-1,-1,7,220,7,22,0.88671875
256,-1,-1,7,221,7,22,0.8871595330739299
257,-1,-1,7,222,7,22,0.8875968992248062
258,-1,-1,7,223,7,22,0.888030888030888
259,-1,-1,7,224,7,22,0.8884615384615384
260,-1,-1,7,225,7,22,0.8888888888888888
261,-1,-1,7,226,7,22,0.8893129770992366
262,-1,-1,7,227,7,22,0.8897338403041825
263,-1,-1,7,228,7,22,0.8901515151515151
264,-1,-1,7,229,7,22,0.8905660377358491
265,-1,-1,7,230,7,22,0.8909774436090225
266,-1,-1,7,231,7,22,0.8913857677902621
267,-1,-1,7,232,7,22,0.8917910447761194
268,-1,-1,7,233,7,22,0.8921933085501859
269,-1,-1,7,234,7,22,0.8925925925925926
270,-1,-1,7,235,7,22,0.8929889298892989
271,-1,-1,7,236,7,22,0.8933823529411765
272,1,-1,7,236,7,23,0.8901098901098901
273,-1,-1,7,237,7,23,0.8905109489051095
274,-1,-1,7,238,7,23,0.8909090909090909
275,-1,-1,7,239,7,23,0.8913043478260869
276,-1,-1,7,240,7,23,0.8916967509025271
277,-1,-1,7,241,7,23,0.8920863309352518
278,-1,-1,7,242,7,23,0.8924731182795699
279,-1,-1,7,243,7,23,0.8928571428571429
280,-1,-1,7,244,7,23,0.8932384341637011
281,-1,-1,7,245,7,23,0.8936170212765957
282,1,-1,7,245,7,24,0.8904593639575972
283,-1,-1,7,246,7,24,0.8908450704225352
284,-1,-1,7,247,7,24,0.8912280701754386
285,-1,-1,7,248,7,24,0.8916083916083916
286,-1,-1,7,249,7,24,0.89198606271777
287,-1,-1,7,250,7,24,0.8923611111111112
288,-1,-1,7,251,7,24,0.8927335640138409
289,-1,-1,7,252,7,24,0.8931034482758621
290,-1,-1,7,253,7,24,0.8934707903780069
291,-1,-1,7,254,7,24,0.8938356164383562
292,1,-1,7,254,7,25,0.8907849829351536
293,-1,-1,7,255,7,25,0.891156462585034
294,-1,-1,7,256,7,25,0.8915254237288136
295,-1,-1,7,257,7,25,0.8918918918918919
296,1,1,8,257,7,25,0.8922558922558923
297,-1,-1,8,258,7,25,0.8926174496644296
298,-1,-1,8,259,7,25,0.8929765886287625
299,1,-1,8,259,7,26,0.89
300,1,-1,8,259,7,27,0.8870431893687708
301,1,-1,8,259,7,28,0.8841059602649006
302,-1,-1,8,260,7,28,0.8844884488448845
303,-1,-1,8,261,7,28,0.8848684210526315
304,1,-1,8,261,7,29,0.8819672131147541
305,-1,-1,8,262,7,29,0.8823529411764706
306,-1,-1,8,263,7,29,0.8827361563517915
307,-1,-1,8,264,7,29,0.8831168831168831
308,-1,-1,8,265,7,29,0.883495145631068
309,1,-1,8,265,7,30,0.8806451612903226
310,-1,-1,8,266,7,30,0.8810289389067524
311,1,-1,8,266,7,31,0.8782051282051282
312,-1,-1,8,267,7,31,0.8785942492012779
313,-1,-1,8,268,7,31,0.8789808917197452
314,-1,-1,8,269,7,31,0.8793650793650793
315,-1,-1,8,270,7,31,0.879746835443038
316,-1,-1,8,271,7,31,0.8801261829652997
317,-1,-1,8,272,7,31,0.8805031446540881
318,-1,-1,8,273,7,31,0.8808777429467085
319,-1,-1,8,274,7,31,0.88125
320,-1,-1,8,275,7,31,0.881619937694704
321,-1,-1,8,276,7,31,0.8819875776397516
322,-1,1,8,276,8,31,0.8792569659442725
323,-1,-1,8,277,8,31,0.8796296296296297
324,-1,1,8,277,9,31,0.8769230769230769
325,-1,-1,8,278,9,31,0.8773006134969326
326,-1,-1,8,279,9,31,0.8776758409785933
327,-1,-1,8,280,9,31,0.8780487804878049
328,-1,-1,8,281,9,31,0.878419452887538
329,1,-1,8,281,9,32,0.8757575757575757
330,-1,-1,8,282,9,32,0.8761329305135952
331,-1,-1,8,283,9,32,0.8765060240963856
332,-1,-1,8,284,9,32,0.8768768768768769
333,1,1,9,284,9,32,0.8772455089820359
334,1,-1,9,284,9,33,0.8746268656716418
335,-1,1,9,284,10,33,0.8720238095238095
336,-1,-1,9,285,10,33,0.8724035608308606
337,-1,-1,9,286,10,33,0.8727810650887574
338,-1,-1,9,287,10,33,0.8731563421828908
339,-1,-1,9,288,10,33,0.8735294117647059
340,-1,-1,9,289,10,33,0.873900293255132
341,1,-1,9,289,10,34,0.8713450292397661
342,-1,-1,9,290,10,34,0.8717201166180758
343,-1,-1,9,291,10,34,0.872093023255814
344,-1,-1,9,292,10,34,0.8724637681159421
345,-1,-1,9,293,10,34,0.8728323699421965
346,-1,-1,9,294,10,34,0.8731988472622478
347,1,-1,9,294,10,35,0.8706896551724138
348,-1,-1,9,295,10,35,0.8710601719197708
349,-1,-1,9,296,10,35,0.8714285714285714
350,-1,-1,9,297,10,35,0.8717948717948718
351,-1,-1,9,298,10,35,0.8721590909090909
352,-1,-1,9,299,10,35,0.8725212464589235
353,-1,-1,9,300,10,35,0.8728813559322034
354,-1,-1,9,301,10,35,0.8732394366197183
355,-1,-1,9,302,10,35,0.8735955056179775
356,-1,-1,9,303,10,35,0.8739495798319328
357,-1,-1,9,304,10,35,0.8743016759776536
358,-1,-1,9,305,10,35,0.8746518105849582
359,-1,-1,9,306,10,35,0.875
360,-1,-1,9,307,10,35,0.8753462603878116
361,-1,-1,9,308,10,35,0.8756906077348067
362,-1,-1,9,309,10,35,0.8760330578512396
363,-1,-1,9,310,10,35,0.8763736263736264
364,-1,-1,9,311,10,35,0.8767123287671232
365,-1,-1,9,312,10,35,0.8770491803278688
366,-1,-1,9,313,10,35,0.8773841961852861
367,-1,-1,9,314,10,35,0.8777173913043478
368,-1,-1,9,315,10,35,0.8780487804878049
369,-1,-1,9,316,10,35,0.8783783783783784
370,-1,-1,9,317,10,35,0.8787061994609164
371,-1,-1,9,318,10,35,0.8790322580645161
372,-1,-1,9,319,10,35,0.8793565683646113
373,-1,-1,9,320,10,35,0.8796791443850267
374,-1,-1,9,321,10,35,0.88
375,-1,-1,9,322,10,35,0.8803191489361702
376,-1,-1,9,323,10,35,0.8806366047745358
377,-1,-1,9,324,10,35,0.8809523809523809
378,-1,-1,9,325,10,35,0.8812664907651715
379,1,1,10,325,10,35,0.881578947368421
380,1,-1,10,325,10,36,0.8792650918635171
381,-1,-1,10,326,10,36,0.8795811518324608
382,-1,-1,10,327,10,36,0.8798955613577023
383,-1,-1,10,328,10,36,0.8802083333333334
384,-1,-1,10,329,10,36,0.8805194805194805
385,-1,-1,10,330,10,36,0.8808290155440415
386,-1,-1,10,331,10,36,0.8811369509043928
387,-1,1,10,331,11,36,0.8788659793814433
388,-1,-1,10,332,11,36,0.8791773778920309
389,-1,-1,10,333,11,36,0.8794871794871795
390,-1,-1,10,334,11,36,0.8797953964194374
391,-1,-1,10,335,11,36,0.8801020408163265
392,1,-1,10,335,11,37,0.8778625954198473
393,-1,-1,10,336,11,37,0.8781725888324873
394,-1,-1,10,337,11,37,0.8784810126582279
395,1,1,11,337,11,37,0.8787878787878788
396,-1,-1,11,338,11,37,0.8790931989924433
397,-1,-1,11,339,11,37,0.8793969849246231
398,-1,-1,11,340,11,37,0.8796992481203008
399,-1,-1,11,341,11,37,0.88
400,-1,-1,11,342,11,37,0.8802992518703242
401,-1,-1,11,343,11,37,0.8805970149253731
402,-1,-1,11,344,11,37,0.8808933002481389
403,-1,-1,11,345,11,37,0.8811881188118812
404,-1,-1,11,346,11,37,0.8814814814814815
405,-1,-1,11,347,11,37,0.8817733990147784
406,-1,-1,11,348,11,37,0.8820638820638821
407,-1,-1,11,349,11,37,0.8823529411764706
408,-1,-1,11,350,11,37,0.882640586797066
409,-1,-1,11,351,11,37,0.8829268292682927
410,-1,-1,11,352,11,37,0.8832116788321168
411,-1,-1,11,353,11,37,0.883495145631068
412,-1,-1,11,354,11,37,0.8837772397094431
413,1,-1,11,354,11,38,0.8816425120772947
414,-1,-1,11,355,11,38,0.8819277108433735
415,-1,-1,11,356,11,38,0.8822115384615384
416,-1,-1,11,357,11,38,0.882494004796163
417,-1,-1,11,358,11,38,0.8827751196172249
418,-1,-1,11,359,11,38,0.883054892601432
419,-1,-1,11,360,11,38,0.8833333333333333
420,-1,-1,11,361,11,38,0.8836104513064132
421,-1,-1,11,362,11,38,0.8838862559241706
422,-1,-1,11,363,11,38,0.8841607565011821
423,-1,-1,11,364,11,38,0.8844339622641509
424,-1,-1,11,365,11,38,0.8847058823529412
425,-1,-1,11,366,11,38,0.8849765258215962
426,-1,-1,11,367,11,38,0.8852459016393442
427,-1,-1,11,368,11,38,0.8855140186915887
428,-1,-1,11,369,11,38,0.8857808857808858
429,1,-1,11,369,11,39,0.8837209302325582
430,-1,-1,11,370,11,39,0.8839907192575406
431,-1,-1,11,371,11,39,0.8842592592592593
432,-1,-1,11,372,11,39,0.8845265588914549
433,-1,-1,11,373,11,39,0.8847926267281107
434,-1,-1,11,374,11,39,0.8850574712643678
435,-1,-1,11,375,11,39,0.8853211009174312
436,-1,-1,11,376,11,39,0.88558352402746
437,-1,-1,11,377,11,39,0.8858447488584474
438,-1,-1,11,378,11,39,0.8861047835990888
439,-1,1,11,378,12,39,0.884090909090909
440,-1,-1,11,379,12,39,0.8843537414965986
441,-1,-1,11,380,12,39,0.8846153846153846
442,-1,-1,11,381,12,39,0.8848758465011287
443,-1,-1,11,382,12,39,0.8851351351351351
444,-1,-1,11,383,12,39,0.8853932584269663
445,-1,-1,11,384,12,39,0.8856502242152466
446,-1,-1,11,385,12,39,0.8859060402684564
447,-1,-1,11,386,12,39,0.8861607142857143
448,-1,-1,11,387,12,39,0.8864142538975501
449,-1,-1,11,388,12,39,0.8866666666666667
450,-1,-1,11,389,12,39,0.8869179600886918
451,-1,-1,11,390,12,39,0.8871681415929203
452,-1,-1,11,391,12,39,0.8874172185430463
453,-1,-1,11,392,12,39,0.8876651982378855
454,-1,-1,11,393,12,39,0.8879120879120879
455,-1,-1,11,394,12,39,0.8881578947368421
456,-1,-1,11,395,12,39,0.888402625820569
457,-1,-1,11,396,12,39,0.888646288209607
458,-1,-1,11,397,12,39,0.8888888888888888
459,1,-1,11,397,12,40,0.8869565217391304
460,-1,-1,11,398,12,40,0.8872017353579176
461,1,-1,11,398,12,41,0.8852813852813853
462,-1,-1,11,399,12,41,0.8855291576673866
463,-1,-1,11,400,12,41,0.8857758620689655
464,-1,-1,11,401,12,41,0.886021505376344
465,-1,-1,11,402,12,41,0.8862660944206009
466,-1,1,11,402,13,41,0.8843683083511777
467,-1,-1,11,403,13,41,0.8846153846153846
468,-1,-1,11,404,13,41,0.8848614072494669
469,-1,-1,11,405,13,41,0.8851063829787233
470,-1,-1,11,406,13,41,0.8853503184713376
471,-1,-1,11,407,13,41,0.885593220338983
472,-1,-1,11,408,13,41,0.8858350951374208
473,-1,-1,11,409,13,41,0.8860759493670886
474,-1,-1,11,410,13,41,0.8863157894736842
475,-1,-1,11,411,13,41,0.8865546218487395
476,1,-1,11,411,13,42,0.8846960167714885
477,-1,-1,11,412,13,42,0.8849372384937239
478,-1,-1,11,413,13,42,0.8851774530271399
479,-1,-1,11,414,13,42,0.8854166666666666
480,-1,-1,11,415,13,42,0.8856548856548857
481,1,-1,11,415,13,43,0.8838174273858921
482,-1,-1,11,416,13,43,0.8840579710144928
483,-1,-1,11,417,13,43,0.8842975206611571
484,-1,-1,11,418,13,43,0.8845360824742268
485,-1,-1,11,419,13,43,0.8847736625514403
486,-1,-1,11,420,13,43,0.8850102669404517
487,-1,-1,11,421,13,43,0.8852459016393442
488,-1,-1,11,422,13,43,0.885480572597137
489,-1,-1,11,423,13,43,0.8857142857142857
490,-1,-1,11,424,13,43,0.8859470468431772
491,-1,-1,11,425,13,43,0.8861788617886179
492,-1,-1,11,426,13,43,0.8864097363083164
493,-1,-1,11,427,13,43,0.8866396761133604
494,-1,-1,11,428,13,43,0.8868686868686869
495,-1,-1,11,429,13,43,0.8870967741935484
496,-1,-1,11,430,13,43,0.8873239436619719
497,-1,-1,11,431,13,43,0.8875502008032129
498,-1,-1,11,432,13,43,0.8877755511022044
499,-1,-1,11,433,13,43,0.888
500,-1,-1,11,434,13,43,0.8882235528942116
501,1,-1,11,434,13,44,0.8864541832669323
502,-1,-1,11,435,13,44,0.8866799204771372
503,-1,-1,11,436,13,44,0.8869047619047619
504,-1,-1,11,437,13,44,0.8871287128712871
505,-1,-1,11,438,13,44,0.8873517786561265
506,-1,-1,11,439,13,44,0.8875739644970414
507,-1,-1,11,440,13,44,0.8877952755905512
508,-1,-1,11,441,13,44,0.888015717092338
509,-1,-1,11,442,13,44,0.888235294117647
510,-1,-1,11,443,13,44,0.8884540117416829
511,1,1,12,443,13,44,0.888671875
512,1,-1,12,443,13,45,0.8869395711500975
513,-1,-1,12,444,13,45,0.8871595330739299
514,-1,-1,12,445,13,45,0.887378640776699
515,-1,-1,12,446,13,45,0.8875968992248062
516,-1,-1,12,447,13,45,0.8878143133462283
517,-1,-1,12,448,13,45,0.888030888030888
518,-1,-1,12,449,13,45,0.8882466281310212
519,-1,-1,12,450,13,45,0.8884615384615384
520,-1,-1,12,451,13,45,0.8886756238003839
521,-1,-1,12,452,13,45,0.8888888888888888
522,-1,-1,12,453,13,45,0.8891013384321224
523,-1,-1,12,454,13,45,0.8893129770992366
524,-1,-1,12,455,13,45,0.8895238095238095
525,-1,-1,12,456,13,45,0.8897338403041825
526,-1,-1,12,457,13,45,0.889943074003795
527,-1,-1,12,458,13,45,0.8901515151515151
528,-1,-1,12,459,13,45,0.8903591682419659
529,1,-1,12,459,13,46,0.8886792452830189
530,-1,-1,12,460,13,46,0.8888888888888888
531,-1,-1,12,461,13,46,0.8890977443609023
532,-1,-1,12,462,13,46,0.8893058161350844
533,-1,-1,12,463,13,46,0.8895131086142322
534,1,-1,12,463,13,47,0.8878504672897196
535,1,-1,12,463,13,48,0.8861940298507462
536,1,1,13,463,13,48,0.8864059590316573
537,-1,-1,13,464,13,48,0.8866171003717472
538,-1,-1,13,465,13,48,0.8868274582560297
539,-1,-1,13,466,13,48,0.8870370370370371
540,-1,-1,13,467,13,48,0.8872458410351202
541,-1,-1,13,468,13,48,0.8874538745387454
542,1,-1,13,468,13,49,0.8858195211786372
543,-1,-1,13,469,13,49,0.8860294117647058
544,-1,-1,13,470,13,49,0.8862385321100917
545,-1,-1,13,471,13,49,0.8864468864468864
546,-1,-1,13,472,13,49,0.886654478976234
547,1,-1,13,472,13,50,0.885036496350365
548,-1,-1,13,473,13,50,0.8852459016393442
549,-1,-1,13,474,13,50,0.8854545454545455
550,-1,-1,13,475,13,50,0.8856624319419237
551,-1,-1,13,476,13,50,0.8858695652173914
552,-1,-1,13,477,13,50,0.8860759493670886
553,-1,-1,13,478,13,50,0.8862815884476535
554,-1,-1,13,479,13,50,0.8864864864864865
555,-1,-1,13,480,13,50,0.8866906474820144
556,1,-1,13,480,13,51,0.8850987432675045
557,-1,-1,13,481,13,51,0.8853046594982079
558,-1,-1,13,482,13,51,0.8855098389982111
559,-1,-1,13,483,13,51,0.8857142857142857
560,-1,-1,13,484,13,51,0.8859180035650623
561,-1,-1,13,485,13,51,0.8861209964412812
562,1,-1,13,485,13,52,0.8845470692717584
563,-1,-1,13,486,13,52,0.8847517730496454
564,-1,-1,13,487,13,52,0.8849557522123894
565,-1,-1,13,488,13,52,0.8851590106007067
566,-1,-1,13,489,13,52,0.8853615520282186
567,-1,-1,13,490,13,52,0.8855633802816901
568,-1,-1,13,491,13,52,0.8857644991212654
569,-1,-1,13,492,13,52,0.8859649122807017
570,1,-1,13,492,13,53,0.8844133099824869
571,-1,-1,13,493,13,53,0.8846153846153846
572,-1,-1,13,494,13,53,0.8848167539267016
573,-1,-1,13,495,13,53,0.8850174216027874
574,1,-1,13,495,13,54,0.8834782608695653
575,1,-1,13,495,13,55,0.8819444444444444
576,-1,-1,13,496,13,55,0.8821490467937608
577,-1,-1,13,497,13,55,0.8823529411764706
578,-1,-1,13,498,13,55,0.8825561312607945
579,-1,-1,13,499,13,55,0.8827586206896552
580,-1,-1,13,500,13,55,0.882960413080895
581,-1,-1,13,501,13,55,0.8831615120274914
582,-1,-1,13,502,13,55,0.8833619210977701
583,-1,-1,13,503,13,55,0.8835616438356164
584,-1,-1,13,504,13,55,0.8837606837606837
585,-1,-1,13,505,13,55,0.8839590443686007
586,-1,-1,13,506,13,55,0.8841567291311755
587,-1,-1,13,507,13,55,0.8843537414965986
588,-1,-1,13,508,13,55,0.8845500848896435
589,-1,-1,13,509,13,55,0.8847457627118644
590,1,-1,13,509,13,56,0.883248730964467
591,-1,-1,13,510,13,56,0.8834459459459459
592,-1,-1,13,511,13,56,0.8836424957841484
593,1,-1,13,511,13,57,0.8821548821548821
594,-1,-1,13,512,13,57,0.8823529411764706
595,-1,-1,13,513,13,57,0.8825503355704698
596,-1,-1,13,514,13,57,0.8827470686767169
597,-1,-1,13,515,13,57,0.882943143812709
598,-1,-1,13,516,13,57,0.8831385642737897
599,-1,-1,13,517,13,57,0.8833333333333333
600,-1,-1,13,518,13,57,0.8835274542429284
601,-1,-1,13,519,13,57,0.8837209302325582
602,-1,-1,13,520,13,57,0.8839137645107794
603,-1,-1,13,521,13,57,0.8841059602649006
604,-1,-1,13,522,13,57,0.8842975206611571
605,1,-1,13,522,13,58,0.8828382838283828
606,-1,-1,13,523,13,58,0.8830313014827018
607,-1,-1,13,524,13,58,0.8832236842105263
608,-1,-1,13,525,13,58,0.8834154351395731
609,-1,-1,13,526,13,58,0.8836065573770492
610,1,1,14,526,13,58,0.88379705400982
611,-1,-1,14,527,13,58,0.8839869281045751
612,-1,-1,14,528,13,58,0.8841761827079935
613,-1,-1,14,529,13,58,0.8843648208469055
614,-1,-1,14,530,13,58,0.8845528455284553
615,-1,-1,14,531,13,58,0.8847402597402597
616,1,-1,14,531,13,59,0.8833063209076175
617,1,-1,14,531,13,60,0.8818770226537217
618,-1,-1,14,532,13,60,0.8820678513731826
619,-1,-1,14,533,13,60,0.882258064516129
620,-1,-1,14,534,13,60,0.8824476650563607
621,-1,-1,14,535,13,60,0.882636655948553
622,-1,-1,14,536,13,60,0.8828250401284109
623,-1,-1,14,537,13,60,0.8830128205128205
624,-1,-1,14,538,13,60,0.8832
625,-1,-1,14,539,13,60,0.8833865814696485
626,-1,-1,14,540,13,60,0.8835725677830941
627,-1,-1,14,541,13,60,0.8837579617834395
628,-1,-1,14,542,13,60,0.8839427662957074
629,-1,-1,14,543,13,60,0.8841269841269841
630,-1,-1,14,544,13,60,0.884310618066561
631,-1,-1,14,545,13,60,0.884493670886076
632,1,-1,14,545,13,61,0.8830963665086888
633,-1,-1,14,546,13,61,0.8832807570977917
634,-1,-1,14,547,13,61,0.8834645669291339
635,1,-1,14,547,13,62,0.8820754716981132
636,-1,-1,14,548,13,62,0.8822605965463108
637,-1,-1,14,549,13,62,0.8824451410658307
638,-1,-1,14,550,13,62,0.8826291079812206
639,-1,-1,14,551,13,62,0.8828125
640,-1,-1,14,552,13,62,0.8829953198127926
641,-1,-1,14,553,13,62,0.883177570093458
642,-1,-1,14,554,13,62,0.8833592534992224
643,-1,-1,14,555,13,62,0.8835403726708074
644,-1,-1,14,556,13,62,0.8837209302325582
645,-1,-1,14,557,13,62,0.8839009287925697
646,-1,-1,14,558,13,62,0.884080370942813
647,-1,-1,14,559,13,62,0.8842592592592593
648,-1,-1,14,560,13,62,0.884437596302003
649,-1,-1,14,561,13,62,0.8846153846153846
650,-1,-1,14,562,13,62,0.8847926267281107
651,-1,-1,14,563,13,62,0.8849693251533742
652,-1,-1,14,564,13,62,0.885145482388974
653,1,1,15,564,13,62,0.8853211009174312
654,-1,-1,15,565,13,62,0.8854961832061069
655,-1,-1,15,566,13,62,0.885670731707317
656,-1,-1,15,567,13,62,0.8858447488584474
657,-1,-1,15,568,13,62,0.8860182370820668
658,-1,-1,15,569,13,62,0.8861911987860395
659,-1,-1,15,570,13,62,0.8863636363636364
660,-1,-1,15,571,13,62,0.886535552193646
661,-1,-1,15,572,13,62,0.8867069486404834
662,-1,-1,15,573,13,62,0.8868778280542986
663,1,1,16,573,13,62,0.8870481927710844
664,-1,-1,16,574,13,62,0.8872180451127819
665,-1,-1,16,575,13,62,0.8873873873873874
666,-1,-1,16,576,13,62,0.8875562218890555
667,-1,-1,16,577,13,62,0.8877245508982036
668,-1,-1,16,578,13,62,0.8878923766816144
669,-1,-1,16,579,13,62,0.8880597014925373
670,1,-1,16,579,13,63,0.886736214605067
671,-1,-1,16,580,13,63,0.8869047619047619
672,1,-1,16,580,13,64,0.8855869242199108
673,-1,-1,16,581,13,64,0.8857566765578635
674,-1,-1,16,582,13,64,0.8859259259259259
675,-1,-1,16,583,13,64,0.886094674556213
676,-1,-1,16,584,13,64,0.8862629246676514
677,-1,-1,16,585,13,64,0.8864306784660767
678,-1,-1,16,586,13,64,0.8865979381443299
679,-1,-1,16,587,13,64,0.8867647058823529
680,-1,-1,16,588,13,64,0.8869309838472834
681,1,1,17,588,13,64,0.8870967741935484
682,-1,-1,17,589,13,64,0.8872620790629575
683,-1,-1,17,590,13,64,0.8874269005847953
684,-1,-1,17,591,13,64,0.8875912408759125
685,1,-1,17,591,13,65,0.8862973760932945
686,-1,-1,17,592,13,65,0.8864628820960698
687,1,-1,17,592,13,66,0.8851744186046512
688,-1,-1,17,593,13,66,0.8853410740203193
689,-1,-1,17,594,13,66,0.8855072463768116
690,-1,-1,17,595,13,66,0.8856729377713459
691,-1,-1,17,596,13,66,0.8858381502890174
692,-1,-1,17,597,13,66,0.886002886002886
693,-1,-1,17,598,13,66,0.8861671469740634
694,-1,-1,17,599,13,66,0.8863309352517985
695,-1,-1,17,600,13,66,0.8864942528735632
696,-1,-1,17,601,13,66,0.8866571018651362
697,-1,-1,17,602,13,66,0.8868194842406877
698,-1,-1,17,603,13,66,0.8869814020028612
699,-1,-1,17,604,13,66,0.8871428571428571
700,-1,-1,17,605,13,66,0.8873038516405135
701,-1,-1,17,606,13,66,0.8874643874643875
702,-1,-1,17,607,13,66,0.887624466571835
703,-1,-1,17,608,13,66,0.8877840909090909
704,-1,-1,17,609,13,66,0.8879432624113475
705,-1,-1,17,610,13,66,0.8881019830028328
706,-1,-1,17,611,13,66,0.8882602545968883
707,-1,-1,17,612,13,66,0.8884180790960452
708,-1,-1,17,613,13,66,0.8885754583921015
709,-1,-1,17,614,13,66,0.8887323943661972
710,1,-1,17,614,13,67,0.8874824191279888
711,-1,-1,17,615,13,67,0.8876404494382022
712,-1,-1,17,616,13,67,0.8877980364656382
713,-1,-1,17,617,13,67,0.8879551820728291
714,-1,-1,17,618,13,67,0.8881118881118881
715,-1,-1,17,619,13,67,0.888268156424581
716,-1,-1,17,620,13,67,0.8884239888423989
717,-1,-1,17,621,13,67,0.8885793871866295
718,-1,-1,17,622,13,67,0.8887343532684284
719,-1,-1,17,623,13,67,0.8888888888888888
720,-1,-1,17,624,13,67,0.8890429958391124
721,-1,-1,17,625,13,67,0.889196675900277
722,-1,-1,17,626,13,67,0.8893499308437067
723,-1,-1,17,627,13,67,0.8895027624309392
724,-1,-1,17,628,13,67,0.8896551724137931
725,-1,-1,17,629,13,67,0.8898071625344353
726,-1,-1,17,630,13,67,0.889958734525447
727,-1,-1,17,631,13,67,0.8901098901098901
728,1,-1,17,631,13,68,0.8888888888888888
729,-1,-1,17,632,13,68,0.8890410958904109
730,-1,-1,17,633,13,68,0.8891928864569083
731,-1,-1,17,634,13,68,0.889344262295082
732,-1,-1,17,635,13,68,0.8894952251023193
733,-1,-1,17,636,13,68,0.8896457765667575
734,-1,-1,17,637,13,68,0.889795918367347
735,-1,-1,17,638,13,68,0.8899456521739131
736,-1,-1,17,639,13,68,0.8900949796472184
737,-1,-1,17,640,13,68,0.8902439024390244
738,-1,-1,17,641,13,68,0.8903924221921515
739,-1,-1,17,642,13,68,0.8905405405405405
740,-1,-1,17,643,13,68,0.8906882591093117
741,-1,-1,17,644,13,68,0.8908355795148248
742,-1,-1,17,645,13,68,0.8909825033647375
743,-1,-1,17,646,13,68,0.8911290322580645
744,-1,-1,17,647,13,68,0.8912751677852349
745,-1,-1,17,648,13,68,0.8914209115281502
746,1,-1,17,648,13,69,0.8902275769745649
747,1,-1,17,648,13,70,0.8890374331550802
748,-1,-1,17,649,13,70,0.8891855807743658
749,-1,-1,17,650,13,70,0.8893333333333333
750,-1,-1,17,651,13,70,0.8894806924101198
751,-1,-1,17,652,13,70,0.8896276595744681
752,-1,-1,17,653,13,70,0.8897742363877822
753,-1,-1,17,654,13,70,0.889920424403183
754,-1,-1,17,655,13,70,0.8900662251655629
755,-1,-1,17,656,13,70,0.8902116402116402
756,1,1,18,656,13,70,0.8903566710700133
757,-1,-1,18,657,13,70,0.8905013192612137
758,-1,-1,18,658,13,70,0.8906455862977603
759,-1,-1,18,659,13,70,0.8907894736842106
760,-1,-1,18,660,13,70,0.8909329829172142
761,1,-1,18,660,13,71,0.889763779527559
762,1,-1,18,660,13,72,0.8885976408912188
763,-1,-1,18,661,13,72,0.8887434554973822
764,-1,-1,18,662,13,72,0.8888888888888888
765,-1,-1,18,663,13,72,0.8890339425587467
766,-1,-1,18,664,13,72,0.8891786179921773
767,-1,-1,18,665,13,72,0.8893229166666666
768,-1,-1,18,666,13,72,0.8894668400520156
769,-1,-1,18,667,13,72,0.8896103896103896
770,1,-1,18,667,13,73,0.8884565499351491
771,-1,-1,18,668,13,73,0.8886010362694301
772,1,-1,18,668,13,74,0.88745148771022
773,-1,-1,18,669,13,74,0.8875968992248062
774,-1,-1,18,670,13,74,0.8877419354838709
775,-1,-1,18,671,13,74,0.8878865979381443
776,-1,-1,18,672,13,74,0.888030888030888
777,1,-1,18,672,13,75,0.8868894601542416
778,-1,-1,18,673,13,75,0.8870346598202824
779,-1,-1,18,674,13,75,0.8871794871794871
780,-1,-1,18,675,13,75,0.8873239436619719
781,-1,-1,18,676,13,75,0.887468030690537
782,-1,-1,18,677,13,75,0.8876117496807152
783,1,-1,18,677,13,76,0.8864795918367347
784,-1,-1,18,678,13,76,0.8866242038216561
785,-1,-1,18,679,13,76,0.8867684478371501
786,-1,-1,18,680,13,76,0.8869123252858958
787,-1,-1,18,681,13,76,0.8870558375634517
788,1,-1,18,681,13,77,0.8859315589353612
789,-1,-1,18,682,13,77,0.8860759493670886
790,-1,-1,18,683,13,77,0.8862199747155499
791,-1,-1,18,684,13,77,0.8863636363636364
792,-1,-1,18,685,13,77,0.8865069356872636
793,-1,-1,18,686,13,77,0.8866498740554156
794,-1,-1,18,687,13,77,0.8867924528301887
795,-1,-1,18,688,13,77,0.8869346733668342
796,-1,-1,18,689,13,77,0.8870765370138017
797,-1,-1,18,690,13,77,0.8872180451127819
798,-1,-1,18,691,13,77,0.8873591989987485
799,-1,-1,18,692,13,77,0.8875
800,-1,-1,18,693,13,77,0.8876404494382022
801,-1,-1,18,694,13,77,0.8877805486284289
802,-1,-1,18,695,13,77,0.887920298879203
803,-1,-1,18,696,13,77,0.8880597014925373
804,-1,-1,18,697,13,77,0.8881987577639752
805,-1,1,18,697,14,77,0.8870967741935484
806,-1,-1,18,698,14,77,0.8872366790582404
807,-1,-1,18,699,14,77,0.8873762376237624
808,-1,-1,18,700,14,77,0.8875154511742892
809,-1,-1,18,701,14,77,0.8876543209876543
810,-1,-1,18,702,14,77,0.8877928483353884
811,-1,-1,18,703,14,77,0.8879310344827587
812,-1,-1,18,704,14,77,0.8880688806888068
813,-1,-1,18,705,14,77,0.8882063882063882
814,-1,-1,18,706,14,77,0.8883435582822086
815,-1,-1,18,707,14,77,0.8884803921568627
816,-1,-1,18,708,14,77,0.8886168910648715
817,-1,-1,18,709,14,77,0.8887530562347188
818,-1,-1,18,710,14,77,0.8888888888888888
819,-1,-1,18,711,14,77,0.8890243902439025
820,1,-1,18,711,14,78,0.8879415347137637
821,-1,-1,18,712,14,78,0.8880778588807786
822,-1,-1,18,713,14,78,0.8882138517618469
823,-1,-1,18,714,14,78,0.8883495145631068
824,-1,-1,18,715,14,78,0.8884848484848484
825,-1,-1,18,716,14,78,0.8886198547215496
826,-1,-1,18,717,14,78,0.8887545344619106
827,1,-1,18,717,14,79,0.8876811594202898
828,-1,-1,18,718,14,79,0.887816646562123
829,-1,-1,18,719,14,79,0.8879518072289156
830,-1,-1,18,720,14,79,0.8880866425992779
831,-1,-1,18,721,14,79,0.8882211538461539
832,-1,-1,18,722,14,79,0.8883553421368547
833,-1,-1,18,723,14,79,0.8884892086330936
834,-1,-1,18,724,14,79,0.888622754491018
835,-1,-1,18,725,14,79,0.888755980861244
836,-1,-1,18,726,14,79,0.8888888888888888
837,-1,-1,18,727,14,79,0.8890214797136038
838,-1,-1,18,728,14,79,0.8891537544696066
839,-1,-1,18,729,14,79,0.8892857142857142
840,-1,-1,18,730,14,79,0.8894173602853745
841,-1,-1,18,731,14,79,0.8895486935866983
842,-1,-1,18,732,14,79,0.8896797153024911
843,-1,-1,18,733,14,79,0.8898104265402843
844,-1,-1,18,734,14,79,0.8899408284023669
845,-1,-1,18,735,14,79,0.8900709219858156
846,-1,-1,18,736,14,79,0.8902007083825265
847,-1,-1,18,737,14,79,0.8903301886792453
848,-1,-1,18,738,14,79,0.8904593639575972
849,-1,-1,18,739,14,79,0.8905882352941177
850,-1,-1,18,740,14,79,0.8907168037602821
851,-1,-1,18,741,14,79,0.8908450704225352
852,-1,-1,18,742,14,79,0.8909730363423212
853,-1,-1,18,743,14,79,0.8911007025761124
854,-1,-1,18,744,14,79,0.8912280701754386
855,-1,-1,18,745,14,79,0.8913551401869159
856,-1,-1,18,746,14,79,0.8914819136522754
857,-1,-1,18,747,14,79,0.8916083916083916
858,-1,-1,18,748,14,79,0.8917345750873108
859,-1,-1,18,749,14,79,0.891860465116279
860,-1,-1,18,750,14,79,0.89198606271777
861,1,-1,18,750,14,80,0.8909512761020881
862,-1,-1,18,751,14,80,0.8910776361529548
863,-1,-1,18,752,14,80,0.8912037037037037
864,-1,-1,18,753,14,80,0.8913294797687862
865,-1,-1,18,754,14,80,0.8914549653579676
866,-1,-1,18,755,14,80,0.8915801614763552
867,-1,-1,18,756,14,80,0.8917050691244239
868,-1,-1,18,757,14,80,0.8918296892980437
869,-1,-1,18,758,14,80,0.8919540229885058
870,-1,-1,18,759,14,80,0.8920780711825488
871,-1,-1,18,760,14,80,0.8922018348623854
872,-1,-1,18,761,14,80,0.8923253150057274
873,-1,-1,18,762,14,80,0.8924485125858124
874,-1,-1,18,763,14,80,0.8925714285714286
875,-1,-1,18,764,14,80,0.8926940639269406
876,-1,-1,18,765,14,80,0.8928164196123147
877,-1,-1,18,766,14,80,0.8929384965831435
878,-1,-1,18,767,14,80,0.8930602957906713
879,-1,-1,18,768,14,80,0.8931818181818182
880,-1,-1,18,769,14,80,0.8933030646992054
881,-1,-1,18,770,14,80,0.8934240362811792
882,-1,-1,18,771,14,80,0.8935447338618346
883,-1,-1,18,772,14,80,0.8936651583710408
884,-1,-1,18,773,14,80,0.8937853107344633
885,-1,-1,18,774,14,80,0.8939051918735892
886,-1,-1,18,775,14,80,0.8940248027057497
887,-1,-1,18,776,14,80,0.8941441441441441
888,-1,-1,18,777,14,80,0.8942632170978627
889,-1,-1,18,778,14,80,0.8943820224719101
890,-1,-1,18,779,14,80,0.8945005611672279
891,1,-1,18,779,14,81,0.8934977578475336
892,-1,-1,18,780,14,81,0.8936170212765957
893,1,-1,18,780,14,82,0.8926174496644296
894,-1,-1,18,781,14,82,0.8927374301675978
895,-1,-1,18,782,14,82,0.8928571428571429
896,-1,-1,18,783,14,82,0.8929765886287625
897,-1,-1,18,784,14,82,0.8930957683741648
898,-1,-1,18,785,14,82,0.8932146829810901
899,-1,-1,18,786,14,82,0.8933333333333333
900,-1,-1,18,787,14,82,0.8934517203107658
901,1,-1,18,787,14,83,0.8924611973392461
902,1,-1,18,787,14,84,0.8914728682170543
903,-1,-1,18,788,14,84,0.8915929203539823
904,-1,-1,18,789,14,84,0.8917127071823204
905,-1,-1,18,790,14,84,0.891832229580574
906,-1,-1,18,791,14,84,0.8919514884233738
907,1,1,19,791,14,84,0.8920704845814978
908,-1,-1,19,792,14,84,0.8921892189218922
909,-1,-1,19,793,14,84,0.8923076923076924
910,-1,-1,19,794,14,84,0.8924259055982436
911,-1,-1,19,795,14,84,0.8925438596491229
912,-1,-1,19,796,14,84,0.8926615553121577
913,-1,-1,19,797,14,84,0.8927789934354485
914,-1,1,19,797,15,84,0.8918032786885246
915,-1,-1,19,798,15,84,0.8919213973799127
916,-1,-1,19,799,15,84,0.8920392584514721
917,-1,-1,19,800,15,84,0.8921568627450981
918,-1,-1,19,801,15,84,0.8922742110990207
919,-1,-1,19,802,15,84,0.8923913043478261
920,1,-1,19,802,15,85,0.8914223669923995
921,-1,-1,19,803,15,85,0.8915401301518439
922,-1,-1,19,804,15,85,0.8916576381365113
923,-1,-1,19,805,15,85,0.8917748917748918
924,-1,-1,19,806,15,85,0.8918918918918919
925,-1,-1,19,807,15,85,0.8920086393088553
926,-1,-1,19,808,15,85,0.8921251348435815
927,1,-1,19,808,15,86,0.8911637931034483
928,-1,-1,19,809,15,86,0.891280947255113
929,-1,-1,19,810,15,86,0.8913978494623656
930,-1,-1,19,811,15,86,0.8915145005370569
931,-1,-1,19,812,15,86,0.8916309012875536
932,-1,-1,19,813,15,86,0.8917470525187567
933,-1,-1,19,814,15,86,0.8918629550321199
934,-1,-1,19,815,15,86,0.8919786096256684
935,-1,-1,19,816,15,86,0.8920940170940171
936,-1,-1,19,817,15,86,0.8922091782283885
937,-1,-1,19,818,15,86,0.8923240938166311
938,-1,-1,19,819,15,86,0.8924387646432375
939,-1,-1,19,820,15,86,0.8925531914893617
940,-1,-1,19,821,15,86,0.8926673751328374
941,-1,-1,19,822,15,86,0.8927813163481954
942,-1,-1,19,823,15,86,0.8928950159066809
943,-1,-1,19,824,15,86,0.8930084745762712
944,-1,-1,19,825,15,86,0.8931216931216931
945,-1,-1,19,826,15,86,0.8932346723044398
946,-1,-1,19,827,15,86,0.8933474128827877
947,-1,-1,19,828,15,86,0.8934599156118144
948,-1,-1,19,829,15,86,0.8935721812434141
949,-1,-1,19,830,15,86,0.8936842105263157
950,-1,-1,19,831,15,86,0.8937960042060988
951,-1,-1,19,832,15,86,0.8939075630252101
952,1,-1,19,832,15,87,0.8929695697796433
953,-1,-1,19,833,15,87,0.8930817610062893
954,-1,-1,19,834,15,87,0.8931937172774869
955,-1,-1,19,835,15,87,0.893305439330544
956,-1,-1,19,836,15,87,0.8934169278996865
957,-1,-1,19,837,15,87,0.8935281837160751
958,-1,-1,19,838,15,87,0.8936392075078207
959,-1,-1,19,839,15,87,0.89375
960,-1,-1,19,840,15,87,0.8938605619146722
961,-1,-1,19,841,15,87,0.893970893970894
962,-1,-1,19,842,15,87,0.8940809968847352
963,1,-1,19,842,15,88,0.8931535269709544
964,1,-1,19,842,15,89,0.8922279792746114
965,1,-1,19,842,15,90,0.8913043478260869
966,1,-1,19,842,15,91,0.890382626680455
967,-1,-1,19,843,15,91,0.890495867768595
968,-1,-1,19,844,15,91,0.890608875128999
969,-1,-1,19,845,15,91,0.8907216494845361
970,-1,-1,19,846,15,91,0.8908341915550978
971,-1,-1,19,847,15,91,0.8909465020576132
972,-1,-1,19,848,15,91,0.8910585817060637
973,-1,-1,19,849,15,91,0.891170431211499
974,-1,-1,19,850,15,91,0.8912820512820513
975,-1,-1,19,851,15,91,0.8913934426229508
976,1,-1,19,851,15,92,0.8904810644831116
977,-1,-1,19,852,15,92,0.8905930470347648
978,-1,-1,19,853,15,92,0.8907048008171604
979,-1,-1,19,854,15,92,0.8908163265306123
980,-1,-1,19,855,15,92,0.890927624872579
981,-1,-1,19,856,15,92,0.8910386965376782
982,-1,-1,19,857,15,92,0.8911495422177009
983,-1,-1,19,858,15,92,0.891260162601626
984,-1,-1,19,859,15,92,0.8913705583756345
985,-1,-1,19,860,15,92,0.8914807302231237
986,-1,-1,19,861,15,92,0.8915906788247214
987,-1,-1,19,862,15,92,0.8917004048582996
988,-1,-1,19,863,15,92,0.8918099089989889
989,-1,-1,19,864,15,92,0.8919191919191919
990,-1,-1,19,865,15,92,0.8920282542885973
991,-1,-1,19,866,15,92,0.8921370967741935
992,-1,-1,19,867,15,92,0.892245720040282
993,-1,-1,19,868,15,92,0.892354124748491
994,1,1,20,868,15,92,0.892462311557789
995,-1,-1,20,869,15,92,0.892570281124498
996,-1,-1,20,870,15,92,0.892678034102307
997,-1,-1,20,871,15,92,0.8927855711422845
998,-1,-1,20,872,15,92,0.8928928928928929
999,-1,-1,20,873,15,92,0.893
1000,-1,-1,20,874,15,92,0.8931068931068931
1001,-1,-1,20,875,15,92,0.8932135728542914
1002,-1,-1,20,876,15,92,0.8933200398803589
1003,-1,-1,20,877,15,92,0.8934262948207171
1004,-1,-1,20,878,15,92,0.8935323383084577
1005,-1,-1,20,879,15,92,0.8936381709741551
1006,-1,1,20,879,16,92,0.8927507447864945
1007,-1,-1,20,880,16,92,0.8928571428571429
1008,-1,-1,20,881,16,92,0.8929633300297324
1009,1,-1,20,881,16,93,0.8920792079207921
1010,-1,-1,20,882,16,93,0.8921859545004945
1011,-1,-1,20,883,16,93,0.892292490118577
1012,1,1,21,883,16,93,0.8923988153998026
1013,-1,-1,21,884,16,93,0.8925049309664694
1014,-1,-1,21,885,16,93,0.8926108374384236
1015,-1,-1,21,886,16,93,0.8927165354330708
1016,-1,-1,21,887,16,93,0.8928220255653884
1017,1,-1,21,887,16,94,0.8919449901768173
1018,-1,-1,21,888,16,94,0.8920510304219823
1019,-1,-1,21,889,16,94,0.8921568627450981
1020,-1,-1,21,890,16,94,0.8922624877571009
1021,-1,-1,21,891,16,94,0.8923679060665362
1022,-1,-1,21,892,16,94,0.8924731182795699
1023,-1,-1,21,893,16,94,0.892578125
1024,-1,-1,21,894,16,94,0.8926829268292683
1025,-1,-1,21,895,16,94,0.8927875243664717
1026,-1,-1,21,896,16,94,0.8928919182083739
1027,-1,-1,21,897,16,94,0.8929961089494164
1028,1,-1,21,897,16,95,0.892128279883382
1029,1,1,22,897,16,95,0.8922330097087379
1030,-1,-1,22,898,16,95,0.8923375363724539
1031,-1,-1,22,899,16,95,0.8924418604651163
1032,1,-1,22,899,16,96,0.8915779283639884
1033,-1,-1,22,900,16,96,0.8916827852998066
1034,1,-1,22,900,16,97,0.8908212560386474
1035,1,-1,22,900,16,98,0.88996138996139
1036,-1,-1,22,901,16,98,0.8900675024108003
1037,-1,-1,22,902,16,98,0.8901734104046243
1038,-1,-1,22,903,16,98,0.890279114533205
1039,-1,-1,22,904,16,98,0.8903846153846153
1040,-1,-1,22,905,16,98,0.8904899135446686
1041,-1,-1,22,906,16,98,0.8905950095969289
1042,-1,-1,22,907,16,98,0.8906999041227229
1043,-1,-1,22,908,16,98,0.8908045977011494
1044,-1,-1,22,909,16,98,0.8909090909090909
1045,-1,-1,22,910,16,98,0.8910133843212237
1046,-1,-1,22,911,16,98,0.8911174785100286
1047,-1,-1,22,912,16,98,0.8912213740458015
1048,-1,-1,22,913,16,98,0.8913250714966635
1049,-1,-1,22,914,16,98,0.8914285714285715
1050,-1,-1,22,915,16,98,0.8915318744053282
1051,-1,-1,22,916,16,98,0.8916349809885932
1052,-1,-1,22,917,16,98,0.8917378917378918
1053,-1,-1,22,918,16,98,0.8918406072106262
1054,-1,-1,22,919,16,98,0.8919431279620853
1055,-1,-1,22,920,16,98,0.8920454545454546
1056,-1,-1,22,921,16,98,0.8921475875118259
1057,-1,-1,22,922,16,98,0.8922495274102079
1058,1,-1,22,922,16,99,0.8914069877242682
1059,-1,-1,22,923,16,99,0.8915094339622641
1060,-1,-1,22,924,16,99,0.8916116870876531
1061,-1,-1,22,925,16,99,0.891713747645951
1062,1,-1,22,925,16,100,0.8908748824082785
1063,-1,1,22,925,17,100,0.8900375939849624
1064,-1,-1,22,926,17,100,0.8901408450704226
1065,-1,-1,22,927,17,100,0.8902439024390244
1066,-1,1,22,927,18,100,0.8894095595126523
1067,-1,-1,22,928,18,100,0.8895131086142322
1068,-1,-1,22,929,18,100,0.8896164639850327
1069,1,-1,22,929,18,101,0.888785046728972
1070,-1,-1,22,930,18,101,0.8888888888888888
1071,1,1,23,930,18,101,0.8889925373134329
1072,-1,-1,23,931,18,101,0.8890959925442684
1073,-1,-1,23,932,18,101,0.8891992551210428
1074,-1,-1,23,933,18,101,0.8893023255813953
1075,-1,-1,23,934,18,101,0.8894052044609665
1076,-1,-1,23,935,18,101,0.8895078922934077
1077,-1,-1,23,936,18,101,0.8896103896103896
1078,-1,-1,23,937,18,101,0.8897126969416126
1079,1,-1,23,937,18,102,0.8888888888888888
1080,1,1,24,937,18,102,0.8889916743755781
1081,1,-1,24,937,18,103,0.8881700554528651
1082,-1,-1,24,938,18,103,0.8882733148661126
1083,-1,-1,24,939,18,103,0.8883763837638377
1084,-1,-1,24,940,18,103,0.8884792626728111
1085,-1,-1,24,941,18,103,0.8885819521178637
1086,-1,-1,24,942,18,103,0.8886844526218951
1087,1,-1,24,942,18,104,0.8878676470588235
1088,-1,-1,24,943,18,104,0.8879706152433425
1089,1,-1,24,943,18,105,0.8871559633027523
1090,-1,-1,24,944,18,105,0.8872593950504125
1091,-1,-1,24,945,18,105,0.8873626373626373
1092,1,-1,24,945,18,106,0.8865507776761208
1093,-1,-1,24,946,18,106,0.886654478976234
1094,1,-1,24,946,18,107,0.8858447488584474
1095,-1,-1,24,947,18,107,0.8859489051094891
1096,-1,-1,24,948,18,107,0.886052871467639
1097,-1,-1,24,949,18,107,0.8861566484517304
1098,-1,-1,24,950,18,107,0.8862602365787079
1099,-1,-1,24,951,18,107,0.8863636363636364
1100,-1,-1,24,952,18,107,0.8864668483197093
1101,-1,-1,24,953,18,107,0.8865698729582577
1102,-1,-1,24,954,18,107,0.886672710788758
1103,-1,-1,24,955,18,107,0.8867753623188406
1104,-1,-1,24,956,18,107,0.8868778280542986
1105,-1,-1,24,957,18,107,0.8869801084990958
1106,-1,-1,24,958,18,107,0.8870822041553749
1107,-1,-1,24,959,18,107,0.8871841155234657
1108,-1,-1,24,960,18,107,0.8872858431018936
1109,-1,-1,24,961,18,107,0.8873873873873874
1110,-1,-1,24,962,18,107,0.8874887488748875
1111,-1,-1,24,963,18,107,0.887589928057554
1112,-1,-1,24,964,18,107,0.8876909254267745
1113,-1,-1,24,965,18,107,0.8877917414721723
1114,-1,-1,24,966,18,107,0.8878923766816144
1115,-1,-1,24,967,18,107,0.8879928315412187
1116,-1,-1,24,968,18,107,0.8880931065353626
1117,-1,-1,24,969,18,107,0.8881932021466905
1118,-1,-1,24,970,18,107,0.8882931188561215
1119,-1,-1,24,971,18,107,0.8883928571428571
1120,-1,-1,24,972,18,107,0.8884924174843889
1121,-1,-1,24,973,18,107,0.8885918003565062
1122,-1,-1,24,974,18,107,0.8886910062333037
1123,-1,-1,24,975,18,107,0.8887900355871886
1124,-1,-1,24,976,18,107,0.8888888888888888
1125,1,-1,24,976,18,108,0.8880994671403197
1126,-1,-1,24,977,18,108,0.8881987577639752
1127,-1,-1,24,978,18,108,0.8882978723404256
1128,-1,-1,24,979,18,108,0.8883968113374667
1129,-1,-1,24,980,18,108,0.8884955752212389
1130,-1,-1,24,981,18,108,0.8885941644562334
1131,-1,-1,24,982,18,108,0.8886925795053003
1132,-1,-1,24,983,18,108,0.8887908208296558
1133,-1,-1,24,984,18,108,0.8888888888888888
1134,-1,-1,24,985,18,108,0.8889867841409692
1135,1,-1,24,985,18,109,0.8882042253521126
1136,-1,-1,24,986,18,109,0.8883025505716798
1137,-1,-1,24,987,18,109,0.8884007029876977
1138,-1,-1,24,988,18,109,0.8884986830553117
1139,-1,-1,24,989,18,109,0.8885964912280702
1140,1,-1,24,989,18,110,0.887817703768624
1141,-1,-1,24,990,18,110,0.8879159369527145
1142,-1,-1,24,991,18,110,0.8880139982502188
1143,1,-1,24,991,18,111,0.8872377622377622
1144,-1,-1,24,992,18,111,0.8873362445414847
1145,-1,-1,24,993,18,111,0.887434554973822
1146,-1,-1,24,994,18,111,0.8875326939843069
1147,1,-1,24,994,18,112,0.8867595818815331
1148,-1,-1,24,995,18,112,0.886858137510879
1149,-1,-1,24,996,18,112,0.8869565217391304
1150,-1,-1,24,997,18,112,0.8870547350130321
1151,-1,-1,24,998,18,112,0.8871527777777778
1152,-1,-1,24,999,18,112,0.8872506504770165
1153,-1,-1,24,1000,18,112,0.8873483535528596
1154,1,-1,24,1000,18,113,0.8865800865800866
1155,-1,-1,24,1001,18,113,0.8866782006920415
1156,-1,-1,24,1002,18,113,0.8867761452031115
1157,-1,-1,24,1003,18,113,0.886873920552677
1158,-1,-1,24,1004,18,113,0.8869715271786023
1159,-1,-1,24,1005,18,113,0.8870689655172413
1160,-1,-1,24,1006,18,113,0.8871662360034454
1161,-1,-1,24,1007,18,113,0.887263339070568
1162,-1,-1,24,1008,18,113,0.8873602751504729
1163,-1,-1,24,1009,18,113,0.8874570446735395
1164,-1,-1,24,1010,18,113,0.8875536480686695
1165,-1,-1,24,1011,18,113,0.8876500857632933
1166,-1,-1,24,1012,18,113,0.8877463581833762
1167,-1,-1,24,1013,18,113,0.8878424657534246
1168,-1,-1,24,1014,18,113,0.8879384088964928
1169,-1,-1,24,1015,18,113,0.888034188034188
1170,-1,-1,24,1016,18,113,0.888129803586678
1171,-1,-1,24,1017,18,113,0.8882252559726962
1172,-1,-1,24,1018,18,113,0.8883205456095482
1173,-1,-1,24,1019,18,113,0.8884156729131175
1174,-1,-1,24,1020,18,113,0.8885106382978724
1175,-1,1,24,1020,19,113,0.8877551020408163
1176,-1,-1,24,1021,19,113,0.8878504672897196
1177,-1,-1,24,1022,19,113,0.8879456706281834
1178,1,-1,24,1022,19,114,0.8871925360474979
1179,-1,-1,24,1023,19,114,0.8872881355932203
1180,-1,-1,24,1024,19,114,0.8873835732430144
1181,-1,-1,24,1025,19,114,0.8874788494077834
1182,-1,-1,24,1026,19,114,0.8875739644970414
1183,-1,-1,24,1027,19,114,0.887668918918919
1184,1,-1,24,1027,19,115,0.8869198312236287
1185,-1,-1,24,1028,19,115,0.8870151770657673
1186,-1,-1,24,1029,19,115,0.8871103622577927
1187,-1,-1,24,1030,19,115,0.8872053872053872
1188,-1,-1,24,1031,19,115,0.8873002523128679
1189,-1,-1,24,1032,19,115,0.8873949579831932
1190,-1,-1,24,1033,19,115,0.887489504617968
1191,-1,-1,24,1034,19,115,0.8875838926174496
1192,1,-1,24,1034,19,116,0.8868398994132439
1193,-1,-1,24,1035,19,116,0.8869346733668342
1194,-1,-1,24,1036,19,116,0.8870292887029289
1195,1,-1,24,1036,19,117,0.8862876254180602
1196,-1,-1,24,1037,19,117,0.8863826232247285
1197,-1,-1,24,1038,19,117,0.8864774624373957
1198,-1,-1,24,1039,19,117,0.8865721434528774
1199,-1,-1,24,1040,19,117,0.8866666666666667
1200,-1,-1,24,1041,19,117,0.8867610324729392
1201,-1,-1,24,1042,19,117,0.8868552412645591
1202,-1,-1,24,1043,19,117,0.8869492934330839
1203,-1,-1,24,1044,19,117,0.8870431893687708
1204,1,1,25,1044,19,117,0.8871369294605809
1205,-1,-1,25,1045,19,117,0.8872305140961857
1206,-1,-1,25,1046,19,117,0.8873239436619719
1207,-1,-1,25,1047,19,117,0.8874172185430463
1208,-1,-1,25,1048,19,117,0.8875103391232424
1209,-1,-1,25,1049,19,117,0.8876033057851239
1210,-1,-1,25,1050,19,117,0.8876961189099918
1211,1,-1,25,1050,19,118,0.886963696369637
1212,-1,-1,25,1051,19,118,0.8870568837592745
1213,-1,-1,25,1052,19,118,0.8871499176276771
1214,-1,-1,25,1053,19,118,0.8872427983539095
1215,-1,-1,25,1054,19,118,0.8873355263157895
1216,-1,-1,25,1055,19,118,0.8874281018898932
1217,-1,-1,25,1056,19,118,0.8875205254515599
1218,-1,-1,25,1057,19,118,0.8876127973748975
1219,-1,-1,25,1058,19,118,0.8877049180327868
1220,-1,-1,25,1059,19,118,0.8877968877968878
1221,-1,-1,25,1060,19,118,0.8878887070376432
1222,-1,-1,25,1061,19,118,0.8879803761242846
1223,-1,-1,25,1062,19,118,0.8880718954248366
1224,-1,-1,25,1063,19,118,0.8881632653061224
1225,1,1,26,1063,19,118,0.8882544861337683
1226,1,-1,26,1063,19,119,0.8875305623471883
1227,-1,-1,26,1064,19,119,0.8876221498371335
1228,-1,-1,26,1065,19,119,0.887713588283157
1229,-1,-1,26,1066,19,119,0.8878048780487805
1230,-1,-1,26,1067,19,119,0.8878960194963444
1231,-1,-1,26,1068,19,119,0.887987012987013
1232,-1,-1,26,1069,19,119,0.8880778588807786
1233,-1,-1,26,1070,19,119,0.8881685575364667
1234,-1,-1,26,1071,19,119,0.8882591093117409
1235,-1,-1,26,1072,19,119,0.8883495145631068
1236,-1,-1,26,1073,19,119,0.8884397736459175
1237,-1,-1,26,1074,19,119,0.8885298869143781
1238,-1,-1,26,1075,19,119,0.8886198547215496
1239,-1,-1,26,1076,19,119,0.8887096774193548
1240,-1,1,26,1076,20,119,0.8879935535858179
1241,-1,-1,26,1077,20,119,0.8880837359098228
1242,-1,-1,26,1078,20,119,0.8881737731295254
1243,-1,-1,26,1079,20,119,0.8882636655948553
1244,-1,-1,26,1080,20,119,0.8883534136546185
1245,1,-1,26,1080,20,120,0.8876404494382022
1246,-1,-1,26,1081,20,120,0.8877305533279871
1247,-1,-1,26,1082,20,120,0.8878205128205128
1248,-1,-1,26,1083,20,120,0.8879103282626101
1249,-1,-1,26,1084,20,120,0.888
1250,-1,-1,26,1085,20,120,0.8880895283772982
1251,-1,-1,26,1086,20,120,0.8881789137380192
1252,-1,-1,26,1087,20,120,0.888268156424581
1253,-1,-1,26,1088,20,120,0.8883572567783095
1254,-1,-1,26,1089,20,120,0.8884462151394422
1255,-1,-1,26,1090,20,120,0.8885350318471338
1256,-1,-1,26,1091,20,120,0.888623707239459
1257,-1,-1,26,1092,20,120,0.8887122416534181
1258,-1,-1,26,1093,20,120,0.8888006354249405
1259,-1,-1,26,1094,20,120,0.8888888888888888
1260,-1,-1,26,1095,20,120,0.8889770023790642
1261,-1,-1,26,1096,20,120,0.8890649762282092
1262,-1,-1,26,1097,20,120,0.8891528107680127
1263,-1,-1,26,1098,20,120,0.8892405063291139
1264,-1,-1,26,1099,20,120,0.8893280632411067
1265,-1,-1,26,1100,20,120,0.8894154818325435
1266,-1,-1,26,1101,20,120,0.8895027624309392
1267,-1,-1,26,1102,20,120,0.889589905362776
1268,-1,-1,26,1103,20,120,0.8896769109535066
1269,-1,-1,26,1104,20,120,0.889763779527559
1270,-1,-1,26,1105,20,120,0.8898505114083399
1271,-1,-1,26,1106,20,120,0.889937106918239
1272,-1,-1,26,1107,20,120,0.8900235663786331
1273,1,-1,26,1107,20,121,0.8893249607535322
1274,-1,-1,26,1108,20,121,0.8894117647058823
1275,-1,-1,26,1109,20,121,0.8894984326018809
1276,-1,-1,26,1110,20,121,0.889584964761159
1277,-1,-1,26,1111,20,121,0.8896713615023474
1278,-1,-1,26,1112,20,121,0.8897576231430805
1279,-1,-1,26,1113,20,121,0.88984375
1280,-1,-1,26,1114,20,121,0.8899297423887588
1281,-1,-1,26,1115,20,121,0.890015600624025
1282,-1,-1,26,1116,20,121,0.8901013250194856
1283,-1,-1,26,1117,20,121,0.8901869158878505
1284,-1,-1,26,1118,20,121,0.890272373540856
1285,-1,-1,26,1119,20,121,0.890357698289269
1286,-1,-1,26,1120,20,121,0.8904428904428905
1287,-1,-1,26,1121,20,121,0.890527950310559
1288,-1,-1,26,1122,20,121,0.8906128782001551
1289,1,-1,26,1122,20,122,0.889922480620155
1290,-1,-1,26,1123,20,122,0.8900077459333849
1291,-1,-1,26,1124,20,122,0.8900928792569659
1292,-1,1,26,1124,21,122,0.8894044856921887
1293,-1,-1,26,1125,21,122,0.8894899536321483
1294,-1,-1,26,1126,21,122,0.8895752895752895
1295,-1,-1,26,1127,21,122,0.8896604938271605
1296,-1,-1,26,1128,21,122,0.889745566692367
1297,-1,-1,26,1129,21,122,0.8898305084745762
1298,-1,-1,26,1130,21,122,0.8899153194765204
1299,-1,-1,26,1131,21,122,0.89
1300,-1,-1,26,1132,21,122,0.8900845503458877
1301,-1,-1,26,1133,21,122,0.8901689708141322
1302,1,-1,26,1133,21,123,0.8894858019953953
1303,-1,-1,26,1134,21,123,0.8895705521472392
1304,-1,-1,26,1135,21,123,0.8896551724137931
1305,-1,-1,26,1136,21,123,0.889739663093415
1306,-1,-1,26,1137,21,123,0.8898240244835501
1307,-1,-1,26,1138,21,123,0.8899082568807339
1308,-1,-1,26,1139,21,123,0.8899923605805958
1309,1,-1,26,1139,21,124,0.8893129770992366
1310,-1,-1,26,1140,21,124,0.889397406559878
1311,-1,-1,26,1141,21,124,0.8894817073170732
1312,1,-1,26,1141,21,125,0.8888042650418888
1313,-1,-1,26,1142,21,125,0.8888888888888888
1314,-1,-1,26,1143,21,125,0.8889733840304183
1315,-1,-1,26,1144,21,125,0.8890577507598785
1316,-1,-1,26,1145,21,125,0.8891419893697798
1317,-1,-1,26,1146,21,125,0.8892261001517451
1318,-1,-1,26,1147,21,125,0.8893100833965125
1319,-1,-1,26,1148,21,125,0.8893939393939394
1320,-1,-1,26,1149,21,125,0.8894776684330054
1321,-1,-1,26,1150,21,125,0.8895612708018155
1322,-1,-1,26,1151,21,125,0.889644746787604
1323,-1,-1,26,1152,21,125,0.8897280966767371
1324,-1,-1,26,1153,21,125,0.889811320754717
1325,-1,-1,26,1154,21,125,0.889894419306184
1326,1,-1,26,1154,21,126,0.8892238131122834
1327,1,1,27,1154,21,126,0.8893072289156626
1328,-1,-1,27,1155,21,126,0.8893905191873589
1329,-1,-1,27,1156,21,126,0.8894736842105263
1330,-1,-1,27,1157,21,126,0.8895567242674681
1331,-1,-1,27,1158,21,126,0.8896396396396397
1332,-1,-1,27,1159,21,126,0.8897224306076519
1333,-1,-1,27,1160,21,126,0.8898050974512743
1334,-1,-1,27,1161,21,126,0.8898876404494382
1335,-1,-1,27,1162,21,126,0.8899700598802395
1336,-1,-1,27,1163,21,126,0.8900523560209425
1337,-1,-1,27,1164,21,126,0.8901345291479821
1338,1,-1,27,1164,21,127,0.8894697535474234
1339,-1,-1,27,1165,21,127,0.8895522388059701
1340,-1,-1,27,1166,21,127,0.889634601043997
1341,-1,-1,27,1167,21,127,0.8897168405365127
1342,-1,-1,27,1168,21,127,0.8897989575577067
1343,-1,-1,27,1169,21,127,0.8898809523809523
1344,-1,1,27,1169,22,127,0.8892193308550186
1345,-1,-1,27,1170,22,127,0.8893016344725111
1346,-1,-1,27,1171,22,127,0.8893838158871566
1347,-1,-1,27,1172,22,127,0.8894658753709199
1348,-1,-1,27,1173,22,127,0.8895478131949592
1349,-1,-1,27,1174,22,127,0.8896296296296297
1350,-1,-1,27,1175,22,127,0.8897113249444856
1351,-1,-1,27,1176,22,127,0.889792899408284
1352,-1,-1,27,1177,22,127,0.8898743532889875
1353,-1,-1,27,1178,22,127,0.8899556868537666
1354,-1,-1,27,1179,22,127,0.8900369003690037
1355,-1,-1,27,1180,22,127,0.890117994100295
1356,-1,-1,27,1181,22,127,0.8901989683124539
1357,-1,-1,27,1182,22,127,0.8902798232695139
1358,-1,-1,27,1183,22,127,0.8903605592347315
1359,-1,-1,27,1184,22,127,0.8904411764705882
1360,-1,-1,27,1185,22,127,0.890521675238795
1361,-1,-1,27,1186,22,127,0.8906020558002937
1362,-1,-1,27,1187,22,127,0.8906823184152605
1363,-1,-1,27,1188,22,127,0.8907624633431085
1364,-1,-1,27,1189,22,127,0.8908424908424909
1365,-1,-1,27,1190,22,127,0.8909224011713031
1366,-1,-1,27,1191,22,127,0.8910021945866862
1367,-1,-1,27,1192,22,127,0.8910818713450293
1368,-1,-1,27,1193,22,127,0.8911614317019723
1369,-1,-1,27,1194,22,127,0.8912408759124087
1370,-1,-1,27,1195,22,127,0.8913202042304887
1371,-1,-1,27,1196,22,127,0.891399416909621
1372,-1,-1,27,1197,22,127,0.8914785142024764
1373,-1,-1,27,1198,22,127,0.8915574963609898
1374,-1,-1,27,1199,22,127,0.8916363636363637
1375,-1,-1,27,1200,22,127,0.8917151162790697
1376,-1,-1,27,1201,22,127,0.8917937545388526
1377,-1,-1,27,1202,22,127,0.8918722786647315
1378,-1,-1,27,1203,22,127,0.8919506889050036
1379,-1,-1,27,1204,22,127,0.8920289855072464
1380,-1,-1,27,1205,22,127,0.8921071687183201
1381,1,-1,27,1205,22,128,0.8914616497829233
1382,-1,-1,27,1206,22,128,0.8915401301518439
1383,-1,-1,27,1207,22,128,0.8916184971098265
1384,-1,-1,27,1208,22,128,0.8916967509025271
1385,-1,-1,27,1209,22,128,0.8917748917748918
1386,-1,-1,27,1210,22,128,0.8918529199711608
1387,-1,-1,27,1211,22,128,0.8919308357348703
1388,-1,-1,27,1212,22,128,0.8920086393088553
1389,-1,-1,27,1213,22,128,0.8920863309352518
1390,1,-1,27,1213,22,129,0.8914450035945363
1391,-1,-1,27,1214,22,129,0.8915229885057471
1392,-1,-1,27,1215,22,129,0.8916008614501076
1393,-1,-1,27,1216,22,129,0.8916786226685797
1394,1,-1,27,1216,22,130,0.8910394265232975
1395,-1,-1,27,1217,22,130,0.8911174785100286
1396,-1,-1,27,1218,22,130,0.8911954187544738
1397,-1,-1,27,1219,22,130,0.8912732474964234
1398,-1,-1,27,1220,22,130,0.8913509649749821
1399,-1,-1,27,1221,22,130,0.8914285714285715
1400,-1,-1,27,1222,22,130,0.8915060670949322
1401,-1,-1,27,1223,22,130,0.891583452211127
1402,-1,-1,27,1224,22,130,0.8916607270135424
1403,1,-1,27,1224,22,131,0.8910256410256411
1404,-1,-1,27,1225,22,131,0.8911032028469751
1405,-1,-1,27,1226,22,131,0.8911806543385491
1406,-1,-1,27,1227,22,131,0.8912579957356077
1407,-1,-1,27,1228,22,131,0.8913352272727273
1408,-1,-1,27,1229,22,131,0.8914123491838183
1409,-1,-1,27,1230,22,131,0.8914893617021277
1410,-1,-1,27,1231,22,131,0.891566265060241
1411,-1,-1,27,1232,22,131,0.8916430594900849
1412,-1,-1,27,1233,22,131,0.89171974522293
1413,-1,-1,27,1234,22,131,0.8917963224893918
1414,-1,-1,27,1235,22,131,0.8918727915194347
1415,-1,-1,27,1236,22,131,0.8919491525423728
1416,-1,-1,27,1237,22,131,0.8920254057868737
1417,-1,-1,27,1238,22,131,0.892101551480959
1418,1,-1,27,1238,22,132,0.8914728682170543
1419,-1,-1,27,1239,22,132,0.8915492957746479
1420,-1,-1,27,1240,22,132,0.8916256157635468
1421,1,-1,27,1240,22,133,0.8909985935302391
1422,-1,-1,27,1241,22,133,0.8910751932536893
1423,-1,-1,27,1242,22,133,0.8911516853932584
1424,-1,-1,27,1243,22,133,0.8912280701754386
1425,-1,-1,27,1244,22,133,0.8913043478260869
1426,-1,-1,27,1245,22,133,0.8913805185704274
1427,-1,-1,27,1246,22,133,0.8914565826330533
1428,-1,-1,27,1247,22,133,0.8915325402379286
1429,1,-1,27,1247,22,134,0.8909090909090909
1430,-1,-1,27,1248,22,134,0.8909853249475891
1431,-1,-1,27,1249,22,134,0.8910614525139665
1432,-1,-1,27,1250,22,134,0.8911374738311235
1433,-1,-1,27,1251,22,134,0.891213389121339
1434,-1,-1,27,1252,22,134,0.8912891986062718
1435,-1,-1,27,1253,22,134,0.8913649025069638
1436,1,-1,27,1253,22,135,0.8907446068197634
1437,-1,-1,27,1254,22,135,0.8908205841446454
1438,-1,-1,27,1255,22,135,0.8908964558721334
1439,-1,-1,27,1256,22,135,0.8909722222222223
1440,-1,-1,27,1257,22,135,0.8910478834142956
1441,-1,-1,27,1258,22,135,0.891123439667129
1442,-1,-1,27,1259,22,135,0.8911988911988912
1443,-1,-1,27,1260,22,135,0.8912742382271468
1444,-1,-1,27,1261,22,135,0.8913494809688581
1445,-1,-1,27,1262,22,135,0.8914246196403873
1446,-1,-1,27,1263,22,135,0.8914996544574982
1447,-1,-1,27,1264,22,135,0.8915745856353591
1448,-1,-1,27,1265,22,135,0.8916494133885439
1449,1,1,28,1265,22,135,0.8917241379310344
1450,-1,1,28,1265,23,135,0.8911095796002757
1451,-1,-1,28,1266,23,135,0.8911845730027548
1452,1,-1,28,1266,23,136,0.8905712319339298
1453,-1,-1,28,1267,23,136,0.890646492434663
1454,-1,-1,28,1268,23,136,0.8907216494845361
1455,1,-1,28,1268,23,137,0.8901098901098901
1456,-1,1,28,1268,24,137,0.8894989704873026
1457,-1,-1,28,1269,24,137,0.8895747599451304
1458,-1,-1,28,1270,24,137,0.8896504455106237
1459,-1,-1,28,1271,24,137,0.8897260273972603
1460,1,-1,28,1271,24,138,0.8891170431211499
1461,-1,-1,28,1272,24,138,0.8891928864569083
1462,-1,-1,28,1273,24,138,0.8892686261107313
1463,-1,-1,28,1274,24,138,0.889344262295082
1464,-1,-1,28,1275,24,138,0.889419795221843
1465,-1,-1,28,1276,24,138,0.8894952251023193
1466,-1,-1,28,1277,24,138,0.8895705521472392
1467,-1,-1,28,1278,24,138,0.8896457765667575
1468,-1,-1,28,1279,24,138,0.8897208985704561
1469,-1,-1,28,1280,24,138,0.889795918367347
1470,-1,-1,28,1281,24,138,0.8898708361658736
1471,-1,-1,28,1282,24,138,0.8899456521739131
1472,-1,-1,28,1283,24,138,0.890020366598778
1473,-1,-1,28,1284,24,138,0.8900949796472184
1474,-1,-1,28,1285,24,138,0.8901694915254237
1475,-1,-1,28,1286,24,138,0.8902439024390244
1476,-1,-1,28,1287,24,138,0.8903182125930941
1477,-1,-1,28,1288,24,138,0.8903924221921515
1478,-1,-1,28,1289,24,138,0.8904665314401623
1479,-1,-1,28,1290,24,138,0.8905405405405405
1480,-1,-1,28,1291,24,138,0.8906144496961512
1481,-1,-1,28,1292,24,138,0.8906882591093117
1482,-1,-1,28,1293,24,138,0.8907619689817937
1483,1,-1,28,1293,24,139,0.8901617250673854
1484,-1,-1,28,1294,24,139,0.8902356902356903
1485,-1,-1,28,1295,24,139,0.8903095558546433
1486,-1,-1,28,1296,24,139,0.8903833221250841
1487,-1,-1,28,1297,24,139,0.8904569892473119
1488,-1,-1,28,1298,24,139,0.890530557421088
1489,1,-1,28,1298,24,140,0.8899328859060402
1490,-1,-1,28,1299,24,140,0.8900067069081153
1491,-1,-1,28,1300,24,140,0.8900804289544236
1492,-1,-1,28,1301,24,140,0.8901540522438044
1493,-1,-1,28,1302,24,140,0.8902275769745649
1494,-1,-1,28,1303,24,140,0.8903010033444816
1495,-1,-1,28,1304,24,140,0.8903743315508021
1496,-1,1,28,1304,25,140,0.8897795591182365
1497,-1,-1,28,1305,25,140,0.8898531375166889
1498,-1,-1,28,1306,25,140,0.8899266177451635
1499,-1,-1,28,1307,25,140,0.89
1500,-1,-1,28,1308,25,140,0.8900732844770153
1501,-1,-1,28,1309,25,140,0.8901464713715047
1502,-1,-1,28,1310,25,140,0.8902195608782435
1503,-1,-1,28,1311,25,140,0.8902925531914894
1504,-1,-1,28,1312,25,140,0.8903654485049833
1505,-1,-1,28,1313,25,140,0.8904382470119522
1506,-1,-1,28,1314,25,140,0.8905109489051095
1507,-1,-1,28,1315,25,140,0.8905835543766578
1508,-1,-1,28,1316,25,140,0.8906560636182903
1509,-1,-1,28,1317,25,140,0.890728476821192
1510,-1,-1,28,1318,25,140,0.8908007941760424
1511,-1,-1,28,1319,25,140,0.8908730158730159
1512,-1,-1,28,1320,25,140,0.8909451421017845
1513,1,-1,28,1320,25,141,0.8903566710700133
1514,-1,-1,28,1321,25,141,0.8904290429042905
1515,-1,-1,28,1322,25,141,0.8905013192612137
1516,-1,-1,28,1323,25,141,0.8905735003295979
1517,-1,-1,28,1324,25,141,0.8906455862977603
1518,-1,-1,28,1325,25,141,0.8907175773535221
1519,1,1,29,1325,25,141,0.8907894736842106
1520,-1,-1,29,1326,25,141,0.89086127547666
1521,-1,-1,29,1327,25,141,0.8909329829172142
1522,-1,-1,29,1328,25,141,0.8910045961917269
1523,-1,-1,29,1329,25,141,0.8910761154855643
1524,-1,-1,29,1330,25,141,0.8911475409836066
1525,-1,-1,29,1331,25,141,0.891218872870249
1526,-1,-1,29,1332,25,141,0.8912901113294041
1527,-1,-1,29,1333,25,141,0.8913612565445026
1528,-1,-1,29,1334,25,141,0.8914323086984958
1529,-1,-1,29,1335,25,141,0.8915032679738563
1530,-1,-1,29,1336,25,141,0.89157413455258
1531,-1,-1,29,1337,25,141,0.891644908616188
1532,-1,-1,29,1338,25,141,0.8917155903457273
1533,-1,-1,29,1339,25,141,0.8917861799217731
1534,-1,-1,29,1340,25,141,0.89185667752443
1535,-1,-1,29,1341,25,141,0.8919270833333334
1536,-1,-1,29,1342,25,141,0.8919973975276513
1537,-1,1,29,1342,26,141,0.8914174252275683
1538,-1,-1,29,1343,26,141,0.8914879792072774
1539,-1,-1,29,1344,26,141,0.8915584415584416
1540,-1,-1,29,1345,26,141,0.8916288124594419
1541,-1,-1,29,1346,26,141,0.8916990920881972
1542,-1,-1,29,1347,26,141,0.8917692806221647
1543,-1,-1,29,1348,26,141,0.8918393782383419
1544,-1,-1,29,1349,26,141,0.8919093851132686
1545,-1,-1,29,1350,26,141,0.8919793014230272
1546,-1,-1,29,1351,26,141,0.892049127343245
1547,-1,-1,29,1352,26,141,0.8921188630490956
1548,-1,-1,29,1353,26,141,0.8921885087153002
1549,-1,-1,29,1354,26,141,0.892258064516129
1550,1,-1,29,1354,26,142,0.8916827852998066
1551,-1,-1,29,1355,26,142,0.8917525773195877
1552,-1,-1,29,1356,26,142,0.8918222794591114
1553,-1,-1,29,1357,26,142,0.8918918918918919
1554,-1,-1,29,1358,26,142,0.8919614147909968
1555,-1,-1,29,1359,26,142,0.8920308483290489
1556,-1,-1,29,1360,26,142,0.8921001926782274
1557,-1,-1,29,1361,26,142,0.8921694480102695
1558,-1,-1,29,1362,26,142,0.8922386144964721
1559,-1,-1,29,1363,26,142,0.8923076923076924
1560,-1,-1,29,1364,26,142,0.8923766816143498
1561,-1,-1,29,1365,26,142,0.8924455825864277
1562,1,-1,29,1365,26,143,0.891874600127959
1563,-1,-1,29,1366,26,143,0.8919437340153452
1564,-1,-1,29,1367,26,143,0.8920127795527156
1565,1,-1,29,1367,26,144,0.8914431673052363
1566,-1,-1,29,1368,26,144,0.8915124441608169
1567,-1,-1,29,1369,26,144,0.8915816326530612
1568,-1,-1,29,1370,26,144,0.8916507329509241
1569,-1,-1,29,1371,26,144,0.89171974522293
1570,-1,-1,29,1372,26,144,0.8917886696371737
1571,-1,-1,29,1373,26,144,0.8918575063613231
1572,1,-1,29,1373,26,145,0.891290527654164
1573,-1,-1,29,1374,26,145,0.8913595933926303
1574,-1,-1,29,1375,26,145,0.8914285714285715
1575,-1,-1,29,1376,26,145,0.891497461928934
1576,-1,-1,29,1377,26,145,0.891566265060241
1577,-1,-1,29,1378,26,145,0.8916349809885932
1578,1,-1,29,1378,26,146,0.8910702976567447
1579,-1,-1,29,1379,26,146,0.8911392405063291
1580,1,-1,29,1379,26,147,0.8905755850727388
1581,-1,-1,29,1380,26,147,0.8906447534766119
1582,-1,1,29,1380,27,147,0.8900821225521163
1583,-1,-1,29,1381,27,147,0.8901515151515151
1584,-1,-1,29,1382,27,147,0.8902208201892744
1585,-1,-1,29,1383,27,147,0.8902900378310215
1586,-1,-1,29,1384,27,147,0.8903591682419659
1587,-1,-1,29,1385,27,147,0.8904282115869018
1588,-1,-1,29,1386,27,147,0.8904971680302077
1589,1,1,30,1386,27,147,0.8905660377358491
1590,-1,-1,30,1387,27,147,0.890634820867379
1591,-1,-1,30,1388,27,147,0.8907035175879398
1592,-1,-1,30,1389,27,147,0.8907721280602636
1593,-1,-1,30,1390,27,147,0.890840652446675
1594,-1,-1,30,1391,27,147,0.8909090909090909
1595,-1,-1,30,1392,27,147,0.8909774436090225
1596,-1,-1,30,1393,27,147,0.8910457107075767
1597,-1,-1,30,1394,27,147,0.8911138923654568
1598,-1,-1,30,1395,27,147,0.8911819887429644
1599,-1,-1,30,1396,27,147,0.89125
1600,-1,-1,30,1397,27,147,0.891317926296065
1601,-1,-1,30,1398,27,147,0.8913857677902621
1602,-1,-1,30,1399,27,147,0.8914535246412976
1603,-1,-1,30,1400,27,147,0.8915211970074813
1604,-1,-1,30,1401,27,147,0.891588785046729
1605,-1,-1,30,1402,27,147,0.8916562889165629
1606,-1,-1,30,1403,27,147,0.8917237087741132
1607,-1,-1,30,1404,27,147,0.8917910447761194
1608,-1,-1,30,1405,27,147,0.891858297078931
1609,-1,-1,30,1406,27,147,0.8919254658385093
1610,-1,-1,30,1407,27,147,0.8919925512104283
1611,-1,-1,30,1408,27,147,0.892059553349876
1612,-1,-1,30,1409,27,147,0.8921264724116553
1613,-1,-1,30,1410,27,147,0.8921933085501859
1614,-1,-1,30,1411,27,147,0.8922600619195047
1615,-1,-1,30,1412,27,147,0.8923267326732673
1616,-1,-1,30,1413,27,147,0.8923933209647495
1617,-1,-1,30,1414,27,147,0.892459826946848
1618,-1,-1,30,1415,27,147,0.8925262507720816
1619,-1,-1,30,1416,27,147,0.8925925925925926
1620,-1,-1,30,1417,27,147,0.8926588525601481
1621,-1,-1,30,1418,27,147,0.8927250308261405
1622,-1,-1,30,1419,27,147,0.8927911275415896
1623,-1,-1,30,1420,27,147,0.8928571428571429
1624,-1,-1,30,1421,27,147,0.8929230769230769
1625,-1,-1,30,1422,27,147,0.8929889298892989
1626,-1,-1,30,1423,27,147,0.8930547019053473
1627,-1,-1,30,1424,27,147,0.8931203931203932
1628,-1,-1,30,1425,27,147,0.8931860036832413
1629,-1,-1,30,1426,27,147,0.8932515337423312
1630,-1,-1,30,1427,27,147,0.8933169834457388
1631,-1,-1,30,1428,27,147,0.8933823529411765
1632,-1,-1,30,1429,27,147,0.893447642375995
1633,-1,-1,30,1430,27,147,0.8935128518971848
1634,1,-1,30,1430,27,148,0.8929663608562691
1635,-1,-1,30,1431,27,148,0.8930317848410758
1636,-1,-1,30,1432,27,148,0.8930971288943189
1637,-1,-1,30,1433,27,148,0.8931623931623932
1638,-1,-1,30,1434,27,148,0.8932275777913362
1639,-1,-1,30,1435,27,148,0.8932926829268293
1640,-1,-1,30,1436,27,148,0.8933577087141986
1641,1,1,31,1436,27,148,0.8934226552984166
1642,-1,-1,31,1437,27,148,0.8934875228241023
1643,-1,-1,31,1438,27,148,0.8935523114355232
1644,-1,-1,31,1439,27,148,0.8936170212765957
1645,-1,-1,31,1440,27,148,0.893681652490887
1646,-1,-1,31,1441,27,148,0.8937462052216151
1647,-1,-1,31,1442,27,148,0.8938106796116505
1648,-1,-1,31,1443,27,148,0.8938750758035173
1649,-1,-1,31,1444,27,148,0.8939393939393939
1650,-1,-1,31,1445,27,148,0.8940036341611145
1651,-1,-1,31,1446,27,148,0.8940677966101694
1652,-1,-1,31,1447,27,148,0.8941318814277072
1653,-1,-1,31,1448,27,148,0.8941958887545345
1654,-1,-1,31,1449,27,148,0.8942598187311178
1655,-1,-1,31,1450,27,148,0.8943236714975845
1656,-1,-1,31,1451,27,148,0.8943874471937237
1657,-1,-1,31,1452,27,148,0.8944511459589868
1658,-1,-1,31,1453,27,148,0.8945147679324894
1659,-1,-1,31,1454,27,148,0.8945783132530121
1660,-1,-1,31,1455,27,148,0.8946417820590006
1661,1,1,32,1455,27,148,0.894705174488568
1662,-1,-1,32,1456,27,148,0.8947684906794949
1663,1,-1,32,1456,27,149,0.8942307692307693
1664,-1,-1,32,1457,27,149,0.8942942942942943
1665,1,-1,32,1457,27,150,0.8937575030012005
1666,1,-1,32,1457,27,151,0.8932213557288542
1667,1,-1,32,1457,27,152,0.8926858513189448
1668,-1,-1,32,1458,27,152,0.8927501497902935
1669,1,-1,32,1458,27,153,0.8922155688622755
1670,1,-1,32,1458,27,154,0.8916816277678037
1671,-1,-1,32,1459,27,154,0.8917464114832536
1672,1,-1,32,1459,27,155,0.891213389121339
1673,-1,-1,32,1460,27,155,0.8912783751493429
1674,-1,-1,32,1461,27,155,0.8913432835820896
1675,-1,-1,32,1462,27,155,0.8914081145584726
1676,-1,-1,32,1463,27,155,0.8914728682170543
1677,-1,-1,32,1464,27,155,0.8915375446960667
1678,-1,-1,32,1465,27,155,0.8916021441334128
1679,-1,-1,32,1466,27,155,0.8916666666666667
1680,1,1,33,1466,27,155,0.8917311124330756
1681,-1,-1,33,1467,27,155,0.89179548156956
1682,-1,-1,33,1468,27,155,0.8918597742127153
1683,-1,-1,33,1469,27,155,0.8919239904988123
1684,-1,-1,33,1470,27,155,0.8919881305637982
1685,-1,-1,33,1471,27,155,0.8920521945432978
1686,-1,-1,33,1472,27,155,0.8921161825726142
1687,-1,-1,33,1473,27,155,0.8921800947867299
1688,1,-1,33,1473,27,156,0.8916518650088809
1689,-1,-1,33,1474,27,156,0.8917159763313609
1690,-1,-1,33,1475,27,156,0.8917800118273211
1691,-1,-1,33,1476,27,156,0.8918439716312057
1692,-1,-1,33,1477,27,156,0.8919078558771412
1693,-1,-1,33,1478,27,156,0.8919716646989374
1694,-1,-1,33,1479,27,156,0.8920353982300885
1695,-1,-1,33,1480,27,156,0.8920990566037735
1696,-1,-1,33,1481,27,156,0.8921626399528579
1697,-1,-1,33,1482,27,156,0.892226148409894
1698,-1,-1,33,1483,27,156,0.8922895821071218
1699,-1,-1,33,1484,27,156,0.8923529411764706
1700,-1,-1,33,1485,27,156,0.892416225749559
1701,-1,-1,33,1486,27,156,0.8924794359576969
1702,-1,-1,33,1487,27,156,0.8925425719318849
1703,-1,-1,33,1488,27,156,0.8926056338028169
1704,-1,-1,33,1489,27,156,0.8926686217008798
1705,-1,-1,33,1490,27,156,0.8927315357561547
1706,-1,-1,33,1491,27,156,0.8927943760984183
1707,-1,-1,33,1492,27,156,0.8928571428571429
1708,-1,-1,33,1493,27,156,0.892919836161498
1709,-1,-1,33,1494,27,156,0.8929824561403509
1710,-1,-1,33,1495,27,156,0.8930450029222676
1711,-1,-1,33,1496,27,156,0.893107476635514
1712,-1,-1,33,1497,27,156,0.8931698774080561
1713,-1,-1,33,1498,27,156,0.8932322053675612
1714,-1,-1,33,1499,27,156,0.8932944606413994
1715,-1,-1,33,1500,27,156,0.8933566433566433
1716,-1,-1,33,1501,27,156,0.8934187536400698
1717,-1,-1,33,1502,27,156,0.8934807916181606
1718,-1,-1,33,1503,27,156,0.893542757417103
1719,-1,-1,33,1504,27,156,0.8936046511627908
1720,-1,-1,33,1505,27,156,0.8936664729808251
1721,-1,-1,33,1506,27,156,0.8937282229965157
1722,1,1,34,1506,27,156,0.893789901334881
1723,-1,-1,34,1507,27,156,0.8938515081206496
1724,-1,-1,34,1508,27,156,0.8939130434782608
1725,-1,-1,34,1509,27,156,0.8939745075318656
1726,-1,-1,34,1510,27,156,0.8940359004053272
1727,-1,-1,34,1511,27,156,0.8940972222222222
1728,-1,-1,34,1512,27,156,0.8941584731058415
1729,-1,-1,34,1513,27,156,0.8942196531791907
1730,-1,-1,34,1514,27,156,0.8942807625649913
1731,-1,-1,34,1515,27,156,0.8943418013856813
1732,-1,-1,34,1516,27,156,0.894402769763416
1733,-1,1,34,1516,28,156,0.8938869665513264
1734,-1,-1,34,1517,28,156,0.8939481268011528
1735,-1,-1,34,1518,28,156,0.8940092165898618
1736,-1,-1,34,1519,28,156,0.8940702360391479
1737,1,-1,34,1519,28,157,0.8935558112773303
1738,-1,-1,34,1520,28,157,0.8936170212765957
1739,-1,-1,34,1521,28,157,0.8936781609195402
1740,-1,-1,34,1522,28,157,0.893739230327398
1741,-1,-1,34,1523,28,157,0.8938002296211252
1742,-1,-1,34,1524,28,157,0.8938611589213998
1743,-1,-1,34,1525,28,157,0.8939220183486238
1744,-1,-1,34,1526,28,157,0.8939828080229226
1745,-1,-1,34,1527,28,157,0.8940435280641467
1746,-1,-1,34,1528,28,157,0.8941041785918717
1747,-1,-1,34,1529,28,157,0.8941647597254004
1748,-1,-1,34,1530,28,157,0.8942252715837622
1749,-1,-1,34,1531,28,157,0.8942857142857142
1750,-1,-1,34,1532,28,157,0.894346087949743
1751,-1,-1,34,1533,28,157,0.894406392694064
1752,-1,-1,34,1534,28,157,0.894466628636623
1753,1,-1,34,1534,28,158,0.8939566704675028
1754,-1,-1,34,1535,28,158,0.8940170940170941
1755,-1,-1,34,1536,28,158,0.8940774487471527
1756,-1,-1,34,1537,28,158,0.894137734775185
1757,1,1,35,1537,28,158,0.89419795221843
1758,-1,-1,35,1538,28,158,0.8942581011938602
1759,-1,-1,35,1539,28,158,0.8943181818181818
1760,-1,-1,35,1540,28,158,0.8943781942078365
1761,-1,-1,35,1541,28,158,0.8944381384790011
1762,-1,-1,35,1542,28,158,0.8944980147475894
1763,-1,-1,35,1543,28,158,0.8945578231292517
1764,-1,-1,35,1544,28,158,0.8946175637393767
1765,-1,-1,35,1545,28,158,0.8946772366930917
1766,1,-1,35,1545,28,159,0.8941709111488398
1767,-1,-1,35,1546,28,159,0.8942307692307693
1768,-1,-1,35,1547,28,159,0.8942905596382137
1769,-1,-1,35,1548,28,159,0.8943502824858757
1770,-1,-1,35,1549,28,159,0.8944099378881988
1771,-1,-1,35,1550,28,159,0.8944695259593679
1772,-1,-1,35,1551,28,159,0.8945290468133108
1773,-1,-1,35,1552,28,159,0.8945885005636979
1774,-1,-1,35,1553,28,159,0.8946478873239436
1775,-1,-1,35,1554,28,159,0.8947072072072072
1776,-1,-1,35,1555,28,159,0.8947664603263928
1777,-1,-1,35,1556,28,159,0.8948256467941508
1778,-1,-1,35,1557,28,159,0.894884766722878
1779,-1,-1,35,1558,28,159,0.8949438202247191
1780,-1,-1,35,1559,28,159,0.8950028074115666
1781,1,1,36,1559,28,159,0.8950617283950617
1782,-1,-1,36,1560,28,159,0.8951205832865956
1783,-1,-1,36,1561,28,159,0.8951793721973094
1784,-1,-1,36,1562,28,159,0.8952380952380953
1785,-1,-1,36,1563,28,159,0.8952967525195968
1786,-1,-1,36,1564,28,159,0.8953553441522104
1787,-1,-1,36,1565,28,159,0.895413870246085
1788,-1,-1,36,1566,28,159,0.8954723309111235
1789,-1,-1,36,1567,28,159,0.8955307262569833
1790,-1,-1,36,1568,28,159,0.8955890563930765
1791,-1,-1,36,1569,28,159,0.8956473214285714
1792,-1,-1,36,1570,28,159,0.8957055214723927
1793,-1,-1,36,1571,28,159,0.8957636566332219
1794,-1,-1,36,1572,28,159,0.8958217270194986
1795,1,1,37,1572,28,159,0.8958797327394209
1796,-1,-1,37,1573,28,159,0.895937673900946
1797,-1,-1,37,1574,28,159,0.8959955506117909
1798,-1,-1,37,1575,28,159,0.896053362979433
1799,-1,-1,37,1576,28,159,0.8961111111111111
1800,-1,-1,37,1577,28,159,0.8961687951138256
1801,-1,-1,37,1578,28,159,0.8962264150943396
1802,-1,-1,37,1579,28,159,0.8962839711591791
1803,-1,-1,37,1580,28,159,0.8963414634146342
1804,-1,-1,37,1581,28,159,0.896398891966759
1805,-1,-1,37,1582,28,159,0.8964562569213732
1806,-1,-1,37,1583,28,159,0.896513558384062
1807,-1,-1,37,1584,28,159,0.896570796460177
1808,-1,-1,37,1585,28,159,0.896627971254837
1809,-1,-1,37,1586,28,159,0.8966850828729281
1810,-1,-1,37,1587,28,159,0.8967421314191054
1811,-1,-1,37,1588,28,159,0.8967991169977925
1812,-1,-1,37,1589,28,159,0.8968560397131826
1813,-1,-1,37,1590,28,159,0.8969128996692393
1814,-1,-1,37,1591,28,159,0.896969696969697
1815,-1,-1,37,1592,28,159,0.8970264317180616
1816,-1,-1,37,1593,28,159,0.8970831040176115
1817,1,1,38,1593,28,159,0.8971397139713971
1818,-1,-1,38,1594,28,159,0.897196261682243
1819,-1,-1,38,1595,28,159,0.8972527472527473
1820,-1,-1,38,1596,28,159,0.8973091707852828
1821,-1,-1,38,1597,28,159,0.8973655323819978
1822,-1,-1,38,1598,28,159,0.8974218321448162
1823,-1,-1,38,1599,28,159,0.8974780701754386
1824,-1,-1,38,1600,28,159,0.8975342465753424
1825,-1,-1,38,1601,28,159,0.8975903614457831
1826,-1,-1,38,1602,28,159,0.8976464148877942
1827,-1,-1,38,1603,28,159,0.8977024070021882
1828,-1,-1,38,1604,28,159,0.8977583378895572
1829,-1,-1,38,1605,28,159,0.8978142076502732
1830,-1,-1,38,1606,28,159,0.8978700163844894
1831,-1,-1,38,1607,28,159,0.8979257641921398
1832,1,-1,38,1607,28,160,0.8974358974358975
1833,-1,-1,38,1608,28,160,0.8974918211559433
1834,-1,-1,38,1609,28,160,0.8975476839237058
1835,-1,-1,38,1610,28,160,0.8976034858387799
1836,-1,-1,38,1611,28,160,0.8976592270005443
1837,-1,-1,38,1612,28,160,0.8977149075081611
1838,1,-1,38,1612,28,161,0.8972267536704731
1839,-1,-1,38,1613,28,161,0.8972826086956521
1840,-1,-1,38,1614,28,161,0.8973384030418251
1841,-1,-1,38,1615,28,161,0.8973941368078175
1842,-1,-1,38,1616,28,161,0.8974498100922409
1843,-1,-1,38,1617,28,161,0.8975054229934925
1844,-1,-1,38,1618,28,161,0.8975609756097561
1845,-1,-1,38,1619,28,161,0.8976164680390033
1846,-1,-1,38,1620,28,161,0.8976719003789929
1847,-1,-1,38,1621,28,161,0.8977272727272727
1848,-1,-1,38,1622,28,161,0.897782585181179
1849,-1,-1,38,1623,28,161,0.8978378378378379
1850,-1,-1,38,1624,28,161,0.8978930307941653
1851,-1,-1,38,1625,28,161,0.8979481641468683
1852,-1,-1,38,1626,28,161,0.8980032379924446
1853,-1,-1,38,1627,28,161,0.8980582524271845
1854,-1,-1,38,1628,28,161,0.8981132075471698
1855,-1,-1,38,1629,28,161,0.8981681034482759
1856,-1,-1,38,1630,28,161,0.8982229402261712
1857,-1,-1,38,1631,28,161,0.8982777179763186
1858,-1,-1,38,1632,28,161,0.8983324367939752
1859,-1,-1,38,1633,28,161,0.8983870967741936
1860,-1,-1,38,1634,28,161,0.8984416980118216
1861,-1,-1,38,1635,28,161,0.8984962406015038
1862,-1,-1,38,1636,28,161,0.8985507246376812
1863,-1,-1,38,1637,28,161,0.8986051502145923
1864,-1,-1,38,1638,28,161,0.8986595174262735
1865,-1,-1,38,1639,28,161,0.8987138263665595
1866,-1,-1,38,1640,28,161,0.8987680771290841
1867,1,-1,38,1640,28,162,0.8982869379014989
1868,-1,-1,38,1641,28,162,0.8983413590155164
1869,-1,-1,38,1642,28,162,0.8983957219251337
1870,-1,-1,38,1643,28,162,0.8984500267236771
1871,-1,-1,38,1644,28,162,0.8985042735042735
1872,-1,-1,38,1645,28,162,0.8985584623598505
1873,1,-1,38,1645,28,163,0.8980789754535753
1874,-1,-1,38,1646,28,163,0.8981333333333333
1875,-1,-1,38,1647,28,163,0.8981876332622601
1876,-1,-1,38,1648,28,163,0.8982418753329782
1877,-1,-1,38,1649,28,163,0.8982960596379127
1878,-1,-1,38,1650,28,163,0.8983501862692922
1879,-1,-1,38,1651,28,163,0.8984042553191489
1880,-1,-1,38,1652,28,163,0.8984582668793195
1881,-1,-1,38,1653,28,163,0.8985122210414452
1882,-1,-1,38,1654,28,163,0.8985661178969729
1883,-1,-1,38,1655,28,163,0.898619957537155
1884,-1,-1,38,1656,28,163,0.8986737400530505
1885,-1,-1,38,1657,28,163,0.898727465535525
1886,-1,-1,38,1658,28,163,0.8987811340752517
1887,-1,-1,38,1659,28,163,0.8988347457627118
1888,-1,-1,38,1660,28,163,0.8988883006881948
1889,-1,-1,38,1661,28,163,0.8989417989417989
1890,1,-1,38,1661,28,164,0.8984664198836594
1891,-1,-1,38,1662,28,164,0.8985200845665962
1892,1,1,39,1662,28,164,0.8985736925515055
1893,-1,-1,39,1663,28,164,0.8986272439281943
1894,-1,-1,39,1664,28,164,0.8986807387862796
1895,-1,-1,39,1665,28,164,0.8987341772151899
1896,-1,-1,39,1666,28,164,0.8987875593041644
1897,-1,-1,39,1667,28,164,0.898840885142255
1898,-1,1,39,1667,29,164,0.8983675618746709
1899,-1,-1,39,1668,29,164,0.8984210526315789
1900,-1,-1,39,1669,29,164,0.8984744871120462
1901,-1,-1,39,1670,29,164,0.898527865404837
1902,-1,-1,39,1671,29,164,0.8985811875985287
1903,-1,-1,39,1672,29,164,0.8986344537815126
1904,-1,-1,39,1673,29,164,0.8986876640419947
1905,-1,-1,39,1674,29,164,0.8987408184679958
1906,-1,-1,39,1675,29,164,0.8987939171473519
1907,-1,-1,39,1676,29,164,0.8988469601677149
1908,-1,-1,39,1677,29,164,0.8988999476165531
1909,-1,-1,39,1678,29,164,0.8989528795811519
1910,-1,-1,39,1679,29,164,0.8990057561486133
1911,-1,-1,39,1680,29,164,0.8990585774058577
1912,-1,-1,39,1681,29,164,0.8991113434396236
1913,-1,-1,39,1682,29,164,0.8991640543364682
1914,-1,-1,39,1683,29,164,0.8992167101827676
1915,-1,-1,39,1684,29,164,0.8992693110647182
1916,-1,-1,39,1685,29,164,0.8993218570683359
1917,-1,-1,39,1686,29,164,0.8993743482794577
1918,-1,-1,39,1687,29,164,0.8994267847837415
1919,-1,-1,39,1688,29,164,0.8994791666666667
1920,-1,-1,39,1689,29,164,0.8995314940135346
1921,-1,-1,39,1690,29,164,0.8995837669094693
1922,-1,-1,39,1691,29,164,0.8996359854394176
1923,-1,-1,39,1692,29,164,0.8996881496881497
1924,-1,-1,39,1693,29,164,0.8997402597402597
1925,-1,-1,39,1694,29,164,0.8997923156801662
1926,-1,-1,39,1695,29,164,0.8998443175921121
1927,-1,-1,39,1696,29,164,0.899896265560166
1928,-1,-1,39,1697,29,164,0.8999481596682218
1929,-1,-1,39,1698,29,164,0.9
1930,-1,-1,39,1699,29,164,0.9000517866390472
1931,1,-1,39,1699,29,165,0.8995859213250518
1932,-1,-1,39,1700,29,165,0.8996378685980342
1933,-1,-1,39,1701,29,165,0.8996897621509824
1934,-1,-1,39,1702,29,165,0.8997416020671835
1935,1,-1,39,1702,29,166,0.8992768595041323
1936,-1,-1,39,1703,29,166,0.8993288590604027
1937,-1,-1,39,1704,29,166,0.8993808049535603
1938,-1,-1,39,1705,29,166,0.8994326972666323
1939,1,-1,39,1705,29,167,0.8989690721649485
1940,-1,-1,39,1706,29,167,0.899021123132406
1941,-1,-1,39,1707,29,167,0.8990731204943357
1942,-1,-1,39,1708,29,167,0.8991250643335049
1943,-1,-1,39,1709,29,167,0.8991769547325102
1944,-1,-1,39,1710,29,167,0.8992287917737789
1945,-1,-1,39,1711,29,167,0.8992805755395683
1946,-1,-1,39,1712,29,167,0.8993323061119671
1947,-1,-1,39,1713,29,167,0.8993839835728953
1948,-1,-1,39,1714,29,167,0.8994356080041047
1949,-1,-1,39,1715,29,167,0.8994871794871795
1950,-1,-1,39,1716,29,167,0.8995386981035366
1951,-1,-1,39,1717,29,167,0.8995901639344263
1952,-1,-1,39,1718,29,167,0.899641577060932
1953,-1,-1,39,1719,29,167,0.8996929375639714
1954,-1,-1,39,1720,29,167,0.8997442455242967
1955,-1,-1,39,1721,29,167,0.8997955010224948
1956,-1,-1,39,1722,29,167,0.8998467041389883
1957,-1,-1,39,1723,29,167,0.8998978549540347
1958,1,-1,39,1723,29,168,0.8994384890250128
1959,-1,-1,39,1724,29,168,0.8994897959183673
1960,-1,-1,39,1725,29,168,0.8995410504844467
1961,-1,-1,39,1726,29,168,0.8995922528032619
1962,1,1,40,1726,29,168,0.8996434029546613
1963,-1,-1,40,1727,29,168,0.8996945010183299
1964,-1,-1,40,1728,29,168,0.8997455470737914
1965,-1,-1,40,1729,29,168,0.8997965412004069
1966,-1,-1,40,1730,29,168,0.8998474834773768
1967,-1,-1,40,1731,29,168,0.8998983739837398
1968,-1,-1,40,1732,29,168,0.8999492127983748
1969,-1,-1,40,1733,29,168,0.9
1970,-1,-1,40,1734,29,168,0.900050735667174
1971,-1,-1,40,1735,29,168,0.9001014198782962
1972,1,-1,40,1735,29,169,0.8996452103395844
1973,-1,-1,40,1736,29,169,0.8996960486322189
1974,1,-1,40,1736,29,170,0.8992405063291139
1975,1,-1,40,1736,29,171,0.8987854251012146
1976,-1,-1,40,1737,29,171,0.8988366211431462
1977,-1,-1,40,1738,29,171,0.8988877654196158
1978,1,-1,40,1738,29,172,0.898433552299141
1979,-1,-1,40,1739,29,172,0.8984848484848484
1980,-1,-1,40,1740,29,172,0.8985360928823827
1981,-1,-1,40,1741,29,172,0.8985872855701312
1982,1,-1,40,1741,29,173,0.8981341401916288
1983,-1,-1,40,1742,29,173,0.8981854838709677
1984,-1,-1,40,1743,29,173,0.8982367758186398
1985,1,-1,40,1743,29,174,0.8977844914400805
1986,-1,-1,40,1744,29,174,0.8978359335681932
1987,-1,-1,40,1745,29,174,0.897887323943662
1988,-1,-1,40,1746,29,174,0.897938662644545
1989,1,-1,40,1746,29,175,0.8974874371859296
1990,-1,-1,40,1747,29,175,0.8975389251632345
1991,-1,-1,40,1748,29,175,0.8975903614457831
1992,1,-1,40,1748,29,176,0.8971399899648771
1993,-1,-1,40,1749,29,176,0.8971915747241725
1994,-1,-1,40,1750,29,176,0.8972431077694235
1995,-1,-1,40,1751,29,176,0.8972945891783567
1996,-1,-1,40,1752,29,176,0.8973460190285428
1997,-1,-1,40,1753,29,176,0.8973973973973974
1998,-1,-1,40,1754,29,176,0.897448724362181
1999,-1,-1,40,1755,29,176,0.8975
2000,-1,-1,40,1756,29,176,0.8975512243878061
2001,-1,-1,40,1757,29,176,0.8976023976023976
2002,-1,-1,40,1758,29,176,0.8976535197204194
2003,-1,-1,40,1759,29,176,0.8977045908183633
2004,-1,-1,40,1760,29,176,0.8977556109725686
2005,-1,-1,40,1761,29,176,0.8978065802592223
2006,-1,-1,40,1762,29,176,0.8978574987543597
2007,-1,-1,40,1763,29,176,0.8979083665338645
2008,-1,-1,40,1764,29,176,0.8979591836734694
2009,-1,-1,40,1765,29,176,0.8980099502487562
2010,-1,-1,40,1766,29,176,0.8980606663351567
2011,-1,-1,40,1767,29,176,0.8981113320079522
2012,-1,-1,40,1768,29,176,0.8981619473422752
2013,1,-1,40,1768,29,177,0.8977159880834161
2014,-1,-1,40,1769,29,177,0.8977667493796526
2015,-1,-1,40,1770,29,177,0.8978174603174603
2016,1,-1,40,1770,29,178,0.8973723351512147
2017,-1,-1,40,1771,29,178,0.8974231912784936
2018,-1,-1,40,1772,29,178,0.8974739970282318
2019,-1,-1,40,1773,29,178,0.8975247524752475
2020,-1,-1,40,1774,29,178,0.8975754576942108
2021,-1,-1,40,1775,29,178,0.8976261127596439
2022,-1,-1,40,1776,29,178,0.897676717745922
2023,-1,-1,40,1777,29,178,0.8977272727272727
2024,1,1,41,1777,29,178,0.8977777777777778
2025,-1,-1,41,1778,29,178,0.8978282329713722
2026,-1,-1,41,1779,29,178,0.8978786383818451
2027,-1,-1,41,1780,29,178,0.8979289940828402
2028,-1,-1,41,1781,29,178,0.8979793001478561
2029,-1,-1,41,1782,29,178,0.8980295566502463
2030,-1,-1,41,1783,29,178,0.8980797636632201
2031,-1,-1,41,1784,29,178,0.8981299212598425
2032,-1,-1,41,1785,29,178,0.8981800295130349
2033,-1,-1,41,1786,29,178,0.8982300884955752
2034,-1,-1,41,1787,29,178,0.8982800982800982
2035,1,-1,41,1787,29,179,0.8978388998035364
2036,-1,-1,41,1788,29,179,0.8978890525282278
2037,-1,-1,41,1789,29,179,0.8979391560353287
2038,-1,-1,41,1790,29,179,0.8979892103972535
2039,-1,-1,41,1791,29,179,0.8980392156862745
2040,-1,-1,41,1792,29,179,0.8980891719745223
2041,-1,-1,41,1793,29,179,0.8981390793339863
2042,-1,-1,41,1794,29,179,0.8981889378365149
2043,-1,-1,41,1795,29,179,0.898238747553816
2044,-1,-1,41,1796,29,179,0.8982885085574572
2045,-1,-1,41,1797,29,179,0.8983382209188661
2046,-1,-1,41,1798,29,179,0.8983878847093307
2047,-1,-1,41,1799,29,179,0.8984375
2048,-1,-1,41,1800,29,179,0.8984870668618838
2049,-1,-1,41,1801,29,179,0.8985365853658537
2050,-1,-1,41,1802,29,179,0.8985860555826426
2051,-1,-1,41,1803,29,179,0.898635477582846
2052,-1,-1,41,1804,29,179,0.8986848514369216
2053,1,-1,41,1804,29,180,0.8982473222979552
2054,-1,-1,41,1805,29,180,0.8982968369829684
2055,-1,-1,41,1806,29,180,0.8983463035019456
2056,-1,-1,41,1807,29,180,0.8983957219251337
2057,-1,-1,41,1808,29,180,0.8984450923226434
2058,-1,-1,41,1809,29,180,0.8984944147644488
2059,-1,-1,41,1810,29,180,0.8985436893203883
2060,-1,-1,41,1811,29,180,0.898592916060165
2061,-1,-1,41,1812,29,180,0.8986420950533462
2062,-1,-1,41,1813,29,180,0.898691226369365
2063,-1,-1,41,1814,29,180,0.8987403100775194
2064,-1,-1,41,1815,29,180,0.8987893462469734
2065,-1,-1,41,1816,29,180,0.898838334946757
2066,-1,-1,41,1817,29,180,0.8988872762457668
2067,-1,-1,41,1818,29,180,0.898936170212766
2068,-1,-1,41,1819,29,180,0.8989850169163848
2069,-1,-1,41,1820,29,180,0.8990338164251208
2070,-1,-1,41,1821,29,180,0.8990825688073395
2071,-1,-1,41,1822,29,180,0.8991312741312741
2072,1,-1,41,1822,29,181,0.8986975397973951
2073,-1,-1,41,1823,29,181,0.8987463837994214
2074,-1,-1,41,1824,29,181,0.8987951807228916
2075,-1,-1,41,1825,29,181,0.8988439306358381
2076,-1,-1,41,1826,29,181,0.8988926336061628
2077,-1,-1,41,1827,29,181,0.8989412897016362
2078,-1,-1,41,1828,29,181,0.898989898989899
2079,-1,-1,41,1829,29,181,0.8990384615384616
2080,-1,-1,41,1830,29,181,0.8990869774147044
2081,-1,-1,41,1831,29,181,0.899135446685879
2082,-1,-1,41,1832,29,181,0.8991838694191071
2083,-1,-1,41,1833,29,181,0.8992322456813819
2084,-1,-1,41,1834,29,181,0.8992805755395683
2085,-1,-1,41,1835,29,181,0.8993288590604027
2086,-1,-1,41,1836,29,181,0.8993770963104936
2087,-1,-1,41,1837,29,181,0.8994252873563219
2088,-1,-1,41,1838,29,181,0.8994734322642413
2089,-1,-1,41,1839,29,181,0.8995215311004785
2090,-1,-1,41,1840,29,181,0.8995695839311334
2091,-1,-1,41,1841,29,181,0.8996175908221797
2092,-1,-1,41,1842,29,181,0.8996655518394648
2093,1,-1,41,1842,29,182,0.899235912129895
2094,-1,-1,41,1843,29,182,0.8992840095465394
2095,-1,-1,41,1844,29,182,0.8993320610687023
2096,-1,-1,41,1845,29,182,0.899380066762041
2097,-1,-1,41,1846,29,182,0.8994280266920877
2098,-1,-1,41,1847,29,182,0.8994759409242497
2099,-1,-1,41,1848,29,182,0.8995238095238095
2100,-1,-1,41,1849,29,182,0.8995716325559258
2101,1,-1,41,1849,29,183,0.8991436726926736
2102,-1,-1,41,1850,29,183,0.8991916310033286
2103,-1,-1,41,1851,29,183,0.8992395437262357
2104,1,-1,41,1851,29,184,0.898812351543943
2105,1,1,42,1851,29,184,0.8988603988603988
2106,-1,-1,42,1852,29,184,0.8989084005695301
2107,-1,-1,42,1853,29,184,0.8989563567362429
2108,-1,-1,42,1854,29,184,0.89900426742532
2109,-1,-1,42,1855,29,184,0.8990521327014218
2110,-1,-1,42,1856,29,184,0.8990999526290857
2111,-1,-1,42,1857,29,184,0.8991477272727273
2112,-1,-1,42,1858,29,184,0.8991954566966398
2113,-1,-1,42,1859,29,184,0.8992431409649952
2114,-1,-1,42,1860,29,184,0.8992907801418439
2115,-1,-1,42,1861,29,184,0.8993383742911153
2116,-1,-1,42,1862,29,184,0.8993859234766178
2117,-1,-1,42,1863,29,184,0.8994334277620396
2118,-1,-1,42,1864,29,184,0.8994808872109485
2119,1,-1,42,1864,29,185,0.8990566037735849
2120,-1,-1,42,1865,29,185,0.8991041961338991
2121,1,-1,42,1865,29,186,0.8986804901036758
2122,-1,-1,42,1866,29,186,0.898728214790391
2123,-1,-1,42,1867,29,186,0.8987758945386064
2124,-1,-1,42,1868,29,186,0.8988235294117647
2125,-1,-1,42,1869,29,186,0.8988711194731891
2126,-1,-1,42,1870,29,186,0.8989186647860837
2127,-1,-1,42,1871,29,186,0.8989661654135338
2128,-1,-1,42,1872,29,186,0.8990136214185064
2129,-1,-1,42,1873,29,186,0.8990610328638498
2130,-1,-1,42,1874,29,186,0.8991083998122947
2131,-1,-1,42,1875,29,186,0.899155722326454
2132,-1,-1,42,1876,29,186,0.8992030004688233
2133,-1,-1,42,1877,29,186,0.8992502343017807
2134,-1,-1,42,1878,29,186,0.8992974238875878
2135,-1,-1,42,1879,29,186,0.8993445692883895
2136,-1,-1,42,1880,29,186,0.8993916705662143
2137,-1,-1,42,1881,29,186,0.8994387277829747
2138,1,-1,42,1881,29,187,0.8990182328190743
2139,-1,-1,42,1882,29,187,0.8990654205607477
2140,-1,-1,42,1883,29,187,0.899112564222326
2141,-1,-1,42,1884,29,187,0.8991596638655462
2142,-1,-1,42,1885,29,187,0.8992067195520299
2143,-1,-1,42,1886,29,187,0.8992537313432836
2144,-1,-1,42,1887,29,187,0.8993006993006993
2145,-1,-1,42,1888,29,187,0.8993476234855545
2146,-1,-1,42,1889,29,187,0.8993945039590125
2147,-1,-1,42,1890,29,187,0.8994413407821229
2148,-1,-1,42,1891,29,187,0.8994881340158213
2149,1,-1,42,1891,29,188,0.8990697674418605
2150,-1,-1,42,1892,29,188,0.899116689911669
2151,-1,-1,42,1893,29,188,0.8991635687732342
2152,-1,-1,42,1894,29,188,0.89921040408732
2153,-1,-1,42,1895,29,188,0.8992571959145775
2154,-1,-1,42,1896,29,188,0.8993039443155453
2155,-1,-1,42,1897,29,188,0.8993506493506493
2156,-1,-1,42,1898,29,188,0.8993973110802039
2157,-1,1,42,1898,30,188,0.8989805375347544
2158,-1,-1,42,1899,30,188,0.8990273274664197
2159,-1,-1,42,1900,30,188,0.899074074074074
2160,-1,-1,42,1901,30,188,0.8991207774178621
2161,-1,-1,42,1902,30,188,0.8991674375578168
2162,-1,-1,42,1903,30,188,0.8992140545538604
2163,-1,-1,42,1904,30,188,0.899260628465804
2164,-1,-1,42,1905,30,188,0.8993071593533487
2165,-1,-1,42,1906,30,188,0.8993536472760849
2166,-1,-1,42,1907,30,188,0.8994000922934933
2167,-1,-1,42,1908,30,188,0.8994464944649446
2168,-1,-1,42,1909,30,188,0.8994928538497003
2169,-1,-1,42,1910,30,188,0.8995391705069125
2170,-1,-1,42,1911,30,188,0.8995854444956242
2171,-1,-1,42,1912,30,188,0.8996316758747698
2172,-1,-1,42,1913,30,188,0.8996778647031753
2173,-1,-1,42,1914,30,188,0.8997240110395585
2174,-1,-1,42,1915,30,188,0.8997701149425288
2175,-1,-1,42,1916,30,188,0.8998161764705882
2176,-1,-1,42,1917,30,188,0.8998621956821313
2177,-1,-1,42,1918,30,188,0.8999081726354453
2178,-1,-1,42,1919,30,188,0.8999541073887104
2179,-1,-1,42,1920,30,188,0.9
2180,-1,-1,42,1921,30,188,0.900045850527281
2181,-1,-1,42,1922,30,188,0.9000916590284143
2182,-1,-1,42,1923,30,188,0.9001374255611544
2183,-1,-1,42,1924,30,188,0.9001831501831502
2184,-1,-1,42,1925,30,188,0.9002288329519451
2185,-1,-1,42,1926,30,188,0.9002744739249772
2186,-1,-1,42,1927,30,188,0.9003200731595793
2187,-1,-1,42,1928,30,188,0.9003656307129799
2188,-1,-1,42,1929,30,188,0.9004111466423024
2189,-1,-1,42,1930,30,188,0.9004566210045662
2190,-1,-1,42,1931,30,188,0.9005020538566865
2191,-1,-1,42,1932,30,188,0.9005474452554745
2192,-1,-1,42,1933,30,188,0.9005927952576379
2193,-1,-1,42,1934,30,188,0.9006381039197813
2194,-1,-1,42,1935,30,188,0.9006833712984055
2195,-1,-1,42,1936,30,188,0.900728597449909
2196,-1,-1,42,1937,30,188,0.9007737824305871
2197,1,1,43,1937,30,188,0.9008189262966333
2198,-1,-1,43,1938,30,188,0.9008640291041382
2199,-1,-1,43,1939,30,188,0.9009090909090909
2200,-1,-1,43,1940,30,188,0.9009541117673785
2201,-1,-1,43,1941,30,188,0.9009990917347865
2202,-1,-1,43,1942,30,188,0.9010440308669996
2203,1,-1,43,1942,30,189,0.9006352087114338
2204,-1,-1,43,1943,30,189,0.9006802721088435
2205,-1,-1,43,1944,30,189,0.900725294650952
2206,-1,-1,43,1945,30,189,0.9007702763932941
2207,-1,-1,43,1946,30,189,0.9008152173913043
2208,-1,-1,43,1947,30,189,0.9008601177003169
2209,-1,-1,43,1948,30,189,0.9009049773755656
2210,-1,-1,43,1949,30,189,0.9009497964721845
2211,-1,-1,43,1950,30,189,0.900994575045208
2212,-1,-1,43,1951,30,189,0.9010393131495708
2213,-1,-1,43,1952,30,189,0.9010840108401084
2214,-1,-1,43,1953,30,189,0.9011286681715576
2215,-1,-1,43,1954,30,189,0.901173285198556
2216,-1,-1,43,1955,30,189,0.9012178619756428
2217,-1,-1,43,1956,30,189,0.9012623985572588
2218,-1,-1,43,1957,30,189,0.9013068949977467
2219,-1,-1,43,1958,30,189,0.9013513513513514
2220,-1,-1,43,1959,30,189,0.9013957676722197
2221,-1,-1,43,1960,30,189,0.9014401440144014
2222,1,-1,43,1960,30,190,0.9010346378767431
2223,-1,-1,43,1961,30,190,0.9010791366906474
2224,-1,-1,43,1962,30,190,0.9011235955056179
2225,-1,-1,43,1963,30,190,0.9011680143755616
2226,-1,-1,43,1964,30,190,0.9012123933542883
2227,-1,-1,43,1965,30,190,0.9012567324955116
2228,-1,-1,43,1966,30,190,0.9013010318528488
2229,-1,-1,43,1967,30,190,0.9013452914798207
2230,-1,-1,43,1968,30,190,0.9013895114298521
2231,-1,-1,43,1969,30,190,0.9014336917562724
2232,-1,-1,43,1970,30,190,0.9014778325123153
2233,-1,-1,43,1971,30,190,0.9015219337511191
2234,-1,-1,43,1972,30,190,0.901565995525727
2235,-1,-1,43,1973,30,190,0.9016100178890877
2236,-1,-1,43,1974,30,190,0.9016540008940546
2237,1,-1,43,1974,30,191,0.9012511170688114
2238,-1,-1,43,1975,30,191,0.9012952210808397
2239,-1,-1,43,1976,30,191,0.9013392857142857
2240,-1,-1,43,1977,30,191,0.9013833110218652
2241,-1,-1,43,1978,30,191,0.9014272970561998
2242,-1,-1,43,1979,30,191,0.9014712438698173
2243,-1,-1,43,1980,30,191,0.9015151515151515
2244,-1,-1,43,1981,30,191,0.9015590200445435
2245,-1,-1,43,1982,30,191,0.9016028495102404
2246,-1,-1,43,1983,30,191,0.901646639964397
2247,-1,-1,43,1984,30,191,0.9016903914590747
2248,-1,-1,43,1985,30,191,0.9017341040462428
2249,-1,-1,43,1986,30,191,0.9017777777777778
2250,-1,-1,43,1987,30,191,0.9018214127054642
2251,1,-1,43,1987,30,192,0.9014209591474245
2252,-1,-1,43,1988,30,192,0.9014647137150466
2253,-1,-1,43,1989,30,192,0.90150842945874
2254,-1,-1,43,1990,30,192,0.9015521064301553
2255,-1,-1,43,1991,30,192,0.901595744680851
2256,-1,-1,43,1992,30,192,0.9016393442622951
2257,-1,-1,43,1993,30,192,0.9016829052258636
2258,-1,-1,43,1994,30,192,0.9017264276228419
2259,-1,-1,43,1995,30,192,0.9017699115044248
2260,-1,-1,43,1996,30,192,0.901813356921716
2261,-1,-1,43,1997,30,192,0.9018567639257294
2262,-1,-1,43,1998,30,192,0.9019001325673884
2263,1,-1,43,1998,30,193,0.9015017667844523
2264,-1,-1,43,1999,30,193,0.9015452538631347
2265,-1,-1,43,2000,30,193,0.9015887025595763
2266,-1,-1,43,2001,30,193,0.9016321129245699
2267,1,1,44,2001,30,193,0.9016754850088183
2268,-1,-1,44,2002,30,193,0.9017188188629353
2269,-1,-1,44,2003,30,193,0.9017621145374449
2270,-1,-1,44,2004,30,193,0.9018053720827829
2271,-1,-1,44,2005,30,193,0.9018485915492958
2272,-1,-1,44,2006,30,193,0.9018917729872415
2273,-1,-1,44,2007,30,193,0.9019349164467898
2274,-1,-1,44,2008,30,193,0.901978021978022
2275,1,-1,44,2008,30,194,0.9015817223198594
2276,-1,-1,44,2009,30,194,0.901624945103206
2277,-1,1,44,2009,31,194,0.9012291483757682
2278,-1,-1,44,2010,31,194,0.9012724879333041
2279,-1,-1,44,2011,31,194,0.9013157894736842
2280,-1,-1,44,2012,31,194,0.9013590530469092
2281,-1,-1,44,2013,31,194,0.9014022787028922
2282,-1,-1,44,2014,31,194,0.9014454664914586
2283,-1,-1,44,2015,31,194,0.9014886164623468
2284,-1,-1,44,2016,31,194,0.9015317286652079
2285,-1,-1,44,2017,31,194,0.9015748031496063
2286,-1,1,44,2017,32,194,0.9011805859204197
2287,-1,-1,44,2018,32,194,0.9012237762237763
2288,-1,-1,44,2019,32,194,0.9012669287898646
2289,-1,-1,44,2020,32,194,0.9013100436681223
2290,-1,-1,44,2021,32,194,0.9013531209079004
2291,-1,-1,44,2022,32,194,0.9013961605584643
2292,-1,-1,44,2023,32,194,0.9014391626689926
2293,-1,-1,44,2024,32,194,0.9014821272885789
2294,-1,-1,44,2025,32,194,0.901525054466231
2295,-1,-1,44,2026,32,194,0.9015679442508711
2296,-1,-1,44,2027,32,194,0.9016107966913365
2297,-1,-1,44,2028,32,194,0.9016536118363795
2298,-1,-1,44,2029,32,194,0.9016963897346673
2299,1,-1,44,2029,32,195,0.9013043478260869
2300,-1,-1,44,2030,32,195,0.9013472403302912
2301,-1,-1,44,2031,32,195,0.9013900955690703
2302,-1,-1,44,2032,32,195,0.9014329135909683
2303,-1,-1,44,2033,32,195,0.9014756944444444
2304,1,-1,44,2033,32,196,0.9010845986984816
2305,-1,-1,44,2034,32,196,0.9011274934952298
2306,-1,-1,44,2035,32,196,0.9011703511053316
2307,-1,-1,44,2036,32,196,0.901213171577123
2308,-1,-1,44,2037,32,196,0.9012559549588567
2309,1,-1,44,2037,32,197,0.9008658008658008
2310,1,-1,44,2037,32,198,0.900475984422328
2311,-1,-1,44,2038,32,198,0.9005190311418685
2312,-1,-1,44,2039,32,198,0.9005620406398617
2313,1,1,45,2039,32,198,0.9006050129645635
2314,-1,-1,45,2040,32,198,0.9006479481641468
2315,-1,-1,45,2041,32,198,0.9006908462867013
2316,-1,-1,45,2042,32,198,0.9007337073802331
2317,-1,-1,45,2043,32,198,0.9007765314926661
2318,-1,-1,45,2044,32,198,0.9008193186718413
2319,-1,-1,45,2045,32,198,0.9008620689655172
2320,-1,-1,45,2046,32,198,0.9009047824213701
2321,-1,-1,45,2047,32,198,0.9009474590869939
2322,-1,-1,45,2048,32,198,0.900990099009901
2323,-1,-1,45,2049,32,198,0.9010327022375215
2324,-1,-1,45,2050,32,198,0.9010752688172043
2325,-1,-1,45,2051,32,198,0.9011177987962167
2326,-1,-1,45,2052,32,198,0.9011602922217448
2327,-1,-1,45,2053,32,198,0.9012027491408935
2328,-1,-1,45,2054,32,198,0.901245169600687
2329,-1,-1,45,2055,32,198,0.9012875536480687
2330,-1,-1,45,2056,32,198,0.9013299013299013
2331,-1,-1,45,2057,32,198,0.9013722126929674
2332,-1,-1,45,2058,32,198,0.9014144877839692
2333,1,1,46,2058,32,198,0.9014567266495287
2334,-1,-1,46,2059,32,198,0.9014989293361885
2335,-1,-1,46,2060,32,198,0.901541095890411
2336,-1,-1,46,2061,32,198,0.9015832263585793
2337,-1,-1,46,2062,32,198,0.9016253207869974
2338,1,-1,46,2062,32,199,0.9012398460880718
2339,-1,-1,46,2063,32,199,0.9012820512820513
2340,-1,-1,46,2064,32,199,0.9013242204186245
2341,-1,-1,46,2065,32,199,0.9013663535439795
2342,-1,-1,46,2066,32,199,0.9014084507042254
2343,1,-1,46,2066,32,200,0.9010238907849829
