instance,lable,predicted,tp,tn,fp,fn,correctness
0,-1,-1,0,1,0,0,1.0
1,-1,-1,0,2,0,0,1.0
2,-1,-1,0,3,0,0,1.0
3,-1,-1,0,4,0,0,1.0
4,-1,-1,0,5,0,0,1.0
5,-1,-1,0,6,0,0,1.0
6,-1,-1,0,7,0,0,1.0
7,-1,-1,0,8,0,0,1.0
8,-1,-1,0,9,0,0,1.0
9,-1,-1,0,10,0,0,1.0
10,-1,-1,0,11,0,0,1.0
11,-1,-1,0,12,0,0,1.0
12,-1,-1,0,13,0,0,1.0
13,1,-1,0,13,0,1,0.9285714285714286
14,-1,-1,0,14,0,1,0.9333333333333333
15,-1,-1,0,15,0,1,0.9375
16,-1,-1,0,16,0,1,0.9411764705882353
17,1,-1,0,16,0,2,0.8888888888888888
18,-1,-1,0,17,0,2,0.8947368421052632
19,-1,-1,0,18,0,2,0.9
20,1,-1,0,18,0,3,0.8571428571428571
21,-1,-1,0,19,0,3,0.8636363636363636
22,-1,-1,0,20,0,3,0.8695652173913043
23,-1,-1,0,21,0,3,0.875
24,-1,-1,0,22,0,3,0.88
25,-1,-1,0,23,0,3,0.8846153846153846
26,-1,-1,0,24,0,3,0.8888888888888888
27,-1,-1,0,25,0,3,0.8928571428571429
28,-1,-1,0,26,0,3,0.896551724137931
29,-1,-1,0,27,0,3,0.9
30,-1,-1,0,28,0,3,0.9032258064516129
31,-1,-1,0,29,0,3,0.90625
32,-1,-1,0,30,0,3,0.9090909090909091
33,-1,-1,0,31,0,3,0.9117647058823529
34,-1,-1,0,32,0,3,0.9142857142857143
35,-1,-1,0,33,0,3,0.9166666666666666
36,-1,-1,0,34,0,3,0.918918918918919
37,-1,-1,0,35,0,3,0.9210526315789473
38,-1,-1,0,36,0,3,0.9230769230769231
39,-1,-1,0,37,0,3,0.925
40,-1,-1,0,38,0,3,0.926829268292683
41,-1,-1,0,39,0,3,0.9285714285714286
42,-1,-1,0,40,0,3,0.9302325581395349
43,-1,-1,0,41,0,3,0.9318181818181818
44,-1,-1,0,42,0,3,0.9333333333333333
45,-1,-1,0,43,0,3,0.9347826086956522
46,-1,-1,0,44,0,3,0.9361702127659575
47,-1,-1,0,45,0,3,0.9375
48,1,-1,0,45,0,4,0.9183673469387755
49,-1,-1,0,46,0,4,0.92
50,-1,-1,0,47,0,4,0.9215686274509803
51,-1,-1,0,48,0,4,0.9230769230769231
52,-1,-1,0,49,0,4,0.9245283018867925
53,-1,-1,0,50,0,4,0.9259259259259259
54,-1,-1,0,51,0,4,0.9272727272727272
55,-1,-1,0,52,0,4,0.9285714285714286
56,1,-1,0,52,0,5,0.9122807017543859
57,1,-1,0,52,0,6,0.896551724137931
58,-1,-1,0,53,0,6,0.8983050847457628
59,-1,-1,0,54,0,6,0.9
60,1,-1,0,54,0,7,0.8852459016393442
61,-1,-1,0,55,0,7,0.8870967741935484
62,-1,-1,0,56,0,7,0.8888888888888888
63,-1,-1,0,57,0,7,0.890625
64,-1,-1,0,58,0,7,0.8923076923076924
65,-1,-1,0,59,0,7,0.8939393939393939
66,-1,-1,0,60,0,7,0.8955223880597015
67,-1,-1,0,61,0,7,0.8970588235294118
68,-1,-1,0,62,0,7,0.8985507246376812
69,1,-1,0,62,0,8,0.8857142857142857
70,-1,-1,0,63,0,8,0.8873239436619719
71,-1,-1,0,64,0,8,0.8888888888888888
72,-1,-1,0,65,0,8,0.8904109589041096
73,-1,-1,0,66,0,8,0.8918918918918919
74,-1,-1,0,67,0,8,0.8933333333333333
75,-1,-1,0,68,0,8,0.8947368421052632
76,-1,-1,0,69,0,8,0.8961038961038961
77,-1,-1,0,70,0,8,0.8974358974358975
78,-1,-1,0,71,0,8,0.8987341772151899
79,-1,-1,0,72,0,8,0.9
80,-1,-1,0,73,0,8,0.9012345679012346
81,-1,-1,0,74,0,8,0.9024390243902439
82,-1,-1,0,75,0,8,0.9036144578313253
83,1,-1,0,75,0,9,0.8928571428571429
84,-1,-1,0,76,0,9,0.8941176470588236
85,-1,-1,0,77,0,9,0.8953488372093024
86,-1,-1,0,78,0,9,0.896551724137931
87,1,-1,0,78,0,10,0.8863636363636364
88,-1,-1,0,79,0,10,0.8876404494382022
89,-1,-1,0,80,0,10,0.8888888888888888
90,-1,-1,0,81,0,10,0.8901098901098901
91,-1,-1,0,82,0,10,0.8913043478260869
92,-1,-1,0,83,0,10,0.8924731182795699
93,-1,-1,0,84,0,10,0.8936170212765957
94,-1,-1,0,85,0,10,0.8947368421052632
95,-1,-1,0,86,0,10,0.8958333333333334
96,-1,-1,0,87,0,10,0.8969072164948454
97,-1,-1,0,88,0,10,0.8979591836734694
98,-1,-1,0,89,0,10,0.898989898989899
99,1,-1,0,89,0,11,0.89
100,-1,-1,0,90,0,11,0.8910891089108911
101,-1,-1,0,91,0,11,0.8921568627450981
102,-1,-1,0,92,0,11,0.8932038834951457
103,-1,-1,0,93,0,11,0.8942307692307693
104,-1,-1,0,94,0,11,0.8952380952380953
105,-1,-1,0,95,0,11,0.8962264150943396
106,-1,-1,0,96,0,11,0.897196261682243
107,-1,-1,0,97,0,11,0.8981481481481481
108,-1,-1,0,98,0,11,0.8990825688073395
109,1,-1,0,98,0,12,0.8909090909090909
110,-1,-1,0,99,0,12,0.8918918918918919
111,-1,-1,0,100,0,12,0.8928571428571429
112,-1,-1,0,101,0,12,0.8938053097345132
113,-1,-1,0,102,0,12,0.8947368421052632
114,-1,-1,0,103,0,12,0.8956521739130435
115,-1,-1,0,104,0,12,0.896551724137931
116,-1,-1,0,105,0,12,0.8974358974358975
117,-1,-1,0,106,0,12,0.8983050847457628
118,-1,-1,0,107,0,12,0.8991596638655462
119,1,-1,0,107,0,13,0.8916666666666667
120,-1,-1,0,108,0,13,0.8925619834710744
121,-1,-1,0,109,0,13,0.8934426229508197
122,-1,-1,0,110,0,13,0.8943089430894309
123,-1,-1,0,111,0,13,0.8951612903225806
124,-1,-1,0,112,0,13,0.896
125,-1,-1,0,113,0,13,0.8968253968253969
126,-1,-1,0,114,0,13,0.8976377952755905
127,-1,-1,0,115,0,13,0.8984375
128,-1,-1,0,116,0,13,0.8992248062015504
129,-1,-1,0,117,0,13,0.9
130,-1,-1,0,118,0,13,0.9007633587786259
131,-1,-1,0,119,0,13,0.9015151515151515
132,-1,-1,0,120,0,13,0.9022556390977443
133,-1,-1,0,121,0,13,0.9029850746268657
134,-1,-1,0,122,0,13,0.9037037037037037
135,-1,-1,0,123,0,13,0.9044117647058824
136,-1,-1,0,124,0,13,0.9051094890510949
137,1,-1,0,124,0,14,0.8985507246376812
138,-1,-1,0,125,0,14,0.8992805755395683
139,-1,-1,0,126,0,14,0.9
140,-1,-1,0,127,0,14,0.900709219858156
141,-1,-1,0,128,0,14,0.9014084507042254
142,-1,-1,0,129,0,14,0.9020979020979021
143,-1,-1,0,130,0,14,0.9027777777777778
144,-1,-1,0,131,0,14,0.903448275862069
145,1,-1,0,131,0,15,0.8972602739726028
146,-1,-1,0,132,0,15,0.8979591836734694
147,-1,-1,0,133,0,15,0.8986486486486487
148,-1,-1,0,134,0,15,0.8993288590604027
149,-1,-1,0,135,0,15,0.9
150,-1,-1,0,136,0,15,0.9006622516556292
151,-1,-1,0,137,0,15,0.9013157894736842
152,-1,-1,0,138,0,15,0.9019607843137255
153,-1,-1,0,139,0,15,0.9025974025974026
154,-1,-1,0,140,0,15,0.9032258064516129
155,-1,-1,0,141,0,15,0.9038461538461539
156,-1,-1,0,142,0,15,0.9044585987261147
157,-1,-1,0,143,0,15,0.9050632911392406
158,-1,-1,0,144,0,15,0.9056603773584906
159,-1,-1,0,145,0,15,0.90625
160,-1,-1,0,146,0,15,0.906832298136646
161,-1,-1,0,147,0,15,0.9074074074074074
162,-1,-1,0,148,0,15,0.9079754601226994
163,-1,-1,0,149,0,15,0.9085365853658537
164,-1,-1,0,150,0,15,0.9090909090909091
165,-1,-1,0,151,0,15,0.9096385542168675
166,-1,-1,0,152,0,15,0.9101796407185628
167,-1,-1,0,153,0,15,0.9107142857142857
168,-1,-1,0,154,0,15,0.9112426035502958
169,-1,-1,0,155,0,15,0.9117647058823529
170,-1,-1,0,156,0,15,0.9122807017543859
171,-1,-1,0,157,0,15,0.9127906976744186
172,-1,-1,0,158,0,15,0.9132947976878613
173,-1,-1,0,159,0,15,0.9137931034482759
174,-1,-1,0,160,0,15,0.9142857142857143
175,-1,-1,0,161,0,15,0.9147727272727273
176,-1,-1,0,162,0,15,0.9152542372881356
177,1,-1,0,162,0,16,0.9101123595505618
178,-1,-1,0,163,0,16,0.9106145251396648
179,-1,-1,0,164,0,16,0.9111111111111111
180,-1,-1,0,165,0,16,0.9116022099447514
181,-1,-1,0,166,0,16,0.9120879120879121
182,-1,-1,0,167,0,16,0.912568306010929
183,-1,-1,0,168,0,16,0.9130434782608695
184,-1,-1,0,169,0,16,0.9135135135135135
185,-1,-1,0,170,0,16,0.9139784946236559
186,-1,-1,0,171,0,16,0.9144385026737968
187,-1,-1,0,172,0,16,0.9148936170212766
188,-1,-1,0,173,0,16,0.9153439153439153
189,-1,-1,0,174,0,16,0.9157894736842105
190,-1,-1,0,175,0,16,0.9162303664921466
191,-1,-1,0,176,0,16,0.9166666666666666
192,-1,-1,0,177,0,16,0.917098445595855
193,-1,-1,0,178,0,16,0.9175257731958762
194,1,-1,0,178,0,17,0.9128205128205128
195,-1,-1,0,179,0,17,0.9132653061224489
196,-1,-1,0,180,0,17,0.9137055837563451
197,-1,-1,0,181,0,17,0.9141414141414141
198,1,-1,0,181,0,18,0.9095477386934674
199,-1,-1,0,182,0,18,0.91
200,-1,-1,0,183,0,18,0.9104477611940298
201,-1,-1,0,184,0,18,0.9108910891089109
202,-1,-1,0,185,0,18,0.9113300492610837
203,1,-1,0,185,0,19,0.9068627450980392
204,-1,-1,0,186,0,19,0.9073170731707317
205,-1,-1,0,187,0,19,0.9077669902912622
206,-1,-1,0,188,0,19,0.9082125603864735
207,-1,-1,0,189,0,19,0.9086538461538461
208,1,-1,0,189,0,20,0.9043062200956937
209,-1,-1,0,190,0,20,0.9047619047619048
210,1,-1,0,190,0,21,0.9004739336492891
211,-1,-1,0,191,0,21,0.9009433962264151
212,-1,-1,0,192,0,21,0.9014084507042254
213,-1,-1,0,193,0,21,0.9018691588785047
214,-1,-1,0,194,0,21,0.9023255813953488
215,-1,-1,0,195,0,21,0.9027777777777778
216,1,-1,0,195,0,22,0.8986175115207373
217,-1,-1,0,196,0,22,0.8990825688073395
218,-1,-1,0,197,0,22,0.8995433789954338
219,-1,-1,0,198,0,22,0.9
220,1,-1,0,198,0,23,0.8959276018099548
221,-1,-1,0,199,0,23,0.8963963963963963
222,-1,-1,0,200,0,23,0.8968609865470852
223,-1,-1,0,201,0,23,0.8973214285714286
224,-1,-1,0,202,0,23,0.8977777777777778
225,-1,-1,0,203,0,23,0.8982300884955752
226,-1,-1,0,204,0,23,0.8986784140969163
227,-1,-1,0,205,0,23,0.8991228070175439
228,1,-1,0,205,0,24,0.8951965065502183
229,-1,-1,0,206,0,24,0.8956521739130435
230,-1,-1,0,207,0,24,0.8961038961038961
231,-1,-1,0,208,0,24,0.896551724137931
232,-1,-1,0,209,0,24,0.8969957081545065
233,-1,-1,0,210,0,24,0.8974358974358975
234,-1,-1,0,211,0,24,0.8978723404255319
235,-1,-1,0,212,0,24,0.8983050847457628
236,-1,-1,0,213,0,24,0.8987341772151899
237,-1,-1,0,214,0,24,0.8991596638655462
238,-1,-1,0,215,0,24,0.899581589958159
239,-1,-1,0,216,0,24,0.9
240,-1,-1,0,217,0,24,0.9004149377593361
241,-1,-1,0,218,0,24,0.9008264462809917
242,-1,-1,0,219,0,24,0.9012345679012346
243,-1,-1,0,220,0,24,0.9016393442622951
244,-1,-1,0,221,0,24,0.9020408163265307
245,-1,-1,0,222,0,24,0.9024390243902439
246,-1,-1,0,223,0,24,0.902834008097166
247,-1,-1,0,224,0,24,0.9032258064516129
248,-1,-1,0,225,0,24,0.9036144578313253
249,-1,-1,0,226,0,24,0.904
250,-1,-1,0,227,0,24,0.9043824701195219
251,-1,-1,0,228,0,24,0.9047619047619048
252,-1,-1,0,229,0,24,0.9051383399209486
253,-1,-1,0,230,0,24,0.905511811023622
254,-1,-1,0,231,0,24,0.9058823529411765
255,-1,-1,0,232,0,24,0.90625
256,-1,-1,0,233,0,24,0.9066147859922179
257,-1,-1,0,234,0,24,0.9069767441860465
258,-1,-1,0,235,0,24,0.9073359073359073
259,-1,-1,0,236,0,24,0.9076923076923077
260,-1,-1,0,237,0,24,0.9080459770114943
261,-1,-1,0,238,0,24,0.9083969465648855
262,-1,-1,0,239,0,24,0.908745247148289
263,1,-1,0,239,0,25,0.9053030303030303
264,-1,-1,0,240,0,25,0.9056603773584906
265,-1,-1,0,241,0,25,0.9060150375939849
266,-1,-1,0,242,0,25,0.9063670411985019
267,-1,-1,0,243,0,25,0.9067164179104478
268,1,-1,0,243,0,26,0.9033457249070632
269,-1,-1,0,244,0,26,0.9037037037037037
270,-1,-1,0,245,0,26,0.9040590405904059
271,-1,-1,0,246,0,26,0.9044117647058824
272,-1,-1,0,247,0,26,0.9047619047619048
273,-1,-1,0,248,0,26,0.9051094890510949
274,-1,-1,0,249,0,26,0.9054545454545454
275,-1,-1,0,250,0,26,0.9057971014492754
276,-1,-1,0,251,0,26,0.9061371841155235
277,-1,-1,0,252,0,26,0.9064748201438849
278,-1,-1,0,253,0,26,0.9068100358422939
279,-1,-1,0,254,0,26,0.9071428571428571
280,-1,-1,0,255,0,26,0.9074733096085409
281,-1,-1,0,256,0,26,0.9078014184397163
282,-1,-1,0,257,0,26,0.9081272084805654
283,-1,-1,0,258,0,26,0.9084507042253521
284,-1,-1,0,259,0,26,0.9087719298245615
285,-1,-1,0,260,0,26,0.9090909090909091
286,-1,-1,0,261,0,26,0.9094076655052264
287,-1,-1,0,262,0,26,0.9097222222222222
288,1,-1,0,262,0,27,0.9065743944636678
289,-1,-1,0,263,0,27,0.906896551724138
290,-1,-1,0,264,0,27,0.9072164948453608
291,-1,-1,0,265,0,27,0.9075342465753424
292,-1,-1,0,266,0,27,0.9078498293515358
293,-1,-1,0,267,0,27,0.9081632653061225
294,-1,-1,0,268,0,27,0.9084745762711864
295,-1,-1,0,269,0,27,0.9087837837837838
296,-1,-1,0,270,0,27,0.9090909090909091
297,-1,-1,0,271,0,27,0.9093959731543624
298,-1,-1,0,272,0,27,0.9096989966555183
299,-1,-1,0,273,0,27,0.91
300,-1,-1,0,274,0,27,0.9102990033222591
301,-1,-1,0,275,0,27,0.9105960264900662
302,-1,-1,0,276,0,27,0.9108910891089109
303,-1,-1,0,277,0,27,0.9111842105263158
304,-1,-1,0,278,0,27,0.9114754098360656
305,-1,-1,0,279,0,27,0.9117647058823529
306,-1,-1,0,280,0,27,0.9120521172638436
307,-1,-1,0,281,0,27,0.9123376623376623
308,-1,-1,0,282,0,27,0.912621359223301
309,-1,-1,0,283,0,27,0.9129032258064517
310,-1,-1,0,284,0,27,0.9131832797427653
311,-1,-1,0,285,0,27,0.9134615384615384
312,-1,-1,0,286,0,27,0.9137380191693291
313,-1,-1,0,287,0,27,0.9140127388535032
314,-1,-1,0,288,0,27,0.9142857142857143
315,-1,-1,0,289,0,27,0.9145569620253164
316,1,-1,0,289,0,28,0.9116719242902208
317,1,-1,0,289,0,29,0.9088050314465409
318,-1,-1,0,290,0,29,0.9090909090909091
319,-1,-1,0,291,0,29,0.909375
320,-1,-1,0,292,0,29,0.9096573208722741
321,-1,-1,0,293,0,29,0.9099378881987578
322,-1,-1,0,294,0,29,0.9102167182662538
323,-1,-1,0,295,0,29,0.9104938271604939
324,-1,-1,0,296,0,29,0.9107692307692308
325,-1,-1,0,297,0,29,0.911042944785276
326,1,-1,0,297,0,30,0.908256880733945
327,-1,-1,0,298,0,30,0.9085365853658537
328,-1,-1,0,299,0,30,0.9088145896656535
329,-1,-1,0,300,0,30,0.9090909090909091
330,-1,-1,0,301,0,30,0.9093655589123867
331,-1,-1,0,302,0,30,0.9096385542168675
332,-1,-1,0,303,0,30,0.9099099099099099
333,-1,-1,0,304,0,30,0.9101796407185628
334,-1,-1,0,305,0,30,0.9104477611940298
335,-1,-1,0,306,0,30,0.9107142857142857
336,-1,-1,0,307,0,30,0.9109792284866469
337,-1,-1,0,308,0,30,0.9112426035502958
338,-1,-1,0,309,0,30,0.911504424778761
339,1,-1,0,309,0,31,0.9088235294117647
340,-1,-1,0,310,0,31,0.9090909090909091
341,-1,-1,0,311,0,31,0.9093567251461988
342,-1,-1,0,312,0,31,0.9096209912536443
343,-1,-1,0,313,0,31,0.9098837209302325
344,-1,-1,0,314,0,31,0.9101449275362319
345,-1,-1,0,315,0,31,0.9104046242774566
346,-1,-1,0,316,0,31,0.9106628242074928
347,-1,-1,0,317,0,31,0.9109195402298851
348,-1,-1,0,318,0,31,0.9111747851002865
349,-1,-1,0,319,0,31,0.9114285714285715
350,-1,-1,0,320,0,31,0.9116809116809117
351,-1,-1,0,321,0,31,0.9119318181818182
352,-1,-1,0,322,0,31,0.9121813031161473
353,-1,-1,0,323,0,31,0.9124293785310734
354,-1,-1,0,324,0,31,0.9126760563380282
355,1,-1,0,324,0,32,0.9101123595505618
356,-1,-1,0,325,0,32,0.9103641456582633
357,-1,-1,0,326,0,32,0.9106145251396648
358,-1,-1,0,327,0,32,0.9108635097493036
359,-1,-1,0,328,0,32,0.9111111111111111
360,-1,-1,0,329,0,32,0.9113573407202216
361,-1,-1,0,330,0,32,0.9116022099447514
362,-1,-1,0,331,0,32,0.9118457300275482
363,-1,-1,0,332,0,32,0.9120879120879121
364,-1,-1,0,333,0,32,0.9123287671232877
365,-1,-1,0,334,0,32,0.912568306010929
366,-1,-1,0,335,0,32,0.9128065395095368
367,-1,-1,0,336,0,32,0.9130434782608695
368,-1,-1,0,337,0,32,0.9132791327913279
369,-1,-1,0,338,0,32,0.9135135135135135
370,-1,-1,0,339,0,32,0.9137466307277629
371,1,-1,0,339,0,33,0.9112903225806451
372,-1,-1,0,340,0,33,0.9115281501340483
373,-1,-1,0,341,0,33,0.9117647058823529
374,-1,-1,0,342,0,33,0.912
375,1,-1,0,342,0,34,0.9095744680851063
376,-1,-1,0,343,0,34,0.9098143236074271
377,1,-1,0,343,0,35,0.9074074074074074
378,-1,-1,0,344,0,35,0.9076517150395779
379,-1,-1,0,345,0,35,0.9078947368421053
380,-1,-1,0,346,0,35,0.9081364829396326
381,-1,-1,0,347,0,35,0.9083769633507853
382,-1,-1,0,348,0,35,0.9086161879895561
383,-1,-1,0,349,0,35,0.9088541666666666
384,-1,-1,0,350,0,35,0.9090909090909091
385,-1,-1,0,351,0,35,0.9093264248704663
386,1,-1,0,351,0,36,0.9069767441860465
387,-1,-1,0,352,0,36,0.9072164948453608
388,-1,-1,0,353,0,36,0.9074550128534704
389,-1,-1,0,354,0,36,0.9076923076923077
390,-1,-1,0,355,0,36,0.907928388746803
391,-1,-1,0,356,0,36,0.9081632653061225
392,-1,-1,0,357,0,36,0.9083969465648855
393,-1,-1,0,358,0,36,0.9086294416243654
394,-1,-1,0,359,0,36,0.9088607594936708
395,-1,-1,0,360,0,36,0.9090909090909091
396,-1,-1,0,361,0,36,0.9093198992443325
397,-1,-1,0,362,0,36,0.9095477386934674
398,-1,-1,0,363,0,36,0.9097744360902256
399,-1,-1,0,364,0,36,0.91
400,-1,-1,0,365,0,36,0.9102244389027432
401,-1,-1,0,366,0,36,0.9104477611940298
402,1,-1,0,366,0,37,0.9081885856079405
403,-1,-1,0,367,0,37,0.9084158415841584
404,-1,-1,0,368,0,37,0.908641975308642
405,-1,-1,0,369,0,37,0.9088669950738916
406,-1,-1,0,370,0,37,0.9090909090909091
407,-1,-1,0,371,0,37,0.9093137254901961
408,-1,-1,0,372,0,37,0.9095354523227384
409,-1,-1,0,373,0,37,0.9097560975609756
410,1,-1,0,373,0,38,0.9075425790754258
411,-1,-1,0,374,0,38,0.9077669902912622
412,-1,-1,0,375,0,38,0.9079903147699758
413,-1,-1,0,376,0,38,0.9082125603864735
414,-1,-1,0,377,0,38,0.908433734939759
415,-1,-1,0,378,0,38,0.9086538461538461
416,-1,-1,0,379,0,38,0.9088729016786571
417,1,-1,0,379,0,39,0.9066985645933014
418,-1,-1,0,380,0,39,0.9069212410501193
419,1,-1,0,380,0,40,0.9047619047619048
420,-1,-1,0,381,0,40,0.9049881235154394
421,-1,-1,0,382,0,40,0.9052132701421801
422,-1,-1,0,383,0,40,0.9054373522458629
423,-1,-1,0,384,0,40,0.9056603773584906
424,-1,-1,0,385,0,40,0.9058823529411765
425,-1,-1,0,386,0,40,0.9061032863849765
426,-1,-1,0,387,0,40,0.9063231850117096
427,-1,-1,0,388,0,40,0.9065420560747663
428,-1,-1,0,389,0,40,0.9067599067599068
429,-1,-1,0,390,0,40,0.9069767441860465
430,-1,-1,0,391,0,40,0.9071925754060325
431,-1,-1,0,392,0,40,0.9074074074074074
432,-1,-1,0,393,0,40,0.9076212471131639
433,1,-1,0,393,0,41,0.9055299539170507
434,-1,-1,0,394,0,41,0.9057471264367816
435,1,-1,0,394,0,42,0.9036697247706422
436,-1,-1,0,395,0,42,0.9038901601830663
437,-1,-1,0,396,0,42,0.9041095890410958
438,-1,-1,0,397,0,42,0.9043280182232346
439,-1,-1,0,398,0,42,0.9045454545454545
440,-1,-1,0,399,0,42,0.9047619047619048
441,-1,-1,0,400,0,42,0.9049773755656109
442,-1,-1,0,401,0,42,0.9051918735891648
443,-1,-1,0,402,0,42,0.9054054054054054
444,-1,-1,0,403,0,42,0.9056179775280899
445,1,-1,0,403,0,43,0.9035874439461884
446,-1,-1,0,404,0,43,0.9038031319910514
447,-1,-1,0,405,0,43,0.9040178571428571
448,-1,-1,0,406,0,43,0.9042316258351893
449,-1,-1,0,407,0,43,0.9044444444444445
450,-1,-1,0,408,0,43,0.9046563192904656
451,-1,-1,0,409,0,43,0.9048672566371682
452,1,-1,0,409,0,44,0.9028697571743929
453,-1,-1,0,410,0,44,0.9030837004405287
454,-1,-1,0,411,0,44,0.9032967032967033
455,-1,-1,0,412,0,44,0.9035087719298246
456,-1,-1,0,413,0,44,0.9037199124726477
457,-1,-1,0,414,0,44,0.9039301310043668
458,-1,-1,0,415,0,44,0.9041394335511983
459,-1,-1,0,416,0,44,0.9043478260869565
460,-1,-1,0,417,0,44,0.9045553145336226
461,-1,-1,0,418,0,44,0.9047619047619048
462,-1,-1,0,419,0,44,0.9049676025917927
463,-1,-1,0,420,0,44,0.9051724137931034
464,-1,-1,0,421,0,44,0.9053763440860215
465,-1,-1,0,422,0,44,0.9055793991416309
466,-1,-1,0,423,0,44,0.9057815845824411
467,-1,-1,0,424,0,44,0.905982905982906
468,1,-1,0,424,0,45,0.9040511727078892
469,-1,-1,0,425,0,45,0.9042553191489362
470,-1,-1,0,426,0,45,0.9044585987261147
471,1,-1,0,426,0,46,0.902542372881356
472,-1,-1,0,427,0,46,0.9027484143763214
473,-1,-1,0,428,0,46,0.9029535864978903
474,-1,-1,0,429,0,46,0.9031578947368422
475,1,-1,0,429,0,47,0.9012605042016807
476,-1,-1,0,430,0,47,0.9014675052410901
477,-1,-1,0,431,0,47,0.9016736401673641
478,-1,-1,0,432,0,47,0.9018789144050104
479,-1,-1,0,433,0,47,0.9020833333333333
480,-1,-1,0,434,0,47,0.9022869022869023
481,-1,-1,0,435,0,47,0.9024896265560166
482,-1,-1,0,436,0,47,0.9026915113871635
483,-1,-1,0,437,0,47,0.9028925619834711
484,-1,-1,0,438,0,47,0.9030927835051547
485,-1,-1,0,439,0,47,0.9032921810699589
486,-1,-1,0,440,0,47,0.9034907597535934
487,-1,-1,0,441,0,47,0.9036885245901639
488,-1,-1,0,442,0,47,0.9038854805725971
489,-1,-1,0,443,0,47,0.9040816326530612
490,-1,-1,0,444,0,47,0.9042769857433809
491,-1,-1,0,445,0,47,0.9044715447154471
492,-1,-1,0,446,0,47,0.9046653144016227
493,-1,-1,0,447,0,47,0.9048582995951417
494,-1,-1,0,448,0,47,0.9050505050505051
495,-1,-1,0,449,0,47,0.905241935483871
496,-1,-1,0,450,0,47,0.9054325955734407
497,-1,-1,0,451,0,47,0.9056224899598394
498,-1,-1,0,452,0,47,0.905811623246493
499,-1,-1,0,453,0,47,0.906
500,-1,-1,0,454,0,47,0.906187624750499
501,-1,-1,0,455,0,47,0.9063745019920318
502,-1,-1,0,456,0,47,0.9065606361829026
503,-1,-1,0,457,0,47,0.9067460317460317
504,-1,-1,0,458,0,47,0.906930693069307
505,-1,-1,0,459,0,47,0.9071146245059288
506,1,-1,0,459,0,48,0.9053254437869822
507,-1,-1,0,460,0,48,0.905511811023622
508,-1,-1,0,461,0,48,0.9056974459724951
509,-1,-1,0,462,0,48,0.9058823529411765
510,-1,-1,0,463,0,48,0.9060665362035225
511,-1,-1,0,464,0,48,0.90625
512,-1,-1,0,465,0,48,0.9064327485380117
513,-1,-1,0,466,0,48,0.9066147859922179
514,-1,-1,0,467,0,48,0.9067961165048544
515,-1,-1,0,468,0,48,0.9069767441860465
516,-1,-1,0,469,0,48,0.90715667311412
517,-1,-1,0,470,0,48,0.9073359073359073
518,-1,-1,0,471,0,48,0.9075144508670521
519,-1,-1,0,472,0,48,0.9076923076923077
520,-1,-1,0,473,0,48,0.9078694817658349
521,1,-1,0,473,0,49,0.9061302681992337
522,-1,-1,0,474,0,49,0.9063097514340345
523,1,-1,0,474,0,50,0.9045801526717557
524,-1,-1,0,475,0,50,0.9047619047619048
525,-1,-1,0,476,0,50,0.9049429657794676
526,-1,-1,0,477,0,50,0.905123339658444
527,-1,-1,0,478,0,50,0.9053030303030303
528,-1,-1,0,479,0,50,0.9054820415879017
529,-1,-1,0,480,0,50,0.9056603773584906
530,-1,-1,0,481,0,50,0.9058380414312618
531,-1,-1,0,482,0,50,0.9060150375939849
532,-1,-1,0,483,0,50,0.9061913696060038
533,-1,-1,0,484,0,50,0.9063670411985019
534,-1,-1,0,485,0,50,0.9065420560747663
535,-1,-1,0,486,0,50,0.9067164179104478
536,-1,-1,0,487,0,50,0.9068901303538175
537,-1,-1,0,488,0,50,0.9070631970260223
538,-1,-1,0,489,0,50,0.9072356215213359
539,-1,-1,0,490,0,50,0.9074074074074074
540,-1,-1,0,491,0,50,0.9075785582255084
541,1,-1,0,491,0,51,0.9059040590405905
542,-1,-1,0,492,0,51,0.9060773480662984
543,1,-1,0,492,0,52,0.9044117647058824
544,-1,-1,0,493,0,52,0.9045871559633027
545,-1,-1,0,494,0,52,0.9047619047619048
546,-1,-1,0,495,0,52,0.9049360146252285
547,-1,-1,0,496,0,52,0.9051094890510949
548,-1,-1,0,497,0,52,0.9052823315118397
549,-1,-1,0,498,0,52,0.9054545454545454
550,-1,-1,0,499,0,52,0.9056261343012704
551,-1,-1,0,500,0,52,0.9057971014492754
552,-1,-1,0,501,0,52,0.9059674502712477
553,-1,-1,0,502,0,52,0.9061371841155235
554,-1,-1,0,503,0,52,0.9063063063063063
555,-1,-1,0,504,0,52,0.9064748201438849
556,-1,-1,0,505,0,52,0.9066427289048474
557,-1,1,0,505,1,52,0.9050179211469535
558,-1,-1,0,506,1,52,0.9051878354203936
559,-1,-1,0,507,1,52,0.9053571428571429
560,-1,-1,0,508,1,52,0.9055258467023173
561,1,1,1,508,1,52,0.905693950177936
562,-1,-1,1,509,1,52,0.9058614564831261
563,-1,-1,1,510,1,52,0.9060283687943262
564,-1,-1,1,511,1,52,0.9061946902654867
565,-1,-1,1,512,1,52,0.9063604240282686
566,-1,-1,1,513,1,52,0.9065255731922398
567,1,-1,1,513,1,53,0.9049295774647887
568,-1,-1,1,514,1,53,0.9050966608084359
569,-1,-1,1,515,1,53,0.9052631578947369
570,-1,-1,1,516,1,53,0.9054290718038529
571,1,-1,1,516,1,54,0.9038461538461539
572,-1,-1,1,517,1,54,0.9040139616055847
573,-1,-1,1,518,1,54,0.9041811846689896
574,-1,-1,1,519,1,54,0.9043478260869565
575,-1,-1,1,520,1,54,0.9045138888888888
576,-1,-1,1,521,1,54,0.9046793760831889
577,-1,-1,1,522,1,54,0.9048442906574394
578,1,-1,1,522,1,55,0.9032815198618307
579,-1,-1,1,523,1,55,0.903448275862069
580,-1,-1,1,524,1,55,0.9036144578313253
581,-1,-1,1,525,1,55,0.9037800687285223
582,-1,-1,1,526,1,55,0.9039451114922813
583,-1,-1,1,527,1,55,0.9041095890410958
584,-1,-1,1,528,1,55,0.9042735042735043
585,-1,-1,1,529,1,55,0.9044368600682594
586,-1,-1,1,530,1,55,0.9045996592844975
587,-1,-1,1,531,1,55,0.9047619047619048
588,-1,-1,1,532,1,55,0.9049235993208828
589,-1,-1,1,533,1,55,0.9050847457627119
590,-1,-1,1,534,1,55,0.9052453468697124
591,-1,-1,1,535,1,55,0.9054054054054054
592,-1,-1,1,536,1,55,0.9055649241146712
593,-1,-1,1,537,1,55,0.9057239057239057
594,-1,-1,1,538,1,55,0.9058823529411765
595,-1,-1,1,539,1,55,0.9060402684563759
596,1,-1,1,539,1,56,0.9045226130653267
597,-1,-1,1,540,1,56,0.9046822742474916
598,-1,-1,1,541,1,56,0.9048414023372288
599,-1,-1,1,542,1,56,0.905
600,-1,-1,1,543,1,56,0.9051580698835274
601,-1,-1,1,544,1,56,0.9053156146179402
602,-1,-1,1,545,1,56,0.9054726368159204
603,-1,-1,1,546,1,56,0.9056291390728477
604,-1,-1,1,547,1,56,0.9057851239669421
605,-1,-1,1,548,1,56,0.905940594059406
606,-1,-1,1,549,1,56,0.9060955518945635
607,-1,-1,1,550,1,56,0.90625
608,-1,-1,1,551,1,56,0.9064039408866995
609,-1,-1,1,552,1,56,0.9065573770491804
610,-1,-1,1,553,1,56,0.9067103109656302
611,-1,-1,1,554,1,56,0.9068627450980392
612,-1,-1,1,555,1,56,0.9070146818923328
613,-1,-1,1,556,1,56,0.9071661237785016
614,-1,-1,1,557,1,56,0.9073170731707317
615,-1,-1,1,558,1,56,0.9074675324675324
616,-1,-1,1,559,1,56,0.9076175040518638
617,-1,-1,1,560,1,56,0.9077669902912622
618,-1,-1,1,561,1,56,0.9079159935379645
619,-1,-1,1,562,1,56,0.9080645161290323
620,1,-1,1,562,1,57,0.9066022544283414
621,1,-1,1,562,1,58,0.905144694533762
622,-1,-1,1,563,1,58,0.9052969502407705
623,-1,-1,1,564,1,58,0.905448717948718
624,1,-1,1,564,1,59,0.904
625,-1,-1,1,565,1,59,0.9041533546325878
626,-1,-1,1,566,1,59,0.9043062200956937
627,-1,-1,1,567,1,59,0.9044585987261147
628,-1,-1,1,568,1,59,0.904610492845787
629,-1,-1,1,569,1,59,0.9047619047619048
630,-1,-1,1,570,1,59,0.9049128367670365
631,-1,-1,1,571,1,59,0.9050632911392406
632,-1,-1,1,572,1,59,0.9052132701421801
633,-1,-1,1,573,1,59,0.9053627760252366
634,1,-1,1,573,1,60,0.9039370078740158
635,-1,-1,1,574,1,60,0.9040880503144654
636,-1,-1,1,575,1,60,0.9042386185243328
637,-1,-1,1,576,1,60,0.9043887147335423
638,-1,-1,1,577,1,60,0.9045383411580594
639,-1,-1,1,578,1,60,0.9046875
640,-1,-1,1,579,1,60,0.9048361934477379
641,-1,-1,1,580,1,60,0.9049844236760125
642,-1,-1,1,581,1,60,0.9051321928460342
643,1,-1,1,581,1,61,0.9037267080745341
644,-1,-1,1,582,1,61,0.9038759689922481
645,-1,-1,1,583,1,61,0.9040247678018576
646,-1,-1,1,584,1,61,0.9041731066460588
647,-1,-1,1,585,1,61,0.904320987654321
648,-1,-1,1,586,1,61,0.9044684129429892
649,-1,-1,1,587,1,61,0.9046153846153846
650,-1,-1,1,588,1,61,0.9047619047619048
651,-1,-1,1,589,1,61,0.9049079754601227
652,-1,-1,1,590,1,61,0.9050535987748851
653,-1,-1,1,591,1,61,0.9051987767584098
654,-1,-1,1,592,1,61,0.9053435114503817
655,-1,-1,1,593,1,61,0.9054878048780488
656,-1,-1,1,594,1,61,0.9056316590563166
657,-1,-1,1,595,1,61,0.9057750759878419
658,-1,-1,1,596,1,61,0.9059180576631259
659,-1,-1,1,597,1,61,0.906060606060606
660,-1,-1,1,598,1,61,0.9062027231467473
661,-1,-1,1,599,1,61,0.9063444108761329
662,1,1,2,599,1,61,0.9064856711915535
663,-1,-1,2,600,1,61,0.9066265060240963
664,-1,-1,2,601,1,61,0.9067669172932331
665,-1,-1,2,602,1,61,0.9069069069069069
666,-1,-1,2,603,1,61,0.9070464767616192
667,-1,-1,2,604,1,61,0.907185628742515
668,-1,-1,2,605,1,61,0.9073243647234679
669,-1,-1,2,606,1,61,0.9074626865671642
670,-1,-1,2,607,1,61,0.9076005961251863
671,-1,-1,2,608,1,61,0.9077380952380952
672,-1,-1,2,609,1,61,0.9078751857355126
673,-1,-1,2,610,1,61,0.9080118694362018
674,-1,-1,2,611,1,61,0.9081481481481481
675,-1,-1,2,612,1,61,0.908284023668639
676,-1,-1,2,613,1,61,0.9084194977843427
677,-1,-1,2,614,1,61,0.9085545722713865
678,-1,-1,2,615,1,61,0.9086892488954345
679,-1,-1,2,616,1,61,0.9088235294117647
680,-1,-1,2,617,1,61,0.908957415565345
681,-1,-1,2,618,1,61,0.9090909090909091
682,-1,-1,2,619,1,61,0.9092240117130308
683,-1,-1,2,620,1,61,0.9093567251461988
684,-1,-1,2,621,1,61,0.9094890510948905
685,-1,-1,2,622,1,61,0.9096209912536443
686,-1,-1,2,623,1,61,0.9097525473071325
687,-1,-1,2,624,1,61,0.9098837209302325
688,-1,-1,2,625,1,61,0.9100145137880987
689,-1,-1,2,626,1,61,0.9101449275362319
690,-1,-1,2,627,1,61,0.91027496382055
691,-1,-1,2,628,1,61,0.9104046242774566
692,-1,-1,2,629,1,61,0.9105339105339105
693,1,-1,2,629,1,62,0.909221902017291
694,-1,-1,2,630,1,62,0.9093525179856116
695,-1,-1,2,631,1,62,0.9094827586206896
696,-1,-1,2,632,1,62,0.9096126255380201
697,-1,-1,2,633,1,62,0.9097421203438395
698,1,-1,2,633,1,63,0.9084406294706724
699,-1,-1,2,634,1,63,0.9085714285714286
700,1,-1,2,634,1,64,0.9072753209700428
701,-1,-1,2,635,1,64,0.9074074074074074
702,-1,-1,2,636,1,64,0.9075391180654339
703,-1,-1,2,637,1,64,0.9076704545454546
704,1,-1,2,637,1,65,0.9063829787234042
705,-1,-1,2,638,1,65,0.9065155807365439
706,-1,-1,2,639,1,65,0.9066478076379066
707,-1,-1,2,640,1,65,0.9067796610169492
708,-1,-1,2,641,1,65,0.9069111424541608
709,-1,-1,2,642,1,65,0.9070422535211268
710,-1,-1,2,643,1,65,0.9071729957805907
711,-1,-1,2,644,1,65,0.9073033707865169
712,-1,-1,2,645,1,65,0.9074333800841514
713,1,-1,2,645,1,66,0.9061624649859944
714,-1,-1,2,646,1,66,0.9062937062937063
715,-1,-1,2,647,1,66,0.9064245810055865
716,-1,-1,2,648,1,66,0.9065550906555091
717,-1,-1,2,649,1,66,0.9066852367688022
718,-1,-1,2,650,1,66,0.9068150208623088
719,-1,-1,2,651,1,66,0.9069444444444444
720,-1,-1,2,652,1,66,0.9070735090152566
721,-1,-1,2,653,1,66,0.907202216066482
722,-1,-1,2,654,1,66,0.9073305670816044
723,-1,-1,2,655,1,66,0.9074585635359116
724,-1,-1,2,656,1,66,0.9075862068965517
725,-1,-1,2,657,1,66,0.9077134986225895
726,-1,-1,2,658,1,66,0.9078404401650619
727,-1,-1,2,659,1,66,0.907967032967033
728,-1,-1,2,660,1,66,0.9080932784636488
729,-1,-1,2,661,1,66,0.9082191780821918
730,-1,-1,2,662,1,66,0.908344733242134
731,-1,-1,2,663,1,66,0.9084699453551912
732,1,-1,2,663,1,67,0.9072305593451568
733,-1,-1,2,664,1,67,0.9073569482288828
734,-1,-1,2,665,1,67,0.9074829931972789
735,-1,-1,2,666,1,67,0.907608695652174
736,-1,-1,2,667,1,67,0.9077340569877883
737,-1,-1,2,668,1,67,0.907859078590786
738,-1,-1,2,669,1,67,0.9079837618403248
739,-1,-1,2,670,1,67,0.9081081081081082
740,-1,-1,2,671,1,67,0.9082321187584346
741,1,-1,2,671,1,68,0.9070080862533693
742,-1,-1,2,672,1,68,0.9071332436069987
743,1,-1,2,672,1,69,0.9059139784946236
744,-1,-1,2,673,1,69,0.9060402684563759
745,1,-1,2,673,1,70,0.9048257372654156
746,-1,-1,2,674,1,70,0.9049531459170014
747,-1,-1,2,675,1,70,0.9050802139037433
748,-1,-1,2,676,1,70,0.9052069425901201
749,-1,-1,2,677,1,70,0.9053333333333333
750,-1,-1,2,678,1,70,0.9054593874833555
751,-1,-1,2,679,1,70,0.9055851063829787
752,-1,-1,2,680,1,70,0.9057104913678619
753,-1,-1,2,681,1,70,0.9058355437665783
754,-1,-1,2,682,1,70,0.9059602649006623
755,-1,-1,2,683,1,70,0.906084656084656
756,-1,-1,2,684,1,70,0.9062087186261559
757,-1,-1,2,685,1,70,0.9063324538258575
758,-1,-1,2,686,1,70,0.9064558629776021
759,-1,-1,2,687,1,70,0.906578947368421
760,-1,-1,2,688,1,70,0.9067017082785808
761,-1,-1,2,689,1,70,0.9068241469816273
762,-1,-1,2,690,1,70,0.9069462647444299
763,-1,-1,2,691,1,70,0.9070680628272252
764,-1,-1,2,692,1,70,0.9071895424836601
765,-1,-1,2,693,1,70,0.9073107049608355
766,1,-1,2,693,1,71,0.9061277705345502
767,-1,-1,2,694,1,71,0.90625
768,-1,-1,2,695,1,71,0.9063719115734721
769,-1,-1,2,696,1,71,0.9064935064935065
770,-1,-1,2,697,1,71,0.9066147859922179
771,-1,-1,2,698,1,71,0.9067357512953368
772,-1,-1,2,699,1,71,0.906856403622251
773,-1,-1,2,700,1,71,0.9069767441860465
774,-1,-1,2,701,1,71,0.9070967741935484
775,-1,-1,2,702,1,71,0.9072164948453608
776,-1,-1,2,703,1,71,0.9073359073359073
777,-1,-1,2,704,1,71,0.9074550128534704
778,-1,-1,2,705,1,71,0.9075738125802311
779,-1,-1,2,706,1,71,0.9076923076923077
780,-1,-1,2,707,1,71,0.9078104993597952
781,-1,-1,2,708,1,71,0.907928388746803
782,1,-1,2,708,1,72,0.9067688378033205
783,-1,-1,2,709,1,72,0.9068877551020408
784,1,1,3,709,1,72,0.9070063694267516
785,-1,-1,3,710,1,72,0.9071246819338422
786,-1,-1,3,711,1,72,0.9072426937738246
787,-1,-1,3,712,1,72,0.9073604060913706
788,-1,-1,3,713,1,72,0.9074778200253485
789,-1,-1,3,714,1,72,0.9075949367088607
790,-1,-1,3,715,1,72,0.9077117572692794
791,-1,-1,3,716,1,72,0.9078282828282829
792,-1,-1,3,717,1,72,0.9079445145018915
793,-1,-1,3,718,1,72,0.9080604534005038
794,1,-1,3,718,1,73,0.9069182389937107
795,1,-1,3,718,1,74,0.9057788944723618
796,-1,-1,3,719,1,74,0.9058971141781681
797,-1,-1,3,720,1,74,0.9060150375939849
798,1,-1,3,720,1,75,0.904881101376721
799,-1,-1,3,721,1,75,0.905
800,1,-1,3,721,1,76,0.9038701622971286
801,-1,-1,3,722,1,76,0.9039900249376559
802,-1,-1,3,723,1,76,0.9041095890410958
803,1,-1,3,723,1,77,0.9029850746268657
804,-1,-1,3,724,1,77,0.9031055900621118
805,-1,-1,3,725,1,77,0.9032258064516129
806,-1,-1,3,726,1,77,0.9033457249070632
807,-1,-1,3,727,1,77,0.9034653465346535
808,1,-1,3,727,1,78,0.9023485784919654
809,1,-1,3,727,1,79,0.9012345679012346
810,-1,-1,3,728,1,79,0.9013563501849569
811,-1,-1,3,729,1,79,0.9014778325123153
812,1,-1,3,729,1,80,0.9003690036900369
813,-1,-1,3,730,1,80,0.9004914004914005
814,-1,-1,3,731,1,80,0.9006134969325154
815,-1,-1,3,732,1,80,0.9007352941176471
816,-1,-1,3,733,1,80,0.9008567931456548
817,-1,-1,3,734,1,80,0.9009779951100244
818,-1,-1,3,735,1,80,0.9010989010989011
819,-1,-1,3,736,1,80,0.901219512195122
820,-1,-1,3,737,1,80,0.9013398294762485
821,-1,-1,3,738,1,80,0.9014598540145985
822,-1,-1,3,739,1,80,0.9015795868772782
823,-1,-1,3,740,1,80,0.9016990291262136
824,1,-1,3,740,1,81,0.9006060606060606
825,-1,-1,3,741,1,81,0.9007263922518159
826,1,-1,3,741,1,82,0.8996372430471584
827,-1,-1,3,742,1,82,0.8997584541062802
828,-1,-1,3,743,1,82,0.8998793727382388
829,-1,-1,3,744,1,82,0.9
830,-1,-1,3,745,1,82,0.9001203369434416
831,-1,-1,3,746,1,82,0.9002403846153846
832,-1,-1,3,747,1,82,0.9003601440576231
833,-1,-1,3,748,1,82,0.9004796163069544
834,-1,-1,3,749,1,82,0.9005988023952096
835,-1,-1,3,750,1,82,0.9007177033492823
836,-1,-1,3,751,1,82,0.9008363201911589
837,-1,-1,3,752,1,82,0.9009546539379475
838,-1,-1,3,753,1,82,0.901072705601907
839,-1,-1,3,754,1,82,0.9011904761904762
840,1,-1,3,754,1,83,0.9001189060642093
841,-1,-1,3,755,1,83,0.9002375296912114
842,1,-1,3,755,1,84,0.8991696322657177
843,-1,-1,3,756,1,84,0.8992890995260664
844,-1,-1,3,757,1,84,0.8994082840236687
845,-1,-1,3,758,1,84,0.8995271867612293
846,-1,-1,3,759,1,84,0.8996458087367178
847,-1,-1,3,760,1,84,0.8997641509433962
848,-1,-1,3,761,1,84,0.8998822143698468
849,-1,-1,3,762,1,84,0.9
850,1,-1,3,762,1,85,0.8989424206815512
851,-1,-1,3,763,1,85,0.8990610328638498
852,-1,-1,3,764,1,85,0.8991793669402111
853,-1,-1,3,765,1,85,0.8992974238875878
854,-1,-1,3,766,1,85,0.8994152046783626
855,1,-1,3,766,1,86,0.8983644859813084
856,1,-1,3,766,1,87,0.897316219369895
857,-1,-1,3,767,1,87,0.8974358974358975
858,1,-1,3,767,1,88,0.8963911525029103
859,-1,-1,3,768,1,88,0.8965116279069767
860,-1,-1,3,769,1,88,0.8966318234610917
861,-1,-1,3,770,1,88,0.8967517401392111
862,-1,-1,3,771,1,88,0.8968713789107764
863,-1,-1,3,772,1,88,0.8969907407407407
864,-1,-1,3,773,1,88,0.8971098265895954
865,-1,-1,3,774,1,88,0.8972286374133949
866,-1,-1,3,775,1,88,0.8973471741637832
867,1,-1,3,775,1,89,0.8963133640552995
868,-1,-1,3,776,1,89,0.8964326812428078
869,-1,-1,3,777,1,89,0.896551724137931
870,-1,-1,3,778,1,89,0.8966704936854191
871,-1,-1,3,779,1,89,0.8967889908256881
872,-1,1,3,779,2,89,0.8957617411225659
873,-1,-1,3,780,2,89,0.8958810068649885
874,-1,-1,3,781,2,89,0.896
875,-1,-1,3,782,2,89,0.8961187214611872
876,-1,-1,3,783,2,89,0.8962371721778791
877,-1,-1,3,784,2,89,0.8963553530751709
878,-1,-1,3,785,2,89,0.8964732650739476
879,1,-1,3,785,2,90,0.8954545454545455
880,-1,-1,3,786,2,90,0.8955732122587968
881,-1,-1,3,787,2,90,0.8956916099773242
882,-1,-1,3,788,2,90,0.8958097395243488
883,-1,-1,3,789,2,90,0.8959276018099548
884,-1,-1,3,790,2,90,0.896045197740113
885,-1,-1,3,791,2,90,0.8961625282167043
886,-1,-1,3,792,2,90,0.8962795941375423
887,-1,-1,3,793,2,90,0.8963963963963963
888,-1,-1,3,794,2,90,0.8965129358830146
889,-1,-1,3,795,2,90,0.8966292134831461
890,-1,-1,3,796,2,90,0.8967452300785634
891,-1,-1,3,797,2,90,0.8968609865470852
892,1,-1,3,797,2,91,0.8958566629339306
893,-1,-1,3,798,2,91,0.8959731543624161
894,-1,-1,3,799,2,91,0.8960893854748604
895,-1,-1,3,800,2,91,0.8962053571428571
896,-1,-1,3,801,2,91,0.8963210702341137
897,1,-1,3,801,2,92,0.8953229398663697
898,-1,-1,3,802,2,92,0.8954393770856507
899,-1,-1,3,803,2,92,0.8955555555555555
900,-1,-1,3,804,2,92,0.8956714761376249
901,-1,-1,3,805,2,92,0.8957871396895787
902,-1,-1,3,806,2,92,0.8959025470653378
903,-1,-1,3,807,2,92,0.8960176991150443
904,-1,-1,3,808,2,92,0.8961325966850828
905,1,-1,3,808,2,93,0.8951434878587197
906,-1,-1,3,809,2,93,0.8952590959206174
907,-1,-1,3,810,2,93,0.8953744493392071
908,-1,-1,3,811,2,93,0.8954895489548955
909,-1,-1,3,812,2,93,0.8956043956043956
910,-1,-1,3,813,2,93,0.8957189901207464
911,-1,-1,3,814,2,93,0.8958333333333334
912,-1,-1,3,815,2,93,0.895947426067908
913,-1,-1,3,816,2,93,0.8960612691466083
914,-1,-1,3,817,2,93,0.8961748633879781
915,-1,-1,3,818,2,93,0.8962882096069869
916,-1,-1,3,819,2,93,0.8964013086150491
917,-1,-1,3,820,2,93,0.8965141612200436
918,-1,-1,3,821,2,93,0.8966267682263329
919,-1,-1,3,822,2,93,0.8967391304347826
920,-1,-1,3,823,2,93,0.8968512486427795
921,-1,-1,3,824,2,93,0.8969631236442517
922,-1,-1,3,825,2,93,0.8970747562296858
923,-1,-1,3,826,2,93,0.8971861471861472
924,-1,-1,3,827,2,93,0.8972972972972973
925,-1,-1,3,828,2,93,0.8974082073434125
926,-1,-1,3,829,2,93,0.8975188781014024
927,-1,-1,3,830,2,93,0.8976293103448276
928,-1,-1,3,831,2,93,0.8977395048439182
929,-1,-1,3,832,2,93,0.8978494623655914
930,-1,-1,3,833,2,93,0.8979591836734694
931,-1,-1,3,834,2,93,0.898068669527897
932,-1,-1,3,835,2,93,0.8981779206859593
933,-1,-1,3,836,2,93,0.8982869379014989
934,1,-1,3,836,2,94,0.8973262032085562
935,-1,-1,3,837,2,94,0.8974358974358975
936,-1,-1,3,838,2,94,0.8975453575240128
937,-1,-1,3,839,2,94,0.8976545842217484
938,-1,-1,3,840,2,94,0.8977635782747604
939,-1,-1,3,841,2,94,0.8978723404255319
940,-1,-1,3,842,2,94,0.89798087141339
941,-1,-1,3,843,2,94,0.8980891719745223
942,1,-1,3,843,2,95,0.897136797454931
943,-1,-1,3,844,2,95,0.8972457627118644
944,-1,-1,3,845,2,95,0.8973544973544973
945,-1,-1,3,846,2,95,0.8974630021141649
946,-1,-1,3,847,2,95,0.8975712777191129
947,-1,-1,3,848,2,95,0.8976793248945147
948,-1,-1,3,849,2,95,0.8977871443624869
949,-1,-1,3,850,2,95,0.8978947368421053
950,-1,-1,3,851,2,95,0.8980021030494216
951,-1,-1,3,852,2,95,0.898109243697479
952,-1,-1,3,853,2,95,0.8982161594963274
953,-1,-1,3,854,2,95,0.8983228511530398
954,-1,-1,3,855,2,95,0.8984293193717278
955,1,-1,3,855,2,96,0.897489539748954
956,-1,-1,3,856,2,96,0.8975966562173459
957,-1,-1,3,857,2,96,0.8977035490605428
958,1,-1,3,857,2,97,0.8967674661105318
959,-1,-1,3,858,2,97,0.896875
960,-1,-1,3,859,2,97,0.8969823100936525
961,-1,-1,3,860,2,97,0.8970893970893971
962,-1,-1,3,861,2,97,0.897196261682243
963,-1,-1,3,862,2,97,0.8973029045643154
964,-1,-1,3,863,2,97,0.8974093264248705
965,-1,-1,3,864,2,97,0.8975155279503105
966,-1,-1,3,865,2,97,0.8976215098241985
967,-1,-1,3,866,2,97,0.8977272727272727
968,-1,-1,3,867,2,97,0.8978328173374613
969,-1,-1,3,868,2,97,0.8979381443298969
970,-1,-1,3,869,2,97,0.898043254376931
971,-1,-1,3,870,2,97,0.8981481481481481
972,-1,-1,3,871,2,97,0.8982528263103803
973,-1,-1,3,872,2,97,0.8983572895277208
974,1,-1,3,872,2,98,0.8974358974358975
975,-1,-1,3,873,2,98,0.8975409836065574
976,-1,-1,3,874,2,98,0.8976458546571137
977,-1,-1,3,875,2,98,0.8977505112474438
978,-1,-1,3,876,2,98,0.8978549540347294
979,-1,-1,3,877,2,98,0.8979591836734694
980,-1,-1,3,878,2,98,0.8980632008154944
981,-1,-1,3,879,2,98,0.8981670061099797
982,-1,-1,3,880,2,98,0.8982706002034588
983,-1,-1,3,881,2,98,0.8983739837398373
984,1,-1,3,881,2,99,0.8974619289340101
985,-1,-1,3,882,2,99,0.8975659229208925
986,-1,-1,3,883,2,99,0.8976697061803445
987,-1,-1,3,884,2,99,0.8977732793522267
988,-1,-1,3,885,2,99,0.897876643073812
989,-1,-1,3,886,2,99,0.897979797979798
990,-1,-1,3,887,2,99,0.8980827447023209
991,-1,-1,3,888,2,99,0.8981854838709677
992,-1,-1,3,889,2,99,0.8982880161127895
993,-1,-1,3,890,2,99,0.8983903420523138
994,-1,-1,3,891,2,99,0.8984924623115578
995,-1,-1,3,892,2,99,0.8985943775100401
996,-1,-1,3,893,2,99,0.8986960882647944
997,-1,-1,3,894,2,99,0.8987975951903807
998,-1,-1,3,895,2,99,0.8988988988988988
999,-1,-1,3,896,2,99,0.899
1000,-1,-1,3,897,2,99,0.8991008991008991
1001,-1,-1,3,898,2,99,0.8992015968063872
1002,-1,-1,3,899,2,99,0.8993020937188435
1003,-1,-1,3,900,2,99,0.899402390438247
1004,-1,-1,3,901,2,99,0.8995024875621891
1005,-1,-1,3,902,2,99,0.8996023856858847
1006,-1,-1,3,903,2,99,0.8997020854021847
1007,-1,-1,3,904,2,99,0.8998015873015873
1008,-1,-1,3,905,2,99,0.8999008919722498
1009,-1,-1,3,906,2,99,0.9
1010,-1,-1,3,907,2,99,0.9000989119683481
1011,-1,-1,3,908,2,99,0.900197628458498
1012,-1,-1,3,909,2,99,0.9002961500493584
1013,-1,-1,3,910,2,99,0.9003944773175543
1014,-1,-1,3,911,2,99,0.9004926108374385
1015,-1,-1,3,912,2,99,0.9005905511811023
1016,-1,-1,3,913,2,99,0.9006882989183874
1017,-1,-1,3,914,2,99,0.9007858546168959
1018,-1,-1,3,915,2,99,0.900883218842002
1019,-1,-1,3,916,2,99,0.9009803921568628
1020,-1,-1,3,917,2,99,0.901077375122429
1021,-1,-1,3,918,2,99,0.901174168297456
1022,-1,-1,3,919,2,99,0.9012707722385142
1023,-1,-1,3,920,2,99,0.9013671875
1024,-1,-1,3,921,2,99,0.9014634146341464
1025,-1,-1,3,922,2,99,0.9015594541910331
1026,-1,-1,3,923,2,99,0.9016553067185978
1027,-1,-1,3,924,2,99,0.9017509727626459
1028,-1,-1,3,925,2,99,0.901846452866861
1029,-1,-1,3,926,2,99,0.9019417475728155
1030,-1,-1,3,927,2,99,0.9020368574199806
1031,-1,-1,3,928,2,99,0.9021317829457365
1032,-1,-1,3,929,2,99,0.9022265246853823
1033,-1,-1,3,930,2,99,0.902321083172147
1034,-1,-1,3,931,2,99,0.9024154589371981
1035,-1,-1,3,932,2,99,0.9025096525096525
1036,-1,-1,3,933,2,99,0.9026036644165863
1037,1,-1,3,933,2,100,0.9017341040462428
1038,-1,-1,3,934,2,100,0.9018286814244466
1039,-1,-1,3,935,2,100,0.9019230769230769
1040,1,-1,3,935,2,101,0.9010566762728146
1041,-1,-1,3,936,2,101,0.9011516314779271
1042,-1,-1,3,937,2,101,0.9012464046021093
1043,-1,-1,3,938,2,101,0.9013409961685823
1044,-1,-1,3,939,2,101,0.9014354066985646
1045,-1,-1,3,940,2,101,0.9015296367112811
1046,-1,-1,3,941,2,101,0.9016236867239733
1047,-1,-1,3,942,2,101,0.9017175572519084
1048,-1,-1,3,943,2,101,0.9018112488083889
1049,-1,-1,3,944,2,101,0.9019047619047619
1050,-1,-1,3,945,2,101,0.9019980970504282
1051,-1,-1,3,946,2,101,0.9020912547528517
1052,-1,-1,3,947,2,101,0.9021842355175689
1053,-1,-1,3,948,2,101,0.9022770398481973
1054,-1,-1,3,949,2,101,0.9023696682464455
1055,-1,-1,3,950,2,101,0.9024621212121212
1056,-1,-1,3,951,2,101,0.902554399243141
1057,1,-1,3,951,2,102,0.9017013232514177
1058,-1,-1,3,952,2,102,0.9017941454202077
1059,-1,-1,3,953,2,102,0.9018867924528302
1060,-1,-1,3,954,2,102,0.9019792648444863
1061,-1,-1,3,955,2,102,0.9020715630885122
1062,-1,-1,3,956,2,102,0.9021636876763875
1063,-1,-1,3,957,2,102,0.9022556390977443
1064,-1,-1,3,958,2,102,0.9023474178403755
1065,-1,-1,3,959,2,102,0.9024390243902439
1066,-1,-1,3,960,2,102,0.9025304592314901
1067,-1,-1,3,961,2,102,0.9026217228464419
1068,-1,-1,3,962,2,102,0.9027128157156221
1069,-1,-1,3,963,2,102,0.902803738317757
1070,-1,-1,3,964,2,102,0.9028944911297853
1071,-1,-1,3,965,2,102,0.9029850746268657
1072,-1,-1,3,966,2,102,0.9030754892823858
1073,1,-1,3,966,2,103,0.9022346368715084
1074,-1,-1,3,967,2,103,0.9023255813953488
1075,-1,-1,3,968,2,103,0.9024163568773235
1076,-1,-1,3,969,2,103,0.9025069637883009
1077,-1,-1,3,970,2,103,0.9025974025974026
1078,-1,-1,3,971,2,103,0.9026876737720111
1079,-1,-1,3,972,2,103,0.9027777777777778
1080,-1,-1,3,973,2,103,0.902867715078631
1081,-1,-1,3,974,2,103,0.9029574861367837
1082,-1,-1,3,975,2,103,0.9030470914127424
1083,-1,-1,3,976,2,103,0.9031365313653137
1084,-1,-1,3,977,2,103,0.9032258064516129
1085,-1,-1,3,978,2,103,0.9033149171270718
1086,-1,-1,3,979,2,103,0.9034038638454461
1087,-1,-1,3,980,2,103,0.9034926470588235
1088,-1,-1,3,981,2,103,0.9035812672176309
1089,-1,-1,3,982,2,103,0.9036697247706422
1090,-1,-1,3,983,2,103,0.9037580201649863
1091,-1,-1,3,984,2,103,0.9038461538461539
1092,-1,-1,3,985,2,103,0.9039341262580055
1093,-1,-1,3,986,2,103,0.9040219378427788
1094,-1,-1,3,987,2,103,0.9041095890410958
1095,-1,-1,3,988,2,103,0.9041970802919708
1096,1,-1,3,988,2,104,0.9033728350045579
1097,-1,-1,3,989,2,104,0.9034608378870674
1098,-1,-1,3,990,2,104,0.9035486806187443
1099,-1,-1,3,991,2,104,0.9036363636363637
1100,1,-1,3,991,2,105,0.9028156221616712
1101,-1,-1,3,992,2,105,0.9029038112522686
1102,-1,-1,3,993,2,105,0.9029918404351768
1103,-1,-1,3,994,2,105,0.9030797101449275
1104,-1,-1,3,995,2,105,0.9031674208144796
1105,-1,-1,3,996,2,105,0.903254972875226
1106,-1,-1,3,997,2,105,0.9033423667570009
1107,1,-1,3,997,2,106,0.9025270758122743
1108,-1,-1,3,998,2,106,0.9026149684400361
1109,-1,-1,3,999,2,106,0.9027027027027027
1110,-1,-1,3,1000,2,106,0.9027902790279028
1111,-1,-1,3,1001,2,106,0.9028776978417267
1112,-1,-1,3,1002,2,106,0.9029649595687331
1113,-1,-1,3,1003,2,106,0.9030520646319569
1114,-1,-1,3,1004,2,106,0.9031390134529148
1115,-1,-1,3,1005,2,106,0.9032258064516129
1116,-1,-1,3,1006,2,106,0.9033124440465533
1117,-1,-1,3,1007,2,106,0.9033989266547406
1118,-1,-1,3,1008,2,106,0.903485254691689
1119,1,-1,3,1008,2,107,0.9026785714285714
1120,-1,-1,3,1009,2,107,0.9027653880463872
1121,-1,-1,3,1010,2,107,0.9028520499108734
1122,-1,-1,3,1011,2,107,0.9029385574354408
1123,-1,-1,3,1012,2,107,0.9030249110320284
1124,-1,-1,3,1013,2,107,0.9031111111111111
1125,-1,-1,3,1014,2,107,0.9031971580817052
1126,-1,-1,3,1015,2,107,0.9032830523513753
1127,-1,-1,3,1016,2,107,0.9033687943262412
1128,-1,-1,3,1017,2,107,0.9034543844109831
1129,-1,-1,3,1018,2,107,0.9035398230088496
1130,1,-1,3,1018,2,108,0.9027409372236959
1131,-1,-1,3,1019,2,108,0.9028268551236749
1132,-1,-1,3,1020,2,108,0.9029126213592233
1133,-1,-1,3,1021,2,108,0.9029982363315696
1134,-1,-1,3,1022,2,108,0.9030837004405287
1135,-1,-1,3,1023,2,108,0.903169014084507
1136,-1,-1,3,1024,2,108,0.9032541776605101
1137,-1,-1,3,1025,2,108,0.9033391915641477
1138,-1,-1,3,1026,2,108,0.9034240561896401
1139,-1,-1,3,1027,2,108,0.9035087719298246
1140,-1,-1,3,1028,2,108,0.9035933391761612
1141,-1,-1,3,1029,2,108,0.9036777583187391
1142,-1,-1,3,1030,2,108,0.9037620297462817
1143,-1,-1,3,1031,2,108,0.9038461538461539
1144,-1,-1,3,1032,2,108,0.9039301310043668
1145,-1,-1,3,1033,2,108,0.9040139616055847
1146,-1,-1,3,1034,2,108,0.9040976460331299
1147,-1,-1,3,1035,2,108,0.9041811846689896
1148,-1,-1,3,1036,2,108,0.9042645778938208
1149,1,-1,3,1036,2,109,0.9034782608695652
1150,-1,-1,3,1037,2,109,0.9035621198957429
1151,-1,-1,3,1038,2,109,0.9036458333333334
1152,-1,-1,3,1039,2,109,0.9037294015611448
1153,-1,-1,3,1040,2,109,0.9038128249566725
1154,-1,-1,3,1041,2,109,0.9038961038961039
1155,-1,-1,3,1042,2,109,0.9039792387543253
1156,-1,-1,3,1043,2,109,0.9040622299049266
1157,1,-1,3,1043,2,110,0.9032815198618307
1158,-1,-1,3,1044,2,110,0.903364969801553
1159,-1,-1,3,1045,2,110,0.903448275862069
1160,-1,-1,3,1046,2,110,0.9035314384151594
1161,-1,-1,3,1047,2,110,0.9036144578313253
1162,1,-1,3,1047,2,111,0.9028374892519346
1163,-1,-1,3,1048,2,111,0.9029209621993127
1164,-1,-1,3,1049,2,111,0.9030042918454936
1165,-1,-1,3,1050,2,111,0.9030874785591767
1166,-1,-1,3,1051,2,111,0.9031705227077977
1167,-1,-1,3,1052,2,111,0.9032534246575342
1168,-1,-1,3,1053,2,111,0.9033361847733106
1169,1,-1,3,1053,2,112,0.9025641025641026
1170,1,-1,3,1053,2,113,0.9017933390264731
1171,-1,-1,3,1054,2,113,0.9018771331058021
1172,-1,-1,3,1055,2,113,0.9019607843137255
1173,-1,-1,3,1056,2,113,0.9020442930153322
1174,-1,-1,3,1057,2,113,0.902127659574468
1175,-1,-1,3,1058,2,113,0.9022108843537415
1176,-1,-1,3,1059,2,113,0.9022939677145284
1177,-1,-1,3,1060,2,113,0.902376910016978
1178,-1,-1,3,1061,2,113,0.9024597116200169
1179,-1,-1,3,1062,2,113,0.902542372881356
1180,-1,-1,3,1063,2,113,0.9026248941574937
1181,-1,-1,3,1064,2,113,0.9027072758037225
1182,-1,-1,3,1065,2,113,0.9027895181741336
1183,-1,-1,3,1066,2,113,0.9028716216216216
1184,-1,-1,3,1067,2,113,0.9029535864978903
1185,-1,-1,3,1068,2,113,0.903035413153457
1186,-1,-1,3,1069,2,113,0.9031171019376579
1187,-1,-1,3,1070,2,113,0.9031986531986532
1188,-1,-1,3,1071,2,113,0.9032800672834315
1189,-1,-1,3,1072,2,113,0.9033613445378151
1190,-1,-1,3,1073,2,113,0.9034424853064652
1191,-1,-1,3,1074,2,113,0.9035234899328859
1192,-1,-1,3,1075,2,113,0.90360435875943
1193,-1,-1,3,1076,2,113,0.9036850921273032
1194,-1,-1,3,1077,2,113,0.9037656903765691
1195,-1,-1,3,1078,2,113,0.9038461538461539
1196,-1,-1,3,1079,2,113,0.9039264828738512
1197,-1,-1,3,1080,2,113,0.9040066777963273
1198,1,-1,3,1080,2,114,0.9032527105921602
1199,-1,-1,3,1081,2,114,0.9033333333333333
1200,-1,-1,3,1082,2,114,0.9034138218151541
1201,1,-1,3,1082,2,115,0.9026622296173045
1202,-1,-1,3,1083,2,115,0.9027431421446384
1203,-1,-1,3,1084,2,115,0.9028239202657807
1204,-1,-1,3,1085,2,115,0.9029045643153527
1205,-1,-1,3,1086,2,115,0.9029850746268657
1206,-1,-1,3,1087,2,115,0.9030654515327258
1207,-1,-1,3,1088,2,115,0.9031456953642384
1208,-1,-1,3,1089,2,115,0.9032258064516129
1209,1,-1,3,1089,2,116,0.9024793388429752
1210,-1,-1,3,1090,2,116,0.902559867877787
1211,-1,-1,3,1091,2,116,0.9026402640264026
1212,-1,-1,3,1092,2,116,0.9027205276174773
1213,-1,-1,3,1093,2,116,0.9028006589785832
1214,-1,-1,3,1094,2,116,0.902880658436214
1215,1,-1,3,1094,2,117,0.9021381578947368
1216,-1,-1,3,1095,2,117,0.9022185702547247
1217,-1,-1,3,1096,2,117,0.9022988505747126
1218,-1,-1,3,1097,2,117,0.9023789991796555
1219,-1,-1,3,1098,2,117,0.9024590163934426
1220,-1,-1,3,1099,2,117,0.9025389025389026
1221,-1,-1,3,1100,2,117,0.9026186579378068
1222,-1,-1,3,1101,2,117,0.902698282910875
1223,-1,-1,3,1102,2,117,0.9027777777777778
1224,1,-1,3,1102,2,118,0.9020408163265307
1225,-1,-1,3,1103,2,118,0.9021207177814029
1226,-1,-1,3,1104,2,118,0.902200488997555
1227,-1,-1,3,1105,2,118,0.9022801302931596
1228,-1,-1,3,1106,2,118,0.9023596419853539
1229,-1,-1,3,1107,2,118,0.9024390243902439
1230,-1,-1,3,1108,2,118,0.9025182778229082
1231,-1,-1,3,1109,2,118,0.9025974025974026
1232,-1,-1,3,1110,2,118,0.902676399026764
1233,-1,-1,3,1111,2,118,0.9027552674230146
1234,-1,-1,3,1112,2,118,0.902834008097166
1235,-1,-1,3,1113,2,118,0.9029126213592233
1236,1,-1,3,1113,2,119,0.9021827000808408
1237,-1,-1,3,1114,2,119,0.9022617124394184
1238,-1,-1,3,1115,2,119,0.9023405972558515
1239,-1,-1,3,1116,2,119,0.9024193548387097
1240,-1,-1,3,1117,2,119,0.9024979854955681
1241,-1,-1,3,1118,2,119,0.9025764895330113
1242,-1,-1,3,1119,2,119,0.9026548672566371
1243,-1,-1,3,1120,2,119,0.9027331189710611
1244,-1,-1,3,1121,2,119,0.9028112449799197
1245,-1,-1,3,1122,2,119,0.9028892455858748
1246,1,-1,3,1122,2,120,0.9021651964715317
1247,-1,-1,3,1123,2,120,0.9022435897435898
1248,-1,-1,3,1124,2,120,0.9023218574859888
1249,-1,-1,3,1125,2,120,0.9024
1250,1,-1,3,1125,2,121,0.9016786570743405
1251,-1,-1,3,1126,2,121,0.9017571884984026
1252,-1,-1,3,1127,2,121,0.9018355945730248
1253,-1,-1,3,1128,2,121,0.9019138755980861
1254,-1,-1,3,1129,2,121,0.90199203187251
1255,-1,-1,3,1130,2,121,0.9020700636942676
1256,-1,-1,3,1131,2,121,0.9021479713603818
1257,-1,-1,3,1132,2,121,0.9022257551669316
1258,-1,-1,3,1133,2,121,0.9023034154090548
1259,-1,-1,3,1134,2,121,0.9023809523809524
1260,-1,-1,3,1135,2,121,0.9024583663758922
1261,-1,-1,3,1136,2,121,0.9025356576862124
1262,-1,-1,3,1137,2,121,0.9026128266033254
1263,-1,-1,3,1138,2,121,0.9026898734177216
1264,-1,-1,3,1139,2,121,0.9027667984189723
1265,-1,-1,3,1140,2,121,0.9028436018957346
1266,-1,-1,3,1141,2,121,0.9029202841357538
1267,-1,-1,3,1142,2,121,0.9029968454258676
1268,-1,-1,3,1143,2,121,0.9030732860520094
1269,-1,-1,3,1144,2,121,0.9031496062992126
1270,-1,-1,3,1145,2,121,0.9032258064516129
1271,-1,-1,3,1146,2,121,0.9033018867924528
1272,-1,-1,3,1147,2,121,0.9033778476040848
1273,-1,-1,3,1148,2,121,0.9034536891679749
1274,-1,-1,3,1149,2,121,0.9035294117647059
1275,-1,-1,3,1150,2,121,0.9036050156739812
1276,-1,-1,3,1151,2,121,0.9036805011746281
1277,-1,-1,3,1152,2,121,0.903755868544601
1278,-1,-1,3,1153,2,121,0.9038311180609852
1279,-1,-1,3,1154,2,121,0.90390625
1280,-1,-1,3,1155,2,121,0.9039812646370023
1281,-1,-1,3,1156,2,121,0.9040561622464899
1282,-1,-1,3,1157,2,121,0.9041309431021044
1283,-1,-1,3,1158,2,121,0.9042056074766355
1284,-1,-1,3,1159,2,121,0.9042801556420234
1285,-1,-1,3,1160,2,121,0.9043545878693624
1286,-1,-1,3,1161,2,121,0.9044289044289044
1287,-1,-1,3,1162,2,121,0.9045031055900621
1288,-1,-1,3,1163,2,121,0.9045771916214119
1289,-1,-1,3,1164,2,121,0.9046511627906977
1290,-1,-1,3,1165,2,121,0.9047250193648335
1291,-1,-1,3,1166,2,121,0.9047987616099071
1292,-1,-1,3,1167,2,121,0.9048723897911833
1293,-1,-1,3,1168,2,121,0.9049459041731066
1294,-1,-1,3,1169,2,121,0.905019305019305
1295,-1,-1,3,1170,2,121,0.9050925925925926
1296,1,-1,3,1170,2,122,0.9043947571318427
1297,-1,-1,3,1171,2,122,0.9044684129429892
1298,-1,-1,3,1172,2,122,0.9045419553502695
1299,1,-1,3,1172,2,123,0.9038461538461539
1300,-1,-1,3,1173,2,123,0.9039200614911607
1301,-1,-1,3,1174,2,123,0.9039938556067588
1302,-1,-1,3,1175,2,123,0.9040675364543361
1303,-1,-1,3,1176,2,123,0.9041411042944786
1304,-1,-1,3,1177,2,123,0.9042145593869731
1305,-1,-1,3,1178,2,123,0.9042879019908117
1306,-1,-1,3,1179,2,123,0.9043611323641928
1307,-1,-1,3,1180,2,123,0.904434250764526
1308,-1,-1,3,1181,2,123,0.904507257448434
1309,-1,-1,3,1182,2,123,0.9045801526717557
1310,-1,-1,3,1183,2,123,0.9046529366895499
1311,-1,-1,3,1184,2,123,0.9047256097560976
1312,-1,-1,3,1185,2,123,0.9047981721249048
1313,-1,-1,3,1186,2,123,0.9048706240487062
1314,-1,-1,3,1187,2,123,0.9049429657794676
1315,-1,-1,3,1188,2,123,0.9050151975683891
1316,-1,-1,3,1189,2,123,0.9050873196659074
1317,-1,-1,3,1190,2,123,0.9051593323216995
1318,-1,-1,3,1191,2,123,0.9052312357846853
1319,-1,-1,3,1192,2,123,0.9053030303030303
1320,1,-1,3,1192,2,124,0.9046177138531416
1321,-1,-1,3,1193,2,124,0.9046898638426626
1322,-1,-1,3,1194,2,124,0.9047619047619048
1323,-1,-1,3,1195,2,124,0.904833836858006
1324,-1,-1,3,1196,2,124,0.9049056603773585
1325,-1,-1,3,1197,2,124,0.9049773755656109
1326,-1,-1,3,1198,2,124,0.9050489826676714
1327,-1,-1,3,1199,2,124,0.9051204819277109
1328,-1,-1,3,1200,2,124,0.9051918735891648
1329,-1,-1,3,1201,2,124,0.9052631578947369
1330,-1,-1,3,1202,2,124,0.9053343350864012
1331,-1,-1,3,1203,2,124,0.9054054054054054
1332,-1,-1,3,1204,2,124,0.905476369092273
1333,1,-1,3,1204,2,125,0.9047976011994003
1334,-1,-1,3,1205,2,125,0.9048689138576779
1335,-1,-1,3,1206,2,125,0.9049401197604791
1336,-1,-1,3,1207,2,125,0.9050112191473448
1337,-1,-1,3,1208,2,125,0.9050822122571002
1338,-1,-1,3,1209,2,125,0.9051530993278566
1339,-1,-1,3,1210,2,125,0.905223880597015
1340,-1,-1,3,1211,2,125,0.9052945563012678
1341,-1,-1,3,1212,2,125,0.9053651266766021
1342,1,-1,3,1212,2,126,0.9046909903201787
1343,-1,-1,3,1213,2,126,0.9047619047619048
1344,-1,-1,3,1214,2,126,0.9048327137546468
1345,-1,-1,3,1215,2,126,0.9049034175334324
1346,-1,-1,3,1216,2,126,0.9049740163325909
1347,-1,-1,3,1217,2,126,0.9050445103857567
1348,-1,-1,3,1218,2,126,0.905114899925871
1349,-1,-1,3,1219,2,126,0.9051851851851852
1350,-1,-1,3,1220,2,126,0.9052553663952627
1351,1,-1,3,1220,2,127,0.9045857988165681
1352,-1,-1,3,1221,2,127,0.9046563192904656
1353,-1,-1,3,1222,2,127,0.9047267355982275
1354,-1,-1,3,1223,2,127,0.9047970479704797
1355,-1,-1,3,1224,2,127,0.9048672566371682
1356,-1,-1,3,1225,2,127,0.9049373618275608
1357,-1,-1,3,1226,2,127,0.9050073637702504
1358,-1,-1,3,1227,2,127,0.9050772626931567
1359,-1,-1,3,1228,2,127,0.9051470588235294
1360,1,-1,3,1228,2,128,0.9044819985304923
1361,-1,-1,3,1229,2,128,0.9045521292217328
1362,-1,-1,3,1230,2,128,0.9046221570066031
1363,-1,-1,3,1231,2,128,0.9046920821114369
1364,-1,-1,3,1232,2,128,0.9047619047619048
1365,-1,-1,3,1233,2,128,0.9048316251830161
1366,-1,-1,3,1234,2,128,0.9049012435991222
1367,-1,-1,3,1235,2,128,0.9049707602339181
1368,-1,-1,3,1236,2,128,0.9050401753104456
1369,-1,-1,3,1237,2,128,0.9051094890510949
1370,-1,-1,3,1238,2,128,0.9051787016776076
1371,-1,-1,3,1239,2,128,0.9052478134110787
1372,-1,-1,3,1240,2,128,0.9053168244719592
1373,-1,-1,3,1241,2,128,0.9053857350800583
1374,-1,-1,3,1242,2,128,0.9054545454545454
1375,-1,-1,3,1243,2,128,0.9055232558139535
1376,-1,-1,3,1244,2,128,0.90559186637618
1377,-1,-1,3,1245,2,128,0.9056603773584906
1378,-1,-1,3,1246,2,128,0.90572878897752
1379,1,-1,3,1246,2,129,0.9050724637681159
1380,-1,-1,3,1247,2,129,0.9051412020275162
1381,-1,-1,3,1248,2,129,0.9052098408104197
1382,-1,-1,3,1249,2,129,0.9052783803326103
1383,-1,-1,3,1250,2,129,0.9053468208092486
1384,-1,-1,3,1251,2,129,0.9054151624548736
1385,-1,-1,3,1252,2,129,0.9054834054834054
1386,-1,-1,3,1253,2,129,0.905551550108147
1387,-1,-1,3,1254,2,129,0.9056195965417867
1388,-1,-1,3,1255,2,129,0.9056875449964003
1389,-1,-1,3,1256,2,129,0.9057553956834532
1390,-1,-1,3,1257,2,129,0.905823148813803
1391,1,-1,3,1257,2,130,0.9051724137931034
1392,-1,-1,3,1258,2,130,0.905240488155061
1393,-1,-1,3,1259,2,130,0.9053084648493543
1394,-1,-1,3,1260,2,130,0.9053763440860215
1395,-1,-1,3,1261,2,130,0.9054441260744985
1396,-1,-1,3,1262,2,130,0.905511811023622
1397,-1,-1,3,1263,2,130,0.9055793991416309
1398,1,-1,3,1263,2,131,0.9049320943531094
1399,-1,-1,3,1264,2,131,0.905
1400,-1,-1,3,1265,2,131,0.9050678087080657
1401,-1,-1,3,1266,2,131,0.9051355206847361
1402,1,-1,3,1266,2,132,0.9044903777619387
1403,-1,-1,3,1267,2,132,0.9045584045584045
1404,-1,-1,3,1268,2,132,0.904626334519573
1405,-1,-1,3,1269,2,132,0.9046941678520626
1406,-1,-1,3,1270,2,132,0.9047619047619048
1407,-1,-1,3,1271,2,132,0.9048295454545454
1408,-1,-1,3,1272,2,132,0.9048970901348474
1409,-1,-1,3,1273,2,132,0.9049645390070922
1410,-1,-1,3,1274,2,132,0.9050318922749823
1411,-1,-1,3,1275,2,132,0.9050991501416431
1412,-1,-1,3,1276,2,132,0.9051663128096249
1413,-1,-1,3,1277,2,132,0.9052333804809052
1414,-1,-1,3,1278,2,132,0.9053003533568904
1415,1,-1,3,1278,2,133,0.9046610169491526
1416,-1,-1,3,1279,2,133,0.9047282992237121
1417,-1,-1,3,1280,2,133,0.9047954866008463
1418,-1,-1,3,1281,2,133,0.904862579281184
1419,-1,-1,3,1282,2,133,0.9049295774647887
1420,-1,-1,3,1283,2,133,0.9049964813511612
1421,-1,-1,3,1284,2,133,0.9050632911392406
1422,-1,-1,3,1285,2,133,0.9051300070274069
1423,-1,-1,3,1286,2,133,0.9051966292134831
1424,-1,-1,3,1287,2,133,0.9052631578947369
1425,-1,-1,3,1288,2,133,0.9053295932678822
1426,1,-1,3,1288,2,134,0.9046951646811493
1427,-1,-1,3,1289,2,134,0.9047619047619048
1428,1,-1,3,1289,2,135,0.9041287613715885
1429,-1,-1,3,1290,2,135,0.9041958041958041
1430,-1,-1,3,1291,2,135,0.9042627533193571
1431,-1,-1,3,1292,2,135,0.9043296089385475
1432,-1,-1,3,1293,2,135,0.9043963712491278
1433,1,-1,3,1293,2,136,0.9037656903765691
1434,-1,-1,3,1294,2,136,0.9038327526132404
1435,-1,-1,3,1295,2,136,0.903899721448468
1436,-1,-1,3,1296,2,136,0.9039665970772442
1437,-1,-1,3,1297,2,136,0.9040333796940194
1438,-1,-1,3,1298,2,136,0.9041000694927033
1439,-1,-1,3,1299,2,136,0.9041666666666667
1440,-1,-1,3,1300,2,136,0.9042331714087439
1441,-1,-1,3,1301,2,136,0.9042995839112344
1442,-1,-1,3,1302,2,136,0.9043659043659044
1443,-1,-1,3,1303,2,136,0.9044321329639889
1444,-1,-1,3,1304,2,136,0.9044982698961938
1445,-1,-1,3,1305,2,136,0.9045643153526971
1446,-1,-1,3,1306,2,136,0.9046302695231514
1447,-1,-1,3,1307,2,136,0.9046961325966851
1448,-1,-1,3,1308,2,136,0.9047619047619048
1449,-1,-1,3,1309,2,136,0.9048275862068965
1450,-1,-1,3,1310,2,136,0.9048931771192281
1451,-1,-1,3,1311,2,136,0.9049586776859504
1452,-1,-1,3,1312,2,136,0.9050240880935995
1453,-1,-1,3,1313,2,136,0.9050894085281981
1454,-1,-1,3,1314,2,136,0.9051546391752577
1455,-1,-1,3,1315,2,136,0.9052197802197802
1456,-1,-1,3,1316,2,136,0.9052848318462594
1457,-1,-1,3,1317,2,136,0.9053497942386831
1458,-1,-1,3,1318,2,136,0.9054146675805346
1459,-1,-1,3,1319,2,136,0.9054794520547945
1460,-1,-1,3,1320,2,136,0.9055441478439425
1461,-1,-1,3,1321,2,136,0.905608755129959
1462,-1,-1,3,1322,2,136,0.9056732740943267
1463,-1,-1,3,1323,2,136,0.9057377049180327
1464,-1,-1,3,1324,2,136,0.9058020477815699
1465,-1,-1,3,1325,2,136,0.9058663028649386
1466,1,-1,3,1325,2,137,0.9052488070892979
1467,-1,-1,3,1326,2,137,0.9053133514986376
1468,-1,-1,3,1327,2,137,0.9053778080326753
1469,1,-1,3,1327,2,138,0.9047619047619048
1470,1,-1,3,1327,2,139,0.9041468388851122
1471,-1,-1,3,1328,2,139,0.9042119565217391
1472,1,-1,3,1328,2,140,0.9035980991174474
1473,1,1,4,1328,2,140,0.903663500678426
1474,-1,-1,4,1329,2,140,0.903728813559322
1475,-1,-1,4,1330,2,140,0.9037940379403794
1476,1,-1,4,1330,2,141,0.903182125930941
1477,1,-1,4,1330,2,142,0.9025710419485792
1478,1,-1,4,1330,2,143,0.9019607843137255
1479,-1,-1,4,1331,2,143,0.902027027027027
1480,-1,-1,4,1332,2,143,0.9020931802835922
1481,-1,-1,4,1333,2,143,0.9021592442645074
1482,-1,-1,4,1334,2,143,0.9022252191503709
1483,-1,-1,4,1335,2,143,0.9022911051212938
1484,-1,-1,4,1336,2,143,0.9023569023569024
1485,-1,-1,4,1337,2,143,0.9024226110363391
1486,1,-1,4,1337,2,144,0.9018157363819771
1487,-1,-1,4,1338,2,144,0.9018817204301075
1488,-1,-1,4,1339,2,144,0.9019476158495635
1489,-1,-1,4,1340,2,144,0.9020134228187919
1490,-1,-1,4,1341,2,144,0.9020791415157612
1491,-1,-1,4,1342,2,144,0.9021447721179625
1492,-1,-1,4,1343,2,144,0.9022103148024112
1493,-1,-1,4,1344,2,144,0.9022757697456493
1494,1,-1,4,1344,2,145,0.9016722408026756
1495,-1,-1,4,1345,2,145,0.9017379679144385
1496,-1,-1,4,1346,2,145,0.9018036072144289
1497,-1,-1,4,1347,2,145,0.9018691588785047
1498,-1,-1,4,1348,2,145,0.9019346230820547
1499,-1,-1,4,1349,2,145,0.902
1500,-1,-1,4,1350,2,145,0.9020652898067955
1501,-1,-1,4,1351,2,145,0.9021304926764314
1502,-1,-1,4,1352,2,145,0.9021956087824351
1503,-1,-1,4,1353,2,145,0.9022606382978723
1504,-1,-1,4,1354,2,145,0.9023255813953488
1505,-1,-1,4,1355,2,145,0.9023904382470119
1506,-1,-1,4,1356,2,145,0.9024552090245521
1507,-1,-1,4,1357,2,145,0.9025198938992043
1508,-1,-1,4,1358,2,145,0.9025844930417495
1509,-1,-1,4,1359,2,145,0.9026490066225166
1510,-1,-1,4,1360,2,145,0.9027134348113832
1511,-1,-1,4,1361,2,145,0.9027777777777778
1512,-1,-1,4,1362,2,145,0.9028420356906808
1513,-1,-1,4,1363,2,145,0.9029062087186261
1514,-1,-1,4,1364,2,145,0.902970297029703
1515,-1,-1,4,1365,2,145,0.9030343007915568
1516,-1,-1,4,1366,2,145,0.9030982201713909
1517,-1,-1,4,1367,2,145,0.9031620553359684
1518,-1,-1,4,1368,2,145,0.9032258064516129
1519,-1,-1,4,1369,2,145,0.9032894736842105
1520,1,-1,4,1369,2,146,0.9026955950032873
1521,1,-1,4,1369,2,147,0.9021024967148489
1522,-1,-1,4,1370,2,147,0.902166776099803
1523,-1,-1,4,1371,2,147,0.902230971128609
1524,-1,-1,4,1372,2,147,0.9022950819672131
1525,-1,-1,4,1373,2,147,0.9023591087811271
1526,-1,-1,4,1374,2,147,0.9024230517354289
1527,-1,-1,4,1375,2,147,0.9024869109947644
1528,-1,-1,4,1376,2,147,0.9025506867233486
1529,-1,-1,4,1377,2,147,0.9026143790849673
1530,-1,-1,4,1378,2,147,0.9026779882429784
1531,1,-1,4,1378,2,148,0.902088772845953
1532,-1,-1,4,1379,2,148,0.9021526418786693
1533,-1,-1,4,1380,2,148,0.9022164276401564
1534,-1,-1,4,1381,2,148,0.9022801302931596
1535,-1,-1,4,1382,2,148,0.90234375
1536,-1,-1,4,1383,2,148,0.9024072869225764
1537,-1,-1,4,1384,2,148,0.9024707412223667
1538,-1,-1,4,1385,2,148,0.9025341130604289
1539,-1,-1,4,1386,2,148,0.9025974025974026
1540,-1,-1,4,1387,2,148,0.9026606099935107
1541,-1,-1,4,1388,2,148,0.9027237354085603
1542,-1,-1,4,1389,2,148,0.9027867790019443
1543,-1,-1,4,1390,2,148,0.9028497409326425
1544,-1,-1,4,1391,2,148,0.9029126213592233
1545,-1,-1,4,1392,2,148,0.9029754204398448
1546,-1,-1,4,1393,2,148,0.903038138332256
1547,-1,-1,4,1394,2,148,0.9031007751937985
1548,-1,-1,4,1395,2,148,0.9031633311814073
1549,-1,-1,4,1396,2,148,0.9032258064516129
1550,-1,-1,4,1397,2,148,0.9032882011605415
1551,-1,-1,4,1398,2,148,0.9033505154639175
1552,-1,-1,4,1399,2,148,0.9034127495170637
1553,-1,-1,4,1400,2,148,0.9034749034749034
1554,-1,-1,4,1401,2,148,0.9035369774919614
1555,-1,-1,4,1402,2,148,0.903598971722365
1556,-1,-1,4,1403,2,148,0.9036608863198459
1557,-1,-1,4,1404,2,148,0.9037227214377407
1558,-1,-1,4,1405,2,148,0.9037844772289929
1559,-1,-1,4,1406,2,148,0.9038461538461539
1560,1,-1,4,1406,2,149,0.903267136450993
1561,-1,-1,4,1407,2,149,0.9033290653008963
1562,-1,-1,4,1408,2,149,0.9033909149072297
1563,-1,-1,4,1409,2,149,0.9034526854219949
1564,-1,-1,4,1410,2,149,0.9035143769968051
1565,-1,-1,4,1411,2,149,0.9035759897828863
1566,1,-1,4,1411,2,150,0.9029993618379069
1567,-1,-1,4,1412,2,150,0.9030612244897959
1568,-1,-1,4,1413,2,150,0.9031230082855322
1569,-1,-1,4,1414,2,150,0.9031847133757962
1570,-1,-1,4,1415,2,150,0.9032463399108848
1571,-1,-1,4,1416,2,150,0.9033078880407125
1572,-1,-1,4,1417,2,150,0.9033693579148124
1573,-1,-1,4,1418,2,150,0.9034307496823379
1574,-1,-1,4,1419,2,150,0.9034920634920635
1575,-1,-1,4,1420,2,150,0.9035532994923858
1576,1,-1,4,1420,2,151,0.9029803424223208
1577,-1,-1,4,1421,2,151,0.903041825095057
1578,-1,-1,4,1422,2,151,0.9031032298923369
1579,-1,-1,4,1423,2,151,0.9031645569620254
1580,-1,-1,4,1424,2,151,0.9032258064516129
1581,-1,-1,4,1425,2,151,0.9032869785082175
1582,-1,-1,4,1426,2,151,0.903348073278585
1583,-1,-1,4,1427,2,151,0.9034090909090909
1584,1,-1,4,1427,2,152,0.9028391167192429
1585,1,-1,4,1427,2,153,0.9022698612862547
1586,-1,-1,4,1428,2,153,0.9023314429741651
1587,-1,-1,4,1429,2,153,0.9023929471032746
1588,-1,-1,4,1430,2,153,0.9024543738200126
1589,-1,-1,4,1431,2,153,0.9025157232704403
1590,-1,-1,4,1432,2,153,0.9025769956002514
1591,-1,-1,4,1433,2,153,0.9026381909547738
1592,-1,-1,4,1434,2,153,0.9026993094789705
1593,-1,-1,4,1435,2,153,0.9027603513174404
1594,-1,-1,4,1436,2,153,0.9028213166144201
1595,-1,-1,4,1437,2,153,0.9028822055137845
1596,-1,-1,4,1438,2,153,0.9029430181590482
1597,-1,-1,4,1439,2,153,0.9030037546933667
1598,-1,-1,4,1440,2,153,0.9030644152595372
1599,-1,-1,4,1441,2,153,0.903125
1600,-1,-1,4,1442,2,153,0.9031855090568395
1601,-1,-1,4,1443,2,153,0.9032459425717853
1602,1,-1,4,1443,2,154,0.9026824703680599
1603,-1,-1,4,1444,2,154,0.9027431421446384
1604,-1,-1,4,1445,2,154,0.902803738317757
1605,-1,-1,4,1446,2,154,0.9028642590286425
1606,-1,-1,4,1447,2,154,0.9029247044181705
1607,-1,-1,4,1448,2,154,0.9029850746268657
1608,-1,-1,4,1449,2,154,0.9030453697949037
1609,-1,-1,4,1450,2,154,0.9031055900621118
1610,-1,-1,4,1451,2,154,0.9031657355679702
1611,-1,-1,4,1452,2,154,0.9032258064516129
1612,-1,-1,4,1453,2,154,0.9032858028518289
1613,-1,-1,4,1454,2,154,0.9033457249070632
1614,-1,-1,4,1455,2,154,0.903405572755418
1615,1,-1,4,1455,2,155,0.9028465346534653
1616,1,-1,4,1455,2,156,0.9022881880024737
1617,-1,-1,4,1456,2,156,0.9023485784919654
1618,1,-1,4,1456,2,157,0.9017912291537986
1619,-1,-1,4,1457,2,157,0.9018518518518519
1620,-1,-1,4,1458,2,157,0.9019123997532388
1621,-1,-1,4,1459,2,157,0.9019728729963009
1622,-1,-1,4,1460,2,157,0.9020332717190388
1623,-1,-1,4,1461,2,157,0.9020935960591133
1624,-1,-1,4,1462,2,157,0.9021538461538462
1625,-1,-1,4,1463,2,157,0.9022140221402214
1626,-1,-1,4,1464,2,157,0.9022741241548863
1627,-1,-1,4,1465,2,157,0.9023341523341524
1628,-1,-1,4,1466,2,157,0.9023941068139963
1629,-1,-1,4,1467,2,157,0.9024539877300614
1630,-1,-1,4,1468,2,157,0.9025137952176578
1631,-1,-1,4,1469,2,157,0.9025735294117647
1632,-1,-1,4,1470,2,157,0.90263319044703
1633,-1,-1,4,1471,2,157,0.9026927784577723
1634,-1,-1,4,1472,2,157,0.9027522935779817
1635,1,-1,4,1472,2,158,0.902200488997555
1636,-1,-1,4,1473,2,158,0.9022602321319487
1637,-1,-1,4,1474,2,158,0.9023199023199023
1638,-1,-1,4,1475,2,158,0.9023794996949359
1639,-1,-1,4,1476,2,158,0.9024390243902439
1640,1,-1,4,1476,2,159,0.9018890920170628
1641,-1,-1,4,1477,2,159,0.9019488428745432
1642,-1,-1,4,1478,2,159,0.9020085209981741
1643,-1,-1,4,1479,2,159,0.9020681265206812
1644,-1,-1,4,1480,2,159,0.902127659574468
1645,-1,-1,4,1481,2,159,0.9021871202916161
1646,-1,-1,4,1482,2,159,0.9022465088038859
1647,1,-1,4,1482,2,160,0.9016990291262136
1648,-1,-1,4,1483,2,160,0.9017586416009703
1649,-1,-1,4,1484,2,160,0.9018181818181819
1650,-1,-1,4,1485,2,160,0.901877649909146
1651,-1,-1,4,1486,2,160,0.9019370460048426
1652,-1,-1,4,1487,2,160,0.9019963702359347
1653,-1,-1,4,1488,2,160,0.9020556227327691
1654,-1,-1,4,1489,2,160,0.9021148036253777
1655,-1,-1,4,1490,2,160,0.9021739130434783
1656,-1,-1,4,1491,2,160,0.9022329511164756
1657,-1,-1,4,1492,2,160,0.902291917973462
1658,-1,-1,4,1493,2,160,0.9023508137432188
1659,-1,-1,4,1494,2,160,0.9024096385542169
1660,-1,-1,4,1495,2,160,0.9024683925346177
1661,-1,-1,4,1496,2,160,0.9025270758122743
1662,-1,-1,4,1497,2,160,0.9025856885147324
1663,-1,-1,4,1498,2,160,0.9026442307692307
1664,-1,-1,4,1499,2,160,0.9027027027027027
1665,-1,-1,4,1500,2,160,0.9027611044417767
1666,-1,-1,4,1501,2,160,0.9028194361127775
1667,-1,-1,4,1502,2,160,0.9028776978417267
1668,-1,-1,4,1503,2,160,0.9029358897543439
1669,-1,-1,4,1504,2,160,0.9029940119760479
1670,-1,-1,4,1505,2,160,0.9030520646319569
1671,-1,-1,4,1506,2,160,0.90311004784689
1672,-1,-1,4,1507,2,160,0.9031679617453676
1673,-1,-1,4,1508,2,160,0.9032258064516129
1674,-1,-1,4,1509,2,160,0.9032835820895523
1675,-1,-1,4,1510,2,160,0.9033412887828163
1676,-1,-1,4,1511,2,160,0.9033989266547406
1677,-1,-1,4,1512,2,160,0.9034564958283671
1678,-1,-1,4,1513,2,160,0.9035139964264444
1679,1,-1,4,1513,2,161,0.9029761904761905
1680,-1,-1,4,1514,2,161,0.9030339083878643
1681,-1,-1,4,1515,2,161,0.9030915576694412
1682,1,-1,4,1515,2,162,0.9025549613784908
1683,-1,-1,4,1516,2,162,0.9026128266033254
1684,-1,-1,4,1517,2,162,0.9026706231454006
1685,-1,-1,4,1518,2,162,0.9027283511269276
1686,-1,-1,4,1519,2,162,0.9027860106698281
1687,-1,-1,4,1520,2,162,0.9028436018957346
1688,-1,-1,4,1521,2,162,0.9029011249259917
1689,-1,-1,4,1522,2,162,0.9029585798816568
1690,-1,1,4,1522,3,162,0.9024246008279124
1691,-1,-1,4,1523,3,162,0.9024822695035462
1692,-1,-1,4,1524,3,162,0.90253987005316
1693,-1,-1,4,1525,3,162,0.9025974025974026
1694,-1,-1,4,1526,3,162,0.9026548672566371
1695,-1,-1,4,1527,3,162,0.9027122641509434
1696,-1,-1,4,1528,3,162,0.9027695934001179
1697,-1,-1,4,1529,3,162,0.9028268551236749
1698,-1,-1,4,1530,3,162,0.9028840494408475
1699,1,-1,4,1530,3,163,0.9023529411764706
1700,-1,-1,4,1531,3,163,0.9024103468547913
1701,-1,-1,4,1532,3,163,0.9024676850763808
1702,-1,-1,4,1533,3,163,0.9025249559600704
1703,-1,-1,4,1534,3,163,0.9025821596244131
1704,-1,-1,4,1535,3,163,0.9026392961876832
1705,-1,-1,4,1536,3,163,0.902696365767878
1706,-1,-1,4,1537,3,163,0.9027533684827183
1707,-1,-1,4,1538,3,163,0.9028103044496487
1708,1,-1,4,1538,3,164,0.9022820362785254
1709,-1,-1,4,1539,3,164,0.9023391812865497
1710,-1,-1,4,1540,3,164,0.90239625949737
1711,-1,-1,4,1541,3,164,0.9024532710280374
1712,-1,-1,4,1542,3,164,0.9025102159953299
1713,-1,-1,4,1543,3,164,0.9025670945157527
1714,-1,-1,4,1544,3,164,0.9026239067055394
1715,-1,-1,4,1545,3,164,0.9026806526806527
1716,-1,-1,4,1546,3,164,0.9027373325567851
1717,1,-1,4,1546,3,165,0.9022118742724098
1718,-1,-1,4,1547,3,165,0.9022687609075044
1719,-1,-1,4,1548,3,165,0.9023255813953488
1720,-1,-1,4,1549,3,165,0.9023823358512493
1721,-1,-1,4,1550,3,165,0.9024390243902439
1722,-1,-1,4,1551,3,165,0.9024956471271038
1723,-1,-1,4,1552,3,165,0.9025522041763341
1724,-1,-1,4,1553,3,165,0.9026086956521739
1725,-1,-1,4,1554,3,165,0.9026651216685979
1726,-1,-1,4,1555,3,165,0.9027214823393167
1727,-1,-1,4,1556,3,165,0.9027777777777778
1728,-1,-1,4,1557,3,165,0.902834008097166
1729,-1,-1,4,1558,3,165,0.9028901734104047
1730,-1,-1,4,1559,3,165,0.902946273830156
1731,-1,-1,4,1560,3,165,0.9030023094688222
1732,-1,-1,4,1561,3,165,0.9030582804385459
1733,-1,-1,4,1562,3,165,0.903114186851211
1734,-1,-1,4,1563,3,165,0.9031700288184438
1735,-1,-1,4,1564,3,165,0.9032258064516129
1736,-1,-1,4,1565,3,165,0.9032815198618307
1737,-1,-1,4,1566,3,165,0.903337169159954
1738,-1,-1,4,1567,3,165,0.9033927544565843
1739,-1,-1,4,1568,3,165,0.903448275862069
1740,-1,-1,4,1569,3,165,0.903503733486502
1741,-1,-1,4,1570,3,165,0.9035591274397244
1742,-1,-1,4,1571,3,165,0.9036144578313253
1743,-1,-1,4,1572,3,165,0.9036697247706422
1744,-1,-1,4,1573,3,165,0.9037249283667622
1745,-1,-1,4,1574,3,165,0.9037800687285223
1746,-1,-1,4,1575,3,165,0.9038351459645106
1747,-1,-1,4,1576,3,165,0.9038901601830663
1748,-1,-1,4,1577,3,165,0.9039451114922813
1749,-1,-1,4,1578,3,165,0.904
1750,-1,-1,4,1579,3,165,0.9040548258138207
1751,-1,-1,4,1580,3,165,0.9041095890410958
1752,-1,-1,4,1581,3,165,0.9041642897889333
1753,-1,-1,4,1582,3,165,0.9042189281641961
1754,1,-1,4,1582,3,166,0.9037037037037037
1755,1,-1,4,1582,3,167,0.9031890660592256
1756,-1,-1,4,1583,3,167,0.9032441661923734
1757,-1,-1,4,1584,3,167,0.9032992036405005
1758,-1,-1,4,1585,3,167,0.9033541785105174
1759,-1,-1,4,1586,3,167,0.9034090909090909
1760,-1,-1,4,1587,3,167,0.9034639409426463
1761,-1,-1,4,1588,3,167,0.9035187287173666
1762,-1,-1,4,1589,3,167,0.9035734543391946
1763,-1,-1,4,1590,3,167,0.9036281179138322
1764,-1,-1,4,1591,3,167,0.9036827195467422
1765,-1,-1,4,1592,3,167,0.9037372593431483
1766,-1,-1,4,1593,3,167,0.9037917374080362
1767,-1,-1,4,1594,3,167,0.9038461538461539
1768,-1,-1,4,1595,3,167,0.9039005087620124
1769,-1,-1,4,1596,3,167,0.903954802259887
1770,1,-1,4,1596,3,168,0.9034443817052513
1771,-1,-1,4,1597,3,168,0.9034988713318285
1772,-1,-1,4,1598,3,168,0.9035532994923858
1773,-1,-1,4,1599,3,168,0.9036076662908681
1774,-1,-1,4,1600,3,168,0.903661971830986
1775,-1,-1,4,1601,3,168,0.9037162162162162
1776,-1,-1,4,1602,3,168,0.9037703995498031
1777,-1,-1,4,1603,3,168,0.9038245219347582
1778,-1,-1,4,1604,3,168,0.9038785834738617
1779,-1,-1,4,1605,3,168,0.9039325842696629
1780,1,-1,4,1605,3,169,0.9034250421111735
1781,-1,-1,4,1606,3,169,0.9034792368125701
1782,-1,-1,4,1607,3,169,0.9035333707234997
1783,-1,-1,4,1608,3,169,0.9035874439461884
1784,-1,-1,4,1609,3,169,0.9036414565826331
1785,-1,-1,4,1610,3,169,0.9036954087346024
1786,-1,-1,4,1611,3,169,0.9037493005036373
1787,-1,-1,4,1612,3,169,0.9038031319910514
1788,-1,-1,4,1613,3,169,0.9038569032979318
1789,-1,-1,4,1614,3,169,0.9039106145251397
1790,1,-1,4,1614,3,170,0.9034059184812954
1791,-1,-1,4,1615,3,170,0.9034598214285714
1792,-1,-1,4,1616,3,170,0.9035136642498606
1793,-1,-1,4,1617,3,170,0.9035674470457079
1794,-1,-1,4,1618,3,170,0.9036211699164345
1795,-1,-1,4,1619,3,170,0.9036748329621381
1796,-1,-1,4,1620,3,170,0.9037284362826934
1797,-1,-1,4,1621,3,170,0.9037819799777531
1798,-1,-1,4,1622,3,170,0.9038354641467482
1799,-1,-1,4,1623,3,170,0.9038888888888889
1800,-1,-1,4,1624,3,170,0.9039422543031649
1801,-1,-1,4,1625,3,170,0.9039955604883463
1802,-1,-1,4,1626,3,170,0.9040488075429839
1803,-1,-1,4,1627,3,170,0.9041019955654102
1804,-1,-1,4,1628,3,170,0.9041551246537396
1805,-1,-1,4,1629,3,170,0.9042081949058693
1806,-1,-1,4,1630,3,170,0.9042612064194798
1807,-1,-1,4,1631,3,170,0.9043141592920354
1808,-1,-1,4,1632,3,170,0.904367053620785
1809,-1,-1,4,1633,3,170,0.9044198895027624
1810,-1,-1,4,1634,3,170,0.9044726670347875
1811,-1,-1,4,1635,3,170,0.9045253863134658
1812,-1,-1,4,1636,3,170,0.9045780474351903
1813,-1,-1,4,1637,3,170,0.9046306504961411
1814,-1,-1,4,1638,3,170,0.9046831955922865
1815,-1,-1,4,1639,3,170,0.9047356828193832
1816,1,-1,4,1639,3,171,0.9042377545404513
1817,-1,-1,4,1640,3,171,0.9042904290429042
1818,-1,-1,4,1641,3,171,0.9043430456294668
1819,-1,-1,4,1642,3,171,0.9043956043956044
1820,-1,-1,4,1643,3,171,0.9044481054365733
1821,-1,-1,4,1644,3,171,0.9045005488474204
1822,1,-1,4,1644,3,172,0.9040043883708173
1823,-1,-1,4,1645,3,172,0.9040570175438597
1824,-1,-1,4,1646,3,172,0.9041095890410958
1825,-1,-1,4,1647,3,172,0.9041621029572837
1826,-1,-1,4,1648,3,172,0.9042145593869731
1827,-1,-1,4,1649,3,172,0.9042669584245077
1828,1,-1,4,1649,3,173,0.9037725533078185
1829,-1,-1,4,1650,3,173,0.9038251366120219
1830,-1,-1,4,1651,3,173,0.9038776624795194
1831,-1,-1,4,1652,3,173,0.9039301310043668
1832,-1,-1,4,1653,3,173,0.9039825422804146
1833,-1,-1,4,1654,3,173,0.9040348964013086
1834,-1,-1,4,1655,3,173,0.9040871934604905
1835,-1,-1,4,1656,3,173,0.9041394335511983
1836,-1,-1,4,1657,3,173,0.9041916167664671
1837,-1,-1,4,1658,3,173,0.9042437431991295
1838,-1,-1,4,1659,3,173,0.9042958129418162
1839,1,-1,4,1659,3,174,0.903804347826087
1840,-1,-1,4,1660,3,174,0.9038565996740902
1841,-1,-1,4,1661,3,174,0.9039087947882736
1842,-1,-1,4,1662,3,174,0.9039609332609875
1843,-1,-1,4,1663,3,174,0.9040130151843818
1844,-1,-1,4,1664,3,174,0.9040650406504065
1845,1,-1,4,1664,3,175,0.9035752979414952
1846,-1,-1,4,1665,3,175,0.9036275040606389
1847,-1,-1,4,1666,3,175,0.9036796536796536
1848,-1,-1,4,1667,3,175,0.903731746890211
1849,1,-1,4,1667,3,176,0.9032432432432432
1850,-1,-1,4,1668,3,176,0.9032955159373312
1851,-1,-1,4,1669,3,176,0.9033477321814255
1852,-1,-1,4,1670,3,176,0.9033998920669185
1853,-1,-1,4,1671,3,176,0.9034519956850054
1854,-1,-1,4,1672,3,176,0.9035040431266846
1855,-1,-1,4,1673,3,176,0.9035560344827587
1856,-1,-1,4,1674,3,176,0.9036079698438342
1857,-1,-1,4,1675,3,176,0.903659849300323
1858,-1,-1,4,1676,3,176,0.9037116729424421
1859,-1,-1,4,1677,3,176,0.9037634408602151
1860,-1,-1,4,1678,3,176,0.9038151531434713
1861,-1,-1,4,1679,3,176,0.9038668098818474
1862,-1,-1,4,1680,3,176,0.903918411164788
1863,-1,-1,4,1681,3,176,0.903969957081545
1864,1,1,5,1681,3,176,0.9040214477211796
1865,1,-1,5,1681,3,177,0.9035369774919614
1866,-1,-1,5,1682,3,177,0.903588644884842
1867,-1,-1,5,1683,3,177,0.9036402569593148
1868,-1,-1,5,1684,3,177,0.9036918138041734
1869,-1,-1,5,1685,3,177,0.9037433155080213
1870,-1,-1,5,1686,3,177,0.9037947621592731
1871,-1,-1,5,1687,3,177,0.9038461538461539
1872,-1,-1,5,1688,3,177,0.9038974906567004
1873,-1,-1,5,1689,3,177,0.9039487726787621
1874,-1,-1,5,1690,3,177,0.904
1875,-1,-1,5,1691,3,177,0.9040511727078892
1876,-1,-1,5,1692,3,177,0.9041022908897176
1877,-1,-1,5,1693,3,177,0.9041533546325878
1878,1,-1,5,1693,3,178,0.903672166045769
1879,-1,-1,5,1694,3,178,0.9037234042553192
1880,-1,-1,5,1695,3,178,0.9037745879851143
1881,-1,-1,5,1696,3,178,0.9038257173219979
1882,-1,-1,5,1697,3,178,0.9038767923526287
1883,-1,-1,5,1698,3,178,0.9039278131634819
1884,1,-1,5,1698,3,179,0.903448275862069
1885,-1,-1,5,1699,3,179,0.9034994697773064
1886,-1,-1,5,1700,3,179,0.9035506094329624
1887,-1,-1,5,1701,3,179,0.9036016949152542
1888,-1,-1,5,1702,3,179,0.9036527263102171
1889,-1,-1,5,1703,3,179,0.9037037037037037
1890,-1,-1,5,1704,3,179,0.9037546271813856
1891,-1,-1,5,1705,3,179,0.9038054968287527
1892,-1,-1,5,1706,3,179,0.9038563127311147
1893,-1,-1,5,1707,3,179,0.9039070749736009
1894,-1,-1,5,1708,3,179,0.903957783641161
1895,-1,-1,5,1709,3,179,0.9040084388185654
1896,-1,-1,5,1710,3,179,0.9040590405904059
1897,-1,-1,5,1711,3,179,0.9041095890410958
1898,-1,-1,5,1712,3,179,0.9041600842548709
1899,1,1,6,1712,3,179,0.9042105263157895
1900,-1,-1,6,1713,3,179,0.9042609153077328
1901,-1,-1,6,1714,3,179,0.9043112513144059
1902,-1,-1,6,1715,3,179,0.9043615344193379
1903,-1,-1,6,1716,3,179,0.9044117647058824
1904,-1,-1,6,1717,3,179,0.9044619422572179
1905,-1,-1,6,1718,3,179,0.9045120671563484
1906,-1,-1,6,1719,3,179,0.9045621394861039
1907,-1,-1,6,1720,3,179,0.9046121593291404
1908,-1,-1,6,1721,3,179,0.9046621267679413
1909,-1,-1,6,1722,3,179,0.9047120418848168
1910,-1,-1,6,1723,3,179,0.9047619047619048
1911,-1,-1,6,1724,3,179,0.9048117154811716
1912,-1,-1,6,1725,3,179,0.9048614741244119
1913,-1,-1,6,1726,3,179,0.9049111807732497
1914,-1,-1,6,1727,3,179,0.9049608355091384
1915,-1,-1,6,1728,3,179,0.9050104384133612
1916,-1,-1,6,1729,3,179,0.9050599895670318
1917,-1,-1,6,1730,3,179,0.9051094890510949
1918,-1,-1,6,1731,3,179,0.9051589369463262
1919,-1,-1,6,1732,3,179,0.9052083333333333
1920,-1,-1,6,1733,3,179,0.905257678292556
1921,-1,-1,6,1734,3,179,0.9053069719042663
1922,-1,-1,6,1735,3,179,0.9053562142485699
1923,-1,-1,6,1736,3,179,0.9054054054054054
1924,-1,-1,6,1737,3,179,0.9054545454545454
1925,-1,-1,6,1738,3,179,0.9055036344755971
1926,-1,-1,6,1739,3,179,0.9055526725480021
1927,-1,-1,6,1740,3,179,0.9056016597510373
1928,-1,-1,6,1741,3,179,0.9056505961638155
1929,-1,-1,6,1742,3,179,0.9056994818652849
1930,-1,-1,6,1743,3,179,0.905748316934231
1931,-1,-1,6,1744,3,179,0.9057971014492754
1932,-1,-1,6,1745,3,179,0.9058458354888774
1933,-1,-1,6,1746,3,179,0.905894519131334
1934,1,-1,6,1746,3,180,0.9054263565891473
1935,-1,-1,6,1747,3,180,0.9054752066115702
1936,-1,-1,6,1748,3,180,0.9055240061951472
1937,-1,-1,6,1749,3,180,0.9055727554179567
1938,-1,-1,6,1750,3,180,0.9056214543579164
1939,-1,-1,6,1751,3,180,0.9056701030927835
1940,-1,-1,6,1752,3,180,0.9057187017001546
1941,1,-1,6,1752,3,181,0.9052523171987642
1942,-1,-1,6,1753,3,181,0.9053010808028822
1943,-1,-1,6,1754,3,181,0.9053497942386831
1944,-1,-1,6,1755,3,181,0.9053984575835475
1945,-1,-1,6,1756,3,181,0.9054470709146968
1946,-1,-1,6,1757,3,181,0.9054956343091937
1947,-1,-1,6,1758,3,181,0.9055441478439425
1948,-1,-1,6,1759,3,181,0.90559261159569
1949,-1,-1,6,1760,3,181,0.9056410256410257
1950,-1,-1,6,1761,3,181,0.9056893900563814
1951,1,-1,6,1761,3,182,0.9052254098360656
1952,-1,-1,6,1762,3,182,0.905273937532002
1953,-1,-1,6,1763,3,182,0.9053224155578301
1954,-1,-1,6,1764,3,182,0.9053708439897699
1955,-1,-1,6,1765,3,182,0.9054192229038854
1956,1,-1,6,1765,3,183,0.9049565661727134
1957,-1,-1,6,1766,3,183,0.9050051072522982
1958,-1,-1,6,1767,3,183,0.9050535987748851
1959,-1,-1,6,1768,3,183,0.9051020408163265
1960,-1,-1,6,1769,3,183,0.9051504334523203
1961,1,-1,6,1769,3,184,0.9046890927624872
1962,-1,-1,6,1770,3,184,0.9047376464595007
1963,-1,-1,6,1771,3,184,0.904786150712831
1964,-1,-1,6,1772,3,184,0.9048346055979644
1965,-1,-1,6,1773,3,184,0.904883011190234
1966,1,1,7,1773,3,184,0.9049313675648195
1967,1,-1,7,1773,3,185,0.9044715447154471
1968,-1,-1,7,1774,3,185,0.904520060944642
1969,-1,-1,7,1775,3,185,0.9045685279187817
1970,-1,-1,7,1776,3,185,0.9046169457128361
1971,-1,-1,7,1777,3,185,0.9046653144016227
1972,-1,-1,7,1778,3,185,0.9047136340598074
1973,-1,-1,7,1779,3,185,0.9047619047619048
1974,-1,-1,7,1780,3,185,0.9048101265822784
1975,-1,-1,7,1781,3,185,0.9048582995951417
1976,-1,-1,7,1782,3,185,0.9049064238745574
1977,-1,-1,7,1783,3,185,0.9049544994944388
1978,-1,-1,7,1784,3,185,0.9050025265285497
1979,-1,-1,7,1785,3,185,0.9050505050505051
1980,-1,-1,7,1786,3,185,0.9050984351337709
1981,-1,-1,7,1787,3,185,0.905146316851665
1982,-1,-1,7,1788,3,185,0.9051941502773575
1983,-1,-1,7,1789,3,185,0.905241935483871
1984,1,-1,7,1789,3,186,0.9047858942065491
1985,-1,-1,7,1790,3,186,0.904833836858006
1986,-1,-1,7,1791,3,186,0.9048817312531454
1987,-1,-1,7,1792,3,186,0.9049295774647887
1988,-1,-1,7,1793,3,186,0.9049773755656109
1989,-1,-1,7,1794,3,186,0.9050251256281407
1990,-1,-1,7,1795,3,186,0.9050728277247614
1991,-1,-1,7,1796,3,186,0.9051204819277109
1992,-1,-1,7,1797,3,186,0.9051680883090818
1993,-1,-1,7,1798,3,186,0.9052156469408225
1994,-1,-1,7,1799,3,186,0.9052631578947369
1995,-1,-1,7,1800,3,186,0.905310621242485
1996,-1,-1,7,1801,3,186,0.9053580370555834
1997,-1,-1,7,1802,3,186,0.9054054054054054
1998,-1,-1,7,1803,3,186,0.9054527263631816
1999,-1,-1,7,1804,3,186,0.9055
2000,-1,-1,7,1805,3,186,0.9055472263868066
2001,-1,-1,7,1806,3,186,0.9055944055944056
2002,-1,-1,7,1807,3,186,0.9056415376934598
2003,-1,-1,7,1808,3,186,0.905688622754491
2004,1,-1,7,1808,3,187,0.9052369077306733
2005,-1,-1,7,1809,3,187,0.905284147557328
2006,1,-1,7,1809,3,188,0.9048330842052815
2007,-1,-1,7,1810,3,188,0.9048804780876494
2008,-1,-1,7,1811,3,188,0.904927824788452
2009,-1,-1,7,1812,3,188,0.9049751243781095
2010,1,-1,7,1812,3,189,0.9045251118846345
2011,-1,-1,7,1813,3,189,0.904572564612326
2012,-1,-1,7,1814,3,189,0.9046199701937406
2013,-1,-1,7,1815,3,189,0.9046673286991063
2014,-1,-1,7,1816,3,189,0.9047146401985111
2015,-1,-1,7,1817,3,189,0.9047619047619048
2016,-1,-1,7,1818,3,189,0.9048091224590976
2017,-1,-1,7,1819,3,189,0.9048562933597621
2018,-1,-1,7,1820,3,189,0.9049034175334324
2019,-1,-1,7,1821,3,189,0.904950495049505
2020,-1,-1,7,1822,3,189,0.904997525977239
2021,-1,-1,7,1823,3,189,0.9050445103857567
2022,-1,-1,7,1824,3,189,0.9050914483440435
2023,-1,-1,7,1825,3,189,0.9051383399209486
2024,-1,-1,7,1826,3,189,0.9051851851851852
2025,-1,-1,7,1827,3,189,0.9052319842053307
2026,-1,-1,7,1828,3,189,0.9052787370498273
2027,-1,-1,7,1829,3,189,0.9053254437869822
2028,1,-1,7,1829,3,190,0.9048792508624939
2029,-1,-1,7,1830,3,190,0.9049261083743843
2030,-1,-1,7,1831,3,190,0.9049729197439685
2031,-1,-1,7,1832,3,190,0.90501968503937
2032,-1,-1,7,1833,3,190,0.9050664043285784
2033,-1,-1,7,1834,3,190,0.9051130776794494
2034,-1,-1,7,1835,3,190,0.9051597051597051
2035,-1,-1,7,1836,3,190,0.9052062868369352
2036,-1,-1,7,1837,3,190,0.905252822778596
2037,-1,-1,7,1838,3,190,0.9052993130520117
2038,-1,-1,7,1839,3,190,0.9053457577243746
2039,-1,-1,7,1840,3,190,0.9053921568627451
2040,-1,-1,7,1841,3,190,0.9054385105340519
2041,-1,-1,7,1842,3,190,0.905484818805093
2042,-1,-1,7,1843,3,190,0.9055310817425355
2043,-1,-1,7,1844,3,190,0.9055772994129159
2044,-1,-1,7,1845,3,190,0.9056234718826406
2045,-1,-1,7,1846,3,190,0.9056695992179863
2046,-1,-1,7,1847,3,190,0.9057156814851002
2047,-1,-1,7,1848,3,190,0.90576171875
2048,-1,-1,7,1849,3,190,0.9058077110785749
2049,-1,-1,7,1850,3,190,0.9058536585365854
2050,-1,-1,7,1851,3,190,0.9058995611896635
2051,-1,-1,7,1852,3,190,0.9059454191033138
2052,-1,-1,7,1853,3,190,0.9059912323429128
2053,-1,-1,7,1854,3,190,0.9060370009737099
2054,-1,-1,7,1855,3,190,0.9060827250608272
2055,-1,-1,7,1856,3,190,0.9061284046692607
2056,-1,-1,7,1857,3,190,0.9061740398638795
2057,-1,-1,7,1858,3,190,0.9062196307094267
2058,-1,-1,7,1859,3,190,0.9062651772705197
2059,-1,-1,7,1860,3,190,0.9063106796116505
2060,-1,-1,7,1861,3,190,0.9063561377971858
2061,-1,-1,7,1862,3,190,0.9064015518913676
2062,1,-1,7,1862,3,191,0.9059621909840039
2063,-1,-1,7,1863,3,191,0.9060077519379846
2064,-1,-1,7,1864,3,191,0.9060532687651331
2065,-1,-1,7,1865,3,191,0.9060987415295256
2066,-1,-1,7,1866,3,191,0.9061441702951137
2067,1,-1,7,1866,3,192,0.905705996131528
2068,-1,-1,7,1867,3,192,0.9057515708071532
2069,-1,-1,7,1868,3,192,0.9057971014492754
2070,-1,-1,7,1869,3,192,0.9058425881216804
2071,-1,-1,7,1870,3,192,0.9058880308880309
2072,-1,-1,7,1871,3,192,0.9059334298118669
2073,-1,-1,7,1872,3,192,0.9059787849566056
2074,-1,-1,7,1873,3,192,0.9060240963855422
2075,-1,-1,7,1874,3,192,0.9060693641618497
2076,-1,-1,7,1875,3,192,0.9061145883485797
2077,-1,-1,7,1876,3,192,0.9061597690086621
2078,-1,-1,7,1877,3,192,0.9062049062049062
2079,-1,-1,7,1878,3,192,0.90625
2080,-1,-1,7,1879,3,192,0.9062950504565113
2081,-1,-1,7,1880,3,192,0.9063400576368876
2082,-1,-1,7,1881,3,192,0.9063850216034566
2083,-1,-1,7,1882,3,192,0.9064299424184261
2084,1,-1,7,1882,3,193,0.9059952038369304
2085,-1,-1,7,1883,3,193,0.9060402684563759
2086,-1,-1,7,1884,3,193,0.906085289889794
2087,-1,-1,7,1885,3,193,0.9061302681992337
2088,1,-1,7,1885,3,194,0.9056965055050263
2089,1,-1,7,1885,3,195,0.9052631578947369
2090,-1,-1,7,1886,3,195,0.9053084648493543
2091,-1,-1,7,1887,3,195,0.9053537284894837
2092,-1,-1,7,1888,3,195,0.9053989488772097
2093,-1,-1,7,1889,3,195,0.9054441260744985
2094,-1,-1,7,1890,3,195,0.9054892601431981
2095,-1,-1,7,1891,3,195,0.9055343511450382
2096,-1,-1,7,1892,3,195,0.9055793991416309
2097,-1,-1,7,1893,3,195,0.9056244041944709
2098,-1,-1,7,1894,3,195,0.9056693663649357
2099,-1,-1,7,1895,3,195,0.9057142857142857
2100,-1,-1,7,1896,3,195,0.9057591623036649
2101,-1,-1,7,1897,3,195,0.9058039961941009
2102,-1,-1,7,1898,3,195,0.905848787446505
2103,-1,-1,7,1899,3,195,0.905893536121673
2104,-1,-1,7,1900,3,195,0.9059382422802851
2105,-1,-1,7,1901,3,195,0.905982905982906
2106,-1,-1,7,1902,3,195,0.9060275272899858
2107,-1,-1,7,1903,3,195,0.9060721062618596
2108,-1,-1,7,1904,3,195,0.9061166429587483
2109,-1,-1,7,1905,3,195,0.9061611374407583
2110,-1,-1,7,1906,3,195,0.9062055897678826
2111,-1,-1,7,1907,3,195,0.90625
2112,-1,-1,7,1908,3,195,0.9062943681968765
2113,-1,-1,7,1909,3,195,0.9063386944181646
2114,-1,-1,7,1910,3,195,0.9063829787234042
2115,-1,-1,7,1911,3,195,0.9064272211720227
2116,-1,-1,7,1912,3,195,0.906471421823335
2117,1,-1,7,1912,3,196,0.9060434372049103
2118,-1,-1,7,1913,3,196,0.9060877772534214
2119,-1,-1,7,1914,3,196,0.9061320754716982
2120,-1,-1,7,1915,3,196,0.9061763319189062
2121,-1,-1,7,1916,3,196,0.9062205466540999
2122,-1,-1,7,1917,3,196,0.9062647197362224
2123,-1,-1,7,1918,3,196,0.9063088512241054
2124,-1,-1,7,1919,3,196,0.9063529411764706
2125,-1,-1,7,1920,3,196,0.9063969896519285
2126,-1,-1,7,1921,3,196,0.9064409967089798
2127,-1,-1,7,1922,3,196,0.9064849624060151
2128,-1,-1,7,1923,3,196,0.9065288868013152
2129,-1,-1,7,1924,3,196,0.9065727699530517
2130,-1,-1,7,1925,3,196,0.9066166119192868
2131,1,-1,7,1925,3,197,0.9061913696060038
2132,-1,-1,7,1926,3,197,0.9062353492733239
2133,-1,-1,7,1927,3,197,0.9062792877225867
2134,-1,-1,7,1928,3,197,0.9063231850117096
2135,-1,-1,7,1929,3,197,0.9063670411985019
2136,-1,-1,7,1930,3,197,0.9064108563406644
2137,-1,-1,7,1931,3,197,0.9064546304957904
2138,-1,-1,7,1932,3,197,0.9064983637213652
2139,-1,-1,7,1933,3,197,0.9065420560747663
2140,-1,-1,7,1934,3,197,0.9065857076132648
2141,1,-1,7,1934,3,198,0.9061624649859944
2142,-1,-1,7,1935,3,198,0.9062062529164723
2143,-1,-1,7,1936,3,198,0.90625
2144,-1,-1,7,1937,3,198,0.9062937062937063
2145,1,-1,7,1937,3,199,0.9058713886300093
2146,-1,-1,7,1938,3,199,0.9059152305542617
2147,1,-1,7,1938,3,200,0.9054934823091247
2148,-1,-1,7,1939,3,200,0.9055374592833876
2149,-1,-1,7,1940,3,200,0.9055813953488372
2150,-1,-1,7,1941,3,200,0.905625290562529
2151,-1,-1,7,1942,3,200,0.9056691449814126
2152,1,-1,7,1942,3,201,0.9052484904784023
2153,-1,-1,7,1943,3,201,0.9052924791086351
2154,-1,-1,7,1944,3,201,0.9053364269141532
2155,-1,-1,7,1945,3,201,0.9053803339517625
2156,-1,-1,7,1946,3,201,0.9054242002781642
2157,-1,-1,7,1947,3,201,0.9054680259499537
2158,-1,-1,7,1948,3,201,0.905511811023622
2159,-1,-1,7,1949,3,201,0.9055555555555556
2160,-1,-1,7,1950,3,201,0.9055992596020361
2161,-1,-1,7,1951,3,201,0.9056429232192414
2162,-1,-1,7,1952,3,201,0.9056865464632455
2163,1,-1,7,1952,3,202,0.905268022181146
2164,-1,-1,7,1953,3,202,0.9053117782909931
2165,-1,-1,7,1954,3,202,0.9053554939981533
2166,-1,-1,7,1955,3,202,0.9053991693585602
2167,1,-1,7,1955,3,203,0.9049815498154982
2168,-1,-1,7,1956,3,203,0.905025357307515
2169,-1,-1,7,1957,3,203,0.9050691244239631
2170,-1,-1,7,1958,3,203,0.9051128512206357
2171,-1,-1,7,1959,3,203,0.9051565377532228
2172,-1,-1,7,1960,3,203,0.9052001840773125
2173,-1,-1,7,1961,3,203,0.9052437902483901
2174,-1,-1,7,1962,3,203,0.9052873563218391
2175,-1,-1,7,1963,3,203,0.9053308823529411
2176,-1,-1,7,1964,3,203,0.9053743683968765
2177,-1,-1,7,1965,3,203,0.9054178145087236
2178,-1,-1,7,1966,3,203,0.9054612207434602
2179,-1,-1,7,1967,3,203,0.9055045871559633
2180,-1,-1,7,1968,3,203,0.9055479138010087
2181,-1,-1,7,1969,3,203,0.9055912007332723
2182,-1,-1,7,1970,3,203,0.9056344480073294
2183,-1,-1,7,1971,3,203,0.9056776556776557
2184,-1,-1,7,1972,3,203,0.905720823798627
2185,-1,-1,7,1973,3,203,0.9057639524245197
2186,-1,-1,7,1974,3,203,0.9058070416095108
2187,-1,-1,7,1975,3,203,0.9058500914076782
2188,-1,-1,7,1976,3,203,0.9058931018730013
2189,-1,-1,7,1977,3,203,0.9059360730593607
2190,-1,-1,7,1978,3,203,0.9059790050205385
2191,-1,-1,7,1979,3,203,0.906021897810219
2192,-1,-1,7,1980,3,203,0.9060647514819882
2193,-1,-1,7,1981,3,203,0.9061075660893345
2194,-1,-1,7,1982,3,203,0.9061503416856492
2195,-1,-1,7,1983,3,203,0.9061930783242259
2196,-1,-1,7,1984,3,203,0.9062357760582612
2197,-1,-1,7,1985,3,203,0.9062784349408554
2198,-1,-1,7,1986,3,203,0.9063210550250114
2199,-1,-1,7,1987,3,203,0.9063636363636364
2200,-1,-1,7,1988,3,203,0.9064061790095411
2201,-1,-1,7,1989,3,203,0.9064486830154405
2202,-1,-1,7,1990,3,203,0.9064911484339537
2203,-1,-1,7,1991,3,203,0.9065335753176044
2204,-1,-1,7,1992,3,203,0.9065759637188209
2205,-1,-1,7,1993,3,203,0.9066183136899365
2206,-1,-1,7,1994,3,203,0.9066606252831898
2207,-1,-1,7,1995,3,203,0.9067028985507246
2208,-1,-1,7,1996,3,203,0.9067451335445903
2209,-1,-1,7,1997,3,203,0.9067873303167421
2210,-1,-1,7,1998,3,203,0.9068294889190411
2211,1,-1,7,1998,3,204,0.9064195298372514
2212,-1,-1,7,1999,3,204,0.9064618165386353
2213,-1,-1,7,2000,3,204,0.9065040650406504
2214,-1,-1,7,2001,3,204,0.9065462753950339
2215,-1,-1,7,2002,3,204,0.9065884476534296
2216,-1,-1,7,2003,3,204,0.9066305818673883
2217,-1,-1,7,2004,3,204,0.9066726780883679
2218,-1,-1,7,2005,3,204,0.9067147363677333
2219,-1,-1,7,2006,3,204,0.9067567567567567
2220,-1,-1,7,2007,3,204,0.9067987393066187
2221,-1,-1,7,2008,3,204,0.9068406840684068
2222,-1,-1,7,2009,3,204,0.9068825910931174
2223,-1,-1,7,2010,3,204,0.9069244604316546
2224,-1,-1,7,2011,3,204,0.9069662921348315
2225,1,-1,7,2011,3,205,0.9065588499550764
2226,-1,-1,7,2012,3,205,0.9066008082622362
2227,-1,-1,7,2013,3,205,0.9066427289048474
2228,1,-1,7,2013,3,206,0.9062359802602064
2229,-1,-1,7,2014,3,206,0.9062780269058296
2230,-1,-1,7,2015,3,206,0.9063200358583595
2231,-1,-1,7,2016,3,206,0.9063620071684588
2232,-1,-1,7,2017,3,206,0.9064039408866995
2233,-1,-1,7,2018,3,206,0.9064458370635631
2234,1,-1,7,2018,3,207,0.9060402684563759
2235,-1,-1,7,2019,3,207,0.90608228980322
2236,-1,-1,7,2020,3,207,0.9061242735806885
2237,-1,-1,7,2021,3,207,0.9061662198391421
2238,-1,-1,7,2022,3,207,0.9062081286288521
2239,1,-1,7,2022,3,208,0.9058035714285714
2240,-1,-1,7,2023,3,208,0.9058456046407853
2241,-1,-1,7,2024,3,208,0.9058876003568243
2242,-1,-1,7,2025,3,208,0.9059295586268391
2243,-1,-1,7,2026,3,208,0.9059714795008913
2244,-1,-1,7,2027,3,208,0.9060133630289532
2245,-1,-1,7,2028,3,208,0.9060552092609083
2246,-1,-1,7,2029,3,208,0.906097018246551
2247,-1,-1,7,2030,3,208,0.9061387900355872
2248,-1,-1,7,2031,3,208,0.9061805246776345
2249,-1,-1,7,2032,3,208,0.9062222222222223
2250,1,-1,7,2032,3,209,0.9058196357174589
2251,-1,-1,7,2033,3,209,0.9058614564831261
2252,-1,-1,7,2034,3,209,0.9059032401242787
2253,-1,-1,7,2035,3,209,0.9059449866903283
2254,-1,-1,7,2036,3,209,0.9059866962305987
2255,-1,-1,7,2037,3,209,0.9060283687943262
2256,-1,-1,7,2038,3,209,0.9060700044306602
2257,-1,-1,7,2039,3,209,0.9061116031886626
2258,-1,-1,7,2040,3,209,0.9061531651173086
2259,-1,-1,7,2041,3,209,0.9061946902654867
2260,-1,-1,7,2042,3,209,0.9062361786819991
2261,-1,-1,7,2043,3,209,0.9062776304155614
2262,-1,-1,7,2044,3,209,0.9063190455148034
2263,-1,-1,7,2045,3,209,0.9063604240282686
2264,-1,-1,7,2046,3,209,0.906401766004415
2265,-1,-1,7,2047,3,209,0.9064430714916152
2266,-1,-1,7,2048,3,209,0.9064843405381562
2267,-1,-1,7,2049,3,209,0.9065255731922398
2268,-1,-1,7,2050,3,209,0.9065667695019832
2269,-1,-1,7,2051,3,209,0.9066079295154185
2270,-1,-1,7,2052,3,209,0.9066490532804932
2271,-1,-1,7,2053,3,209,0.9066901408450704
2272,1,-1,7,2053,3,210,0.9062912450505939
2273,-1,-1,7,2054,3,210,0.9063324538258575
2274,-1,-1,7,2055,3,210,0.9063736263736264
2275,-1,-1,7,2056,3,210,0.906414762741652
2276,-1,-1,7,2057,3,210,0.9064558629776021
2277,-1,-1,7,2058,3,210,0.9064969271290606
2278,-1,-1,7,2059,3,210,0.9065379552435279
2279,-1,-1,7,2060,3,210,0.906578947368421
2280,-1,-1,7,2061,3,210,0.9066199035510741
2281,-1,-1,7,2062,3,210,0.9066608238387379
2282,-1,-1,7,2063,3,210,0.9067017082785808
2283,-1,-1,7,2064,3,210,0.9067425569176882
2284,-1,-1,7,2065,3,210,0.9067833698030635
2285,-1,-1,7,2066,3,210,0.9068241469816273
2286,-1,-1,7,2067,3,210,0.9068648885002186
2287,-1,-1,7,2068,3,210,0.9069055944055944
2288,-1,-1,7,2069,3,210,0.9069462647444299
2289,-1,-1,7,2070,3,210,0.9069868995633188
2290,-1,-1,7,2071,3,210,0.9070274989087734
2291,-1,-1,7,2072,3,210,0.9070680628272252
2292,-1,-1,7,2073,3,210,0.907108591365024
2293,-1,-1,7,2074,3,210,0.9071490845684395
2294,-1,-1,7,2075,3,210,0.9071895424836601
2295,-1,-1,7,2076,3,210,0.9072299651567944
2296,-1,-1,7,2077,3,210,0.9072703526338702
2297,1,-1,7,2077,3,211,0.906875543951262
2298,-1,-1,7,2078,3,211,0.9069160504567203
2299,-1,-1,7,2079,3,211,0.9069565217391304
2300,-1,-1,7,2080,3,211,0.9069969578444155
2301,-1,-1,7,2081,3,211,0.9070373588184187
2302,-1,-1,7,2082,3,211,0.9070777247069041
2303,-1,-1,7,2083,3,211,0.9071180555555556
2304,-1,-1,7,2084,3,211,0.9071583514099784
2305,-1,-1,7,2085,3,211,0.9071986123156982
2306,-1,-1,7,2086,3,211,0.9072388383181621
2307,-1,-1,7,2087,3,211,0.9072790294627383
2308,-1,-1,7,2088,3,211,0.9073191857947164
2309,-1,-1,7,2089,3,211,0.9073593073593074
2310,-1,-1,7,2090,3,211,0.9073993942016443
2311,1,-1,7,2090,3,212,0.9070069204152249
2312,-1,-1,7,2091,3,212,0.9070471249459576
2313,-1,-1,7,2092,3,212,0.9070872947277442
2314,-1,-1,7,2093,3,212,0.9071274298056156
2315,-1,-1,7,2094,3,212,0.907167530224525
2316,-1,-1,7,2095,3,212,0.9072075960293483
2317,-1,-1,7,2096,3,212,0.9072476272648835
2318,-1,-1,7,2097,3,212,0.9072876239758516
2319,1,-1,7,2097,3,213,0.906896551724138
2320,-1,-1,7,2098,3,213,0.9069366652305041
2321,-1,-1,7,2099,3,213,0.9069767441860465
2322,-1,-1,7,2100,3,213,0.9070167886353853
2323,-1,-1,7,2101,3,213,0.9070567986230637
2324,-1,-1,7,2102,3,213,0.9070967741935484
2325,1,-1,7,2102,3,214,0.9067067927773
2326,1,-1,7,2102,3,215,0.9063171465406102
2327,-1,-1,7,2103,3,215,0.9063573883161512
2328,1,-1,7,2103,3,216,0.905968226706741
2329,-1,-1,7,2104,3,216,0.9060085836909871
2330,-1,-1,7,2105,3,216,0.9060489060489061
2331,-1,-1,7,2106,3,216,0.9060891938250428
2332,-1,-1,7,2107,3,216,0.9061294470638662
2333,-1,-1,7,2108,3,216,0.9061696658097687
2334,-1,-1,7,2109,3,216,0.9062098501070663
2335,-1,-1,7,2110,3,216,0.90625
2336,-1,-1,7,2111,3,216,0.9062901155327343
2337,1,-1,7,2111,3,217,0.9059024807527801
2338,-1,-1,7,2112,3,217,0.9059427105600684
2339,-1,-1,7,2113,3,217,0.905982905982906
2340,1,-1,7,2113,3,218,0.905595899188381
2341,-1,-1,7,2114,3,218,0.9056362083689155
2342,-1,-1,7,2115,3,218,0.9056764831412719
2343,-1,-1,7,2116,3,218,0.9057167235494881
2344,-1,-1,7,2117,3,218,0.9057569296375266
2345,-1,-1,7,2118,3,218,0.9057971014492754
2346,-1,-1,7,2119,3,218,0.9058372390285471
2347,-1,-1,7,2120,3,218,0.90587734241908
2348,-1,-1,7,2121,3,218,0.9059174116645381
2349,-1,-1,7,2122,3,218,0.9059574468085106
2350,-1,-1,7,2123,3,218,0.905997447894513
2351,-1,-1,7,2124,3,218,0.9060374149659864
2352,-1,-1,7,2125,3,218,0.9060773480662984
2353,-1,-1,7,2126,3,218,0.9061172472387425
2354,-1,-1,7,2127,3,218,0.9061571125265393
2355,-1,-1,7,2128,3,218,0.9061969439728353
2356,-1,-1,7,2129,3,218,0.9062367416207043
2357,-1,-1,7,2130,3,218,0.9062765055131468
2358,1,-1,7,2130,3,219,0.9058923272573124
2359,-1,-1,7,2131,3,219,0.9059322033898305
2360,1,-1,7,2131,3,220,0.9055484963998306
2361,-1,-1,7,2132,3,220,0.905588484335309
2362,-1,-1,7,2133,3,220,0.90562843842573
2363,-1,-1,7,2134,3,220,0.9056683587140439
2364,-1,-1,7,2135,3,220,0.905708245243129
2365,1,-1,7,2135,3,221,0.9053254437869822
2366,-1,-1,7,2136,3,221,0.9053654414871145
2367,-1,-1,7,2137,3,221,0.9054054054054054
2368,-1,-1,7,2138,3,221,0.9054453355846349
2369,-1,-1,7,2139,3,221,0.9054852320675105
2370,-1,-1,7,2140,3,221,0.9055250948966681
2371,-1,-1,7,2141,3,221,0.9055649241146712
2372,-1,-1,7,2142,3,221,0.9056047197640118
2373,-1,-1,7,2143,3,221,0.9056444818871103
2374,-1,-1,7,2144,3,221,0.9056842105263158
2375,-1,-1,7,2145,3,221,0.9057239057239057
2376,1,-1,7,2145,3,222,0.9053428691628103
2377,-1,-1,7,2146,3,222,0.9053826745164003
2378,-1,-1,7,2147,3,222,0.905422446406053
2379,-1,-1,7,2148,3,222,0.9054621848739496
2380,-1,-1,7,2149,3,222,0.9055018899622007
2381,-1,-1,7,2150,3,222,0.9055415617128464
2382,-1,-1,7,2151,3,222,0.9055812001678556
2383,-1,-1,7,2152,3,222,0.9056208053691275
2384,-1,-1,7,2153,3,222,0.9056603773584906
2385,-1,-1,7,2154,3,222,0.9056999161777033
2386,-1,-1,7,2155,3,222,0.9057394218684541
2387,-1,-1,7,2156,3,222,0.9057788944723618
2388,-1,-1,7,2157,3,222,0.9058183340309753
2389,-1,-1,7,2158,3,222,0.9058577405857741
2390,-1,-1,7,2159,3,222,0.9058971141781681
2391,-1,-1,7,2160,3,222,0.9059364548494984
2392,-1,-1,7,2161,3,222,0.9059757626410364
2393,-1,-1,7,2162,3,222,0.9060150375939849
2394,-1,-1,7,2163,3,222,0.906054279749478
2395,1,-1,7,2163,3,223,0.9056761268781303
2396,-1,-1,7,2164,3,223,0.9057154776804339
2397,-1,-1,7,2165,3,223,0.9057547956630525
2398,-1,-1,7,2166,3,223,0.905794080867028
2399,-1,-1,7,2167,3,223,0.9058333333333334
2400,-1,-1,7,2168,3,223,0.9058725531028738
2401,-1,-1,7,2169,3,223,0.9059117402164862
2402,-1,-1,7,2170,3,223,0.9059508947149396
2403,-1,-1,7,2171,3,223,0.9059900166389351
2404,-1,-1,7,2172,3,223,0.906029106029106
2405,-1,-1,7,2173,3,223,0.9060681629260183
2406,-1,-1,7,2174,3,223,0.9061071873701704
2407,-1,-1,7,2175,3,223,0.9061461794019934
2408,-1,-1,7,2176,3,223,0.9061851390618514
2409,-1,-1,7,2177,3,223,0.9062240663900415
2410,-1,-1,7,2178,3,223,0.9062629614267939
2411,-1,-1,7,2179,3,223,0.906301824212272
2412,-1,-1,7,2180,3,223,0.9063406547865728
2413,-1,-1,7,2181,3,223,0.9063794531897266
2414,-1,-1,7,2182,3,223,0.9064182194616978
2415,-1,-1,7,2183,3,223,0.9064569536423841
2416,-1,-1,7,2184,3,223,0.9064956557716177
2417,1,-1,7,2184,3,224,0.9061207609594706
2418,-1,-1,7,2185,3,224,0.9061595700702769
2419,-1,-1,7,2186,3,224,0.906198347107438
2420,-1,-1,7,2187,3,224,0.906237092110698
2421,-1,-1,7,2188,3,224,0.9062758051197357
2422,-1,-1,7,2189,3,224,0.9063144861741642
2423,-1,-1,7,2190,3,224,0.9063531353135313
2424,-1,-1,7,2191,3,224,0.9063917525773196
2425,-1,-1,7,2192,3,224,0.9064303380049464
2426,-1,-1,7,2193,3,224,0.9064688916357643
2427,-1,-1,7,2194,3,224,0.9065074135090609
2428,-1,-1,7,2195,3,224,0.9065459036640593
2429,-1,-1,7,2196,3,224,0.9065843621399177
2430,1,-1,7,2196,3,225,0.9062114356232003
2431,-1,-1,7,2197,3,225,0.90625
2432,-1,-1,7,2198,3,225,0.906288532675709
2433,-1,-1,7,2199,3,225,0.9063270336894002
2434,-1,-1,7,2200,3,225,0.9063655030800821
2435,-1,-1,7,2201,3,225,0.9064039408866995
2436,-1,-1,7,2202,3,225,0.906442347148133
