instance,lable,predicted,tp,tn,fp,fn,correctness
0,-1,-1,0,1,0,0,1.0
1,-1,-1,0,2,0,0,1.0
2,-1,-1,0,3,0,0,1.0
3,-1,-1,0,4,0,0,1.0
4,-1,-1,0,5,0,0,1.0
5,-1,-1,0,6,0,0,1.0
6,-1,-1,0,7,0,0,1.0
7,-1,-1,0,8,0,0,1.0
8,-1,-1,0,9,0,0,1.0
9,-1,-1,0,10,0,0,1.0
10,-1,-1,0,11,0,0,1.0
11,1,-1,0,11,0,1,0.9166666666666666
12,-1,-1,0,12,0,1,0.9230769230769231
13,-1,-1,0,13,0,1,0.9285714285714286
14,1,-1,0,13,0,2,0.8666666666666667
15,-1,-1,0,14,0,2,0.875
16,-1,-1,0,15,0,2,0.8823529411764706
17,-1,-1,0,16,0,2,0.8888888888888888
18,-1,-1,0,17,0,2,0.8947368421052632
19,-1,-1,0,18,0,2,0.9
20,-1,-1,0,19,0,2,0.9047619047619048
21,-1,-1,0,20,0,2,0.9090909090909091
22,-1,-1,0,21,0,2,0.9130434782608695
23,1,-1,0,21,0,3,0.875
24,-1,-1,0,22,0,3,0.88
25,-1,-1,0,23,0,3,0.8846153846153846
26,-1,-1,0,24,0,3,0.8888888888888888
27,-1,-1,0,25,0,3,0.8928571428571429
28,1,-1,0,25,0,4,0.8620689655172413
29,-1,-1,0,26,0,4,0.8666666666666667
30,-1,-1,0,27,0,4,0.8709677419354839
31,-1,-1,0,28,0,4,0.875
32,-1,-1,0,29,0,4,0.8787878787878788
33,-1,-1,0,30,0,4,0.8823529411764706
34,1,-1,0,30,0,5,0.8571428571428571
35,-1,-1,0,31,0,5,0.8611111111111112
36,-1,-1,0,32,0,5,0.8648648648648649
37,-1,-1,0,33,0,5,0.868421052631579
38,1,-1,0,33,0,6,0.8461538461538461
39,-1,-1,0,34,0,6,0.85
40,-1,-1,0,35,0,6,0.8536585365853658
41,-1,-1,0,36,0,6,0.8571428571428571
42,-1,-1,0,37,0,6,0.8604651162790697
43,-1,-1,0,38,0,6,0.8636363636363636
44,-1,-1,0,39,0,6,0.8666666666666667
45,1,-1,0,39,0,7,0.8478260869565217
46,-1,-1,0,40,0,7,0.851063829787234
47,1,-1,0,40,0,8,0.8333333333333334
48,-1,-1,0,41,0,8,0.8367346938775511
49,-1,-1,0,42,0,8,0.84
50,1,-1,0,42,0,9,0.8235294117647058
51,-1,-1,0,43,0,9,0.8269230769230769
52,-1,-1,0,44,0,9,0.8301886792452831
53,-1,-1,0,45,0,9,0.8333333333333334
54,-1,-1,0,46,0,9,0.8363636363636363
55,-1,-1,0,47,0,9,0.8392857142857143
56,-1,-1,0,48,0,9,0.8421052631578947
57,-1,-1,0,49,0,9,0.8448275862068966
58,-1,-1,0,50,0,9,0.847457627118644
59,-1,-1,0,51,0,9,0.85
60,-1,-1,0,52,0,9,0.8524590163934426
61,-1,-1,0,53,0,9,0.8548387096774194
62,-1,-1,0,54,0,9,0.8571428571428571
63,-1,-1,0,55,0,9,0.859375
64,-1,-1,0,56,0,9,0.8615384615384616
65,-1,-1,0,57,0,9,0.8636363636363636
66,-1,-1,0,58,0,9,0.8656716417910447
67,-1,-1,0,59,0,9,0.8676470588235294
68,-1,-1,0,60,0,9,0.8695652173913043
69,-1,-1,0,61,0,9,0.8714285714285714
70,-1,-1,0,62,0,9,0.8732394366197183
71,-1,-1,0,63,0,9,0.875
72,-1,-1,0,64,0,9,0.8767123287671232
73,-1,-1,0,65,0,9,0.8783783783783784
74,-1,-1,0,66,0,9,0.88
75,-1,-1,0,67,0,9,0.881578947368421
76,1,-1,0,67,0,10,0.8701298701298701
77,-1,-1,0,68,0,10,0.8717948717948718
78,-1,-1,0,69,0,10,0.8734177215189873
79,-1,-1,0,70,0,10,0.875
80,-1,-1,0,71,0,10,0.8765432098765432
81,-1,-1,0,72,0,10,0.8780487804878049
82,-1,-1,0,73,0,10,0.8795180722891566
83,-1,-1,0,74,0,10,0.8809523809523809
84,-1,-1,0,75,0,10,0.8823529411764706
85,-1,-1,0,76,0,10,0.8837209302325582
86,-1,-1,0,77,0,10,0.8850574712643678
87,-1,-1,0,78,0,10,0.8863636363636364
88,-1,-1,0,79,0,10,0.8876404494382022
89,1,-1,0,79,0,11,0.8777777777777778
90,-1,-1,0,80,0,11,0.8791208791208791
91,-1,-1,0,81,0,11,0.8804347826086957
92,-1,-1,0,82,0,11,0.8817204301075269
93,-1,-1,0,83,0,11,0.8829787234042553
94,-1,-1,0,84,0,11,0.8842105263157894
95,-1,-1,0,85,0,11,0.8854166666666666
96,-1,-1,0,86,0,11,0.8865979381443299
97,-1,-1,0,87,0,11,0.8877551020408163
98,-1,-1,0,88,0,11,0.8888888888888888
99,-1,-1,0,89,0,11,0.89
100,-1,-1,0,90,0,11,0.8910891089108911
101,-1,-1,0,91,0,11,0.8921568627450981
102,-1,-1,0,92,0,11,0.8932038834951457
103,-1,-1,0,93,0,11,0.8942307692307693
104,-1,-1,0,94,0,11,0.8952380952380953
105,-1,-1,0,95,0,11,0.8962264150943396
106,-1,-1,0,96,0,11,0.897196261682243
107,-1,-1,0,97,0,11,0.8981481481481481
108,-1,-1,0,98,0,11,0.8990825688073395
109,-1,-1,0,99,0,11,0.9
110,-1,-1,0,100,0,11,0.9009009009009009
111,-1,-1,0,101,0,11,0.9017857142857143
112,-1,-1,0,102,0,11,0.9026548672566371
113,-1,-1,0,103,0,11,0.9035087719298246
114,-1,-1,0,104,0,11,0.9043478260869565
115,-1,-1,0,105,0,11,0.9051724137931034
116,-1,-1,0,106,0,11,0.905982905982906
117,-1,-1,0,107,0,11,0.9067796610169492
118,-1,-1,0,108,0,11,0.907563025210084
119,-1,-1,0,109,0,11,0.9083333333333333
120,-1,-1,0,110,0,11,0.9090909090909091
121,-1,-1,0,111,0,11,0.9098360655737705
122,-1,-1,0,112,0,11,0.9105691056910569
123,-1,-1,0,113,0,11,0.9112903225806451
124,-1,-1,0,114,0,11,0.912
125,-1,-1,0,115,0,11,0.9126984126984127
126,-1,-1,0,116,0,11,0.9133858267716536
127,-1,-1,0,117,0,11,0.9140625
128,-1,-1,0,118,0,11,0.9147286821705426
129,-1,-1,0,119,0,11,0.9153846153846154
130,-1,-1,0,120,0,11,0.916030534351145
131,-1,-1,0,121,0,11,0.9166666666666666
132,-1,-1,0,122,0,11,0.9172932330827067
133,1,-1,0,122,0,12,0.9104477611940298
134,-1,-1,0,123,0,12,0.9111111111111111
135,-1,-1,0,124,0,12,0.9117647058823529
136,1,-1,0,124,0,13,0.9051094890510949
137,-1,-1,0,125,0,13,0.9057971014492754
138,-1,-1,0,126,0,13,0.9064748201438849
139,1,-1,0,126,0,14,0.9
140,-1,-1,0,127,0,14,0.900709219858156
141,-1,-1,0,128,0,14,0.9014084507042254
142,-1,-1,0,129,0,14,0.9020979020979021
143,-1,-1,0,130,0,14,0.9027777777777778
144,-1,-1,0,131,0,14,0.903448275862069
145,-1,-1,0,132,0,14,0.9041095890410958
146,-1,-1,0,133,0,14,0.9047619047619048
147,-1,-1,0,134,0,14,0.9054054054054054
148,-1,-1,0,135,0,14,0.9060402684563759
149,-1,-1,0,136,0,14,0.9066666666666666
150,-1,-1,0,137,0,14,0.9072847682119205
151,1,-1,0,137,0,15,0.9013157894736842
152,-1,-1,0,138,0,15,0.9019607843137255
153,-1,-1,0,139,0,15,0.9025974025974026
154,-1,-1,0,140,0,15,0.9032258064516129
155,-1,-1,0,141,0,15,0.9038461538461539
156,-1,-1,0,142,0,15,0.9044585987261147
157,1,-1,0,142,0,16,0.8987341772151899
158,-1,-1,0,143,0,16,0.89937106918239
159,-1,-1,0,144,0,16,0.9
160,-1,-1,0,145,0,16,0.9006211180124224
161,-1,-1,0,146,0,16,0.9012345679012346
162,-1,-1,0,147,0,16,0.901840490797546
163,-1,-1,0,148,0,16,0.9024390243902439
164,-1,-1,0,149,0,16,0.9030303030303031
165,-1,-1,0,150,0,16,0.9036144578313253
166,-1,-1,0,151,0,16,0.9041916167664671
167,-1,-1,0,152,0,16,0.9047619047619048
168,-1,-1,0,153,0,16,0.9053254437869822
169,-1,-1,0,154,0,16,0.9058823529411765
170,1,-1,0,154,0,17,0.9005847953216374
171,1,-1,0,154,0,18,0.8953488372093024
172,1,-1,0,154,0,19,0.8901734104046243
173,-1,-1,0,155,0,19,0.8908045977011494
174,1,-1,0,155,0,20,0.8857142857142857
175,1,1,1,155,0,20,0.8863636363636364
176,-1,-1,1,156,0,20,0.8870056497175142
177,-1,-1,1,157,0,20,0.8876404494382022
178,-1,-1,1,158,0,20,0.888268156424581
179,-1,-1,1,159,0,20,0.8888888888888888
180,-1,-1,1,160,0,20,0.8895027624309392
181,-1,-1,1,161,0,20,0.8901098901098901
182,-1,-1,1,162,0,20,0.8907103825136612
183,-1,-1,1,163,0,20,0.8913043478260869
184,-1,-1,1,164,0,20,0.8918918918918919
185,-1,-1,1,165,0,20,0.8924731182795699
186,-1,-1,1,166,0,20,0.893048128342246
187,-1,-1,1,167,0,20,0.8936170212765957
188,-1,-1,1,168,0,20,0.8941798941798942
189,-1,-1,1,169,0,20,0.8947368421052632
190,-1,-1,1,170,0,20,0.8952879581151832
191,-1,-1,1,171,0,20,0.8958333333333334
192,-1,-1,1,172,0,20,0.8963730569948186
193,-1,-1,1,173,0,20,0.8969072164948454
194,-1,-1,1,174,0,20,0.8974358974358975
195,-1,-1,1,175,0,20,0.8979591836734694
196,-1,-1,1,176,0,20,0.8984771573604061
197,-1,-1,1,177,0,20,0.898989898989899
198,-1,-1,1,178,0,20,0.8994974874371859
199,-1,-1,1,179,0,20,0.9
200,-1,-1,1,180,0,20,0.900497512437811
201,-1,-1,1,181,0,20,0.900990099009901
202,-1,-1,1,182,0,20,0.9014778325123153
203,-1,-1,1,183,0,20,0.9019607843137255
204,-1,-1,1,184,0,20,0.9024390243902439
205,-1,-1,1,185,0,20,0.9029126213592233
206,-1,-1,1,186,0,20,0.9033816425120773
207,-1,-1,1,187,0,20,0.9038461538461539
208,-1,-1,1,188,0,20,0.9043062200956937
209,1,-1,1,188,0,21,0.9
210,-1,-1,1,189,0,21,0.9004739336492891
211,-1,-1,1,190,0,21,0.9009433962264151
212,-1,-1,1,191,0,21,0.9014084507042254
213,1,-1,1,191,0,22,0.897196261682243
214,-1,-1,1,192,0,22,0.8976744186046511
215,-1,-1,1,193,0,22,0.8981481481481481
216,-1,-1,1,194,0,22,0.8986175115207373
217,1,-1,1,194,0,23,0.8944954128440367
218,-1,-1,1,195,0,23,0.8949771689497716
219,-1,-1,1,196,0,23,0.8954545454545455
220,-1,-1,1,197,0,23,0.8959276018099548
221,-1,-1,1,198,0,23,0.8963963963963963
222,1,-1,1,198,0,24,0.8923766816143498
223,-1,-1,1,199,0,24,0.8928571428571429
224,-1,-1,1,200,0,24,0.8933333333333333
225,1,-1,1,200,0,25,0.8893805309734514
226,-1,-1,1,201,0,25,0.8898678414096917
227,-1,-1,1,202,0,25,0.8903508771929824
228,-1,-1,1,203,0,25,0.8908296943231441
229,-1,-1,1,204,0,25,0.8913043478260869
230,-1,-1,1,205,0,25,0.8917748917748918
231,-1,-1,1,206,0,25,0.8922413793103449
232,-1,-1,1,207,0,25,0.8927038626609443
233,-1,-1,1,208,0,25,0.8931623931623932
234,-1,-1,1,209,0,25,0.8936170212765957
235,-1,-1,1,210,0,25,0.8940677966101694
236,-1,-1,1,211,0,25,0.8945147679324894
237,-1,-1,1,212,0,25,0.8949579831932774
238,-1,-1,1,213,0,25,0.895397489539749
239,-1,-1,1,214,0,25,0.8958333333333334
240,-1,-1,1,215,0,25,0.8962655601659751
241,-1,-1,1,216,0,25,0.8966942148760331
242,-1,-1,1,217,0,25,0.897119341563786
243,1,-1,1,217,0,26,0.8934426229508197
244,-1,-1,1,218,0,26,0.8938775510204081
245,-1,-1,1,219,0,26,0.8943089430894309
246,-1,-1,1,220,0,26,0.8947368421052632
247,1,-1,1,220,0,27,0.8911290322580645
248,-1,-1,1,221,0,27,0.891566265060241
249,-1,-1,1,222,0,27,0.892
250,-1,-1,1,223,0,27,0.8924302788844621
251,-1,-1,1,224,0,27,0.8928571428571429
252,1,-1,1,224,0,28,0.8893280632411067
253,1,-1,1,224,0,29,0.8858267716535433
254,-1,-1,1,225,0,29,0.8862745098039215
255,-1,-1,1,226,0,29,0.88671875
256,-1,-1,1,227,0,29,0.8871595330739299
257,-1,-1,1,228,0,29,0.8875968992248062
258,-1,-1,1,229,0,29,0.888030888030888
259,1,-1,1,229,0,30,0.8846153846153846
260,-1,-1,1,230,0,30,0.8850574712643678
261,-1,-1,1,231,0,30,0.8854961832061069
262,-1,-1,1,232,0,30,0.8859315589353612
263,-1,-1,1,233,0,30,0.8863636363636364
264,-1,-1,1,234,0,30,0.8867924528301887
265,-1,-1,1,235,0,30,0.8872180451127819
266,-1,-1,1,236,0,30,0.8876404494382022
267,-1,-1,1,237,0,30,0.8880597014925373
268,-1,-1,1,238,0,30,0.8884758364312267
269,-1,-1,1,239,0,30,0.8888888888888888
270,-1,-1,1,240,0,30,0.8892988929889298
271,-1,-1,1,241,0,30,0.8897058823529411
272,-1,-1,1,242,0,30,0.8901098901098901
273,-1,-1,1,243,0,30,0.8905109489051095
274,-1,-1,1,244,0,30,0.8909090909090909
275,-1,-1,1,245,0,30,0.8913043478260869
276,-1,-1,1,246,0,30,0.8916967509025271
277,-1,-1,1,247,0,30,0.8920863309352518
278,-1,-1,1,248,0,30,0.8924731182795699
279,-1,-1,1,249,0,30,0.8928571428571429
280,1,1,2,249,0,30,0.8932384341637011
281,-1,-1,2,250,0,30,0.8936170212765957
282,-1,-1,2,251,0,30,0.8939929328621908
283,-1,-1,2,252,0,30,0.8943661971830986
284,-1,-1,2,253,0,30,0.8947368421052632
285,1,-1,2,253,0,31,0.8916083916083916
286,-1,-1,2,254,0,31,0.89198606271777
287,-1,-1,2,255,0,31,0.8923611111111112
288,-1,-1,2,256,0,31,0.8927335640138409
289,1,-1,2,256,0,32,0.8896551724137931
290,-1,-1,2,257,0,32,0.8900343642611683
291,-1,-1,2,258,0,32,0.8904109589041096
292,-1,-1,2,259,0,32,0.8907849829351536
293,1,-1,2,259,0,33,0.8877551020408163
294,-1,-1,2,260,0,33,0.888135593220339
295,-1,-1,2,261,0,33,0.8885135135135135
296,-1,-1,2,262,0,33,0.8888888888888888
297,-1,-1,2,263,0,33,0.889261744966443
298,-1,-1,2,264,0,33,0.8896321070234113
299,-1,-1,2,265,0,33,0.89
300,-1,-1,2,266,0,33,0.8903654485049833
301,-1,-1,2,267,0,33,0.890728476821192
302,-1,-1,2,268,0,33,0.8910891089108911
303,-1,-1,2,269,0,33,0.8914473684210527
304,-1,-1,2,270,0,33,0.8918032786885246
305,-1,-1,2,271,0,33,0.8921568627450981
306,-1,-1,2,272,0,33,0.8925081433224755
307,-1,-1,2,273,0,33,0.8928571428571429
308,-1,-1,2,274,0,33,0.8932038834951457
309,-1,-1,2,275,0,33,0.8935483870967742
310,-1,-1,2,276,0,33,0.8938906752411575
311,-1,-1,2,277,0,33,0.8942307692307693
312,-1,-1,2,278,0,33,0.8945686900958466
313,-1,-1,2,279,0,33,0.8949044585987261
314,-1,-1,2,280,0,33,0.8952380952380953
315,-1,-1,2,281,0,33,0.8955696202531646
316,-1,-1,2,282,0,33,0.8958990536277602
317,-1,-1,2,283,0,33,0.8962264150943396
318,-1,-1,2,284,0,33,0.896551724137931
319,-1,-1,2,285,0,33,0.896875
320,-1,-1,2,286,0,33,0.897196261682243
321,-1,-1,2,287,0,33,0.8975155279503105
322,-1,-1,2,288,0,33,0.8978328173374613
323,-1,-1,2,289,0,33,0.8981481481481481
324,-1,-1,2,290,0,33,0.8984615384615384
325,-1,-1,2,291,0,33,0.8987730061349694
326,-1,-1,2,292,0,33,0.8990825688073395
327,-1,-1,2,293,0,33,0.899390243902439
328,-1,-1,2,294,0,33,0.8996960486322189
329,-1,-1,2,295,0,33,0.9
330,-1,-1,2,296,0,33,0.9003021148036254
331,1,-1,2,296,0,34,0.8975903614457831
332,-1,-1,2,297,0,34,0.8978978978978979
333,-1,-1,2,298,0,34,0.8982035928143712
334,-1,-1,2,299,0,34,0.8985074626865671
335,1,-1,2,299,0,35,0.8958333333333334
336,-1,-1,2,300,0,35,0.8961424332344213
337,-1,-1,2,301,0,35,0.8964497041420119
338,-1,-1,2,302,0,35,0.8967551622418879
339,-1,-1,2,303,0,35,0.8970588235294118
340,-1,-1,2,304,0,35,0.8973607038123167
341,-1,-1,2,305,0,35,0.8976608187134503
342,-1,-1,2,306,0,35,0.8979591836734694
343,-1,-1,2,307,0,35,0.8982558139534884
344,-1,-1,2,308,0,35,0.8985507246376812
345,-1,-1,2,309,0,35,0.8988439306358381
346,-1,-1,2,310,0,35,0.899135446685879
347,-1,-1,2,311,0,35,0.8994252873563219
348,-1,-1,2,312,0,35,0.8997134670487106
349,1,-1,2,312,0,36,0.8971428571428571
350,1,-1,2,312,0,37,0.8945868945868946
351,-1,-1,2,313,0,37,0.8948863636363636
352,-1,-1,2,314,0,37,0.8951841359773371
353,-1,-1,2,315,0,37,0.8954802259887006
354,-1,-1,2,316,0,37,0.895774647887324
355,-1,-1,2,317,0,37,0.8960674157303371
356,-1,-1,2,318,0,37,0.896358543417367
357,-1,-1,2,319,0,37,0.8966480446927374
358,-1,-1,2,320,0,37,0.8969359331476323
359,-1,-1,2,321,0,37,0.8972222222222223
360,1,-1,2,321,0,38,0.8947368421052632
361,-1,-1,2,322,0,38,0.8950276243093923
362,-1,-1,2,323,0,38,0.8953168044077136
363,-1,-1,2,324,0,38,0.8956043956043956
364,1,-1,2,324,0,39,0.8931506849315068
365,-1,-1,2,325,0,39,0.8934426229508197
366,-1,-1,2,326,0,39,0.8937329700272479
367,-1,-1,2,327,0,39,0.8940217391304348
368,-1,-1,2,328,0,39,0.8943089430894309
369,-1,-1,2,329,0,39,0.8945945945945946
370,-1,-1,2,330,0,39,0.894878706199461
371,-1,-1,2,331,0,39,0.8951612903225806
372,1,-1,2,331,0,40,0.8927613941018767
373,-1,-1,2,332,0,40,0.893048128342246
374,-1,-1,2,333,0,40,0.8933333333333333
375,-1,-1,2,334,0,40,0.8936170212765957
376,-1,-1,2,335,0,40,0.8938992042440318
377,-1,-1,2,336,0,40,0.8941798941798942
378,-1,-1,2,337,0,40,0.8944591029023746
379,-1,-1,2,338,0,40,0.8947368421052632
380,-1,-1,2,339,0,40,0.89501312335958
381,1,-1,2,339,0,41,0.8926701570680629
382,-1,-1,2,340,0,41,0.8929503916449086
383,1,-1,2,340,0,42,0.890625
384,-1,-1,2,341,0,42,0.8909090909090909
385,-1,-1,2,342,0,42,0.8911917098445595
386,-1,-1,2,343,0,42,0.8914728682170543
387,-1,-1,2,344,0,42,0.8917525773195877
388,-1,-1,2,345,0,42,0.8920308483290489
389,-1,-1,2,346,0,42,0.8923076923076924
390,-1,-1,2,347,0,42,0.8925831202046036
391,-1,-1,2,348,0,42,0.8928571428571429
392,-1,-1,2,349,0,42,0.8931297709923665
393,-1,-1,2,350,0,42,0.8934010152284264
394,1,-1,2,350,0,43,0.8911392405063291
395,-1,-1,2,351,0,43,0.8914141414141414
396,-1,-1,2,352,0,43,0.8916876574307305
397,-1,-1,2,353,0,43,0.8919597989949749
398,-1,-1,2,354,0,43,0.8922305764411027
399,-1,-1,2,355,0,43,0.8925
400,1,-1,2,355,0,44,0.8902743142144638
401,-1,-1,2,356,0,44,0.8905472636815921
402,-1,-1,2,357,0,44,0.890818858560794
403,-1,-1,2,358,0,44,0.8910891089108911
404,-1,-1,2,359,0,44,0.891358024691358
405,-1,-1,2,360,0,44,0.8916256157635468
406,-1,-1,2,361,0,44,0.8918918918918919
407,-1,-1,2,362,0,44,0.8921568627450981
408,-1,-1,2,363,0,44,0.8924205378973105
409,-1,-1,2,364,0,44,0.8926829268292683
410,-1,-1,2,365,0,44,0.8929440389294404
411,1,-1,2,365,0,45,0.8907766990291263
412,-1,-1,2,366,0,45,0.8910411622276029
413,-1,-1,2,367,0,45,0.8913043478260869
414,-1,-1,2,368,0,45,0.891566265060241
415,1,-1,2,368,0,46,0.8894230769230769
416,-1,-1,2,369,0,46,0.8896882494004796
417,-1,-1,2,370,0,46,0.8899521531100478
418,-1,-1,2,371,0,46,0.8902147971360382
419,-1,-1,2,372,0,46,0.8904761904761904
420,-1,-1,2,373,0,46,0.8907363420427553
421,-1,-1,2,374,0,46,0.8909952606635071
422,-1,-1,2,375,0,46,0.8912529550827423
423,-1,-1,2,376,0,46,0.8915094339622641
424,-1,-1,2,377,0,46,0.8917647058823529
425,1,-1,2,377,0,47,0.8896713615023474
426,-1,-1,2,378,0,47,0.8899297423887588
427,-1,-1,2,379,0,47,0.8901869158878505
428,-1,-1,2,380,0,47,0.8904428904428905
429,-1,-1,2,381,0,47,0.8906976744186047
430,-1,-1,2,382,0,47,0.8909512761020881
431,-1,-1,2,383,0,47,0.8912037037037037
432,-1,-1,2,384,0,47,0.8914549653579676
433,-1,-1,2,385,0,47,0.8917050691244239
434,-1,-1,2,386,0,47,0.8919540229885058
435,-1,-1,2,387,0,47,0.8922018348623854
436,-1,-1,2,388,0,47,0.8924485125858124
437,-1,-1,2,389,0,47,0.8926940639269406
438,-1,-1,2,390,0,47,0.8929384965831435
439,-1,-1,2,391,0,47,0.8931818181818182
440,-1,-1,2,392,0,47,0.8934240362811792
441,-1,-1,2,393,0,47,0.8936651583710408
442,1,-1,2,393,0,48,0.891647855530474
443,1,-1,2,393,0,49,0.8896396396396397
444,-1,-1,2,394,0,49,0.8898876404494382
445,-1,-1,2,395,0,49,0.8901345291479821
446,-1,-1,2,396,0,49,0.8903803131991052
447,-1,-1,2,397,0,49,0.890625
448,-1,-1,2,398,0,49,0.89086859688196
449,-1,-1,2,399,0,49,0.8911111111111111
450,-1,-1,2,400,0,49,0.8913525498891353
451,1,-1,2,400,0,50,0.8893805309734514
452,-1,-1,2,401,0,50,0.8896247240618101
453,-1,-1,2,402,0,50,0.8898678414096917
454,1,-1,2,402,0,51,0.8879120879120879
455,-1,-1,2,403,0,51,0.8881578947368421
456,-1,-1,2,404,0,51,0.888402625820569
457,-1,-1,2,405,0,51,0.888646288209607
458,-1,-1,2,406,0,51,0.8888888888888888
459,-1,-1,2,407,0,51,0.8891304347826087
460,-1,-1,2,408,0,51,0.8893709327548807
461,-1,-1,2,409,0,51,0.8896103896103896
462,-1,-1,2,410,0,51,0.8898488120950324
463,-1,-1,2,411,0,51,0.8900862068965517
464,-1,-1,2,412,0,51,0.8903225806451613
465,-1,-1,2,413,0,51,0.8905579399141631
466,-1,-1,2,414,0,51,0.8907922912205567
467,-1,-1,2,415,0,51,0.8910256410256411
468,-1,-1,2,416,0,51,0.8912579957356077
469,-1,-1,2,417,0,51,0.8914893617021277
470,-1,-1,2,418,0,51,0.89171974522293
471,-1,-1,2,419,0,51,0.8919491525423728
472,-1,-1,2,420,0,51,0.8921775898520085
473,-1,-1,2,421,0,51,0.8924050632911392
474,-1,-1,2,422,0,51,0.8926315789473684
475,-1,-1,2,423,0,51,0.8928571428571429
476,-1,-1,2,424,0,51,0.8930817610062893
477,-1,-1,2,425,0,51,0.893305439330544
478,-1,-1,2,426,0,51,0.8935281837160751
479,-1,-1,2,427,0,51,0.89375
480,-1,-1,2,428,0,51,0.893970893970894
481,-1,-1,2,429,0,51,0.8941908713692946
482,-1,-1,2,430,0,51,0.8944099378881988
483,-1,-1,2,431,0,51,0.8946280991735537
484,-1,-1,2,432,0,51,0.8948453608247423
485,1,-1,2,432,0,52,0.8930041152263375
486,1,-1,2,432,0,53,0.891170431211499
487,1,-1,2,432,0,54,0.889344262295082
488,-1,-1,2,433,0,54,0.8895705521472392
489,-1,-1,2,434,0,54,0.889795918367347
490,-1,-1,2,435,0,54,0.890020366598778
491,-1,-1,2,436,0,54,0.8902439024390244
492,-1,-1,2,437,0,54,0.8904665314401623
493,-1,-1,2,438,0,54,0.8906882591093117
494,-1,-1,2,439,0,54,0.8909090909090909
495,-1,-1,2,440,0,54,0.8911290322580645
496,-1,-1,2,441,0,54,0.8913480885311871
497,-1,-1,2,442,0,54,0.891566265060241
498,-1,-1,2,443,0,54,0.8917835671342685
499,-1,-1,2,444,0,54,0.892
500,-1,-1,2,445,0,54,0.8922155688622755
501,-1,-1,2,446,0,54,0.8924302788844621
502,-1,-1,2,447,0,54,0.8926441351888668
503,-1,-1,2,448,0,54,0.8928571428571429
504,1,-1,2,448,0,55,0.8910891089108911
505,-1,-1,2,449,0,55,0.8913043478260869
506,-1,-1,2,450,0,55,0.8915187376725838
507,1,-1,2,450,0,56,0.889763779527559
508,1,-1,2,450,0,57,0.888015717092338
509,-1,-1,2,451,0,57,0.888235294117647
510,-1,-1,2,452,0,57,0.8884540117416829
511,-1,-1,2,453,0,57,0.888671875
512,-1,-1,2,454,0,57,0.8888888888888888
513,-1,-1,2,455,0,57,0.8891050583657587
514,-1,-1,2,456,0,57,0.8893203883495145
515,-1,-1,2,457,0,57,0.8895348837209303
516,-1,-1,2,458,0,57,0.8897485493230174
517,1,-1,2,458,0,58,0.888030888030888
518,-1,-1,2,459,0,58,0.8882466281310212
519,-1,-1,2,460,0,58,0.8884615384615384
520,-1,-1,2,461,0,58,0.8886756238003839
521,-1,-1,2,462,0,58,0.8888888888888888
522,-1,-1,2,463,0,58,0.8891013384321224
523,-1,-1,2,464,0,58,0.8893129770992366
524,-1,-1,2,465,0,58,0.8895238095238095
525,-1,-1,2,466,0,58,0.8897338403041825
526,-1,-1,2,467,0,58,0.889943074003795
527,-1,-1,2,468,0,58,0.8901515151515151
528,-1,-1,2,469,0,58,0.8903591682419659
529,-1,-1,2,470,0,58,0.8905660377358491
530,1,-1,2,470,0,59,0.8888888888888888
531,-1,-1,2,471,0,59,0.8890977443609023
532,1,-1,2,471,0,60,0.8874296435272045
533,-1,-1,2,472,0,60,0.8876404494382022
534,-1,-1,2,473,0,60,0.8878504672897196
535,-1,-1,2,474,0,60,0.8880597014925373
536,-1,-1,2,475,0,60,0.888268156424581
537,-1,-1,2,476,0,60,0.8884758364312267
538,1,-1,2,476,0,61,0.8868274582560297
539,-1,-1,2,477,0,61,0.8870370370370371
540,-1,-1,2,478,0,61,0.8872458410351202
541,-1,-1,2,479,0,61,0.8874538745387454
542,-1,-1,2,480,0,61,0.8876611418047882
543,-1,-1,2,481,0,61,0.8878676470588235
544,-1,-1,2,482,0,61,0.8880733944954129
545,1,-1,2,482,0,62,0.8864468864468864
546,-1,-1,2,483,0,62,0.886654478976234
547,-1,-1,2,484,0,62,0.8868613138686131
548,-1,-1,2,485,0,62,0.8870673952641166
549,-1,-1,2,486,0,62,0.8872727272727273
550,-1,-1,2,487,0,62,0.8874773139745916
551,-1,-1,2,488,0,62,0.8876811594202898
552,-1,-1,2,489,0,62,0.8878842676311031
553,-1,-1,2,490,0,62,0.8880866425992779
554,1,-1,2,490,0,63,0.8864864864864865
555,-1,-1,2,491,0,63,0.8866906474820144
556,-1,-1,2,492,0,63,0.8868940754039497
557,-1,-1,2,493,0,63,0.8870967741935484
558,-1,-1,2,494,0,63,0.8872987477638641
559,-1,-1,2,495,0,63,0.8875
560,-1,-1,2,496,0,63,0.8877005347593583
561,-1,-1,2,497,0,63,0.8879003558718861
562,-1,-1,2,498,0,63,0.8880994671403197
563,-1,-1,2,499,0,63,0.8882978723404256
564,-1,-1,2,500,0,63,0.8884955752212389
565,-1,-1,2,501,0,63,0.8886925795053003
566,1,-1,2,501,0,64,0.8871252204585538
567,-1,-1,2,502,0,64,0.8873239436619719
568,1,-1,2,502,0,65,0.8857644991212654
569,-1,-1,2,503,0,65,0.8859649122807017
570,-1,-1,2,504,0,65,0.8861646234676007
571,-1,-1,2,505,0,65,0.8863636363636364
572,-1,-1,2,506,0,65,0.8865619546247818
573,-1,-1,2,507,0,65,0.8867595818815331
574,-1,-1,2,508,0,65,0.8869565217391304
575,-1,-1,2,509,0,65,0.8871527777777778
576,-1,-1,2,510,0,65,0.8873483535528596
577,1,-1,2,510,0,66,0.8858131487889274
578,-1,-1,2,511,0,66,0.8860103626943006
579,-1,-1,2,512,0,66,0.8862068965517241
580,-1,-1,2,513,0,66,0.8864027538726333
581,-1,-1,2,514,0,66,0.8865979381443299
582,-1,-1,2,515,0,66,0.8867924528301887
583,-1,-1,2,516,0,66,0.886986301369863
584,-1,-1,2,517,0,66,0.8871794871794871
585,1,-1,2,517,0,67,0.8856655290102389
586,-1,-1,2,518,0,67,0.8858603066439523
587,-1,-1,2,519,0,67,0.8860544217687075
588,-1,-1,2,520,0,67,0.8862478777589134
589,1,-1,2,520,0,68,0.8847457627118644
590,-1,-1,2,521,0,68,0.8849407783417935
591,1,-1,2,521,0,69,0.8834459459459459
592,-1,-1,2,522,0,69,0.8836424957841484
593,-1,-1,2,523,0,69,0.8838383838383839
594,-1,-1,2,524,0,69,0.8840336134453781
595,-1,-1,2,525,0,69,0.8842281879194631
596,-1,-1,2,526,0,69,0.8844221105527639
597,-1,-1,2,527,0,69,0.8846153846153846
598,-1,-1,2,528,0,69,0.8848080133555927
599,-1,-1,2,529,0,69,0.885
600,-1,-1,2,530,0,69,0.8851913477537438
601,-1,-1,2,531,0,69,0.8853820598006644
602,-1,-1,2,532,0,69,0.8855721393034826
603,-1,-1,2,533,0,69,0.8857615894039735
604,-1,-1,2,534,0,69,0.8859504132231405
605,-1,-1,2,535,0,69,0.8861386138613861
606,-1,-1,2,536,0,69,0.886326194398682
607,-1,-1,2,537,0,69,0.8865131578947368
608,-1,-1,2,538,0,69,0.8866995073891626
609,1,-1,2,538,0,70,0.8852459016393442
610,-1,-1,2,539,0,70,0.8854337152209493
611,1,-1,2,539,0,71,0.8839869281045751
612,-1,-1,2,540,0,71,0.8841761827079935
613,-1,-1,2,541,0,71,0.8843648208469055
614,-1,-1,2,542,0,71,0.8845528455284553
615,-1,-1,2,543,0,71,0.8847402597402597
616,-1,-1,2,544,0,71,0.8849270664505673
617,-1,-1,2,545,0,71,0.8851132686084142
618,-1,-1,2,546,0,71,0.8852988691437803
619,-1,-1,2,547,0,71,0.885483870967742
620,-1,-1,2,548,0,71,0.8856682769726248
621,-1,-1,2,549,0,71,0.8858520900321544
622,-1,-1,2,550,0,71,0.8860353130016051
623,-1,-1,2,551,0,71,0.8862179487179487
624,-1,-1,2,552,0,71,0.8864
625,1,-1,2,552,0,72,0.8849840255591054
626,1,-1,2,552,0,73,0.8835725677830941
627,-1,-1,2,553,0,73,0.8837579617834395
628,-1,-1,2,554,0,73,0.8839427662957074
629,-1,-1,2,555,0,73,0.8841269841269841
630,-1,-1,2,556,0,73,0.884310618066561
631,-1,-1,2,557,0,73,0.884493670886076
632,-1,-1,2,558,0,73,0.8846761453396524
633,-1,-1,2,559,0,73,0.8848580441640379
634,-1,-1,2,560,0,73,0.8850393700787401
635,-1,-1,2,561,0,73,0.8852201257861635
636,-1,-1,2,562,0,73,0.8854003139717426
637,-1,-1,2,563,0,73,0.8855799373040752
638,-1,-1,2,564,0,73,0.8857589984350548
639,-1,-1,2,565,0,73,0.8859375
640,-1,-1,2,566,0,73,0.8861154446177847
641,-1,-1,2,567,0,73,0.8862928348909658
642,-1,-1,2,568,0,73,0.8864696734059098
643,-1,-1,2,569,0,73,0.8866459627329193
644,1,-1,2,569,0,74,0.8852713178294573
645,-1,-1,2,570,0,74,0.8854489164086687
646,-1,-1,2,571,0,74,0.8856259659969088
647,-1,-1,2,572,0,74,0.8858024691358025
648,-1,-1,2,573,0,74,0.8859784283513097
649,-1,-1,2,574,0,74,0.8861538461538462
650,-1,-1,2,575,0,74,0.8863287250384024
651,1,-1,2,575,0,75,0.8849693251533742
652,-1,-1,2,576,0,75,0.885145482388974
653,-1,-1,2,577,0,75,0.8853211009174312
654,1,-1,2,577,0,76,0.8839694656488549
655,-1,-1,2,578,0,76,0.8841463414634146
656,-1,-1,2,579,0,76,0.8843226788432268
657,-1,-1,2,580,0,76,0.8844984802431611
658,-1,-1,2,581,0,76,0.8846737481031867
659,-1,-1,2,582,0,76,0.8848484848484849
660,1,-1,2,582,0,77,0.8835098335854765
661,-1,-1,2,583,0,77,0.8836858006042296
662,-1,-1,2,584,0,77,0.8838612368024132
663,-1,-1,2,585,0,77,0.8840361445783133
664,-1,-1,2,586,0,77,0.8842105263157894
665,-1,-1,2,587,0,77,0.8843843843843844
666,1,-1,2,587,0,78,0.8830584707646177
667,-1,-1,2,588,0,78,0.8832335329341318
668,-1,-1,2,589,0,78,0.8834080717488789
669,-1,-1,2,590,0,78,0.8835820895522388
670,-1,-1,2,591,0,78,0.8837555886736215
671,-1,-1,2,592,0,78,0.8839285714285714
672,-1,-1,2,593,0,78,0.8841010401188707
673,-1,-1,2,594,0,78,0.884272997032641
674,-1,-1,2,595,0,78,0.8844444444444445
675,-1,-1,2,596,0,78,0.8846153846153846
676,-1,-1,2,597,0,78,0.8847858197932054
677,-1,-1,2,598,0,78,0.8849557522123894
678,-1,-1,2,599,0,78,0.8851251840942562
679,-1,-1,2,600,0,78,0.8852941176470588
680,1,-1,2,600,0,79,0.8839941262848752
681,-1,-1,2,601,0,79,0.8841642228739003
682,-1,-1,2,602,0,79,0.8843338213762811
683,-1,-1,2,603,0,79,0.8845029239766082
684,1,-1,2,603,0,80,0.8832116788321168
685,-1,-1,2,604,0,80,0.8833819241982507
686,1,-1,2,604,0,81,0.8820960698689956
687,-1,-1,2,605,0,81,0.8822674418604651
688,-1,-1,2,606,0,81,0.8824383164005806
689,-1,-1,2,607,0,81,0.8826086956521739
690,-1,-1,2,608,0,81,0.8827785817655571
691,-1,-1,2,609,0,81,0.8829479768786127
692,-1,-1,2,610,0,81,0.8831168831168831
693,-1,-1,2,611,0,81,0.8832853025936599
694,-1,-1,2,612,0,81,0.883453237410072
695,-1,-1,2,613,0,81,0.8836206896551724
696,-1,-1,2,614,0,81,0.8837876614060258
697,-1,-1,2,615,0,81,0.8839541547277937
698,-1,-1,2,616,0,81,0.8841201716738197
699,-1,-1,2,617,0,81,0.8842857142857142
700,-1,-1,2,618,0,81,0.884450784593438
701,-1,-1,2,619,0,81,0.8846153846153846
702,-1,-1,2,620,0,81,0.8847795163584637
703,-1,-1,2,621,0,81,0.8849431818181818
704,-1,-1,2,622,0,81,0.8851063829787233
705,-1,-1,2,623,0,81,0.8852691218130312
706,-1,-1,2,624,0,81,0.8854314002828855
707,1,-1,2,624,0,82,0.884180790960452
708,-1,-1,2,625,0,82,0.8843441466854725
709,-1,-1,2,626,0,82,0.8845070422535212
710,-1,-1,2,627,0,82,0.8846694796061885
711,-1,-1,2,628,0,82,0.8848314606741573
712,-1,-1,2,629,0,82,0.884992987377279
713,-1,-1,2,630,0,82,0.8851540616246498
714,-1,-1,2,631,0,82,0.8853146853146853
715,-1,-1,2,632,0,82,0.8854748603351955
716,-1,-1,2,633,0,82,0.8856345885634589
717,-1,-1,2,634,0,82,0.8857938718662952
718,-1,-1,2,635,0,82,0.885952712100139
719,1,-1,2,635,0,83,0.8847222222222222
720,-1,-1,2,636,0,83,0.8848821081830791
721,-1,-1,2,637,0,83,0.8850415512465374
722,-1,-1,2,638,0,83,0.8852005532503457
723,-1,-1,2,639,0,83,0.8853591160220995
724,-1,-1,2,640,0,83,0.8855172413793103
725,-1,-1,2,641,0,83,0.8856749311294766
726,-1,-1,2,642,0,83,0.8858321870701513
727,-1,-1,2,643,0,83,0.885989010989011
728,-1,-1,2,644,0,83,0.8861454046639232
729,-1,-1,2,645,0,83,0.8863013698630137
730,-1,-1,2,646,0,83,0.8864569083447332
731,-1,-1,2,647,0,83,0.8866120218579235
732,-1,-1,2,648,0,83,0.8867667121418826
733,1,-1,2,648,0,84,0.885558583106267
734,1,-1,2,648,0,85,0.8843537414965986
735,-1,-1,2,649,0,85,0.8845108695652174
736,-1,-1,2,650,0,85,0.8846675712347354
737,-1,-1,2,651,0,85,0.8848238482384824
738,-1,-1,2,652,0,85,0.8849797023004059
739,-1,-1,2,653,0,85,0.8851351351351351
740,-1,-1,2,654,0,85,0.8852901484480432
741,-1,-1,2,655,0,85,0.8854447439353099
742,-1,-1,2,656,0,85,0.8855989232839838
743,-1,-1,2,657,0,85,0.885752688172043
744,1,-1,2,657,0,86,0.8845637583892617
745,-1,-1,2,658,0,86,0.8847184986595175
746,-1,-1,2,659,0,86,0.8848728246318608
747,-1,-1,2,660,0,86,0.8850267379679144
748,-1,-1,2,661,0,86,0.8851802403204272
749,-1,-1,2,662,0,86,0.8853333333333333
750,1,-1,2,662,0,87,0.8841544607190412
751,-1,-1,2,663,0,87,0.8843085106382979
752,1,-1,2,663,0,88,0.8831341301460823
753,-1,-1,2,664,0,88,0.883289124668435
754,-1,-1,2,665,0,88,0.8834437086092716
755,-1,-1,2,666,0,88,0.8835978835978836
756,-1,-1,2,667,0,88,0.8837516512549538
757,-1,-1,2,668,0,88,0.8839050131926122
758,-1,-1,2,669,0,88,0.8840579710144928
759,-1,-1,2,670,0,88,0.8842105263157894
760,-1,-1,2,671,0,88,0.8843626806833115
761,-1,-1,2,672,0,88,0.884514435695538
762,-1,-1,2,673,0,88,0.8846657929226737
763,-1,-1,2,674,0,88,0.8848167539267016
764,-1,-1,2,675,0,88,0.8849673202614379
765,-1,-1,2,676,0,88,0.8851174934725848
766,-1,-1,2,677,0,88,0.8852672750977836
767,-1,-1,2,678,0,88,0.8854166666666666
768,-1,-1,2,679,0,88,0.8855656697009102
769,-1,-1,2,680,0,88,0.8857142857142857
770,-1,-1,2,681,0,88,0.8858625162127107
771,-1,-1,2,682,0,88,0.8860103626943006
772,-1,-1,2,683,0,88,0.8861578266494179
773,-1,-1,2,684,0,88,0.8863049095607235
774,-1,-1,2,685,0,88,0.8864516129032258
775,-1,-1,2,686,0,88,0.8865979381443299
776,-1,-1,2,687,0,88,0.8867438867438867
777,-1,-1,2,688,0,88,0.8868894601542416
778,-1,-1,2,689,0,88,0.8870346598202824
779,-1,-1,2,690,0,88,0.8871794871794871
780,1,-1,2,690,0,89,0.8860435339308579
781,-1,-1,2,691,0,89,0.8861892583120204
782,-1,-1,2,692,0,89,0.8863346104725415
783,-1,-1,2,693,0,89,0.8864795918367347
784,-1,-1,2,694,0,89,0.8866242038216561
785,-1,-1,2,695,0,89,0.8867684478371501
786,-1,-1,2,696,0,89,0.8869123252858958
787,1,-1,2,696,0,90,0.8857868020304569
788,-1,-1,2,697,0,90,0.8859315589353612
789,-1,-1,2,698,0,90,0.8860759493670886
790,-1,-1,2,699,0,90,0.8862199747155499
791,-1,-1,2,700,0,90,0.8863636363636364
792,-1,-1,2,701,0,90,0.8865069356872636
793,-1,-1,2,702,0,90,0.8866498740554156
794,-1,-1,2,703,0,90,0.8867924528301887
795,-1,-1,2,704,0,90,0.8869346733668342
796,-1,-1,2,705,0,90,0.8870765370138017
797,-1,-1,2,706,0,90,0.8872180451127819
798,-1,-1,2,707,0,90,0.8873591989987485
799,-1,-1,2,708,0,90,0.8875
800,-1,-1,2,709,0,90,0.8876404494382022
801,-1,-1,2,710,0,90,0.8877805486284289
802,-1,-1,2,711,0,90,0.887920298879203
803,-1,-1,2,712,0,90,0.8880597014925373
804,-1,-1,2,713,0,90,0.8881987577639752
805,-1,-1,2,714,0,90,0.8883374689826302
806,-1,-1,2,715,0,90,0.8884758364312267
807,-1,-1,2,716,0,90,0.8886138613861386
808,-1,-1,2,717,0,90,0.8887515451174289
809,-1,-1,2,718,0,90,0.8888888888888888
810,-1,-1,2,719,0,90,0.8890258939580764
811,-1,-1,2,720,0,90,0.8891625615763546
812,-1,-1,2,721,0,90,0.8892988929889298
813,-1,-1,2,722,0,90,0.8894348894348895
814,-1,-1,2,723,0,90,0.8895705521472392
815,-1,-1,2,724,0,90,0.8897058823529411
816,1,-1,2,724,0,91,0.8886168910648715
817,-1,-1,2,725,0,91,0.8887530562347188
818,-1,-1,2,726,0,91,0.8888888888888888
819,-1,-1,2,727,0,91,0.8890243902439025
820,-1,-1,2,728,0,91,0.8891595615103532
821,-1,-1,2,729,0,91,0.889294403892944
822,-1,-1,2,730,0,91,0.8894289185905225
823,-1,-1,2,731,0,91,0.8895631067961165
824,-1,-1,2,732,0,91,0.8896969696969697
825,-1,-1,2,733,0,91,0.8898305084745762
826,-1,-1,2,734,0,91,0.8899637243047158
827,-1,-1,2,735,0,91,0.8900966183574879
828,-1,-1,2,736,0,91,0.8902291917973462
829,-1,-1,2,737,0,91,0.8903614457831325
830,-1,-1,2,738,0,91,0.8904933814681107
831,-1,-1,2,739,0,91,0.890625
832,-1,-1,2,740,0,91,0.8907563025210085
833,-1,-1,2,741,0,91,0.8908872901678657
834,-1,-1,2,742,0,91,0.8910179640718563
835,-1,-1,2,743,0,91,0.8911483253588517
836,-1,-1,2,744,0,91,0.8912783751493429
837,-1,-1,2,745,0,91,0.8914081145584726
838,1,-1,2,745,0,92,0.8903456495828367
839,-1,-1,2,746,0,92,0.8904761904761904
840,-1,-1,2,747,0,92,0.8906064209274673
841,-1,-1,2,748,0,92,0.8907363420427553
842,-1,-1,2,749,0,92,0.8908659549228944
843,-1,-1,2,750,0,92,0.8909952606635071
844,-1,-1,2,751,0,92,0.8911242603550296
845,-1,-1,2,752,0,92,0.8912529550827423
846,-1,-1,2,753,0,92,0.8913813459268005
847,-1,-1,2,754,0,92,0.8915094339622641
848,-1,-1,2,755,0,92,0.8916372202591284
849,-1,-1,2,756,0,92,0.8917647058823529
850,-1,-1,2,757,0,92,0.8918918918918919
851,1,-1,2,757,0,93,0.8908450704225352
852,-1,-1,2,758,0,93,0.8909730363423212
853,1,-1,2,758,0,94,0.8899297423887588
854,-1,-1,2,759,0,94,0.8900584795321638
855,-1,-1,2,760,0,94,0.8901869158878505
856,-1,-1,2,761,0,94,0.8903150525087514
857,-1,-1,2,762,0,94,0.8904428904428905
858,-1,-1,2,763,0,94,0.8905704307334109
859,-1,-1,2,764,0,94,0.8906976744186047
860,-1,-1,2,765,0,94,0.8908246225319396
861,-1,-1,2,766,0,94,0.8909512761020881
862,-1,-1,2,767,0,94,0.8910776361529548
863,-1,-1,2,768,0,94,0.8912037037037037
864,-1,-1,2,769,0,94,0.8913294797687862
865,-1,-1,2,770,0,94,0.8914549653579676
866,-1,-1,2,771,0,94,0.8915801614763552
867,-1,-1,2,772,0,94,0.8917050691244239
868,-1,-1,2,773,0,94,0.8918296892980437
869,-1,-1,2,774,0,94,0.8919540229885058
870,-1,-1,2,775,0,94,0.8920780711825488
871,-1,-1,2,776,0,94,0.8922018348623854
872,-1,-1,2,777,0,94,0.8923253150057274
873,-1,-1,2,778,0,94,0.8924485125858124
874,-1,-1,2,779,0,94,0.8925714285714286
875,-1,-1,2,780,0,94,0.8926940639269406
876,-1,-1,2,781,0,94,0.8928164196123147
877,-1,-1,2,782,0,94,0.8929384965831435
878,-1,-1,2,783,0,94,0.8930602957906713
879,-1,-1,2,784,0,94,0.8931818181818182
880,-1,-1,2,785,0,94,0.8933030646992054
881,-1,-1,2,786,0,94,0.8934240362811792
882,-1,-1,2,787,0,94,0.8935447338618346
883,-1,-1,2,788,0,94,0.8936651583710408
884,1,-1,2,788,0,95,0.8926553672316384
885,-1,-1,2,789,0,95,0.8927765237020316
886,-1,-1,2,790,0,95,0.8928974069898534
887,-1,-1,2,791,0,95,0.8930180180180181
888,-1,-1,2,792,0,95,0.8931383577052868
889,-1,-1,2,793,0,95,0.8932584269662921
890,-1,-1,2,794,0,95,0.8933782267115601
891,-1,-1,2,795,0,95,0.8934977578475336
892,-1,-1,2,796,0,95,0.8936170212765957
893,-1,-1,2,797,0,95,0.8937360178970917
894,-1,-1,2,798,0,95,0.8938547486033519
895,-1,-1,2,799,0,95,0.8939732142857143
896,-1,-1,2,800,0,95,0.8940914158305463
897,-1,-1,2,801,0,95,0.8942093541202673
898,-1,-1,2,802,0,95,0.8943270300333704
899,-1,-1,2,803,0,95,0.8944444444444445
900,-1,-1,2,804,0,95,0.8945615982241953
901,-1,-1,2,805,0,95,0.8946784922394678
902,-1,-1,2,806,0,95,0.8947951273532669
903,-1,-1,2,807,0,95,0.8949115044247787
904,-1,-1,2,808,0,95,0.8950276243093923
905,-1,-1,2,809,0,95,0.8951434878587197
906,-1,-1,2,810,0,95,0.8952590959206174
907,-1,-1,2,811,0,95,0.8953744493392071
908,-1,-1,2,812,0,95,0.8954895489548955
909,-1,-1,2,813,0,95,0.8956043956043956
910,-1,-1,2,814,0,95,0.8957189901207464
911,-1,-1,2,815,0,95,0.8958333333333334
912,-1,-1,2,816,0,95,0.895947426067908
913,-1,-1,2,817,0,95,0.8960612691466083
914,-1,-1,2,818,0,95,0.8961748633879781
915,-1,-1,2,819,0,95,0.8962882096069869
916,-1,-1,2,820,0,95,0.8964013086150491
917,-1,-1,2,821,0,95,0.8965141612200436
918,-1,-1,2,822,0,95,0.8966267682263329
919,-1,-1,2,823,0,95,0.8967391304347826
920,-1,-1,2,824,0,95,0.8968512486427795
921,1,-1,2,824,0,96,0.89587852494577
922,1,-1,2,824,0,97,0.894907908992416
923,1,-1,2,824,0,98,0.8939393939393939
924,-1,-1,2,825,0,98,0.894054054054054
925,-1,-1,2,826,0,98,0.8941684665226782
926,-1,-1,2,827,0,98,0.8942826321467098
927,-1,-1,2,828,0,98,0.8943965517241379
928,-1,-1,2,829,0,98,0.8945102260495156
929,-1,-1,2,830,0,98,0.8946236559139785
930,-1,-1,2,831,0,98,0.8947368421052632
931,-1,-1,2,832,0,98,0.8948497854077253
932,-1,-1,2,833,0,98,0.894962486602358
933,-1,-1,2,834,0,98,0.8950749464668094
934,-1,-1,2,835,0,98,0.895187165775401
935,-1,-1,2,836,0,98,0.8952991452991453
936,-1,-1,2,837,0,98,0.8954108858057631
937,-1,-1,2,838,0,98,0.8955223880597015
938,1,-1,2,838,0,99,0.8945686900958466
939,-1,-1,2,839,0,99,0.8946808510638298
940,1,-1,2,839,0,100,0.8937300743889479
941,-1,-1,2,840,0,100,0.8938428874734607
942,-1,-1,2,841,0,100,0.8939554612937434
943,-1,-1,2,842,0,100,0.8940677966101694
944,-1,-1,2,843,0,100,0.8941798941798942
945,-1,-1,2,844,0,100,0.8942917547568711
946,-1,-1,2,845,0,100,0.8944033790918691
947,-1,-1,2,846,0,100,0.8945147679324894
948,-1,-1,2,847,0,100,0.8946259220231823
949,-1,-1,2,848,0,100,0.8947368421052632
950,-1,-1,2,849,0,100,0.8948475289169295
951,1,-1,2,849,0,101,0.8939075630252101
952,-1,-1,2,850,0,101,0.8940188877229801
953,-1,-1,2,851,0,101,0.8941299790356394
954,-1,-1,2,852,0,101,0.8942408376963351
955,-1,-1,2,853,0,101,0.8943514644351465
956,-1,-1,2,854,0,101,0.8944618599791013
957,-1,-1,2,855,0,101,0.894572025052192
958,-1,-1,2,856,0,101,0.894681960375391
959,-1,-1,2,857,0,101,0.8947916666666667
960,1,-1,2,857,0,102,0.8938605619146722
961,-1,-1,2,858,0,102,0.893970893970894
962,-1,-1,2,859,0,102,0.8940809968847352
963,-1,-1,2,860,0,102,0.8941908713692946
964,-1,-1,2,861,0,102,0.894300518134715
965,-1,-1,2,862,0,102,0.8944099378881988
966,-1,-1,2,863,0,102,0.8945191313340227
967,1,-1,2,863,0,103,0.893595041322314
968,-1,-1,2,864,0,103,0.8937048503611971
969,1,-1,2,864,0,104,0.8927835051546392
970,1,-1,2,864,0,105,0.8918640576725025
971,-1,-1,2,865,0,105,0.8919753086419753
972,-1,-1,2,866,0,105,0.8920863309352518
973,-1,-1,2,867,0,105,0.8921971252566735
974,-1,-1,2,868,0,105,0.8923076923076924
975,-1,-1,2,869,0,105,0.8924180327868853
976,-1,-1,2,870,0,105,0.8925281473899693
977,-1,-1,2,871,0,105,0.8926380368098159
978,-1,1,2,871,1,105,0.891726251276813
979,1,-1,2,871,1,106,0.8908163265306123
980,-1,-1,2,872,1,106,0.890927624872579
981,1,-1,2,872,1,107,0.890020366598778
982,-1,-1,2,873,1,107,0.8901322482197355
983,-1,-1,2,874,1,107,0.8902439024390244
984,-1,-1,2,875,1,107,0.8903553299492386
985,-1,-1,2,876,1,107,0.8904665314401623
986,-1,-1,2,877,1,107,0.8905775075987842
987,-1,-1,2,878,1,107,0.8906882591093117
988,-1,-1,2,879,1,107,0.890798786653185
989,-1,-1,2,880,1,107,0.8909090909090909
990,-1,-1,2,881,1,107,0.8910191725529768
991,-1,-1,2,882,1,107,0.8911290322580645
992,-1,-1,2,883,1,107,0.8912386706948641
993,-1,-1,2,884,1,107,0.8913480885311871
994,-1,-1,2,885,1,107,0.8914572864321608
995,-1,-1,2,886,1,107,0.891566265060241
996,-1,-1,2,887,1,107,0.8916750250752257
997,-1,-1,2,888,1,107,0.8917835671342685
998,-1,-1,2,889,1,107,0.8918918918918919
999,-1,-1,2,890,1,107,0.892
1000,-1,-1,2,891,1,107,0.8921078921078921
1001,-1,-1,2,892,1,107,0.8922155688622755
1002,-1,-1,2,893,1,107,0.8923230309072782
1003,-1,-1,2,894,1,107,0.8924302788844621
1004,-1,-1,2,895,1,107,0.8925373134328358
1005,-1,-1,2,896,1,107,0.8926441351888668
1006,-1,-1,2,897,1,107,0.8927507447864945
1007,-1,-1,2,898,1,107,0.8928571428571429
1008,1,-1,2,898,1,108,0.8919722497522299
1009,-1,-1,2,899,1,108,0.8920792079207921
1010,-1,-1,2,900,1,108,0.8921859545004945
1011,-1,-1,2,901,1,108,0.892292490118577
1012,-1,-1,2,902,1,108,0.8923988153998026
1013,-1,-1,2,903,1,108,0.8925049309664694
1014,-1,-1,2,904,1,108,0.8926108374384236
1015,-1,-1,2,905,1,108,0.8927165354330708
1016,-1,-1,2,906,1,108,0.8928220255653884
1017,-1,-1,2,907,1,108,0.8929273084479371
1018,-1,-1,2,908,1,108,0.8930323846908734
1019,-1,-1,2,909,1,108,0.8931372549019608
1020,-1,-1,2,910,1,108,0.8932419196865817
1021,-1,-1,2,911,1,108,0.8933463796477495
1022,-1,-1,2,912,1,108,0.8934506353861192
1023,-1,-1,2,913,1,108,0.8935546875
1024,-1,-1,2,914,1,108,0.8936585365853659
1025,-1,-1,2,915,1,108,0.8937621832358674
1026,-1,-1,2,916,1,108,0.8938656280428432
1027,-1,-1,2,917,1,108,0.8939688715953308
1028,-1,-1,2,918,1,108,0.8940719144800777
1029,-1,-1,2,919,1,108,0.8941747572815534
1030,-1,1,2,919,2,108,0.8933074684772065
1031,-1,-1,2,920,2,108,0.8934108527131783
1032,-1,-1,2,921,2,108,0.89351403678606
1033,-1,-1,2,922,2,108,0.8936170212765957
1034,-1,-1,2,923,2,108,0.893719806763285
1035,-1,-1,2,924,2,108,0.8938223938223938
1036,-1,-1,2,925,2,108,0.8939247830279653
1037,-1,-1,2,926,2,108,0.8940269749518305
1038,-1,-1,2,927,2,108,0.8941289701636189
1039,-1,-1,2,928,2,108,0.8942307692307693
1040,-1,-1,2,929,2,108,0.8943323727185398
1041,-1,-1,2,930,2,108,0.8944337811900192
1042,-1,-1,2,931,2,108,0.8945349952061361
1043,-1,-1,2,932,2,108,0.8946360153256705
1044,-1,-1,2,933,2,108,0.8947368421052632
1045,-1,-1,2,934,2,108,0.8948374760994264
1046,-1,-1,2,935,2,108,0.894937917860554
1047,-1,-1,2,936,2,108,0.8950381679389313
1048,-1,-1,2,937,2,108,0.8951382268827455
1049,-1,-1,2,938,2,108,0.8952380952380953
1050,-1,-1,2,939,2,108,0.8953377735490009
1051,-1,-1,2,940,2,108,0.8954372623574145
1052,-1,-1,2,941,2,108,0.8955365622032289
1053,-1,-1,2,942,2,108,0.8956356736242884
1054,-1,-1,2,943,2,108,0.8957345971563981
1055,-1,-1,2,944,2,108,0.8958333333333334
1056,-1,-1,2,945,2,108,0.8959318826868495
1057,-1,-1,2,946,2,108,0.8960302457466919
1058,-1,-1,2,947,2,108,0.8961284230406044
1059,-1,-1,2,948,2,108,0.8962264150943396
1060,1,-1,2,948,2,109,0.8953817153628653
1061,-1,-1,2,949,2,109,0.8954802259887006
1062,-1,-1,2,950,2,109,0.8955785512699906
1063,-1,-1,2,951,2,109,0.8956766917293233
1064,1,-1,2,951,2,110,0.8948356807511737
1065,-1,-1,2,952,2,110,0.8949343339587242
1066,1,-1,2,952,2,111,0.8940955951265229
1067,-1,-1,2,953,2,111,0.8941947565543071
1068,1,-1,2,953,2,112,0.8933582787652011
1069,-1,-1,2,954,2,112,0.8934579439252337
1070,-1,-1,2,955,2,112,0.8935574229691877
1071,-1,-1,2,956,2,112,0.8936567164179104
1072,-1,-1,2,957,2,112,0.8937558247903076
1073,-1,-1,2,958,2,112,0.8938547486033519
1074,-1,-1,2,959,2,112,0.893953488372093
1075,-1,-1,2,960,2,112,0.8940520446096655
1076,-1,-1,2,961,2,112,0.8941504178272981
1077,-1,-1,2,962,2,112,0.8942486085343229
1078,-1,-1,2,963,2,112,0.8943466172381835
1079,-1,-1,2,964,2,112,0.8944444444444445
1080,-1,-1,2,965,2,112,0.8945420906567992
1081,-1,-1,2,966,2,112,0.8946395563770795
1082,1,-1,2,966,2,113,0.8938134810710988
1083,-1,-1,2,967,2,113,0.8939114391143912
1084,-1,-1,2,968,2,113,0.8940092165898618
1085,-1,-1,2,969,2,113,0.8941068139963168
1086,-1,-1,2,970,2,113,0.8942042318307267
1087,-1,-1,2,971,2,113,0.8943014705882353
1088,-1,-1,2,972,2,113,0.8943985307621671
1089,-1,-1,2,973,2,113,0.8944954128440367
1090,-1,-1,2,974,2,113,0.8945921173235564
1091,-1,-1,2,975,2,113,0.8946886446886447
1092,-1,-1,2,976,2,113,0.8947849954254345
1093,-1,-1,2,977,2,113,0.8948811700182815
1094,-1,-1,2,978,2,113,0.8949771689497716
1095,-1,-1,2,979,2,113,0.8950729927007299
1096,-1,-1,2,980,2,113,0.8951686417502279
1097,-1,-1,2,981,2,113,0.895264116575592
1098,-1,-1,2,982,2,113,0.8953594176524113
1099,-1,-1,2,983,2,113,0.8954545454545455
1100,-1,-1,2,984,2,113,0.8955495004541326
1101,-1,-1,2,985,2,113,0.895644283121597
1102,-1,-1,2,986,2,113,0.8957388939256573
1103,-1,-1,2,987,2,113,0.8958333333333334
1104,1,-1,2,987,2,114,0.8950226244343892
1105,-1,-1,2,988,2,114,0.895117540687161
1106,1,-1,2,988,2,115,0.8943089430894309
1107,-1,-1,2,989,2,115,0.894404332129964
1108,-1,-1,2,990,2,115,0.8944995491433724
1109,-1,-1,2,991,2,115,0.8945945945945946
1110,-1,-1,2,992,2,115,0.8946894689468947
1111,-1,-1,2,993,2,115,0.8947841726618705
1112,-1,-1,2,994,2,115,0.894878706199461
1113,-1,-1,2,995,2,115,0.8949730700179533
1114,1,-1,2,995,2,116,0.8941704035874439
1115,-1,-1,2,996,2,116,0.8942652329749103
1116,-1,-1,2,997,2,116,0.8943598925693823
1117,-1,-1,2,998,2,116,0.8944543828264758
1118,-1,-1,2,999,2,116,0.8945487042001787
1119,-1,-1,2,1000,2,116,0.8946428571428572
1120,-1,-1,2,1001,2,116,0.8947368421052632
1121,-1,-1,2,1002,2,116,0.8948306595365418
1122,-1,-1,2,1003,2,116,0.8949243098842387
1123,-1,-1,2,1004,2,116,0.895017793594306
1124,-1,-1,2,1005,2,116,0.8951111111111111
1125,-1,-1,2,1006,2,116,0.8952042628774423
1126,-1,-1,2,1007,2,116,0.8952972493345164
1127,-1,-1,2,1008,2,116,0.8953900709219859
1128,-1,-1,2,1009,2,116,0.895482728077945
1129,-1,-1,2,1010,2,116,0.8955752212389381
1130,-1,-1,2,1011,2,116,0.8956675508399646
1131,-1,-1,2,1012,2,116,0.8957597173144877
1132,-1,-1,2,1013,2,116,0.8958517210944396
1133,-1,-1,2,1014,2,116,0.8959435626102292
1134,-1,-1,2,1015,2,116,0.8960352422907489
1135,-1,-1,2,1016,2,116,0.8961267605633803
1136,1,-1,2,1016,2,117,0.8953386103781882
1137,-1,-1,2,1017,2,117,0.8954305799648506
1138,-1,-1,2,1018,2,117,0.8955223880597015
1139,-1,-1,2,1019,2,117,0.8956140350877193
1140,-1,-1,2,1020,2,117,0.8957055214723927
1141,-1,-1,2,1021,2,117,0.8957968476357268
1142,-1,-1,2,1022,2,117,0.8958880139982502
1143,-1,-1,2,1023,2,117,0.8959790209790209
1144,-1,-1,2,1024,2,117,0.8960698689956332
1145,-1,-1,2,1025,2,117,0.8961605584642234
1146,-1,-1,2,1026,2,117,0.8962510897994769
1147,-1,-1,2,1027,2,117,0.8963414634146342
1148,-1,-1,2,1028,2,117,0.896431679721497
1149,-1,-1,2,1029,2,117,0.8965217391304348
1150,-1,-1,2,1030,2,117,0.896611642050391
1151,-1,-1,2,1031,2,117,0.8967013888888888
1152,-1,-1,2,1032,2,117,0.8967909800520382
1153,-1,-1,2,1033,2,117,0.8968804159445407
1154,-1,-1,2,1034,2,117,0.896969696969697
1155,1,-1,2,1034,2,118,0.8961937716262975
1156,-1,-1,2,1035,2,118,0.8962834917891098
1157,-1,-1,2,1036,2,118,0.8963730569948186
1158,-1,-1,2,1037,2,118,0.8964624676445211
1159,-1,-1,2,1038,2,118,0.896551724137931
1160,-1,-1,2,1039,2,118,0.896640826873385
1161,-1,-1,2,1040,2,118,0.8967297762478486
1162,-1,-1,2,1041,2,118,0.8968185726569218
1163,-1,-1,2,1042,2,118,0.8969072164948454
1164,-1,-1,2,1043,2,118,0.8969957081545065
1165,-1,-1,2,1044,2,118,0.8970840480274442
1166,-1,-1,2,1045,2,118,0.897172236503856
1167,-1,-1,2,1046,2,118,0.8972602739726028
1168,-1,-1,2,1047,2,118,0.8973481608212147
1169,-1,-1,2,1048,2,118,0.8974358974358975
1170,-1,-1,2,1049,2,118,0.8975234842015372
1171,1,-1,2,1049,2,119,0.8967576791808873
1172,-1,-1,2,1050,2,119,0.896845694799659
1173,-1,-1,2,1051,2,119,0.8969335604770017
1174,-1,-1,2,1052,2,119,0.8970212765957447
1175,1,-1,2,1052,2,120,0.8962585034013606
1176,-1,-1,2,1053,2,120,0.8963466440101954
1177,1,-1,2,1053,2,121,0.8955857385398981
1178,-1,-1,2,1054,2,121,0.8956743002544529
1179,-1,-1,2,1055,2,121,0.8957627118644068
1180,-1,-1,2,1056,2,121,0.8958509737510584
1181,-1,-1,2,1057,2,121,0.8959390862944162
1182,-1,-1,2,1058,2,121,0.8960270498732037
1183,-1,-1,2,1059,2,121,0.8961148648648649
1184,-1,-1,2,1060,2,121,0.8962025316455696
1185,-1,-1,2,1061,2,121,0.8962900505902193
1186,-1,-1,2,1062,2,121,0.8963774220724515
1187,-1,-1,2,1063,2,121,0.8964646464646465
1188,-1,-1,2,1064,2,121,0.896551724137931
1189,-1,-1,2,1065,2,121,0.8966386554621849
1190,-1,-1,2,1066,2,121,0.8967254408060453
1191,-1,-1,2,1067,2,121,0.8968120805369127
1192,-1,-1,2,1068,2,121,0.8968985750209556
1193,-1,-1,2,1069,2,121,0.8969849246231156
1194,-1,-1,2,1070,2,121,0.897071129707113
1195,-1,-1,2,1071,2,121,0.8971571906354515
1196,-1,-1,2,1072,2,121,0.8972431077694235
1197,-1,-1,2,1073,2,121,0.8973288814691152
1198,-1,-1,2,1074,2,121,0.8974145120934112
1199,1,-1,2,1074,2,122,0.8966666666666666
1200,-1,-1,2,1075,2,122,0.8967527060782681
1201,-1,-1,2,1076,2,122,0.8968386023294509
1202,-1,-1,2,1077,2,122,0.8969243557772236
1203,-1,-1,2,1078,2,122,0.8970099667774086
1204,-1,-1,2,1079,2,122,0.8970954356846473
1205,-1,-1,2,1080,2,122,0.8971807628524047
1206,-1,-1,2,1081,2,122,0.8972659486329743
1207,-1,-1,2,1082,2,122,0.8973509933774835
1208,-1,-1,2,1083,2,122,0.8974358974358975
1209,-1,-1,2,1084,2,122,0.8975206611570248
1210,-1,-1,2,1085,2,122,0.8976052848885219
1211,-1,-1,2,1086,2,122,0.8976897689768977
1212,-1,-1,2,1087,2,122,0.8977741137675186
1213,-1,-1,2,1088,2,122,0.8978583196046128
1214,-1,-1,2,1089,2,122,0.8979423868312757
1215,-1,-1,2,1090,2,122,0.8980263157894737
1216,-1,-1,2,1091,2,122,0.8981101068200493
1217,-1,-1,2,1092,2,122,0.8981937602627258
1218,-1,-1,2,1093,2,122,0.8982772764561116
1219,-1,-1,2,1094,2,122,0.898360655737705
1220,1,-1,2,1094,2,123,0.8976248976248976
1221,1,-1,2,1094,2,124,0.8968903436988543
1222,1,-1,2,1094,2,125,0.8961569910057237
1223,-1,-1,2,1095,2,125,0.8962418300653595
1224,-1,-1,2,1096,2,125,0.8963265306122449
1225,-1,-1,2,1097,2,125,0.8964110929853181
1226,-1,-1,2,1098,2,125,0.8964955175224124
1227,-1,-1,2,1099,2,125,0.8965798045602605
1228,-1,-1,2,1100,2,125,0.8966639544344996
1229,-1,-1,2,1101,2,125,0.8967479674796748
1230,-1,-1,2,1102,2,125,0.8968318440292445
1231,1,-1,2,1102,2,126,0.8961038961038961
1232,-1,-1,2,1103,2,126,0.8961881589618816
1233,-1,-1,2,1104,2,126,0.8962722852512156
1234,-1,-1,2,1105,2,126,0.8963562753036437
1235,-1,-1,2,1106,2,126,0.8964401294498382
1236,-1,-1,2,1107,2,126,0.8965238480194018
1237,-1,-1,2,1108,2,126,0.8966074313408724
1238,-1,-1,2,1109,2,126,0.8966908797417272
1239,-1,-1,2,1110,2,126,0.896774193548387
1240,-1,-1,2,1111,2,126,0.8968573730862208
1241,-1,-1,2,1112,2,126,0.8969404186795491
1242,-1,-1,2,1113,2,126,0.8970233306516492
1243,-1,-1,2,1114,2,126,0.8971061093247589
1244,-1,-1,2,1115,2,126,0.8971887550200803
1245,-1,-1,2,1116,2,126,0.8972712680577849
1246,-1,-1,2,1117,2,126,0.8973536487570168
1247,-1,-1,2,1118,2,126,0.8974358974358975
1248,-1,-1,2,1119,2,126,0.8975180144115292
1249,-1,-1,2,1120,2,126,0.8976
1250,-1,-1,2,1121,2,126,0.8976818545163869
1251,-1,-1,2,1122,2,126,0.8977635782747604
1252,-1,-1,2,1123,2,126,0.8978451715881883
1253,-1,-1,2,1124,2,126,0.89792663476874
1254,-1,-1,2,1125,2,126,0.8980079681274901
1255,-1,-1,2,1126,2,126,0.8980891719745223
1256,1,-1,2,1126,2,127,0.8973747016706444
1257,-1,-1,2,1127,2,127,0.8974562798092209
1258,-1,-1,2,1128,2,127,0.897537728355838
1259,-1,-1,2,1129,2,127,0.8976190476190476
1260,-1,-1,2,1130,2,127,0.8977002379064235
1261,1,-1,2,1130,2,128,0.8969889064976229
1262,-1,-1,2,1131,2,128,0.897070467141726
1263,-1,-1,2,1132,2,128,0.8971518987341772
1264,-1,-1,2,1133,2,128,0.8972332015810277
1265,1,-1,2,1133,2,129,0.8965244865718799
1266,-1,-1,2,1134,2,129,0.8966061562746646
1267,-1,-1,2,1135,2,129,0.8966876971608833
1268,-1,-1,2,1136,2,129,0.8967691095350669
1269,-1,-1,2,1137,2,129,0.8968503937007875
1270,-1,-1,2,1138,2,129,0.8969315499606609
1271,-1,-1,2,1139,2,129,0.8970125786163522
1272,-1,-1,2,1140,2,129,0.8970934799685781
1273,-1,-1,2,1141,2,129,0.8971742543171115
1274,-1,-1,2,1142,2,129,0.8972549019607843
1275,-1,-1,2,1143,2,129,0.8973354231974922
1276,-1,-1,2,1144,2,129,0.8974158183241974
1277,-1,-1,2,1145,2,129,0.8974960876369327
1278,-1,-1,2,1146,2,129,0.8975762314308053
1279,-1,-1,2,1147,2,129,0.89765625
1280,-1,-1,2,1148,2,129,0.897736143637783
1281,-1,-1,2,1149,2,129,0.8978159126365055
1282,1,-1,2,1149,2,130,0.897116134060795
1283,-1,-1,2,1150,2,130,0.897196261682243
1284,-1,-1,2,1151,2,130,0.8972762645914397
1285,1,-1,2,1151,2,131,0.8965785381026439
1286,-1,-1,2,1152,2,131,0.8966588966588966
1287,1,-1,2,1152,2,132,0.8959627329192547
1288,-1,-1,2,1153,2,132,0.8960434445306439
1289,-1,-1,2,1154,2,132,0.896124031007752
1290,-1,-1,2,1155,2,132,0.8962044926413633
1291,1,-1,2,1155,2,133,0.8955108359133127
1292,-1,-1,2,1156,2,133,0.8955916473317865
1293,-1,-1,2,1157,2,133,0.8956723338485317
1294,-1,-1,2,1158,2,133,0.8957528957528957
1295,-1,-1,2,1159,2,133,0.8958333333333334
1296,-1,-1,2,1160,2,133,0.8959136468774094
1297,-1,-1,2,1161,2,133,0.8959938366718028
1298,1,-1,2,1161,2,134,0.8953040800615858
1299,-1,-1,2,1162,2,134,0.8953846153846153
1300,-1,-1,2,1163,2,134,0.8954650269023828
1301,-1,-1,2,1164,2,134,0.8955453149001537
1302,-1,-1,2,1165,2,134,0.8956254796623178
1303,-1,-1,2,1166,2,134,0.8957055214723927
1304,-1,-1,2,1167,2,134,0.8957854406130268
1305,1,-1,2,1167,2,135,0.8950995405819295
1306,-1,-1,2,1168,2,135,0.8951798010711554
1307,-1,-1,2,1169,2,135,0.8952599388379205
1308,-1,-1,2,1170,2,135,0.8953399541634836
1309,-1,-1,2,1171,2,135,0.8954198473282443
1310,-1,-1,2,1172,2,135,0.8954996186117468
1311,-1,-1,2,1173,2,135,0.895579268292683
1312,-1,-1,2,1174,2,135,0.8956587966488957
1313,-1,-1,2,1175,2,135,0.895738203957382
1314,1,-1,2,1175,2,136,0.8950570342205323
1315,-1,-1,2,1176,2,136,0.8951367781155015
1316,-1,-1,2,1177,2,136,0.8952164009111617
1317,1,-1,2,1177,2,137,0.8945371775417299
1318,-1,-1,2,1178,2,137,0.8946171341925702
1319,-1,-1,2,1179,2,137,0.8946969696969697
1320,-1,-1,2,1180,2,137,0.894776684330053
1321,-1,-1,2,1181,2,137,0.8948562783661119
1322,-1,-1,2,1182,2,137,0.8949357520786092
1323,-1,-1,2,1183,2,137,0.8950151057401813
1324,-1,-1,2,1184,2,137,0.8950943396226415
1325,-1,-1,2,1185,2,137,0.8951734539969834
1326,-1,-1,2,1186,2,137,0.8952524491333835
1327,-1,-1,2,1187,2,137,0.8953313253012049
1328,-1,-1,2,1188,2,137,0.8954100827689992
1329,-1,-1,2,1189,2,137,0.8954887218045112
1330,-1,-1,2,1190,2,137,0.8955672426746807
1331,-1,-1,2,1191,2,137,0.8956456456456456
1332,-1,-1,2,1192,2,137,0.8957239309827457
1333,-1,-1,2,1193,2,137,0.8958020989505248
1334,-1,-1,2,1194,2,137,0.8958801498127341
1335,-1,-1,2,1195,2,137,0.8959580838323353
1336,-1,-1,2,1196,2,137,0.8960359012715033
1337,-1,-1,2,1197,2,137,0.8961136023916293
1338,-1,-1,2,1198,2,137,0.8961911874533234
1339,-1,-1,2,1199,2,137,0.8962686567164179
1340,-1,-1,2,1200,2,137,0.8963460104399702
1341,-1,-1,2,1201,2,137,0.8964232488822653
1342,-1,-1,2,1202,2,137,0.896500372300819
1343,-1,-1,2,1203,2,137,0.8965773809523809
1344,1,-1,2,1203,2,138,0.895910780669145
1345,-1,-1,2,1204,2,138,0.8959881129271917
1346,-1,-1,2,1205,2,138,0.8960653303637713
1347,-1,-1,2,1206,2,138,0.8961424332344213
1348,-1,-1,2,1207,2,138,0.8962194217939214
1349,-1,-1,2,1208,2,138,0.8962962962962963
1350,-1,-1,2,1209,2,138,0.8963730569948186
1351,-1,-1,2,1210,2,138,0.8964497041420119
1352,-1,-1,2,1211,2,138,0.8965262379896526
1353,-1,-1,2,1212,2,138,0.896602658788774
1354,-1,-1,2,1213,2,138,0.8966789667896679
1355,-1,-1,2,1214,2,138,0.8967551622418879
1356,-1,-1,2,1215,2,138,0.8968312453942521
1357,1,-1,2,1215,2,139,0.8961708394698086
1358,-1,-1,2,1216,2,139,0.8962472406181016
1359,1,1,3,1216,2,139,0.8963235294117647
1360,-1,-1,3,1217,2,139,0.896399706098457
1361,1,-1,3,1217,2,140,0.895741556534508
1362,-1,-1,3,1218,2,140,0.8958180484225972
1363,-1,-1,3,1219,2,140,0.8958944281524927
1364,-1,-1,3,1220,2,140,0.895970695970696
1365,-1,-1,3,1221,2,140,0.8960468521229868
1366,-1,-1,3,1222,2,140,0.8961228968544257
1367,-1,-1,3,1223,2,140,0.8961988304093568
1368,-1,-1,3,1224,2,140,0.8962746530314097
1369,-1,-1,3,1225,2,140,0.8963503649635036
1370,1,-1,3,1225,2,141,0.8956965718453683
1371,-1,-1,3,1226,2,141,0.8957725947521866
1372,-1,-1,3,1227,2,141,0.8958485069191552
1373,-1,-1,3,1228,2,141,0.895924308588064
1374,-1,-1,3,1229,2,141,0.896
1375,-1,-1,3,1230,2,141,0.8960755813953488
1376,1,-1,3,1230,2,142,0.8954248366013072
1377,-1,-1,3,1231,2,142,0.895500725689405
1378,-1,-1,3,1232,2,142,0.8955765047135605
1379,-1,-1,3,1233,2,142,0.8956521739130435
1380,-1,-1,3,1234,2,142,0.8957277335264301
1381,-1,-1,3,1235,2,142,0.8958031837916064
1382,-1,-1,3,1236,2,142,0.89587852494577
1383,-1,-1,3,1237,2,142,0.8959537572254336
1384,1,-1,3,1237,2,143,0.8953068592057761
1385,-1,-1,3,1238,2,143,0.8953823953823954
1386,-1,-1,3,1239,2,143,0.8954578226387887
1387,1,-1,3,1239,2,144,0.8948126801152738
1388,-1,-1,3,1240,2,144,0.8948884089272858
1389,-1,-1,3,1241,2,144,0.8949640287769784
1390,-1,-1,3,1242,2,144,0.895039539899353
1391,-1,-1,3,1243,2,144,0.8951149425287356
1392,-1,-1,3,1244,2,144,0.8951902368987796
1393,-1,-1,3,1245,2,144,0.8952654232424677
1394,-1,-1,3,1246,2,144,0.8953405017921147
1395,-1,-1,3,1247,2,144,0.8954154727793696
1396,-1,-1,3,1248,2,144,0.8954903364352184
1397,-1,-1,3,1249,2,144,0.8955650929899857
1398,-1,-1,3,1250,2,144,0.8956397426733381
1399,-1,-1,3,1251,2,144,0.8957142857142857
1400,-1,-1,3,1252,2,144,0.8957887223411849
1401,-1,-1,3,1253,2,144,0.8958630527817404
1402,-1,-1,3,1254,2,144,0.8959372772630079
1403,-1,-1,3,1255,2,144,0.896011396011396
1404,-1,-1,3,1256,2,144,0.896085409252669
1405,-1,-1,3,1257,2,144,0.8961593172119487
1406,1,-1,3,1257,2,145,0.8955223880597015
1407,-1,-1,3,1258,2,145,0.8955965909090909
1408,-1,-1,3,1259,2,145,0.8956706884315118
1409,-1,-1,3,1260,2,145,0.8957446808510638
1410,-1,-1,3,1261,2,145,0.8958185683912119
1411,-1,-1,3,1262,2,145,0.8958923512747875
1412,-1,-1,3,1263,2,145,0.8959660297239915
1413,-1,-1,3,1264,2,145,0.8960396039603961
1414,-1,-1,3,1265,2,145,0.896113074204947
1415,-1,-1,3,1266,2,145,0.8961864406779662
1416,-1,-1,3,1267,2,145,0.8962597035991532
1417,1,-1,3,1267,2,146,0.8956276445698167
1418,-1,-1,3,1268,2,146,0.8957011980267794
1419,-1,-1,3,1269,2,146,0.895774647887324
1420,-1,-1,3,1270,2,146,0.8958479943701618
1421,-1,-1,3,1271,2,146,0.8959212376933896
1422,-1,-1,3,1272,2,146,0.8959943780744906
1423,-1,-1,3,1273,2,146,0.8960674157303371
1424,1,-1,3,1273,2,147,0.895438596491228
1425,-1,-1,3,1274,2,147,0.8955119214586256
1426,-1,-1,3,1275,2,147,0.8955851436580238
1427,1,-1,3,1275,2,148,0.8949579831932774
1428,-1,-1,3,1276,2,148,0.8950314905528342
1429,-1,-1,3,1277,2,148,0.8951048951048951
1430,-1,-1,3,1278,2,148,0.8951781970649895
1431,-1,-1,3,1279,2,148,0.8952513966480447
1432,1,-1,3,1279,2,149,0.8946266573621773
1433,-1,-1,3,1280,2,149,0.8947001394700139
1434,-1,-1,3,1281,2,149,0.894773519163763
1435,-1,-1,3,1282,2,149,0.8948467966573816
1436,-1,-1,3,1283,2,149,0.894919972164231
1437,-1,-1,3,1284,2,149,0.8949930458970793
1438,-1,-1,3,1285,2,149,0.8950660180681028
1439,1,-1,3,1285,2,150,0.8944444444444445
1440,-1,-1,3,1286,2,150,0.8945176960444136
1441,-1,-1,3,1287,2,150,0.8945908460471568
1442,-1,-1,3,1288,2,150,0.8946638946638946
1443,-1,-1,3,1289,2,150,0.8947368421052632
1444,-1,-1,3,1290,2,150,0.8948096885813149
1445,-1,-1,3,1291,2,150,0.8948824343015215
1446,-1,-1,3,1292,2,150,0.8949550794747754
1447,-1,-1,3,1293,2,150,0.8950276243093923
1448,-1,-1,3,1294,2,150,0.8951000690131125
1449,-1,-1,3,1295,2,150,0.8951724137931034
1450,-1,-1,3,1296,2,150,0.8952446588559614
1451,-1,-1,3,1297,2,150,0.8953168044077136
1452,-1,-1,3,1298,2,150,0.8953888506538197
1453,-1,-1,3,1299,2,150,0.8954607977991746
1454,-1,-1,3,1300,2,150,0.89553264604811
1455,-1,-1,3,1301,2,150,0.8956043956043956
1456,-1,-1,3,1302,2,150,0.8956760466712422
1457,-1,-1,3,1303,2,150,0.8957475994513031
1458,-1,-1,3,1304,2,150,0.8958190541466758
1459,-1,-1,3,1305,2,150,0.8958904109589041
1460,-1,-1,3,1306,2,150,0.8959616700889802
1461,-1,-1,3,1307,2,150,0.896032831737346
1462,-1,-1,3,1308,2,150,0.8961038961038961
1463,-1,-1,3,1309,2,150,0.8961748633879781
1464,-1,-1,3,1310,2,150,0.8962457337883959
1465,1,-1,3,1310,2,151,0.8956343792633015
1466,-1,-1,3,1311,2,151,0.8957055214723927
1467,-1,-1,3,1312,2,151,0.8957765667574932
1468,-1,-1,3,1313,2,151,0.8958475153165418
1469,-1,-1,3,1314,2,151,0.8959183673469387
1470,-1,-1,3,1315,2,151,0.8959891230455472
1471,-1,-1,3,1316,2,151,0.8960597826086957
1472,-1,-1,3,1317,2,151,0.8961303462321792
1473,-1,-1,3,1318,2,151,0.8962008141112618
1474,-1,-1,3,1319,2,151,0.8962711864406779
1475,1,-1,3,1319,2,152,0.8956639566395664
1476,-1,-1,3,1320,2,152,0.8957345971563981
1477,-1,-1,3,1321,2,152,0.8958051420838972
1478,-1,-1,3,1322,2,152,0.8958755916159568
1479,-1,-1,3,1323,2,152,0.8959459459459459
1480,-1,-1,3,1324,2,152,0.8960162052667117
1481,-1,-1,3,1325,2,152,0.8960863697705803
1482,-1,-1,3,1326,2,152,0.8961564396493594
1483,-1,-1,3,1327,2,152,0.8962264150943396
1484,-1,-1,3,1328,2,152,0.8962962962962963
1485,-1,-1,3,1329,2,152,0.8963660834454913
1486,-1,-1,3,1330,2,152,0.8964357767316745
1487,1,-1,3,1330,2,153,0.8958333333333334
1488,-1,-1,3,1331,2,153,0.8959032907991941
1489,-1,-1,3,1332,2,153,0.8959731543624161
1490,-1,-1,3,1333,2,153,0.8960429242119383
1491,-1,-1,3,1334,2,153,0.896112600536193
1492,1,-1,3,1334,2,154,0.8955123911587408
1493,-1,-1,3,1335,2,154,0.8955823293172691
1494,-1,-1,3,1336,2,154,0.8956521739130435
1495,-1,-1,3,1337,2,154,0.8957219251336899
1496,-1,-1,3,1338,2,154,0.8957915831663327
1497,-1,-1,3,1339,2,154,0.8958611481975968
1498,-1,-1,3,1340,2,154,0.895930620413609
1499,-1,-1,3,1341,2,154,0.896
1500,-1,-1,3,1342,2,154,0.8960692871419054
1501,-1,-1,3,1343,2,154,0.8961384820239681
1502,-1,-1,3,1344,2,154,0.8962075848303394
1503,-1,-1,3,1345,2,154,0.8962765957446809
1504,-1,-1,3,1346,2,154,0.8963455149501661
1505,-1,-1,3,1347,2,154,0.896414342629482
1506,-1,-1,3,1348,2,154,0.8964830789648308
1507,-1,-1,3,1349,2,154,0.896551724137931
1508,-1,-1,3,1350,2,154,0.8966202783300199
1509,-1,-1,3,1351,2,154,0.8966887417218543
1510,-1,-1,3,1352,2,154,0.8967571144937128
1511,-1,-1,3,1353,2,154,0.8968253968253969
1512,-1,-1,3,1354,2,154,0.8968935888962326
1513,-1,-1,3,1355,2,154,0.8969616908850726
1514,-1,-1,3,1356,2,154,0.897029702970297
1515,-1,-1,3,1357,2,154,0.8970976253298153
1516,-1,-1,3,1358,2,154,0.8971654581410679
1517,-1,-1,3,1359,2,154,0.8972332015810277
1518,-1,-1,3,1360,2,154,0.8973008558262014
1519,-1,-1,3,1361,2,154,0.8973684210526316
1520,-1,-1,3,1362,2,154,0.8974358974358975
1521,-1,-1,3,1363,2,154,0.897503285151117
1522,-1,-1,3,1364,2,154,0.8975705843729481
1523,-1,-1,3,1365,2,154,0.8976377952755905
1524,-1,-1,3,1366,2,154,0.8977049180327868
1525,-1,-1,3,1367,2,154,0.8977719528178244
1526,-1,-1,3,1368,2,154,0.8978388998035364
1527,-1,-1,3,1369,2,154,0.8979057591623036
1528,-1,-1,3,1370,2,154,0.8979725310660562
1529,-1,-1,3,1371,2,154,0.8980392156862745
1530,-1,-1,3,1372,2,154,0.8981058131939909
1531,-1,-1,3,1373,2,154,0.8981723237597912
1532,-1,-1,3,1374,2,154,0.898238747553816
1533,-1,-1,3,1375,2,154,0.8983050847457628
1534,-1,-1,3,1376,2,154,0.898371335504886
1535,-1,-1,3,1377,2,154,0.8984375
1536,-1,-1,3,1378,2,154,0.8985035783994795
1537,-1,-1,3,1379,2,154,0.8985695708712613
1538,-1,-1,3,1380,2,154,0.898635477582846
1539,-1,-1,3,1381,2,154,0.8987012987012987
1540,-1,-1,3,1382,2,154,0.8987670343932511
1541,-1,-1,3,1383,2,154,0.8988326848249028
1542,-1,-1,3,1384,2,154,0.8988982501620221
1543,-1,-1,3,1385,2,154,0.8989637305699482
1544,-1,-1,3,1386,2,154,0.8990291262135922
1545,-1,-1,3,1387,2,154,0.8990944372574385
1546,-1,-1,3,1388,2,154,0.8991596638655462
1547,-1,-1,3,1389,2,154,0.8992248062015504
1548,-1,-1,3,1390,2,154,0.8992898644286637
1549,-1,-1,3,1391,2,154,0.8993548387096775
1550,-1,-1,3,1392,2,154,0.8994197292069632
1551,-1,-1,3,1393,2,154,0.8994845360824743
1552,-1,-1,3,1394,2,154,0.8995492594977463
1553,-1,-1,3,1395,2,154,0.8996138996138996
1554,-1,-1,3,1396,2,154,0.8996784565916399
1555,-1,-1,3,1397,2,154,0.8997429305912596
1556,-1,-1,3,1398,2,154,0.8998073217726397
1557,-1,-1,3,1399,2,154,0.8998716302952503
1558,-1,-1,3,1400,2,154,0.8999358563181526
1559,-1,-1,3,1401,2,154,0.9
1560,-1,-1,3,1402,2,154,0.9000640614990391
1561,-1,-1,3,1403,2,154,0.9001280409731114
1562,-1,-1,3,1404,2,154,0.9001919385796545
1563,1,-1,3,1404,2,155,0.899616368286445
1564,-1,-1,3,1405,2,155,0.8996805111821087
1565,-1,-1,3,1406,2,155,0.8997445721583652
1566,-1,-1,3,1407,2,155,0.8998085513720485
1567,-1,-1,3,1408,2,155,0.8998724489795918
1568,-1,-1,3,1409,2,155,0.89993626513703
1569,-1,-1,3,1410,2,155,0.9
1570,-1,-1,3,1411,2,155,0.9000636537237429
1571,-1,-1,3,1412,2,155,0.9001272264631043
1572,-1,-1,3,1413,2,155,0.9001907183725365
1573,-1,-1,3,1414,2,155,0.9002541296060991
1574,-1,-1,3,1415,2,155,0.9003174603174603
1575,-1,-1,3,1416,2,155,0.9003807106598984
1576,-1,-1,3,1417,2,155,0.9004438807863031
1577,-1,-1,3,1418,2,155,0.9005069708491762
1578,-1,-1,3,1419,2,155,0.9005699810006333
1579,-1,-1,3,1420,2,155,0.9006329113924051
1580,-1,-1,3,1421,2,155,0.900695762175838
1581,-1,-1,3,1422,2,155,0.9007585335018964
1582,1,-1,3,1422,2,156,0.9001895135818067
1583,-1,-1,3,1423,2,156,0.9002525252525253
1584,-1,-1,3,1424,2,156,0.9003154574132493
1585,-1,-1,3,1425,2,156,0.9003783102143758
1586,-1,-1,3,1426,2,156,0.9004410838059231
1587,-1,-1,3,1427,2,156,0.9005037783375315
1588,-1,-1,3,1428,2,156,0.9005663939584645
1589,-1,-1,3,1429,2,156,0.9006289308176101
1590,-1,-1,3,1430,2,156,0.9006913890634821
1591,-1,-1,3,1431,2,156,0.9007537688442211
1592,-1,-1,3,1432,2,156,0.9008160703075957
1593,-1,-1,3,1433,2,156,0.9008782936010038
1594,-1,-1,3,1434,2,156,0.9009404388714733
1595,-1,-1,3,1435,2,156,0.9010025062656641
1596,-1,-1,3,1436,2,156,0.9010644959298685
1597,-1,-1,3,1437,2,156,0.9011264080100125
1598,-1,-1,3,1438,2,156,0.9011882426516573
1599,-1,-1,3,1439,2,156,0.90125
1600,-1,-1,3,1440,2,156,0.9013116801998751
1601,1,-1,3,1440,2,157,0.900749063670412
1602,-1,-1,3,1441,2,157,0.9008109794135996
1603,-1,-1,3,1442,2,157,0.9008728179551122
1604,-1,-1,3,1443,2,157,0.9009345794392524
1605,-1,-1,3,1444,2,157,0.9009962640099627
1606,-1,-1,3,1445,2,157,0.9010578718108276
1607,-1,-1,3,1446,2,157,0.9011194029850746
1608,-1,-1,3,1447,2,157,0.9011808576755749
1609,-1,-1,3,1448,2,157,0.9012422360248448
1610,-1,-1,3,1449,2,157,0.9013035381750466
1611,-1,-1,3,1450,2,157,0.9013647642679901
1612,-1,-1,3,1451,2,157,0.9014259144451333
1613,-1,-1,3,1452,2,157,0.9014869888475836
1614,-1,-1,3,1453,2,157,0.9015479876160991
1615,-1,-1,3,1454,2,157,0.9016089108910891
1616,-1,-1,3,1455,2,157,0.9016697588126159
1617,-1,-1,3,1456,2,157,0.9017305315203955
1618,-1,-1,3,1457,2,157,0.9017912291537986
1619,-1,-1,3,1458,2,157,0.9018518518518519
1620,-1,-1,3,1459,2,157,0.9019123997532388
1621,-1,-1,3,1460,2,157,0.9019728729963009
1622,-1,-1,3,1461,2,157,0.9020332717190388
1623,-1,-1,3,1462,2,157,0.9020935960591133
1624,-1,-1,3,1463,2,157,0.9021538461538462
1625,-1,-1,3,1464,2,157,0.9022140221402214
1626,1,-1,3,1464,2,158,0.901659496004917
1627,1,-1,3,1464,2,159,0.9011056511056511
1628,-1,-1,3,1465,2,159,0.9011663597298957
1629,1,-1,3,1465,2,160,0.9006134969325154
1630,1,-1,3,1465,2,161,0.9000613120784795
1631,-1,-1,3,1466,2,161,0.9001225490196079
1632,-1,-1,3,1467,2,161,0.9001837109614207
1633,-1,-1,3,1468,2,161,0.9002447980416156
1634,-1,-1,3,1469,2,161,0.9003058103975535
1635,-1,-1,3,1470,2,161,0.9003667481662592
1636,-1,-1,3,1471,2,161,0.9004276114844227
1637,-1,-1,3,1472,2,161,0.9004884004884005
1638,-1,-1,3,1473,2,161,0.900549115314216
1639,1,-1,3,1473,2,162,0.9
1640,-1,-1,3,1474,2,162,0.9000609384521633
1641,-1,-1,3,1475,2,162,0.9001218026796589
1642,-1,-1,3,1476,2,162,0.9001825928180158
1643,1,-1,3,1476,2,163,0.8996350364963503
1644,-1,-1,3,1477,2,163,0.8996960486322189
1645,-1,-1,3,1478,2,163,0.8997569866342648
1646,-1,-1,3,1479,2,163,0.8998178506375227
1647,-1,-1,3,1480,2,163,0.899878640776699
1648,-1,-1,3,1481,2,163,0.8999393571861735
1649,-1,-1,3,1482,2,163,0.9
1650,-1,-1,3,1483,2,163,0.9000605693519079
1651,-1,-1,3,1484,2,163,0.9001210653753027
1652,-1,-1,3,1485,2,163,0.9001814882032668
1653,1,-1,3,1485,2,164,0.8996372430471584
1654,1,-1,3,1485,2,165,0.8990936555891239
1655,-1,-1,3,1486,2,165,0.8991545893719807
1656,-1,-1,3,1487,2,165,0.8992154496077248
1657,-1,-1,3,1488,2,165,0.8992762364294331
1658,-1,-1,3,1489,2,165,0.8993369499698614
1659,-1,-1,3,1490,2,165,0.8993975903614457
1660,-1,-1,3,1491,2,165,0.8994581577363034
1661,-1,-1,3,1492,2,165,0.8995186522262335
1662,-1,-1,3,1493,2,165,0.899579073962718
1663,-1,-1,3,1494,2,165,0.8996394230769231
1664,-1,-1,3,1495,2,165,0.8996996996996997
1665,-1,-1,3,1496,2,165,0.8997599039615847
1666,-1,-1,3,1497,2,165,0.8998200359928015
1667,-1,-1,3,1498,2,165,0.8998800959232613
1668,1,1,4,1498,2,165,0.8999400838825644
1669,-1,-1,4,1499,2,165,0.9
1670,-1,-1,4,1500,2,165,0.9000598444045482
1671,-1,-1,4,1501,2,165,0.9001196172248804
1672,-1,-1,4,1502,2,165,0.9001793185893604
1673,-1,-1,4,1503,2,165,0.9002389486260454
1674,-1,-1,4,1504,2,165,0.9002985074626866
1675,-1,-1,4,1505,2,165,0.9003579952267303
1676,-1,-1,4,1506,2,165,0.900417412045319
1677,-1,-1,4,1507,2,165,0.900476758045292
1678,-1,-1,4,1508,2,165,0.9005360333531864
1679,-1,-1,4,1509,2,165,0.9005952380952381
1680,-1,-1,4,1510,2,165,0.9006543723973826
1681,-1,-1,4,1511,2,165,0.9007134363852557
1682,-1,-1,4,1512,2,165,0.9007724301841948
1683,-1,-1,4,1513,2,165,0.9008313539192399
1684,-1,-1,4,1514,2,165,0.9008902077151335
1685,-1,-1,4,1515,2,165,0.9009489916963227
1686,-1,-1,4,1516,2,165,0.9010077059869591
1687,-1,-1,4,1517,2,165,0.9010663507109005
1688,-1,-1,4,1518,2,165,0.9011249259917111
1689,1,1,5,1518,2,165,0.9011834319526627
1690,-1,-1,5,1519,2,165,0.9012418687167356
1691,-1,-1,5,1520,2,165,0.9013002364066194
1692,1,-1,5,1520,2,166,0.9007678676904902
1693,-1,-1,5,1521,2,166,0.9008264462809917
1694,-1,-1,5,1522,2,166,0.9008849557522124
1695,1,-1,5,1522,2,167,0.9003537735849056
1696,-1,-1,5,1523,2,167,0.9004124926340601
1697,1,-1,5,1523,2,168,0.8998822143698468
1698,-1,-1,5,1524,2,168,0.899941141848146
1699,-1,-1,5,1525,2,168,0.9
1700,-1,-1,5,1526,2,168,0.9000587889476779
1701,-1,-1,5,1527,2,168,0.900117508813161
1702,1,-1,5,1527,2,169,0.8995889606576629
1703,-1,-1,5,1528,2,169,0.8996478873239436
1704,-1,-1,5,1529,2,169,0.8997067448680351
1705,-1,-1,5,1530,2,169,0.8997655334114889
1706,-1,-1,5,1531,2,169,0.8998242530755711
1707,1,-1,5,1531,2,170,0.8992974238875878
1708,-1,-1,5,1532,2,170,0.8993563487419544
1709,-1,-1,5,1533,2,170,0.8994152046783626
1710,-1,-1,5,1534,2,170,0.8994739918176505
1711,-1,-1,5,1535,2,170,0.8995327102803738
1712,-1,-1,5,1536,2,170,0.8995913601868067
1713,-1,1,5,1536,3,170,0.8990665110851809
1714,-1,-1,5,1537,3,170,0.8991253644314868
1715,-1,-1,5,1538,3,170,0.8991841491841492
1716,-1,-1,5,1539,3,170,0.8992428654630169
1717,-1,-1,5,1540,3,170,0.8993015133876601
1718,-1,-1,5,1541,3,170,0.8993600930773705
1719,-1,-1,5,1542,3,170,0.8994186046511627
1720,-1,-1,5,1543,3,170,0.8994770482277745
1721,-1,-1,5,1544,3,170,0.8995354239256679
1722,-1,-1,5,1545,3,170,0.8995937318630296
1723,-1,-1,5,1546,3,170,0.8996519721577726
1724,-1,-1,5,1547,3,170,0.8997101449275362
1725,-1,-1,5,1548,3,170,0.8997682502896871
1726,-1,-1,5,1549,3,170,0.8998262883613202
1727,1,-1,5,1549,3,171,0.8993055555555556
1728,-1,-1,5,1550,3,171,0.8993637941006362
1729,-1,-1,5,1551,3,171,0.8994219653179191
1730,-1,-1,5,1552,3,171,0.8994800693240901
1731,-1,-1,5,1553,3,171,0.8995381062355658
1732,1,-1,5,1553,3,172,0.8990190421234853
1733,-1,-1,5,1554,3,172,0.8990772779700116
1734,1,-1,5,1554,3,173,0.8985590778097983
1735,-1,-1,5,1555,3,173,0.8986175115207373
1736,-1,-1,5,1556,3,173,0.8986758779504893
1737,-1,-1,5,1557,3,173,0.8987341772151899
1738,-1,-1,5,1558,3,173,0.8987924094307073
1739,-1,-1,5,1559,3,173,0.8988505747126436
1740,-1,-1,5,1560,3,173,0.8989086731763355
1741,-1,-1,5,1561,3,173,0.8989667049368542
1742,-1,-1,5,1562,3,173,0.8990246701090074
1743,-1,-1,5,1563,3,173,0.8990825688073395
1744,-1,-1,5,1564,3,173,0.8991404011461318
1745,-1,-1,5,1565,3,173,0.8991981672394044
1746,-1,-1,5,1566,3,173,0.8992558672009159
1747,-1,-1,5,1567,3,173,0.8993135011441648
1748,-1,-1,5,1568,3,173,0.89937106918239
1749,-1,-1,5,1569,3,173,0.8994285714285715
1750,-1,-1,5,1570,3,173,0.8994860079954312
1751,-1,-1,5,1571,3,173,0.8995433789954338
1752,-1,-1,5,1572,3,173,0.8996006845407872
1753,-1,-1,5,1573,3,173,0.8996579247434435
1754,-1,-1,5,1574,3,173,0.8997150997150997
1755,-1,-1,5,1575,3,173,0.8997722095671982
1756,-1,-1,5,1576,3,173,0.8998292544109278
1757,-1,-1,5,1577,3,173,0.8998862343572241
1758,-1,-1,5,1578,3,173,0.8999431495167709
1759,-1,-1,5,1579,3,173,0.9
1760,-1,-1,5,1580,3,173,0.9000567859170926
1761,-1,-1,5,1581,3,173,0.9001135073779796
1762,-1,-1,5,1582,3,173,0.9001701644923426
1763,-1,-1,5,1583,3,173,0.9002267573696145
1764,-1,-1,5,1584,3,173,0.9002832861189801
1765,-1,-1,5,1585,3,173,0.9003397508493771
1766,-1,-1,5,1586,3,173,0.9003961516694963
1767,-1,-1,5,1587,3,173,0.9004524886877828
1768,-1,-1,5,1588,3,173,0.9005087620124365
1769,-1,-1,5,1589,3,173,0.9005649717514125
1770,-1,-1,5,1590,3,173,0.9006211180124224
1771,-1,-1,5,1591,3,173,0.9006772009029346
1772,-1,-1,5,1592,3,173,0.9007332205301748
1773,-1,-1,5,1593,3,173,0.9007891770011274
1774,-1,-1,5,1594,3,173,0.9008450704225353
1775,-1,-1,5,1595,3,173,0.9009009009009009
1776,-1,-1,5,1596,3,173,0.9009566685424873
1777,-1,-1,5,1597,3,173,0.9010123734533183
1778,-1,-1,5,1598,3,173,0.9010680157391793
1779,-1,-1,5,1599,3,173,0.9011235955056179
1780,-1,-1,5,1600,3,173,0.9011791128579449
1781,-1,-1,5,1601,3,173,0.9012345679012346
1782,-1,-1,5,1602,3,173,0.9012899607403253
1783,-1,-1,5,1603,3,173,0.9013452914798207
1784,-1,-1,5,1604,3,173,0.9014005602240897
1785,-1,-1,5,1605,3,173,0.9014557670772676
1786,-1,-1,5,1606,3,173,0.9015109121432568
1787,-1,-1,5,1607,3,173,0.901565995525727
1788,-1,-1,5,1608,3,173,0.9016210173281163
1789,-1,-1,5,1609,3,173,0.9016759776536313
1790,-1,-1,5,1610,3,173,0.9017308766052484
1791,-1,-1,5,1611,3,173,0.9017857142857143
1792,1,1,6,1611,3,173,0.901840490797546
1793,-1,-1,6,1612,3,173,0.9018952062430323
1794,-1,-1,6,1613,3,173,0.901949860724234
1795,-1,-1,6,1614,3,173,0.9020044543429844
1796,-1,-1,6,1615,3,173,0.9020589872008904
1797,-1,-1,6,1616,3,173,0.9021134593993326
1798,-1,-1,6,1617,3,173,0.9021678710394664
1799,-1,-1,6,1618,3,173,0.9022222222222223
1800,-1,-1,6,1619,3,173,0.9022765130483065
1801,-1,-1,6,1620,3,173,0.902330743618202
1802,-1,-1,6,1621,3,173,0.9023849140321686
1803,-1,-1,6,1622,3,173,0.9024390243902439
1804,-1,-1,6,1623,3,173,0.9024930747922437
1805,-1,-1,6,1624,3,173,0.902547065337763
1806,-1,-1,6,1625,3,173,0.902600996126176
1807,-1,-1,6,1626,3,173,0.9026548672566371
1808,1,-1,6,1626,3,174,0.9021558872305141
1809,-1,-1,6,1627,3,174,0.9022099447513812
1810,-1,-1,6,1628,3,174,0.902263942573164
1811,-1,-1,6,1629,3,174,0.902317880794702
1812,-1,-1,6,1630,3,174,0.9023717595146167
1813,-1,-1,6,1631,3,174,0.902425578831312
1814,1,-1,6,1631,3,175,0.9019283746556473
1815,1,-1,6,1631,3,176,0.901431718061674
1816,-1,-1,6,1632,3,176,0.9014859658778206
1817,-1,-1,6,1633,3,176,0.9015401540154016
1818,-1,-1,6,1634,3,176,0.9015942825728422
1819,-1,-1,6,1635,3,176,0.9016483516483517
1820,-1,-1,6,1636,3,176,0.9017023613399231
1821,-1,-1,6,1637,3,176,0.9017563117453348
1822,-1,-1,6,1638,3,176,0.9018102029621503
1823,-1,-1,6,1639,3,176,0.9018640350877193
1824,1,-1,6,1639,3,177,0.9013698630136986
1825,-1,-1,6,1640,3,177,0.9014238773274917
1826,-1,-1,6,1641,3,177,0.9014778325123153
1827,-1,-1,6,1642,3,177,0.9015317286652079
1828,-1,-1,6,1643,3,177,0.9015855658829962
1829,-1,-1,6,1644,3,177,0.9016393442622951
1830,-1,-1,6,1645,3,177,0.9016930638995084
1831,1,-1,6,1645,3,178,0.9012008733624454
1832,-1,-1,6,1646,3,178,0.9012547735951991
1833,-1,-1,6,1647,3,178,0.9013086150490731
1834,1,-1,6,1647,3,179,0.9008174386920981
1835,-1,-1,6,1648,3,179,0.900871459694989
1836,-1,-1,6,1649,3,179,0.9009254218835057
1837,1,-1,6,1649,3,180,0.9004352557127312
1838,-1,-1,6,1650,3,180,0.9004893964110929
1839,-1,-1,6,1651,3,180,0.9005434782608696
1840,-1,-1,6,1652,3,180,0.9005975013579577
1841,1,-1,6,1652,3,181,0.9001085776330076
1842,-1,-1,6,1653,3,181,0.9001627780792186
1843,-1,-1,6,1654,3,181,0.9002169197396963
1844,1,-1,6,1654,3,182,0.8997289972899729
1845,-1,-1,6,1655,3,182,0.899783315276273
1846,-1,-1,6,1656,3,182,0.899837574445046
1847,-1,-1,6,1657,3,182,0.8998917748917749
1848,-1,-1,6,1658,3,182,0.8999459167117361
1849,-1,-1,6,1659,3,182,0.9
1850,-1,-1,6,1660,3,182,0.9000540248514317
1851,-1,-1,6,1661,3,182,0.9001079913606912
1852,-1,-1,6,1662,3,182,0.9001618996222343
1853,1,-1,6,1662,3,183,0.8996763754045307
1854,-1,-1,6,1663,3,183,0.8997304582210243
1855,-1,-1,6,1664,3,183,0.8997844827586207
1856,-1,-1,6,1665,3,183,0.8998384491114702
1857,-1,-1,6,1666,3,183,0.8998923573735199
1858,-1,-1,6,1667,3,183,0.8999462076385153
1859,-1,-1,6,1668,3,183,0.9
1860,-1,-1,6,1669,3,183,0.9000537345513165
1861,-1,-1,6,1670,3,183,0.9001074113856069
1862,-1,-1,6,1671,3,183,0.9001610305958132
1863,-1,-1,6,1672,3,183,0.9002145922746781
1864,-1,-1,6,1673,3,183,0.9002680965147453
1865,-1,-1,6,1674,3,183,0.9003215434083601
1866,-1,-1,6,1675,3,183,0.90037493304767
1867,-1,-1,6,1676,3,183,0.9004282655246253
1868,-1,-1,6,1677,3,183,0.9004815409309791
1869,-1,-1,6,1678,3,183,0.9005347593582887
1870,-1,-1,6,1679,3,183,0.9005879208979155
1871,-1,-1,6,1680,3,183,0.9006410256410257
1872,-1,-1,6,1681,3,183,0.9006940736785904
1873,-1,-1,6,1682,3,183,0.9007470651013874
1874,-1,-1,6,1683,3,183,0.9008
1875,-1,-1,6,1684,3,183,0.9008528784648188
1876,-1,-1,6,1685,3,183,0.9009057005860416
1877,-1,-1,6,1686,3,183,0.9009584664536742
1878,-1,-1,6,1687,3,183,0.9010111761575306
1879,-1,-1,6,1688,3,183,0.9010638297872341
1880,-1,-1,6,1689,3,183,0.9011164274322169
1881,1,-1,6,1689,3,184,0.9006376195536663
1882,-1,-1,6,1690,3,184,0.9006903876792353
1883,-1,-1,6,1691,3,184,0.9007430997876857
1884,-1,-1,6,1692,3,184,0.9007957559681697
1885,-1,-1,6,1693,3,184,0.9008483563096501
1886,-1,-1,6,1694,3,184,0.9009009009009009
1887,-1,-1,6,1695,3,184,0.9009533898305084
1888,-1,-1,6,1696,3,184,0.9010058231868714
1889,1,-1,6,1696,3,185,0.9005291005291005
1890,-1,-1,6,1697,3,185,0.9005817028027499
1891,-1,-1,6,1698,3,185,0.9006342494714588
1892,-1,-1,6,1699,3,185,0.9006867406233492
1893,1,-1,6,1699,3,186,0.9002111932418163
1894,-1,-1,6,1700,3,186,0.9002638522427441
1895,-1,-1,6,1701,3,186,0.9003164556962026
1896,1,-1,6,1701,3,187,0.8998418555614127
1897,-1,-1,6,1702,3,187,0.8998946259220232
1898,-1,-1,6,1703,3,187,0.8999473407056345
1899,-1,-1,6,1704,3,187,0.9
1900,-1,-1,6,1705,3,187,0.900052603892688
1901,-1,-1,6,1706,3,187,0.900105152471083
1902,-1,-1,6,1707,3,187,0.9001576458223857
1903,-1,-1,6,1708,3,187,0.9002100840336135
1904,-1,-1,6,1709,3,187,0.9002624671916011
1905,-1,-1,6,1710,3,187,0.9003147953830011
1906,1,-1,6,1710,3,188,0.8998426848453067
1907,-1,-1,6,1711,3,188,0.899895178197065
1908,-1,-1,6,1712,3,188,0.8999476165531692
1909,-1,-1,6,1713,3,188,0.9
1910,-1,-1,6,1714,3,188,0.9000523286237572
1911,-1,-1,6,1715,3,188,0.9001046025104602
1912,-1,-1,6,1716,3,188,0.9001568217459488
1913,1,-1,6,1716,3,189,0.8996865203761756
1914,1,-1,6,1716,3,190,0.8992167101827676
1915,1,-1,6,1716,3,191,0.8987473903966597
1916,1,-1,6,1716,3,192,0.8982785602503912
1917,-1,-1,6,1717,3,192,0.8983315954118873
1918,-1,-1,6,1718,3,192,0.8983845752996352
1919,-1,-1,6,1719,3,192,0.8984375
1920,-1,-1,6,1720,3,192,0.8984903695991671
1921,-1,-1,6,1721,3,192,0.8985431841831426
1922,-1,-1,6,1722,3,192,0.8985959438377535
1923,-1,-1,6,1723,3,192,0.8986486486486487
1924,1,-1,6,1723,3,193,0.8981818181818182
1925,-1,-1,6,1724,3,193,0.8982346832814122
1926,-1,-1,6,1725,3,193,0.898287493513233
1927,1,-1,6,1725,3,194,0.8978215767634855
1928,-1,-1,6,1726,3,194,0.897874546397097
1929,-1,-1,6,1727,3,194,0.8979274611398964
1930,-1,-1,6,1728,3,194,0.8979803210771621
1931,-1,-1,6,1729,3,194,0.8980331262939959
1932,-1,-1,6,1730,3,194,0.8980858768753234
1933,-1,-1,6,1731,3,194,0.8981385729058945
1934,-1,-1,6,1732,3,194,0.8981912144702843
1935,-1,-1,6,1733,3,194,0.8982438016528925
1936,-1,-1,6,1734,3,194,0.8982963345379453
1937,-1,-1,6,1735,3,194,0.8983488132094943
1938,-1,-1,6,1736,3,194,0.8984012377514182
1939,-1,-1,6,1737,3,194,0.8984536082474227
1940,-1,-1,6,1738,3,194,0.8985059247810407
1941,-1,-1,6,1739,3,194,0.8985581874356333
1942,-1,-1,6,1740,3,194,0.8986103962943901
1943,-1,-1,6,1741,3,194,0.8986625514403292
1944,-1,-1,6,1742,3,194,0.8987146529562982
1945,-1,-1,6,1743,3,194,0.8987667009249743
1946,-1,-1,6,1744,3,194,0.8988186954288649
1947,-1,-1,6,1745,3,194,0.898870636550308
1948,-1,-1,6,1746,3,194,0.8989225243714726
1949,-1,-1,6,1747,3,194,0.898974358974359
1950,-1,-1,6,1748,3,194,0.8990261404407995
1951,-1,-1,6,1749,3,194,0.899077868852459
1952,-1,-1,6,1750,3,194,0.8991295442908346
1953,-1,-1,6,1751,3,194,0.8991811668372569
1954,-1,-1,6,1752,3,194,0.89923273657289
1955,-1,-1,6,1753,3,194,0.8992842535787321
1956,-1,-1,6,1754,3,194,0.8993357179356157
1957,-1,-1,6,1755,3,194,0.8993871297242084
1958,-1,-1,6,1756,3,194,0.8994384890250128
1959,-1,-1,6,1757,3,194,0.8994897959183673
1960,-1,-1,6,1758,3,194,0.8995410504844467
1961,-1,-1,6,1759,3,194,0.8995922528032619
1962,-1,-1,6,1760,3,194,0.8996434029546613
1963,-1,-1,6,1761,3,194,0.8996945010183299
1964,-1,-1,6,1762,3,194,0.8997455470737914
1965,-1,-1,6,1763,3,194,0.8997965412004069
1966,-1,-1,6,1764,3,194,0.8998474834773768
1967,-1,-1,6,1765,3,194,0.8998983739837398
1968,-1,-1,6,1766,3,194,0.8999492127983748
1969,-1,-1,6,1767,3,194,0.9
1970,-1,-1,6,1768,3,194,0.900050735667174
1971,-1,-1,6,1769,3,194,0.9001014198782962
1972,-1,-1,6,1770,3,194,0.9001520527116067
1973,-1,-1,6,1771,3,194,0.9002026342451874
1974,-1,-1,6,1772,3,194,0.900253164556962
1975,-1,-1,6,1773,3,194,0.9003036437246964
1976,-1,-1,6,1774,3,194,0.900354071825999
1977,-1,-1,6,1775,3,194,0.9004044489383215
1978,-1,-1,6,1776,3,194,0.9004547751389591
1979,-1,-1,6,1777,3,194,0.9005050505050505
1980,1,-1,6,1777,3,195,0.9000504795557799
1981,-1,-1,6,1778,3,195,0.900100908173562
1982,-1,-1,6,1779,3,195,0.9001512859304085
1983,-1,-1,6,1780,3,195,0.9002016129032258
1984,-1,-1,6,1781,3,195,0.9002518891687658
1985,-1,-1,6,1782,3,195,0.9003021148036254
1986,-1,-1,6,1783,3,195,0.9003522898842476
1987,1,-1,6,1783,3,196,0.8998993963782697
1988,-1,-1,6,1784,3,196,0.8999497234791353
1989,-1,-1,6,1785,3,196,0.9
1990,-1,-1,6,1786,3,196,0.9000502260170768
1991,-1,-1,6,1787,3,196,0.9001004016064257
1992,-1,-1,6,1788,3,196,0.9001505268439538
1993,-1,-1,6,1789,3,196,0.9002006018054163
1994,-1,-1,6,1790,3,196,0.9002506265664161
1995,-1,-1,6,1791,3,196,0.9003006012024048
1996,-1,-1,6,1792,3,196,0.900350525788683
1997,1,-1,6,1792,3,197,0.8998998998998999
1998,-1,-1,6,1793,3,197,0.8999499749874937
1999,-1,-1,6,1794,3,197,0.9
2000,-1,-1,6,1795,3,197,0.9000499750124937
2001,-1,-1,6,1796,3,197,0.9000999000999002
2002,-1,-1,6,1797,3,197,0.9001497753369945
2003,-1,-1,6,1798,3,197,0.9001996007984032
2004,-1,-1,6,1799,3,197,0.9002493765586035
2005,-1,-1,6,1800,3,197,0.9002991026919243
2006,-1,-1,6,1801,3,197,0.9003487792725461
2007,-1,-1,6,1802,3,197,0.900398406374502
2008,1,-1,6,1802,3,198,0.8999502239920358
2009,-1,-1,6,1803,3,198,0.9
2010,-1,-1,6,1804,3,198,0.9000497265042268
2011,-1,-1,6,1805,3,198,0.9000994035785288
2012,-1,-1,6,1806,3,198,0.9001490312965723
2013,-1,-1,6,1807,3,198,0.9001986097318768
2014,-1,-1,6,1808,3,198,0.9002481389578164
2015,-1,-1,6,1809,3,198,0.9002976190476191
2016,-1,-1,6,1810,3,198,0.9003470500743679
2017,-1,-1,6,1811,3,198,0.900396432111001
2018,-1,-1,6,1812,3,198,0.9004457652303121
2019,1,-1,6,1812,3,199,0.9
2020,1,-1,6,1812,3,200,0.8995546759030183
2021,-1,-1,6,1813,3,200,0.8996043521266073
2022,-1,-1,6,1814,3,200,0.8996539792387543
2023,-1,-1,6,1815,3,200,0.8997035573122529
2024,-1,-1,6,1816,3,200,0.899753086419753
2025,-1,-1,6,1817,3,200,0.8998025666337611
2026,-1,-1,6,1818,3,200,0.8998519980266404
2027,1,-1,6,1818,3,201,0.8994082840236687
2028,-1,-1,6,1819,3,201,0.8994578610152785
2029,-1,-1,6,1820,3,201,0.8995073891625616
2030,-1,-1,6,1821,3,201,0.8995568685376661
2031,-1,-1,6,1822,3,201,0.8996062992125984
2032,-1,-1,6,1823,3,201,0.8996556812592228
2033,-1,-1,6,1824,3,201,0.8997050147492626
2034,-1,-1,6,1825,3,201,0.8997542997542998
2035,-1,-1,6,1826,3,201,0.899803536345776
2036,-1,-1,6,1827,3,201,0.8998527245949927
2037,-1,-1,6,1828,3,201,0.8999018645731109
2038,-1,-1,6,1829,3,201,0.8999509563511525
2039,-1,-1,6,1830,3,201,0.9
2040,-1,-1,6,1831,3,201,0.9000489955903969
2041,-1,-1,6,1832,3,201,0.9000979431929481
2042,-1,-1,6,1833,3,201,0.9001468428781204
2043,-1,-1,6,1834,3,201,0.9001956947162426
2044,-1,-1,6,1835,3,201,0.9002444987775061
2045,-1,-1,6,1836,3,201,0.9002932551319648
2046,-1,-1,6,1837,3,201,0.9003419638495359
2047,-1,-1,6,1838,3,201,0.900390625
2048,-1,-1,6,1839,3,201,0.9004392386530015
2049,-1,-1,6,1840,3,201,0.9004878048780488
2050,-1,-1,6,1841,3,201,0.9005363237445149
2051,-1,-1,6,1842,3,201,0.9005847953216374
2052,-1,-1,6,1843,3,201,0.9006332196785193
2053,-1,-1,6,1844,3,201,0.9006815968841285
2054,-1,-1,6,1845,3,201,0.9007299270072993
2055,-1,-1,6,1846,3,201,0.9007782101167315
2056,-1,-1,6,1847,3,201,0.9008264462809917
2057,-1,-1,6,1848,3,201,0.9008746355685131
2058,-1,-1,6,1849,3,201,0.9009227780475959
2059,1,-1,6,1849,3,202,0.9004854368932039
2060,-1,-1,6,1850,3,202,0.9005337214944202
2061,-1,-1,6,1851,3,202,0.9005819592628516
2062,-1,-1,6,1852,3,202,0.900630150266602
2063,-1,-1,6,1853,3,202,0.9006782945736435
2064,-1,-1,6,1854,3,202,0.9007263922518159
2065,-1,-1,6,1855,3,202,0.9007744433688286
2066,-1,-1,6,1856,3,202,0.9008224479922593
2067,-1,-1,6,1857,3,202,0.9008704061895552
2068,-1,-1,6,1858,3,202,0.9009183180280329
2069,-1,-1,6,1859,3,202,0.9009661835748792
2070,-1,-1,6,1860,3,202,0.9010140028971512
2071,1,-1,6,1860,3,203,0.9005791505791506
2072,-1,-1,6,1861,3,203,0.9006271104679209
2073,-1,-1,6,1862,3,203,0.9006750241080038
2074,-1,-1,6,1863,3,203,0.9007228915662651
2075,-1,-1,6,1864,3,203,0.9007707129094412
2076,-1,-1,6,1865,3,203,0.9008184882041406
2077,-1,-1,6,1866,3,203,0.9008662175168431
2078,-1,-1,6,1867,3,203,0.9009139009139009
2079,-1,-1,6,1868,3,203,0.9009615384615385
2080,-1,-1,6,1869,3,203,0.9010091302258529
2081,-1,-1,6,1870,3,203,0.9010566762728146
2082,-1,-1,6,1871,3,203,0.9011041766682669
2083,-1,-1,6,1872,3,203,0.9011516314779271
2084,-1,-1,6,1873,3,203,0.9011990407673861
2085,-1,-1,6,1874,3,203,0.9012464046021093
2086,-1,-1,6,1875,3,203,0.9012937230474365
2087,-1,-1,6,1876,3,203,0.9013409961685823
2088,-1,-1,6,1877,3,203,0.9013882240306367
2089,-1,-1,6,1878,3,203,0.9014354066985646
2090,-1,-1,6,1879,3,203,0.9014825442372071
2091,-1,-1,6,1880,3,203,0.9015296367112811
2092,-1,-1,6,1881,3,203,0.9015766841853798
2093,-1,-1,6,1882,3,203,0.9016236867239733
2094,-1,-1,6,1883,3,203,0.9016706443914081
2095,-1,-1,6,1884,3,203,0.9017175572519084
2096,-1,-1,6,1885,3,203,0.9017644253695756
2097,-1,-1,6,1886,3,203,0.9018112488083889
2098,-1,-1,6,1887,3,203,0.9018580276322058
2099,-1,-1,6,1888,3,203,0.9019047619047619
2100,-1,-1,6,1889,3,203,0.9019514516896716
2101,-1,-1,6,1890,3,203,0.9019980970504282
2102,-1,-1,6,1891,3,203,0.9020446980504042
2103,-1,-1,6,1892,3,203,0.9020912547528517
2104,-1,-1,6,1893,3,203,0.9021377672209027
2105,-1,-1,6,1894,3,203,0.9021842355175689
2106,-1,-1,6,1895,3,203,0.9022306597057428
2107,-1,-1,6,1896,3,203,0.9022770398481973
2108,-1,-1,6,1897,3,203,0.9023233760075865
2109,-1,-1,6,1898,3,203,0.9023696682464455
2110,-1,-1,6,1899,3,203,0.9024159166271909
2111,1,-1,6,1899,3,204,0.9019886363636364
2112,-1,-1,6,1900,3,204,0.9020350212967345
2113,-1,-1,6,1901,3,204,0.902081362346263
2114,-1,-1,6,1902,3,204,0.902127659574468
2115,-1,-1,6,1903,3,204,0.9021739130434783
2116,1,-1,6,1903,3,205,0.9017477562588568
2117,-1,-1,6,1904,3,205,0.9017941454202077
2118,-1,-1,6,1905,3,205,0.901840490797546
2119,-1,-1,6,1906,3,205,0.9018867924528302
2120,-1,-1,6,1907,3,205,0.901933050447902
2121,-1,-1,6,1908,3,205,0.9019792648444863
2122,-1,-1,6,1909,3,205,0.9020254357041921
2123,-1,-1,6,1910,3,205,0.9020715630885122
2124,-1,-1,6,1911,3,205,0.9021176470588236
2125,-1,-1,6,1912,3,205,0.9021636876763875
2126,1,-1,6,1912,3,206,0.9017395392571698
2127,-1,-1,6,1913,3,206,0.9017857142857143
2128,-1,-1,6,1914,3,206,0.9018318459370597
2129,1,-1,6,1914,3,207,0.9014084507042254
2130,-1,-1,6,1915,3,207,0.9014547160957297
2131,-1,-1,6,1916,3,207,0.9015009380863039
2132,-1,-1,6,1917,3,207,0.9015471167369902
2133,-1,-1,6,1918,3,207,0.901593252108716
2134,-1,-1,6,1919,3,207,0.9016393442622951
2135,-1,-1,6,1920,3,207,0.901685393258427
2136,-1,-1,6,1921,3,207,0.9017313991576977
2137,-1,-1,6,1922,3,207,0.90177736202058
2138,-1,-1,6,1923,3,207,0.9018232819074333
2139,-1,-1,6,1924,3,207,0.9018691588785047
2140,1,-1,6,1924,3,208,0.9014479215319944
2141,-1,-1,6,1925,3,208,0.9014939309056956
2142,-1,-1,6,1926,3,208,0.9015398973401774
2143,1,-1,6,1926,3,209,0.9011194029850746
2144,-1,-1,6,1927,3,209,0.9011655011655012
2145,-1,-1,6,1928,3,209,0.9012115563839702
2146,-1,-1,6,1929,3,209,0.9012575687005123
2147,-1,-1,6,1930,3,209,0.9013035381750466
2148,1,-1,6,1930,3,210,0.9008841321544905
2149,-1,-1,6,1931,3,210,0.9009302325581395
2150,1,-1,6,1931,3,211,0.900511390051139
2151,-1,-1,6,1932,3,211,0.9005576208178439
2152,-1,-1,6,1933,3,211,0.9006038086391083
2153,-1,-1,6,1934,3,211,0.9006499535747446
2154,-1,-1,6,1935,3,211,0.9006960556844548
2155,1,-1,6,1935,3,212,0.900278293135436
2156,-1,-1,6,1936,3,212,0.9003245248029671
2157,-1,-1,6,1937,3,212,0.9003707136237257
2158,1,-1,6,1937,3,213,0.8999536822603057
2159,-1,-1,6,1938,3,213,0.9
2160,-1,-1,6,1939,3,213,0.9000462748727441
2161,-1,-1,6,1940,3,213,0.9000925069380203
2162,-1,-1,6,1941,3,213,0.9001386962552012
2163,-1,-1,6,1942,3,213,0.9001848428835489
2164,-1,-1,6,1943,3,213,0.900230946882217
2165,-1,-1,6,1944,3,213,0.9002770083102493
2166,-1,-1,6,1945,3,213,0.9003230272265805
2167,-1,-1,6,1946,3,213,0.9003690036900369
2168,-1,-1,6,1947,3,213,0.9004149377593361
2169,-1,-1,6,1948,3,213,0.9004608294930876
2170,-1,-1,6,1949,3,213,0.9005066789497927
2171,-1,-1,6,1950,3,213,0.9005524861878453
2172,-1,-1,6,1951,3,213,0.9005982512655315
2173,-1,-1,6,1952,3,213,0.9006439742410304
2174,1,-1,6,1952,3,214,0.9002298850574713
2175,-1,-1,6,1953,3,214,0.9002757352941176
2176,-1,-1,6,1954,3,214,0.9003215434083601
2177,1,-1,6,1954,3,215,0.8999081726354453
2178,-1,-1,6,1955,3,215,0.8999541073887104
2179,-1,-1,6,1956,3,215,0.9
2180,-1,-1,6,1957,3,215,0.900045850527281
2181,-1,-1,6,1958,3,215,0.9000916590284143
2182,-1,-1,6,1959,3,215,0.9001374255611544
2183,-1,-1,6,1960,3,215,0.9001831501831502
2184,1,-1,6,1960,3,216,0.8997711670480549
2185,-1,-1,6,1961,3,216,0.8998170173833486
2186,1,-1,6,1961,3,217,0.8994055784179241
2187,-1,-1,6,1962,3,217,0.8994515539305301
2188,1,-1,6,1962,3,218,0.8990406578346277
2189,-1,-1,6,1963,3,218,0.8990867579908676
2190,1,-1,6,1963,3,219,0.8986764034687358
2191,-1,-1,6,1964,3,219,0.8987226277372263
2192,-1,-1,6,1965,3,219,0.8987688098495212
2193,-1,-1,6,1966,3,219,0.8988149498632635
2194,-1,-1,6,1967,3,219,0.8988610478359909
2195,-1,-1,6,1968,3,219,0.8989071038251366
2196,-1,-1,6,1969,3,219,0.8989531178880291
2197,-1,-1,6,1970,3,219,0.8989990900818926
2198,-1,-1,6,1971,3,219,0.8990450204638472
2199,-1,-1,6,1972,3,219,0.899090909090909
2200,-1,-1,6,1973,3,219,0.8991367560199909
2201,-1,-1,6,1974,3,219,0.8991825613079019
2202,1,-1,6,1974,3,220,0.8987743985474353
2203,-1,-1,6,1975,3,220,0.8988203266787659
2204,1,-1,6,1975,3,221,0.8984126984126984
2205,-1,-1,6,1976,3,221,0.898458748866727
2206,-1,-1,6,1977,3,221,0.898504757589488
2207,-1,-1,6,1978,3,221,0.8985507246376812
2208,-1,-1,6,1979,3,221,0.898596650067904
2209,-1,-1,6,1980,3,221,0.8986425339366516
2210,-1,-1,6,1981,3,221,0.8986883763003166
2211,-1,-1,6,1982,3,221,0.8987341772151899
2212,-1,-1,6,1983,3,221,0.8987799367374605
2213,-1,-1,6,1984,3,221,0.8988256549232159
2214,-1,-1,6,1985,3,221,0.8988713318284425
2215,-1,-1,6,1986,3,221,0.8989169675090253
2216,-1,-1,6,1987,3,221,0.8989625620207488
2217,-1,-1,6,1988,3,221,0.8990081154192967
2218,-1,-1,6,1989,3,221,0.8990536277602523
2219,-1,-1,6,1990,3,221,0.8990990990990991
2220,-1,-1,6,1991,3,221,0.8991445294912201
2221,-1,-1,6,1992,3,221,0.8991899189918992
2222,-1,-1,6,1993,3,221,0.8992352676563203
2223,-1,-1,6,1994,3,221,0.8992805755395683
2224,-1,-1,6,1995,3,221,0.8993258426966292
2225,-1,-1,6,1996,3,221,0.89937106918239
2226,-1,-1,6,1997,3,221,0.899416255051639
2227,-1,-1,6,1998,3,221,0.8994614003590664
2228,-1,-1,6,1999,3,221,0.8995065051592642
2229,-1,-1,6,2000,3,221,0.8995515695067264
2230,-1,-1,6,2001,3,221,0.8995965934558494
2231,-1,-1,6,2002,3,221,0.899641577060932
2232,-1,-1,6,2003,3,221,0.8996865203761756
2233,-1,-1,6,2004,3,221,0.8997314234556849
2234,-1,-1,6,2005,3,221,0.8997762863534675
2235,-1,-1,6,2006,3,221,0.8998211091234347
2236,-1,-1,6,2007,3,221,0.899865891819401
2237,-1,-1,6,2008,3,221,0.8999106344950849
2238,-1,-1,6,2009,3,221,0.899955337204109
2239,-1,-1,6,2010,3,221,0.9
2240,1,-1,6,2010,3,222,0.8995983935742972
2241,-1,-1,6,2011,3,222,0.8996431757359501
2242,-1,-1,6,2012,3,222,0.8996879179670084
2243,-1,-1,6,2013,3,222,0.8997326203208557
2244,1,-1,6,2013,3,223,0.8993318485523385
2245,-1,-1,6,2014,3,223,0.8993766696349065
2246,1,-1,6,2014,3,224,0.8989764129951046
2247,-1,-1,6,2015,3,224,0.8990213523131673
2248,-1,-1,6,2016,3,224,0.8990662516674077
2249,-1,-1,6,2017,3,224,0.8991111111111111
2250,-1,-1,6,2018,3,224,0.8991559306974678
2251,-1,-1,6,2019,3,224,0.8992007104795737
2252,-1,-1,6,2020,3,224,0.8992454505104306
2253,-1,-1,6,2021,3,224,0.8992901508429458
2254,-1,-1,6,2022,3,224,0.8993348115299334
2255,-1,-1,6,2023,3,224,0.8993794326241135
2256,-1,-1,6,2024,3,224,0.8994240141781126
2257,-1,-1,6,2025,3,224,0.8994685562444641
2258,-1,-1,6,2026,3,224,0.8995130588756087
2259,-1,-1,6,2027,3,224,0.8995575221238938
2260,-1,-1,6,2028,3,224,0.8996019460415745
2261,-1,-1,6,2029,3,224,0.8996463306808135
2262,-1,-1,6,2030,3,224,0.8996906760936809
2263,-1,-1,6,2031,3,224,0.8997349823321554
2264,-1,-1,6,2032,3,224,0.8997792494481236
2265,-1,-1,6,2033,3,224,0.8998234774933804
2266,-1,-1,6,2034,3,224,0.8998676665196295
2267,-1,-1,6,2035,3,224,0.8999118165784833
2268,-1,-1,6,2036,3,224,0.8999559277214632
2269,-1,-1,6,2037,3,224,0.9
2270,-1,-1,6,2038,3,224,0.9000440334654337
2271,1,-1,6,2038,3,225,0.8996478873239436
2272,-1,-1,6,2039,3,225,0.8996920369555653
2273,-1,-1,6,2040,3,225,0.899736147757256
2274,-1,-1,6,2041,3,225,0.8997802197802198
2275,-1,-1,6,2042,3,225,0.8998242530755711
2276,-1,-1,6,2043,3,225,0.8998682476943346
2277,-1,-1,6,2044,3,225,0.8999122036874452
2278,1,-1,6,2044,3,226,0.8995173321632295
2279,1,-1,6,2044,3,227,0.8991228070175439
2280,-1,-1,6,2045,3,227,0.8991670320035072
2281,-1,-1,6,2046,3,227,0.8992112182296231
2282,1,-1,6,2046,3,228,0.8988173455978975
2283,-1,-1,6,2047,3,228,0.898861646234676
2284,-1,-1,6,2048,3,228,0.8989059080962801
2285,-1,-1,6,2049,3,228,0.8989501312335958
2286,-1,-1,6,2050,3,228,0.8989943156974202
2287,-1,-1,6,2051,3,228,0.8990384615384616
2288,-1,-1,6,2052,3,228,0.8990825688073395
2289,-1,-1,6,2053,3,228,0.8991266375545851
2290,1,-1,6,2053,3,229,0.8987341772151899
2291,-1,-1,6,2054,3,229,0.8987783595113438
2292,-1,-1,6,2055,3,229,0.8988225032708242
2293,-1,-1,6,2056,3,229,0.8988666085440279
2294,-1,-1,6,2057,3,229,0.8989106753812636
2295,-1,-1,6,2058,3,229,0.8989547038327527
2296,1,-1,6,2058,3,230,0.8985633434915107
2297,-1,-1,6,2059,3,230,0.8986074847693647
2298,-1,-1,6,2060,3,230,0.898651587646803
2299,-1,-1,6,2061,3,230,0.898695652173913
2300,-1,-1,6,2062,3,230,0.8987396784006954
2301,-1,-1,6,2063,3,230,0.8987836663770634
2302,-1,-1,6,2064,3,230,0.8988276161528441
2303,-1,-1,6,2065,3,230,0.8988715277777778
2304,-1,-1,6,2066,3,230,0.8989154013015185
2305,1,-1,6,2066,3,231,0.8985255854293148
2306,-1,-1,6,2067,3,231,0.8985695708712613
2307,1,-1,6,2067,3,232,0.8981802426343154
2308,-1,-1,6,2068,3,232,0.8982243395409268
2309,-1,-1,6,2069,3,232,0.8982683982683982
2310,-1,-1,6,2070,3,232,0.8983124188662917
2311,-1,-1,6,2071,3,232,0.898356401384083
2312,-1,-1,6,2072,3,232,0.898400345871163
2313,-1,-1,6,2073,3,232,0.8984442523768367
2314,-1,-1,6,2074,3,232,0.8984881209503239
2315,-1,-1,6,2075,3,232,0.8985319516407599
2316,-1,-1,6,2076,3,232,0.8985757444971947
2317,-1,-1,6,2077,3,232,0.8986194995685937
2318,-1,-1,6,2078,3,232,0.8986632169038379
2319,-1,-1,6,2079,3,232,0.8987068965517241
2320,-1,-1,6,2080,3,232,0.8987505385609651
2321,-1,-1,6,2081,3,232,0.8987941429801894
2322,-1,-1,6,2082,3,232,0.8988377098579423
2323,-1,-1,6,2083,3,232,0.898881239242685
2324,-1,-1,6,2084,3,232,0.8989247311827957
2325,-1,-1,6,2085,3,232,0.8989681857265692
2326,-1,-1,6,2086,3,232,0.8990116029222175
2327,-1,-1,6,2087,3,232,0.8990549828178694
2328,-1,-1,6,2088,3,232,0.8990983254615715
2329,-1,-1,6,2089,3,232,0.8991416309012875
2330,-1,-1,6,2090,3,232,0.8991848991848992
2331,-1,-1,6,2091,3,232,0.8992281303602059
2332,-1,-1,6,2092,3,232,0.899271324474925
2333,-1,-1,6,2093,3,232,0.8993144815766924
2334,-1,-1,6,2094,3,232,0.8993576017130621
2335,-1,-1,6,2095,3,232,0.8994006849315068
2336,1,-1,6,2095,3,233,0.8990158322635858
2337,-1,-1,6,2096,3,233,0.8990590248075278
2338,-1,-1,6,2097,3,233,0.8991021804189825
2339,-1,-1,6,2098,3,233,0.8991452991452992
2340,-1,-1,6,2099,3,233,0.8991883810337462
2341,-1,-1,6,2100,3,233,0.8992314261315115
2342,-1,-1,6,2101,3,233,0.8992744344857021
2343,-1,-1,6,2102,3,233,0.8993174061433447
2344,-1,-1,6,2103,3,233,0.899360341151386
2345,-1,-1,6,2104,3,233,0.8994032395566922
2346,-1,-1,6,2105,3,233,0.8994461014060503
2347,-1,-1,6,2106,3,233,0.899488926746167
2348,-1,-1,6,2107,3,233,0.8995317156236696
2349,-1,-1,6,2108,3,233,0.8995744680851064
2350,-1,-1,6,2109,3,233,0.899617184176946
2351,-1,-1,6,2110,3,233,0.8996598639455783
2352,-1,-1,6,2111,3,233,0.8997025074373141
2353,-1,-1,6,2112,3,233,0.8997451146983857
2354,-1,-1,6,2113,3,233,0.8997876857749469
2355,1,-1,6,2113,3,234,0.8994057724957555
2356,-1,-1,6,2114,3,234,0.8994484514212983
2357,-1,-1,6,2115,3,234,0.8994910941475827
2358,-1,-1,6,2116,3,234,0.8995337007206443
2359,-1,-1,6,2117,3,234,0.8995762711864407
2360,-1,-1,6,2118,3,234,0.8996188055908514
2361,-1,-1,6,2119,3,234,0.8996613039796783
2362,-1,-1,6,2120,3,234,0.8997037663986458
2363,-1,-1,6,2121,3,234,0.899746192893401
2364,-1,-1,6,2122,3,234,0.8997885835095137
2365,-1,-1,6,2123,3,234,0.8998309382924767
2366,1,-1,6,2123,3,235,0.8994507815800592
2367,-1,-1,6,2124,3,235,0.8994932432432432
2368,-1,-1,6,2125,3,235,0.8995356690586745
2369,-1,-1,6,2126,3,235,0.8995780590717299
2370,-1,-1,6,2127,3,235,0.8996204133277098
2371,-1,-1,6,2128,3,235,0.8996627318718381
2372,-1,-1,6,2129,3,235,0.8997050147492626
2373,-1,-1,6,2130,3,235,0.8997472620050547
2374,-1,-1,6,2131,3,235,0.8997894736842105
2375,-1,-1,6,2132,3,235,0.8998316498316499
2376,-1,-1,6,2133,3,235,0.899873790492217
2377,-1,-1,6,2134,3,235,0.8999158957106812
2378,-1,-1,6,2135,3,235,0.899957965531736
2379,-1,-1,6,2136,3,235,0.9
2380,-1,-1,6,2137,3,235,0.9000419991600168
2381,-1,-1,6,2138,3,235,0.9000839630562553
2382,1,-1,6,2138,3,236,0.8997062526227444
2383,-1,-1,6,2139,3,236,0.899748322147651
2384,-1,-1,6,2140,3,236,0.89979035639413
2385,-1,-1,6,2141,3,236,0.8998323554065382
2386,-1,-1,6,2142,3,236,0.899874319229158
2387,1,-1,6,2142,3,237,0.8994974874371859
2388,-1,-1,6,2143,3,237,0.8995395562997069
2389,-1,-1,6,2144,3,237,0.899581589958159
2390,-1,-1,6,2145,3,237,0.8996235884567126
2391,-1,-1,6,2146,3,237,0.8996655518394648
2392,-1,-1,6,2147,3,237,0.8997074801504388
2393,-1,-1,6,2148,3,237,0.899749373433584
2394,-1,-1,6,2149,3,237,0.8997912317327766
2395,-1,-1,6,2150,3,237,0.8998330550918197
2396,-1,-1,6,2151,3,237,0.899874843554443
2397,-1,-1,6,2152,3,237,0.8999165971643036
2398,-1,-1,6,2153,3,237,0.8999583159649854
2399,-1,-1,6,2154,3,237,0.9
2400,-1,-1,6,2155,3,237,0.9000416493127863
2401,-1,-1,6,2156,3,237,0.9000832639467111
2402,1,-1,6,2156,3,238,0.8997086974615065
2403,-1,-1,6,2157,3,238,0.8997504159733777
2404,-1,-1,6,2158,3,238,0.8997920997920998
2405,-1,-1,6,2159,3,238,0.899833748960931
2406,-1,-1,6,2160,3,238,0.8998753635230577
2407,1,-1,6,2160,3,239,0.8995016611295681
2408,-1,-1,6,2161,3,239,0.8995433789954338
2409,-1,-1,6,2162,3,239,0.8995850622406639
2410,-1,-1,6,2163,3,239,0.8996267109083368
2411,-1,-1,6,2164,3,239,0.8996683250414593
2412,-1,-1,6,2165,3,239,0.8997099046829673
2413,-1,-1,6,2166,3,239,0.899751449875725
2414,-1,-1,6,2167,3,239,0.8997929606625259
2415,-1,-1,6,2168,3,239,0.8998344370860927
2416,-1,-1,6,2169,3,239,0.8998758791890774
2417,-1,-1,6,2170,3,239,0.8999172870140613
2418,-1,-1,6,2171,3,239,0.8999586606035552
2419,-1,-1,6,2172,3,239,0.9
2420,-1,-1,6,2173,3,239,0.9000413052457662
2421,-1,-1,6,2174,3,239,0.9000825763831544
2422,-1,-1,6,2175,3,239,0.9001238134543954
2423,-1,-1,6,2176,3,239,0.9001650165016502
2424,-1,-1,6,2177,3,239,0.9002061855670103
2425,-1,-1,6,2178,3,239,0.9002473206924979
2426,-1,-1,6,2179,3,239,0.900288421920066
2427,-1,-1,6,2180,3,239,0.9003294892915981
2428,-1,-1,6,2181,3,239,0.9003705228489091
2429,-1,-1,6,2182,3,239,0.9004115226337449
2430,-1,-1,6,2183,3,239,0.9004524886877828
2431,-1,-1,6,2184,3,239,0.9004934210526315
2432,1,-1,6,2184,3,240,0.9001233045622689
2433,1,-1,6,2184,3,241,0.8997534921939194
2434,-1,-1,6,2185,3,241,0.8997946611909651
2435,-1,-1,6,2186,3,241,0.8998357963875205
2436,-1,-1,6,2187,3,241,0.8998768978251949
2437,-1,-1,6,2188,3,241,0.8999179655455292
2438,-1,-1,6,2189,3,241,0.8999589995899959
2439,-1,1,6,2189,4,241,0.8995901639344263
